{"sizes": [784, 120, 100, 60, 60, 50, 40, 30, 10], "weights": [[[-0.020526667889561336, 0.022419428607458207, 0.002811862597195037, -0.05389505518883446, 0.02123531900724247, -0.0061156787862242015, 0.00032025863423090247, 0.009795871903274892, -0.038959196425768915, -0.0011970716499315334, -0.03732221539483514, 0.01696573372341886, -0.06009426253687907, -0.014930572030952998, 0.025276901968073917, 0.010303082723424313, 0.044649236734968116, 0.09274478472069704, -0.0049192286593998215, -0.037977637855032755, -0.029886326790168068, 0.030488060258693415, -0.011731005201305019, 0.042076800424475855, 0.01589236297826919, -0.03266490666767585, -0.009396436013707005, -0.03287281152882774, -0.036595649536250684, -0.003998351436336377, 0.06889299521295376, -0.024062612137850697, -0.030158550710942585, -0.09196874864060846, -0.03450581813386744, -0.04576074538191245, -0.00508315265674351, 0.020340861699192907, 0.009841113279169231, -0.03279841782470921, -0.021644298368855005, -0.009037834520077647, -0.02376148879095989, -0.015394291545386516, 0.004725580933595271, -0.008460627195291672, -0.02909891703690391, 0.016291273790573508, 0.00853713867179807, -0.05222029609547207, -0.05417906793976854, 0.00886299372344283, -0.015960406712750373, 0.004308442342571683, -0.013399519714307404, -0.04154558802676677, -0.05350631176852278, -0.028186728359385287, 0.027856419423133372, -0.07466113336104171, 0.0036675525147533894, 0.047551489593777016, 0.013789907477721032, 0.03398852020820583, 0.02202624490978071, -0.043944706812588934, 0.004926874776965223, -0.05573737515245482, 0.011909795610995696, 0.055133649887394214, 0.005954695504408702, 0.017556184841621702, 0.017302318781335032, -0.005708195013036427, -0.02808967276231013, -0.00015739953083351532, -0.01443723155671951, 0.02936112628919348, 0.016099831348798513, -0.010590096614658562, 0.0615888557203061, 0.021493523894327023, -0.0030320744410621365, -0.01923599254348948, 0.02136481869317661, -0.0270621748420534, 0.040286684518652416, 0.061816927657848686, -0.024291271647392403, -0.017064431931259273, 0.0029164352643797336, -0.04968664382178721, 0.041515097771792006, 0.005965842465880955, 0.025948918473410753, -0.011511759630346853, 0.043725571050379504, -0.035110703583206726, -0.04331867024253733, 0.023930010473081798, 0.06343275176386932, 0.023027242050122392, -0.05877176031467494, 0.06335953529324805, -0.0886800874890999, -0.036458526305726484, 0.06169823639023844, 0.02383200346630356, 0.011684391605181565, 0.005724735882238385, 0.013735623905128228, -0.0020700299797014477, -0.025008253863682085, -0.016876771016690162, 0.049873806012746644, -0.044745559295199744, -0.012699806180212986, -0.0172938820831627, 0.025563759108920885, -5.267620940012794e-06, -0.07322640364499157, 0.0036302000505022223, -0.07259240388395939, -0.0026943214708516775, 0.07896609780242876, 0.03222515557053906, -0.019115440611261216, 0.03210127829164759, 0.03614812369183339, -0.010072406771456871, -0.023366106702804028, -0.008051965203500037, 0.03766902399269428, 0.036332451509418, -0.0027871085525084213, 0.008990177671312024, 0.0594419830776806, -0.03188753177825854, -0.01596559846313539, -0.009244967695974384, 0.02486775567553212, 0.049283922045536166, 0.009815261856509041, 0.014152781128430629, -0.0439347556204289, -0.07432534872966697, -0.043194767978446874, 0.0073421971858259796, -0.02131603140124234, 0.019569309400732395, 0.0538251265106314, 0.04460000911991152, 0.0050242797721775645, -0.02408875764208179, -0.026970372889398554, 0.03260323879711938, 0.0025327463212732253, 0.03024544082414883, 0.021964596480318895, -0.052258417940397824, 0.0002612081350367482, 0.0036654404274340056, 0.11000811348793725, 0.07388132018313195, -0.0085198119346414, 0.02691463105677967, 0.01856362378502072, -0.052610888385818864, 0.03265690432718595, -0.006584432594402158, -0.055962180056259726, 0.03760704311969074, 0.10052806708280036, 0.048223362165148186, -0.01741436685775817, -0.01214619073893266, -0.013460097844683244, -0.021569269332597677, -0.015347634032653696, -0.046881787361272416, -0.028875550959896048, -0.046189405781939905, -0.026879972320034636, 0.026606420495523798, -0.011750351026598506, -0.010220205609153056, 0.0024786475506674353, 0.009067801800096552, 0.06622044449588783, 0.03848738424960229, 0.0042050294059892595, 0.02435325624290046, 0.044867895695003795, -0.0021070564913763315, 0.01465046310695719, -0.03028868138661415, -0.014977461905499371, -0.024380662655149595, -0.04289925162823601, -0.012871818984993028, 0.011452933301321815, 0.010729530577280991, 0.031003186240095675, -0.018988970597708044, 0.012982111204407457, 0.0028110658871832784, -0.0289933764198933, 0.022140664019282347, 0.03383051189499686, 0.03455849156158262, 0.02594473241068843, 0.023111722161567306, 0.01546691400299791, 0.011538985069290766, 0.027523829420956283, -0.042040741480324884, -0.026416401485737886, 0.013375362725181304, 0.0006715158535873873, -0.009947140227814627, -0.03694206385082931, -0.08540659470516412, 0.014887888395361818, -0.02072409654449969, 0.010219334781093598, 0.007361521931210666, -0.02078164645847329, 0.01739416144533265, -0.014549281540815974, 0.059048118368452786, 0.004734221912583776, 0.04863072966199401, 0.055710421613969635, 0.018408180926079126, 0.015363765087835098, 0.033983755271171666, -0.011259170063788066, 0.046453291545554075, -0.0642959716764155, -0.0010644534408973628, 0.03839878887074508, 0.08923505162324531, 0.02588846110906757, 0.03525740529310052, -0.02337404555230327, -0.06018640311708877, 0.013908775017699798, 0.004353505516416858, -0.001325200714178747, 0.0010952212201091698, -0.014140466620581575, -0.05140981130481647, -0.04305428245190958, -0.0010149899498020632, -0.006437949619136223, 0.029979740385548105, -0.031156473291310192, -0.06298469455695338, 0.0141493276926944, 0.04293463183298545, 0.04474460075040128, -0.03339188981441113, 0.010111044221995682, 0.011646807040016405, 0.07369334309249317, -0.029479361354467454, -0.012720569824625778, 0.01422511674379945, -0.019892837097699068, -0.01917468276302466, -0.0037957090573447903, -0.0075183906892032784, 0.0254985431061518, 0.012049196681818078, 0.001643925271278809, -0.025817917046150777, -0.04606915076820956, -0.043632672926521475, 0.03116126389037016, -0.04125319084131415, -0.04063592453465826, -0.02096596040761508, -0.001230283765369293, -0.02123075450801265, -0.0792725477642471, -0.01338393588253758, 0.0262050910129198, -0.0016148587824128592, 0.028898566405523112, -0.045233441188386896, 0.022007715857777988, -0.01555963854409323, 0.004474419197764197, -0.016861253308451982, -0.005723587491924572, -0.09221828471974192, -0.06670974320439954, 0.017437164621168712, 0.026243521099780096, -0.034723582019938255, 0.03969827088479292, 0.04490706060271693, 0.0033591155249777078, 0.014304866500309592, 0.04065267397723766, 0.05319779878311352, -0.025237718636721095, -0.03685988383165544, 0.039956954728082465, 0.025373981666156196, -0.027793837184819793, 0.009199285908340338, -0.04773219952660316, -0.053195828934740445, -0.043142402803991495, 0.07978311031337838, -0.0507475939136336, 0.05189752761328855, 0.00940885671823127, -0.03349771692647449, -0.08961891064058829, -0.04232803168702754, -0.029298851393629297, -0.023870050191619998, -0.023387754451460595, -0.03212520947317102, -0.019292453657587524, -0.016223875038982604, -0.037542218764010676, 0.06134305993772013, -0.004925473506582072, -0.03135774422373631, -0.03447351974463388, 0.024241561930707742, -0.009924985760638362, -0.022270981558073537, 0.022335382416181035, 0.037893223151478334, -0.038120081569441494, 0.06762848129571962, -0.04182176134795485, 0.02119014590915598, -0.05278250774658892, -0.017238986738424295, 0.011853169684172334, -0.03216352158663741, 0.034921293341922025, -0.06099433592227983, -0.028104586490563466, 0.027301455861877186, -0.00040499697332113953, -0.01860906894098916, -0.042261446766256254, -0.0404004227103164, -0.003863215239424807, -0.022613169967821797, -0.012466572555459946, -0.013479249567541339, 0.04836404605647317, -0.020859039225936907, 0.013500908433310737, -0.02031890500158148, -0.028329421398686445, 0.029888343996573755, -0.04391129448768235, 0.003830926158363009, -0.001997027189413983, -0.005098458844818042, 0.013981497169736802, 0.04794149914997917, 0.0685094239595055, -0.018329848600790948, -0.01788806261430664, 0.009350036078408553, 0.009783157254731395, -0.01988698649366242, 0.08990317418567342, -0.018890352722945827, -0.024738058577897654, -0.018655428029872505, -0.002413452718268605, 0.03197473339669427, 0.07562083046179213, 0.0020538349171459174, 0.0097252405509564, -0.037337270952615145, 0.04203659702454625, -0.00863830126305914, -0.034849518394535955, 0.011477021657014407, -0.016130143084779267, -0.03255143803293286, -0.006712195733217187, -0.0029886982535748826, 0.029938515040770965, 0.028535405809191106, -0.025080807221650372, 0.03477423038058284, -0.03750082943884468, 0.0299202032358788, 0.02028847253506108, 0.048325087250487744, -0.006800321188600659, -0.02083368518066417, 0.033987244977769414, 0.026673297925685565, -0.00696599753108826, -0.023879539646652504, -0.016189067347821877, 0.04486848524089623, -0.01350597922611469, 0.05274600318859348, -0.02175733272791162, 0.03807491150543622, -0.09340369742372272, 0.03988818038738814, 0.08649918974566415, -0.06636861391689951, -0.007321818260667707, -0.0317291654102284, 0.0016335526228426626, -0.04521501563416822, -0.014428223639981072, 0.04022423544498974, -0.040664082008997675, -0.06020364332709042, -0.02363320159831349, 9.853790025788103e-05, 0.0018786170122012244, 0.05071473273091263, 0.05871807688031189, -0.007944800641977608, 0.003612869577134674, -0.005923244527642982, -0.01095302724179102, 0.02988520467963232, 0.03666420576195662, 0.01049268673833352, 0.020314428537048818, -0.03620273481430361, -0.01783355173759674, -0.00645562135395269, -0.023038654025573462, 0.04391453588516675, 0.007488623819933363, 0.002425660460404412, 0.02945651999785897, 0.02628218632556004, 0.016465847017583215, -0.055974697819063175, 0.014395115092384845, 0.020135657140825824, 0.039041921761175095, 0.03910327191132705, -0.012612783186288157, 0.02725261250840609, -0.03507568971474548, -0.01062176059967964, 0.07584604572565126, -0.022587301649526836, 0.048289607040537225, 0.021876748957197878, -0.022646872011788586, 0.01682577438260347, -0.023960054234048515, 0.030779169087509817, 0.045684115254566025, 0.02187290782355496, -0.06709618546907732, -0.008789076242271146, 0.012372828813413077, 0.0002246235979192886, 0.052062353792581346, -0.010249009815439613, -0.03498266560123679, 0.01346957604432563, 0.013223167565101139, 0.021237581577810045, 0.005180185278642969, -0.011157006077858234, -0.045438871204484955, 0.03295288286527857, 0.014159395755229535, -0.041062471827689635, -0.015092144351359048, 0.043619746454829675, -0.05782632959956088, 0.033460585701846075, -0.031212486107173396, 0.01151894129170618, 0.03151624790816905, 0.01954759909233844, -0.00038073099021945284, 0.016396756942360174, 0.008974079018845038, 0.02522004443067429, 0.003674365128455776, -0.10230230889729891, 0.012766318377830837, 0.004433952006740469, 0.028708411179813927, -0.0361169395245974, -0.005855831709324195, 0.038283103629568764, -0.04684381350443594, -0.014318284926802713, 0.003507382486411994, -0.05959886103448444, 0.017343367719422003, 0.06721443114977066, 0.021884078178000595, 0.04107028481135967, -0.0011332438497693373, -0.053811044836439954, -0.03163578407049427, 0.013968908267388376, -0.01918613615903547, 0.04795399772426623, 0.015494304116086008, 0.03149558914711751, 0.004251846489564893, 0.0008446158644507364, 0.03504672384503819, 0.0199783196237586, -0.012548197931146808, -0.05717535555351209, -0.0190160261984305, 0.014851428670006179, -0.015924226668734488, 0.08560677823185815, -0.0010140087968039898, -0.07618945047519689, -0.000363362133830433, -0.04374918793698408, -0.030787371981887638, -0.003152406458612272, 0.027649164379643248, 0.021101606267618003, -0.07064423974371764, 0.001146668518397621, -0.030128211299147896, -0.026615217839824883, 0.009835630727489358, -0.025791458236482368, -0.0009762479063588741, -0.03719825504362916, 0.02951907390804852, -0.061464379138401394, 0.027584776178470192, -0.028993008594561755, 0.07885817476026007, -0.0071001537839473555, 0.02824039661172472, -0.01022587780302811, -0.004031945647019961, -0.042268386885254715, -0.03205136042755262, 0.011626164500292817, -0.06604039532039173, -0.044697348359866454, 0.002523253318764639, 0.011152309583042044, 0.047469794049051744, 0.05640299152433756, -0.03606231380288881, 0.019618179592882964, -0.0020302992107217154, -0.04055146343033502, 0.04617618855121218, 0.004620398832638719, 0.018449703090221606, -0.0004074466993146617, 0.020243081034218378, -0.021841010420426885, -0.03613621633960185, -0.0156328082569111, -0.024221961791566406, -0.0014278137865377121, -0.009245846269944454, -0.004932564421457911, 0.09729237911280121, -0.0019024568488020704, -0.0030046735849758727, -0.039075190771254854, -0.007205537950759627, 0.04975878089406012, 0.05671576196199164, -0.024773401565304408, 0.04924255120097544, 0.01756157007701011, 0.059594511201524605, 0.04470615168915599, -0.05531686977642671, -0.0037937049490810422, -0.067081352444313, -0.0006026773056457412, -0.0073150861038360155, -0.008981910916182619, -0.04812513778607913, -0.019631119377095906, -0.02120569257621568, 0.005165203473263653, 0.022265851471424132, 0.03354083576579938, 0.009166993604523397, 0.0378576577999232, 0.027032006715998314, -0.012206420121076145, -0.008865908517468655, 0.008617482288288228, -0.04220702215739601, 0.04126399994958349, 0.003977563945582357, -0.02427608652498533, -0.05863166941139214, 0.00012365908452321913, -0.005163526625692341, 0.03199508946723927, -0.017289768548475113, -0.05228650115444519, -0.05900757715993196, 0.010207529518631266, 0.04192139739621837, 0.020664647573827216, 0.01335915469628339, 0.00647215905706109, 0.05664183641513448, -0.04023566630197413, 0.002224247455403132, -0.030554564227717518, 0.017926480772012008, 0.015372189044774963, 0.017177681913082683, -0.0034805521511382777, -0.012649621537215496, -0.015557485873791526, -0.023719557439165803, -0.012797948216873113, -0.0012271326734369728, -0.011289365656698873, -0.02463752930234141, -0.08505426891953159, 0.01526184869834717, 0.0015966246974488526, -0.0027986183887470048, -0.023610785587229174, 0.029106102278694777, 0.023664997571385602, -0.07223023905503902, -0.0022467514449640816, -0.09739016958167276, 0.011204392178716407, 0.013477224849274072, 0.0002629790577485635, -0.021450716533389723, -0.004457116593773957, -0.038993875458926526, 0.005100210134223434, -0.07511419130204008, -0.009717769424913427, -0.005936117694174494, -0.011429301274642872, 0.021371397739989778, -0.03853363784611741, 0.01877514514303007, 0.053528577318771135, 0.0049440995455410095, 0.017477822002443237, -0.013543418518228177, -0.0026473086986394017, 0.0006362095304922142, -0.006903794236789077, 0.03738902338086442, 0.0316934095685881, -0.005078903695401911, -0.03222011951491821, 0.09752736670426711, -0.042071162837258105, -0.06954715502069447, 0.0036902688019193144, 0.03906347180370146, 0.04384693905279764, 0.06148272815851876, -0.03412505244240903, -0.03886744882128819, -0.014694904305781442, -0.0015643217776021203, 0.010549877730201683, 0.0005032739377537818, -0.018095294608161516, 0.01026441183708725, -0.014890606238263701, 0.010142656187789109, -0.01911700523483848, 0.014419952668991478, 0.06222217873811853, 0.007308460993266029, -0.04658746064458385, 0.0019471461966131733, 0.008268778501164243, -0.05126478007875178, 0.038764612342434404, 0.06552848877667464, 0.02081202364186226, -0.07129146156774767, -0.01286704393133282, -0.04198205176680896, -0.004811900841457205, 0.04922780012629565, -0.0781893459366111, -0.010976005859054222, -0.04531402178341573, -0.03500997575570001, -0.01702797119626086, 0.03687239151945356, 0.026388238461597623, -0.020434632516096896, -0.017667391147028772, -0.05643974409795028, -0.0031005914984986315, 0.014091479598181763, -0.026298901286095987, -0.11065211412223762, 0.05159006214856222, 0.022473630956127838, -0.03632960647880451, 0.015235011606514668, -0.011600128285788713, 0.006032964833526159, -0.00038014418012349973, 0.014140191064914664, 0.04401473846391634, -0.008466324328646654, -0.015160384128049374, 0.04427427150028291, 0.026002524720295146, -0.007529144679618095, -0.026375508654349976, -0.03067067871491506, 0.008381805742783981, -0.028008676042987988, 0.01040727049417507, -0.0006099050253713241, -0.059220866223552715, -0.003514488805672607, -0.03570659346235255, -0.014546988794413452, -0.030407180526823643, -0.021069390540039347, -0.006603338034478443, -0.020408876936982644, -0.0038508229529499965, -0.0033617465648085394, -0.04653007995703257, 0.012185221013747078, 0.004508737919523705, -0.029226673128644024, -0.015539510706047626, 0.002433608266610519, 0.004381712068571342, -0.00300717458185354, 0.0011786604848926286, -0.019946041158169038, -0.01011038094975917, -0.0025009293868106007, -0.03138880667803782, 0.02963495819138558, 0.016318225700992953, 0.027066948026533325, 0.08015755003098186, 0.015098911071665406, -0.09082205540499975, 0.03731079010991558, -0.01171594775293058, 0.021110611851551556, -0.0005033110062675673, 0.030994819407019057, -0.025778544551476344, 0.031074010704804342, -0.018622821019967196, 0.05595115570868809, 0.02262315105351754, 0.020764388358418654, -0.0018472099990810788], [-0.017430385430196826, -0.023950279877396837, -0.038535532419430106, 0.059315694760047374, 0.01459374457301094, 0.06307402078552174, -0.06942042080715186, 0.03713570475034709, -0.008916022452115738, 0.014062681244803686, -0.030688078357445192, -0.017851210017859793, -0.0069944543969915176, 4.412734882659619e-05, 0.01969206833726518, 0.03342390823645588, 0.06757067526471405, -0.03763363840077958, 0.030812952065233493, -0.005908609320038514, -0.0007938446474847241, 0.06715929811092256, 0.031540366276590244, 0.01768026145411629, 0.02609466242292679, -0.0315970590540854, -0.08716237540553422, 0.030977709817991615, 0.00792525444975826, -0.026618440631262865, -0.011665201914767888, 0.004482836013391658, -0.02730024808780308, -0.019244316493193532, -0.023240594132771054, 0.03076960018589869, -0.00854702886533264, -0.01056447909777519, -0.045002324904976944, 0.03449892177800333, 0.06902016525582563, 0.025580095672563807, -0.006101966560339785, -0.07064197989144402, 0.013756576794636266, 0.040553540549122476, 0.010236971659626703, -0.015673628602956693, 0.022642627714874707, -0.02209945238783124, -0.05329954149550884, -0.0541678538278157, -0.001244511423832924, 0.027719527619619082, -0.014379082551491814, -0.008998411721401783, 0.034174545365505016, 0.019847621992938113, -0.0445684211223298, -0.008870426417810759, 0.01551919141106935, 0.008207752321595868, 0.03738927054945957, -0.02658793379469481, 0.03747577672494857, 0.07255599660674006, 0.025472676541573418, -0.013686082647319188, 0.019695510569931893, -0.03274088416418338, 0.033616692404217614, 0.019605600229098897, -0.004952662405937875, 0.025618910091666072, -0.04881572193748056, -0.025438885341965697, 0.013435530306844032, -0.0190269008056074, -0.01543550701220489, 0.009031363973846778, 0.007041558996304854, 0.02738625225419867, 0.004192759783703982, -0.04130792245584236, 0.047174816145832486, -0.07367177056420428, -0.046522305363716265, 0.06922913212689402, 0.0006092794140161391, 0.021047705494226864, 0.019108412599490036, 0.0046131782081480655, -0.02582353277211328, -0.020561548717344332, 0.030336905755922537, -0.018020331400342416, -0.04200500934384191, 0.02556763520233601, 0.011132689088634826, 0.061335753845149256, -0.04431931357788538, 0.010297769577234592, -0.0052702700853404245, -0.03863399932522657, 0.0191905292541591, 0.06254981804469137, 0.01928455279612346, -0.002962944663056541, 0.02211225968861916, 0.0029222642508924973, -0.009054137325616761, -0.03252938961993265, -0.04008827040409745, -0.008976871709925636, 0.04406567618525008, -0.008626598767554526, 0.04545614473644396, 0.06897562009767966, -0.0209579725775292, -0.02949048100634912, 0.04319377818364188, -0.034930772295047166, 0.01080807480137696, -0.07506886812990639, 0.04342008470939924, -0.0239851797944471, 0.04319007552071709, -0.009343879738209035, 0.012353729116007104, 0.00736887210243413, 0.02361983119856218, 0.013221860341500507, 0.035138771223955256, -0.03757403247217407, -0.0048172800215114, -0.031147007792588936, 0.016395313561639393, -0.021238880702309913, -0.009789216397342199, 0.037692434063263974, -0.051330618734192465, -0.014389371844369944, -0.003804396666864341, 0.017137924620510014, -0.0017624694406213998, 0.031838814060030855, 0.01728424800324814, 0.05354875349943545, 0.05815708222819365, 0.01763865920271368, -0.021404117883990693, -0.029891239620442822, 0.032278005069279886, -0.016787719127044267, 0.09421917565096101, -0.0282938109691558, -0.0063926595969802935, -0.043517466813490974, 0.003402839692958083, -0.003349183148869096, 0.025843851891010947, -0.024820714856251768, -0.023879072498043104, 0.022493370778732192, -0.009947194101927752, 0.004557570160696028, -0.008223416933163136, -0.016099425850059294, 0.07731557131187895, -0.026263537859417554, -0.003430341527737427, -0.008248860987981122, -0.06471952384490347, 0.002040933700448352, -0.003348313348120844, -0.0014753155764827175, -0.029859882020639703, 0.015636739230719936, -0.009006558472557567, 0.051126749494853976, 0.0036527474279691645, -0.012081656841766892, 0.004687139562312337, -0.0014572418312227768, 0.005464076103905918, -0.01343129203844887, 0.003829093406291013, -0.05093895587172036, -0.0013347393107900282, -0.02935778516488407, 0.0015503445033338442, 0.020059693016664742, -0.024512279936801298, -0.028550122154284274, 0.009052410314393527, 0.0188873157912102, -0.08492774742388289, 0.03884166999656321, -0.039479564661120986, -0.00027782792514123263, 0.08589982590403071, 0.02776635876608178, -0.03708796073232718, -0.012541261328832515, 0.020469890270918903, 0.029056197171335504, -0.0013239633130555423, 0.004144416263437664, 0.030918369948060923, -0.07598461105297008, 0.023663418671260195, 0.0492895870560983, 0.03126224795119042, -0.06675409148163491, 0.043650568858398194, 0.011417890921877984, -0.04890086508090591, -0.006069762340077399, -0.059804784824607715, 0.025457097044848897, -0.011900307690540153, -0.03169969649552278, 0.0026173414967815547, 0.0047906384450415, 0.023589666599875065, -0.0639819963889061, 0.004397793743508392, 0.022548268022212884, 0.0462896322104447, 0.023876639815515042, 0.016837061505046116, -0.02407507337450871, -0.03366850603291503, 0.07277267722692442, -0.0064372724516304925, 0.00048109341479092766, -0.015919698678710632, -0.034908329793776026, -0.02580099074844237, -0.03494417600617438, -0.00814536148742677, 0.021011321401733153, -0.03575406326189695, -0.007175308579064372, -0.0068502358067158466, -0.006707566361408003, -0.03096885596272391, 0.06082966100992655, 0.061068479738825655, -0.0050591614730897795, 0.044410390839627036, -0.002953625281063246, 0.061839141094674456, 0.007738649712796023, 0.022841735248377997, 0.0015991157916607117, 0.04200238376782283, 0.017465978910297247, 0.016109752553065966, 0.02369448477692763, 0.02044300228549887, 0.03679585598986668, 0.012726898691273218, 0.0028125693754913954, -0.04584120667185851, -0.026315642209071635, -0.09409852532313087, 0.03078521943448226, 0.008848112876695718, 0.004738324911734827, -0.014458209420630691, 0.004701928686608272, -0.024542799515425713, 0.03578058193548026, 0.023517973162960108, -0.07602455734825822, -0.056796334847018695, -0.005803683129255161, -0.11257386815869957, -0.04570558911438777, 0.018539289551969783, -0.008990243229121385, 0.014129896114008457, 0.04310468284130976, -0.07699456311977092, -0.019313604321375903, -0.03232552122707319, -0.003969890924542891, 0.0022139017230060247, -0.038759411841407104, -0.009799166777429954, 0.029364144584533555, 0.009176676417096253, -0.028775508133368877, 0.04830400583915018, -0.051342819754958545, -0.060693616835559155, 0.0030975417126906475, 0.02223170352607753, -0.046426616894235224, -0.07109042438073429, 0.008353560221827818, 0.06319840429814731, 0.0733513050176179, -0.018147860636978035, -0.04175872241268016, -0.01900604637071799, -0.018420330994223987, -0.016667065777907216, -0.046542697344303496, 0.005961275268200186, 0.023343901296977446, 0.02830087557670893, 0.040507710815957804, -0.02362182345435765, -0.023247442268116498, -0.016802064185068865, 0.07479609252451415, 0.07839680295404852, 0.014838297101174394, -0.033835554529146376, 0.01936964237526618, -0.03757772418332629, 0.016257602332443874, 0.004552264536659627, -0.006174002335671458, -0.009044437256074287, 0.019813642622726245, 0.019488022590001444, -0.04594317057703136, 0.020056102691636025, 0.0147737780331006, 0.02533426676652096, -0.0035351600764733904, -0.022079232647572677, 0.04112873885620824, -0.026410160840682186, -0.006730741273314991, -0.036430055746623016, 0.046046279707800286, -0.02013693343886905, 0.03188888912031976, -0.013317144456608983, -0.01729017634918891, -0.012613381548209094, 0.03304258863927898, -0.02464493665856854, -0.02362646238360604, -0.011343165804179779, -0.06967701646774241, -0.016252305343339962, 0.010458914452285572, -0.006343661940381711, -0.02878924805357943, -0.02138791271037725, 0.00308593531440038, -0.04621195340085065, -0.004891391121024605, 0.06409861900457672, -0.07749617879680304, -0.005712660082117289, -0.0021381265111561, 0.023618713759844267, 0.012032281970798727, -0.0593597642983802, 0.0496322461168248, 0.035257204397966015, -0.02039400643332332, 0.014367960050562003, -0.05611226887952994, 0.034545222117626895, -0.030730726892916456, 0.04623715958193602, -0.036868495290718305, 0.045708906599070086, 0.019193730347342345, 0.03427655229720513, -0.016161657044825053, 0.07563443473304497, 0.03958993291031223, -0.020559472878484607, -0.013096841151593831, -0.009080251338637133, -0.016177294883740114, 0.02583988150360319, -0.07577775686416782, -0.07687625103762513, 0.02502757538139476, -0.03709868067543899, 0.00771951200556231, 0.013183959359579335, 0.001385633919279917, 0.04730940659519121, -0.009067605724541468, -0.018411000959065546, 0.011890331026417107, 0.0288150104227886, -0.0298081302820617, 0.014162608806083433, -0.06357380704411304, 0.016963638465337726, -0.0106670313139918, 0.08268683194328037, 0.04716253649038456, 0.027910196134821753, 0.010938175623837263, -0.06273546376478509, 0.009165049894958439, -0.02298643851999412, 0.03148599344015309, 0.02813541634580097, 0.0035834561414689802, -0.012258908142914908, -0.025781490069293145, -0.035894824459062676, -0.05760586281539853, 0.0027302398678342547, 0.026261874665034525, -0.048549435243707445, -0.006602145021054292, 0.08439681037811511, 0.020050289959667376, -0.013092474773255482, -0.03887877573491287, -0.07519745714152619, -0.0015259951379819662, 0.05771341634185321, -0.0026501589705698447, -0.009304944627053878, 0.017520961737238355, 0.041179881243849026, 0.03708830290341054, 0.021424473375471046, -0.05238923748563766, -0.030298762885229442, -0.026927605762110333, 0.032446278281471244, -0.02765839392162749, -0.0574741478387478, -0.034492180270958156, 0.016463063986865503, -0.05851205149012932, -0.03539129898172277, -0.026534947209166885, -0.06946757434177488, -0.012393348703295982, -0.04163568925784181, 0.010345799110160004, -0.020115671372927274, 0.039043766828227064, -0.007555998883766687, 0.027355900607151578, 0.0026205004897445565, 0.03820853306690943, 0.023759770967923862, -0.03047788578677739, -0.04146234634853949, 0.018258415562400907, 0.018890961099773198, 0.03591821937784018, -0.039716558716965465, -0.009547648741685946, -0.03957572231381944, 0.05980149684174848, 0.02956700541797952, -0.002091107801492702, 0.04143328888907157, 0.022845393154364617, -0.006248655320506514, -0.03428277189024805, 0.01722801040449769, -0.04783838999663146, 0.03978368058143454, 0.003263784917476483, 0.061550565779048175, -0.0007012250710572396, -0.07347200597702623, -0.047356671195654905, -0.009052486505862658, -0.01616870594639969, -0.0016906871268416908, -0.010391880109147265, -0.007150948612547485, -0.05002348838954517, -0.04273686864671807, 0.007965555907346622, -0.06439539987496166, 0.06359261757911328, 0.006670290789865801, -0.0058829830770615165, -0.018391439365785682, 0.03440629638465347, -0.03748575110839166, -0.028265703623019455, -0.018645823098330874, 0.04163087086573904, -0.029933752215007287, 0.010351735263717554, -0.043185953761428995, -0.04449250084795005, 0.0382792249489025, 0.025578955941661697, 0.032755495241286334, -0.034477267547768656, -0.031900085339387284, 0.026339388558964484, -0.013007307253546811, -0.019833350783181564, -0.014655682353264348, -0.06324079405734319, -0.014793407351368198, -0.0032252053956808163, 0.018125150620830442, -0.007098039321778826, 0.05934360695462719, 0.015338823193015893, 0.029499964767690973, -0.030468081539179986, -0.03226129030418346, -0.017126722338834516, -0.029285713800091567, -0.017990654407130317, -0.03404199064679373, -0.0663879213288168, -0.007372696075220841, 0.12412549909716997, 0.04330891760036992, 0.05832610110626906, -0.007974142143226715, -0.03541165742268421, -0.016101987321539158, 0.054510326751124084, 0.048229058683710004, -0.019786830598194926, -0.02072069597379053, -0.046472223696602505, 0.022659561643992535, -0.04505170119284696, 0.011136495268752848, 0.01880597356649142, -0.047574436296326655, -0.018536661417795804, 0.05080951126622567, -0.010680376282528856, -0.028323591832969116, 0.004101872749361421, -0.006161419780189017, -0.0029844896965717203, 0.02161968656549795, 0.04742052222276059, 0.015568415622663834, -0.021544944441349682, -0.051486333845068094, -0.006152385778683226, 0.014998700502496107, 0.040037551248341526, -0.018573331832033625, -0.02975478745291473, 0.022567277796298874, 0.0810749359617275, -0.01982923139946336, -0.01839589447011973, -0.016364105018831687, 0.021603048541903903, 0.04083581789259208, 0.03462387799472642, -0.03336798482297318, 0.03213441667168644, 0.0440735306946936, 0.006731018168334223, -0.003911163644015593, -0.05106097141550365, 0.06710955377527592, 0.003281402337868652, 0.026421185555144677, 0.04883906678780435, -0.041632711064222706, 0.006019970175589764, 0.09399592743136956, -0.01910828409788876, 0.04613027376469015, 0.002098652206561906, 0.03923795185691741, -0.024204918597660056, 0.0748996588660988, -0.05932710341556276, 0.10030848175651835, 0.007630689767483006, 0.00825972005255033, 0.020938143333307777, -0.035498930572750276, 0.04202498131244665, 0.016834230226015014, -0.05267778449878895, 0.04019975997679232, -0.040181176422400086, 0.05900258952216323, 0.02889997244283219, 0.02940482210693632, -0.011508760343792977, -0.0008918314363382675, 0.02722159753134649, 0.03038841273524562, -0.014576803349030568, -0.07148229091795733, -0.002087129321782133, 0.029376016667328517, -0.011404788077141296, -0.034324910508499236, 0.010742784127084303, 0.04764603105702957, 0.034910307471733217, 0.02244963593671498, -0.037984529667658355, -0.047456540670444074, -0.010264926267337422, -0.006084452748930489, 0.03492730312546151, -0.07223512139323705, -0.005337674162102525, 0.07422101568246732, 0.03106064151423607, -0.0037123127753913437, -0.02978639312611656, -0.030838504765759937, -0.08419622761788496, -0.02696531226189737, -0.028591985280653227, -0.02408483070572445, 0.043338500233245904, -0.06776868762642331, 0.004966114767496598, 0.04275917561111482, 0.010328367454376612, 0.02313362738728938, -0.0035140630411963822, 0.09162240712338891, 0.014523628331780628, 0.03675560035874584, -0.04006701296447233, 0.04380351450526285, 0.05208944224728551, -0.024825283501560356, 0.00036465055107157157, 0.03207637554921468, -0.03729251731988002, 0.03727573743364866, 0.08870514576597985, 0.010223172968665489, -0.04558971315150342, 0.005393114797049775, 0.012020647935039992, 0.02204910464765297, -0.05909224044360729, -0.04071679777843111, -0.03694513748659639, -0.06468489131097038, 0.02384973819207435, 0.016343286740989543, 0.015650232466786266, -0.01575819520353096, 0.05790303808039192, -0.015382144068870179, 0.040778457527758986, 0.048169118462724786, 0.02337399051053987, 0.04197910516252676, -0.03682296420190677, 0.017838332334711198, -0.0037257645770902834, 0.03196731455596182, 0.02950291838541256, 0.050713331158564905, -0.04407801604857582, -0.022064067201425636, 0.026733489841691792, 0.025412487426479082, -0.0330151124063862, -0.06924180021213716, 0.03353331636745567, -0.04162196402164297, 0.009223792275087895, -0.04599543931005658, -0.03680763769774542, 0.018371589710295216, -0.06124072821888885, -0.05407643254427406, -0.032325618089917504, 0.03614376572578556, 0.04718157759528968, -0.04099639977356142, 0.026355012926512225, -0.019570403477238332, 0.020422171632026767, 0.0938339550786678, -0.02420034427562834, -0.06435769640588358, -0.0056326357069381725, 0.013382786850585398, -0.031643519347772826, -0.008438137904275696, -0.007349401627446732, 0.006637738997211207, -0.015613034977051292, -0.06548592321113103, 0.012955219179108687, -0.045397357105600215, -0.05989121717103765, 0.08373126979027447, -0.00032392350456850844, 0.03856949916613583, -0.038350405275355846, 0.06582036718584688, -0.008209342550267727, 0.024085296426920914, -0.03412453198146284, 0.05574281312245939, -0.050445566611524426, -0.027615326781952314, 0.007206381556025863, 0.0018084971814781128, 0.0533000912286987, -0.015296316976356505, 0.033742589242320015, -0.04780611023347537, -0.011473988646601643, -0.026537067640631625, 0.0066897274233391636, -0.007604135670528032, -0.033287349758965454, 0.020961558725733014, -0.02853471248813337, 0.018963965104135727, 0.033570647976611016, 0.0004170330625377138, -0.006238454189755991, -0.017275907760675824, 0.007267287103557906, 0.052711929383585245, 0.026923290161529605, 0.06124248888284544, 0.017584834490233386, -0.06290905219628704, 0.026224452638367778, 0.04070950312895805, -0.01459438585550961, -0.05718820789503808, 0.01566819330842015, -0.04753197267404348, 0.018334039224416326, 0.03434237522976216, 0.0027433400939168473, 0.05409933775895526, -0.008675759599506491, 0.06479124126223808, 0.027703592252056364, 0.01657497385276262, -0.020928915996268723, -0.04380816510700818, -0.021175055275096808, 0.03016761254355235, 0.034694630384144366, 0.02758907217490253, 0.013913924472549558, -0.026498635903473622, 0.013268396087099224, -0.06590900677329524, -0.010819418479131794, -0.008287841956761872, 0.031237667337528165, 0.005756557101373798, -0.023544499008014374, 0.010123673363668689, -0.0392316076378842, 0.015242819249564622, 0.024395476882757682, -0.06865624747979848, 0.020725999651436035, 0.015260061823011525, -0.09288398075165553, -0.022362006705022856, 0.02982413960957791, -0.012779504878731154, -0.06513928149843154], [-0.01918302130927168, 0.03386847900116722, -0.011359521110270906, -0.08143751737578518, 0.010643253222429124, -0.10320029215943385, -0.017022670491566888, 0.011048300245211196, -0.013323341750382614, -0.008236164241084481, 0.024329513406272364, 0.028866208569944433, -0.046529415267244266, -0.035966016486134754, -0.05211315679628609, -0.010615937335125383, -0.020549875798093233, -0.058059007226244755, 0.026371727069328773, 0.024181580316999934, -0.02021119331417078, 0.06709887621658685, 0.026987774855809877, -0.016931848410405834, -0.05282803522672661, -0.01749441460147055, 0.05705679892964898, 0.02486174758517762, 0.04832216479827761, 0.0412529821749653, -0.005957444190767407, -0.07839643284635751, 0.04954285764650646, -0.03694639430199535, -0.012302355832879029, -0.05836550007659496, 0.0012121351260426978, -0.026179932725266537, -0.014831742987017147, -0.013878490005744449, -0.016393909682862858, 0.05222937155718432, 0.011947302408882626, 0.007150779547960214, -0.03727760334724568, 0.015615479532746281, -0.03345475574928453, -0.10328046592910256, 0.02107041247297028, 0.02646852870824034, 0.020330255470825793, 0.03532674005689068, -0.036284936712825885, 0.059565904715194115, -0.052276292931384714, 0.01072962639533972, -0.0035866502360598278, 0.00315037999241492, 0.0011680487434497955, -0.04217933663249857, 0.011291620781703286, -0.024344639595003634, 0.011157327590512222, 0.023014671385636197, 0.06638155146434482, -0.030014655383965, -0.0012469050469803146, 0.014990771421858212, 0.02619571876505754, -0.03597948969305534, -0.022269443174589332, -0.054514612192170867, 0.003544533583289688, 0.017917783966694977, 0.026216740650909284, 0.010263915880851092, -0.01246472865151493, -0.0074409216705584825, -0.004038984260111498, 0.056704826913604456, 0.03495768522812601, 0.03057427005652638, -0.002974042745429694, -0.049105844195028225, 0.008725404697791426, -0.0056331246049512685, -0.009020244538646303, 0.025409219957820164, 0.027799547129917182, 0.05176076839089763, 0.04497321694249297, -0.05870118521753901, -0.014801673377088, 0.022234020971622317, 0.01623173021897731, 0.0055946772711785615, -0.05317929001283464, 0.01141613552276651, -0.07028096251180621, -0.006971267855515221, -0.017836492582532656, 0.03845390776926506, 0.04178267202182484, 0.09666057076625136, 0.004854663902778945, -0.01652328518897723, -0.05567014885757255, 0.08582445279070959, -0.008348300242037103, -0.02951852695913587, 0.02718376196872078, -0.03032495742722708, -0.004682435125825593, -0.025916628044818545, 0.03726611196321415, -0.05012025108953999, -0.021327825901297472, -0.04166885265897682, -0.05632716841831201, 0.005047656177434808, -0.07055388645500366, 0.04741931261322531, -0.03444666550002172, 0.08692984855964069, -0.05538552979852228, 0.07922123486250307, -0.02272630922527625, -0.03849049047532126, 0.06922074024305697, 0.05175552602833359, 0.042012683335563974, 0.0475807350633276, 0.020567180927510774, -0.04582316382169702, 0.01920873945413286, 0.014675217044711416, -0.03657549235243845, -0.037213828944424016, -0.04006997699551987, 0.0721537970795657, -0.04181110256051195, -0.026352397412459233, 0.01651978798448022, -0.0463554619902521, -0.05504007065261429, 0.052674042776049916, -0.01141294200207288, -0.004994441568736994, 0.031315959492907386, -0.034893110630438484, -0.0006134338827354932, -0.006063334498968124, -0.045626338216486755, 0.014268618766007, 0.015574261426069748, 0.01785014204429209, 0.05322964910884879, 0.05052499942370987, 0.00885176403135723, -0.03910359815350271, -0.014717270669229154, -0.010931396683872073, 0.00439267117030208, -0.06596645428538578, 0.023462102636634688, 0.03677405993848854, 0.011868910304341776, -0.06158330903180012, -0.019000857170306498, -0.047769499743308616, 0.013387202735273638, -0.02068379243891948, -0.08770647386203705, -0.011183267132117307, 0.03284572160547873, -0.03523683789051134, 0.0013728765277176173, 0.0044674514248004915, 0.009910613358087739, -0.012673734319153184, 0.0683230093498779, -0.04964581736354533, 0.03590975943802806, -0.008135334068939605, -0.04447692582531198, -0.027249437971224942, 0.012656283586124526, 0.026278169578125087, -0.0035713660284596, -0.07155190342134408, -0.04753040214102868, -0.015561657161061077, -0.050701426534071656, -0.02899595606106701, 0.021507948705957916, -0.06984939490226079, 0.010737873966281385, 0.012999846184166811, -0.024081005837457415, -0.03577196637784, 0.011371083781336836, -0.02025355401701332, 0.015107841138856385, -0.003211143317808368, 0.07402978255080543, 0.00886494165913993, 0.014983010880472703, -0.03417743732023054, 0.02478471263672681, 0.023188045413731068, 0.0426317072881222, 0.008780630080083616, 0.07300799802927933, -0.020416703696815235, 0.018147265863021938, -0.001231404347815693, -0.00011538069457985111, 0.05918926721235143, -0.03408588945938392, -0.08358627581059691, -0.029772079780313765, 0.033066114188409074, -0.027790980643039784, -0.07176417680229404, 0.0021441592269536504, 0.030946220037867508, 0.02849846657792218, -0.03164448094621381, 0.002694928497755397, -0.03330247487089202, 0.015595836471705043, -0.011977176722636292, 0.0342948294416925, 0.01639435419199862, -0.009300591505048797, 0.019015048255314474, -0.032860468571172655, -0.02050673848567147, -0.007029302253481044, -0.05847746313308364, -0.0019502661716281865, 0.03725087241040594, -0.08015683968090788, 0.027159965416031755, 0.02029522992004736, 0.020739577576666685, 0.014786493413460807, 0.0014499217974142033, -0.03903561511329819, -0.03155225624618131, -0.05508549939820066, -0.06401205672321117, -0.0032650820651607265, -0.008787960160656047, -0.024974504980620097, -0.05159269778118004, 0.0017571384946376428, -0.0021252506390195473, -0.04140343098092603, -0.034966240365831854, 0.020324158953109357, -0.054137491450094846, -0.008145049972418397, 0.0044833336109550434, -0.018911500184359265, 0.05451153314161262, 0.0026098481019997417, -0.07792572859291776, -0.04357449825738377, 0.04577271615406657, 0.05675348372028159, 0.007176642074141781, 0.021676811899270947, -0.013989779559472873, 0.026809415224883074, 0.025617502822888324, 0.010307143498360882, 0.024264568552334234, -0.0009709938195639539, -0.014440257454366695, -0.025113286982105663, 0.013136880465365545, -0.04481375089425913, -0.013323060515977363, -0.045335863084802315, 0.019402148904071166, -0.05171002623051134, -0.049382067178374546, -0.0103308023107519, 0.003962734826716002, -0.0671191666595065, 0.02087478668649862, -0.012131434270731833, 0.053381468235601554, -0.039968007199301436, 0.007632941937494326, 0.0431101934198934, -0.0441305962742448, 0.037631018642193495, 0.009698368758704893, 0.015385147822811104, -0.0087395177107228, 0.05599637995167779, -0.08273498513701585, -0.02278192328060894, -0.07213176420602604, -0.012608394131501985, -0.0010315838871369411, -0.05310416028544638, -0.0004995769858597847, -0.023295889853870485, -0.038498419894954436, -0.0359901667109951, 0.013052849676355496, 0.04209174431377084, 0.04629274724193464, 0.0006075227376027222, -0.001955886863892741, 0.02002598785058195, -0.03688748828848609, 0.0040406821447995876, -0.026699985339334587, -0.0700601152352823, 0.03450564117520555, 0.02257688862039613, -0.029323301540903395, -0.03065170414262511, -0.04104005874601722, 0.00858181492415628, 0.044916996451026876, -0.028484415421616536, -0.05288473483153456, 0.010280561003941395, 0.07760059309124226, -0.015279317431838671, 0.010770782877557335, 0.0611021209565888, 0.025423096157314022, 0.021533119137425377, -0.02996931133212068, -0.03242665667913568, -0.05298828693252209, 0.011379670650139962, -0.01155181056248795, 0.050246584049396206, -0.0533174043439284, 0.04763860718279463, -0.018584906525441452, -0.029307971180922734, -0.015445803377726218, 0.09126513892946218, 0.010769143206147722, 0.017499397082210655, -0.06219354604179893, 0.004270799015530734, 0.028924273202591357, 0.01234235588912383, 0.005158831221024624, -0.019506432656194103, -0.035312951998142286, -0.00015482765009899554, -0.004485951290329951, 0.009762409547043677, 0.08420909480916089, -0.014508882906940971, 0.009944457312916074, 0.04304906326446663, 0.03904761578805164, -0.020037657828900563, 0.037665469420675037, -0.061299708074514854, -0.02658769476595939, -0.07663187994239018, 0.04922295257409532, -0.049662952325940826, 0.012640191979378398, 0.03233019904321302, -0.03146097335690955, -0.013897717680468552, 0.008423448258503241, 0.011310027020340452, 0.01305014763575894, 0.020068408010102685, 0.024301872840675337, 0.06381954776756305, -0.008756624263769193, -0.002438913622463286, -0.015352295874386978, 0.022018521731703072, -0.016590885023505357, 0.002076086202615589, -0.017713551811494536, 0.03745115690754447, 0.033343487289877904, 0.008657611507180434, 0.008525441972995363, 0.04951479523672875, 0.010449739931924582, 0.04481709864815496, -0.036722125371637715, 0.02693394259098234, -0.002174113028494772, -0.017451969681359272, -0.0009929364717641972, -0.004170079977191851, -0.03030568842637255, 0.010682437915242468, -0.009041542439341708, 0.015350675927071601, -0.018583869475445193, 0.03229372023678026, -0.03187045460477351, 0.07683835454171803, -0.01240004890066997, 0.017730649240528702, 0.032164393307733796, -0.02609186394886737, 0.0405907966670372, 0.04596504129378141, -0.01289228559614483, 0.012611261433450933, -0.006808559282058747, -0.009578893506646065, 0.031001255151416763, -0.015584931724326633, -0.06512598223911209, 0.010691490095097837, 0.0627561162305004, -0.0016993656740054844, -0.013313123681173569, -0.03686751797343905, 0.02444786850231566, -0.03986982005757215, 0.002959586022459616, -0.0004750549885680385, -0.00667989924687673, -0.005277636128342143, -0.005136254895000362, -0.005053941248028905, 0.041126204696501044, 0.010504876751836121, -0.003831039918470311, 0.0035204504125916783, 0.09807537758762779, -0.02556441303226099, 0.017371095740136865, 0.01325259534743026, 0.04082514281671109, -0.0351299692423215, -0.03684115088028905, 0.015520975014892172, 0.04076474854031875, 0.0615845088625323, 0.016994807722386897, 0.032122299669257545, 0.010487981318576776, 0.00735590586830238, -0.025107278956593225, -0.03648323110185352, -0.05049489647599753, 0.01640946524359856, 0.005106557471326044, 0.003152583290338364, -0.0025990540281749666, 0.07353819146413107, -0.05939079018632005, -0.02133026937440443, -0.006897935624001815, 0.0011389356707208335, 0.0928886149722151, 0.006529528580525348, 0.07534717566542659, 0.05312426060936887, 0.003748312358179269, 0.03355158613317605, -0.0076528005232925364, 0.06359133543412031, -0.017445059311778352, 0.07322089348955994, -0.029663632680779553, 0.0034231413941862654, 0.05803107560904098, 0.01265253994503526, -0.0007184988136327061, 0.06653274547940516, -0.0011816139011190674, -0.037075329758144274, -0.014683525801602293, -0.03208760438839005, -0.03721137357620124, -0.01048593210007796, -0.08004689088755013, -0.03811399341749902, 0.05003425980647968, -0.04541318049202468, -0.015409642554901432, 0.012651165598239167, -0.10267432235353893, 0.04564171275800856, 0.02622788916701922, -0.0315614801333184, 0.03263936639705483, 0.03684840264344465, -0.02789073932238359, -0.0009890301328488468, -0.06684797697723228, -0.006282003195986394, -0.0004005378480742837, -0.008373877254060849, 0.07344229708200224, 0.015231261754906876, 0.001940518993960689, -0.03158557719508694, -0.0024292985704822425, -0.0047808546309251335, -0.004899001091596601, -0.04904319447902683, 0.03529074366290645, -0.014580512628006555, -0.01882510078357613, 0.006715158660307778, -0.03071008135093148, 0.09372055279794526, 0.025431896779784968, 0.0026029840645806074, 0.0032343483018967096, -0.021260362140437934, 0.00018873991507937924, -0.028892411571807598, -0.029490821455607462, 0.014307954937686398, -0.013754493738556667, -0.006217825732240467, 0.007157615543816613, -0.02180384108028159, -0.017052247729140504, 0.013649806756935069, -0.044964691301189956, 0.013858119134127827, 0.045537743881358124, 0.021353616872513494, 0.027290408773463327, 0.004026406171703403, -0.008796875293850499, 0.021826940213809175, 0.04044252470486017, -0.011206635182220882, -0.02616029357777069, -0.062236880533273954, -0.04478808088942082, 0.00920354606170214, -0.030284084066128935, 0.007893479306811746, -0.06686535639560932, -0.004693715456368178, -0.05367901310478892, -0.04964062633487206, 0.012946219735760019, 0.025489928412707995, 0.01828925829324175, -0.02598418646736283, -0.07396830414958457, 0.04758484292412275, 0.0032207351612447313, 0.018550757708965877, -0.02494790245472491, -0.02136648113020714, 0.002961116054362258, -0.013941130841314363, -0.02321678347183607, 0.007274910828441263, 0.009841879528931292, 0.0385848744648342, -0.04908372516721271, 0.03316435591457878, -0.008716907109053252, -0.027987778653105852, -0.037402373998620814, -0.02651248627486572, 0.01812687978606657, 0.020253757892520943, -0.021621123623748757, -0.015175130221913354, 0.016684522457618905, -0.022010404017135797, -0.060163150215664304, 0.010140813520967632, 0.012868089939165422, -0.0008515399379433725, 0.02559157998320325, -0.03872871160067482, -0.005166156591949679, 0.035234002814223085, 0.007016122836461619, 0.0228881287740769, -0.038210293943993855, 0.013236059095812347, -0.008009192171864724, -0.015049950847209101, -0.08953671798778494, 0.006780184018387656, 0.010387726511917326, 0.019494762249985927, 0.003761585224568023, 0.027499795061242446, -0.017512429035279962, -0.05879901442165536, -0.007156927333225443, 0.07946362629958115, -0.0016504664152338518, 0.0016387953195744437, -0.030035017828770078, 2.2354630075122874e-05, 0.00198924531052806, -0.041396241232640386, -0.03126575841074111, -0.015439226107379725, 0.02258008264022948, 0.02909396800248912, 0.03972477763483168, -0.02647661832013963, 0.004270177481129641, 0.003667172659005754, -0.018836677917504128, 0.005542883700228455, -0.06395966993183685, 0.05449001448504537, -0.05984290946960926, -0.023277840486903543, -0.048861302724725816, 0.011996359646040037, 0.05171266381589574, -0.025100615601550143, 0.019129328464468714, -0.050091208606528506, -0.0074115068304859335, 0.013976353240297964, 0.022689123737539788, 0.0669017078609856, 0.015727292526086335, 0.007281594518992943, -0.0026252614185259576, 0.005286618988806789, -0.018723531226082092, 0.007257084759736416, -0.01141546459931993, 0.05086639190587577, -0.0700708664597986, 0.03172763888099653, 0.012095498367846324, 0.02199352189956616, 0.012925876911380415, 0.039490654452252826, 0.005128998129299096, 0.05656915106647553, -0.06943472038815389, -0.006882837025528727, -0.03427532165481352, 0.014020237397598407, -0.02715513729264021, -0.007923955064687764, 0.03413786047853882, -0.004898020186901896, 0.027539217822127215, -0.01622845727258415, 0.019218650683911657, -0.006778955053012586, 0.03437562936907751, 0.04035933844804681, 0.03955979232731703, -0.05698892954241997, -0.02600622905141724, 0.01616365099417031, 0.015155115002847466, -0.01892834885244, -0.011147006283990743, -0.010461356301973729, 0.00627566820772322, 0.0025400951052685725, -0.008207502177178083, -0.03071375902914807, 0.005048390175941205, 0.005046515584106853, 0.031046785960708877, 0.012058006507100625, -0.026258579055043352, -0.08225988594321265, 0.0103098916349905, -0.00306177709276136, -0.028301226178884094, -0.023066285691334905, -0.018902507294544287, 0.0351900973345138, 0.00308027268083454, 0.005553472799093212, 0.005021117178123793, 0.017811401476399424, 0.02100479052092002, -0.01711221074358384, 0.01637362340726703, 0.07136341180204317, -0.03714267625757982, 0.049738115264236646, -0.044008058340282985, 0.05551438887944813, -0.04016677426719458, 0.014344852632474042, -0.00812239881973462, -0.015064105207722759, 0.013238446986516684, -0.005561207500228271, -0.025244658967667453, 0.02310556057050342, -0.015880958062597404, 0.05658536892416323, -0.0034209210864516466, 0.04610310476898166, 0.02159456279348298, -0.013905765583563401, 0.005146840031958206, -0.03681034945133983, -0.06802192897736474, 0.03027249608668853, 0.04638780156293805, -0.025052743281720587, 0.03190164373165944, 0.03386206529275957, 0.05140501914859898, -0.015972340811067316, -0.025743121719324785, -0.03443260536835311, 0.001972723231174864, -0.01605508955814667, -0.011301606705804325, 0.02274932986944274, -0.059997718927275935, -0.004420032540708867, -0.015834245409580953, -0.05133027799865322, 0.0052742648387654216, 0.028913031436182287, 0.008490833816240455, -0.012976976594750252, -0.033105217574704054, -0.03167444177031691, -0.04033263147276224, 0.007935641130040541, 0.031227325151479076, -0.002806300454933292, 0.0003353316856238931, 0.03491800474627948, 0.003550650250346019, -0.019012202919731176, -0.03414904714066131, 0.014903218093561864, -0.02034773086404815, 0.027631136326654954, 0.017830864196495756, -0.024333254761377144, -0.05581764780158642, 0.04178572258615838, 0.04279819354352294, -0.007267768627266825, -0.010747925191813371, -0.006993888604364189, 0.013214837902346439, 0.0034413157378719622, 0.035827312974219906, 0.05725810718353191, 0.0016194088243119003, -0.017322201513914635, 0.03606478841447112, 0.04623845898902289, 0.021374376888698275, -0.0823466493895144, -0.035121724828298444, 0.016326932692263044, 0.0321231275682995, 0.0012901399751531193, 0.06200580989599797, -0.014629784050709, 0.007153685959150577, 0.011264549797566753, 0.010211487354082161], [-0.014829486370825328, 0.03455325502528238, -0.09392457246523253, 0.021678621995537987, 0.01339124875549981, -0.005238054967718119, -0.044842303603267956, -0.01027570611142386, -0.03132249521407214, 0.10739194015505638, -0.016915307334467722, -0.007745478233278774, 0.0021735736539862604, 0.05048161598030047, -0.0009173128495264624, -0.03937948645722195, 0.00567232927434132, -0.027793504973936952, -0.023960569566470063, 0.01954915291958096, -0.025414666167620163, 0.023662129942395194, -0.006565904735224677, 0.006040926218040718, -0.022865580848230694, -0.044208968044671684, 0.004154584523763618, 0.017986984895688018, -0.02372281007841229, 0.004376893781639896, 0.06800164772223265, -0.006333431223655178, -0.006673943516952411, -0.06852833879820498, -0.0031845176329290703, -0.022502165229321417, -0.04472322549686035, -0.05200664392354565, 0.029811566945050983, 0.06981220364568698, 0.007736984753182378, -0.05198145202453603, 0.013835184483953395, -0.025908918341077496, 0.01826545546158301, 0.021763056315199633, 0.05149868566086142, 0.005995763130811677, 0.04241694535874591, 0.036884556034949265, -0.022587828888573292, -0.046449187972643864, -0.001985019077774196, 0.01613627888301978, -0.06644161931557671, -0.03559275637877236, -0.009678870097434332, 0.026147989633618817, -0.020826713994667498, 0.006939340516871679, -0.006405393067294523, -0.04072231554714958, 0.022450283047466987, -0.0342864097968738, -0.018645574060293008, -0.03758726056827151, -0.03460454758404796, 0.007816256362807672, 0.04822559261430659, -0.03156841624514548, -0.000987396996247653, 0.016110038327630697, -0.014929698662060628, 0.06959211800614754, -0.005618066826172441, -0.08249579277972242, 0.022545573742599766, 0.007407595825118755, 0.011469613893361399, -0.014331430017483443, 0.02498440112719669, -0.03256180556640656, 0.04849253489049543, -0.0698549408672706, -0.010036777336593418, -0.022253223529109488, 0.061875584100481315, -0.00582208267659886, -0.04073943077822639, 0.019895961735084886, -0.028383573865719436, 0.02738584999734408, 0.005349152006555589, 0.03768091941497773, -0.06666851130711192, -0.015273539779792782, -0.005673207525760445, 0.002761202310908266, -0.03270278143903913, -0.062273763728911295, 0.03288703382840084, -0.02425089468838218, -0.016434660143697186, 0.028764991949159293, 0.04901860506013918, -0.003357043886110418, -0.01509399054301543, 0.023437719858843378, -0.05593011155979004, 0.09961583084564608, 0.010162200393421037, 0.03036133156593222, 0.02971250341669362, -0.07072493816805088, -0.0413689286824546, -0.03309945030421817, 0.032534575525300466, -0.027384186996531452, -0.03991856679126943, -0.03149242712783892, -0.03399344839756267, 0.0153204721662155, 0.0029483248164169154, 0.01298113674523577, 0.004485368618707414, -0.02869654227046145, 0.03461633419817678, -0.0037759198159077983, 0.05503103069247458, -0.03326881803191087, 0.012961615757855656, -0.024205393711145738, -0.06284202359140474, 0.05396816437939785, 0.03124711168416026, 0.003585082140061641, 0.009963827063654453, 0.04314123342280401, -0.005760534071104151, -0.047518947083990376, 0.03795545840292048, -0.055149330531546845, -0.02605789172900138, 0.011336716373129335, -0.05190584244828941, 0.014009178622262444, -0.008611787903192248, -0.02068149356239462, 0.09715718635568961, -0.02698152151504867, 0.05745590374061496, -0.020370510759151386, -0.027395566158055985, 0.017901618006588373, -0.0005563248480401417, 0.03531578514848184, 0.06805381428428905, 0.0690781770580425, -0.04173501712902426, 0.01923711038685058, 0.009978292889016763, -0.027129184097736642, -0.039693389174611224, -0.06500888295127707, -0.056132549889240095, 0.008092615365632909, 0.018285011402365294, -0.023631433958861414, 0.012146297853352962, -0.04858686985363111, -0.012846293609003927, 0.0013158538190697702, 0.03708129549987311, 0.07430575994316879, -0.0181799316903253, 0.0038630665217282813, -0.05255461368433987, 0.01835027786733409, -0.00372306719770103, -0.04275389896624789, 0.02952147907027998, 0.017724166356515116, 0.04197826666602709, 0.03518205257071703, 0.03723521106099324, 0.03801050484885847, 0.059069136140103735, 0.06996493210523547, -0.031730975270322405, -0.014645788347225377, -0.003220752739591277, -0.015923433066312505, -0.024536013514992377, -0.008073643676189336, -0.02566218125982097, -0.05874685267692239, 0.0245203602911852, -0.004122438774708442, 0.004821707978653953, -0.0032902421395307373, 0.01820933917170938, -0.06332562700778896, -0.02991287081219503, 0.05963061186693517, 0.02515963646699188, -0.006402201537169588, 0.04123439663258377, -0.00899552973935293, 0.02749677488102534, -0.03953434256052465, -0.04974488434827029, -0.03207269468576431, -0.013562781416695714, 0.03372929828147922, -0.05434199347318778, 0.02411655511311456, -0.024058900604344794, -0.01062133381509838, -0.008048455117613517, -0.030290910185371604, 0.04560763699889295, 0.007848727647997447, 0.01252572903074354, -0.0027408370755224666, 0.023143503395314773, 0.025889206360219776, -0.04742069313399364, 0.04934077712922273, -0.0024059813084605333, -0.01170925155897044, -0.06114178830129298, 0.027051391573565536, 0.011308144263992112, 0.0584986268383583, -0.03762872301048674, 0.03005392190604181, -0.010741777228907838, -0.007459308809512181, 0.02182437052783622, -0.008419808153588578, -0.005243459241628522, 0.017112431525166852, 0.02945299095872748, -0.028565489517893804, -0.014038585389992518, -0.06758471811642815, 0.04406620215921055, 0.006812987199040814, 0.014334937014305313, 0.01205995111707552, -0.030601680231248707, 0.09003118773230388, 0.020640756175815782, -0.01852696882546634, -0.01391236245900924, -0.005822768557686385, 0.07813195628094126, 0.05154158707425824, -0.0015733768162678747, -0.01314910905202627, 0.029590756317917574, 0.03964694589141076, 0.012372257828298119, 0.023973552213386352, -0.00647660691815757, 0.00690790929307098, 0.008393661464801078, -0.1019538687425375, -0.06993389358945983, 0.024985542195989467, 0.08121827064359645, 0.026916811714206276, -0.0005525591420852174, -0.005193628132025915, -0.038074278982200414, 0.059266136573481176, -0.02270482769838562, -0.0229828805316685, 0.014809939516327765, -0.034633638555149934, 0.025469967718499662, 0.002567674131019452, -0.07695913261473253, -0.027263493597273834, 0.004263183130946875, -0.02334100544642023, -0.05397630915507361, 0.009278000756140983, -0.04690505739471951, -0.007628187131147036, -0.0467469637311199, -0.012937472588910762, 0.02440315528848662, -0.013416879532834963, -0.04510764072180735, 0.05820406414467634, 0.0009792450938333479, -0.013665221480418757, 0.006019695461112472, -0.04597113244099497, -0.014628033771336035, 0.023236752029377673, 0.03036532618265776, 0.009026750264769727, 0.020819575338255417, 0.08100449193851895, 0.021389518775028746, -0.01667965962939122, -0.002304981746763235, 0.07148469971575698, -0.01872469631939737, -0.014283049910638921, -0.03426530315578444, 0.000886636374806321, 0.03261241919648985, -0.004896168277892283, -0.023515001493823923, -0.036983728970089925, -0.0162894018780699, 0.06437556217059501, -0.027683317843416762, 0.02427672793779271, -0.011711604300816147, 0.026713071753307248, 0.07180581765403247, 0.015239585208259313, -0.026948389747195493, 0.0016596117770910682, 0.010357947284366748, 0.05150206264324901, 0.017811327343617626, -0.04031778378919421, -0.011813757786581306, -0.07172370929168674, 0.00527901328953755, -0.037523653538236015, 0.04752967208107424, 0.013719201027591754, -0.0004997883487597266, 0.02600696813976877, -0.001806063274130732, -0.007802818717879766, 0.030263824715441912, -0.04970849254691175, -0.020236164627446936, -0.06851919936359442, -0.018169948635950464, 0.05851171127901591, 0.013569246472620686, -0.09745268215177429, 0.014618215669486052, 0.024631186208039817, 0.004670924745175105, -0.009962529906661053, 0.046180397077609875, -0.051258857096929206, 0.002194618069238099, 0.019293370787616504, 0.042525559741961566, -0.0037544922181942755, 0.029917572619056157, 0.011477218377064925, 0.017018938165471967, 0.02863094293281227, 0.012590730451967508, -0.007412158392254414, -0.00655907491057172, -0.07976844208073797, 0.018617817171420466, -0.027896757378433022, -0.00331892342992336, 0.023673919552018863, -0.025972445355559648, -0.052361558331560955, 0.0025978967086771874, -0.05232683591062922, 0.009118591654098196, -0.014690592850242172, 0.013431288259922252, -0.00032610038083471675, -0.0107939436524178, -0.0347244697008553, -0.014425528944424101, 0.0663781923067567, -0.030305026230289783, -0.0424553061669636, -0.015133584451639885, -0.053457485056984125, -0.03068304734030148, 0.030837418180744983, 6.425707680675688e-05, 0.02317715992857531, 0.01970913303997963, 0.00972223166477667, 0.05913624570095234, -0.02218595154699282, -0.016960589767625836, -0.026232083302971384, -0.009740177975855576, 0.0015423637004497225, -0.018520076675414464, -0.045487979747392514, -0.00226818318958368, 0.018651643855921416, -0.04878360870719777, 0.05332771918637635, -0.018717075762340343, 0.07216160841443897, 0.024653757392501252, 0.05740242255345415, -0.054302563328705186, -0.032343835362916726, -0.004465741350088673, 0.015530874638117814, 0.0003439106010930014, 0.004477780032462977, -0.04836278601138427, 0.03675256470346827, -0.013444124170734376, 0.00597661445018898, 0.010255880914033665, -0.033959365663199875, -0.007690585469194284, -0.013760242371342428, -0.0336276568437038, -0.04053245369250089, 0.015919917715665484, -0.012791081491729849, -0.005416928037293203, -0.04975250542101609, 0.008469072076495793, 0.04253393497681847, -0.02069345814693683, 0.02800402760165833, 0.04912362352514571, 0.062431035346089465, -0.04793145855052511, -0.029985361690766023, 0.012915143982744542, 0.09608400574338516, 0.02910705272488413, 0.07828856166200647, 0.009784580356934792, 0.0311113318904672, -0.027027779909372263, -0.00818821375593773, -0.05176001326241817, -0.012987181656530148, -0.021210157162087333, 0.08490761348291168, 0.02357033545688777, 0.027200234290833927, 0.04760704842869313, 0.04148208489528011, -0.0048532131270763775, 0.013420821440250938, -0.01789515790102779, -0.03452000653175353, 0.00818701090409777, 0.014643953864044877, 0.06934222704554667, 0.01885952300501187, 0.044960631291312086, 0.04715874662773764, -0.0263609762432081, -0.0581591042101401, 0.0007146493721097477, -0.013954313667447659, -0.03488003650050935, -0.06622624112772153, -0.04802910031430457, -0.04935407229701988, -0.03752551456532235, -0.04719340308610837, 0.024393450210540357, 0.01760865544050774, -0.0007419445578151678, 0.004456781492109545, 0.011123650247291483, -0.01641166524898097, -0.054703981881827644, -0.001826976569039031, 0.034052336555181896, 0.014721142424638418, 0.020842474204879568, -0.015081653281786248, 0.006795788409874307, -0.028614566231934615, -0.02292838354266054, 0.02881764637470397, 0.002223270276203769, -0.013196961929238978, 0.02659363913248451, 0.08385239418909227, -0.01442350682218667, -0.010538929974960276, 0.04112348216036006, -0.03763742187634181, -0.028934285219166297, -0.02139236592206123, 0.025142588728030744, -0.01851586862280517, 0.07706546582455243, 0.0683747766989913, 0.06436138224081062, -0.0356223168708596, -0.04845008627562783, -0.006128336227382275, -0.03508961755717397, -0.020708420053900795, -0.027686415397093586, -0.01812093882155715, 0.0071891388700086835, -0.08275831718402551, 0.04982165544366192, -0.011786859526862972, -0.05769834110881208, -0.01033413377833057, 0.04242033162551689, 0.029919803237060005, 0.00891139280469437, -0.0032625935962701125, -0.0065371697169971455, 0.051445415423656965, 0.03515766908265992, 0.0017688089063858962, -0.026223192111448006, -0.008673878091851555, 0.025614372925880178, -0.04422659968288069, -0.027964537843266517, 0.06308882595418323, -0.01262565689149345, -0.03884073856171885, 0.03430275346302412, -0.05754544783059309, 0.04795420375542843, 0.02960618940555735, 0.008889250834448451, -0.024893516901116495, 0.05741787828872661, 0.014031986699774068, -0.03884908048721524, -0.060226810102341204, 0.05825232816625107, 0.015221644861985779, 0.04331169821644793, 0.04354714251001071, -0.025798000897933406, -0.002921942906970052, -0.028969123769344095, -0.012034350139338387, -0.009389790804845278, 0.04028634338488883, -0.029300405364439962, -0.050165271273713063, 0.006202959050215117, -0.02316629375345478, -0.04818421238930506, -0.009661759462105561, -0.021889142153649788, 0.008995051140312063, -0.029518208920406592, 0.05919195558387329, 0.0334410578796484, -0.04181232467124564, 0.043665287788368666, 0.000587307823849506, -0.05448547535635585, 0.02500577233587646, 0.006281813128473459, -0.027540856234281243, -0.022123369163931046, -0.028721328138263776, -0.10298985321760155, 0.02031088873491275, -0.02461209141738307, 0.021713817498641944, -0.009688888843450543, 0.04495391821627505, 0.039502004174843, -0.026708897882429174, -0.013501560350624872, -0.008354839362358875, 0.012669877455719169, 0.012958680172581267, 0.0695223897480126, 0.015101882196730908, 0.018303337744791367, 0.007931789203639565, -0.013919155866749206, 0.064243087238891, -0.02318142883113397, 0.06026830449258913, -0.09538144533303508, -0.07778470883333594, 0.05827148683273241, -0.016786349078608962, 0.05035045846226842, 0.05181866446617016, 0.04752873299731116, -0.0020549261002129255, 0.07629436547970114, -0.022920292406319768, 0.02256343002014596, -0.005928285796218374, -0.0033789123024701734, 0.03291976399956082, 0.011973714331417654, 0.04492819592840261, -0.06786705216330893, 0.04400537697163703, 0.030758461172005182, 0.010596590061940721, -0.006257795801536508, -0.02913551903824367, -0.028177200967058596, 0.01827857773552089, -0.05558166386163861, 0.007992965569497763, -0.04732096951511075, 0.03096834887980499, -0.01192159190621044, -0.0014198827010213817, 0.10952979462876389, -0.04217239704398861, 0.00204294366636313, 0.023659652565285374, -0.04056988686569241, -0.00867389042756606, 0.018128293316691337, 0.005017258552224642, 0.028421562780653598, 0.012800719799907587, 0.06302879519365905, 0.025589615177608355, 0.003442110139211768, 0.030696688256438006, -0.001406700455461746, 0.02991715670071021, -0.06264320276765205, -0.018578380549804763, 0.004433950081154152, -0.018483720343601774, -0.035683276305473056, 0.0051756737935577, 0.01634902268402392, 0.023667143705736658, 0.03914310177497291, -0.014410483694300058, -0.01180283083770486, 0.026271726072907824, 0.028618812095945006, -0.004302659659070426, -0.007878349137880122, 0.02641506153989293, 0.04612376927829783, -0.049901105239237444, 0.04108925213840772, 0.020280816058171135, 0.010479616349323968, -0.03806220411242154, 0.06880195553481121, -0.035176872220591036, -0.048219190965197674, -0.02602667952086462, 0.009872423637333077, -0.0821216670687432, -0.007629110793625584, -0.013616981448171708, 0.002970480885817851, 0.05418717521137933, 0.11011223479254999, 0.024389272990693513, -0.013594287104029119, 0.006823542711834183, -0.039381670305846495, -0.027411618113915428, -0.020422456829615163, 0.018920206997567853, -0.027568553627360756, 0.02430593516738527, 0.049911592394454106, 0.06817462970670156, -0.0036219079481239176, 0.022351109143922195, -0.00443532128722461, 0.051699737176836826, 0.019424180892374066, -0.007193775456773094, -0.0749177184004719, -0.07973550230223835, 0.02284450086884504, 0.016375514116082925, 0.021257064473546215, 0.02135426380704873, -0.03142769672413943, 0.03061895046717434, -5.7578120896026314e-05, 0.03481893439149215, 0.006281228643682623, -0.05494571236138761, 0.019988381901237383, -0.005960454905522383, -0.05055068519871509, 0.08179978516392285, 0.02365131593348324, 0.01706443356821909, 0.010919175132296717, -0.038073527206984065, 0.03618950047963316, -0.03041752428162256, -0.007691073090704593, -0.015781675608819313, -0.003093969746750672, 0.04444693471889641, 0.06745671081337014, 0.025455130520600607, 0.047565764085702573, 0.04516503756920755, -0.020057746809748617, 0.004203207312202327, -0.008511479611611724, 0.02949322580038231, 0.009963696664381799, -0.020128980871109026, -0.03957284128507762, -0.004156780080931221, -0.030656506861134452, 0.004181995051952169, -0.009091687743401133, 0.10044574647274405, -0.038585560161878904, 0.0006603349924035631, 0.012508891376622403, -0.012659482437097302, 0.007271803595842419, -0.02893993911563513, -0.037559081122704285, -0.0013542428017768327, -0.004161283766111405, 0.05613027639122026, 0.021616041949821536, 0.0589427304244628, -0.004468352425852795, 0.00236791504907466, -0.033434449344141304, -0.010725810432485142, -0.0155350257239071, -0.006490682844241187, 0.05039140698699933, 0.002781386232557707, 0.07242274195384, 0.0348389910133973, -0.024435574732712427, 0.018125357076911455, 0.050765395451041695, -0.02634800489644676, 0.02595339365956349, 0.004083376321190133, 0.008964417533063289, 0.012692475191621085, -0.07754266635853686, -0.06291821044101244, 0.017294388609475533, -0.04376102083852434, 0.0015629012057022755, 0.03089314079527164, 0.03269030805297549, 0.028669514491340833, -0.07923551723241518, 0.03351011517323542, 0.020456575416482266, -0.012289195088314251, 0.014955944125252398, -0.02708307549718272, -0.0238196265761597, 0.05606141869034804, 0.051420388501893066, 0.0028404079429047487, -0.05071744280082348, 0.014397683666462522, 0.013982639413060544, 0.03419737939941951], [0.004550820634836582, 0.03497337058957394, 0.007393315470313725, 0.020208812247048406, 0.056721254398207986, -0.00647794676956722, 0.006646738445951796, 0.030079439571153322, -0.01306469700196424, -0.0387281611004026, 0.038397058328767796, -0.00687869252481353, -0.045595543111191066, -0.031956288466995, 0.008808778527765874, 0.0005562414923770644, 0.0221900135308444, -0.019238642225463794, -0.012622449099798152, 0.03719984925793423, 0.06616596234488333, 0.023346035197798452, 0.030320333456501255, 0.03603322488735491, -0.006228248486973359, 0.03631987963812823, -0.032267260011230946, -0.026506605050518932, -0.012018905424041711, -0.03322931820286172, 0.022004882700778692, 0.029898547161018085, -0.005606174742023021, -0.024053337368066165, -0.018107637851084286, 0.06314484474009689, -0.06143131750647668, -0.07296674818180722, 0.0104308259354603, 0.006572821275260457, -0.0033997505543882406, 0.07334012102308148, -0.017969760484502093, -0.0032151598871542567, -0.02117474518749751, 0.04856412721787881, -0.02340217873345556, -0.008109533450235526, 0.053129734220610375, 0.10670741601003214, 0.01262909916546062, 0.04267267226233896, -0.0296602280031202, 0.06474202762991704, -0.036142660211547266, -0.029056154199288975, 0.012956576867760567, 0.010419924969042234, 0.03482991270468555, -0.021053568901945582, 0.031182372859450608, 0.018105366610375297, 0.03816859514526588, 0.024594204391670565, 0.05066379656350574, -0.01817194300967931, -0.020794952844171398, -0.0009183132944833226, -0.046055642311875276, 0.05324716260273606, -0.011357503732421914, -0.018646518680761132, 0.008935536911210403, 0.010582641976550943, 0.004439983343983908, -0.0686865718998194, -0.016033532756325276, 0.03537017765855635, -0.022300131219630762, 0.003851139313867048, 0.04306965060526544, 0.06990877571233174, -0.01897050888888954, -0.0056638751380694895, -0.007232764920092128, 0.0032713919409500763, -0.042158233466176066, -0.025416085967093292, 0.041076449624028226, 0.009961581680902134, 0.014786738287593672, 0.00849393466120432, -0.022789103878256108, 0.010064092668364536, -0.0752550740368744, -0.03071842476040612, -0.03929222170890865, 0.05230266631389179, -0.03272936539599179, -0.008532920141902788, 0.025129010800914533, 0.043209802017401946, 0.028216142222464487, -0.04053822369679418, -0.02611705001074441, -0.03748137253499874, 0.01920044160006034, 0.019967080765511284, -0.003803628629218264, 0.03844921941553338, -0.017288368009317902, -0.030734321599688846, -0.003990171865490348, 0.015429711995100938, -0.014425186170482537, -0.001826400237056513, -0.01963185069326573, -0.011657739713422308, -0.02532081173387213, -0.033961371073685784, -0.029188704494766272, 0.035413280273948425, -0.029333740762410927, -0.033540028438809426, 0.02524199491836282, -0.008508953120268678, 0.017424535516343254, 0.016833714958789384, 0.02759216074145611, 0.0385888213397415, -0.00717776107107033, 0.051271636251588974, -0.02902886591860196, 0.00440565622994507, -0.05323337380410223, -0.009625515372133445, -0.012879236771745335, 0.01848787542193055, 0.0008977506018124308, 0.07460864729906103, 0.0036901495352933415, 0.02027730683840673, 0.02889176531898182, 0.07571127809549599, 0.037355881923969256, -0.035229649856065616, -0.003341890669868688, 0.008483554056958754, -0.03715609102093334, 0.01623696101682964, -0.03349325112990663, -0.0034080743022016614, 0.061064718718619695, 0.051575746267574524, 0.08242935344621848, 0.004932635244659828, 0.027179523348437755, -0.018006223688590377, -0.06458136695408201, 0.005675954843709094, -0.006643622798010124, 0.028271168575742387, -0.0517618736331415, -0.041076223137593404, 0.0423157455744391, -0.01264182694436733, 0.021309791752789575, -0.007086114501735802, 0.03184970749925247, 0.04940587268674194, 0.006127737196073969, 0.0393059897908457, -0.014789210109597273, 0.022483610687106078, 0.0014882702640004251, 0.003537398031097986, 0.02887201093332957, 0.008929294244481951, -0.02374921630989983, 0.09266234677882579, -0.011957874982997326, 0.007648557324543315, 0.011365444618043471, 0.003322130908501903, 0.046633937307043516, -0.03116358617868239, -0.014041449186367023, 0.03657732317423143, -0.0027281464318362663, -0.04734587615894618, -0.027746234163258537, -0.023700692746342112, -0.01247911438216464, -0.08477724877589546, 0.027835769706782035, 0.03413697579819599, 0.013335517485579566, -0.01864966848201455, 0.01588294570110846, -0.09439015507101867, -0.004844015312117289, -0.00848679117639649, 0.0032778879666883524, 0.012867636954716816, 0.09336658376899944, 0.006336088293146482, -0.09984981106832426, -0.008133605987163534, 0.06332462741323276, 0.034044520633293426, 0.03397921472770333, -0.012383355959729208, -0.0395842720735264, -0.058090149026495626, -0.02142058841404826, 0.05008335526069774, -0.03536040309544774, 0.01757185272598075, 0.03934267457629059, -0.04530842243604556, 0.028977502954540893, -0.02238468859652831, -0.0080348605423774, 0.06281486562993388, 0.025427309835268194, 0.0005611716514354388, 0.019620801839655498, -0.026623761401195673, -0.007546501825328009, -0.018388396707859977, -0.02443199573683956, -0.013863385037939572, 0.05247741579593482, 0.014070812798438633, -0.017413002179110064, -0.05302717055321212, -0.00436344581104962, -0.10163881444793767, -0.05197697725597943, 0.02148691718310903, -0.06420564462208948, 0.04226482202827374, 0.05580500225963543, -0.03332278360604903, -0.04804045070768726, 0.006498024924846417, 0.07443379456540276, -0.002584393709352786, -0.014250273677321951, 0.022577166365653784, 0.015743042992301833, 0.017925837061105745, -0.03140060857837498, -0.0021439828652775918, 0.02750532557839303, -0.012474528388531718, 0.007987330221731518, -0.07391083212792521, -0.002940316280903007, -0.011223771579340642, 0.014547860894024755, 0.048755601761781495, -0.04802175190486571, 0.014766340223125937, 0.016224551688246262, -0.05526661240638987, -0.06571072999138963, 0.05291566314515928, 0.05897994524695609, -0.011109403135762964, -0.02376023076876433, -0.005590058380786022, 0.02646215594504466, -0.022998331511421208, 0.008999448063095642, 0.016163059363308196, 0.05867614089912323, -0.035648965505221786, -0.053124622501263624, -0.009606809642586284, 0.014207798946511729, -0.0607189497306861, 0.012821392182397317, -0.03995914839287133, -0.04334101871039844, 0.020157080555977615, 0.01352638778092304, 0.04288158371413655, 0.020964876768074847, 0.0162876893389999, 0.06603077129541086, 0.009727630764746052, -0.04553859848421623, 0.0303249667717765, 0.07572368239888229, 0.007618848854661665, 0.007944508789468206, 0.03990673214816545, 0.01816073596100221, -0.02966040136823382, 0.006630688761532448, 0.05451148940588053, -0.029295254077621513, -0.02584706601084253, 0.018741652657780477, 0.019860486450798107, -0.011437922778412896, 0.016054636334666642, 0.03122615588745415, -0.01676873563200766, 0.01498700851773391, 0.034498651295545815, 0.04201263169044222, 0.019934990534303164, -0.05786570383177676, -0.01764076124208601, -0.018621042050857493, 0.06235151781765731, 0.029739265479885403, -0.03287597599666098, 0.008647444839127385, -0.001433358577829244, 0.027021342112804922, -0.05780474513095403, -0.035055107418252844, -0.005990461185921683, -0.00649686921998806, -0.06398695301273441, -0.02707735893218752, 0.04299146780428573, -0.03458019060120544, -0.061766025909221145, 0.0006358446502163727, 0.014852177612397054, 0.04424368149627487, 0.006127780940204161, 0.031243080219615058, 0.02120850134226022, -0.030007542371884084, -0.041364908039746635, -0.04965893796403183, 0.06290728573627237, 0.0005232394711894308, 0.03321935322544693, -0.01903643808523327, 0.018593401877847218, 0.00427180534771168, -0.008440369053002996, 0.03861878631011189, 0.005820672310627963, 0.033877172321465, 0.03491446478077203, -0.028479296125831884, -0.02098680545754208, -0.02421626680792986, 0.045554686628472424, -0.02274054724021594, 0.01749619509784979, -0.031759699847657266, 0.010940081393115732, 0.017435493538599165, -0.046704892221165306, -0.006201642030095064, 0.06729393289106395, 0.03086455122395764, -0.03002018017263589, -0.028889594374720603, 0.035507475938575235, 0.009072681241270595, 0.0423821005626228, 0.027194385493729937, -0.04444889216202748, 0.005310454655494316, -0.04306897708631447, -0.006517794051059476, -0.060983358335480006, -0.02631847679158181, 0.014614665186933322, 0.027518020459142943, -0.015721489474574055, 0.042523012069832486, 0.02881989590474633, 0.020130026256831923, -0.028229712428651632, 0.034348937046381554, 0.05385976436663104, -0.04693885346198056, 0.015170640850397077, -0.04291531680876345, 0.03214721402407579, -0.03668205574771051, -0.004930617757121838, 0.027725332364153595, 0.031074662026138813, 0.003964343574412191, 0.028564064642759554, 0.032346846806481, -0.028693256013745005, 0.0012262090845484176, 0.0024239895772046657, -0.09474217026486254, 0.041663764097443316, -0.010245850466428062, 0.00778542987851868, 0.07174505973746276, -0.06331900263789722, 0.010364797977103492, -0.022107924278607506, 0.08454087785948744, -0.034357155992564295, 0.038596092301277404, 0.021646063401846567, -0.021443396214423673, 0.055780148327841665, 0.042275699284964205, 0.03900953320290568, 0.0477399814205387, -0.008630804294031706, 0.015072563176532746, 0.03595424073096189, 0.07215558392967424, -0.0013325033795068481, -0.005117270553257074, -0.0009276108242147906, 0.028703956870785176, 0.06365968442483827, -0.022562099896322123, 0.00011537237539024461, -0.020288415979938593, 0.0006701483413739935, 0.0026362175997854485, -0.0260898222502401, -0.02142523895054247, -0.06151278101127759, 0.04460174366951233, 0.03365411971763066, -0.004537690321741032, -0.04792884821678999, -0.038356877679020594, -0.030908930344055095, -0.011163919570204432, -0.02696016874820048, 0.0691338065488787, 0.021183899776072518, 0.001776655490671331, 0.04047923088499334, -0.01679211982182841, -0.03072603377974362, -0.022140342437548966, -0.05474315945805047, 0.04856263937351189, -0.02498473635820546, -0.017588229562839557, -0.00414992077112936, -0.03665868380207656, 0.041694099759855066, -0.005758157735278419, 0.005214853950701252, 0.055561604237505266, 0.00960346827086861, 0.06613046314584817, -0.06460722046750286, -0.022998194409700353, 0.019844393491134104, -0.046545099966560796, 0.0266729022172178, -0.018299136006875057, -0.0006955527971916318, 0.055820026580668036, -0.0393204508915384, -0.022175941058181964, 0.05755914666672553, 0.041634158945725336, 0.004795498911122961, 0.053359252896309724, -0.0716097721896792, -0.05281324756102391, -0.04343577970816149, 0.0004830585556415494, -0.004167101024019342, 0.0593891375394224, 0.0048701729163079166, -0.00362945922565062, -0.004645176610984794, 0.003056064847976366, 0.06399444715317139, 0.049867280871128065, 0.02057937485800985, -0.02646803510390534, 0.011847151714843858, -0.020254275119990225, 0.004384579785552092, 0.026066100001042973, 0.0414112418549555, -0.02744304659381612, 0.055346314635687004, -0.012800487357721857, -0.013853775200021196, 0.033893179328971686, 0.008364855748290375, 0.026555227938180662, -0.003307763655450308, -0.0031366577863617246, -0.045978373556083155, -0.04219497482093775, 0.019583662141456067, -0.06581625285371165, -0.044161423371247344, -0.03095282107647487, 0.0055884731703879885, 0.04777385385852706, 0.04394205218868774, 0.016222637951588605, 0.002990603455706623, -0.016659258524596123, -0.017247459936130187, 0.010861223409034103, 0.09599165441676306, 0.041149127614126764, -0.02722253917501583, -0.023980830230607274, 0.02358885039175096, 0.01510032046330281, 0.015280666681051882, 0.011895976054454018, 0.07644855895364595, -0.04807405598614587, 0.02796657670175012, 0.004308584430644193, 0.008828568253027892, -0.02603723986500632, -0.03872977788196406, -0.022029088432637796, 0.02607495632255737, -0.009931804721488293, -0.04681731803690706, -0.02870536984822057, -0.03888612338840928, 0.004933368278956015, -0.003342298446712091, 0.032244867977621834, -0.018861468788124253, -0.044087040674961026, -0.031335349828002984, -0.022165072104758335, -0.015743151717405167, -0.0460951526438478, 0.0452733750310575, -0.01474217673601488, -0.037595866023463854, 0.031896954014375804, 0.05763064930895227, 0.04689916951086735, 0.04885354312939225, 0.036392743284777915, -0.014110825336829507, -0.015430347865817392, 0.11254140925120028, -0.030247456672360083, 0.009698598772742335, -0.02487342760339232, 0.006695518903420907, -0.006820000783930122, 0.03575441919684979, -0.00939090162550348, -0.027340433331725804, 0.06891517777955726, 0.04759666624877034, -0.028637547172484436, 0.06783057871611954, 0.00290971045585543, 0.0688896223725233, 0.018722117540348877, -0.060648784372313615, 0.027737419778415266, -0.00557981045195302, 0.015774713621200018, 0.021522152908475957, 0.02589985122403485, -0.03162901198855853, -0.016968582317340674, 0.10398177293436907, -0.03607147551549754, -0.017450242896611578, -0.007419143906959895, -0.0489402125915046, -0.024596950834911157, 0.04538829025604629, 0.027155336719690514, 0.00480670598654628, 0.028937902051236197, 0.04726195245855031, 0.13052916116804775, -0.08647407492280165, -0.03376337336005696, 0.002708334226824973, 0.006271907218043024, -0.011846737323782115, 0.05015168308358336, 0.004721992500987763, 0.020103204585024095, 0.0005481613770264374, 0.017345993253477434, -0.010802556661605315, 0.00013212300160916904, -0.005710035359646318, 0.01772435676069634, -0.006228968649893697, -0.022937512359923612, 0.050960647998858015, -0.03414014206896105, 0.01605110397154819, 0.029779698084765445, -0.029469684817481898, -0.0012700503240704764, 0.0136852054153255, 0.06998678527857952, -0.03171108205500317, 0.01468013066922416, -0.06335644942319017, -0.01208495221354764, 0.027239750258381653, -0.012301748716499625, 0.023348619053488687, 0.04808179723699589, -0.026557914567198186, -0.08979001707450132, 0.016264655850764864, 0.01836207318345006, 0.004368467466481036, -0.06733566340803647, -0.011128998015156412, 0.00670253087246771, 0.01564173279670974, -0.031081708403375687, 0.06938228816180111, 0.015573742198014415, 0.01426063258390397, 0.016797877698482993, 0.007673143182470551, -0.009812419603474492, 0.022055085179532145, 0.020018614877289703, -0.04355835003318691, -0.04612241315440226, -0.034507030693729034, -0.023647652959159503, 0.025425496805601817, 0.01834188811425059, -0.02361989560967985, -0.004995423434878849, 0.07364921768202842, 0.029712356006476065, -0.023079453570846283, 0.05101022856263948, -0.008290412252927943, -0.01920237322671426, 0.007401432331815981, 0.005876752046442592, 0.02945323327388265, -0.034516214992255934, -0.030987772457177265, 0.003639942862171954, -0.03381171185338815, -0.020278738861109223, 0.00657974649130664, -0.06406805973334702, 0.04156143600623896, -0.0029685298698200013, -0.07150842613389255, 0.08416348377383365, -0.011483056826425626, -0.03619563697736243, -0.056087742114056274, -0.02897127027246349, 0.030753573386586696, 0.001104270674013739, -0.04941869220989638, -0.032960577846386355, -0.03586113655618546, -0.01877555915514131, -0.005976496472716433, 0.07370773440936641, -0.03566460294535416, 0.034423721170383725, 0.008857150050228413, 0.03491853931991251, -0.02905786341967299, 0.03465652432056467, -0.0734404237456424, -0.030321289121285167, -0.02791090132788609, 0.03174639041877761, -0.02426219146345694, 0.0279988404201816, 0.023895453708144117, -0.028968383044709983, 0.034621317650917804, 0.01570358845798588, 0.03934151558636619, -0.0057734907167097185, -0.033123689791518376, 0.015271799703803266, -0.0011709601591457241, 0.006892161972573785, 0.006666174480833244, 0.003802782593009099, 0.02623415100671037, -0.03299484336989661, -0.03975169456787799, 0.024940387048039317, 0.04180143899598202, 0.030171671816459557, -0.0395418299657767, 0.05059695124855192, 0.038380970389394635, 0.007096263656194466, 0.0007935673424269888, -0.01995910352872613, -0.007342509944031189, -0.04735661742330976, 0.03422399595831448, 0.0473191818643795, 0.03416900680674666, 0.025217050869278567, 0.034602989557461744, -0.034857851241494105, 0.051045994717844996, -0.004629692637862329, -0.05926870025038443, -0.023211414355770017, 0.04100265701063147, 0.052041169062605815, -0.002441469588092261, 0.016322656624801944, 0.013894154508040893, 0.03772165711183766, -0.017306025598681274, 0.00769372536859067, 0.030676186662333366, 0.03935547227383067, 0.010316545478317934, 0.041853401470478876, -0.0422180947904236, -0.002498139633020446, -0.004632790881784195, 0.017591744817015885, 0.0043420800906406485, -0.003994868540431672, -0.04472857508573097, 0.024774640125498147, 0.04567975186597977, -0.00788693424465614, 0.05853703421412658, 0.00560053617114975, -0.008712324432055675, 0.02310480881404584, 0.0035325197377883413, 0.027189768608204223, 0.01981609583113263, -0.010510166854834, -0.02939851613753086, -0.06320082499259627, -0.002416352695586941, -0.06244747513381627, 0.013604657642175597, -0.05467200567446028, -0.03451130480121315, 0.030497360080005708, -0.027768167182274504, 0.018877176865199567, 0.028873426429014935, -0.003122403984529363, 0.024429098864141074, -0.07413027772876932, 0.024272824660370045, -0.007659304283124365, 0.011858394024456851, 0.07014721872599804, 0.02499462384706901, -0.006872600953613408, 0.005455068830531036, -0.03594330330166814, -0.06924314098699694], [-0.002980817203035223, -0.009486363120001158, -0.05333598010690994, 0.016963522269157576, 0.011183880489448525, -0.02120863249071637, 0.013206744061910374, -0.011976071776979375, -0.0019232312865262006, 0.018944778121650525, -0.006938167161897863, -0.010891241636838833, -0.03731275514947007, 0.024515554847695735, 0.02879328327523605, 0.014998988986820958, -0.007741958607928011, 0.01539799538025309, 0.019783213652602903, -0.03696645737067573, -0.02219048965628297, 0.010596392500144828, 0.026148548297168905, -0.006248248939192289, 0.005326155102711938, 0.06551898266871148, 0.06037109838066934, 0.00634929031255741, 0.08687674127044498, 0.007029722268559189, -0.02230436441173488, 0.04452648452498138, 0.05203885447038266, 0.0045326573183288865, -0.018907218963305217, -0.031639974490136114, 0.027255760260778573, 0.00809784877549598, 0.027942472481905265, 0.04236079430379313, 0.012132124049185823, 0.016149401971708083, 0.0818942069614602, 0.023665322291133436, 0.052610148127893344, -0.013984875804906838, 0.06211168327347775, 0.051060546657680374, -0.0007573560049534071, -0.0004698140686047202, -0.08716609934651895, 0.03281491725481778, 0.01288726591763593, -0.006444620025126551, -0.02695351713278194, -0.045258794076547613, 0.0028622654323770327, -0.00234608801532299, 0.03720446276034267, -0.0432819682379252, 0.024960726675117912, -0.0019959059084137917, 0.00753165977300867, 0.04301982375262655, -0.035750173912113124, -0.06032170998172252, 0.0077302323309024, -0.03814875697994933, -0.015095671927386888, -0.043328793174724704, -0.010141681259530765, -0.042389851203070296, 0.07267793384606928, -0.026252136014752344, -0.061961088840868, 0.037273433719077445, -0.0006663148662086633, -0.0845782445589017, -0.0057399350129706895, -0.07641397637945732, -0.00714261703301261, -0.03409505872756673, 0.004882582617967132, 0.0732411298617197, -0.013052562531079502, 0.00367142580805862, -0.029023436604780063, 0.04151420259402398, 0.007931541793032848, 0.03384442614651736, -0.01722139196527177, 0.05445465490312126, 0.057387802703136356, 0.0047153650397859705, 0.026287099872307516, -0.03281201065339929, -0.06170668200503815, 0.003558151379195847, 0.05586923457077461, -0.07738411455263372, 0.006636788641686348, 0.010765191944524459, -0.029011384540637352, 0.016768333280365477, -0.034411344101951485, -0.01554637915445684, -0.0023990889167653435, 0.010098633762458361, -0.016236402295912486, -0.043755835272380826, -0.04916527077164845, -0.03887595357739743, 0.03904936059456784, -0.034134484293248404, 0.0003335825041140407, 0.012047871423212597, 0.039616482422686734, 0.03489681822581971, 0.012448320385931605, 0.09535992547460263, 0.049622648840924106, -0.021824519446584537, 0.0568988148376889, 0.027585099474111047, 0.05192749436521194, 0.03580112564035672, 0.02500168826185055, -0.0077062901598911986, 0.03735661591133556, -0.0315947930315581, 0.08156961037238657, -0.03759824118695841, -0.003924839018757694, 0.06695906347750054, -0.018253785703062672, -0.024744611112763, -0.03640081662760167, 0.017853221446733174, 0.006359085713195499, 0.02789532081474062, 0.051526334433792474, -0.02961595486563823, -0.05028665848786829, 0.01494495408275717, -0.03460217594990544, 0.03384211412437286, 0.057183440937464025, 0.06133376525184226, 0.006137701004084212, 0.029179721656006866, 0.01306331203237716, -0.011917947810028928, 0.023563816032107575, -0.04556641786403411, -0.050436021757734956, 0.010564221136165054, 0.011136829644651798, 0.04024229017801411, 0.012203060549313818, -0.059696155972793756, -0.044944059328741695, 0.011254196425324733, -0.01906237199675972, 0.007817271122837425, -0.05715552623347508, 0.015734142680131773, 0.045755824858275625, 0.06427922321659967, 0.016604166063944128, -0.021267032600985405, 0.0206492624596548, -0.047954963975659425, 0.004856302773778114, 0.03179133865586013, -0.03408117189622795, -0.011094038911173835, 0.0020847100708575577, -0.007572880878067374, -0.018173826369588003, -0.04919027369988472, 0.014851409923146278, -0.02888221371210534, -0.040249536611957154, -0.011608462795735117, -0.019762495682531366, -0.03964646555742049, -0.030505872052720925, -0.04575647309995839, 0.003128581918444516, -0.03624829431725292, 0.01653379577658517, -0.00491219190712957, -0.08860071830850262, -0.05580601369562173, -0.010033813640374447, -0.08511764333083363, 0.006084900335802922, 0.04142042004102184, 0.0033877025890703414, 0.02740779183990226, -0.02781143467595921, -0.047739116146810916, -0.006530621386401909, 0.012748168697933118, -0.006539297689888059, 0.03770837297605294, -0.008523590122802554, -0.01399245232445787, -0.002267297374676503, -0.025674465342216284, 0.10154971534040419, -0.010421038250836751, -0.06781020644710656, 0.00010580915022184731, 0.06323845024001899, -0.018366870486692662, 0.06459316711121685, -0.055251877195617125, -0.06226227941735769, 0.067678227045169, 0.06760672386288187, 0.007368010211291599, -0.042271944756998366, -0.019550248536933112, 0.06002569951933964, -0.03502422141906188, 0.035574261185078386, 0.02720938935944548, -0.0052240795347841245, 0.030100870333960836, 0.06319402177794894, 0.0016032619680905861, -0.06052707426893616, -0.02137163217672214, -0.01618496256155994, -0.056554237419471104, -0.008874478832615367, 0.06518764134425918, 0.001035610318368972, 0.010587717491995321, -0.024153671960577654, -0.03568926395591668, 0.04387913016871858, -0.01341806419772977, 0.0323640297174148, -0.07391436014458218, -0.06813847671766073, -0.005516492508252025, 0.041110809355655004, 0.03434823193604221, -0.056741807249692695, 0.01234513864755847, -0.09304969758532718, -0.02051793896021133, 0.06779987057387396, -0.006023950912581989, 0.06392667492675563, -0.04336160875061433, -0.004004324682111296, 0.03782661464604888, -0.046397500941718864, 0.01522172783442284, 0.003463807099773709, -0.04591123137352102, -0.01954360978611837, -0.0006186175959773779, -0.005486906852740333, -0.0007835714675928815, -0.02578017625125652, -0.013161165087332104, 0.014703834338575299, 0.06846018587524026, -0.005775914241894559, -0.035251286731743055, 0.02115408890874617, -0.0196929451202296, 0.00589255761239547, -0.007824150741892407, 0.09980019609151229, 0.05770771098563224, -0.04984459128713783, 0.041694294009063285, -0.008640176073280282, -0.0391493897167215, 0.04169269192785641, -0.006870053400916134, -0.0020184168017856677, -0.023393681597557184, -0.04182214166454043, 0.024933989018316123, 0.01142814775179253, 0.03496640612692167, 0.017379401380155358, 0.03712238440626174, -0.012079981808634444, -0.03821185700999699, 0.010489098972690881, -0.011544518667557476, -0.05340587598692324, 0.012764653265192855, -0.0035428668009265195, -0.004654140470921332, 0.035985005113509376, 0.07708121442526839, 0.005139788275483793, 0.03607978982238235, 0.00760766472041624, -0.003957180386216913, -0.016674112827314114, -0.02850913832741626, 0.01614620150165265, 0.03861381811719129, 0.0257427538363674, -0.00046116484393264254, -0.058407448983822524, -0.014887928331795634, -0.004946248913205089, -0.022024233840441828, -0.032938017212964965, 0.03703031379298576, 0.023880230976061515, -0.01510149544693008, 0.032927628709449853, -0.0029351347421793126, 0.014931653023244824, 0.01765375273676984, 0.008348847516579919, 0.007634407420055213, -0.08257631805687726, 0.0021325994820159916, -0.021655521887999015, -0.010243377165945429, -0.010673181055979208, 0.010036656549003747, 0.03785067440511783, -0.04790594636640213, 0.0344604275518515, 0.035582293564043244, -0.043400504140362124, 0.05746529986268425, 0.048953985547776864, -0.031537953408303294, -0.0059248091378240495, 0.0390856855508219, 0.0073082190223217516, 0.022177106487618586, 0.009799655592992496, -0.0027314671994061544, 0.044898864245728025, -0.04205711430871081, 0.028616565438606197, 0.06698873053176523, 0.02586935849066106, 0.0012313611815269493, 0.005389633592121627, -0.039535437637930756, 0.03499332248890325, -0.023224370195390063, 0.05008549140664509, 0.0065253132808999635, 0.004738082601145009, 0.05966950468303089, 0.018273072664397632, 0.030290838945614545, -0.008576631722609232, -0.0021612515785803484, -0.019702814610988547, -0.043593870695371004, -0.0075087810333555206, -0.02591745217192413, 0.015853350222314835, -0.056979465524105447, -0.03907613143543562, -0.010229610906145025, 0.05897821611940331, -0.07931529343380389, -0.05614578756443223, -0.032009306749108804, -0.03944358347885747, 0.009738806880734733, -0.037327815913233274, -0.009479638324063601, -0.02031261503167412, -0.00979409816774823, 0.003921288286380646, -2.8402855179726587e-05, 0.004848071794337423, 0.007798627594188007, -0.02513455097597985, -0.04389319167626975, -0.023331365032705095, -0.0012561898872745397, 0.030957537181649328, -0.02358165734911076, -0.05891826429471435, 0.027312627096471833, 0.007388467152665348, -0.012647511208233871, 0.028607942396170098, 0.023119879709313132, 0.04037799854821739, -0.017361293347359873, 0.01657304246913384, 0.04631802082029226, 0.0050310986107776805, 0.01947394374987056, -0.07689799462124054, 0.019301735243253487, 0.024957645694922276, -0.04929450383416321, 0.009016197005566967, -0.011998618986468758, -0.0029546265789637646, 0.0009579113443975759, 0.06142560862253943, -0.07603886665559345, -0.007596918158458639, 0.006469489541898926, -0.06723500966248452, 0.022988380123845454, 0.03458105330383231, -0.006732229182660451, 0.007375033378540532, 0.022748179151964313, -0.035427432377245056, -0.05485570758140007, 0.0075621437869177795, 0.025216238199516815, 0.0534959187425815, 0.042773246423413944, 0.02598287445185312, -0.02478708392983585, 0.03641443549429596, 0.023713518403336027, -0.03239781044176735, 0.014046001857397218, 0.015520646816341487, 0.01929431639307606, -0.01562269779904084, 0.05770826555895177, -0.008565530414441934, 0.017726313527953952, -0.0014594277370079214, -0.0579095459442919, 0.07127808236099614, -0.022673308373817126, 0.04869812857379137, -0.05231124460726554, -0.0104750986708048, 0.01400430048867408, 0.0037818150617641324, -0.011732225563270294, 0.01337873125711313, -0.03349412095888975, 0.01660016807862832, -0.04764623383267241, 0.003701701892139468, 0.04258560872166235, -0.007336724853411291, -0.012983918661054077, -0.009683827376779397, 0.02667340142391931, -0.04105016474959978, 0.04519255505047428, -0.03042845012601149, 0.010577094110649988, -0.0003149791361234886, -0.043163027883211594, -0.012077301478738854, -0.033908114717764275, -0.04636005481538962, -0.048368962172773186, 0.0551524366173497, -0.023538541661029925, 0.007447215903098107, 0.05061904483634164, 0.03494988863006862, 0.02963241552089987, -0.005288926245240115, -0.008532980549904697, 0.021420414530560174, -0.014480589081015701, 0.021300175324064394, 0.023988450585740083, 0.016711960247885592, 0.039714542708058825, -0.015893855751791777, 0.05959418364121206, 0.02976089198423293, -0.01026376494800711, -0.011326684727274688, -0.018318078002745652, 0.06067036461509813, -0.048301020029107446, -0.0056204417515031, -0.014852828294031567, 0.026729634778246227, -0.02261346444189832, 0.02302543890307984, 0.021926869007341383, 0.02002112933203844, 0.0399363391596703, 0.014115961502731695, 0.04665965804028319, 0.010288753645694409, -0.04872997773473693, 0.05273787594192962, -0.0587165797299888, 0.046985426942708436, 0.018053439172283782, 0.01522952126035775, 0.025237199101318348, -0.013033042295017203, 0.04224267937127665, 0.03589000574071956, -0.04695916844772922, -0.030153236680757815, 0.0064273047857621194, -0.030561529173607264, -0.02466829721949566, 0.032560552963675375, -0.031199062638235613, -0.027256043331865053, -0.057342934836418655, -0.00932260211197788, -0.057868953304249404, 0.044884503312933324, -0.021349028653600863, 0.06024518115356797, -0.03242601018301997, 0.004433515345144102, 0.04393820014235041, 0.049692640111454064, 0.010431353580233652, 0.025940577064560877, -0.001943401595033022, 0.029655509406699188, -0.03847757568384446, -0.011402926522261703, 0.035688324464563305, 0.034689148081252695, -0.01615637776346912, -0.10801295045615654, 0.09180628963831437, 0.06213937824299637, 0.0001421788641647905, -0.017373894231078886, -0.01910077557594647, 0.02698006467104375, -0.043161796809847164, 0.009231553615766257, 0.05034670248291037, 0.022998855802058113, 0.009405239277916273, -0.002774142554861431, 0.018036426976010596, 0.007533540489403252, -0.04290942030883302, -0.04864325801514113, 0.044226522690960474, -0.03748591799092972, 0.01604013616586699, 0.009858377548800099, 0.06480047871196434, 0.023165257477240454, 0.02470148397148157, 0.01749448588648849, -0.03681570983462639, 0.04868571036058379, -0.021485951734419355, 0.01703212927487706, 0.006069099775597368, -0.03829547913557626, -0.05476242228902799, -0.013752409314846744, -0.07613470072969512, 0.01011741653568131, -0.026548013828988852, 0.006710750055363094, 0.02712683032334387, -0.027529537660374432, 0.004524036967166744, 0.016869442243045287, -0.06653590543040498, -0.032730758919152864, -0.003757859471680501, -0.007954208071597536, 0.0019042231464858697, -0.017083844955277237, -0.006785533554940287, -0.021866000772440473, 0.02305269000257112, 0.03601331606740371, -0.014357566997580557, 0.01947520764853205, 0.027294430982799274, -0.09366072784803305, 0.01062664584142709, 0.01784509912219125, 0.023187136754705073, -0.07129981333016629, -0.029617836671541532, 0.02571313191789475, -0.06293495281686777, 