{"sizes": [784, 30, 25, 15, 10], "weights": [[[-0.008257515757791524, 0.004580081622641222, 0.018227625614101815, 0.003938285820849175, -0.03877166227355174, 0.020180204410331335, 0.035520017619722094, 0.10703770920831714, -0.02916857057375549, -0.05168150482279245, 0.043811993588524355, -0.01877787589944414, -0.050278742393681464, -0.03840543353126338, 0.00660948179438657, -0.012480537735450064, 0.01718135749264366, -0.05759596391831728, 0.03937524315321058, -0.016246327111964273, 0.025714173349957382, -0.030074256086806063, -0.019296818741278903, 0.0942366271263398, -0.04799107844974884, -0.016944374986345226, -0.028454921403146413, 0.002845268402771268, 0.0038464818066714685, 0.015520190925555632, 0.019619508126946825, -0.019116315233804075, -0.024985454219136276, 0.042054347590264746, -0.03352583485162653, 0.05752900796798639, -0.00876091126263252, 0.07334183885179021, -0.0029842476373152134, -0.05165804311981111, 0.07106253576632399, -0.01872058180025704, 0.032377813840655474, -0.030940827837594574, 0.05233383723980683, -0.04105992966122674, 0.009608992951676382, 0.008801991123737099, 0.007846125512559931, 0.022310995603698328, -0.008073391713854728, 0.01616505003324002, -0.015966398169334897, 0.01042997530285585, -0.011645763448274614, 0.035883938624305785, 0.012880261839086185, 0.05711398058788156, -0.020401767379596824, -0.009314676428483864, 0.045133049917151655, 0.04354782059224483, 0.07593713768792651, 0.018960785727893795, 0.0997465220601286, 0.00023702508714052022, 0.005322230709934929, 0.05564196187742569, -0.025850402511385966, -0.0043700195783516185, -0.0074856302472016715, -0.06658187595587439, 0.03313349582803292, 0.020962129032351336, 0.03715012827112096, 0.008134205171347771, 0.008229702391673557, -0.006522687256874883, -0.03889004067844709, 0.050044181839990674, -0.03564500228884055, 0.04202942646084298, -0.01337638130243273, 0.07261323771923396, -0.0584970122355512, 0.025647745716006237, 0.024393605964969565, -0.06618686684618547, -0.010910933033203299, -0.06164249155380653, 0.032214042357871724, -0.013410292866658709, 0.04539148088582341, 0.005744074156945402, 0.03158917373990455, 0.030833896526140298, -0.02098185698941809, -0.014542643850036637, -0.029842471887436404, 0.05400845082857443, 0.058452471709876525, -0.00792943817980254, 0.03363734187128079, -0.022368068152077755, -0.016086557036875927, -0.028689941393460063, -0.013885559349120433, 0.018236593103810875, -0.032520728733548936, 0.0356357662420788, -0.006396227605414293, 0.044567252896316516, -0.011427028817359764, 0.04068536558342574, -0.062289430584518156, -0.05450211934540278, -0.0036968615124106266, 0.06184281963636362, 0.038327529995574684, -0.0017646290305639656, -0.04089330197934389, 0.05718264873690444, 0.04554034314265999, 0.028768512192403773, 0.08454239480573036, 0.020012971222713942, 0.0978648558030463, 0.059246970277471445, 0.007202705939599027, 0.032814033197504755, 0.024824074192597592, 0.02923839927649018, 0.041833466418048026, -0.060854949275761246, 0.03029642842252923, 0.06513323214195559, 0.06950455652785123, 0.032859985244715464, 0.035704563232680474, 0.006207050784506963, 0.020485023843055634, 0.02286090198604658, 0.008476964612437573, -0.024320897093296243, 0.06494056025608497, 0.002204395110691022, -0.062383548434507385, 0.02822624458955268, 0.007254825382687693, 0.05840304900826794, 0.10188937470810569, 0.030428604016856625, 0.07080815936376583, 0.11611449181984748, 0.14284538479978215, 0.03570493881842992, 0.06888520492325349, 0.032472703482144094, 0.00928252245584317, -0.0007227975136973827, -0.053091314563141534, -0.03246096099716897, 0.01125126713446919, -0.0022887467064065694, -0.060528836547939266, -0.0096641470764796, -0.05836289025040649, -0.036000149391933765, 0.0026487629707881728, -0.013282827710333357, -0.03762886155961766, 0.01716639355445316, 0.05058300152407438, -0.04031047844776413, -0.039777064702236735, 0.0449432690643665, 0.033381629103011935, 0.06952492844868613, 0.028776370652361622, 0.07096799327543367, 0.03186611314636907, 0.12121676558283087, 0.06799172559984769, 0.057521898545936104, 0.015705116387500093, -0.004827790672234661, 0.003095628698299013, -0.028229484592880934, 0.053628517204211676, 0.05059534544847955, -0.030367812235444495, -0.01600946668203536, -0.02697190400193791, -0.008547711161971793, -0.005039705033124721, -0.03483280605979836, -0.017340678111350843, -0.015416388770953656, -0.021513503478634528, 0.0091447484135126, -0.004499524486053628, -0.01548993017439416, -0.028420031145653894, -0.04254900065209416, 0.004544093467736163, 0.03060292394845655, 0.08103530220733854, 0.04163109038140732, 0.03791441974197008, 0.017449597577464414, 0.016973478347659984, 0.03980550072296683, 0.0550211435793193, -0.011249078471114218, 0.006544405839531953, 0.0252994964555472, 0.019812336501858385, 0.018484846469874243, -0.0035297523672064104, -0.03891054953602157, 0.035770201175902815, -0.038761156427331335, -0.0651226116448281, -0.032783014847926534, 0.028278376938653656, -0.01223845792078291, 0.06565297265329106, 0.029337312343209895, -0.017393490884153297, 0.00040221944383727, -0.007456229867064426, -0.0020146821999500924, 0.037988762126114635, 0.028107096811140653, -0.05845301648791089, 0.014427189392372523, 0.003091068673484176, -0.010602674538925856, -0.03382535816608413, -0.09777767210524206, 0.06253021511392774, 0.03198028802171212, 0.020748629838619255, 0.0350772195836655, 0.05350213060337497, -0.04064022176691637, -0.07568413011821866, -0.012582478940293455, 0.028829774552184197, -0.025790638804527383, 0.012255895194864383, -0.07210413263137064, -0.04013412632257453, -0.033331341103322816, 0.004239237156164179, -0.006223346511628624, -0.027817318524867338, 0.045770757141657493, 0.024964309790835516, -0.008255645737931383, -0.027182802151260444, -0.023102347555090046, -0.047293415092353554, -0.046010302072367115, -0.011565990569305892, -0.03082561019114425, 0.017609763447197942, -0.01806687387610468, -0.01577092835298741, 0.024287851761066202, 0.008346098495596936, 0.002502100534817309, -0.0009912958127369401, 0.04001078203008911, -0.04817358248013546, -0.0002486351007050362, -0.036230651058571886, 0.031474046200998876, -0.026818908305388973, 0.024775642423917967, -0.012879943111615066, -0.026294610039774027, 0.032886269169708, -0.009585402960502238, -0.004575310521944834, -0.08035491506196517, 0.0019243541002525268, -0.07471044134230104, -0.040749319044520935, -0.06718187107658137, -0.07311824256727291, 0.020994460211013997, -0.04340806008780216, -0.030290697372909365, 0.022612532193279127, -0.018988066564165074, -0.030689247020290574, -0.003941266999572603, -0.06389184519076513, -0.06579159328444578, 0.020906421970350766, 0.053638922563415556, -0.009290626961705838, -0.03973650980117604, -0.05998360561107772, 0.00926405815826511, 0.03609232161706814, 0.09724295913894673, -0.0887326895409851, -0.00029464266415601584, 0.10962105146057229, 0.0331962184711256, -0.027038727085869737, -0.013007692066707972, -0.05076725419561746, -0.016844725519694667, -0.09498700613695171, -0.025300600045633902, -0.015791763702729666, 0.058987318016381275, 0.017442679173207274, 0.013334760200669848, -0.012981450788055841, 0.09298505824812768, 0.06729280854077277, -0.033605138109018856, -0.030854345006861135, -0.021080288106552783, -0.01904170797938686, 0.02968994909010078, 0.029308217496576257, 0.05322275348994507, 0.013754288779220492, 0.0016516569505268283, -0.002171209942495988, 0.034815337795204876, 0.03489346398763381, 0.012515935896341616, 0.033194001941416994, -0.02633628905469716, -0.05246997043781327, -0.003780855249209786, -0.020509898151677183, -0.033611611700711246, -0.035769485562601934, -0.018791588446858253, -0.04538429813063078, 0.009198266063456374, 0.028551296329144958, 0.026971668871539, -0.047388906430828256, 0.0440103325652379, 0.024375239969015947, 0.029389021050511853, -0.02765631353401205, -0.0514447872318958, -0.014545880501803169, -0.0668225759723056, -0.038246412463726454, 0.013317044504310361, -0.011890764593344438, 0.000883061295185096, -0.027905567912897503, 0.01572212732904853, 0.009212159291164564, 0.04727616525018776, 0.002849408194211404, 0.023680337874218926, -0.03709422495937299, -0.04156314835672061, 0.0013232617508140121, 0.012248715059594592, -0.01549448460112124, -0.0316544122262334, -0.0544172644673863, -0.034839127669066605, 0.05563488629469822, -0.014216888703531006, 0.01272630463182489, -0.024740416899825684, 0.0015027621093704436, -0.028546802299866073, 0.03670247067234213, 0.024719079816889023, -0.0283125806156493, -0.04765967635314969, 0.016952849757317468, -0.0032204269045158973, 0.035222058504291616, 0.040877563689322, 0.0215431320205643, 0.030206576125767774, 0.006411242195582882, 0.03791203624967246, -0.020334208026131406, -0.02000692191601963, 0.019306494286589048, -0.0433502937820596, -0.06323045673668683, -0.05990787651865018, -0.05361191754535076, 0.069475053003645, -0.023511173202880514, -0.03728914566982996, -0.01969976660951226, 0.023660448764185327, 0.013252394946835675, 0.04619722735582637, -0.04029508988970207, -0.05669098890257429, -0.04474912619456271, 0.057259118666275546, 0.0177731754914945, 0.02655500244876951, 0.004238344963068254, -0.006990477925138493, -0.028254784736557594, 0.01724067025021892, -0.03828285834276499, 0.012923138991725126, 0.017129877019898293, -0.024537417739479823, -0.011164030109724925, 0.0420585905838433, 0.03172954993476555, -0.01726241342466461, -0.03629181076782755, -0.04554873247729911, -0.034160169940351086, -0.061717199861361746, 0.0016258704270573484, -0.030580385750609413, -0.03245934903012217, 0.037983303092116984, -0.019147694571670402, -0.00918203255680343, 0.0013849332923264765, -0.012303501360041868, -0.021627808941148272, 0.033629366083558515, 0.004601577691755593, 0.012896341428901061, -0.020122936504536063, 0.03113923752573513, -0.005402143822119571, -0.009188727446619681, -0.024490460169612524, 0.09166608474734354, -0.04198047777540501, 0.052265474378738165, -0.06234459166498786, 0.033802645727000424, 0.017877325088226346, -0.038337486577799576, -0.002973005748825453, -0.02682018986121554, 0.029489444312582856, -0.054106693674941655, -0.07075438034490852, 0.058176521313309686, -0.035391312540524716, -0.02179692274389158, -0.03544672312436994, 0.027605207393880386, -0.0017433391129929661, 0.058670330316429195, -0.02393768022320978, 0.01623972935004326, -0.023712866009838438, 0.06029977482606997, -0.005944324688352979, -0.008057992253959504, 0.03547060674218694, -0.04211175429429489, 0.01553527571549983, -0.00035596068519966556, -0.049626748704217065, -0.03947376222503113, -0.07512299387330869, 0.041155663436421845, -0.008452972917378565, 0.04497052203696456, 0.07813822684011008, -0.0059523550257117586, -0.02082526064124114, 0.05842177974238912, 0.006080478267194804, 0.011402526415726096, 0.04576902746003779, 0.006357587405025356, -0.01020445364348063, -0.04132572906501803, 0.014500820154935427, -0.01622912011866566, 0.02463787079480818, 0.016428735620754652, 0.023070496924842795, 0.03554351577269666, 0.04602772471143787, 0.05616386574193113, 0.02411054397690542, 0.03136253292143104, -0.020533537396948593, 0.02353116193011234, -0.03893697590980405, 0.006487736280942151, -0.0957809826731121, -0.01941091744270844, 0.01798669601542623, 0.05972390136543519, 0.08291088618129848, 0.05655304056807743, 0.04115399514028338, 0.029567680386986518, 0.12892337373518348, 0.04922923834475317, 0.027916280229504032, -0.027929918308242336, 0.022934488551384836, 0.05235132579574357, 0.009696121774058288, 0.02528872545735308, -0.002137122772103983, 0.022519921292171525, 0.037809307876457005, 0.06649268325922734, -0.010098700958118479, 0.03293852278323673, -0.0013237484846147782, 0.02135954672163281, 0.02095255065710866, -0.03609867602219772, 0.030856313569983886, 0.04060101547598105, -0.004470182993660176, 0.06505399316531087, 0.014401256804992544, 0.043278318501081735, 0.04197683092615048, 0.08173479841464457, 0.05896213586720857, 0.048955314001953715, 0.017749232318166188, 0.00338121173391936, 0.020251436455221632, 0.045440894514792815, -0.017776329134908033, -0.008304951231657252, 0.04932150725887019, 0.046828919274401394, 0.024202461827590994, 0.03146163786520973, 0.03461835148709623, 0.05277410486126307, 0.006705430398533339, 0.02653633107649434, 0.035690953264950434, -0.03764041161028417, -0.05361331347062319, -0.014091264268054422, -0.05479402796699416, 0.0002468278225294487, -0.0852366392588956, 0.033192958671264386, 0.04769097003595711, 0.0017623996401176763, 0.04731803860168573, 0.10580927689910581, 0.07917767231856637, 0.14586915454225904, 0.10494611316273467, 0.04077868336973074, 0.0396558421006249, 0.06878784682905137, 0.08882775387270325, 0.0573867592951955, 0.07046384527637581, 0.038555547639048615, 0.0496166728414421, 0.04443143359961919, 0.10589473543650336, 0.08896788391144168, 0.10687112713332116, 0.07807939299837519, -0.021865726489569318, 0.0923486767343175, 0.03810003535452462, 0.01615588730166938, 0.047637213495973135, -0.03742834692871537, -0.01603350737726587, -0.0664665371198693, 0.05153665375595678, 0.028731043850612887, -0.0004391417527477241, 0.06969984165100415, 0.0036007317027534416, 0.08356573748455942, 0.08051675534770185, 0.01638822477094833, 0.0429611344766561, 0.060203904277869154, -0.05075253065462223, 0.0897698992269639, 0.024511845517924704, 0.01845451268797136, 0.015432606809332899, 0.015756667553528753, 0.0022870312010705492, 0.027576457573132023, 0.08354694842643197, 0.004068365100166745, 0.04026688671676353, -0.02155560316684576, 0.06679230775321396, 0.06225093896477774, 0.029923545573320706, 0.02843779655368103, 0.04652962162846331, 0.025188626152417654, -0.05293185973354941, 0.022388820263291098, 0.04978370653730348, 0.02464762602137964, 0.06637760139310285, 0.053347562903865726, 0.0459472632490498, 0.01046101263992713, 0.03438926375078284, 0.026093130438129972, 0.07337659405600057, -0.03603291738006341, -0.03665006483686279, -0.03023983814643142, -0.009049023531084275, 0.04358048174555271, 0.012135307280453289, 0.037692848811208476, -0.013516859962753557, -0.03252831693531693, 0.028443378308595207, -0.006380767482698593, 0.07324257398670049, -0.0011308772274367734, -0.006628188387302455, 0.0018933375626564476, -0.04000647918878525, -0.01163164375190549, 0.02857840078222982, 0.015679050364286372, 0.04215053655721335, 0.016952049858082557, 0.05055254335435518, 0.04719309299768143, 0.08402796771959738, 0.03056355498521312, -0.013649049593342948, 0.03431466013047018, 0.004236030017752048, 0.005703900860435861, -0.04808978804622619, 0.026833376998250787, 0.026583066451125504, 0.03039907681867949, -0.05234187415049478, 0.04928684396691275, 0.013519755615631875, 0.00022650314875005337, 0.02651788628714123, 0.06655755324267863, 0.012857891860325887, 0.0033588567504334085, 0.015815658338751513, 0.010786290702297861, -0.05962958934807281, -0.018082110684407675, 0.013052015183001045, 0.0666031768695188, -0.057469662312248176, -0.033567338766740555, 0.01685673311726516, -0.03954713811504835, -0.07064705253019743, -0.017421744938401984, -0.026029557730695114, 0.035892051841165167, -0.00901402768315155, -0.025840330316797482, -0.082157766979027, 0.0010143301116743103, 0.044768503825463914, 0.0031729775768243465, 0.025613114660984305, -0.09156832506467157, -0.0023576067596768344, 0.03112563305591029, -0.004297598055922662, -0.00950569294349675, 0.03234227036133122, 0.008990338710054488, -0.03765802852466961, -0.004967136959512882, 0.03623668804522034, -0.06216252074391399, -0.0027344109453466886, 0.0186313182825188, -0.01534804175585148, 0.016322499721754986, 0.05775531461530987, -0.06472791308595009, -0.02159246153115955, 0.024427824197840436, 0.04112901856706675, -0.0016511229277389038, -0.05150239494637183, -0.006680865437609991, 0.02859224715942133, -0.04311367930886767, -0.0064314648640320495, 0.01578311040124996, 0.014633793711110633, -0.06871733352773429, -0.07891676954231161, -0.059954739515023815, -0.02469292549083866, 0.01061445439556913, 0.057389312485397, -0.04625711596435324, -0.027470961757361176, -0.0031437425407436293, -0.013148383044606516, 0.007331575932073958, 0.013859470008518539, -0.004961147585733295, -0.007988994755308359, -0.020286387181889295, -0.06403996653521414, -0.023926647338593114, 0.007562987107063913, 0.012164260777491304, 0.028852799254402872, -0.0768086990019976, -0.0016843815819831943, 0.011324027204654108, 0.04651773042594236, 0.01833760173054454, -0.004515715145854985, 0.020889463310374088, 0.06321390864644794, -0.07598986800927279, -0.004142833904612116, 0.011515733260481121, 0.025059106063446804, -0.07865103323013736, -0.0800610931500945, 0.005112922747702603, 0.03239230670338748, 0.03759360455956234, -0.07384400950304836, -0.07029059497424624, 0.001581408779928834, 0.013469928780718291, -0.04174051232421377, 0.02469743344208142, 0.02565368442409996, -0.02941515982024116, 0.03722469450908206, 0.008599555300679473, 0.009109797119744047, 0.011447155085092961, 0.008254362372343125, -0.00767344725348365, 0.04809649135812878, -0.03177305443580265, 0.02966771514859929, -0.0168491228586688, 0.02491690470435881, -0.0429069285895283, -0.008431480886009729, -0.018010367904305928, -0.00946426519250384, 0.004576971820873975, -0.010113842162966902, 0.058602628994346984], [0.011664730213266788, -0.008306553252232823, 0.011593853186137221, -0.02494261428749181, 0.016375211364448163, -0.04171910857945727, 0.023011979451936858, 0.01715960615083765, 0.026793625494393344, 0.025056730305111095, -0.040818677572553703, -0.010766418218473954, 0.02796087102992708, -0.005063867636977907, 0.005489475022218368, 0.013992929186856186, 0.006058499737019625, -0.01035693447373748, -0.004521788584889036, 0.04339520506544661, -0.013381557801572005, -0.0023313402183443555, -0.09016849394391167, -0.019953124987357, -0.007317026547544059, 0.047134394160054785, -0.03958277590271893, 0.030625867456007476, -0.004303397488521871, 0.015610240385229885, -0.0462825408513274, 0.08369870155142582, -0.02647331583219636, -0.03183409623708203, -0.05719643569364271, 0.01844090535144128, 0.0428276208379868, 0.054098242070260975, 0.016374008526988205, 0.002226366777058135, 0.0667073048279257, 0.03486675009542127, -0.02247678185825456, -0.03272059570806424, -0.02173698457943652, -0.025841819924999503, -0.01242097115453934, -0.015802846790915974, 0.016411379092142082, 0.02158784486194183, -0.007421258053780927, 0.02760295735110726, -0.07570337636370428, -0.02488878158314128, 0.009205282784350705, -0.03779228525393546, -0.008835930278956971, -0.04204773679269191, 0.01841180636245628, -0.03965157450047634, 0.050116768433804366, 0.03451742688218577, -6.516803686697117e-05, 0.053998071113316136, -0.039409748500923415, -0.009419643179169646, 0.05030233709546776, 0.010860361560620025, -0.01998027476325408, -0.07070481165120526, -0.026784663245127856, -0.026609447536228764, -0.03535915874217561, 0.03396711045986883, 0.04758582223152798, 0.001547045188105477, -0.010078654539681922, -0.0304708992381249, 0.006613536130571898, -0.017563933419369997, -0.0036785520289413544, 0.02080260900463688, 0.02490127954460905, -0.02200813273127827, -0.017397480410373943, -0.001943722254007527, 0.06653844574379722, -0.043771298906809204, 0.05790954260640247, -0.012266757432011501, 0.0025669142264274766, -0.03217097355127887, -0.029280103296146, -0.008316266381405863, -0.015490103173379236, 0.015292353791680532, -0.01780536779020836, 0.01722335574421676, -0.016803249762533494, -0.02441372800530208, 0.017469163339345405, 0.013207561679118872, 0.02630936219337602, 0.014712224440596501, 0.0031437218826231394, 0.016905166904202566, -0.009563017049009815, 0.03176203165150092, -0.029100074699170107, -0.020432537365136883, -0.03478375309386009, 0.017539688116760998, -0.005385294918086145, 0.07161328135735141, 0.016710312523748626, -0.007723054903868085, -0.007325017333147635, -0.03836297605026793, 0.005816692305243439, 0.022723344187498128, -0.018244860465471045, -0.02161937547909112, -0.018218572666595892, 0.026015185771150865, -0.004253163206293269, 0.05025312129823733, 0.006565168783785069, 0.012291386815706986, -0.0215311395460422, 0.008597633255967674, 0.03113003210392579, -0.05768754342526737, 0.02202397069051958, -0.041374083375010404, 0.030026407580274528, 0.03780474598350942, -0.05040483521005627, -0.001151089522345375, -0.03812554233709672, 0.01205558851014054, 0.01960961915786702, 0.012801704993116395, -0.03963991002763313, -0.045363351360954526, -0.015140235933929993, -0.04080172449855818, 0.028638287448018794, -0.08017730540512191, -0.00504128492550188, -0.024086417679031885, 0.014101209374856045, 0.006145939496143126, -0.010622881924210325, -0.014263547857228536, -0.005623970294115034, -0.025660686000950197, -0.008786771965747644, -0.04926422240914613, 0.007686289881398206, 0.048588756009205515, -0.03546302057745528, 0.03799520951705254, 0.045094417458606297, 0.08859985055159383, -0.004392077352227199, -0.049119530900948, 0.07773010577334437, 0.07150071990856618, -0.003095944291798326, 0.04007587506919728, 0.008523527601273492, -0.03405912191093297, -0.02989275047576763, -0.07475134078381433, -0.027354271993164606, 0.02325404999788734, 0.03821721935203739, -0.00474665279570903, -0.01866600122420631, -0.018192566503975258, -0.013520444353329508, 0.048284615431376, -0.08171756121451304, -0.007526392092047405, -0.019312949337082778, -0.02408112624235401, -0.01965629990101354, -0.024200262941836928, -0.040751195518994345, 0.004506612197383225, -0.04593802115429349, 0.06067287402813452, 0.009814548419042534, -0.057686609112053554, -0.023479513880303237, -0.025294140738861395, 0.04835629692853991, -0.01377434990748853, 0.10235040873017784, 0.0011515327397411555, -0.004201023541729562, 0.007247023279900311, 0.05585847513279487, -0.014663374388001716, 0.029421744805091157, 0.04474061321463079, 0.004395156993484685, -0.003578801924778049, -0.044188520531139024, 0.002482069738377447, -0.023837674866271225, -0.017899916675573575, -0.09279757238092187, -0.09141717037507743, -0.010086025141669177, 0.052791488854010575, 0.0019722647065841593, 0.02999070778211517, -0.038845769549624806, 0.017964743257820888, 0.00994863087104118, -0.043848745029934216, -0.008395113585354596, -0.003687840626437324, 0.012265722936133035, -0.05108355065027796, 0.0582590573197684, 0.0030132634000120534, -0.0659259025096796, 0.015525231536357962, 0.05877627259453406, -0.030275429625178502, -0.02641769866895644, 0.06226890345153417, 0.02987262420617595, -0.007531351408638325, 0.01644248548119709, -0.02230169789309784, -0.06410930061497723, -0.029804797945184182, -0.0203480524903601, -0.024808468143919495, -0.011991618514220254, -0.04289687396137173, 0.006068377234540755, -0.054023857492823055, 0.013245230867341107, -0.010178700422318282, 0.005046343983917381, -0.04205847269269258, -0.029374722294977975, 0.014926582440253888, 0.0012216033346410398, 0.05975425605550391, 0.03362032724735692, -0.006947026969202397, -0.045857941695062535, 0.043526778436360554, -0.0274626310995995, 0.02318436622389832, 0.049878496770396616, 0.05734449466335198, 0.02489862204409848, -0.029029308927230314, -0.06516085446314056, 0.0011152451753697551, -0.026420941344715062, 0.008535883042354156, -0.0021300777485510868, 0.0031205381764889376, 0.07516129065118661, -0.024147336197942536, 0.03762299780573357, 0.019464804305615147, -0.02474306394926314, -0.059822932290377426, -0.022589281557291004, -0.005002102866285633, -0.003227783038388882, -0.006539028597304396, -0.00982598037859929, -0.011500576661790399, 0.04631841581504022, -0.022530594968405527, -0.0025039911771643697, 0.027634637629364252, 0.030349849679944394, -0.011069651837355308, -0.04689193133157899, 0.01113082342353264, 0.015765142847397582, -0.01951954539997265, 0.014526202736379955, -0.015445081636802423, -0.0770572801105736, 0.004200785095563114, -0.013281921077543682, -0.017834039476943116, 0.05706064509341812, 0.05494217450793371, 0.02005740215996711, -0.047156969179594534, 0.010923597672023872, -0.022932738609645155, 0.007567707828356868, -0.011494483757757011, 0.020766826768936944, 0.008175763767278708, -0.03294676616196626, -0.0348890318928956, 0.019559069443328088, 0.028486829299165534, 0.015187629109104558, 0.01695140307820802, 0.007584426994972816, 0.0025017564975305163, -0.03284570990917889, -0.0067688541987618546, -0.017559893477532534, 0.0016154542508216927, -0.012572174016599795, -0.040343747118553396, -0.08761614116911771, -0.0863996196957728, -0.03453051213806174, 0.03328879854654929, -0.029293232275644003, 0.01839565766761411, -0.024243848516973202, 0.0031916665493627798, 0.00627004375694609, 0.018340920099888813, -0.047542505278613145, -0.0037667061560107346, 0.011618865626869944, -0.015453167022549317, 0.045988559215449636, -0.04281610347801174, -0.08740902510927734, -0.007561892466901517, 0.027740562948932186, -0.07670791213152897, 0.05088466204322171, -0.048231025387109716, -0.01624948926063437, -0.05294472603270161, -0.016753365086658933, 0.06144962387197234, -0.0589206608822293, -0.08421535022425099, -0.04225415152631096, -0.06411252518857381, -0.016481854523766538, -0.005006176504800941, 0.03706453961303565, 0.031671011296754974, -0.0026277459349482056, -0.01052705093837859, -0.026507937780339982, -0.013037099832952455, -0.01113129743341371, -0.02882961674189763, 0.010700625896759781, -0.010362873409050883, 0.034096845253623734, -0.052873159595553235, 0.013053175433182294, 0.014525751136407255, -0.03865667272468082, -0.05629997799149942, 0.023983610933743658, -0.0313287530345174, -0.07178194123686432, 0.05926540859983247, 0.046012799570063094, 0.0014204990967471656, 0.01643922687279782, -0.05091196811728989, -0.04157857851511134, 0.017509990807838917, 0.028428174725133648, 0.055408004017982994, 0.054210626188893364, 0.004800355601000414, -0.04663065414387718, -0.02173179930180214, -0.030886517636805805, 0.002656195167396234, -0.016252596571020166, 0.0340289131209996, 0.0033594444657536805, -0.014425982801699674, 0.045468236816458465, -0.0004189295235435379, -0.01875762057547988, -0.04692678131201397, -0.0031429925829183324, -0.0047834007062846715, -0.0031207544657347397, 0.03549388674465748, -0.01748094137319162, 0.030945822541290326, 0.03364654651244925, 0.04715305331240145, 0.03574064085942368, 0.007825654525525383, -0.014800226170343664, 0.015480322743969259, 0.030534689558714113, 0.10422439578951428, 0.00347558386063205, 0.01954952701963575, 0.03750574024150216, 0.024367575610339375, 0.02793096454617948, 0.02128057933099773, 0.043800425663165984, 0.07785962220515912, -0.018753091662249206, -0.02208571699281505, -0.04877475772134545, -0.02067029066560269, 0.0102241628601788, 0.060895795280443143, 0.014758000257543495, 0.05470468034920165, 0.0016755019755555255, -0.0001871263114927841, -0.04228039803948129, -0.049305847259060995, 0.05363211450339209, 0.02700976914497447, 0.03679396325024941, -0.03106406753881974, 0.022180528958544186, 0.003098413122767247, 0.10042359642385913, 0.07754091478468256, 0.03460345827693332, 0.04424439250097949, 0.05649942978040753, 0.01612818240972212, -0.04425480647866473, -0.026457619587663236, -0.013704932136492976, -0.003568759742769308, -0.01262603771641848, 0.06837804970013069, -0.05999657936939789, -0.016739725996610177, -0.006646654260414334, 0.00906932974059124, -0.06108310011952309, 0.04510710583255109, -0.09690563263083729, -0.06951351308942043, 0.02883704192170005, 0.10021613866167403, -0.01989014963736901, 0.099112527964261, 0.02397975429920954, 0.0397382153025268, 0.0294931217724716, 0.000551214926543207, 0.06613075312204061, 0.0395364932269731, 0.029457312982798457, -0.0020113256598789328, 0.01361146310739919, -0.008033751175441823, 0.01434191345599647, -0.012169737224761447, -0.01964381501743785, -0.008100164308857816, 0.0214565950588453, -0.04543789294568143, 0.019368550855167255, -0.03202972817353036, -0.041062197868501585, -0.0411638757411125, -0.023903125962871717, -0.007820589190464734, 0.0282187478896304, 0.016763177032577854, 0.0024857873585093517, 0.04757720121136337, 0.0313043839844012, 0.044763094101543666, 0.011625959213165418, -0.032973831155442314, 0.06438827010476796, 0.020462069906130205, 0.009597132395240744, 0.04640333390023991, 0.033668057580667134, -0.03396805292138459, 0.05023428662451083, 0.04810092624664043, 0.007275380976682797, -0.04217556941080467, -0.050740792719039564, -0.027168913743139966, 0.05212021383503219, 0.018149045354342967, 0.0235693670770988, 0.04655534582925772, 0.06291369859732088, 0.030999440922224487, -0.009421929822386314, 0.003970903098578333, 0.016352021328876018, 0.0028852154326278966, -0.044210581478923254, 0.02909063232171213, -0.014982243819589012, 0.036972777486373565, 0.012880301509803946, 0.0017652084401022104, 0.03951852092811124, -0.04398364456192395, -0.03888156931223071, -0.04103907803046103, -0.046891738214265906, 0.008000085578694856, 0.0265969789886867, -0.013010408960295186, -0.030826727986491095, -0.03674198984827998, -0.015276325536419012, -0.03269048604049408, 0.009908833524765936, 0.03003633603721896, -0.014912588620679538, -0.009854521000172279, 0.055864727339395216, 0.022696989035973683, -0.03439405032643044, -0.021465665783460732, -0.01850816940784092, 0.04566612803208212, -0.06692353838623649, -0.06550514096070592, 0.053889450128144605, 0.08679485389136099, 0.031365936973401745, -0.010446226460664327, 0.045962240497470164, 0.02002364587691899, 0.10182881517593974, 0.012932570933428563, 0.036567672630463365, -0.002100090628083597, 0.0566876020664111, -0.006861947865439882, -0.016452419088076813, 0.015801728356006964, 0.005962683897814932, 0.029381331476562824, 0.010736283944362594, -0.015037446235417059, -0.05740041043156269, 0.039165485806545816, 0.047967022797613966, 0.02168857906040356, 0.04826202784161259, 0.0420193490778959, 0.000981649582513132, 0.00049460992814939, 0.021062404670627744, 0.005103489435512873, -0.03720182505483086, -0.009329382160886532, 0.0375300374918789, -0.006724220651643192, 0.029689027165903638, 0.028486694161286668, 0.06308218605471232, 0.05232828354916379, -0.024880713944187935, -0.017845042034731192, 0.0640143046371771, -0.0022494767781364314, 0.0023220848787824854, 0.02700074925082526, -0.010815977235051372, 0.02435427418825102, 0.05542368138388259, 0.03473650987860097, 0.01145893862761799, -0.02245618999124853, 0.013647702664068851, 0.01755078298349308, 0.07639074598626484, -0.108050265705191, -0.029087786460180568, -0.045610803334111626, -0.03690865278180059, -0.07996237393713335, -0.0277092960182922, -0.035049297122613024, -0.021440280027853042, 0.019050756051451755, -0.028675333300408657, -0.008824640479839892, -0.01211841189211533, 0.02396171668176294, 0.006839731938468512, 0.02080141222783752, 0.0012285445076067945, 0.03639566125656445, -0.00428374275150676, -0.041381948632734165, -0.007726388838340961, -0.021024753784117344, -0.012385050444821716, 0.005870085001499519, 0.012071759224469012, 0.04361586856673058, 0.021990244305200943, 0.014255209500610336, -0.10042828311349129, -0.020770045111223576, 0.007150141329895718, 0.019103522983401913, -0.05800138435592953, -0.022122307454606357, -0.08085275089039563, -0.06652908382571994, 0.007589844817993843, 0.002528253580358204, 0.003976544261601364, -0.00370471437959554, -0.05325826960971193, 0.031366914676982126, -0.05271742307391898, 0.03477648364190027, 0.017339656581956228, -0.038431216079472225, -0.04442265332672417, 0.011778905606859066, 0.019805887665003366, -0.011478726274966065, -0.038339660930554756, 0.006400573898059595, 0.03327966107669468, 0.044400731349440205, 0.04734544060482454, -0.02502902244849521, 0.03613507001165256, 0.016853000509415104, 0.04100468596977391, 0.044753194412707364, -0.021290131772977682, -0.007815867901774668, 0.06528999166538714, -0.012425128594670832, -0.02375006700384719, -0.0016319011459779687, -0.10964390031259058, -0.037330974198956576, 0.0014371156307401046, -0.00975668266886631, -0.006357884061112366, 0.03980566889826331, 0.0019140364465617518, -0.053492083171387726, -0.02317726553539396, 0.0035657305993127544, 0.043788285976073926, 0.06398499033471645, -0.040803810690598866, -0.02501421964773218, 0.005605473966151448, -0.01786785753535753, -0.029269261026925498, 0.015803421564584436, 0.004554266942275906, -0.05792306043484442, -0.048626316482709486, 0.012011883771704172, -0.00042521906674492774, -0.011099687384018982, 0.011056265310337309, 0.035688680225783906, -0.011485835779194814, 0.05316381796971774, -0.03324126530063765, -0.01784369358251567, 0.004708545848965261, 0.04123560061903048, 0.04184893111399859, 0.03102970311664675, -0.052604823618032946, 0.0701566267224162, 0.0022311799277031363, -0.005846257741387054, -0.02413020772451391, 0.01384676026928143, 0.044617894922337906, -0.03373930946370634, -0.01605028506303178, -0.0457134078004677, 0.008130764073717303, 0.002318486066467749, 0.0616327480666742, -0.05352035894542498, 0.042876178002410247, -0.026260656315561987, -0.018416312818863616, 0.029022151312576745, 0.053590293366640986, -0.017778057030630616, 0.03313794729530525, 0.0449435192354552, -0.029152038808638994, 0.014253985895349743, 0.09615914110451225, -0.0013523950434637167, -0.019844912878495696, -0.05595857976436761, 0.0352068215848972, -0.05741655825041767, 0.020154749409803347, -0.04106932478565456, 0.05606708947444897, -0.004685670496556485, -0.01614611891168515, 0.03582715975185029, 0.023685488478500258, -0.009827561151243301, 0.062271233790754804, -0.022243500698153344, -0.0485781474653005, -0.01341385534695923, 0.023762302055128276, 0.02116576390976215, -0.0022683225420196034, -0.01236022455043773, 0.0502709575140597, -0.012403861659126924, -0.026363932095343993, -0.0266595163938622, -0.010278643790728112, 0.002479138701635392, 0.039898695076211715, -0.017233254184981422, 0.010360253344380068, 0.01788671428975016, 0.0685317372474225, -0.005308397986491681, -0.007908012332342639, 0.029840876705994446, -0.016337218680341055, 0.04322301670517601, 0.02699831748319378, 0.009079985943416358, -0.025947507581612413, -0.013841941746452282, 0.026418931786313524, 0.02363614852748292, -0.04277248855695722, -0.00012326625858318722, 0.048141433904751924, 0.04231501193020037, 0.036882414389210735, -0.02657800871227685, 0.0010658754225481343, -0.023452816824468946, -0.01651905331679819, 0.026816114107726646, -0.028685418022224688, -0.048960056788452354, -0.03329360730870946, -0.042442684155985455, 0.010457302206305636, -0.04157046826807667, -0.041191718498901166, 0.026592358009813268, -0.0513872181611273, 0.03287246682642913, -0.017697446845696584, 0.015745217400892103, 0.011977284868238467, -0.006955702512263094], [0.02843698842096263, -0.08066884344740505, -0.02355613834030482, 0.011908289173452264, 0.03658262067710565, -0.022625692182585536, 0.011761149975697553, 0.02965014357190631, 0.0026460386092108223, -0.01863969793125123, -0.04677428550237295, 0.029691401617122977, -0.019030833230909327, 0.008351453236004683, 0.021276385230970016, 0.03776044812317837, 0.035443661255731826, -0.007922803624752721, -0.0832781860329436, 0.02726431352776708, 0.014453484482599284, 0.01590581658789212, -0.01877494074458028, -0.01740087046280418, -0.041589711381767515, -0.008111604415567415, -0.030989036402742302, -0.011830526738852966, 0.00931243577741054, 0.005384923852221769, 0.019138044412252635, 0.01084951570931266, -0.019333093815820056, -0.01833265269044153, -0.036176487086684715, 0.03900710488139514, 0.012942457404724002, -0.028195549308336555, -0.030558625121764996, 0.033010852043631106, 0.008881424415565846, 0.0540348052188764, 0.006103053336383262, -0.0032852158758925284, -0.02956527917264583, 0.008619577929552449, 0.018196513980103853, 0.03672999995918342, -0.04404157168654006, -0.016585738171605743, -0.054925213499840614, -0.03851337301005511, -0.012676224620093608, 0.060955460773804954, -0.06303966118224329, -0.06412314300153224, 0.02303178471687271, -0.016921173936505173, 0.002799453200912913, 0.008334820850711543, -0.020225094146746364, 0.03985148464230243, 0.005789489568460634, -0.02664749060461847, -0.007531878960285604, -0.026163678926206982, 0.08131556452291724, 0.012250430916427036, -0.0018368802668546878, 0.019010834352874505, -0.01969909333158061, 0.016157175185980147, 0.01863724470743874, -0.007601423977447025, 0.020546542430892815, 0.01080665917330171, 0.06955265209977607, -0.021658488572305668, -0.05732219241477679, 0.0324525296918818, -0.014098158643885765, -0.05882073880221369, -0.0036200588251133277, 0.0024083957156955265, 0.005734248978432164, 0.02752920671074803, 0.019307873290233483, -0.009197755208635788, -0.007655324009316915, -0.05693212460491638, 0.0008642401997778833, 0.028111774951990947, 0.003166504459470343, -0.0016099854524570672, 0.028006912837575535, -0.027228313129669567, -0.038568807973773905, 0.022995487968421137, 0.022115484992231618, 0.062198202805549045, 0.058727048021224075, 0.028890327190200637, -0.014952413873927718, 0.060495535736365076, -0.03321321073968677, -0.050303951648243826, -0.036292921596315884, -0.037054294136604764, -0.046297136415836486, -0.00885455211792508, 0.027309781711416563, -0.03936883272435009, -0.007814510013155496, -0.056760267664580415, 0.012689780847356823, -0.009469638235820843, 0.000650782228768775, 0.00020183064194432797, -0.024924594527152878, -0.014520357582552193, 0.028236839209785425, 0.03251634636723528, -0.019425858669563287, 0.04833420800576709, -0.0763783527126024, 0.07947452181111017, -0.0037146832993496686, -0.008674446942455146, -0.0675491194712641, 0.07931281162240611, 0.03294516887381295, 0.014452986802055402, -0.05265802054973201, 0.02256935603747725, 0.010506720270112437, 0.013157494119544243, 0.019989272671889248, -0.022771294173074337, 0.037978131064565206, -0.008349974276201814, -0.06883545696034876, -0.01995280571802419, 0.008929079538117701, -0.007079245002594702, -0.0036119669267034825, 0.05313268114125832, 0.04853903130194598, 0.000300882458202405, 0.0069642210732512345, -0.03855662150571447, 0.03844437362041624, -0.061378374292265545, 0.0217705941816888, -0.009305111123715164, -0.0007213603382951818, 0.010692652737253464, 0.01719210181708723, 0.010392379338182291, -0.01739218465867866, 0.021338840241974133, 0.03797714480951078, 0.009804888517399638, 0.014305513222722494, 0.005974341908320827, 0.014451680735266335, 0.015462262685920429, 0.008486489187755296, 0.010696593083382878, -0.0030990357447451457, -0.011297284775752167, 0.0025141897504614703, -0.0639636524147848, -0.027614130143455127, -0.0041247134822907025, -0.061063530466770426, -0.06184158756478792, -0.06124150429007052, 0.06484183078966615, 0.002733625768026519, -0.004467540217981915, -0.01134144645706083, -0.08142131923477418, -0.09340738661684359, -0.014636014835375891, 0.009349138603072297, 0.01056669548812686, -0.08442236353351479, 0.03542291388641691, -0.023482706725479294, 0.011002142301873801, 0.01737964903373024, -0.012605749622407257, -0.01571964641349648, -0.052077055281026095, -0.05588638034235453, -0.1166983035148586, 0.0075634579855956546, -0.04843827064554309, 0.08642371260155256, -0.0014473293110414066, 0.005403442739887829, -0.003439327852347445, -0.03454029761113706, -0.005015294667879628, 0.008372275000673715, 0.0035850725765727677, 0.0044298888611382075, -0.047197663856046526, -0.08745026389726436, -0.04629467587020157, -0.0708801258590206, -0.10152558607898866, 0.006051116982018962, -0.055340909185778414, -0.09239408086159127, 0.0028826864504043898, 0.03568105810238267, -0.05150688959252524, 0.0016664150678729187, -0.03599550353335291, 0.05048937495436548, 0.030954656997683454, -0.028774278040962484, 0.002837578456482043, -0.01049115853770852, -0.047794969922622624, 0.00014442172392459883, -0.03294144429317603, -0.06447955556905673, -0.006891581865562027, -0.0380113559842039, -0.04493123571538386, 0.02017378152622453, 0.0027318517581006326, -0.05158861762620161, 0.08018153311593258, -0.1017316934785552, -0.10389554302182015, -0.10503320625469376, -0.10725724557359095, -0.0780396772354708, -8.447152666921608e-05, -0.0959520892435144, -0.0036091523762019056, -0.03408494145465378, -0.0162928907994459, 0.04277006138758139, 0.0093489238097585, 0.035928459294346356, 0.03062136123532525, -0.003931949559886563, 0.014307461692500249, 0.037339207932085734, -0.008513821226426202, -0.018364908376423534, -0.0287952489489694, 0.03526209276873768, -0.026756334986831144, -0.05293352888171724, -0.00799712554743607, -0.017082529267945123, 0.029030213840690156, -0.01934974635987587, 0.00795887828172477, 0.015232863959600195, 0.04854757045318831, 0.014826569687314974, -0.11442936445291241, -0.12905361724107947, -0.09864383304972887, -0.0531883243007551, -0.06335649006011984, -0.008927012583638247, 0.007575588856639717, -0.0007633259906811155, 0.015906040199017604, -0.015341656789446826, 0.03309432528268635, 0.016294564788999273, -0.033204245121197566, 0.04391789212369855, -0.04437705761605116, 0.0004939143848244092, -0.00975454668263773, 0.026300763351483562, -0.015897906866158506, 0.012623802724733504, 0.03690914802547566, -0.03291534773298974, 0.023853263006608776, 0.0021515338631507798, 0.08062928611187177, 0.10845691742805623, 0.051681549545913474, -0.0925811884804319, -0.10489571971720295, -0.07014024293825814, -0.09443158376114688, -0.04516359167975286, -0.043796637117705615, 0.02698306811601993, -0.0219021250498885, -0.02708450066395021, 0.03150793055361268, -0.008876506775170575, 0.015244783391473175, 0.036542319151675745, -0.04397057768037095, 0.023563082997943036, 0.03752809237977451, -0.015049570106335466, -0.04431342035492089, -0.06633237935892468, -0.006844591379861362, 0.031123441429383957, -0.1004734354412667, -0.026759339647299235, 0.014678435662400258, 0.004698069777405162, 0.06155256238726715, 0.02481360022444623, 0.020833309237023402, -0.09414239743042799, -0.11509891185739603, -0.04404508259300062, -0.12689521156378003, -0.1014949404391963, -0.02545883178619451, -0.030782520193237906, 0.021970219387222722, 0.03858243121352916, 0.005522790815763048, 0.055067620581444515, -0.012805289307106537, 0.04769465786817389, -0.031373823737617636, -0.006409257803549917, 0.019290122536531618, -0.030730488630199036, -0.003458096648038421, 0.02778450314112487, -0.06493510685944266, -0.04089285243285286, 0.00435156544640572, 0.05642850602362458, 0.03598911283534074, 0.05106725360405134, 0.03087982504828362, 0.03760355168435269, 0.028358201391543866, -0.1556313190611505, -0.07516268382499408, -0.1360149481925374, -0.09621061890315775, -0.04629010818770446, -0.09265127030166277, 0.04691512971113321, 0.03958471352412182, 0.03475674459144817, 0.07670005605225597, 0.0009642846369329011, 0.046264676235190184, -0.022937710045086483, 0.022507363150051276, 0.002682352732849725, -0.03711486744469687, -0.02644948011406414, -0.014471247471142734, -0.04939243569864778, 0.008433900777024694, 0.013162563989017844, 0.02637927441067431, 0.025271022041865845, 0.06735036357718245, 0.04040718210753615, 0.09662072151944602, -1.8583443971517016e-05, -0.06713977924884994, -0.13172780715930216, -0.11654288086681798, -0.037801668794968296, -0.052400930253307845, -0.026495470946805516, -0.024786566170472417, 0.06445813108482097, 0.07074135102526792, 0.10319695552998917, 0.03007288954640476, 0.03273363101040361, -0.11327912646177465, -0.07225493095656503, 0.030006172516059852, 0.015372263849920059, -0.051539912238252016, -0.04669818923860582, -0.0475024734618507, 0.006306000466446217, 0.060650357051220065, 0.06199284126756662, 0.09881874856190963, 0.03045816099487096, 0.041465492635596214, 0.09109494478692323, 0.10420078498349328, -0.033421391030790525, -0.13247492889972964, -0.13432648366252195, -0.0673357159018073, 0.048956788793591104, -0.019931830834101116, 0.006518352131203439, 0.09422298005668811, 0.0686240269946301, 0.11345732503609023, 0.023901178814931492, 0.013492007498216024, 0.02654120609332147, 0.020313500226057563, -0.06298609134625771, -0.008103147161472549, 0.035396188620527846, 0.07801104790115722, 0.020952733964477045, -0.07575471050247487, 0.0021960811320527844, 0.03079209311848844, 0.07304549967590833, 0.012169037917054235, 0.1100458029436991, 0.08884374746522845, 0.07941842666738862, 0.08867751282825662, -0.025113003766563963, -0.04394297102995974, -0.14775797555191678, -0.10067149318286235, -0.02944238093431583, -0.02300296092692922, 0.03479027719788363, 0.021711704127716242, 0.06189198518978368, 0.09905187304510102, 0.11064513330762886, 0.10200483286445466, 0.034883243064255644, 0.006412472003418927, -0.029813133771534175, -0.07533582919260673, 0.026313981762107783, 0.033523591669529444, -0.03121533367571027, 0.0038181746841911635, -0.036791759057330585, -0.022528547743826916, 0.028326465404508765, 0.1189685294510349, 0.08119088506079121, 0.10571328692541432, 0.05270871292132868, 0.030671621527329006, -0.019659855156077172, -0.0989880297468347, -0.001371315539418552, -0.06518520669147103, -0.0330965527021898, -0.07836155713737226, 0.036513224877516126, 0.025489315751649907, 0.11598802046331035, 0.12217539409013661, 0.07625424484195084, -0.01343683754639892, 0.04350220185552446, -0.021568492539087106, 0.021080307634749162, -0.004802910462351548, -0.05920178766463147, -0.002307811878355484, 0.010801645650748391, 0.0014829137909010096, -0.01986167210529127, 0.02326459608196899, 0.037814378643996206, 0.07608325424490775, 0.018898536026978177, 0.07223867359839323, 0.039289861071766796, -0.026917911125073954, -0.026101143167752833, -0.08365627346358029, -0.0452882395349096, -0.07033218909203005, -0.07992613084593168, 0.008605387161443118, 0.07203784664613058, 0.10826172870290156, 0.12738502806709326, 0.0637910636729186, 0.026370975078307265, -0.022523628629812456, 0.07797074526803058, -0.019011530963177082, -0.02462439187365972, -0.03375368547153393, -0.03335843334951574, -0.05200064555899451, 0.012840586281836099, 0.04854139222616748, -0.024179633932582302, -0.06372450664104305, -0.05155835910183529, 0.026710155003512634, 0.07395293311245577, 0.06700892780507071, 0.0442249522708791, -0.0062149971373892604, 0.042402568327620044, -0.051576409384136566, -0.06726422455892545, -0.11693455621730828, 0.007741008950954653, 0.05649932041357305, 0.10314101765171561, 0.11248494939083585, 0.031397033978766094, 0.012030623920916942, 0.009254626404214882, -0.0029106297045595588, 0.021891992335742728, -0.033751003277439975, -0.012941987135213759, -0.0025000415156660972, -0.003765723976450915, -0.028939084662228897, 0.03566094940205334, 0.004462150459908266, -0.020605184217024144, -0.01954548938712816, 0.005546101106973761, 0.053771484120376474, 0.0866362704243958, 0.08124828591432065, 0.0684399358853338, 0.03369962334102943, -0.04185079126145963, 0.01029205687340017, -0.05901617197812615, -0.0041935887893345125, 0.06907331709892713, 0.05307911696243755, 0.05269135322009285, 0.048881214100727384, 0.11399130403496203, 0.046306290193441235, 0.003902457515168416, 0.002459884955286591, 0.03285986767925661, -0.06189259604817601, -0.038097534677960565, 0.03493932905530203, 0.016322672104666282, -0.0036082410530282835, 0.008716344519706678, -0.030449140483755466, 0.033423418947139516, 0.09485481860834202, -0.004679433781557131, 0.04940003891238144, 0.009499685037216855, -0.007974858329543286, 0.014074219994677131, 0.0158480403847842, 0.07154859372163277, 0.04639384385711246, 0.019761078644885983, 0.02698969156939989, 0.049456945561381895, -0.009405839556993176, 0.09593977361253613, 0.013931138873283523, 0.0158106876193429, 0.0013950797409509976, -0.008771621648180787, -0.027961478018267018, -0.0089622475866224, 0.01636056704603501, 0.05119113397996946, -0.06967938025359358, 0.045005365002325055, 0.04218836880401664, -0.04599841374095601, 0.018979690604502133, -0.012960171610999743, -0.006368650406368737, -0.004593607571177247, 0.04796777225007292, 0.016409179705570015, 0.02774520537023781, -0.057302871437005805, -0.003994724251515699, 0.08353807696918363, 0.08428757641374511, 0.029571593111372755, 0.030422748753903748, -0.04136018751819763, 0.0258174117005592, 0.030673641409135387, 0.019595421872215506, -0.05732559958239319, -0.08244570984034365, -0.007742992194195437, -0.026548481032972592, -0.03663052365769233, -0.003600342267669243, -0.0366881949391301, -0.024055179790125867, -0.037907740829000496, 0.010772153201028256, -0.007142932606484692, -0.00512417408171713, 0.03153761791958552, -0.03307269217663835, 0.014540299342544655, 0.006010639009800019, -0.07246723797008378, -0.15398913973947417, -0.019365060877187396, -0.06275518082570936, -0.01904652404985099, 0.009932246830548679, -0.054248764008022865, -0.004744458480262456, -0.02486464849252762, -0.041857382627793024, 0.002439730802794567, 0.06504507036622938, -0.019836983783154908, -0.06018236529099109, 0.09697036281463475, 0.004499175857848616, 0.06419195564388917, 0.02828663429871868, 0.032734214201042014, -0.009438023810915741, -0.04736975006647106, 0.03358981524756747, 0.005018120651393342, 0.03098726095737422, 0.024454395165822256, 0.042285136958953216, -0.044685380790684855, -0.03106432096202851, 0.019308644235461227, -0.03555195858879793, -0.0048022415975350115, -0.03166416256708497, -0.05916837832205314, -0.049921910760102176, -0.07274548553849963, -0.09827271628512949, -0.016392323836657882, -0.048013439739589346, -0.06566374523560835, -0.016778629444653567, 0.013751027494818246, -0.04847272174039058, 0.05711516577767185, -0.03353410912949738, 0.03741610531868381, 0.06483941894578105, 0.02739316713388272, 0.02728609758698108, 0.016415364486867607, -0.007950198779566651, 0.022314320126110693, -0.011102520485316337, -0.012603432295321305, -0.04423858269415795, 0.05957961760392291, -0.02305670156850866, -0.04253873982703562, -0.03608444446928009, -0.0003834807129261818, -0.06452043943495744, -0.033754990938735734, -0.030887248328074008, 0.03553596953283692, -0.08293571056875854, -0.027041682654585616, -0.05395905862000444, -0.01702959537607964, -0.06415295243490254, -0.014850077630462736, 0.047382003105181605, -0.01479554236952021, 0.014072043315024957, 0.013522999747868997, 0.012966522328927546, 0.020998714285701745, 0.0037924542745082323, 0.04497497002896356, -0.004759581066393312, -0.007411332735387845, 0.005281855088124886, -0.01616333288834128, 0.0005062990137976827, -0.0307850500304092, -0.04771811710376961, 0.01210791014897292, 0.015149979892064196, -0.09190748291022448, -0.060988303706366154, -0.0229008405568933, -0.09203561619211428, -0.05379501183510395, -0.03889284578167065, -0.021809291567014305, 0.0004321300439471407, -0.052640808804986186, -0.033189910783793866, 0.0017624421936915352, 0.011554213241291068, -0.044531461239452945, -0.012331726372659377, -0.05011298951385865, 0.012807100582563173, -0.08326478893969698, -0.06140932364954757, -0.01240575637169691, -0.029937947262036028, -0.017796259635422765, -0.03400853300251561, -0.03485910794320481, 0.010275445893648602, 0.029059804193494698, -0.027302377531826544, -0.0706804923971411, -0.016437548761020316, 0.038131890962929925, -0.01648953080158752, -0.00923471689149232, -0.0013358709263722457, -0.019762366901789653, -0.051268517285594804, -0.03894308580779302, -0.024223299962365562, 0.02250663968671312, -0.0024873018266081985, -0.002938502433400297, -0.01782781138318771, -0.017383332482229563, -0.041023657742826354, -0.03453483358966894, 0.020439918460743906, -0.034621512453399006, -0.018664194946852283, -0.008972284992671076, -0.013798668933504435, -0.003828633082590292, 0.04348925440809141, 0.0197639732871005, -0.007029539822897478, -0.01264640239196691, -0.01363381089823536, -0.061338805192186416, -0.02776784589025616, 0.02206899849993587, -0.05950180417497267, 0.03390216999693751, 0.09990603577302438, -0.01968515335999368, -0.013423434829370385, -0.02303042612695333, -0.005078134649726816, 0.01312913114005618, 0.010887998705594844, -0.01749756156708834, 0.03416982921145579, -0.032947007813186026, -0.017575245636477825, -0.04449254399315449, 0.003581040972135245, 0.004887213335232194, -0.010724910634712325], [-0.05185697376698707, 0.010398778231807366, 0.03263706361070973, -0.011348809204342305, 0.006923361356997708, -0.051971115506949675, 0.00885633881432857, -0.004842751060125851, -0.0422669711385589, -0.02099695400942107, 0.07953671134201558, -0.04473685346478724, -0.029648831271816174, -0.03890328375172429, 0.0004885703029617401, -0.06903759724821892, -0.012854920921463713, 0.06515278637864529, -0.01637264744974028, -0.03379300457711192, -0.00592881790492404, 0.06116367888626198, 0.015533700262719649, -0.05443964542065489, 0.008576862714488211, 0.05186756052293878, -0.05091456899403043, -0.019201303828854054, 0.007101619354827124, 0.00728256022969855, 0.03113498637307015, -0.01499480592037161, -0.053367272911097496, -0.019642035405501603, 0.013586933160237217, -0.013078210153819205, 0.040118271516147434, 0.044933080235319625, 0.040608630013194986, -0.036035162117448685, 0.011465027551338705, 0.01830324269498938, 0.018304751646885723, 0.04197353549371669, -0.014832865720351952, 0.0036484486905666033, 0.027712370401257652, 0.03725031608345086, -0.02577446097912901, -0.0006622272854034387, 0.010682700188022325, 0.007616808753970494, -0.03620747375864796, 0.03289091276310132, -0.00687234187911349, 0.012721224336168896, -0.006761224158868873, -0.0074448183793739955, 0.007020534672971945, -0.022260371383475, -0.05947613999464578, 0.014874843301413648, 0.009741168600899157, 0.010474791177961667, -0.08008083564438685, 0.0267047847110861, 0.004169380088082811, -0.03533467708746387, -0.015859808884638678, 0.02566618390087023, 0.05504581099528648, -0.06270547052322331, 0.03625123862927074, 0.014307598153566518, 0.0029453505986488412, 0.015594264633363232, 0.03479207336824847, -0.05585564099520898, 0.04196220280730583, -0.04554423251606811, -0.031429434741281244, -0.007474773895046336, 0.03324804436175047, 0.008761614342783634, 0.009281547217425381, 0.0008083497401264567, 0.013722822390070168, -0.039632875491863354, -0.07641120110526231, -0.05051702313501682, -0.009893084221762521, 0.015493983571855451, -0.05058017081906289, -0.03464601622537801, 0.006091211135282098, 0.03294659612524034, -0.050493833369946006, -0.024833809267441376, -0.01971519070482765, -0.0719171933758122, -0.0010601265293085217, 0.09488324021237748, 0.020644478400152214, 0.04311736011775454, -0.015286780409171655, -0.014495230344222006, 0.004145205331274288, 0.036174032633083227, 0.06921180628198588, 0.0379428073511915, 0.07151013788012366, -0.011663929480635441, -0.0028824134728065716, 0.06771881309306738, -0.03611921963501044, -0.04853673905325275, -0.005566057501519037, 0.05324398548072751, 0.011523671278542036, -0.01872618541019582, -0.040871319061834936, -0.025436911938269465, -0.06023497070450101, -0.04901338406384565, -0.019899659308886795, -0.08529888418160757, -0.01960175351210215, -0.023662624652573645, -0.04262743277339585, -0.017765524391410704, 0.016595220912871033, 0.06918343369036968, 0.07811942367934097, -0.05307058607290354, 0.004514406166838184, 0.00918324565093096, 0.026218933340920753, -0.07047433673982999, -0.06599816209091369, -0.035704778451164564, -0.03281269124189376, 0.09173168657578273, -0.000253400941954294, 0.0019121022010149932, -0.026996656348556764, -0.03483794117120578, -0.06863845015620083, -0.01727667719115965, 0.006117963410465151, -0.06508247235651676, -0.09086828597380688, -0.1636160112439139, -0.0919574911112099, -0.06282458878879889, -0.13132946981795193, -0.06201242292241781, -0.09537977799764377, -0.0537005261100088, -0.03813708622772091, -0.045627068648685376, 0.02774717037703805, -0.04211226500597826, -0.017486099125385318, -0.029079559826726786, 0.024769452121527296, 0.0407107067737386, -0.02691457766394385, 0.033777856364038975, -0.07317092050635134, 0.026158640044284375, 0.03130539679852018, -0.03327965193901791, 0.04138890440645703, 0.008147142789978211, -0.05362542475679519, -0.06631725230670739, -0.06162931261243175, -0.0633854629937427, -0.05977814564752973, -0.07320877154554156, -0.09739112436392672, -0.08730860570277832, -0.11615796855840489, -0.12142403573300087, -0.11983480801306687, -0.08008425156408784, -0.015354695663688626, -0.07698324777512561, -0.021235309688124614, -0.01820718121800774, -0.0001323029648141335, 0.002535462781771957, 0.0027256929258724742, -0.028735589874048773, 0.03090954388347421, 0.01194698425655469, 0.054647003553314005, 0.0680853866134144, 0.025701323968118774, -0.017829344752165424, -0.07005924271923185, 0.002504493138962944, 0.020861183213087293, 0.043528081665914195, -0.04716607896833558, 0.0035955414721832468, -0.019263449603192696, -0.03352604299915217, -0.05862931277754654, -0.11038797996476625, -0.032215766351281094, -0.01131770282949536, 0.012959661068549809, -0.02959417088249448, -0.017934128592740264, -0.01431154515115506, 0.005832402000807796, 0.015160562873399343, -0.044843643716858804, -0.059656755540716734, 0.004596610726533061, -0.02767503324545352, 0.014750195462092393, -0.009721303140639653, -0.0007382479145734796, -0.029057330526858896, -0.0007293550453026164, 0.0028653678182131645, -0.035246875217532225, 0.024861046495059425, -0.020788611194542252, 0.001768417288130848, -0.014430569428986791, 0.0253926440117767, 0.02066513994659106, 0.08326214190496078, 0.1046577385198456, 0.059735916382564445, -0.0009822847739909036, -0.029127154285949027, -0.028739041746625185, -0.07251253118332593, -0.019906002808888823, -0.004159139790424441, 0.053170955257362006, -0.06831250163813089, 0.07013423049339075, -0.0006005740164949575, -0.009871215169423693, -0.012925009073057214, 0.056325642901739824, 0.02637486259289147, -0.01172782094567465, 0.0039983313068526665, 0.023250481705800453, -0.013052879782106099, 0.005472338739936477, 0.011333807561319938, -0.020634827376956228, 0.014129751313920335, 0.06128479242784098, 0.11545938743243632, 0.1106564652454566, 0.17121920865151152, 0.08968461380720921, 0.0885770040583189, 0.04658447325812426, 0.009302290383626052, -0.09637959504282217, -0.0002468680062959089, -0.031523111253378186, 0.0385491251509542, 0.07840580777623235, 0.1043034284108822, 0.04745692108034059, -0.02865335324005281, -0.012841559931352534, 0.01867422291542957, -0.03769140930461249, -0.042520364861095686, 0.0329088167429155, -0.038244800278251195, -0.007313913342281527, 0.060641016709934305, 0.010555154566967895, 0.01257994850185668, 0.012332326116077057, 0.010259622223345354, 0.04630747558037907, 0.20095007097181403, 0.13054475486320666, 0.18125434467070028, 0.1551875783314633, 0.02290441309118266, -0.05811757893492662, -0.0259950894796459, -0.07999836959015269, -0.013579263151442152, 0.0524605127352278, 0.051015423000963366, -0.028141896676731087, 0.005662770569955036, 0.0151427665081026, 0.07120667556373321, -0.06634996723298689, -0.021994613252387676, -0.03355862029921569, 0.0062690645398211274, -0.006717022797761256, 0.0002482831881448753, 0.005303886955544875, 0.04209791084079492, 0.02070271904755932, -0.07773305741484364, 0.060938202873571296, 0.11506483534489301, 0.10499963318154096, 0.18081492860163906, 0.10810953518312366, 0.08493574650910758, 0.11007732713008213, 0.0004463051054212426, -0.10012439351657315, -0.1345945048781462, -0.09793983953702907, 0.017207399605382243, 0.006321466915304876, 0.01342628426026392, 0.006814838912625806, 0.020211048118882195, 0.030079438654616607, -0.011452100617406145, -0.03349229637425438, 0.08810868842027712, 0.02094583298794615, 0.06290021581102216, 0.026139973153227122, 0.015581755800130681, 0.002676253391200096, 0.0007029667143239938, -0.009927598930965608, -0.015062135728066658, 0.059198342637617855, 0.08577246352382747, 0.11792454944168196, 0.12609155825548563, 0.11386008309005353, 0.15201227729087036, 0.08909150462979228, -0.10466887650558235, -0.12235530049612778, -0.10030072227974184, -0.06690667361952123, 0.07762866615625995, 0.047930059570181954, 0.002205041494925344, 0.04827232600102914, -0.011231081345416003, 0.04418181837873506, 0.044238945298354614, -0.0416055759372154, 0.007678546669511564, 0.002571024267909574, -0.04117075846201192, 0.03396022516286986, -0.021023442521452166, -0.03544776873542247, 0.05851366644374853, -0.0333156011187972, 0.059099464473523856, 0.030059582112552552, 0.1168984834255205, 0.10101339705566423, 0.13673002589373826, 0.10484907931593664, 0.01501432570861675, 0.020747775751549662, -0.04270253719546853, -0.1184660709961228, -0.10628492405306962, 0.06751521148147423, 0.029005996575235067, 0.06550467580886181, -0.0016550479392340213, 0.045155620805017595, 0.007380336669938565, -0.014443247911379761, -0.004188417815334306, -0.014502911527198925, 0.008715585609189048, -0.028646458457411563, 0.032895662089095806, -0.08962985660311451, -0.008266704015746492, 0.016458225658857014, -0.006584509151988632, -0.0006154891801301037, 0.011077600443971597, 0.05091642600642504, 0.019965353972760506, 0.10609710269053024, 0.12210414193885209, 0.08988552497062574, 0.08163983564696112, -0.027993643489829686, -0.106965217231463, -0.055890019159466856, -0.04022999601463055, 0.0822838757199329, 0.02906436295557172, 0.07622070362781443, 0.08535374966093753, 0.08421448324929161, 0.04875470513514643, 0.005475640445876439, 0.006992396694260403, -0.022671232956291573, 0.02189993007120099, 0.024599199558183325, -0.031757628823980935, -0.016202011612884384, 0.06126544135310979, -0.04191918094672383, -0.038173036490130284, 0.021927648309847884, 0.024797641200390123, 0.09448236457767775, 0.1301484068847741, 0.035477657165658656, 0.043247881295718514, 0.06883161311682537, 0.052171281797234806, -0.01882462142137766, -0.03729444236614705, -0.030678609529366192, 0.08202312676777593, 0.07857898573620403, 0.06893059489752215, 0.010982790792136826, -0.022608236346147618, -0.0224074558963467, 0.03042565081189886, 0.08509539124765761, 0.00022882613198039006, -0.03619560503557785, -0.0240962567428785, -0.02680548945113879, -0.03476027528110482, 0.05725018622192622, -0.006553600741040004, -0.014973562621021548, -0.04212388758761362, -0.01883751808245707, -0.016084202698740346, -0.05880518364595811, 0.039187483914805823, 0.0879317873291955, 0.06075559330804665, 0.07906195059289146, 0.0423240118124306, 0.00042394645525149787, -0.03546290877865024, -0.026627644026625884, 0.12638198803281953, 0.03220740671256673, 0.014907949989097337, 0.029365018791381835, 0.018819843505118252, -0.07045520414799841, 0.0003646238257549176, 0.08303256657101359, -0.014565856303944554, -0.05209101677860004, -0.052710260624198826, 0.05204941328857911, -0.02955179032496615, -0.07367610240649902, 0.048271094821646085, -0.009750755033953822, -0.05856789426462657, -0.04050651509641441, -0.027033962163331933, 0.03248379688372843, -0.07932287318927533, 0.12548529134363973, 0.06831189167005784, 0.026910752915076632, -0.02966841778221732, 0.0724245857646176, -0.07234644173694088, 0.0023420843679870323, 0.050850917936793534, 0.03770963174283101, 0.09436302421688167, 0.028862087577505215, -0.05279056755991928, -0.04564954313483698, -0.04338570194298541, 0.024755482896589045, -0.013397314110322701, 0.0018914344685902118, -0.03708562237741364, -0.01538010039926611, -0.04201208720334624, -0.034384579795306916, 0.020812031192680436, 0.039528268505210434, -0.05291901981019442, -0.07896676932445215, -0.040918940114152834, 0.06106013627376056, -0.028204183591474707, -0.012473073720771458, 0.01174151646739578, 0.03634479008673207, 0.03844042011287107, -0.03286996579643842, -0.09087318532805454, 0.002957185338390777, -0.031432292332024124, 0.0055092207397481364, 0.015868605537197638, -0.03875859800851437, -0.037205184528354376, -0.02854908310656809, -0.012164946782569536, 0.0033629969287220355, -0.0630958976901699, 0.017997080768225003, 0.004634448638840793, -0.04544285352157711, 0.019435942832825112, -0.019921853853717128, 0.019007970775649558, -0.04353756802607696, -0.10425766812137774, -0.016347034949763292, -0.04123791505331305, -0.08125339019214126, -0.07788242132540338, -0.039094897965762924, -0.07018248753630793, 0.010147139677968773, -0.03668720764608076, 0.03597204356667695, -0.0107128876830586, -0.030429297056416994, 0.02225714949377087, 0.023977201675835946, 0.024105353339537207, -0.03282376759539441, -0.01567516720142097, -0.08296635487409822, -0.02605597653246156, -0.05506254765337021, 0.008540644035645603, -0.041835912541595396, 0.005914950003557475, -0.029777971285499635, 0.049196270768748364, 0.0020611326130426672, 0.020721750559420948, -0.03791184516566015, 0.006415621307261028, 0.0026367806938566453, -0.06447096775009176, -0.08486242291856008, -0.11838899029806789, -0.0640042065228799, -0.059309517188524605, -0.02892567920694034, 0.010014304453471496, 0.08078126168126046, -0.020615541632862996, -0.012435615127995037, 0.011268029098032496, 0.07536971799473384, 0.03692994148115255, -0.03727007643857075, -0.062183280954021036, 0.0006500466891573962, -0.06906070503049958, -0.021773744546613755, -0.028785365377190633, -0.0020853881187221476, -0.020911066075628575, 0.01386752804585826, -0.010333696194761289, -0.015406215612778933, 0.04141476571563933, -0.034659124394492424, -0.024507419549248365, -0.020431469998721266, -0.08712977391652581, 0.0003277998993623688, -0.094796074622636, -0.11919180858373025, -0.10619997476919235, -0.018303221514158755, -0.05177536909007195, 0.014159686847363417, -0.01188185242211598, 0.04847472925754162, 0.00838588736744329, -0.05236839427145737, 0.0134055531379005, -0.00733278399372307, -0.07311777467166457, -0.040388833739088914, -0.011594980443484296, -0.016962376392892515, 0.006579261168623773, 0.0377289263941069, 0.0049459804862123135, 0.049962212679472165, 0.06223986892615964, -0.05271102527008939, 0.0042493291528352016, -0.0723734880136186, -0.03845069489004138, -0.042561016018468796, -0.06822892235224819, -0.017161847355422755, -0.17499161499733976, -0.08143862158212205, -0.04635300072667654, -0.11887938521545136, 0.013340731896207228, -0.07865703876491173, -0.004877335740985843, -0.040118670157806, 0.01767840550585033, -0.056318564709062435, -0.019724799952365212, 0.0148654254610478, -0.061919645897545096, -0.0004589810773095411, -0.06182583137948012, -0.008243872117261844, -0.004032710189255231, -0.01299935498381136, -0.006640549547335369, -0.04700304769130406, -0.06525032358399525, 0.03741356654898056, -0.012740092138229287, -0.05029385592966276, -0.05933402443824484, 0.03367359417665803, 0.006722309418437494, -0.01988855952646708, -0.012522536442601994, -0.026448643682809123, -0.004253141196591819, -0.04458546076992178, -0.057822164210212336, -0.0031101390190545336, -0.06920078470817732, 0.023311569335061195, 0.034667962939098275, -0.009756595824493973, -0.034282716861609254, 0.01063645589957526, 0.03682549262889196, 0.0014381870620376754, -0.0240426952301382, 0.05429328788857055, 0.10361687156284566, 0.001559469805350726, -0.021301220936755405, 0.08140758572013365, 0.045372278200054544, -0.08222644587332517, 0.08138583515547092, -0.05540003227987713, 0.011461998705421339, -0.018743588606756487, 0.08550417371220555, -0.034928421872376166, 0.0014558784221679918, 0.002573667377406872, 0.02243921888687492, 0.01376790665867527, 0.03633640425496358, -0.0008141086579031302, 0.0051401269233283045, 0.04759114289276526, 0.0470521635155231, 0.026991077057232814, 0.022212085240288372, -0.010686793046430583, 0.003349187901856502, -0.02308708422314954, 0.04672027117611955, -0.01422114531870874, -0.02672437180312167, -0.01535343340077343, 0.015509927809619016, 0.019890533211918943, -0.01857084715462284, -0.012928227616637457, 0.002736760185974706, 0.006699158125785131, -0.011607610174199855, 0.02452980771597196, 0.024535476982128775, -0.00732227304962211, 0.029707994659759037, 0.026465113392425944, -0.016104188291055043, 0.010353249892301651, 0.000254396403892568, 0.02950099344496394, 0.029948918149992298, 0.02652886248978972, 0.022650056056703623, -0.03746474889997512, 0.038917960938841305, -0.04610406135943226, -0.007508441627842333, -0.007318635081399589, 0.010977964761832229, 0.008064793116423549, 0.00798718345939842, 0.019008074241455588, 0.046583549061278186, -0.032401844357721615, 0.027595042417861492, 0.05203269693515667, 0.0174130788696509, -0.018799248293757072, -0.006411424285769821, -0.039791674292051216, -0.0037827334095195007, 0.017591607908025074, -0.004129628217723913, 0.0040912159452023596, -0.013498516239401945, 0.05327037236260126, 0.030794502256516875, -0.046025875800607186, 0.050959357588422134, 0.05535373925979083, 0.0030628628053989775, 0.04217331205901356, -0.01690711632457906, 0.028675650568001414, 0.03965967161135731, 0.029170444834902377, -0.03796999067362853, -0.05746924079900752, -0.03154796410139185, 0.05494760726327917, 0.018482913519078454, -0.024600079670120584, 0.03864504432101285, -0.010638926057216197, -0.02017985770295743, -0.015133987223542535, -0.033933498525941116, 0.0027141840404378164, -0.007116251469925929, -0.005333977957869231, -0.02460014100830494, -0.017692536540256317, 0.05684976215587024, -0.01437875397458414, -0.028254472193217257, 0.05255075450458286, -0.016443633509457482, -0.030700931564769777, -0.013677832747086957, -0.029373975380594483, 0.04151355903120791, -0.015707265944413552, -0.01184939895388947, 0.030314155540721914, 0.039328088671574016, 0.019665313493778355, -0.04394594257548842, 0.009851329202607862, -0.08010190400432961, -0.00588758466118468, -0.053440919747547715], [-0.03285806427752618, 0.022182833663915907, 0.04882725057362738, 0.025952264769587344, 0.0035044951301491352, -0.008672552178878565, 0.01669907117030572, 0.0032439385103008186, -0.031973812281804515, 0.013189310800046681, 0.004171051080352861, 0.004224759229886079, 0.0010953746484841727, 0.05329146770760634, -0.05072473900123344, 0.047389818305473765, -0.03660157751374951, -0.003978634850539178, -0.023359508995738885, -0.009466950786816853, -0.04414710338350277, -0.021944495758945987, -0.023896677428155134, 0.03928457269335356, 0.01600950728065136, 0.029167210652057716, 0.03849418237843244, 0.038079121943523066, -0.008142846415843842, 0.0018985365183866692, 0.018596783337599294, -0.005672958014442568, 0.029129047595203985, -0.02643826793357449, 0.023285535033499387, -0.021176998727287795, -0.007295006846067938, 0.021281418567995737, -0.06488676780891536, -0.020148708037368575, -0.008823984306834603, 0.04490442758690394, -0.013153029684360282, -0.022467089975040593, 0.005475732705240856, -0.0030836944786519363, -0.0079879534296529, -0.04336721322889019, 0.03161883230830122, -0.007051862473283847, -0.031340844680645186, -0.02331042189037832, 0.010096587408985787, -0.023648285647635152, 0.00048343328755438326, -0.011606871840864048, -0.029274061072145877, 0.07032103881553928, 0.011398576261318986, -0.013045314667949434, -0.041444880957700304, -0.02131755493884671, 0.00044538080082495967, 0.001676399751485444, 0.020347012156064298, -0.015214244406712776, 0.0438277822256595, 0.02148691780094529, -0.031463216891638904, -0.014579563454376537, 0.05440577184284126, -0.041623632186068404, -0.04592924942477977, 0.006290473896956276, 0.038289825855341506, -0.022625073574372448, 0.007337596048766149, 0.005177773953722729, -0.016356290285563773, 0.06858841666726738, -0.03015308159375669, -0.038146686046644465, 0.03207903057692231, 0.015983839263330805, -0.03693045871980203, 0.0007073214394822543, -0.034347113462717765, 0.05088578957092232, 0.013579251291929452, -0.000965649267952006, 0.002668679117660446, 0.0077149044637407705, -0.03136580666991085, 0.059388107322706454, 0.010627209817264626, 0.0076405384094982475, -0.08417821215610138, 0.056286470261618, 0.006495783393575969, 0.10840350619622197, 0.02870995272129521, 0.05988664994892985, -0.05135648330046848, 0.045214522814471775, 0.018437604888625284, -0.013758499724996553, -0.0022371315103504393, -0.00638324040281571, -0.005363072821205026, -0.0018631123982358565, 0.002863923576505665, -0.02128524118435857, -0.04489398590441239, 0.03703725474307107, -0.04186935599110145, 0.005791326981088565, 0.008752362859816044, 0.05955510656486763, -0.006528812951867217, 0.020208813453640874, 0.04121685293057109, 0.05483163100452782, 0.0844470362456237, 0.04904361482458034, 0.0686283881767336, 0.10314342901137859, 0.002214601032481433, -0.009134953068018986, 0.060547137804890266, 0.058062367277225246, 0.07256717172470085, -0.0029016078106001526, 0.01893991920940503, -0.030004361082796777, 0.010538045599998361, -0.019781032583462352, -0.03906913917172331, -0.017094606588531996, 0.027931936778707974, -0.018362153411644096, -0.0909889637551312, -0.03090094769400661, 0.04143421809398564, -0.09150601535919355, -0.02413939024639315, -0.02334259109394744, 0.05511528939444579, -0.03268189151759122, 0.05192194706274936, 0.004551141502127701, 0.08901261180158718, 0.11500318100945889, 0.12690606916523528, 0.10548599144212625, 0.12289279648090619, 0.032045398323782205, 0.102514125672536, 0.0012977762074083007, 0.015238374531723223, -0.038764922708704165, 0.008441434046361308, 0.0633417037752092, -0.012030298608480925, -0.01970563153281878, 0.04163040995183249, -0.05215765563736859, 0.02873192782037926, -0.004313312597548298, -0.04328585445813764, 0.050380674189412555, 0.011485422752723223, -0.07776209285284967, 0.025719661098356245, 0.028826959357806634, 0.10783159195100986, 0.05127412806728352, 0.07112659539116303, 0.09584079333695805, 0.019146231936467233, 0.04735473639655208, 0.03996729537930854, 0.03534856256895755, 0.10351263216411302, 0.05433303326561692, 0.0007286338257945185, 0.04039953362706463, 0.01478037663739566, -0.050491597700280846, -0.03994331469184993, -0.04877293748093522, -0.05523864684369841, 9.458117716184307e-05, -0.034762501629803204, 0.025991888624820852, -0.02817429532086221, 0.0043048792301354916, -0.04600981959038945, 0.0008356549861518879, 0.013612929693510665, 0.009511320432773564, 0.02614662147470629, -0.06284212051891358, 0.05692234109357437, 0.043645225566447864, 0.10855779573618604, 0.02418871871884951, 0.037282346759897625, 0.0011890289771627881, 0.02785475552783687, 0.0018197357107266176, 0.10466126859055781, 0.025905720234051834, -0.00023036246815961786, 0.004867888803916235, 0.0185461301004607, 0.0847806442599624, -0.03483040964630178, -0.008941920960575089, -0.04196576943061013, -0.055935493480858134, -0.06788475638620961, -0.06430312116954769, 0.001751443719236091, 0.04751838049173141, -0.06616875425581609, 0.015275999106089521, -0.046319399961890224, -0.033686385009664956, 0.050939298739957534, 0.043518693430338914, 0.023756624354424903, 0.058937612060588486, 0.06266909431034022, -0.058470124939425286, -0.0036487548594228334, -0.057268380175379226, -0.059279900835060816, -0.061123835790975085, -0.03450397392225987, -0.026348282056586878, -0.028625926360650762, -0.030806624152622808, -0.03983851978793287, -0.023702367979795882, 0.008523812119174256, -0.05369504579777206, 0.008266670943036347, -0.03710652063888199, 0.03221126503446652, -0.014053399080090824, -0.008111166598165674, -0.0018645425582820062, 0.04432066286557889, -0.028801524630136386, -0.005828222852408973, -0.005911779957862842, 0.07312485199533862, -0.01956325242247614, -0.008273158942956962, 0.006890751014212561, -0.09535929097058723, -0.0565570028913367, -0.07653454348143744, -0.13968083368852668, -0.08827919153202345, -0.04035042176797978, -0.014144864266602946, -0.015298333383984763, -0.01683643840771936, -0.027220171498921683, -0.05263808750597894, -0.034031459633009575, -0.03659931000603476, -0.01348932656276275, -0.06868546959814269, -0.03559758644519033, -0.10437002523376909, 0.05098130844792297, 0.022004449279393365, -0.0485897922330146, -0.0315686483956704, -0.022959215806327423, -0.0514575507508992, 0.04942154155934216, -0.010891840418455838, -0.010420074711930322, -0.06650245935736433, -0.07097573842738678, -0.03955216068062844, -0.08468251436342061, -0.1543706501309077, -0.017616889766182156, -0.07251484489191641, -0.045334546763804724, 0.003542356909551308, 0.018886885078144542, 0.0581687738914698, -0.05990507440403422, -0.035607415396238455, -0.06463319480027405, -0.01919811687412028, -0.0554698412897797, -0.03380378916807208, 0.025228065592263673, 0.027719932863943673, 0.05590591688840984, 0.028812455817580712, 0.016506670451622425, 0.03581864539502537, -0.004920788182085251, 0.03171288633357046, 0.02620447593912264, 0.04922659213384723, -0.05776892955647791, 0.06932905649222731, -0.04176100475907349, -0.11904122619765445, -0.11823233652914272, -0.06687649666416551, -0.08209253799016313, -0.05064444421177153, 0.017259437224791833, -0.0313968140920191, -0.0504869889518598, -0.060658988299771545, 0.020278440027458246, -0.09107522569883544, -0.052737089288213704, -0.033426509401904274, 0.003514226291794935, -0.025006013648949565, 0.011536880633934547, -0.010091308238998687, 0.01628624726770508, 0.006165470695705375, 0.04709997150906714, 0.042517753671869774, -0.020677043031997924, 0.014605655816225478, 0.03150539810147168, -0.03839732484078562, 0.0033165980463451686, -0.057940956459560364, -0.037101020536291995, -0.1380700207246126, -0.07131693753475724, -0.09347306018457374, 0.028562750319956153, 0.016827248184008076, -0.004884686942068935, 0.05765352693233948, 0.026774868242008133, -0.04519720118811889, -0.03683695727393081, -0.06627614934107419, 0.008263684587801072, -0.002330295642711188, 0.011625972623659301, 0.008422419080424104, -0.029390092179468322, -0.021174655323215844, -0.014195556572001078, -0.01576052854674809, 0.031965069195113695, 0.011917017308908154, -0.01907796995340586, -0.02732261797846204, 0.04307129237249193, 0.032133002234554585, 0.021670995162387328, 0.010480405777328094, -0.08415375410992719, -0.07268844429936724, -0.013741871097621611, 0.00761052578774435, 0.00878296520588903, 0.017168466350369494, -0.034771139583793194, 0.01807981744906378, 0.017210707895726873, -0.02612028968232386, -0.03412112396188857, -0.05608459243020867, -0.04319451451673975, 0.05522359013085084, 0.03659972975872457, -0.016185562433503536, 0.012212053810099417, 0.04583041735200081, -0.021098654624020923, -0.010006849525762447, 0.00072601200195092, -0.0286034162070945, -0.01941610636391049, -0.09129089327470871, -0.025093741491424477, 0.038020219399568005, 0.04966907343565959, 0.02853071314533199, -0.09385719122220658, -0.07570019956815521, 0.011343825714274804, -0.004779928024228127, 0.0029202542756019256, -0.032171742410854826, -0.022360623765453, -0.08348334579324505, -0.03600397150407041, -0.0396990820152004, 0.01475091506414973, -0.01235031073078391, 0.07316844790270037, -0.015405659021061556, 0.0016629914991210994, -0.028471057461507538, 0.04983823642992806, -0.030430092376043272, -0.05815624641644886, 0.06949430247648723, 0.0030367199970651234, 0.017044575811072642, 0.023634102756626463, -0.029327019222385273, -0.0013401817004922516, -0.001505135344888853, -0.035510567526291725, -0.022488432452321398, -0.020505586478239822, 0.01584554506949802, 0.025116050958335617, -0.06391677195301547, -0.023473072253333664, -0.008530478974895277, -0.03497962663458269, -0.06093000967641309, -0.12954439313707108, 0.037928597112770045, -0.005389011177855607, 0.003939768034858866, 0.0378490591434069, 0.020764817989275753, 0.021805143588261664, 0.06068735482496217, 0.027311670889279882, -0.03237236288790695, 0.0021584518166038067, 0.004638882516805995, -0.001655279756119954, 0.003957105995612068, 0.0576989214834464, -0.01879236594264077, 0.019998105899587386, 0.03354373412430994, 0.042500072538921324, -0.0019719775321896758, 0.05734006265466689, 0.019199688715733812, -0.018773436622009452, 0.027454595963591108, -0.016691470883269763, -0.02026464548745145, -0.0694073544753683, -0.0786962552868681, -0.07334201932486228, -0.06427773030253824, 0.02843163423856888, 0.03444496605932964, 0.08807223667009764, 0.046093537903132996, 0.026309738083832662, 0.011069666980813764, 0.08548059088956525, -0.0022940570678622804, -0.04102829530427257, 0.008487950057204019, -0.01901674533273728, 0.005026279845825271, -0.01925008541893035, -0.03257059592424286, 0.011505575318497992, 0.034797257767615254, 0.005641557937804544, 0.021757050227684063, 0.0879686849394934, 0.08756301615231736, -0.003988011486051981, 0.011494847642875124, -0.03918647065809182, -0.06503476426656526, -0.05478371576202213, 0.027749749355276635, -0.02073753989002454, 0.019861958204278076, -0.012798389754923286, 0.055469026324865466, 0.08871114099544264, 0.06920926615342286, 0.022435603915495327, 0.07683215381647253, 0.05498565879754749, 0.004545426417037584, 0.05228991631319752, 0.050601743323137834, 0.00948666521364273, -0.03614354349570427, 0.031812345566710025, 0.012038215059495148, 0.030442391896352405, 0.027429465182240445, 0.06350242595324093, 0.022494038254068052, 0.03754300034483218, 0.031085990476827065, 0.0374642796424392, 0.05988007145490515, 0.008119856479792766, 0.03740644558020702, -0.07209968589820907, 0.021838091575093227, -0.08747472408715191, 0.02230325983860038, 0.009046985638885193, 0.08594655934543748, 0.08981263221234595, 0.034764040541447175, 0.11263380724628289, -0.009450623312769264, 0.011053095623123604, 0.050680285027677525, -0.04953428869573241, 0.029063853714264055, -0.02987660171887585, -0.03677366238659942, -0.039612981990185266, 0.025411360181234344, 0.03665228842515891, 0.06257545904152083, 0.043284821463586046, 0.02738502405160792, 0.06568634468956129, 0.13669838874278667, 0.024371046571279746, 0.0757474790652606, 0.06472093572489225, 0.06469550028880335, -0.016715191975948496, 0.02144756087893281, -0.03608577555383921, 0.04092267261737027, 0.07754829634071607, 0.012112220742868694, 0.06454208958620106, 0.09627081938001689, 0.05452440652878816, -0.035284905614867405, 0.01807894422572606, 0.029972915132823245, -0.00433166749556782, 0.05253641865675363, 0.046212869015666624, -0.029294757295769403, 0.10118211408319225, -0.02253922233906492, -0.040454899788834854, 0.08796691213153801, 0.014353253447486064, 0.03166601527290266, 0.04616937991752269, 0.09114485751811656, 0.03261807703927849, 0.07916632634289397, 0.04783980927892939, 0.03479164758025017, 0.013166523528803657, -0.010888631256862456, -0.03283400866344385, 0.04924100148853613, 0.07221639162115866, 0.06967903453125955, 0.0774994532782524, 0.07452185796692518, 0.04807052966871418, 0.05566587739088119, 0.05034400480162991, 0.029640264805818658, 0.008695666306087105, 0.03373589813619744, -0.004181022226466703, -0.01792792802404908, 0.0034712770636473, -0.008939011476275663, 0.04290886880011678, -0.06854200675891811, 0.025828912046344604, 0.1165101610223354, 0.013453249298583058, 0.0949225275598104, 0.06914170866459592, 0.03175776835356616, 0.058512837654578535, 0.0382472116248804, -0.006328874085311225, 0.03878654478565584, -0.0015548797241973524, 0.045942929300647826, -0.013742391042561765, -0.008999164498270856, 0.04544500020423598, 0.007749748724492028, 0.07585730603104622, -0.026288538092579555, 0.006720717358183897, 0.0065904979149259135, 0.026067804543031058, -0.0055701221787186886, 0.01883044665616174, 0.006054847235882074, -0.01760876071338301, -0.01618888281959421, 0.04164827629699297, 0.012117271475305297, -0.018730657543405506, -0.005026326032506912, 0.027257502060664393, 0.09606713087069202, 0.03811701859025819, 0.02320902798434227, -0.03003336571901726, 0.0026547843114659007, -0.03674930010802857, -0.02627982805936774, -0.031173178126059846, -0.022482226792331035, 0.027765093298431364, 0.0009187083247633474, 0.050916357636700764, 0.023952504304788517, 0.0062413409252392756, -0.016689599923539074, -0.039063158903099096, -0.00909430989619811, -0.01118458757273598, 0.013026554902859947, 0.007908786886476712, -0.04488133382486709, 0.005886514592740625, 0.0233251872275862, 0.09010649706892301, -0.015474038545846619, 0.04024712766849027, -0.017756174546088584, 0.035842885895103704, -0.013460284784411997, 0.011549843226725214, 0.10094936312617571, -0.03895965665992894, -0.010458179742400242, -0.08999783908081549, -0.07873578241573502, -0.07745509323929482, -0.03335989418972657, -0.02265074093387085, 0.01665922446648341, -0.005621867669210217, -0.04803423951228814, 0.007041129463679392, 0.011876323223257459, -0.0006036518759160283, -0.002214270402869991, -0.048890311663597114, -0.023209918636113387, 0.03353677447225531, -0.02806996961997013, 1.9590206405029492e-05, 0.01467848009193448, -0.009030302778266077, -0.03059676057865097, 0.0139024547542472, 0.01297662162885509, 0.025545815918249438, -0.028089953438558246, -0.0645502358927459, -0.03522134307596044, 0.015344041192203815, -0.04723351275990708, -0.059011446981396265, -0.12262848134444015, 0.005605002009076432, -0.0543941013786505, 0.027657500562578752, 0.014036389770632212, -0.056559920434434134, 0.019992194552358657, 0.010045914034267096, 0.061358315585360305, -0.0018645583721779554, 0.009757362964804527, 0.014944324871265414, -0.040584348954310755, -0.05141099765786697, 0.004704629048118632, -0.013394440365732523, 0.075485501554534, 0.046697531607367546, 0.037420309037908855, 0.003827422169382338, -0.024183506805120967, -0.015768890078639127, -0.01752005200643782, 0.0009603944111788048, -0.024662967238186673, -0.022910785571898643, -0.013171519066139128, 0.030673586174053424, -0.0712634631945028, 0.020758808804518705, 0.009379779408954935, -0.04375175620265211, -0.07683897101291363, -0.036242097573915735, 0.042068594360945524, -0.009102544733345926, -0.0061386575488262185, -0.03551037003796423, 0.005830801000571237, -0.013766208123467473, 0.057975770222973066, -0.03733590980787479, 0.006962842029333192, 0.0011060970511613017, -0.002076644926664247, -0.014797905149391328, -0.030461440990031827, -0.025586740086717265, -0.008448208389644295, 0.013493443319784998, -0.0262849639605297, -0.08355498127794553, 0.04410548981186337, 0.03272531782389327, 0.03202325193659162, -0.00111646729787876, 0.0023491321440737793, -0.01990023816786864, 0.05569344077938657, -0.06368436831014915, -0.008390994379824082, 0.031851961425550225, -0.050683517905011, -0.030608244784278243, -0.036947313503497003, 0.02920419945535691, 0.0018940375191072022, -0.04989356274114258, 0.06668063230511981, -0.03994635181336089, -0.044569286114169396, -0.03957787813202198, -0.017959740796315436, 0.021047877487286617, -0.013514392357242815, 0.02134517585683093, -0.0654965758009738, -0.010838935946945322, -0.030763863083111104, 0.008391349813666333, -0.004907515418077655, 0.019877915984339717, 0.0036642708569320716, -0.011518699410657713, -0.05119751925119678, 0.017532282034374187, -0.0038467937796684065, -0.016138164006197026, 0.008430415847524037, 0.020445564208039564, -0.027637957525226634, -0.03837550376595089, -1.817267849836743e-05, 0.0966345856151579, 0.05264436035183339, 0.025872323059702836, 0.012012811115854238, 0.002628527980058502], [-0.0013831437956968186, -0.02332110745242987, -0.0018019261138464064, -0.02743101152295802, -0.007891689571641144, -0.0013559703351078713, 0.012025306295138455, -0.022883222636752673, -0.02973766567306496, -0.027229448545602362, -0.011807469489422956, 0.0006086559847570663, -0.050822328578369, -0.0037388683824848275, -0.031723841471867284, -0.034699501905088845, -0.09330324285350015, 0.059105366936240494, -0.04941042654362868, 0.00037947354935526193, -0.04925571404239834, -0.006295085599888165, -0.09121026383674594, -0.008970185610801743, -0.05396415908295039, 0.039805004036399916, -0.008046202153967537, -0.023291959538320802, 0.037870161280305445, 0.05915990685949632, 0.006092480468770595, -0.03133139012754537, -0.03127736580610487, 0.0794823795064573, 0.01086611841832348, -0.002349718227998049, -0.0056209620686251405, 0.04087760468080074, -0.0013473538181723646, -0.01739457344931134, -0.012421190746257502, 0.014132331673634384, -0.045454251110761505, 0.020470770533810634, -0.07103373943748072, -0.05855104099676766, -0.018883804372819505, 0.01900838661342928, 0.01605251433280342, 0.027877629093719703, -0.029529093866562453, 0.02938238756455286, 0.009947965599330658, 0.03182434730588683, -0.03919870382472985, -0.08849427715960217, -0.007045886472346536, -0.036777435681376786, -0.018767936924887638, -0.024764973435050158, -0.00045245012777686127, 0.006518443607671835, -0.009525084167289942, 0.01809080441674979, -0.0027258266838280686, -0.07100854425435923, -0.018458724501647875, 0.05594989497102744, -0.019353161471739197, -0.0083019708754466, -0.04140752625433251, 0.0039949551991374545, 0.008402038760441837, -0.02029404486339075, 0.01048374822131208, -0.031153776214622377, 0.0166914885064921, -0.02268221380675644, -0.020330822992162427, 0.00801022322641494, 0.014525036590594858, 0.05695428360719874, 0.027503412040148476, -0.0077499176211381585, 0.0328137121861161, 0.03742634938965023, 0.016647557244560802, -0.006166616925310087, -0.03865721081554454, 0.04580238548377921, 0.006564290456454698, 0.024280369706005445, -0.016855637347270688, -0.04125071788728895, 0.023517628278705238, 0.047599266626026836, 0.044726211694145805, -0.05359596078195777, 0.01918821226028192, -0.021272983234410455, -0.02913004571012117, 0.01512370503893847, 0.006768374235384183, -0.012376366646021793, -0.018145716374633823, 0.016508336545858027, 0.02858559969264145, -0.018948966743095697, -0.03181050534331211, 0.04888486277287759, 0.01389674768893252, 0.01808814804180785, 0.037406867220037866, 0.026118596618133736, 0.003624950613976944, -0.009024815633608522, -0.0718117414799207, -0.04448592678313532, -0.03076919921104929, 0.014009977761267648, 0.04878323456602467, -0.004537977769151299, -0.05308308012412835, -0.010098687941914977, -0.05124495173352765, -0.06387111038551445, -0.09016521394129923, -0.03222374914185737, -0.011202000902569367, -0.038073510397325, -0.015247824590501603, 0.03879014273085887, 0.003962779253589235, 0.019189853434795113, -0.016180053357383033, -0.05325406499490287, -0.01723290791395205, -0.009898977499373294, 0.019045191487777297, 0.004036052179972014, -0.015542856902659418, 0.07511934780754224, 0.02542210455523501, -0.009392017995381143, -0.018378532492091777, -0.06917117175775456, -0.04348447305866822, -0.03065150769091259, 0.024838722195519455, -0.08664840518483335, -0.08837102949172958, -0.09061327969642947, -0.023118477005180903, -0.03058978317269142, -0.06577301137575607, -0.05609752829607574, -0.07768648267866755, -0.04208081812952275, 0.03264150302320901, -0.013111961717718591, -0.054677351993085564, 0.023416006529364326, 0.012877542324149383, -0.02140282436053684, -0.005333687231411143, 0.005409794885576048, -0.017373199789910573, 0.030305538043273447, -0.003990524930233891, -0.017861366850973392, 0.08088692885786308, 0.021545671593093403, -0.021141895860494225, 0.01056436227321046, 0.021885971245084637, -0.04093113860616243, -0.05639104160067179, -0.06713687178401843, -0.10834219170092507, -0.06623520391907423, -0.026052933026155165, -0.044509539595860695, -0.07475776398336385, 0.009763797469625007, -0.03571868607874375, -0.012195815677651052, 0.012340098200868399, 0.042766264098365515, -0.0018184260423696275, 0.018850950831711275, -0.030733317360817785, -0.0033987869639193363, -0.01369021973334829, 0.02507467415159985, -0.02096544730950734, 0.014890646871263439, -0.029321569702763204, 0.02432249413681978, -0.03216684401309945, 0.07007412374688846, 0.027828694476007047, 0.0003950381350669893, -0.08284066059316238, 0.017661941568108706, -0.03981659342106029, -0.0002027762479250274, -0.011986063398929941, -0.009459708574923916, 0.021727845655129634, 0.06254124276435272, 0.04141399639060344, 0.0010144770175704865, 0.052692566612452085, 0.02310959159336485, 0.010089503414252018, 0.02787965902177619, 0.008043623223196898, 0.009267277720235148, -0.03173159398775492, 0.016917099100462716, 0.02408853876101893, -0.05211733121543982, 0.03841947850295587, -0.019092893307932558, -0.0694300510259261, 0.024531533950103736, 0.010596476713929, 0.006711537993799318, 0.0263948593963568, 0.004656931374892554, -0.03714946645303668, -0.04310503277797738, 0.012265507020055492, -0.024583419303139457, 0.028427145913648248, 0.038290581180105095, 0.09260621116612977, 0.0553203005294182, 0.0842238390439765, 0.03888880297413606, 0.08246875227015382, 0.006981168834632671, 0.010469623371995456, 0.020332195181494542, -0.07433721897372177, 0.06567184015807306, -0.027798824323896302, -0.0033449456213133916, -0.0036192120740951446, 0.017952102885583996, 0.04525974852132306, -0.002352275587559216, -0.08052109920890235, 0.004185619328192184, 0.0601084356840502, -0.02058902589034969, 0.024486537029675487, -0.009138839510575317, -0.009424283781175968, 0.018875851548603405, 0.06522431630335784, 0.14611325418707966, 0.006975555332469217, 0.08116710117473412, 0.07108483144964932, 0.05953736462875898, 0.00016726249078832236, 0.0285517159986531, 0.004039208404710384, 0.03130042807020663, 0.08146509023540222, 0.02249715468420044, 0.03699171605295979, 0.03843691882079231, 0.0382316032602959, 0.0014906084021551501, -0.009366302234872182, 0.012793572427712379, -0.020640054047344016, -0.0022003360715271863, -0.019026407555747967, 0.049456893526299006, -0.038376797649623984, 0.03549245406166381, -0.012170665616256042, 0.06488132988170918, 0.05659403633673414, 0.02200184249984047, 0.136831617740319, 0.09497579624961802, 0.07812987128205427, 0.0926406182104849, 0.0417965939469127, 0.03820022891698035, 0.01468318499893809, -0.043845457717095505, 0.03726346788636223, -0.002118003122262183, 0.028506360697983093, -0.027010169205610772, 0.1119070926020741, -0.029461741516937257, -0.05798387079710904, -0.0056296662931054784, -0.06165050791396401, -0.0353514368287669, -0.0037850589038620993, 0.03764086976076352, 0.033783374443006074, 0.0224286831709968, -0.0007216883896142342, 1.0896794489562176e-05, -0.025503447666641085, -0.005899541373111699, 0.0019546565836814343, 0.047872686753363154, 0.03997327228301061, 0.14205262049104778, 0.09352042543654447, 0.08190852514372021, 0.034341892772053816, -0.027407720634385006, 0.004585136163591592, -0.04200679503329284, -0.012163767730563428, 0.0306416416849109, -0.019351696841769215, 0.005611670357812693, 0.07476590944314467, 0.04603976858592144, 0.026115075252353834, -0.00963110095814406, 0.04522238902757389, -0.02271831936998726, -0.007687516317389548, -0.07387540442862511, 0.011277210043830989, 0.009590602551807019, 0.018185813132050168, -0.005009673983457518, 0.006481596152374447, -0.025684216112318043, 0.006088739527358842, 0.013979281122933155, 0.04747625191023996, 0.029057023325933486, 0.08668763076607572, 0.020796886849683373, -0.0723338593145232, -0.06215775202360439, -0.06552651499784942, -0.026374115667018718, 0.009460666325507947, -0.002009825895345013, -0.0480704804260179, 0.0007018104452380187, 0.009246584942467025, 0.12232821117764121, -0.020554776682597063, 0.04290010354741604, -0.01216845667647048, 0.031143598078115658, -0.019161000561255685, -0.04615180614844173, -0.034831018975844986, -0.048847027263223416, 0.0175474665543237, -0.03777359357339436, 0.03388502575730956, -0.04915063982843911, -0.009194590323943354, 0.0232029188324116, 0.054710893573528575, 0.09008363625572494, 0.07625342530605442, -0.06840456120950224, -0.09515810677543252, -0.034924212042719956, -0.049496298768401274, -0.06167775315553779, -0.051860254861741915, 0.038123972942780734, 0.11073634804114577, 0.0006842580074456989, 0.04830296723092489, 0.012373324789971371, 0.03254329641519016, 0.013798138345418307, -0.015478614498283635, 0.0072152811923816874, 0.01468454941615807, 0.040648895081414185, 0.002501924720883476, -0.025713356580416354, -0.040760888346938015, 0.00025252285383161894, -0.0037108489182692663, 0.013293958380460765, -0.025956609460303103, 0.06258424381911196, 0.0551265392929213, 0.06764968562137591, -0.04695139314411643, -0.012408588595592431, -0.016901633181921404, -0.0024054350599409984, 0.013730634735217784, 0.05538837174204313, 0.03819618339874943, 0.0003486257908020074, 0.015141177358439416, -0.04556730798552437, 0.015865019378350085, 0.04318829100141067, 0.03148899312152926, 0.025355295246917996, 0.026654896435100585, 0.007184600571842716, -0.04128783638283796, 0.03569996623370128, 0.06404332308408983, -0.009954045129391569, -0.013481039752196007, 0.03205855363581962, -0.04606626517852025, 0.05878072273352183, 0.031148648274427503, 0.026727645083375343, 0.06627963559405013, 0.009229124985555148, 0.031641625732801014, -0.020356550021755963, 0.007238501804081967, -0.08558980851874283, -0.05596507447859888, -0.02444587456630761, 0.05163626493940376, 0.03236858503237875, -0.02064427389546572, 0.015077226159639402, 0.0011792474853079922, 0.012589187316415246, -0.008353714052700984, 0.06817388233375883, -0.04272934007222402, -0.03477509683544091, -0.027846611413273638, 0.006492295064491694, -0.009760565032464814, -0.018598222029358364, -0.02447873238136908, -0.007255483400808077, -0.020773072325833853, 0.05646616246948721, 0.04361647046018863, 0.029185366684093998, 0.025703252230698262, 0.009110042907890407, -0.02523774837347769, 0.005517505131993026, -0.02376443514416485, -0.036524655066677736, -0.036962062780215445, -0.010450260934739244, 0.01274887972508373, 0.019796789231216992, -0.011127326527455555, -0.05227101164921168, 0.007628975404177879, -0.013686835131069441, 0.037629321538412114, -0.009349806488164133, 0.04539504440378248, 0.05213402666431667, -0.007464161850165634, 0.0018367363717045036, 0.023693543040683107, 0.05135232509107387, -0.020188297824954196, -0.013837200602293218, -0.027815744632006933, -0.06593879984454594, 0.022534250493754696, -0.01865860155857046, -0.028887988394114612, -0.00470369579477194, -0.008840467284909389, -0.008644996313540813, -0.09651599759690523, -0.006110811192228315, 0.008993258402269121, -0.04248694480609171, 0.0019037112128943395, 0.03484420632193483, -0.06776524748275835, -0.08652659332175351, 0.0013879250178067124, -0.09408157480211099, -0.07086073611759368, 0.013318397518975733, -0.01083852227019916, 0.030503956374732417, -0.019511686567725704, -0.00840152105829193, 0.004568913024813881, -0.017812813413426276, 0.024012980130087448, -0.06663534626103876, -0.07155346669621741, 0.0052957433070357175, 0.035938330170141725, -0.0003253549443461212, -0.01835877304297665, -0.011931924387261593, 0.009691787576707264, -0.11325154896780693, -0.03412883240132201, -0.005476954344672678, 0.0020872347434636985, 0.04706731788937649, -0.012854237427864455, -0.025138110219152566, -0.07835282727612469, -0.04478333161286779, 0.013486312779250815, -0.016987683022216395, -0.06675436177610836, 0.005446325822628401, -0.0370166945521056, -0.0240516079151779, 0.020633827410331308, -0.01909313596738416, -0.029045808084189807, -0.016474564780149078, 0.013173797068534597, 0.04628828743534857, 0.045276676659567035, -0.006578561733847594, 0.02137153269814369, 0.0007904444434767933, 0.0023803346967774704, 0.029473343438955742, -0.056883085916483125, -0.03244816787846923, -0.016915484415897228, 0.009199744677396577, -0.007677530171495929, -0.025282376349968855, -0.04619649395049472, -0.10338351122794921, -0.020846430376910943, 0.02361793024463921, -0.0386816732084026, -0.05930235879618576, -0.012635600132300702, -0.04350575401072484, 0.0821149999921145, 0.009970810168313806, 0.05088093734484661, 0.011403737653468029, -0.014236073090132516, -0.032647162291275, -0.06432760260466963, 0.05631644059067102, -0.044257573997542536, 0.0221637260998925, -0.027803503651676706, -0.06012548276285751, -0.024778999378858642, -0.013353586642878902, -0.028192780349760135, -0.0666079639351147, 0.04611175357198762, -0.03535710803420815, -0.04261113572191016, -0.0765299065302197, 0.041614403341880234, -0.040061729752216085, -0.06922559519406507, -0.03239644308193833, -0.06544830986508503, -0.030079174554042996, 0.005481822565979076, -0.004203426807304928, -0.0005962048736628499, 0.03163920820730898, 0.007541267322133885, -0.01379603037112817, -0.018483742215536083, -0.039163974541834005, -0.022459515913205386, 0.03418642231170889, -0.030627293565231115, -0.032559802388523, 0.021891455767563073, 0.022025507700702635, -0.03319645665008337, -0.07436541035093307, -0.049556866930717265, -0.04683487146686742, 0.026036578368975095, 0.05672064318663398, 0.030286745632516047, 0.02693673816371831, 0.01693313662868226, 0.0564835785013399, 0.008574628871225946, -0.05725554122869538, 0.01995511864993541, -0.024569112396046155, -0.033073346972909166, -0.06687123857053519, 0.0007960059599841631, -0.013796256402066658, 0.0009009856624345182, -0.03385266441101767, -0.008199374316950274, -0.005792952300890927, 0.02223892266392493, 