{"sizes": [784, 30, 25, 15, 10], "weights": [[[0.041800672431019474, -0.00209486917590317, -0.0296319636735903, -0.031189600010091047, 0.00559423217843808, -0.027122781364166643, 0.062467846639056725, -0.01567381186268694, -0.011252768201855327, -0.024000947419526755, -0.006660295960860503, -0.03512606256085189, -0.023440729155326155, -0.0342505121793067, 0.014586187407756763, 0.0015260753781142567, 0.02047872154857386, 0.03854744226554496, 0.020921403471063263, -0.0038731834210300143, -0.1047523617719648, -0.03736557596490006, 0.00546671842116222, 0.016487056734787012, 0.0334511541417472, 0.05883907119457582, -0.007817657622786158, -0.05394612342384523, -0.03864787352832173, -0.03268081268859037, -0.010543446289987171, 0.002881140045854192, 0.003891069585068977, -0.016215959821681263, -0.010842898029585532, -0.09727625349031685, 0.018411504908926603, 0.012485810240131155, 0.036708579554532106, -0.04419188605982119, -0.0030169199637240084, 0.015467702531409253, -0.00010161986984335184, 0.035780475154679164, -0.047934838455318686, -0.03668587141989058, 0.0460189394501999, -0.03199633319964496, 0.04431960484930562, 0.009580143026088207, -0.01669753525660245, -0.06436020065395505, 0.0035558418882486228, -0.026099624544372434, 0.01193989038659584, 0.014778656092154013, 0.002855182934483355, 0.008230686317495827, -0.03883693724914514, -0.04438388439947888, -0.07615395727768573, -0.06349584283357516, 0.01346205228829029, 0.027140695411347473, 0.007110427660565364, -0.020174919743189582, -0.011669266732324747, -0.016397644846180757, 0.022141162944626522, 0.055411877836475464, -0.05657440908219909, -0.010881746573685, -0.03345249701187966, -0.004565173676182352, 0.054930760884495354, 0.025760419313925677, -0.008126613538218254, -0.040901120496357586, 0.00928036110820972, 0.00980873814517125, -0.03611248823839249, -0.002179001395670486, 0.022935072064902806, 0.014844891705866402, -0.01673863799295966, -0.004456457813307804, 0.012726205019034998, -0.01531151485154929, -0.07661837244016784, -0.002627636946053836, -2.1197176786102556e-05, -0.0602074660581894, -0.02732892911494641, -0.002090210641545039, 0.06367045769669247, 0.020932598653538182, -0.014191396762752412, 0.025837006545144026, 0.04312050305599765, -0.010913642216962066, 0.0140664134186217, 0.035684961335131424, 0.05294851315716441, -0.018879853971703987, -0.007796006957417778, 0.03262016695325682, -0.0023585531300148164, 0.021237471289758374, 0.018589525333119708, -0.023731967373153143, -0.015220360021274193, 0.03701400046036212, 0.005374067806108594, 0.036801359302205974, 0.0009465360604969085, -0.0038306636208796058, -0.002710109026523095, 0.005339640035487236, 0.0012035129799853321, -0.02837464346776724, -0.021159270610359236, -0.0031789825502316193, -0.005292514870418927, -0.02726845865002475, -0.011346979842360513, -0.005909740899128288, -0.03590615045887805, -0.03741445754108117, 0.05033175874018116, 0.02291628192208751, 0.06299496842918562, 0.029342523148402654, 0.019832298926543278, 0.058596639366579176, -0.005456814352422205, 0.03939127762774555, -0.01194166863824845, -0.028602401149888698, 0.027948274345553484, 0.043217765469204826, -0.0009262274516345258, 0.018788591731130917, -0.03141793280762415, -0.03496649632964768, 0.04534112189768366, -0.037354528994967835, 0.06946944111097582, -0.05013229477467694, 0.019763946061202856, -0.002084425214131295, -0.017501401270144473, 0.05204972446119519, -0.0423962415697985, -0.04406011549955759, 0.018945828377553552, 0.040122470854302955, 0.011405400813152985, 0.049695381900498194, 0.008510467404703742, 0.06321265744823054, 0.043699776825367284, 0.029124975880745557, 0.017318662625010386, -0.04661990866479988, -0.019746935190619777, 0.014590879644737915, 0.046654913608540606, 0.028951677213293302, -0.024894179878415044, -0.04113909710960588, 0.05915710142922778, -0.010592047648520161, 0.051050662243904824, 0.01395250543083015, -0.03774072303654841, 0.036004106371209536, -0.06037933759673536, 0.07538417008389667, 0.05306213216102314, 0.01821836101715647, -0.043383606196398826, -0.09439941954053599, 0.03801283790683835, -0.016497064705204113, -0.03836149492945555, -0.013804911679073053, -0.059581262746710766, 0.009120635608959255, -0.03617102372590817, -0.011706186714177148, 0.007224570891703895, 0.010367487596423277, 0.03772927752381355, 0.05027662010306699, -0.005532003305317143, 0.04951967326645589, -0.045798536988127456, -0.029343831400802708, -0.02730485488706729, -0.0552679981229308, 0.027240101136352127, -0.014873556015114624, -0.010210254732815715, 0.022473977631343525, 0.0019418673793541311, -0.04230566997888011, -0.06674554980169974, -0.020708856486640066, -0.10594005327505526, 0.01648291633550594, -0.025730097239315797, -0.05109034844819843, -0.021238446919283772, -0.03651065033988968, -0.017542306876545743, -0.005219231806756242, 0.0880273427398244, -0.0031188921341141563, -0.0013113740901433569, 0.006109701303455985, 0.07172634130717105, -0.06255068389040547, -0.048003754474835805, -0.028867375806954906, 0.009808367791653692, -0.023758850043977826, 0.06040515415331032, -0.0241635074305908, -0.0473414006436452, 0.04438581582885055, 0.06189957727509292, -0.042685889413293696, -0.026272309380549717, 0.019235864316815652, -0.018668047940915998, -0.046112629878929674, -0.1297149502878066, -0.01401201984278675, 0.03521101763876247, -0.020549098001687836, -0.017639751529734744, -0.022530182582240085, 0.020571842254739892, -0.033823529620261986, 0.009359786170363956, -0.026417557746833225, 0.004759363038112316, -0.04368500337887032, 0.026154877035877343, -0.01017260900848296, -0.04580349590527526, 0.012609774304197055, -0.025006021406966557, 0.05509485355362774, -0.006149481172115847, 0.057932172363104995, -0.054300673808122764, 0.030614312355346156, 0.06892039175180494, -0.033684023390145694, -0.02628015659868676, -0.002059892283693014, 0.03955909699830972, -0.049322208081489044, -0.038346518376741946, -0.04192253470016284, 0.002091597618088735, 0.06260383971535351, 0.016469825987729957, -0.01693503005109607, -0.017312494951203232, -0.04699988516765569, -0.01632572652708685, 0.005245375073885519, 0.015857304506429387, -0.0013898163672881303, -0.015756508089353964, -0.026566665114044184, 0.01749367376329834, 0.060653166214527626, 0.04185470671745946, 0.00133536635864338, -0.04381706735089056, 0.03651213873199764, 0.008385760971506416, -0.035517970213092914, 0.04672325253210559, -0.046024333282290476, 0.010748812320082278, -0.00590839855026055, -0.038964770296219545, -0.007881968541565112, -0.06533165721754111, -0.010168241195709922, 0.004562387053525743, 0.08014531830945386, 0.05759430626058, 0.00905787254571339, 0.047351320081615966, 0.08517908407662786, -0.027591818261473153, -0.013420994367428614, -0.002288945110572897, 0.015836522262764188, 0.01053135635005197, 0.03971691069902361, 0.04318203157462829, -0.033307453355971364, 0.10139161807171052, -0.021923520933737548, -0.028226975062365184, 0.0325050162270363, -0.03923952765375672, 0.0463987729285252, 0.022938855174583637, -0.020340686347662697, 0.0315212080723806, 0.005521666333566026, 0.07586523579808417, 0.005402469967239392, -0.03529713592893985, -0.02611558786047973, 0.020151238770907107, 0.0770277767741053, 0.0200757737682029, 0.004130943207704535, 0.0109980643303397, 0.0004893735999481979, 0.034766103933943464, -0.03342796859670742, 0.05077555190586945, 0.020990268902588868, 0.05435716307855825, 0.044682940215186415, 0.005916812021011053, -0.06783002957340126, 0.015510978513200406, -0.04329366370315995, -0.009093520500429286, -0.007110426256785394, 0.0015593116054896108, 0.01483263690181086, 0.007679249010493545, -0.015912740523185635, -0.0178117353470472, 0.0017609081861536926, -0.057695375311634094, -0.05360033262853515, -8.039226539508842e-05, 0.006706966413156152, 0.04077033192240513, 0.045082208788760625, 0.020199535043489633, 0.00886426905934202, -0.010691560766240168, 0.014935905214669906, -0.0677477871331681, -0.0077702789812310255, 0.0012572392108954186, -0.020389506246216806, -0.00956690824820937, 0.006950643680054911, -0.010117195117441982, 0.0181780461771927, 0.019499291648706486, -0.035012025437990396, 0.007562032463462015, 0.03928135108777981, -0.04160436290780087, -0.026907911960179297, -0.04122531186856588, 0.0013495181604796039, -0.005759805168135695, -0.04287174634384261, 0.005005960862072201, -0.07445222790986257, -0.00397388172605693, 0.04271319687786409, 0.0539061864615804, -0.05823862159008246, 0.022739307116135563, -0.026289731259687508, -0.052789743359970755, -0.009493481121124778, -0.04794862149433458, -0.0682361619373596, 0.02380202612269033, -0.013179963014953172, 0.024987174895040397, 0.0313362295700126, -0.007829727905275589, 0.01073286772660722, 0.010604004960708137, -0.06757805408421518, 0.029868785451035305, 0.020860108786628462, 0.05885270897089325, 0.04795367150261596, 0.02180190063779287, 0.022936028322367765, -0.04844477413751646, -0.020132521671772898, -0.04893160000617738, -0.05754230674342867, -0.009348954266120637, 0.07529887013933538, 0.051690736421940366, 0.024282262653305586, -0.0037829569915592593, -0.009771135746773994, -0.027705934951217807, -0.035287303592796034, 0.014774745015587183, 0.004212607675880859, -0.03404371642705084, -0.027306921592411867, 0.03626219009754958, -0.020939318662172423, -0.01783839894398921, -0.027453577087450377, -0.006380438323399964, 0.002341012306213882, -0.015797300886741375, 0.06391562249235844, 0.0060300732566427465, -0.05063005008026745, 0.00844411509489263, 0.0012232072062022075, -0.01853817810190308, -0.061260354068370174, 0.0337109108996433, -0.00019689281602083188, 0.0472000627466975, 0.0988223660555404, 0.0734707060575719, -0.01408028620273398, -0.06749129952439874, 0.01428471201783606, -0.01240354222398721, 0.0017956091047440523, -0.06438358923296308, -0.05124186793467171, -0.011628700760216569, 0.034594973910340346, 0.0109151744893915, -0.022570188193435793, -0.008281690026336665, -0.035908807700752936, -0.007125254527281143, 0.02124575099439373, 0.04251989383332839, -0.06584094691246237, 0.004158405825574486, -0.03405754124655062, -0.028385851207770242, 0.01736422800146972, 0.006767458978071889, 0.003307131007132722, -0.02688060636443154, -0.045480775025245765, 0.08559911679317225, 0.05827029630629397, 0.06191063724795475, 0.07991469143551098, 0.022530359951467058, 0.005067375990703896, -0.02540106805094734, -0.013656063804945351, -0.08647271237655865, 0.06544388361924995, 0.006673167760441448, 0.014274423522067871, 0.01806988860568746, -0.03633584132182825, -0.03422348343826219, -0.027996366539112066, 0.03189501301697355, -0.026686551319720038, -0.0024318596945416904, 0.009594356182722849, 0.07290229328318945, 0.02767274129501382, -0.05520218220542896, -0.005468913138268438, -0.04013541959907926, -0.05772582738335707, 0.03258811926081744, 0.0702003293914952, 0.05980611701035151, 0.055266852459807864, 0.023838625970385316, -0.015361855258825507, -0.007719191780150142, 0.04065128375304981, -0.01445967293623405, -0.017108554401482942, 0.021396794072765467, -0.06864693423169478, 0.014048881069830188, -0.047136796624226034, -0.002629376562911971, -0.01991038102192264, 0.01957700269101765, 0.0124376100523332, -0.05759588875050232, 0.04598998783932714, -0.056143775003729385, 0.01520062641072001, 0.011744100622280212, -0.04299679741105897, 0.024941422575995686, -0.010430470922441296, -0.016073632282964257, 0.03988645875538373, 0.029048665456901185, 0.012818149922085333, 0.07141871065678279, 0.09310417263542672, 0.09231899049705707, -0.025130173331721743, -0.03434145623104493, -0.038927829517274325, -0.09290801899018329, -0.046843093449888865, -0.03832515505218523, 0.00774130405582912, 0.04525516345360574, -0.029993846578595024, -0.034960145566200515, -0.007749716910350695, 0.0015495296152071647, 0.027241092008418975, 0.039638555560773, -0.03098620836340919, 0.01064708979356882, 0.012334834724340231, 0.047841003929190065, 0.026060915019679266, 0.0033597266745116414, 0.012977304814049628, -0.0008242922107889928, 0.0011536290023855238, -0.0439380129672802, 0.027967078533110083, 0.0325288433530903, -0.050425054194910376, 0.07164264911840133, -0.025473115487499504, 0.008685954343345256, -0.06066941015245946, -0.07184283607454994, -0.09733196687888138, -0.025348849584963223, 0.014770623705086966, 0.007404254716934163, 0.012089605227300917, 0.025304456863318687, -0.03994741057320031, -0.030004484098634196, -0.009058300708024514, -0.02397803707140197, 0.06373701566365636, -0.03151918335536396, -0.03651715432177819, 0.04664792805906075, -0.010348140544863542, -0.04276909380215966, -0.04653966749957483, 0.002676688894289427, -0.04316349623029538, 0.006814684568697372, 0.015220104666921407, 0.023374036169364357, 0.07679184468228771, 0.03553117410968649, 0.02362452214924609, -0.04932583341306035, -0.0029775509670134713, 0.06505646930452394, -0.04490371459636598, -0.07135678527611179, 0.06571533665504571, -0.04718070990460665, 0.00011156278115352831, 0.00980112659789221, -0.03984433501044489, 0.010394537504787152, 0.059203441087618144, -0.005395602369415358, 0.04378500088111176, -0.016922460539057486, -5.840128035007777e-05, 0.007728017287273081, -0.04176423305457068, 0.0034124101219031168, -0.029083931728306416, -0.05347365650166573, -0.04591669378870071, 0.023971650240935224, 0.04264972068383725, 0.004847704752866375, -0.06942287865645329, -0.036746958535608346, 0.01363603533105422, -0.08272859293804562, 0.029287938448524845, -0.02439446807255133, -0.010528307889635434, -0.07753354667733321, -0.027770017606588968, -0.01911333290164127, 0.005875864997684795, -0.01674106540712772, -0.02591813039191716, -0.05959340052971098, 0.018518555469181103, 0.02182065618195595, -0.021815120974004457, 0.034089479863647236, 0.022770119927739033, -0.012194875850914758, 0.021840229116038043, 0.013199297182403534, 0.02081139016130887, -0.07945040255725769, -0.012418192157172636, 0.029143577905658462, 0.030903133327524555, 0.018035453025032094, -0.020058957667081462, 0.05165557867188656, 0.00601204181468425, -0.06596509531342157, -0.010056635977950097, 0.011126104003990252, -0.02829954988109294, -0.008718662590137536, 0.05192821358736042, -0.019691857988405028, 0.057078136445660996, -0.061615873946988475, -0.014526169506245653, -0.003978129320850215, 0.07576780626469086, -0.05035402587432511, 0.07759297340819118, 0.012290659369535302, -0.014383052726132665, 0.05202554233472442, -0.04044725066742324, 0.03760736242051011, -0.004234060459155746, 0.009887825698691897, -0.014869479100862813, -0.11120045868066789, -0.023158537282940837, -0.03873655671196386, 0.028535371159861725, -0.007480904488268694, -0.009535977934172362, -0.006855305272218985, -0.058762907596364156, -0.03393968312774307, -0.02638690445294799, 0.013825625820988561, -0.03901005036624322, -0.04757362619525648, -0.0025919781323948026, -0.01821654999005371, 0.0018013279608435839, -0.03959044298808378, -0.06241364594979643, 0.017774835000802274, 0.007915344376245444, 0.007917651877617787, -0.0003367506190539043, -0.026797160081510934, -0.016630400303395635, 0.00804486816323465, -0.034842422501330995, 0.04100812567063296, -0.013349507423165687, -0.00902273780167929, 0.04781198112648021, 0.01499738281182228, -0.11510291533044549, 0.0497891498946675, 0.01969047121434684, 0.00993381733505811, -0.01875234835015608, 0.014138759125519127, -0.07056570057841659, 0.03721823987095453, 0.005752752934309416, -0.08903839863652017, -0.02062125307124303, -0.0595823804297499, -0.04004510494070081, 0.034388417323277604, -0.012664266593892998, 0.02860059088337268, -0.003945723770170086, 0.04882118170905453, 0.004839205720223659, -0.006334885484314915, -0.01878935507038037, 0.028749322990527838, 0.04156070605864315, -0.07483534049997832, 0.023912424838214416, 0.006571548351208451, 0.039992672086898724, -0.031057092676617336, -0.013963228192320223, -0.001982506035049053, -0.03229280867781325, -0.03750808691097359, 0.02905757182691151, -0.03321467192921911, -0.02442819803556915, -0.010621464920749935, 0.007216305866972013, 0.020656486946787744, 0.04981554562162113, 0.07617296758121785, -0.007137527879465388, -0.05684694472592942, 0.02864409847961843, -0.03784034296241972, 0.019601082430182038, 0.027970834949652166, -0.048790970995943934, -0.02982233981280661, -0.06113011686563438, 0.01028126728866279, 0.06969261800162982, -0.0038644788378099496, 0.04049883653047139, -0.03454146363875479, -0.06002507137610249, -0.07296839158268659, 0.09863987868597933, -0.020007356555069647, -0.00895232196661175, 0.042763699809336926, -0.05422541555409016, 0.04069904545292548, 0.019681712916404037, -0.006781107136703509, 0.018287624922827542, 0.04168545585689919, -0.02108624020498553, 0.016139749439847046, 0.013298797507993258, 0.02455485586502059, -0.004023334482308453, 0.02861447177056471, -0.005424396054132686, 0.028239055100227985, 0.0006614307424719664, -0.019852279586005897, 0.055865239514101335, -0.06065200942188321, 0.023632900971248254, 0.009284187244386734, 0.054090851749624476, -0.01474844724009462, -0.02358605144010758, -0.00937353149052397, -0.07516432342703269, -0.022480876296415323, 0.0041479305469075255, 0.009837410006237545, -0.013958509060122902, -0.05563629181649556, 0.06540002165012446, 0.027884101736971388, 0.023323927010828825, 0.015019407777161842, -0.020035945636754798, -0.06508828768670046, -0.025014835218942353, -0.026877791499211216, 0.011481755947281028], [0.021223600950712317, -0.01042643638224648, 0.05950393127328804, 0.038172314544487614, -0.005813645221307526, -0.03687766873022749, 0.003413776165648742, -0.04520857216330397, -0.018721745943079158, -0.044502355169953614, 0.019462917816488262, -0.07180883263361734, 0.014814125824887295, -0.0029377895078309666, 0.011991534501877564, 0.04078182802797526, -0.028181726628278603, -0.03742995685999404, -0.0233296861824962, 0.06458111247172738, -0.022577448042947985, 0.028874021987334252, 0.014946305090277053, -0.02649736873226219, 0.013765246202553923, -0.01357486377723999, 0.03276962374336485, 0.0037234918945074935, 0.031607030833789004, 0.04323024636600271, -0.016128826167770876, -0.01731144195857128, 0.05166946824098201, 0.005886894247671572, 0.034146649118839474, 0.07071386406412718, -0.06957513145298155, 0.03154307808309959, -0.0524743225411398, 0.03960864810680704, 0.026060764855719842, -0.01488228006160906, -0.010841180091304711, -0.053849739953460915, -0.0584862133622134, 0.02511332887071375, 0.006748489552102104, -0.01755662092984659, -0.02333937597699092, -0.04059680049655149, 0.028517899805448076, 0.010454041901820449, 0.055135787247479674, -0.03698709495321838, 0.018042867320969474, -0.013775731747209594, -0.008594970166602095, 0.0364896582577298, -0.00993189678321031, 0.022674393380953447, -0.05538108217620066, 0.045279597445851485, 0.03529477658164364, 0.041574357134692694, -0.021455027276128816, 0.015400335637876206, 0.035799413429174094, -0.012219848602855715, 0.017611730332239003, 0.055536267895980075, 0.012203962700564654, -0.04562450573856955, 0.00336790478523585, -0.023404251173901908, -0.0006427980369747616, 0.01199377700520097, 0.03271701157371012, -0.009769460236435705, 0.0003843758961986677, -0.028791710208728685, -0.03547700912785034, 0.05273427181077976, 0.026548288304035914, 0.051439620338493634, 0.01787473250960533, 0.02127039539168881, -0.018753145166486754, 0.05462955117523165, 0.054947151708728645, 0.012099303422557288, 0.04227073781593377, 0.010861150091454701, -0.02288592592331527, 0.023012447259294515, -0.07512845969005771, -0.03539392650254037, -0.011851405586678607, 0.01866817131544888, -0.006009090481393349, 0.03038847944069928, 0.08443744122163975, -0.031446462022356, 0.010798923335768602, -0.049730252957711836, 0.005609966927240509, 0.0011164243166454514, 0.0013681309101640123, -0.007194092645578228, -0.05520104363399387, 0.018526938469531292, -0.015662940523949377, -0.0409814465452651, -0.014508054643319564, -0.013088779114849809, -0.026464489260991285, 0.031320696303351256, 0.006220634553716502, 0.025087488000840843, 0.010625783759146515, -0.04447552718841204, 0.03173008776069663, 0.02096286390198656, -0.038311440972468414, 0.050537923031342476, 0.008799859041604236, 0.05541795802340548, -0.005327447642545313, -0.05843808334545084, -0.08762071843769023, 0.06822621125792487, -0.005191181025825772, -0.030944284878958235, -0.020048724579493683, -0.046587901895357865, 0.017917541135662334, -0.019070097441217643, 0.023532460495238914, -0.006747542166348753, -0.032754664750252814, -0.03219397870458275, -0.0580112474795379, 0.056134447931735325, 0.04004655004929625, -0.009651513681642732, 0.04642698344349814, -0.031015209858437146, -0.01883273589011561, -0.015644239375292145, 0.005715463488336073, -0.017152567753171057, 0.013420210146220933, -0.004788661879480542, -0.04286520418500053, -0.03936164938800998, 0.03740875292597187, -0.011693807048369148, -0.0013853312817118776, 0.0676777241217242, -0.09129244616887336, -0.031908544265601864, 0.06618789904713814, 0.032046564807060425, -0.05094565065675122, -0.0006696787984111449, 0.04617997438195718, 0.04937495549509565, -0.00017589325107663517, 0.011047512347886208, 0.03674099976750329, 0.035333208917076135, -0.006341666292582987, -0.017123657616335605, -0.0029097369720518748, 0.001888090976091027, -0.023696002919377877, -0.029748983599886942, -0.00860515615650243, 0.018628666868220303, -0.026745113790876896, -0.003280748134531443, 0.045366585621133604, 0.006383626962818231, -0.005237455314208768, 0.03362366902941923, 0.04608202329149849, -0.033127963789332686, -0.008528966340228098, -0.02783380401601251, 0.013195214503322856, 0.0011505226289269836, 0.054005628791811, 0.012826554174607251, -0.06204744023791898, 0.01848949195886672, -0.06647308644149807, -0.012413520620460949, 0.02224581328220851, 0.02314966175832916, 0.040606726856547065, 0.04989751186056704, 0.015801768690685957, 0.06929796960963328, -0.003321191308369808, 0.09990080089721827, 0.012541246728695716, 0.01961131025355969, 0.05645839180184585, -0.025930107168296933, 0.052048539152225584, 0.04872919100755004, -0.02955107788324013, 0.03977470329870216, 0.055313637320226296, -0.018703686320301293, 0.057722212032503405, 0.01114207527799931, 0.055908159551918905, -0.01822166794119677, -0.026850499973349262, 0.010617694833291814, -0.024930550243130133, -0.00014796477734304846, -0.026543544505846894, -0.03969237345336412, 0.06013032149965997, -0.04231449781580936, 0.01958197174945754, 0.016294802262389305, -0.007925096995238351, -0.006817766719688405, 0.05729920335631536, -0.056043840936996346, -0.045699342716177344, -0.021148837719813678, -0.005856634539423135, 0.054572629405107057, -0.013218927907535167, -0.03443589143130902, -0.010620094451186191, 0.04559733719156316, -0.0004531046742503341, -0.014015653617915904, 0.015212302844749528, 0.07598480458777693, -0.02185532992751165, -0.0024625491432375265, 0.008655192916873758, -0.01831058518392888, 0.009376053442080078, 0.046402063158145844, -0.017165359025857915, -0.024651119434782987, 0.028518594095800133, -0.014824693927316399, 0.016297522999750656, -0.01124787173954884, -0.023729143682262307, 0.07271909746875965, 0.057435514821548635, -0.04599582550951128, -0.04635617137226771, -0.0005396138901626774, -0.025566769342836162, 0.006291888629645512, 0.049946593182655374, -0.009950256343307625, 0.017622547960307527, -0.03380085648652414, 0.04004122582886656, 0.04303085134875773, 0.057882728320168615, 0.025550859827464082, -0.01085658971618925, 0.05999284079275734, -0.042811747604469895, -0.0018440009084594788, 0.0029219429441427773, -0.01949273677876885, 0.0025913019488070666, 0.019185544782305143, -0.04591874668934006, 0.008946635913772018, -0.0011934999929338933, -0.0034605318858460846, 0.033005999818011125, -0.0274894024069761, 0.025417660101448053, -0.04606911059635122, -0.051694492323675824, -0.014494990171051107, 0.0074855465361563026, 0.049882460312612426, 0.028550021126122795, -0.03646252331347457, -0.020821983184715603, 0.021648327330647386, -0.044882826309832216, -0.04141671153586679, 0.09936857532363187, -0.03719308454313849, 0.008183572415373775, 0.009242074864228591, -0.05311103534803608, -0.05020093800525235, -0.03154180801773323, 0.0610148081179335, 0.016968593872642792, -0.01995533088791773, 0.025491172975189953, 0.010783279603093067, -0.012190488094840397, 0.016453306064066735, -0.027089694317225986, -0.06554677350552095, -0.00015319960580619416, 0.05626325230114876, -0.042686473636442235, -0.013583519471026866, 0.04011754616879571, -0.030094340202153277, 0.06386194971809642, 0.007036028958735241, 0.03666434763381729, -0.020424053052883286, -0.0001667888234799974, -0.047492362454244506, 0.03354675398599687, 0.05870309037337291, -0.028319708020854945, 0.05964142667718001, 0.04318318296634893, 0.017163298580059425, -0.017481153842605658, -0.03582361577165563, -0.10021170512293083, 0.043118883996238075, 0.008957230322049682, 0.03837577548016073, -0.012060786230308079, -0.06909390981200615, -0.050345103985711875, -0.0033487981230792712, -0.008612295784796978, -0.011354439785951471, -0.06428938479703405, -0.03156247260008401, -0.04316782249388963, 0.009209347505120147, 0.05211191229948861, 0.0019549030305211403, 0.040521162795861855, 0.00370879825032367, 0.03651761261900185, 0.03480414279005911, 0.016026844813622144, 0.00417985815524261, -0.020758372977644424, 0.024437491909376597, 0.03670075475164771, -0.04577199519673748, 0.01266348536137232, -0.018042329098329184, 0.012225816376739838, 0.02281689410019555, -0.03656097373758348, -0.017361698009743284, 0.04013281389462458, 0.002197969349450634, 0.0056233708854450705, 0.025571153355122733, -0.014301096852835612, -0.023420559674310844, -0.0572053306943152, -0.08565707278532707, 0.013205544997307861, -0.027706497183931457, 0.014197040578472375, 0.028264135872965952, 0.026016828526736067, -0.017630776705947517, 0.036960649444573675, -0.0005408791035480404, -0.007466778724748543, -0.017398661236535586, 0.01459226820178986, -0.003861779663614996, -0.020713185766029145, 0.017138576283325803, 0.023087741000861584, -0.09174808648487572, -0.01630145331701983, -0.02542313611102379, -0.020811838927748648, 0.06450815938107342, 0.005966714185009164, -0.0024919983434115423, 0.06235828821897233, -0.02281567232021439, -0.026207477518966394, 0.021838729325907188, -0.06436537916007079, -0.036478179091081635, -0.06786219002149572, 0.002405859619210729, 0.05356964698216385, -0.03715124184168873, -0.048356384994295634, -0.040874297358986664, -0.09438017796486063, 0.014125741470521059, 0.0038578893752689854, 0.0010297539678337528, 0.06703661920201118, 0.06554334115677479, -0.007377525228496448, -0.06511135997364922, -0.015953520188880438, 0.04610167361346235, 0.028945444270837846, -0.10081640589985595, 0.018111682169940035, 0.035823820535166494, 0.03606122927656169, 0.027203998751612266, 0.06536103347300377, -0.018934210514180445, -0.047982158440693326, -0.034017575565491634, 0.015039451291039445, -0.06282209604272632, -0.03509101878156344, 0.0390907776839347, -0.022866934271152193, -0.03726344921905706, 0.007616745262788849, -0.0013002098310752712, 0.02642963318706206, 0.012954388791037455, -0.007763117753380423, 0.022115983642920115, -0.02709055580526218, -0.037408703206811784, 0.015331974110368686, 0.020622440597933327, 0.028096927422137204, 0.03987933242764541, 0.02115948565460449, 0.016745105098595545, -0.0012942050846965487, 0.029689662533739926, -0.00797993786678251, 0.004128024940150652, -0.003165179289280237, 0.004800303523615762, -0.005758966326651132, -0.02300531886705922, -0.023758522635452698, -0.05116469678766066, -0.05056973851393015, 0.0031394806104171474, -0.04914825743895121, -0.02402031479549355, 0.009180364908852635, -0.02504133097922334, 0.01441664497419428, 0.05402725098315684, -0.038984447477795246, 0.02543422281460089, 0.0034233648992368754, -0.005178795750677498, 0.05997748479123078, 0.06847027680051718, -0.038606103248473925, -0.012612550554626662, 0.016728747497597635, -0.030732956865453184, 0.008246014843631614, 0.04074672290839457, -0.015978286909631583, 8.721159198391343e-05, 0.01301524364581242, 0.017352309256351707, -0.0077023371701785545, -0.03680441832973898, -0.03312869940220424, -0.0436132628579272, 0.06347121266209943, 0.046143970554174574, 0.011156748594203932, 0.01566508556022448, -0.000951588599353153, 0.007202032306319775, 0.024246668379012383, 0.023580355122008814, -0.02643757716758743, 0.025783711054450386, 0.019585164334190427, 0.0069333418261174305, 0.011903152169412306, -0.0055552213240645, 0.0454529617969878, 0.056912856333990645, 0.00997829345488925, -0.03645193956374869, 0.01334426000421396, -0.02703757228221596, 0.021770692103237923, 0.027955871558372473, 0.004341263134054055, -0.06720214006829789, -0.06003889330581541, 0.04724955820645396, 0.005675084263382739, -0.04879685302094061, 0.023876631561274335, -0.02302297838907831, -0.004638296613150387, -0.05092360962136115, -0.016944121734148835, 0.0017072525478164164, 0.027880499274423678, -0.02726271138635438, 0.008482541567873658, -0.002160676427231558, -0.006645113314938171, 0.08114470708979549, -0.026932500210389256, -0.05849763452995634, 0.0090255381245136, 0.03428835732798437, -0.05146263843930126, -0.009613227392278626, -0.0671244344188003, -0.0037513816188080684, -0.015522257323965593, 0.011511308486331367, 0.034653621123318754, 0.012070763974083867, 0.019868013079560695, 0.02321615963442436, -0.011914879341148227, 0.06567923803014447, -0.03222325896948189, -0.029455149584091754, -0.02616643487319643, 0.017265959415952034, -0.0267416777190488, 0.06821103428364603, -0.0016024553725237916, 0.008579265458270244, 0.023259104645218073, 0.022802953995967257, -0.008887973751318707, 0.025312761980638223, 0.03548585529201314, -0.005231586669545465, -0.027291085653932845, -0.006756318317310473, -0.05128704444653433, 0.00510495373592007, 0.0006496628663707558, -0.009294919123689535, 0.01651443273337329, 0.0006135167099877503, -0.0355102187172714, 0.07806846821423573, 0.02839914577768912, 0.019128560030301667, -0.02612502217320497, 0.016936920709532746, -0.009936142016867065, 0.054197389003538876, -0.05971885251769509, 0.021660450007115896, 0.006512022602552485, 0.008864821814658405, 0.0030461808687983847, -0.0072174917773826005, -0.00786211675218173, 0.03343215447451128, 0.10118780667776073, 0.021587404206696734, 0.027199839842124773, 0.0014315263758754961, 0.055898512222997944, 0.016750503755356812, -0.052763908631018576, 0.05445388209589364, -0.05507245556018398, -0.036571137830673034, -0.013101279478738412, 0.009439553649307174, -0.02431331429517103, -0.04117559120025027, -0.03408597364846345, -0.003929430642341184, -0.08132123938657046, -0.04643716160856349, 0.011433346575787724, 0.050900383732395256, -0.030009435994282945, 0.021613586586510268, 0.02160304874533525, 0.0031282769974965885, 0.0777316658267873, 0.050730619400048346, -0.02180142881740419, 0.00781467787652814, 0.03745158717294426, 0.002771464972982725, 0.003352687679504059, 0.04570155763262867, 0.04681211626240727, 0.009655865585457878, 0.0373619462778322, -0.00902955212408703, 0.005813713658514282, 0.0371217800854002, -0.0429230942143576, 0.0070804885271180664, 0.017094326780647384, 0.03704585261206684, 0.04345120291842617, -0.02642802763455446, 0.022655294172097978, 0.025902735853413152, 0.11327335131825411, 0.055554126371864535, -0.03633766552265185, 0.006119131537643558, 0.014824542094016952, 0.058035911785739205, 0.015624339273455839, -0.03666521884555271, 0.03501940133245705, -0.004261383032385501, -0.005376448787632094, 0.07207714703255624, 0.012081897726390286, -0.02329174530197235, 0.015906769081043652, -0.002150619691040588, -0.054248092681938066, -0.0028475072304312617, -0.045603112886416386, 0.037115852058992135, 0.061796401337865424, -0.008801802460123053, 0.03817602413816285, 0.05102422999461371, -0.04706085418011157, 0.014056689163019928, -0.008562601705303761, -0.011162928130230813, 0.11536503570939276, -0.030121643963600717, 0.004365717942863483, 0.046737623511612224, -0.019934777231354617, -0.018326819739424634, 0.022579630840528227, -0.0036759810805844224, -0.004523854184902844, -0.04417808063849375, -0.026718742501114476, 0.0548490915995534, 0.050279389355929835, -0.021246262576746805, -0.04770904171791673, -0.06082409335368395, 0.015256546905518866, -0.006280177178788569, -0.023510338201025088, 0.00497348490291436, 0.020221065325554056, -0.009436562244052678, -0.0007817154185385006, 0.007524752208616619, 0.03782672125328732, 0.0014809300476548728, 0.0657718212276809, 0.01147574889471957, 0.03166042632498229, 0.014711521994264136, 0.04216024895917936, 0.0006281518319294189, 0.01954607199455049, 0.002287021869555455, 0.013574038759514715, 0.030183921041968605, 0.010597431275450264, 0.026649507679393634, -0.013360413034827157, 0.02679930769478482, -0.005356967080290073, -0.05299510981706718, -0.004719228878248835, 0.019354491442819543, -0.022253304722590437, 0.04742676041266477, 0.010052554274009683, 0.012393325769843555, 0.035337998980160434, 0.062367170093271675, -0.021713010691319368, 0.03976017229890692, -0.032963222085247865, 0.06611896848707362, 0.001722260200282158, 0.009201291128039708, -0.022946436456186763, -0.004001844189188659, -0.021052606303067857, 0.005680118999512401, -0.003954476893716701, 0.026320875225930646, -0.004892368797643347, 0.01079792001492799, -0.0002935685555626356, 0.015110732242980568, 0.011889991241013392, -0.05934187535403888, -0.02341970246231477, 0.02117857306513934, 0.016645396801682668, 0.049563865915370965, -0.04979285004301888, 0.01057782028630086, -0.03432672900957042, -0.016154386692298937, 0.005032027654215985, -0.02806581809484779, 0.00890516829923728, -0.040462300940050905, -0.004582528537429144, -0.004967485142966236, -0.010651571865332936, 0.03948015014741298, -0.025501382641620204, -0.008772715677248431, -0.062181479481369685, -0.07001641614196977, -0.04223612627096429, 0.011251418366927972, 0.0006569688202387379, 0.06784003334501658, 0.007740092081054603, -0.046147159998427716, -0.052997769982729405, 0.008652697174848924, 0.06385334428597654, -0.057768610807120965, 0.022609404302728627, -0.017895955963257208, -0.024238729476472952, -0.02500088150880802, -0.0075446763030387375, 0.007913520659565371, -0.035287495223302844, -0.02747209938311702, -0.031680169019562505, -0.015610765216087546, 0.001374145680617392, 0.06821281041829154, 0.04796487898727814, 0.025579327863165205, -0.016774316929331, -0.04705353413581348, -0.004641135196972592, -0.02305681129876162, 0.017403316977825583, -0.031253256663726116, 0.03253534739020481, -0.06576310200734783, 0.04572109589974232, 0.0775113125710691, 0.048609201576788955, 0.0002015087373019257, -0.05432574591348288, -0.007453667115350266, -0.015759048474851312, 0.05330205923798667, -0.021779768390608734, -0.1110034542559152], [-0.03833438963887242, -0.012214510787504353, -0.03377647484500379, -0.019646524109933554, -0.06127123224044871, 0.03978537843521079, 0.07592504794815988, 0.014369087048202053, 0.0033407070450049117, 0.06335013526534249, -0.04672398615998381, -0.009949953147048664, 0.06960170169645126, 0.04929955457600562, -0.012214041293691667, 0.0665026929080069, 0.013691684600239614, -0.051207603672924845, -0.003283105586954436, -0.021876604857113558, -0.03470428210078208, -0.05512689642265998, 0.049040967556882725, 0.05831898102559277, 0.01610943793960394, 0.0050297281040748675, -0.03222930611577561, -0.03310467378015385, -0.010685901261822065, 0.022093381617748303, -0.029174126503220304, -0.025394510779585794, -0.02538812677328123, -0.047786372619686504, 0.04646955391061274, -0.0470053641259099, 0.018146472623441587, 0.02440611096733053, 0.10151987670887933, -0.007297026044210839, -0.012759262952117522, -0.04161342232758324, -0.006652395606953207, 0.018171779139767037, -0.034176206699002905, 0.015120495777285867, -0.019250793137925448, 0.04120979544686393, 0.01265393150733506, 0.011587826893692038, -0.02407724687646465, 0.046749130012342044, 0.007408774157734033, 0.023226761613000413, 0.06362794618216279, 0.0007259024186022711, -0.007846723215038195, 0.04210710672060948, -0.02291138479317136, 0.054019297677548546, -0.041238025111225284, -0.01183735665138415, -0.031440268568268176, 0.03382935874538185, 0.001425791757344836, -0.027402257373576926, 0.025056768407401973, -0.015529384925827646, -0.013965408644032541, -0.06431913042333968, -0.05708476175547905, -0.0008916394508733999, 0.05979328504450291, 0.010186894015378724, -0.030175426287967294, 0.0192501695708808, -0.00860382098911939, 0.051660967977701255, -0.017544176061008013, 0.01784545769604855, -0.0536844252530134, 0.04259303352705514, 0.00536672757645094, -0.06268641708059906, -0.014092879065847958, 0.022922484556588654, -0.0947847348609403, 0.041467413067191816, 0.03247617034452543, -0.03150909502137276, 0.019237245473292957, 0.008826234731421505, -0.0002543515674964033, 0.04169557063756785, -0.04211051059290533, -0.0432001348099571, 0.07941620648119739, 0.01753565272518725, 0.03715827795959569, 0.012934527152177338, 0.009110578167247202, 0.02014698624315058, 0.02051344343840436, -0.002040362835673021, 0.056130430419896585, 0.020204180600576493, -0.0004875714478306657, -0.017586789986502663, 0.06193408311221554, -0.011493511797688476, -0.01740377003366675, -0.05335087740622719, 0.03795273424696054, -0.0003219789311575727, 0.04276772498942996, 0.03899503964501988, -0.025064515226297247, -0.05015949634663669, -0.010797506469408504, 0.0070271164339584654, -0.03656597049452736, 0.03671042983248033, 0.06787557825776011, 0.045780304751529714, -0.02130758681671396, -0.04253367492307426, 0.0226888398948395, -0.007180739040321266, 0.04039564173358536, -0.06932682240744827, 0.007427641435575152, -0.05656969015461738, -0.01105644305361857, 0.003540977511369311, -0.035802136617319354, 0.04781783913622375, 0.018400546053022805, -0.007205908099458592, -0.004618619980403371, -0.036021218701570545, -0.04051029195332208, -0.030378689032775383, -0.006182040740228433, 0.043223286658554266, 0.01936559653138909, -0.010284854459291577, -0.01176498028440057, 0.02252266800573503, 0.006703801103882411, 0.01640741472430839, 0.02075016536924392, 0.03265059223365605, 0.05855020887369897, -0.01340832934714286, 0.04977301175777056, 0.006308903340713809, 0.05421115934843793, 0.04101318137354463, -0.03455195961116987, -0.016761428881870072, 0.032148244751238, 0.016526271357609264, 0.016790033950771985, 0.03188014819178113, -0.04097525080999534, 0.011672968134248505, -0.006162212775866656, 0.009656596404079124, 0.05216426531653755, -0.05006664421330533, -0.04806173303506642, 0.012376034853063735, -0.06953088180377513, -0.013891996380738458, -0.020833837856915106, 0.0024029572254538304, 0.009004466999292153, 0.050560686960587395, 0.0036635565724129834, 0.05330239099499193, 0.05004833677099073, 0.03992845060746985, -0.0017682235916524857, -0.03436632053504599, -0.026106380626752895, -0.01695195788189507, 0.052396581263921306, 0.06113012877260747, 0.0422749917256161, 0.053562453232285874, -0.029180239114394647, 0.0993837009137302, 0.009712501212812585, 0.05535141427566024, -0.011387519049536395, -0.03812850935664396, 0.06306944048588514, -0.018553657449051155, 0.008405035850688882, -0.0024375715374553657, 0.01594549778529058, 0.04256547299981187, -0.01580504199104742, -0.04080749082327976, 0.009904115320427518, -0.02125308877814088, 0.06465273789702775, -8.517801808255855e-05, 0.07660341081153386, 0.06291138197118314, 0.0224901300218259, -0.029577051315983576, -0.03520287232823893, 0.10888676376153136, 0.0588925113062234, 0.04763817576500711, 0.061274343848550406, 0.04448315336234934, 0.028200242383370756, -0.07253971274126927, -0.03672916858322143, -0.009842052828301142, -0.0035304118892816616, -0.08078860886521604, 0.0035639504649091188, 0.01068731064515595, 0.03432768494553813, 0.05669159966232982, -0.015732323085445858, 0.02406921545861778, 0.009877577995687836, 0.04368350106400147, 0.022656914085774936, -0.02902400490259881, -0.01578250622715297, 0.001275863609539703, 0.008858885034058846, -0.06516684867413143, 0.05139351826546359, 0.06518489327867777, 0.012602503643610893, 0.0024787416870687825, 0.032352986357358164, 0.06465235941346271, 0.07514564730480178, 0.0838579571654681, 0.001609202418515719, -0.004414348369597904, 0.012149639191265903, 0.016867241611331057, 0.02330115111911215, 0.0007079485352109753, 0.0013493836676375538, -0.034369726143853176, 0.07893686184249524, -0.010922147052112561, 0.007501246832893234, -0.0410985412214316, 0.0603706894433579, -0.013544929381688118, 0.025162048604427688, 0.03074969346051563, 0.05074314714591289, -0.0031504406442417563, 0.0018559038440784954, 0.0077997098933885916, 0.008651715985746463, -0.004231816160122559, 0.010368319015302652, 0.04694398621264828, 0.07489401437769, 0.05128766983487902, 0.08154981631374296, 0.03558697112651446, 0.04374647393490717, 0.01459387519672696, -0.007196351160945644, -0.0735015725037166, 0.012261179197380939, 0.010670818909625892, -0.065199526150294, 0.016443785831723814, -0.016199123696738465, -0.039753711957337734, -0.038748468378770905, 0.055359093666741674, -0.01048151197622828, 0.10144339783254266, -0.03233669540574777, 0.0067399038600156665, 0.03227939034021777, -0.07628393998089394, 0.0015710795527729545, -0.022838358313559272, -0.03676697327768467, -0.01273094517295425, 0.024858650182763283, 0.020785973620098545, 0.01456990532883703, 0.06099861029427964, 0.08963950862094704, -0.0472284624208983, 0.04394214827273484, -0.03593014266489522, -0.025225251760660372, 0.04410359083420054, -0.001294541032739992, 0.056456929379519606, -0.06153605660273713, -0.009511590674718634, 0.00734034140250594, -0.02107173166733643, 0.007304844408177084, 0.02745344861800493, 0.055843663265180525, 0.01636944384299658, -0.034451018591079394, -0.036743404485944486, -0.009586962027052365, -0.027161813940743098, 0.05709682628288165, 0.053786062642112366, -0.09298056722289767, -0.009299286369240763, 0.027983614571258628, -0.0077855928493386975, -0.031175319288771954, -0.0027215525618971273, 0.0443203028894653, 0.0362686135076901, 0.05533871281412622, -0.00810726923877399, 0.09926642986717588, -0.009757039360142675, 0.00260834547088861, 0.04145929517761966, 0.04828519985648783, 0.03400336656145858, 0.038560707009583646, -0.023155151625416114, 0.023880502170851664, -0.02380161800866937, 0.010206650448315608, -0.05370049487739651, 0.03253737411056526, -0.03911524865561076, 0.04568361238989399, -0.011374246774420187, 0.02095105610549269, -0.017465205192382177, -0.12479510764335715, -0.09769680656216471, -0.01680069902741915, 0.051437390076965, 0.027738203310358228, -0.02235246580569701, 0.07958238127747812, -0.004868555529970556, -0.03940626448994731, 0.05341291076533958, 0.017502699184026575, -0.03662119111509239, -0.05268410036137748, 0.002735371669670253, 0.009519852009522498, 0.04031974342027181, 0.055799273867601744, 0.018567992081486445, 0.04368185585781128, 0.06136048214543928, 0.005718961744103477, 0.024264767095017837, -0.02089117141395452, -0.006225581727000099, 0.0263567712537557, -0.02247108736721642, -0.028820925831035356, -0.025313657186525094, -0.10666698131630593, -0.05900769785830448, -0.0014187584885936868, 0.001352845457897038, 0.028200752618250283, -0.001778398406543342, -0.007011361648908583, -0.018007728105816054, 0.009980701505656222, 0.040474783780095606, -0.010855344243433195, 0.04513313103867487, -0.0028587124686442625, -0.03118418427863357, -0.04746955606833291, -0.08972426805303518, 0.06711660953416589, 0.011928477355725449, -0.001370633078034133, 0.02551345535027533, 0.05283141531470624, 0.02442108428604938, 0.04590108421878972, 0.033331773329425746, -0.02157414482769677, 0.01591460961193609, -0.05789209321317666, -0.10150589311070563, -0.06611039308868304, -0.06338651359951235, -0.07093848703155015, 0.011907186078090453, -0.007083941002298785, 0.01699114688345372, 0.028796064807059533, 0.025301673422759706, -0.029412818239917437, 0.04463932154197032, 0.0008479120244436704, 0.008204180354980922, 0.02219100755826366, -0.04732464335174106, 0.05042158978335439, 0.015291886395001335, 0.016150752847805486, -0.00529996969179063, 0.04677420853233536, 0.033601386093639996, 0.030057476273215655, 0.03801667125789859, -0.01867051622791573, 0.01237331300929761, -0.018126922967864216, -0.014310240187074266, -0.04401523834708649, -0.15373769234120457, -0.1301427586873206, -0.10267069364269471, -0.0208182455777339, 0.035759612735733734, -0.015402056808881282, 0.009566812307596482, 0.047140931056900114, 0.006245130283158006, 0.042513886467784735, 0.004658027835899707, 0.03303341019659817, -0.0020434893347018195, 0.045390264148827346, 0.021370834036468583, 0.030585220595278448, 0.0056861331764077785, 0.006072985104727619, -0.021639763852765163, 0.040725406278780345, -0.0239970682855757, 0.009034421025346268, 0.01564981737458888, -0.012991174029905739, -0.027141472186815483, -0.041426231863642124, -0.03838113903389515, -0.08843916143654837, -0.14154136870671175, -0.15006667327382434, -0.05810203336142351, 0.05848412383842161, 0.05607348820414947, 0.07435818927663412, 0.07414775954810134, 0.06040522784066159, 0.007676761608220078, 0.038747741499937295, -0.01715484338290703, -0.07197006166461002, 0.006968370759108221, -0.02698399728834491, 0.006053835602147676, -0.0017252408579284423, 0.008522791842429718, -0.005053622891619398, -0.018045222413060374, 0.023568284509900853, 0.038310455352135724, 0.10420146739082178, 0.011901735828307378, 0.07131402990474058, -0.05924042286622755, -0.022509298859273958, -0.03996343932585782, -0.1388716958280817, -0.1662736202007307, -0.0962094672567019, -0.050323380697669416, -0.02534784656288039, 0.06923477566990885, 0.08417029371422306, -0.040207216936200774, 0.09774095770782375, 0.098301944113509, -0.03572799019853817, 0.020294825424811907, 0.004945562600896384, -0.04799518421005577, -0.014643321529789638, -0.011641554689093525, -0.061609686791836676, 0.002138565209943478, 0.0073013381228439495, -0.038821364295393, -0.021990288052208196, 0.0341189517954623, 0.07580191511223494, -0.00488236610243071, -0.003213207551528469, 0.046605093746961375, -0.05067168498707836, -0.03701302262702151, -0.11365839604930496, -0.11171135182806777, -0.09542172982151084, -0.06679454101495437, 0.04240705252095327, 0.04606740194669931, 0.053600165696092265, 0.05208719659979331, 0.0949638381609044, 0.008518365342499369, 0.018506196572461393, 0.027978383143346518, 0.050370168197979424, 0.060522746144738106, -0.034485756671247605, -0.06964576832345756, 0.04472318891653305, 0.06283554232621304, 0.057658875645137, 0.0431631521279951, -0.007627670817072425, 0.04014434322565442, 0.07231205018894411, -0.05857413298718298, -0.03312378249953814, -0.06320060205346198, -0.0706998054927666, -0.08556969477749637, -0.09690070239533083, -0.028736973083463555, -0.05510312146125532, -0.05347376015419105, -0.019603792840300553, 0.05662510643464156, 0.06254797164658735, 0.014917585376973344, 0.02444951199785192, 0.09242984316550559, 0.002900964534698741, -0.037058000100304286, 0.009335607034332248, 0.02315546743442151, 0.03655260831347167, -0.0035250023200733443, -0.03810232276042875, -0.018430144548075712, 0.01918433736590534, -0.02086924012244815, 0.025031105047572985, 0.050034758202058875, 0.05694040448082803, 0.036521352896369846, 0.07139363487481568, -0.03446841240815548, -0.013573309450601362, -0.016505257736070002, -0.07060111892080133, 0.002708880534605034, -0.05131187939789089, -0.011248082645445407, 0.045273101393495996, 0.11052324520397733, 0.058635311359988423, 0.06003206377053705, 0.06934148657849407, 0.008902065322175393, 0.05815237439351791, -0.054249175452647944, -0.02656117007077285, 0.03770295615708066, -0.06988608405831684, 0.024912864763762445, 0.0038015965796336314, 0.03278933813321773, 0.012505158482210375, -0.012195240195751585, 0.013959804042958551, -0.028185370509485542, 0.07097096860327337, -0.03506892241196546, 0.08280070086841523, 0.027314982935340213, 0.04561488718902077, -0.021511415568995617, 0.012013392582212408, 0.05119229677055659, -0.057441962345577115, 0.020447449963807374, -0.011670479773529276, 0.057100023932188326, -0.01987982995036339, 0.06046489557948654, 0.01991476837453021, -0.022367009449774312, 0.007260849080942052, 0.060971672335166816, -0.04351360909046499, 0.01582300317873743, 0.03268644933131918, -0.001472413015955552, -0.0557508264506538, 0.023172648435880933, -0.052618092648890856, -0.03750068963336728, 0.008501329557753854, 0.0050777116129605065, -0.016469699960978513, 0.011537758838448781, 0.06930108123918326, 0.07666441567801377, 0.04003602968256257, 0.006400707639049006, 0.07165562143803757, 0.0440266258241596, 0.04468940197645432, -0.01504270089754637, 0.03921650626390209, 0.041085182627967266, 0.03530203423407983, 0.036620120800424656, 0.05874911876950588, 0.022312270643627216, -0.037597908812592465, -0.009165224253667718, 0.06116404921826036, 0.0009997809951870936, -0.007502429324425531, -0.01092897549508785, 0.01633518088113487, 0.04067114767387466, 0.07098433459793371, 0.041622694736064364, 0.07204899202577984, -0.01969124623480652, 0.011283553006854234, 0.04095575154544514, 0.05119584417505315, 0.07488082859608526, 0.01226665132194786, 0.037255670244237524, 0.06571003207681668, 0.02770435671333761, 0.04138344918005179, -0.0012599091036646479, -0.018586813178125862, -0.02713176555661413, 0.0007361748671563766, 0.037900207584913574, -0.016490325879348188, -0.02515274433680083, 0.0665205674309921, 0.05412635020315097, -0.018985654478078078, -0.0058290529498929685, -0.05704484319904249, 0.010039715862168518, 0.05245482226705711, -0.013755609378169859, -0.01118177169031484, -0.017237900945626355, -0.027198671450128623, 0.03538167926265806, 0.02853660703020283, 0.01817088343061883, 0.006179114849958856, 0.1596731817793102, 0.04196043206423836, 0.10985266416806866, -0.02592924384098359, 0.018553266607386456, 0.03166679590708517, 0.006255160300999546, -0.0056305807867311364, 0.012743216377639255, 0.06784949117986962, 0.0006137615828898792, -0.014547179979331961, -0.05807012496980126, -0.027863633471586532, 0.04369522170379378, -0.0006941575460210738, -0.021903904682368736, 0.03631522979773293, -0.045094057011704554, -0.040451646883653776, 0.004363305170776684, -0.024056295618883474, 0.04085666782218048, -0.027733161701789095, 0.004943268119083486, -0.018849432580367923, -0.03844119268917263, 0.0344589648681706, 0.029138791051120362, -0.015765263161965377, -0.024349965881330718, -0.038837631793550445, 0.03942090107100443, -0.03883091886134324, 0.003319120357419245, 0.017213603294173048, -0.04502533605544244, 0.03192164043440695, -0.01135918811661318, 0.020064410880893373, -0.018154462139086332, 0.018884521830741356, 0.02074541229210722, -0.046460636011570584, -0.002831154583255953, -0.009700820415447238, 0.05129840207429202, 0.0030446087164970534, -0.03459725212214043, -0.052407458333795794, 0.042011840867971786, 0.017383770274357578, -0.0003195920079187987, -0.01304225188276347, -0.04121766016626153, 0.022030527465710416, 0.036730365729772, 0.03371989428853099, -0.032846008489373926, -0.07303846589326478, -0.01603432886636709, -0.006559406243403523, -0.02146332809325837, 0.020026477053604663, -0.041918205973162426, -0.040207526497130434, 0.032259005629322504, -0.023617384326529794, 0.005661873215650226, -0.014597562594241208, 0.005803238143458901, 0.04332829714810476, -0.040595541625359784, 0.011900628447143123, 0.0147353578455963, -0.017322285510042796, -0.034580724471598816, -0.03715930971434758, -0.039555174103090465, -0.05355089888122351, 0.00978883684155634, 0.00464785762856514, -0.027764408995209437, 0.019583411543069154, -0.013998112439777834, 0.004771017973124592, -0.051742950143934714, -0.0306633665490364, -0.03821566220485751, 0.04563347149663827, -0.000867197519584058, -0.058619558598540386, -0.034920624744201975, -0.004236253368342141, -0.07753546905288289, -0.020374873581540623, 0.05681202823927077, -0.0079292732834012, -0.04300042085932441, -0.009115989721110144, 0.07729593736833375, 0.01877654485343329, -0.009180525370723957], [-0.039599579330178686, -0.059398038666231126, -0.035969895980003, -0.021449370614492782, 0.037431437691883965, -0.005517121207098958, 0.013330950871786932, -0.029119949923086696, 0.03380796106894178, 0.011827491117960968, -0.027086833621447506, 0.028399652983458954, 0.01600583659732621, -0.021334846497846865, 0.0495061909472734, 0.01859485734719687, -0.007536395158738043, 0.026253779851467384, 0.014697629923739006, -0.01857349767726312, 0.05782233957765461, 0.043815924426419565, -0.01594503517130092, 0.02198704056827726, -0.011766418552298034, -0.03362011172487333, 0.0036419088546906994, -0.033557176129378606, 0.059828992193619514, -0.006745816045924853, -0.013802002566343785, -0.05980192179783481, 0.004750857984017865, 0.007847166698896716, -0.03232127700786014, -0.02617635820086981, 0.05800056585774546, -0.02773035829363751, -0.020128852212458817, -0.0032115123266517652, 0.016889716824728337, 0.00689739341446893, -0.0012365562022847872, -0.029845656497911786, -0.07414625394060506, 0.061822400163865955, -0.015505197525303105, 0.010790194895366987, 0.05928283372250876, 0.012670905249872487, 0.030908532481436546, 0.02411089915715214, 0.040931080297245084, 0.02841325167316964, -0.036192829629698504, -0.004767241209032394, -0.03162940704397592, 0.05939390139584182, 0.02278369521911695, -0.033094325625394855, -0.056180789921661096, -0.009708410878602369, 0.03630431255754864, -0.030033721378250354, 0.02112098281601715, -0.042600030775654954, 0.02921720763007776, -0.010976229418346334, 0.01613330510156585, 0.010994497321833812, -0.020359811793984006, 0.01146465707033988, -0.017699500696093284, 0.016409855595512585, -0.011033020697270529, -0.03498614206608429, -0.052306394403352156, -0.03752899801255574, 0.02906161309547161, 0.0019304172854874312, 0.008823396518343149, -0.05639380838090403, -0.017749064984562746, -0.06145652834535461, 0.014181539720282719, 0.019684958326879127, 0.0843781679688178, -0.047793050239181865, 0.06492995218680833, 0.02576624347754651, -0.013408393898699284, 0.05629102308858631, 0.009337319589405823, 0.042378695158682256, 0.03156814739669498, -0.025842167955636465, -0.04612230137311693, -0.042431524400470745, 0.026819523092628746, 0.01902395720384271, 0.021729428135022648, 0.06580132271450509, 0.0030665905266015394, 0.011707617997511832, 0.037773443049448276, -0.012687313365632205, 0.003903976009459553, 0.0003019219225633605, 0.02667254269049525, 0.015094961740197433, -0.014148759309522864, 0.0020927736400731434, -0.023351880897512563, -0.014466370065113318, -0.0683472624777291, -0.027544351952166736, 0.01949454205992925, -0.04584439818124777, 0.0020098797366670707, -0.008917041477650366, -0.024502338105060903, -0.007905138397300905, -0.028751093045484878, 0.04224257977601539, -0.05057545195579275, 0.0435292654804303, -0.004981324082106849, 0.04975309134995716, -0.08238949081800229, -0.09351160223179474, -0.011380992169021107, -0.03643717476730781, 0.027423612229267452, -0.05085546580834514, 0.019313113421877044, -0.012716702562609058, 0.011496097873183809, -0.019327332068648426, 0.011631979207072934, -0.08377863293319333, -0.032790681340136414, 0.01616307941957437, -0.021812677858715022, 0.023695869817843492, -0.011312062524432613, 0.0314090650053678, -0.011474250832368471, 0.013820620703724255, 0.04382995189840201, 0.01972106723944948, 0.045133424351904566, 0.08233916145663694, -0.026524653738755254, -0.03247232188670817, -0.011275834797984503, -0.017922273370790578, 0.015507222433595409, -0.036067027029183206, 0.034642574158559834, 0.020754911978581085, 0.021848869959742202, 0.0027004841110880133, 0.0422829405119115, 0.02411366268206766, -0.022045641693254577, 0.04889401351763365, -0.01264215116116823, -0.015061963787356381, -0.01424070869944824, 0.013985988841329238, -0.024572515779059122, 0.03072451462042877, 0.013576745624192456, 0.07953449667934803, -0.0032656497815685974, -0.011407971928667096, 0.050925697819276666, 0.06434810233873386, 0.03111043472508487, -0.00013698771839869067, 0.055391663419605816, 0.05501101516597344, -0.010835251671817573, -0.00890534404676936, 0.10225193547581457, 0.06567707313031525, 0.04652363188253137, 0.055531265138755906, 0.0017224805508771867, 0.05355723343099922, 0.09601798959192473, 0.03785292448005893, 0.017801179630354408, -0.0128493678651424, -0.023621884475789102, -0.018539845727322982, -0.04993551312548886, 0.02761900761657264, 0.05650822793684333, -0.01112658911053319, 0.04696452784451336, 0.017206958692119884, 0.015716212377249628, 0.06042520283423447, 0.049031609619774805, 0.0462328583455059, 0.07493642507390287, 0.060867311668356745, 0.04337621209558601, 0.022985130474128743, 0.02608079154295036, 0.07393202659556629, -0.017127659471323935, 0.03995733664671528, 0.09077585560702962, 0.07194062588111944, 0.0816583241545364, 0.039012028591403985, 0.01910025812804196, -0.011363262300775119, -0.014200379311068144, -0.012223264247067192, 0.0018450054391891907, -0.04256829412646104, -0.08149850248452811, -0.02895813392080955, -0.0327305692249694, -0.005816093131760502, -0.043570459492260495, -0.0018973340617594744, 0.024511510536081554, 0.03912050712203009, 0.03413306773080725, -0.029359211923643862, 0.05231792604471592, -0.021222803111479595, 0.04407260686365927, -0.0017451813605608567, -0.0016025075657427278, 0.021754535460337048, 0.01878631304867871, 0.017736599993605547, 0.021873230975280867, -0.00020647784750090525, 0.06213905791889597, 0.014860969637807218, 0.005945940532944002, 0.006579941859824701, 0.035129027942881814, 0.02521121950721219, 0.03509516566862214, -0.0349385686390726, 0.01842469291058761, -0.0715016844599152, -0.03348684534063838, -0.02060695105442745, 0.06213009024784638, 0.05998966817592493, 0.05813626593122499, -0.014123910027572063, -0.04092661625425945, 0.0017938677734672176, 0.04474823949401654, 0.06426323722283171, 0.023606988189338225, -0.0447372737358281, -0.0030034969454098277, -0.026876937099897764, 0.0065980313583596665, -0.0005032297192228794, 0.046079358965591004, 0.0939191418024525, 0.023082738207583234, 0.04520572515669647, -0.011733668116395642, 0.011789790154982369, 0.0538011148577303, 0.044647099211646134, -0.003310856848293167, 0.02786847785341795, -0.0018698669971996627, -0.0021656826768048495, -0.016091705850639352, 0.00920505884736442, 0.02492210967746664, -0.04423595950628367, 0.09328310122468995, 0.05572079503970874, 0.02646475235204802, 0.037311591020627866, 0.0678121227523508, 0.010415237428744827, 0.003070036488663106, 0.007854541524888809, -0.015043858644461524, -0.056794249813412225, -0.022249679724172352, -0.0006060614366245416, 0.01574269451000077, 0.06379177318878546, 0.051942968827725096, 0.023439049891749483, -0.022749885721630492, 0.021689518287121, -0.014295603184997811, -0.027420932114112482, -0.05707307185317536, -0.019903046177284126, 0.010598637417850271, -0.022607015915599066, 0.005290798312586995, -0.0014795129473619713, -0.027618718548157298, 0.03621944379071973, 0.021186700002425094, -0.008136083870388123, 0.03887531789741122, 0.0331653709168696, 0.03566338735045155, 0.06295676383393677, 0.032889040124004065, 0.03645162309382067, -0.015756619634763304, -0.05669673748190108, -0.05919458395288315, 0.000631614835279054, -0.03893666112913832, -0.030493728102197314, 0.035578715192947745, 0.06334322956882721, 0.045344764479052266, 0.017806930452277332, -0.015415009135083153, -0.019352544716042617, 0.016635910042785727, 0.021582456378358664, 0.023755553997275455, -0.006499123843412648, -0.050941415144599225, 0.004428518205984168, -0.011489596478011985, 0.027251924402968093, 0.02712663067335302, -0.03924741431365097, 0.043194703637629846, 0.045627160877651805, 0.014911600132563036, 0.04660604112362455, -0.013815487518796958, -0.05177590639768801, -0.052075690542442904, -0.03499394045542954, -0.04129918530112161, -0.0050089629004558215, -0.0675585773680392, -0.030000946553257652, 0.045620908212492595, 0.008614607866393464, 0.004017757194062214, 0.03689549591009395, -0.009685281868104656, -0.001247521786470311, -0.028740446610534907, 0.050109936996719597, -0.04726140757717237, -0.0014633742874714721, -0.021140107541015, 0.010949711358911339, 0.042504772648813506, -0.009200690896971673, -0.03135997508741349, -0.003794796312230908, -0.02192424612544796, 0.08942230978751642, 0.05383323179111825, 0.046381656372176026, 0.04819214348796997, 0.00604700665937128, -0.1444642126247259, -0.07773582203705072, -0.03432146055393276, 0.0005586795851496929, -0.04937448038317335, -0.0073500159186695195, -0.056028041587715426, 0.03260767357292023, 0.07662599424161803, -0.021799689675422014, -0.005381242077804955, 0.017408251088965817, 0.005891649101822969, 0.03981625426539557, -0.005090888767245512, -0.0033057255537798087, 0.02313746491321306, -0.005960357313427251, 0.00793780130271593, 0.010335736555767073, 0.03628609280190267, -0.004966733362767256, -0.014822365699112924, -0.022139649552430894, 0.0739703207636491, 0.00929112818859246, -0.061182395889874286, -0.026377726392919652, -0.062396691170381796, -0.1069361038257253, -0.03050723862708216, -0.018047692064911802, -0.03136347644341135, 0.0009194486055565264, 0.036757232695095114, 0.029481496695857635, -0.018784142421977353, 0.01865659020300209, 0.049283818019401786, 0.03282580774760977, 0.04383128237675714, -0.011974640140847715, -0.06659038526981488, -0.0214492189055451, -0.023191392267951028, -0.03209105485843597, 0.03355294705229, 0.023197108323684674, 0.03426297953712131, 0.05177243349339932, -0.026479548032137146, -0.006915668259688824, -0.09854320181123016, -0.005402672410143815, -0.008494967215486267, -0.12476090755025845, -0.11048780194770758, -0.06863793485758425, -0.044106113512116324, -0.0008588260800247866, 0.09430420916553249, 0.015704132845188738, 0.003053679959346968, -0.030788215667836297, 0.027750296532171342, -0.00013048870652940389, 0.016085963656199825, -0.014307397527933512, -0.03546900039469692, 0.004578099554691687, -0.015002261231657231, -0.007156083534455754, -0.03988598778674123, -0.04207588863032685, 0.04191070180423355, 0.009237043872987735, -0.013663208571625788, 0.01413436118605775, -0.1104881094197043, 0.014687011411914303, 0.0007652257728141779, -0.02701165625227077, -0.06551347222447057, -0.14544415744433467, -0.14924065164964714, -0.1483137596556065, -0.044640474700347064, -0.020637655998441782, 0.023531957393040873, -0.012457883187610558, 0.012381123806414625, 0.019301495797396564, 0.034586215987910805, 0.014427242924714008, 0.017708221278784693, 0.06133192821427739, 0.002801545985867334, -0.0230049975670837, -0.015276518028607883, -0.05967806372603428, 0.032810698224809295, 0.0036121356048378498, 0.019929278319579267, -0.009342954643503987, 0.024244453164660156, 0.025890909615830227, -0.0027790497950859494, -0.03559384328701166, 0.025375036389827705, -0.044820299433562076, -0.07969360190416201, -0.1231082134611704, -0.04261416486632156, -0.12981798746538523, 0.0161493744662232, -0.012030811160732095, 0.025584549269276734, 0.06655390113712173, 0.0353763486391653, 0.02454996627302621, -0.008101883846922923, 0.022124887724379698, 0.004715178404925794, 0.005378962715809699, 0.09561246155705623, 0.05395632483962162, -0.027663178720727797, 0.028080825598832897, -0.07111437572089599, -0.011689304411481746, 0.04735354181235697, -0.013627370966010946, 0.1131747136808209, 0.04279842017784319, 0.0606066088993369, 0.03429726833975101, -0.006211092901378153, -0.09595755341203513, -0.15082002359196944, -0.0775161743774434, -0.06620353929639652, -0.09896218202803729, -0.00480571241232033, 0.02855477134375521, 0.03371325745644711, 0.01407292798387942, 0.07739336610188746, -0.04907032058364204, 0.000885263841668652, -0.02348193403589997, 0.016162694699873904, -0.012145364043214221, 0.02032297487672066, 0.03619056261024645, -0.004996778616675465, -0.04379472228096472, -0.06103626544463118, 0.025995661696231458, 0.01968308386082545, 0.0001943629340242565, 0.06863332056087486, 0.04547713513854809, 0.06646765008168568, 0.02818166230274378, -0.021602297115959464, -0.042177411808098704, -0.07715082225708365, -0.06813835655612374, -0.1118869967787807, 0.006881561609754979, -0.06574693774520511, 0.07452548380479544, 0.014029119486722, 0.027758019960408636, 0.02694848869153332, 0.030714069093883172, -0.02062055545445206, 0.014824692719535813, 0.010632944088826445, -0.07615243955195301, -0.0332903975428843, 0.029375585320909663, 0.025927548411036585, 0.020390733377079223, -0.029537756924923757, -0.02629363546360044, 0.03119392203609031, 0.0014582479445541623, 0.12741285432991517, 0.06473741574374964, 0.07122782791503122, 0.04385001305342748, -0.018294638409978796, 0.023769940670547846, -0.0490941130579894, -0.0403519822262453, -0.06463258995816973, -0.06332357760468062, 0.0644180920999891, -0.025232669677815685, 0.054001131996793336, 0.05507202987483443, 0.07956198029191623, 0.04722441386010836, -0.06541468136553835, -0.04535121436827048, 0.05782475487904215, 0.08339875091536497, -0.021106554057098922, -0.03836780948673206, -0.008090375763716356, 0.006242224158907373, 0.00595506703094096, 0.008375546196871234, 0.05615990767572283, -0.028032941087355552, 0.009769195173299515, 0.1095297154282923, 0.005067101971003212, 0.04883648001277038, -0.04600884082339428, 0.007914274980946706, 0.03915885085526743, -0.03261380773724055, 0.04648259690732873, -0.015550605290559667, 0.06119504698953546, 0.04510581321902894, 0.060036225170039884, 0.044337588861372415, -0.009898122834427524, -0.010513446978519605, -0.020588955450885706, -0.016002291920459173, -0.01289314347748399, -0.0028736721487118986, -0.003009912484931603, 0.011940985216514821, 0.008484654710419412, -0.046429150527582064, 0.0008719189178813383, -0.007334577873059025, 0.04132627972894478, -0.02209037357321664, -0.018825239741303366, 0.012137769630233513, 0.03361507805898499, 0.0011132015591403723, 0.043023753116523206, 0.06409846498374204, 0.08002211441000576, 0.06442520639339537, 0.0970565435937859, -0.0015681831607541254, 0.04846099572965361, -0.0033751632885789373, 0.0023306141860514515, -0.02587959849491758, -0.012727882769592639, 0.038806903007010264, 0.02530383440453534, -0.0774175317612975, 0.023348734776049738, 0.00958061266929696, -0.012440046651729951, 0.012810757186269622, 0.035362409202320845, -0.0025699653395098838, -0.04310343044546674, -0.014684022637044783, 0.020656201153380876, -0.01531407615667189, 0.014273123967918735, 0.06362660438175147, 0.0630577481205902, 0.0735469194037186, 0.04456470530748088, 0.07348894787155688, 0.07536957942971655, -0.0038547358344607845, 0.005420119074018385, 0.04487165934439189, -0.046712271040034864, -0.005181898167156487, 0.011372398866464776, -0.011256615244763193, -0.003155112893902234, -0.07946490269852517, -0.0318882292498398, -0.0022422008686278586, 0.04915353957073136, -0.04538349729870604, 0.03004016292286746, -0.011855735142437502, -0.04671404783432508, -0.035270034750173845, -0.027260859442936627, 0.028072843786260515, 0.037106406308441434, 0.006756537628044055, 0.025058100067149227, 0.02621633829421297, 0.004549320628461145, 0.04821723189421044, 0.006291635021179019, -0.018811929658766036, 0.05549791939266256, 0.05487225680333375, -0.03151571160567269, 0.03430313199964691, 0.007818229162962357, -0.023959570416550793, -0.03807437959061543, -0.023560656673228667, -0.07090584427798613, 0.0062036145835567364, 0.018369724280825304, -0.022990435109308344, 0.04459981097878912, -0.034028138389110237, -0.02955557950828717, 0.0002955027482952611, -0.012234703623583776, -0.008532482011563177, -0.030194420016913397, 0.05513531910171917, 0.043548785078085794, 0.017693647627358786, 0.028863455047075305, 0.01231024370509699, -0.006133285126332828, 0.021779051706819198, 0.038020136942546745, -0.02501168619036394, -0.022795617867651555, 0.024545388950169198, 0.03264603985705202, -0.036150678450858426, 0.06717423916046278, -0.007538379102439441, 0.02225485295593509, 0.006996017950357672, 0.062794328521792, 0.00043216299380035634, -0.009094900395292429, 0.001700006576861103, 0.03816301503115894, -0.003802649939081301, 0.006006629366717612, -0.005858510797965675, -0.016911283982089045, 0.0164460372748952, -0.010710944388898724, -0.012032033845541738, 0.023976076042700908, 0.00647777823542359, -0.013824162741196565, -0.026115136076703318, 0.03693453239170142, 0.0031820972446105268, 0.051971936175903975, 0.045006468097819795, 0.009098658066560222, -0.002847526206892806, 0.024621025532511318, 0.024119673434042175, -0.026668954767322967, 0.009007133742279488, 0.013484354489304701, -0.04306401454692459, 0.07082067007817719, -0.014369975873511461, 0.007329013107044783, -0.03351164096632599, -0.0010343394865303616, 0.03216075183832696, 0.009965244271116, 0.0005780264564823601, -0.005108935941823604, 0.005195204146855933, -0.0036297404715231827, -0.029652128063610592, -0.044908008203220946, -0.04740248582770801, 0.020579599718134497, 0.009844756739346686, 0.02496669056925275, 0.049549959841925284, 0.01629210784105424, 0.08316925709983726, -0.011042356963989561, 0.00020421505213430224, 0.048527883947266516, -0.007856926884545607, -0.0036353239408212705, -0.04084917294475768, 0.00871030494548115, -0.008543706183621047, 0.03783214407032437, 0.017301425977893647, -0.05765904260397092, -0.010054945059881542, -0.06031362896017786, -0.05872770404170486, 0.03203142682504637, 0.03991371834479255], [-0.0723560752022417, 0.008981236588827367, -0.03235291178586184, 0.014787183848253399, -0.04538119463990677, -0.008831065408235854, -0.018318256979082896, 0.08134946286552883, 0.012160103057869694, -0.03629600896733748, -0.045588911506801784, -0.07951246353892627, 0.012793773317807507, -0.03540995895229153, 0.0028739280376543913, -0.03147504814828708, -0.0010332532020817273, -0.016996008257442706, 0.036556428340454014, -0.04023679812675489, 0.016421856467194983, 0.04464883513516891, -0.04201104110959332, -0.05491549746924859, -0.029974429243527067, 0.040853599316669334, -0.023987345765699653, -0.04105409611224558, 0.016361464037408104, 0.0005506667355422351, 0.036233118818806254, 0.011146716165337167, -0.0032088392569671297, 0.010771820507274132, -0.0662854949153076, -0.061244157029577126, 0.007352334890633788, 0.014596359067267466, -0.018716959077260644, -0.029117794039446324, -0.0620316117777776, -0.02481791136099038, -0.07294722867286636, -0.027107168326772856, 0.03497262903623168, -0.02204316974920029, 0.05745825089056697, -0.04053928813085459, 0.033611390428560095, 0.02607816181805549, 0.014884877432176397, 0.011969510674941914, 0.005200750100877063, 0.0020643865541203625, -0.05773650299465767, 0.019315470698088377, -0.039437018880567505, 0.02630542133760842, 0.005722521532781963, 0.05174933737568624, 0.052101619849962824, -0.0022644562213114715, 0.010752497874235581, -0.026139250472479104, 0.003715213128612042, -0.024826228956140218, 0.01264333071795286, 0.09475613431781557, 0.06636140325535678, -0.0008499510246033276, 0.016681347319669818, 0.0022742032098603594, 0.017748899265414536, 0.0853944219636017, 0.07941141950424532, 0.021985898733880536, -0.05182749630266122, -0.019241886321819956, -0.01826660232381442, -0.01516087654977568, 0.04961943089269946, 0.00848049718542468, -0.017147032081891472, 0.0068040099077796784, -0.043432865372652014, -0.04875474863152458, 0.00016344743920342438, -0.000550843978225204, -0.018576586339506453, 0.0066786558963006755, 0.010946596281631318, 0.012262008221694478, 0.014782957771873077, 0.018784752397487323, -0.011111735469554764, 0.07380515718756632, -0.03892210837854919, -0.047200145185867085, 0.021865098261920762, 0.012155732931471278, 0.01596906350789459, -0.0015362644374835323, -0.024850285045673295, 0.04033293669222596, 0.02718739896814338, 0.052157008124584084, 0.0033738456589434878, -0.0002850633385443838, 0.02763610691350068, 0.030173236113481463, -0.01795358111680541, -0.09180319830100876, -0.08228690933109545, -0.04683766736866354, 0.04059980891539324, -0.055950368620601626, 0.004475990819321377, -0.04291907365322138, 0.038775436694161614, 0.009153743026084037, 0.028891887138072687, -0.03602114751463334, -0.016425484220915568, 0.02075371678156271, -0.052457229648086134, 0.05474422876745144, -0.01079495079896973, -0.05324039770311992, 0.033411571536337656, -0.0064550308437353885, 0.0757395634918999, -0.009200275683863685, -0.026434355072482662, -0.022253470460551514, 0.012129276033367126, 0.0018682037332167433, -0.004545917764294929, 0.030637691212283262, 0.03634195314585378, -0.05587015158281164, 0.04566857598372166, -0.00861737047456663, 0.023833289263326375, -0.02544408306642173, 0.03859515930403087, 0.009309096881337815, -0.07069255081647292, -0.0006732439051740094, -0.011771199250829015, 0.021332170834357594, -0.028788661442039898, 0.0033467428490130176, 0.031239539395651307, -0.007517205800799198, -0.09012520397870197, 0.029648467160628505, 0.030036703579801545, -0.013867679577328738, 0.019217581462302916, 0.028267238864292256, -0.013125200385608812, 0.012917323978127306, -0.016939476890176296, -0.046565736828201074, -0.009498101601335938, 0.031270646894392594, 0.011248327777662636, 0.016662419514142626, 0.006369932287628812, -0.02448159534721493, -0.027411650587050217, -0.03422766128788883, 0.04658566341288095, -0.002380627424695444, -0.07274916443251801, -0.064357599296534, 0.04126462034883817, -0.02107184375233135, -0.006582717197049961, -0.0229758439255259, -0.022231960350624226, -0.002039847063642236, -0.0871918408286044, 0.0385818656442619, -0.0358903225495155, -0.08260233920619461, -0.07650533014878337, -0.021064332559549703, 0.02464906506607872, -0.03608882456997705, -0.028019105270292215, 0.045578882611922604, 0.08010887841344314, -0.013924637351974247, 0.018711861304272107, -0.028067929968342124, -0.008053895417958935, -0.01003655017689159, 0.03640027569438655, 0.0340984463312289, -0.03543488750126745, -0.010428500903982682, -0.001328725172353559, 0.010934637875396776, -0.10420138989046683, -0.034944781125139796, -0.08002902079053785, -0.0630350310016047, -0.060093499251249086, 0.01222629790999578, -0.02760508604642134, -0.03346373438496454, 0.00785045886988408, 0.0012770187730093002, -0.04635120629273874, 0.0013920029330780448, 0.006969306171980676, -0.07882465655704061, -0.009724162038786047, -0.008745595129533918, 0.058460862293960573, 0.014090966168101767, 0.018376155824912376, 0.021579008831963075, -0.023313565731200685, 0.012560496768746097, 0.05561312326357795, -0.037965571218947614, -0.002351291775944258, -0.01092208904085985, -0.005725660549907222, -0.04266910155129103, 0.0005475346513377051, -0.04279796721936647, -0.06215946204767945, -0.09167036069525016, -0.02497986494900656, -0.040870572797275385, -0.012640405048171717, 0.014531164001472004, 0.03886077389528847, 0.010954519734591217, -0.029257804317478184, -0.054138009453242944, -0.015915792869315624, -0.060982272868762975, -0.013980997471425935, 0.013790781867959134, 0.037848674253040296, 0.026605021512672546, -0.028000531116980983, -0.05338895051660129, -0.004137017753080892, -0.05131715336895099, 0.05191765795415903, 0.008587202260425269, -0.00041254398116527747, 0.03766790072817519, 0.028417085551246637, 0.07523679751756475, -0.007725284361544719, -0.06949655871434898, -0.012765760381479696, -0.016836248031363514, -0.04073366360029372, -0.021859269371024226, -0.029938539174162403, -0.015176310960631231, 0.06014419959087775, -0.02186957653089393, -0.028821790913462153, -0.04102587963954318, -0.05679427030467326, -0.03207940570782981, -0.06844185292883134, 0.006946805543703985, -0.01199132905178033, -0.06029009041861404, 0.029364445089811807, -0.043496204173960405, 0.03599140131908914, 0.050742391619497805, -0.050052755380806155, 0.021936225434032425, -0.008207348763717004, 0.005399094277985912, -0.030288799808021325, 0.012717568893696558, -0.024166555133517727, 0.02048365975320512, -0.05288677178883235, 0.03377068764192858, 0.01666627791425956, -0.007566364782471647, 0.10461368784156565, -0.0013072688735025616, 0.05653403434866324, -0.012079255820486854, -0.0016688316533366775, -0.042382442744541296, -0.02091494695030904, -0.0452562001354669, -0.028573469013472953, -0.005743662709831862, 0.003930143600877609, 0.024038907163957894, 0.055179416353359136, -0.03238350552800194, 0.024133937315858462, -0.042153954661032, 0.04796111624508347, -0.07804860371951526, -0.0011098532356619297, 0.04896450506477837, 0.036014653325822654, -0.07396585531917371, -0.05222299026910432, -0.023868421675973483, -0.0928460308448522, 0.005283297264405138, -0.06074562393166914, -0.035359090422330056, -0.00956563184985663, -0.04853037802063588, 0.04122482702845956, 0.0031917350561752444, -0.013694067413085712, -0.01129389773333094, 0.006375131924117071, -0.08609545776903058, -0.06317027191734398, 0.002590472625602072, -0.007830809382741307, 0.023705879921264196, 0.012240099827097601, -0.030821056494086396, 0.015272370369053252, -0.013598209986338561, 0.003857228681800828, 0.061631719738040464, -0.04399135015050362, -0.06517957399695765, 0.021521605943539867, -0.042288998945472764, -0.004784065964667224, -0.03468983186241979, 0.020493871683759005, -0.007988056903385698, 0.002040389832892661, 0.005934361321768858, 0.044500777257355434, 0.04445722017514427, -0.012253110780401885, -0.019608053357437774, -0.037177981652730896, -0.007252808754835278, 0.006934071576160572, 0.04719602709293224, -0.023004920346825327, -0.009027525526547805, -0.05001876880730789, -0.034238956690683164, 0.0006134331920996683, -0.013894687999454801, -0.02431826408464667, 0.010554438271659599, 0.04854628101163277, -0.005755393436021765, -0.0206746642754635, -0.025693137415742594, -0.06827397963581765, -0.003034465868822297, -0.013637762939792736, -0.010900577498798057, -0.014158864794208458, 0.040439819440857915, -0.04184539347560316, 0.017028788620154656, 0.07303205297490953, -0.030753995941979185, -0.01714675962325333, -0.011996031150170831, -0.04418416754685076, -0.0036518454003780917, 0.004205782553563357, -0.02989282002418502, 0.01507945204698603, -0.010837534783466909, -0.05235249324597409, -0.022432747691672743, -0.022019834704286263, 0.024453853318911097, -0.04395290298686534, 0.03205127684142958, -0.01382414371519409, 0.04133784706669072, 0.003967268932314273, -0.03730496180747745, 0.017091097028293024, -0.021042712694052734, 0.01042706954737411, -0.06492355062313418, -0.009664063840619203, -0.06874103502721203, 0.00727373222151888, 0.00859418454909307, 0.00648354785105743, -0.004065806720292347, -0.012569883358403932, -0.012766982782300275, -0.011844433871504722, -0.05798464229593655, -0.03230232347848366, -0.0353779206268935, -0.017225919202836285, -0.023180935397073544, -0.016383717450994154, -0.04071261893077954, 0.06505053447075473, 0.014145439760510737, 0.057704856995477866, 0.0495212280897723, 0.003400184912982622, 0.01199441818370031, -0.0018101323422430589, 0.05999580184979438, 0.012834946491425232, -0.003861353204299763, -0.00531558641179576, 0.04690068590761467, 0.028187944978844092, -0.07223901957101414, 0.0421467737706415, 0.004941485749672473, 0.028171390808112217, -0.012340682799660408, 0.03350335077498761, -0.010902682626327905, -0.006902234802404607, 0.03688221052646825, -0.041803643048516095, -0.006423950736356748, 0.012804758193694062, -0.022313814990324907, -0.0014526742354773955, -0.021821181518649178, -0.026048126060883022, 0.04634634921709543, 0.010000278269436664, -0.027393706669704518, -0.014884764802162631, -0.05373822823645623, -0.012065147703912883, -0.011338962943936548, 0.051535306044992214, 0.07271671431636088, -0.019697913492755313, -0.028641584029130317, 0.02937201961334299, -0.006718319717037111, -0.033197572364701236, -0.026184159421273855, 0.021966866672194416, 0.015864158752090126, -0.03146685381222802, 0.009523599342222473, -0.026206517412821425, -0.06746713902097048, -0.02170971723335893, 0.013481931167822614, -0.036274691666912245, -0.019388540682581095, 0.049234695574732985, 0.04388298312352941, -0.03517239858823745, 0.02244861195351057, 0.04378107546962702, 0.05990978627537293, -0.003973821574200611, -0.0017526378588533665, -0.013402847038614663, -0.019895217103049177, 0.00604130715923759, 0.039019643522736853, 0.015054607700046624, -0.07544309467876653, 0.00888026916668227, 0.023087275451608266, -0.016368424651934724, 0.028906235305195902, -0.0260703564964051, -0.03432811508159402, -0.004142110897936744, -0.018361811987425054, 0.020649923255827984, -0.05752306269749742, -0.01706497520736184, -0.03144022406573626, 0.023262254713588924, -0.0016147450837545169, 0.006260001840566445, -0.024407195462323936, 0.00014023630064393275, -0.021075684181621375, -0.018451641660539378, -0.051300405594342846, -0.02393924289492387, 0.027198970124629334, 0.0003823024606346554, 0.010567655890858852, -0.06147249741850018, 0.035410310526042224, 0.05576492608380468, 0.012172266906676344, 0.029340809787179917, -0.036751431591887394, 0.009246898626086948, -0.004164915876468605, 0.001113906324279447, 0.044478054793857344, 0.05819895615179963, -0.01804552180880556, -0.05560135762415404, -0.02270320925172137, 0.014404091910454872, 0.04563350753860039, -0.06585282931468478, -0.01647771798438386, -0.0339032842626178, 0.003792051243170326, -0.009631492177613834, -0.002274740937166542, 0.008124926327443768, 0.05028889390017373, -0.011208004928435421, 0.02456083113709653, 0.03230901183954176, -0.010222954093880991, -0.029832169854235015, -0.007986854328435235, -0.06065820721631503, -0.013881114481170732, -0.027793761185098957, -0.020047373468563553, 0.012275335576845478, -0.03105587043754982, 0.019194451397322405, 0.02112144471022316, -0.029202067026018276, 0.04815884210133764, -0.08634266123079268, -0.04077071784342521, -0.003070351493983728, 0.03313634853796324, 0.00859316340122578, -0.011251080097921017, 0.03583512250166938, -0.001867731928015946, -0.020392474247107894, -0.03046199629266731, 0.050398083342020894, -0.04464741546562079, 0.0026799022483234326, -0.07684134428478602, 0.033563578453418744, -0.041679910632403304, 0.009694100178229782, -0.11469927145115454, 0.020038762305231276, -0.04215685657061298, -0.02213861219252527, 0.00235334475912648, 0.019112896142569315, 0.029044697509165746, 0.024470521979656927, -0.0057406160729491845, -0.00327898186279056, 0.009508928853665532, -0.047088405492931557, -0.01912632594431589, -0.016440234704479965, -0.01770514405320624, 0.03675740401337264, 0.017782290145899174, 0.07354705812248384, -0.05670853418056542, 0.018420511207651806, 0.03276203791316939, -0.03579933126322169, 0.03427279088136814, 0.012358551899021693, -0.013085802400087844, -0.09173852546180661, 0.04049963001436143, 0.04891004034941163, -0.002695432848564334, -0.02769034918527122, -0.04307628964763744, -0.05456616206786055, 0.010460974978481617, 0.007986379459927076, -0.03587469098049094, -0.030308334523693956, -0.028572383880093866, 0.01500015505210208, -0.10299093124581282, -0.01104027323794935, -0.02704517972602579, -0.044365577158475486, -0.036125539977385705, 0.03902338978883321, -0.07278920142153568, -0.04786636500770339, 0.027454039383541674, 0.025929906099724846, -0.0091639547331241, -0.02743216617066785, 0.0067373359682528335, -0.0419039448914317, -0.028582353184206467, 0.07234841721081707, 0.004697452359625077, 0.015428517247036248, -0.04857601688744216, -0.025691953440067188, -0.005024975336271336, -0.018249726975826847, -0.010031828888038954, -0.0716386728308659, -0.02595945576211266, -0.023648802161714992, -0.0878109255794202, 0.008393013519919211, 0.0020616963826483896, 0.02730757521924296, -0.08369651159049914, -0.044490106204620294, -0.015108997808526821, -0.02298403874408215, 0.06694443836432501, 0.007692809461277833, -0.0009726717414652734, 0.014274491355444407, -0.00039171334871125185, 0.047572472705071624, 0.05323738392381824, -0.016149612110837666, 0.013756282632396994, 0.036949376453510256, -0.012856056173826489, -0.006403650629328459, 0.008198718087252905, -0.020266748835795274, -0.03801536547655694, -0.028478919919988747, 0.02973295595251747, -0.041099912615990164, -0.06302407925365956, -0.08104246431501717, 0.022060407550041093, 0.005606846770379382, 0.0013873249149055915, -0.005550539173238533, 0.01736493491635103, -0.04469559164629084, -0.009714707734779518, 0.05642993189785078, -0.032273794690011674, 0.0038239193736866726, -0.03461601809692195, 0.009896904381728569, 0.002468616972285265, 0.026676921904605584, 0.006486542360244364, 0.01684043584098131, 0.0196623050569955, 0.0635041718130997, -0.01788362817041516, -0.0138850472225621, -0.0006972709793216515, -0.012074355684677459, -0.04991913966255278, 0.040137492138590934, -0.06931739191461621, -0.0025012229451857166, -0.009178640569057326, -0.08504770305458426, 0.029656704075175223, 0.04257346492522769, -0.027451188571912217, -0.018765318571688828, -0.0178663685350646, 0.06869254032848118, 0.012735175746306159, 0.02090641561488122, 0.00464090897095992, 0.049928180076554265, 0.009823746173353465, -0.022090248119988925, 0.03588648453181234, 0.04462409089818314, -0.0519761801570236, 0.0043477873095924, -0.025175509793944523, 0.006193388195348, -0.04254147675611382, 0.06551350668210736, -0.03370989337973811, 0.03057026288794636, -0.0004785913216415776, -0.0072580011410137936, 0.021531169141515875, 0.009756824185104856, 0.012590205861210867, -0.013498292565957346, -0.04651513898815965, 0.03386122594454066, -0.07348342644368827, 0.0012658072359226554, -0.006176225313560231, 0.01190592352957036, 0.04749623433445095, 0.050672590377280224, -0.031416222537022594, 0.03493109972948367, -0.0071645106894571995, -0.029599813962950923, 0.025672804843207216, -0.00045091113569158884, -0.004428337734222754, 0.022985343164288508, -0.04277609155504028, -0.05486832978279603, -0.021318090832355124, -0.03951361029610485, -0.04456548254482673, 0.018854482715896747, -0.021998083515121506, 0.044889823003493076, 0.036138672166241906, -0.027228832105957793, 0.022433611926100633, 0.02711406657424252, -0.027297303031054525, 0.07811022007088979, 0.045401803369024656, -0.004856854195540942, -0.004010895556016949, 0.023075354706908916, 0.032500185470368446, -0.024905809052526456, 0.016261246496141534, 0.052545994628931364, 0.05661928000383446, 0.04677823451618177, 0.042025162135768894, -0.0011814575145684693, -0.003230012978761559, 0.010594888335907772, -0.012047861081835315, -0.02748809495712788, 0.003297168506890594, 0.015257758590141203, -0.009589820911177386, -0.03990074667608894, 0.0404635426029262, 0.008823502441499334, -0.04906833924766171, 0.007886409945017991, 0.00635599687931525, 0.047468439049347, 0.03826193972858182, -0.017630231894389524, 0.025146646942444305, 0.008986450835662763, -0.04930640707288793, -0.002016260016994893, 0.03265414671587476, -0.0021605354171651955, -0.025993338649022358, 0.04157300947903081, -0.015145736678279438, 0.020620673154988424, -0.020539816677113194], [-0.021820790218691693, -0.016304463875348636, 0.030062026417331213, 0.004002964574950929, 0.062007301529338796, 0.04946045152003107, -0.0364519229187567, 0.008746966344438108, -0.06534763311191413, 0.011582828102066022, 0.02336312870111049, 0.020002845228110116, -0.017533833852231596, -0.006625700508129276, 0.006825666001590597, -0.05899345392635387, 0.008827159419295339, 0.021750204233991818, 0.05018774477078646, 0.02276125884384469, 0.014919195807984799, 0.02745215232622865, -0.015383061517766736, -0.022503509536107184, -0.01162749275357762, -0.026321331075157578, 0.0282739614647232, -0.024429760823954292, 0.004518397940317826, 0.02579598766237307, -0.007252982158697012, 0.04345797082118063, -7.287972697577395e-05, -0.007661607855487428, -0.014778001477332008, 0.022665985292510713, -0.025584031192279102, 0.022637915384981815, -0.04183113601541072, -0.018187213458341876, -0.029872530828402404, 0.02751455499023506, -0.02007200868658648, 0.027471293045826198, 0.003573751685615332, 0.0059828488281678804, 0.05488322662015388, -0.04049153669047396, 0.005607755490814064, 0.0007942389969506034, 0.012809140629128156, 0.026942247624625697, 0.0021038065175051886, -0.036592049424246195, 0.027405622677970847, 0.019487276574443792, 0.009073342075043676, 0.04641278755183894, 0.020153852002151276, 0.033181271790770794, -0.026204837783329375, 0.023020077962905863, 0.04319082928987726, -0.07568780943136642, 0.0010118452149856416, -0.008333389839689554, -0.07231915742817001, 0.020475608562833494, 0.04614759900279407, 0.01599416140124948, 0.005527248508538115, -0.024484108051464653, 0.008125876029319377, 0.026927447130645803, 0.06426825316996859, 0.004247453233961446, 0.003108464310324005, 0.006106618641304697, -0.032010909582778496, -0.017172040879690438, 0.025980821323600564, 0.018976044695459493, -0.04041786173509093, 0.03598820285335313, 0.007266067611381884, 0.01414305122769493, 0.051819647521749876, 0.07860756588744093, 0.06572288470970168, -0.003345288472680009, -0.019344544481668467, 0.01009709917810895, -0.027581334071761728, 0.008774735355535126, 0.03567229162237618, -0.04819584163260233, 0.0006642617298258322, 0.006966830196491961, -0.003749320371819349, 0.004691571795438754, -0.009891427485985016, -0.0014603414595371316, -0.03136571149510937, 0.0006329263485685124, -0.02701859174732557, -0.02379825457872143, -0.014786757556673987, 0.03023328404601787, -0.06196534288637282, -0.06247018469978486, -0.025416466115732395, 0.01846361915990553, -0.032029296811673366, -0.010528351208667604, -0.042823706278506284, 0.014274773532655691, -0.03977770394730204, -0.04379139530939526, -0.08513783713317491, 0.017994629731339643, -0.020887868322075544, -0.023364354762105445, -0.023244516157902854, 0.02210931900069382, -0.027863170697493084, -0.07121516735463235, 0.00807243586136109, -0.06523000216134196, 0.027763390625340795, 0.053212715846788015, -0.03133123505277627, -0.03426367949043142, 0.00044570974822155413, -0.053570951627730866, -0.004312101109828913, 0.002409166169395612, 0.06666948235645251, -0.037080613109686265, -0.01860939086879555, -0.0024692729346356564, -0.019775031032695983, -0.023165587457009106, -0.00109501598951673, 0.054147226395813486, -0.007648623955282218, -0.025506223195458203, 0.001524010523021298, -0.038663005522102924, 0.02342010826117443, -0.03552009638762251, 0.08135364837955035, 0.0510337725713029, 0.00929099008689467, 0.006938836129836269, -0.030179454210458253, -0.0002906832811040315, -0.06592638298040338, 0.014041632048559512, -0.011995900685314559, -0.028450088510705664, -0.00028758820180276815, -0.03406219311525061, -0.0077938441737138405, 0.001694088867890907, 0.04042237831484131, -0.01284725231795652, -0.00834611922937269, -0.013826310717627415, -0.006255149726960959, 4.047401998668218e-05, 0.007841441014455207, 0.056742632656217505, -0.04418187371884718, -0.002685653946889411, -0.03766737570955217, -0.009368416015410344, -0.04196943285355451, -0.03142300286042706, 0.048369032400467256, 0.01317154730686144, 0.06448103584098075, 0.0839559896633396, 0.07792715361973995, 0.011066040233484668, 0.019256057830445636, 0.01908987833144308, 0.05675226117738982, 0.004206607345838875, 0.023669570999256047, -0.002574299691755255, 0.01391960452094758, 0.019670089778059795, -0.0059126496826397605, -0.00017760333945917746, 0.00802727733839967, 0.05638734528578157, 0.003875028238811707, 0.08888308507361402, -0.04802178991830779, -0.012858159230131217, 0.062321735661019215, 0.01798090376030068, -0.03354862298669909, -0.003122070229239328, -0.007744595031331889, -0.07652334012664923, -0.024374220472045207, 0.014601161383581971, 0.04852366696312936, 0.013679172239576081, 0.040210095069084836, 0.049906856372573985, 0.03129628529999789, 0.05022804842733044, -0.0076053145248485, 0.004618235721603429, 9.85697658145646e-05, 0.02491497704610719, 0.03855675251983829, -0.05653936289319889, 0.04709249694362107, -0.012515154865198011, -0.008704383928480643, 0.04966775957842736, 0.03273836958187955, 0.06683080207799728, -0.03133468826905425, 0.009230963951104058, -0.03317796781383832, -0.003791220735307706, 0.009617539316703866, -0.02595096228097455, 0.02943116848533484, 0.004459350752281998, 0.01255270239424231, 0.0332089056139682, 0.07897742538840345, 0.03135233294834977, -0.017719106561651356, 0.040082161714773815, -0.032994309072406705, 0.019255669262671506, -0.010025218995814027, 0.0370681006895409, 0.0042900536942389305, 0.04562671164070848, 0.04078139541180069, 0.044571554157238874, 0.011947313970403576, 0.03013916465743132, 0.01650590228373568, -0.03151309256402328, -0.0008771882793993799, 0.015216956678330285, 0.03774907900665287, -0.042020854593080595, -0.02629831142462366, -0.013282392365499262, 0.029149761778076485, -0.010819563881948777, 0.005088073237704022, 0.018106383801485677, 0.02453223760367495, 0.05340167479343571, 0.021426906971474365, 0.03408193202282442, -0.08918738059207151, -0.035348159813216144, -0.10856695960475776, 0.014644219675883552, 0.0072755357819832426, 0.040625813519969065, -0.021459527597717673, 0.05592749707429913, 0.04294810201305726, 0.04266542821321709, -0.025750441665423323, 0.05140756836073016, 0.032606163880447764, -0.006238003459644858, -0.028967336640846646, -0.015680551618706778, 0.014432121451329733, 0.03021611068270071, 0.004273131668956664, 0.002258385097120338, -0.04316766161188923, 0.060112583847120746, 0.02749305993974693, -0.042694918353363996, 0.07134636735178924, -0.012945174680064118, -0.0029059383140877283, -0.005146228880681857, 0.005251019525399589, -0.11822150841192093, -0.08574717364867769, -0.0485174025655117, 0.044408374429969595, -0.062389366794886644, 0.01047292184123162, -0.028760153720061674, 0.05760185694776986, -0.03289719071540629, 0.020707760963893988, -0.0026267824744853133, -0.030328382523194298, -0.029398174419956773, 0.042086174215246054, -0.07443546291225031, -0.03178600543272607, 0.012506828791203312, -0.01818713286452299, 0.05337706786202421, 0.03060418315238822, 0.07395417201619373, -0.042649657949100736, 0.015074173754950794, 0.007749525537757267, 0.04456336549813517, 0.06799881042696676, 0.0010995496038407485, -0.0984277584879997, -0.040264259211572985, -0.04415400054920875, -0.07377093993055647, -0.03849609102432183, -0.02906899832964799, -0.016015263097262516, -0.01568758005999809, 0.040869559996356955, -0.00738664045215652, 0.02517052421147634, -0.018153192071094806, 0.0403703215945307, 0.0725404437957491, 0.020044985107668386, -0.0033650311056981456, 0.05662698889724459, 0.04577635261969011, 0.04386508538417321, -0.03572701981020012, 0.023019275270168928, -0.02383195024018483, 0.04440182396023788, -0.0003414673920678567, 0.03892046138402425, 0.08852164891548331, 0.02139068735768506, 0.02755751267671169, -0.09734770959621515, -0.0727835260229886, -0.09565076683699468, -0.05408061314626675, -0.1049579613654687, 0.011896715021352556, -0.0468568910686292, 0.09170956352971565, -0.00820976106371488, -0.026712681353021187, -0.02853585421683299, -0.02252584382699932, -0.0251981380952837, -0.03258879058192486, 0.02481454585256191, 0.029976055849381178, -0.007020027413050293, -0.016862419126714795, -0.012042475005166099, -0.002248602000401676, 0.03227621093513654, -1.3894401961342927e-05, -0.02308968545055791, 0.0554638860546379, 0.021509265417570537, 0.06420007377959587, 0.04952382818907861, -0.05015906046004789, -0.1057116806357213, -0.08092192944099103, -0.029420660185614445, 0.007063454422136619, -0.061006553892709994, 0.013763903572612179, 0.010194925789334211, -0.01055093320582292, 0.06933245659714236, 0.009828445122868243, -0.01220166462805086, 0.04116226060505519, 0.0011462568592355059, -0.03581009430661682, 0.03748716134191902, 0.004213170300400179, -0.006687309941413847, -0.03743684592741134, -0.05580748027891104, -0.004394132234769521, 0.03570033759834215, -0.04287636071363648, -0.0008947941510590199, 0.018066938621441084, 0.0047124735018669655, 0.02925634471961005, -0.002586490238030028, 0.03674792419191866, -0.09946662332243994, -0.031684314571600494, -0.0644050010918498, -0.10701607551390913, 0.009329324726762402, -0.019284135286401344, 0.0329959537397617, -0.014950300764481656, -0.034563760606637586, 0.01895170536843138, -0.0024282425639788816, 0.05577000721461218, -0.012236486951948013, 0.03892775728540984, 0.011223603159523263, 0.012448031176163098, -0.049309214640638914, 0.008127002248990772, 0.019001786506691622, -0.012509793928397149, 0.0033433446795707355, 0.04633148886587865, -0.07821402537895668, -0.007045085974691289, -0.0034995837441512663, -0.01723050907932096, -0.03596211709176889, -0.08816288014375578, -0.15370766242243056, -0.10810415989179377, 0.013068665335523658, -0.06303005675524732, 0.0036143186019254514, -0.01764738354025281, 0.009538309957160993, -0.011805096720811054, 0.06230869078496366, 0.017931490386381557, -0.04145381265692781, 0.013779271818863301, -0.017631189974705478, 0.002516878518621624, 0.05877977963170211, -0.07100555910594644, 0.06403617228449619, -0.0031613779837741285, 0.01993530564234175, -0.021262927260825362, -0.016825558823749618, 0.036817229914329945, 0.005370787012894373, -0.015903724586021947, -0.030527627315406043, -0.0007540561322429256, -0.10462836491201208, -0.15220835926918494, -0.11998243121722649, -0.08186789607109882, -0.07526626797440414, 0.03762323756330141, 0.020680188755287283, -0.0058623100832117135, 0.04365193709543141, 0.021169806341532014, 0.022607001937161503, -0.016638573744115426, -0.019663751898840825, -0.039245203875342624, 0.07109687781785047, -0.00472129048491955, 0.028007835157185797, 0.00743111637991259, 0.0016853954072971371, 0.048301091775664474, 0.06906932136135817, 0.061522099667717996, 0.05624022487812616, -0.021846892468185358, 0.04952617645139253, -0.034542791860198, -0.03936734973020188, 0.001016458888909666, -0.04780473123315244, -0.07058615358436907, -0.12373493852588437, -0.08608265133980819, -0.043480758532917496, -0.007553201256023364, 0.025513901515840605, -0.032167151029383896, 0.07538604989010342, -0.007941655151185148, 0.02269647502018748, 0.03729566573094695, -0.0052187481300268995, -0.0020518221841678793, 0.017962630810323642, 0.017294635734073475, 0.012786227961818435, 0.04553221691121379, -0.012868703589107239, 0.01616486339569585, -0.011270015342710358, -0.08223156841347032, 0.0708149790116897, 0.05176769455456542, -0.0028606873295822606, 0.009290354764643332, -0.025127351910813073, -0.055438379244332855, -0.07286711670515472, -0.053410417268927944, -0.05720843602040277, 0.007686696276370512, 0.07013253335105875, 0.008042733147504633, -0.008513618038378704, -0.04355348795485187, 0.08456799042626192, 0.04855923998197194, -0.025760665242182956, 0.009001963573942793, 0.0236690631135832, -0.05486307241368068, 0.017425266953173788, 0.0013463155022458088, 0.006555755626650202, -0.043525144076337174, 0.028106927661868945, -0.016211642235654494, -0.005409634142436333, 0.049775285273058224, 0.0784609843006789, 0.08643394658101405, 0.003783924513210785, 0.027096913335315692, 0.02684498432851921, -0.10196251231144975, 0.013342086993986695, -0.025007887233586597, -0.054615845291549975, -0.02409098314273522, -0.012404101870029773, 0.047708119341631265, 0.0064397096582595095, -0.027887642214843425, -0.029897188735016646, 0.014093887056635458, 0.047479769519265864, 0.006462826097720467, -0.020234430062287707, 0.02837627896828243, -0.01033314465927699, -0.01744709052280499, 0.011319977602301572, 0.01206339248015713, 0.023347901792948732, -0.0027817219622775285, 0.06847161421770553, 0.028203053416056702, 0.06460883821457324, -0.010386693999421612, 0.008436499545695435, 0.00675010883826793, 0.014016237456740388, 0.040856302699332055, 0.037390186438447555, -0.0554270202001281, -0.013546648910834524, -0.02410504098881655, -0.027735362707258165, 0.06059426302368348, 0.010387274106955696, -0.0011519053899653588, 0.09087359910016689, 0.01697581668340449, -0.0350221856073465, -0.0368377647132022, 0.032768533227907605, 0.04219534684652841, -0.05361290935676796, 0.03991670771338596, 0.013812265176983276, 0.004830278979602041, -0.05757510721688149, -0.010814205168884896, -0.03560981296899906, 0.01639723638547008, 0.04226672982201221, 0.01122779951333986, -0.014726098147615727, 0.09671046027026961, 0.018043435069837313, 0.07479396444969678, -0.05953701933656487, 0.03513495312576055, -0.10322209119559328, -0.00916155843344473, -0.007037411833677059, -0.003742517855045135, -0.012589591998634696, 0.039849076654038744, 0.02068453516443269, -0.01272290816062019, 