{"sizes": [784, 30, 25, 15, 10], "weights": [[[-0.005852058452628141, 0.005799603441506825, -0.0018345813689443406, -0.003085677781108749, 0.0013441924465957085, 0.0025161954496222215, 0.009832631355619658, -0.011129203451111144, 0.0020296228758730776, 0.0011443571006405535, -0.00011986619989792069, -0.010179545811931624, -0.0028952291534222172, -0.01014074764476611, 0.004046672119242066, -0.0036899000803981177, -0.0008967562725184717, 0.013188445931125468, 0.00031128306931986824, -0.007577334474281823, -0.0010366502259156845, 0.00942148710635437, 0.008861279633635812, 0.0032203801795756652, 0.005625017062878276, -0.0003309019859145827, 0.0030169261027116413, 0.0005031641303167224, -0.005424773438787679, 0.00048004162496176307, -0.003712358105598192, -0.004042853508156247, -0.0028334825477550414, -0.00584424068522392, -0.0017027675231374082, -0.008642602923058526, -0.0034867052615079708, 7.256282491673121e-05, 0.006465432661148939, -0.0007304904219038857, 0.002445972532356179, -0.010787396153180228, -0.002667553995735948, -0.003822222568708981, -0.02525846745356171, -0.015158496562063773, -0.004278166939540234, -0.011134989406131338, -0.01279535887365206, -0.00266496192557384, 0.0023956104676711863, -0.0027388527926381074, 0.0019066147722856563, 0.0039925462758907074, -0.0005498368458713208, 0.003234875181759773, 0.004575719094282618, 0.001714785828045556, -0.00314898393612543, 0.0005214984695300844, 0.004083665064339652, 0.007745742016668946, 0.0014796481854565083, -0.007302346848234208, -0.006266234367431036, 0.029926624812670995, -0.00894702196872854, -0.15329836741995817, -0.24210315688146755, -0.25238335795992073, -0.21765159484535745, -0.09247303908466545, 0.02203434316017462, -0.007707085466325452, -0.10460093540760847, -0.08062499642299198, -0.2259512548268117, -0.13865148621451698, -0.004829348963734066, 0.011241945885730078, 0.004422255787513197, -0.0017969544086813838, -0.0065751164576759264, 0.0016198469429147138, -0.005239461360319958, -0.004324433381833904, -0.001036931275189008, 0.0008284055094533735, -0.01692615489790665, -0.034299276533925255, -0.004049648563595144, -0.044810168708127, -0.026758827345290417, -0.0997810931502582, -0.3426452155076261, -0.44579908254916034, -0.2738849836853712, -0.5643486298460589, -0.7509491504036482, -0.65794007577399, -0.49902723435609886, -0.38489676821903124, -0.1648980497391414, -0.037286443048442995, -0.06380779501240467, -0.1768217527053559, -0.08189634086568529, -0.15391404531814748, -0.27836757239809823, 0.07856866430343122, 0.024142326588444184, -0.004568041370082677, 0.0026306439289427754, -0.0006900051693521385, -0.00024882445455081997, 0.0020897526766343742, -0.048262263842524605, -0.05266416864565422, -0.16750535583083967, -0.29127346757434075, -0.13750374085757314, -0.447509230628644, -0.7231922362480633, -0.7499305222920458, -0.7081285604178139, -0.7086809909013099, -0.8263277836869649, -1.0696555216162202, -1.1137282190106423, -0.7513824003949283, -0.5749995343219686, -0.3760422013076167, -0.4846730694569426, -0.6219055660281734, -0.6886222320160587, -0.3604066816530585, -0.267062500787145, 0.036263225763881385, -0.008385392895269767, -0.03929923516525972, 0.004308789564194196, -0.004563528891545542, 0.00930682059443147, -0.0021496089871742303, -0.1314097719251421, -0.0718076233991753, -0.1600784669289109, -0.1943582665183541, -0.45570528909545527, -0.7057060020764959, -0.8955275211565714, -0.8299409376549821, -0.7624235378284452, -0.796172120116425, -0.8526619787802174, -1.5052234772280286, -1.6941776700029565, -1.7917663252937657, -2.085674829256553, -1.6522114750621337, -1.2192685924350508, -0.8684366540795782, -0.4325688925802228, 0.18793669775525162, 0.5793911212782032, 0.31124076066450673, -0.08826622955345553, -0.0469778168658652, -0.005622833564026934, 0.0009887415523458874, -0.013058773116891948, -0.0277583440917332, -0.11991471631046982, 0.04911146229918788, -0.0293602988857414, -0.18725557084944408, -0.71440012906928, -1.2591218078414068, -1.1750405781759847, -0.7300539956182263, -0.8855484801254566, -1.0522109637593595, -1.3650049651700078, -2.5844696975697654, -2.4356623527112515, -1.5043351470666733, -1.9718692964610114, -1.197518312577756, -1.4016437210358696, -0.9681511870114792, 0.03346505892053039, 0.3924031585763513, 1.2916769652538749, 0.8021623230759363, 0.14378538270715066, -0.00875278355627294, 0.004197233308523708, 0.01502392814363149, -0.01850359065421163, 0.147638612542913, 0.004599899116935688, 0.13408858432358947, 0.1459680184680349, 0.214109290823752, -0.26107831927817493, -0.22734593489004815, -0.28800371367136873, -0.4466623740735459, -0.5504879783185112, -0.05569584953281601, -0.6009010233482553, -0.8184174747758517, -0.21887303317517767, 0.4728872821158572, 0.23134892909282762, 0.2322959568755897, 0.04529861000311086, 0.36234896912353337, 0.04848785115780491, 0.34782643143177255, 0.6998361064453673, 0.49222603355131217, 0.0655863483935466, 0.011728923178472194, 0.0050764128423293475, 0.022302158368438837, 0.03297784011572062, 0.2541091582826071, 0.24670875519714605, 0.18353301557423188, -0.0015727682648409265, -0.2578858911374708, -0.17138516620607294, -0.20369571976641443, -0.5786732414602974, -0.3619991031912089, 0.38627125346151125, 0.35384651839147585, 0.12907739370982854, 0.4269934022680867, 1.7577943062692836, 1.525349187365815, 1.720250720536549, 1.1812531407192688, 1.3616564732657748, 1.124978056595677, 1.0950448633572447, 1.5990150633431004, 2.4542282929561146, 1.4334103754948846, 0.07897354044755196, 0.02623591363281723, -0.0021491535049690475, 0.007464447931545864, 0.09070593185241904, 0.3934018659167589, 0.3826527291067784, 0.12631822799919318, 0.07062111540894059, 0.1413630782343935, -0.17332703613518158, -0.5589873571521587, -0.376884270520038, 0.4498708728366558, 0.7460756542648813, 1.3493467102354553, 1.1758503429617104, 1.4911498968936248, 1.8848640051166552, 1.2917145536946815, 1.142248188152869, 1.6946726101359475, 1.3572621587035456, 1.7551846949079164, 0.9351766447972663, 1.2561492293206682, 2.1358729603845217, 1.5575321455959887, 0.1731684078510064, 0.027581934774073846, -0.003266751303996774, 0.007417191166699302, 0.2395541596313137, 0.728299245667096, 0.6759108790301097, -0.008329045020582635, 0.1845875951645171, 0.42081579894460003, -0.13686033703398698, -0.07212413178564808, 0.5705671985383916, 1.0180434808797811, 0.9264475619406202, 1.0889711820027628, 0.6653201262474217, 0.9302870641832176, 1.0509246044281493, 0.8955870851989016, 1.5275832856557912, 2.049749601702609, 1.5815924938806243, 1.0261260039210125, 0.7913684880137853, 1.5697702366119426, 1.9560887396935915, 1.5038795787586698, 0.35340801014888146, 0.04335165325060501, 0.004946006570485037, 0.002605981625135704, 0.3028640715719413, 0.7400363639017705, 0.8328694354728847, -0.4317683878174537, 0.2522990648529011, 0.07312023656755917, -0.589130343617718, 0.16981340547602322, 1.3026112582193017, 1.4384898068038332, 1.5610579144389174, 0.9778570850343037, 0.9251468546200478, 0.7207549885949994, 1.1341715513294994, 1.0008560341110346, 0.7107672009039941, -0.03881659152526566, -0.4878933268582667, -0.3839941189309142, 0.2415900112918345, 0.6266305720654207, 0.9574270531043523, 0.6635049968339815, 0.18219220296440405, 0.0164794357175863, -0.0009148493599615397, 0.01067056002468525, 0.05529411744085225, 0.39700411151923976, 0.34947594974859747, 0.19901954318740567, 0.4880646889196615, 0.06276444951886719, 0.04540787458703216, 0.5825348184566539, 0.5764517636636675, 0.061192790200687165, 0.5014623120471412, 1.1740835284184763, 0.0531454902092632, -0.12135015668723588, -1.4326263667729162, -2.1303223427375806, -2.3367180655118647, -1.965249258630467, -1.4426605210682677, -1.3783710978298005, -0.5669352778296977, -0.8885145592623128, -0.12251580089431906, 0.0350964045403872, 0.09477346380118959, -0.006893129240081816, 0.005533333122373027, 0.005440069750670853, 0.017647439937744796, 0.19675291781465326, 0.1946718623684799, 0.602273056768466, 0.35691273738413587, 0.43949493959534114, 0.07214012721763828, -0.3767564213071802, 0.47841623132210703, 0.7025794912781875, 0.5341490717573497, -0.14479182677336627, -1.179313884271286, -1.6633368377640092, -2.5380489972600144, -3.658141184945361, -2.933073577914829, -1.5812403695445036, -1.3039425985730564, -0.8411514447266975, -0.777204489619718, -0.5313581882901292, -0.16214813500037273, -0.08061556952288244, -0.0761067137798274, -0.04245582039246062, -0.010143084931932118, 0.0026137791255255822, 0.021424845147390875, 0.08310571388973084, 0.011394470615026416, 0.7461830264717162, 0.29767892871852786, 0.3272351942950998, 0.27267335183916563, 0.07398701853843644, 0.1354106367881047, -0.00883476708782303, -0.483180226842373, -1.3942997710571854, -1.9943359963505947, -1.3294050514086324, -0.9455966418334631, -2.062309577976079, -2.2002595495159847, -1.1404806126644227, -0.32345719359761027, -0.55616733498905, -0.829726224885299, -0.4750150562350516, -0.09568945072606774, -0.14863656688462681, -0.09042868772118133, -0.0017937141742052718, 0.0034050063281155065, -0.0022026339390021875, -0.04736935063006742, -0.1071922550337276, -0.06886710017746442, 0.7089857494536176, 0.8184721227155572, 0.2302142295253072, 0.1960760713681973, 0.33419471442004345, -0.06770717391687917, -1.2612241486771827, -1.1608902829248695, -1.1553118785331817, -1.8728801019962273, -1.4382801608358189, -1.12083076298831, -1.1507175657531339, -1.2326515218755636, -0.7420652601357418, -0.3483143449885518, -0.548379069350299, -0.7940444059856394, -0.490194784577775, -0.4940177902258941, -0.29292933526677123, -0.1834148064819495, -0.026424394706670858, 0.009924713271983621, -0.004702148326879136, -0.007877186428712941, -0.06825789119469167, 0.09866706855398025, 0.9373680165342441, 0.5977656153853276, -0.30726990519586744, -0.49667668661489883, -0.37179852249721607, -1.0021202609979871, -1.4956334912866758, -1.096378214525977, -1.5944899741560157, -1.594412300288275, -1.5885069701788546, -1.1090027063843295, 0.2415832121075213, 0.23029990920833596, -0.5356925843519869, -0.6077432309338896, -0.8254380234133547, -0.8815409194244365, -0.8491535245234773, -0.8228574244741796, -0.45188909892149864, -0.10514622664434253, 0.0019456675440527396, 0.0029177311383907526, 0.005457915959816305, -0.017824730170769142, -0.18256896497270456, 0.16488473422096542, 1.0967488000084336, 0.8146889230029016, 0.17742478864902192, -0.34879427091034243, -0.8602082933259937, -1.5226319601137746, -2.4944421658038807, -1.8694179438100391, -1.4991855657676043, -0.3348524472891604, -0.07997782098788081, -0.25941401676109344, 1.1246959234537683, 1.2436785010071882, -0.23399183109201457, -0.5818820951498979, -0.7957280564951603, -0.8578830286190616, -0.8849885316476268, -0.6819801966432473, -0.43381707277109194, -0.041116169169569415, 0.021408738344108544, 0.002164563281848516, -0.0063069428967869766, 0.01559085620514442, -0.3714490342883235, -0.2674540558710762, 0.35187352359113033, 0.7011201024181315, 0.7839123106964805, 0.25241258481595297, -0.3710514905881077, -1.6685149831305979, -1.094989877903603, -0.23932144293992885, -0.09758079058082295, 1.375055812140525, 0.6707504014214228, 0.3724914681856324, 1.0111287673661427, 0.9337461333507745, 0.27938755250557257, -0.20745656793063663, -0.6028070698403148, -0.5159505187138775, -0.4903540956934173, -0.5540362268624051, -0.31822978512597516, -0.014914422021317137, 0.004120298043942209, -0.004881587531938002, 0.00010138364105555487, 0.056656615220314975, -0.41807012122701526, -0.49137022324125856, 0.15471011456614667, 0.5792341561613995, 0.7239947725408653, 0.8090971076984406, 0.07325642757275744, -0.3336159581710249, 0.38812212066582197, 0.07179491506059689, 0.3514947282092296, 0.5035563926281073, 0.5106846038134687, -0.06130922203057767, 0.9425716624819068, 0.29929956108316796, 0.017832724797246426, -0.875877991623729, -0.7892045447062583, -0.6702203242896152, -0.6831406836386361, -0.6030132530300402, -0.32634123572437024, -0.13950867073211404, 0.003022334394607094, -0.007038242792081562, -0.010495089361940131, -0.05572056091828131, -0.4633912382255583, -1.1919378283876687, -0.03334456021502081, -0.3086666613306044, -0.4743433419871369, -0.5836129227717666, -0.04669801896333586, -0.0691734291959809, -0.009404496233127255, -0.2572361781314665, 0.7746035608506974, 0.6840928515591171, -0.006541415021715394, -0.20094083104959587, 0.10609837178268845, -0.6522337806000068, -0.3256927700810574, -0.8620210958402987, -1.022748175166967, -0.87290093769861, -0.6438640468077788, -0.4069881177575282, -0.09255407711207854, -0.03057442934814316, 0.0008329611545588086, 0.004062022011929743, -0.0024613945535087067, -0.034786598460606805, -0.2820916698433905, -0.9958952441990513, -1.1450393615411112, -0.7516756496412381, -0.209633097714421, -0.6558450050033372, -1.4066691792627422, -1.2668499772161308, -0.8920863491133098, -0.31139253097261493, 0.3201863628312775, 0.8330800067610179, -0.4346523139081686, -0.5456292342004637, -0.13305714169156585, 0.2764299703913583, -0.1916110748669204, -0.3328202095665293, -0.7454295111064987, -0.5966596839186764, -0.5219705656636086, -0.2816480845981145, -0.051359333189824406, 0.00022750893939895212, -0.004740609767208707, -0.0019281505716665177, -0.0066954257452225925, -0.012746522112935676, -0.09195165157442219, -0.7007898274673864, -0.9874886179218487, -0.5872890160052977, -0.30442751583310135, 0.13538450604846777, -0.5510047799059469, -1.5829519918328376, -0.9955051780123055, -0.08907970262073121, 0.08408803004089072, 0.12989546225669676, -0.7583328551607272, -0.9807690629819057, 0.023564524433810827, -0.06776584339293122, -0.3513371897215292, -0.10345113512146918, -0.26188869866042946, -0.19821280980384126, -0.22075675531142328, -0.04460838053901942, -0.0036747210024610033, 0.0025971268541445554, -0.0059770107737419165, -0.008995126128211886, 0.0008941929585336086, -0.001301126682762056, -0.011589582065461568, -0.33623324120540743, -0.6457467885651847, -0.4356714643746864, -0.05801879053343238, 0.5020708783991457, 0.31467740842074765, 0.0035506781374868217, -0.24513925324021063, -0.3729599362492588, -0.7548149675842521, -0.639281354329082, -1.1001769103063248, -0.14482411626418645, -0.21173746403430013, -0.5343038333853185, -0.06581025868852071, 0.13370182256807864, 0.007555425976473481, -0.07546482285618976, -0.015099433948408805, 0.04057184954958888, 0.0022454262066621956, -0.003481985036384658, 0.0007853363809341054, 0.003984778196705719, -0.0016171325654490917, -0.0035657022865277204, 0.00726223832211465, -0.09359245356231757, -0.3317298787996298, -0.1588239631649419, 0.005491693077263341, -0.1938818419061316, -0.34731717623393826, -0.008277697406645019, 0.2101429932484797, 0.07026186643040228, 0.05397021120824411, 0.1672192795950932, 0.24916143419504735, 0.5186000105370091, 0.4669840360270908, 0.15438464909475977, 0.30459470390422533, 0.2243931761510254, 0.3093063340685437, 0.0799176334736998, 0.05803390365690872, 0.07353118308566939, 0.0001614582366582413, 0.004626342937346756, 0.00247348684858225, -0.004901238262605849, -0.004808531872940314, 0.001682746899703376, 0.0010637738161446803, -0.05463672874120213, -0.15239108501762885, -0.1461840989320965, 0.0858109734816114, -0.1608453500456855, 0.120115956802139, 0.22087338853128677, 0.1420940353898501, -0.1578211657969138, 0.10504559736894604, 0.31270340364093757, 0.7083999333303261, 1.4186467947653625, 0.9356770439970669, 0.2713514267309289, 0.23410507258330868, 0.3582164319383797, 0.3646312321168456, 0.22839298380128337, 0.06693732985452848, 0.04517541647940218, 0.0028448228086756923, 0.004855720023035226, 0.0006630210151277693, 0.004181618538531146, 0.006691691269930761, -0.0025666711019591212, -0.00012712710470180277, -0.009185003491942494, -0.046128320858016485, -0.1084038200889163, -0.07023875384852775, 0.3111892128442102, 0.36596132995240616, 0.3153103959823629, 0.35838088347618136, 0.8783848865065662, 0.5517240687857311, 0.15406565078148704, 0.4290758391838031, 1.1588904654041845, 0.7006286016998903, 0.501530711753635, 0.43990581823556757, 0.22418597348587435, 0.2511575100271469, 0.13874008038031044, 0.03187639039563356, -0.0015875272820809392, 0.005496499391392628, 0.004842705746885136, -0.0019779139284759424, 0.003340456213984169, -0.0020004213085137094, -0.0007751265790048783, -0.002528805365875498, 0.008538941958232345, -0.0005472809175157221, 0.02497314539754906, 0.1389925691678249, 0.1195214752301591, 0.0354200319914387, 0.26349254055888527, 0.049728345270991466, 0.007021042800866487, 0.05031671016391224, 0.11548886626854862, -0.01501567149124106, 0.02051290865672577, 0.021162372254174538, 0.027768069111318964, 0.018210739759283986, -0.002819587755893964, 0.04991279565240975, 0.05581377785905, 0.0026781585016186584, -0.005415707367979416, -0.00704460806781968, 0.0010855188127229486, -0.0020684110598769775], [-0.001142542857747672, -0.00471815839641397, -0.0016352659025554374, -0.008704632189453542, -0.0038120706912814703, 0.000557985552387705, -0.0014927048313003203, -0.006942839710172487, 0.0012498861561003303, -0.007262173337714481, 6.363014278064904e-05, -0.006738309353066198, 0.0004248175402365337, -0.009633428087283987, -0.002904655451030138, 0.007145515356076341, 0.0024598350361233834, -0.0015830715247596892, 0.0010236300037527294, 0.0011257321424007654, -0.010602304225528285, -0.005151663896389072, 0.0002287853762383606, 0.0036354814196005118, -0.0044239540645777415, -0.003439503404272032, -0.002942206650043945, 0.0024458975166617575, -0.0038502822703641235, 0.0009572371040537733, 0.008685738368665446, -0.004337118592075947, 0.00487666613783083, -0.006223881548373353, -0.005923341095297054, -0.025152261309381453, -0.0255894515301649, 0.014600060800661476, 0.00584979046404048, 0.02007363053919584, 0.021179716255129374, 0.018154088680175356, -0.04140113023032217, -0.13390894286945276, -0.17171521211964724, -0.02617520391160421, -0.006731062206507606, 0.010894843465154297, 0.12021228370255858, 0.07674624591739428, 0.00047362768585321657, -0.003941324445391858, -0.008792050636274395, -0.01181089395725271, 0.0011948489015226652, -0.0014557673685599744, -0.001989828399422897, -0.002339302264364679, 0.0065020231067207165, -0.001591922104296785, -0.0008685146772362666, 0.0012369112235179065, 0.013616844326188397, 0.031416611335139455, 0.009997175800499193, 0.08994531302244889, 0.09833569687003318, -0.07570877196044631, -0.05495340738045069, -0.12693309676967798, -0.4134432065958703, -0.5304372173064977, -0.5116274338878436, -0.417091798737374, -0.09617136787724324, 0.13446579934116137, 0.13798757857476354, 0.0624732321995878, 0.06383917276263552, 0.029460968844838103, 0.010132066697311285, 0.01010935287631645, -0.002384786937070249, 0.006394335118082267, -0.011399907176384571, -0.0010242611521324462, -0.007242989426789013, -0.00015241533856577116, 0.02080188062531079, 0.022216028664775424, 0.07497704625297567, 0.13560653951890733, 0.18844086077143313, 0.23247799605976327, 0.02711266534638951, -0.2511434666939357, -0.37153708842793415, -0.90169585252658, -1.3884153931814798, -1.2963242116119185, -1.2052613104212444, -0.8741262795643495, -0.25667067605745975, 0.5121805308261203, 0.598358916551828, 0.5753100671130907, 0.4051339571646759, 0.1895843836756266, 0.1560116922899922, 0.00873913045597729, 0.009926601780497573, -0.003176358950955312, 0.001572053496362346, 0.005578533454440262, 0.0015539355044389266, -9.351045487201926e-05, 0.0533898189434416, 0.10243062868249465, 0.111205065042741, 0.29801694114185506, 0.395628309247112, 0.10124468789424719, -0.33610883222063764, -0.3579270359614819, -0.5858853936695518, -1.1815963152984368, -1.8566974449841607, -1.8263185178597754, -1.5155836308775952, -1.0373504913066018, -0.23305891405176776, 0.8235673249016074, 1.232282023920176, 0.9827790107422782, 0.7099468196315224, 0.4707343908913394, 0.2760626072931245, 0.04094998398379165, -0.026456544037932784, -0.0018967824955053408, 0.0006714064403808393, -0.002360174412402385, -0.0051125329166439365, -0.0030878697411296585, 0.0758718967632146, 0.1985713367164207, 0.3318197877613899, 0.6166826916913742, 0.5025636464789636, 0.31437695145339545, 0.30608360677767377, -0.07336271135943903, -1.1988648831503261, -2.6616780514531575, -2.389607079572602, -2.0814428710852186, -0.5187676810305579, 1.0552030827400898, 1.3577145492997806, 0.8237067554046208, 1.102635099688856, 0.5168713678021211, 0.2551722874296281, 0.6119165731337481, 0.3975108347808549, 0.16916685098695278, -0.02805246487480669, -0.010311117848750911, 0.003366306214779403, -0.007119173767601347, 0.004698165342871194, -0.03278579531872182, 0.08233573633853607, 0.4054842168830962, 0.843360399290849, 1.2904291719577745, 0.882837103775861, 0.6891919273254199, 0.4632511952694715, -0.8823523339759122, -2.160869811574638, -3.604778300421907, -3.5754626285446154, -2.2500748321346036, -0.7846035091006327, 0.7757755920447336, 0.6913632532441111, 1.2499387511988544, 0.7847530071414431, 0.582117695743609, 0.15757779626334592, 0.49890117324597477, 0.21324218908304163, 0.13402512926700486, -0.056401925176291307, -0.00440074774552863, -0.0009014939143635746, -0.005100260212306432, -0.005423046050727782, -0.04259305810990575, 0.2613761791404175, 0.8628093056444363, 1.1449031613459844, 1.3297600130065614, 0.7231223689196377, 0.6060936931087262, 0.20598214694186126, -0.48452086942075356, -2.163007588183148, -4.3946894775408, -3.8865618341194974, -2.164628837756648, 0.10695736445501704, 0.8543875548634634, 0.670659350340012, 0.6214343869579556, -0.2591920329709417, -0.19260563836884068, -0.4424134541692936, -0.11403051107989377, 0.10062587315022552, 0.04088091877616465, -0.1077706337533809, -0.00018708911408447313, -0.006972734789513293, 0.0010359594560057069, 0.011254196519429573, -0.05753152702765188, 0.1725025497480439, 0.9419854592375096, 0.5234651335540711, 0.2529432838615102, 0.23717834277543684, 0.516751410255235, 0.7095998213085066, -0.09640554052120108, -2.480043796534813, -3.244197188794418, -2.6271878148445267, -0.9273142232438439, 1.1704780540820812, 0.7845930588547825, -0.05072518568358045, 0.2494239911025475, -0.8049160054257206, -0.8834288202081055, -0.6460793304532898, -0.3596367355647283, -0.10059968063558458, -0.12820683998844287, -0.13240813534370768, -0.027143113236465465, -0.0007032460289535401, -0.003001193861916138, 0.029343233594274, -0.2315550687272377, 0.3401501413566485, 0.6928557876217232, -0.4889688383678097, -0.3428722920401051, 0.7431741957856897, 0.6602412519257741, 0.2717422084387496, -0.8249455016521761, -2.3526282330446464, -3.2906472523577754, -2.3535950057067088, 1.011105940211513, 1.8994449788480445, -0.12138337341690449, -0.8640867664818311, -0.20733086387521987, -0.7185265309919496, -0.7075200966324304, -0.8654300785425446, -0.5361245945858844, -0.30565296281691684, -0.193136454861325, -0.12727430508472146, -0.006204268131377164, -0.0033521737599350662, -0.015003226101569971, -0.002722052276436268, -0.07191207110493035, 0.3704513507654706, -0.0108387975755657, -0.7501322674069137, -0.7601968701680238, -0.3738523070457711, 0.09096347230172215, 0.09980453335232328, -0.28018266815224196, -1.6286662642840166, -2.4786667703814156, -1.7903131870516025, 0.609731912293337, 1.075999512686399, 0.3605703368360137, -0.37171943142751135, -0.5462558117924144, -0.7156753251682169, -0.848695618726119, -1.124385202265421, -0.8627168232379665, -0.19775852083945256, -0.17981559306665634, -0.10845025028245939, 0.003577301087975051, 0.004335399845763362, -0.00494753848031872, -0.05476166125192972, -0.057792009080103825, -0.5232312181257778, -0.5430617574375253, -0.5090647635957067, -0.6705945587440991, -0.1531270635627488, 0.31722627468388104, 0.9495788797992186, -0.06052748103438546, -1.0579084608815659, -1.7135579537185575, -1.0117055979119225, -0.3695513025396792, 0.4359046883238335, -0.03859594311249726, -0.673453266622586, -0.9312425992603284, -0.5515713068070862, -0.6927875625437232, -0.768399701631572, -0.44906804204139666, -0.3626460655477938, -0.17747010809926006, -0.0849625087622438, 0.002130421564026661, 0.0027032216896784333, -0.010201093068110997, -0.030308836087541598, -0.21603011703800803, -1.1620566727628083, -0.9568961838854715, -0.16208069515013893, -0.38107973715601207, -0.7914024224866082, -0.43976893946791473, 0.4155872577655349, 0.1622577117957943, -0.15602151832453307, -0.5489857066061702, -1.34510842534552, -1.7794132115266292, 0.6398781023084013, 0.1485284435596767, -0.50917885518505, -1.0384291956809057, -0.763652438285029, -0.7323723591904412, -0.7618907117029804, -0.3742116102080865, -0.19347622829295344, -0.22348081591730604, -0.03532319996978285, -0.027734928359606965, -0.002035844172830922, -0.021205409043504878, -0.02497301084980043, -0.33066124879414144, -1.1195603212971854, -0.47732742767536296, 0.3126978578938003, -0.9083145040563142, -0.9542124667676732, -0.06470485352987985, 0.7312142803787358, 0.6582399517031258, -0.7840919151416395, -1.4994497092728312, -1.93988424846558, -0.4988414909965689, 0.45100210013545955, 1.0105689044385766, 0.309003111467869, 0.035361700961024894, -0.0180432183807946, 0.17774785461660633, -0.13703729270256634, -0.16156470872837142, -0.3222086362975645, -0.42657367366003873, -0.2620217976910805, -0.11990231211293745, 0.0027811023217644533, -0.008244210332399358, -0.011059920027878985, -0.1488340394611823, -0.6495346394961837, 0.1605638907298988, -0.2650668760785006, 0.04376983203453192, -0.2382974903827881, 0.40012539955852583, 0.8988399921041325, 0.8630042779626813, -0.4089878744480879, -0.9824272341319078, -0.9186811262348726, -0.10666488628334293, 0.347736505639257, 1.4898776223835208, 0.361492901967032, 1.0104386116940312, 0.6459701027195017, 0.5697491555138652, 0.1839274195010949, -0.07884712892427907, -0.11931436524064724, -0.6262301155266093, -0.3200516041596992, -0.00983311428136671, -0.0017155912280338577, -0.0037785208587657417, 0.032491004725275816, -0.14634975686728363, -0.4523845309093807, 0.34886321083083366, 0.7432523042526518, 1.4512109871624406, 0.7555104490710506, 1.1306571198196467, 1.2364399881436718, 0.4254923993417701, -0.12186998335240949, 0.3145246412138164, 0.2190470072231461, 0.2931980252668819, 0.6251499287753363, 0.6375872116899447, 0.5629060861090056, 1.664037151912208, 1.3872872988254008, 1.1202415667402945, 0.9267622489922389, 0.5231354747109944, -0.23559233493913714, -0.46898569068522267, -0.07249578589306668, -0.006533601016408757, -0.00893924443374607, 0.001794251545207196, -0.06991649396384234, -0.40020026021355004, -0.7446017330676014, -0.08886708963245728, 0.7757493914887208, 1.5640130705310993, 1.0121436068205398, 1.2700552169797643, 0.45541210463368176, -0.26297986332296863, -0.4370020799308693, 0.13161810527114448, 1.5707316970640566, 0.9670690058780002, 0.4423173910930303, 0.05361520229346331, 1.6297149432467017, 2.143629775494977, 1.6644489559703173, 0.9995236194418433, 0.20046539376833464, -0.14739814067342522, -0.42890995161942225, -0.5037962560382084, -0.23039410843084857, -0.012074581001380242, -0.005578611172926777, -0.004421875834123701, -0.08832866645494991, -0.37764984056236717, -0.34427355959663775, -0.6210013983850962, 0.24249276218147267, 0.7156102030008809, 0.3187372494572137, 0.5442047727452491, -0.058157245639683705, -0.8677619704095458, -1.27887490671857, -0.26715892987065354, 1.4418891684516013, 0.8842479553845459, 0.06575966364314237, 0.0963890495442757, 0.9724913007823004, 0.7328635292354188, 0.35977418969143893, 0.2267535307181217, -0.42057961163413743, -0.5403449775162849, -0.4598908944837999, -0.45262080526341564, -0.1614722458560621, -0.07003831805888548, 0.00046978355270549735, 0.001376071407849056, -0.02032327331264895, -0.16255003579980357, -0.5346312573622273, -0.6732504337557366, -0.3596647268192773, -0.10515264952116675, -0.06156390897063007, 0.10714521180147123, -0.8372081480811867, -1.0896940972280218, -0.7104178473236687, 0.06180317469365705, 0.4545673690214338, 0.6190145819094561, 0.9150215996529593, -0.06691653909254089, 0.3540496505870324, -0.06115392540079206, 0.7175833865542343, 0.2707338501618994, -0.7294604625525455, -0.39657006693891944, -0.3217729505447922, -0.30959554952813395, -0.05537810399369621, 0.0017050927573088169, -0.005272729754780426, -0.0031054462083487974, 0.019083652016352103, -0.08668930250171132, -0.5181656977919883, -0.6632817847118997, -0.2752138920743516, 0.32184452325614465, -0.2571862435276363, -0.07041916098392384, -0.09797279420937476, -0.5636640045037411, -0.8700994971152359, 0.24446818703106166, 1.308039448146474, 0.7929658283451045, 0.8071665257962983, -0.10099551348539926, -0.26014429066166533, 0.15151019845209596, 0.5519979055770802, 0.0368193777286964, -0.5489678283772127, -0.4962903800166814, -0.18399487408902726, -0.08977582772062569, -0.03335629499521317, -0.0010257673990405915, -0.003831227910533517, 0.005776055517153879, 0.014595345103273287, -0.06910136420874438, -0.3759705851489465, -0.7801595438526563, -1.0377514536797978, -0.33797969612848994, -0.49976486472902343, -0.4519578708026879, -0.5090503506814932, -0.82890092548767, -0.27964825880803695, 0.31542923850516474, 0.887191817468738, 0.8990160992656209, 0.7479370751088971, 0.5585475215765622, 0.5472088093684199, -0.311428597128617, 0.034695873832784135, 0.09325122614406828, -0.22426128599495332, -0.3635441459337449, -0.11752180520692343, -0.06455929352846634, -0.0034606890516401733, 0.005741293691209452, -0.0044754233330364275, 0.0019945969244599365, -0.005638725167503426, -0.0250498619340292, -0.13547166231994784, -0.6955846811918734, -0.8329763537251645, -0.3732649101217955, -0.08536236145088463, -0.21148078572721707, 0.07785280482746935, -0.09034187779848393, -0.5041168932259028, 0.46434908426813426, 0.6842835224918462, 0.8340040067044504, 1.037471716527847, 0.8241663670857943, 0.01876077494111406, -0.5638734734627344, -0.2660488135229476, -0.005777892721283926, 0.003473519742698902, -0.10411419811925764, 0.058077221580120054, -0.017634304246242256, -0.007980344123693795, -0.007848540529092935, -0.0027346399479900255, -0.0034465669952742726, -0.006987028340664969, -0.05959334951095195, -0.10100697935077195, -0.32691596836224435, -0.7871639505123199, -0.6310248177471365, -0.3793006572500872, -0.358643833456086, -0.15500044276044156, -0.16409546859168514, -0.02403709441420458, 0.6145857773140767, 0.4307347107378108, 0.5220895569701131, 0.7110632723785953, 0.6911561502446385, 0.07396887667242441, 0.05309995588463117, 0.20436265213270866, 0.1918089417683238, -0.12087506054225007, -0.275476893769009, 0.020435113441239793, -0.00862566404720578, -0.007027402637315159, -0.0031001795473709535, 0.005947671935434027, -0.00990626305107874, -0.0029465921526400417, -0.03222133827655819, -0.00297828049050768, -0.0872231395506912, -0.09052118846726043, -0.287883106230987, -0.19189656092141477, -0.43826802252680047, -0.9345734906994452, -0.7226206269020423, -0.283679570770421, 0.37269144203882165, 0.30242805045737536, 0.2453046938090414, 0.43950102870724517, 0.17461358092438511, 0.8010261218983371, -0.18901302474116247, 0.5183458450366556, 0.049167976620620724, -0.4543799540455987, -0.3153908932732104, 0.04240282473214999, 0.005920994217740556, 0.0031181395273419017, -0.007390262509537743, -0.0011360694980960624, 0.0038339255625883906, 0.0061239695219178075, -0.011999014714573097, -0.024453291440345575, -0.02095785361345032, -0.059421048594002594, -0.16141212391156426, -0.325229355567213, -0.471360260598049, -0.9363862347242174, -1.0066490851066558, -0.729198851832573, -0.16891966509467476, -0.5134598293863805, -0.06299386383140637, 0.1170663124459452, 0.10141165027177498, 0.19186389438756762, -0.7966840610119571, -0.33067685993101553, -0.3664144494832416, -0.5699416619117893, -0.34528894636016183, 0.011364758438055537, -0.012180019291279357, -0.002774875080162021, 0.005588552269758723, -0.004248740920321672, 0.00054028859040877, 0.0026355298444999185, -0.004099857256707048, 0.0032849062379463603, -0.026335439689988464, -0.02635700121977029, -0.07950559272330657, -0.2353508906017863, -0.48531221845759226, -0.9098043230508747, -1.2603722469849896, -1.069895251101541, -1.0351455910481602, -1.3148740638556156, -1.3799668352818297, -0.9089748580553535, 0.14340361877730065, -0.6283236013067321, -1.5160922973927382, -1.247082429398718, -0.8104387644746976, -0.521969288731036, -0.3385109500938631, -0.05780469843077005, 0.006283331045347639, -0.004475914233604065, -0.005128564273814151, 0.00011754007780626713, -0.011678305272177156, 0.011358326958436927, -0.003073318509151569, -0.0029604379729790014, -0.028791628942078092, -0.015344057102629814, -0.04176378018534824, -0.16941072229298257, -0.28053793609086597, -0.20282868841696544, -0.3369191901002928, -0.6281375333835805, -0.8141057638899569, -0.6978126985577845, -0.7723689782663773, -0.7214737883657342, -0.44254249072773344, -0.6980370547946425, -0.7644291701914229, -0.4846505729703613, -0.4106592871329303, -0.24012044701702798, -0.08629935319350071, -0.005053154101067503, -0.0006631443665782386, -0.00793326799188322, -0.0012452822623037223, 0.0026745933207221067, -0.0007909283614903253, 0.0026393902301850127, 0.007758941165556817, 0.0008019482456846586, -0.0027744536579773246, -0.010357980872940532, -0.11666410324203025, -0.10830219429108093, -0.020030417182410266, -0.029563111988447507, -0.027217912049510053, -0.11583896586068407, -0.003871299065484218, -0.08360417981517333, -0.02294009040505186, -0.010818668599036949, -0.026023030177458006, -0.03474781160976978, -0.03355520033937214, -0.007677583397215104, -0.02271535441970644, -0.009998908518341827, 0.001960912344135107, 0.0010901691625288667, -0.0034988374634502798, -0.0008674285476742075, -0.004037974622811105], [0.007888145524024448, 0.0023689102731523455, -0.006753055399112945, 0.004899209211397158, 0.0026869484873811144, 0.005099462946954667, 0.0004691317753966716, 0.003052998229472464, -0.005256830615428344, 0.008725651333026734, -0.007296113949898317, 0.0031476776963476, 0.002477243222029242, -0.005811436185265069, -0.0034024836069180106, -0.003541040589343534, -0.0065566349048914695, -0.006499021340677921, 0.004413392073666629, -0.00015359617634594697, 0.0032736122850288854, 0.0008671660042910326, -0.0010765990339313286, 0.007797653759758426, 0.0023522235027151725, -0.008866296235128022, -0.0011537432303771581, 0.00012283984461943954, 0.0025703026950427517, -0.007539889104345324, -0.0033217700421852487, 0.0007224206618461827, -0.006677475505048149, 0.004692092353801835, 0.01320172023378709, 0.005819190928562391, -0.0015822328507671313, 0.00985201107208698, 0.022327723747642896, 0.009809534951714705, 0.005286836486533594, 0.007334531929723756, -0.018590175868632552, -0.049576821406923606, -0.04418760107442626, 0.0226181579850753, 0.015542858446244378, 0.07534204667031928, 0.05840842590402711, 0.00018444745867690304, -0.0022859289020383707, -0.004381391385187457, -0.002838653251609242, -0.0010824320883836933, 0.0028943897886952873, -0.0015471533923211208, -0.0030098153827761865, 0.0021211173118379084, -0.0016965027285827158, -0.01373566568691179, -0.002479338625401251, 0.00462933414429919, 0.016765883718907155, 0.053182748740397474, -0.05785310708439695, -0.2727216541701873, 0.15267012322006976, 0.3762602740197042, 0.30212710641253404, 0.313644507752275, 0.3333433244155533, 0.23949545171736897, 0.34954769867848323, 0.4444154631354029, 0.5424367475519909, 0.2804989079776788, 0.14645687236835767, 0.10698383266597132, 0.14948939996190122, 0.04139455711915716, 0.008694916540948543, 0.004909241776688144, -0.001780817362666444, -0.00495740911950994, 0.003139896827093967, 0.0035700580568657735, -0.0026254227781380263, -0.016824379331056745, -0.0180509768539924, -0.0378717272098612, 0.01899018844439734, -0.02541523853266572, -0.31312378777511346, -0.33436460842902094, -0.13816572803699484, 0.04349162861723789, 0.10604631556383792, 0.16732267390662114, 0.21348068809974097, -0.01124473408524685, 0.032089862295497776, 0.2919423882209885, 1.2211351744020738, 0.8971449707337805, 0.4072542152546544, 0.29684179290281176, 0.22644109940441248, 0.11835397605034487, -0.039899429630358405, -0.04091337070322414, 0.000657912205649182, -0.006388671793021338, 0.00024013557183171465, -0.0067549752027295995, 0.002571745969387842, -0.0006575904598588229, -0.017853132701783913, -0.14130292580529843, -0.26981913532423396, -0.49240819517784745, -0.8682875494172454, -1.1659792998567267, -1.0226705501119868, -0.13897860216513666, -0.06110935997364386, -0.4782672002179472, -0.2050934908192246, -0.7505668346353082, -0.14353251684522306, -0.263253104839626, -0.023617786540277318, 0.19319015532599984, -0.049542263930054765, 0.2053938051613508, 0.15432818664848788, 0.18326839106321266, 0.1173340895725351, 0.044328414768143774, 0.012615751873302923, 0.006990482023106978, -0.0012399946610177487, -0.008612158403224563, -0.0076908124697535754, -0.018483350031495302, -0.06684012425568538, -0.30124745717564083, -0.5454779809995817, -0.6000147029774531, -0.31292676438288225, -0.4894724919887655, -0.33083993097511355, 0.8076787148233651, 0.04318457316708754, 0.07111879673692097, 0.4103677698292177, -0.6647251771027665, -1.0456712958135879, -0.3918563428459158, -0.8960796109848035, -0.22344874880176263, -0.3611674676882303, -0.028460664051979046, 0.20071657224776016, 0.3654331864075083, 0.22427420178808294, 0.09542848810229046, 0.07340562929185938, 0.044546674458850306, 0.004147240724722509, -0.0015469864366707056, -0.025163649935558925, -0.08470080767910587, -0.18790398310432546, -0.4680090485355496, -0.6890705780628302, -0.6168945944744412, -0.3940593560269951, -0.844600868855467, 0.13105279875311646, 0.07392996127329936, -0.1445118110117307, 0.09062923557886472, 0.2806918600090777, 0.3631418160445805, -0.44916339895102153, -0.840115188605993, -2.2034317966867087, -0.42005987217204965, -0.36413957744965797, -0.28067161065976143, 0.13831596213960293, 0.4434498449145039, 0.7710574768084479, 0.4979543667924381, 0.19936178301273294, 0.10715023127630824, -0.0029091594619039957, -0.011077597932084942, -0.059401254892716845, -0.17480139724549654, -0.5400727465084356, -0.7220321908338572, -1.0180597044531159, -0.4347825991323344, 0.23869061577369868, -0.300621459865612, 0.7763321758562542, 0.8440980959537705, 0.04044423244137929, -1.0058958445851134, -1.5209429313815488, -0.38491218707957314, -1.1691833891017993, -0.8749542850662956, -1.0178597040570752, -0.1392798392174627, 0.06861076306670444, 0.4375072664720199, -0.04723586634797949, 0.5767946371478155, 1.148106744803993, 0.6350105217073447, 0.13470365130927103, 0.03127936886486694, -0.0008821808535715784, -0.01665775611072815, -0.05903338104764617, -0.18286559215132706, -0.7078439488688492, -0.5876779053242361, -0.3061166321432849, -0.06963270390302667, -0.19192133599505135, 0.1871836244529786, 1.094934761399554, 1.243124511251938, 0.5050858546382954, -1.0367630686661058, -2.3043846344424206, -1.436692288024916, -1.244031639834145, -0.6372071815115309, -1.0046272093569393, -0.5938166629299485, -0.4931072824084984, 0.44316713930359497, 0.030920057764039766, 0.6092003567795632, 1.6268247132068343, 0.8009362232525643, 0.13442790638860233, 0.00303715981611004, -0.001537822592923374, -0.01858665200805433, -0.04805711141592589, -0.24770565806054942, -0.8921552116749045, -0.5450601598963454, 0.053693495796950465, -0.09978806982884264, 0.305314638099665, 0.3458228034437113, 0.9962673938737735, 3.0593759350864573, 1.5427651505214612, -1.6827491335441407, -3.466165615041753, -2.8838092549246075, -2.7573095997769794, -2.0610124623055612, -2.799960007383132, -0.7683384276628328, -0.029626781186440507, 0.7315100190934675, 0.23316769416945143, 1.0608911993756585, 1.5811072899974408, 0.7847222582525861, 0.2099740912518612, -0.005139611603403899, -0.0030294510881984605, -0.014838428709795756, -0.05544987320802076, -0.4772423233517281, -0.6667274070759812, -0.18159780395920883, 0.5478532283157785, 1.2728547595359894, 0.9371465616240823, 0.8811689926516111, 2.5362938883996753, 4.034695563763394, 4.653067755738007, 0.5060986468834209, -2.6153538322978007, -3.7985777477661804, -3.8852700560571027, -2.739539935669161, -2.16155160119741, -0.832330969902509, -0.7345783581504979, -0.2626637519053881, 0.7098165029014434, 1.3879414924690983, 0.9788849791432283, 0.545705884284759, 0.11979718114484082, 0.013450770244828329, 0.003400482206496316, -0.007200635273779966, -0.06037416773870473, -0.3349276834856548, -0.39437150419546413, 0.2769345608551872, 0.9079451013699575, 2.1355580712073676, 2.1697882501090158, 2.2343295944715957, 3.4521729375133186, 4.269152340775594, 5.098555602066575, 3.5768438361865034, -0.01108142647575909, -1.6755514494041617, -1.3333328405891272, -2.1165192440823453, -2.3799211289949795, -1.396610852156155, -0.28992170682026114, -0.12729567497460798, 0.5776770237815511, 1.1420375099341922, 1.037195172933697, 0.6053650391888942, 0.0319158593518277, 0.007743190469473209, 0.003203573719678659, -0.04299560882613808, -0.0942103438641715, -0.17026226001739378, -0.11911656820746899, 0.025002592745415615, 1.1510121220373402, 2.6223301163561543, 3.1232717513030552, 3.009869232861605, 2.3747731793670477, 3.3363085585088745, 3.7073309059104287, 3.7151032895220357, 1.213235171667235, -0.29913334815307113, 0.23262384032351932, -0.7927799219367853, -1.6724132602034085, -0.010867781983124568, 0.901674386657002, 0.9680874501160892, 0.9910013434986259, 1.65269553905846, 1.1076382420513202, 0.2535139163682688, -0.016476439664509627, -0.011589856630697485, 0.0007816049202952505, -0.03792164776312889, -0.07557790858094442, -0.08211342687969095, 0.01453401164015485, 0.10286770579267354, 1.0911450850639313, 2.1041820755710545, 2.821538754921517, 1.5521465797818803, 0.43009478604933954, 1.610864527949241, 3.1438296061519595, 2.6257256866373466, 0.16081216900974282, 1.5302550417626763, 0.9206391745474183, 0.29925975380877556, -0.029064294652277032, 0.033323285017383575, 0.46896154050891414, 0.5594322527589973, 0.8535539935381419, 1.3032401077941569, 0.6291361111050209, -0.01623718323473166, -0.16496559900478858, -0.13296140934331194, -0.006384642332563221, -0.00864374351185877, -0.06789194097612765, -0.11971770379451996, -0.04050355876359028, -0.0843048124297169, 0.609907260570213, 0.5380434017507059, 1.7963412427105627, 1.5983865495828546, 0.9468723185109496, 2.0940801696876354, 1.4028904302438885, 1.4170579938081072, 0.8801383974288893, 1.7284289427663202, 0.8504013022454263, 0.40821609159335104, -0.7649294988472399, 0.11648136682906672, -0.5917508366719532, -0.27534212687178117, 0.1732453029708408, 0.5710732883603751, -0.0021292279296867846, -0.23106227140006802, -0.20291835169505618, -0.005626929652607038, 0.007545401478881618, 0.0019364876946628147, -0.029084273292798585, -0.12389380231718425, -0.17455124301868635, -0.6418741686950082, -0.22332669987413414, -0.07410136544611168, 0.33578542947932394, 1.4935932026760854, 1.8743144463240848, 2.120196042854054, 1.0938409403358627, 1.0723949015517293, 1.4240659274376293, 0.388928492635599, 0.6707972105133377, 0.3464217118425243, 0.23996866982504378, 0.13840512954231157, -0.6192975696178904, -0.8266494425631411, -0.27691945978254673, -0.034874026398269815, -0.3251397124839798, -0.20516803341833836, -0.17365404330869508, -0.0021991228178774363, 0.006149792948885582, 0.0068878603413846376, -0.020065314493651593, -0.1377809046252076, -0.3292803475702488, -0.7352573138054802, -0.9993377381693965, -0.24599430211777448, 0.36652933737840104, 0.6108402147428145, 1.5979810688709724, 1.703923972828064, 1.2344848974372742, 1.5057335542788504, 1.5224985037366598, 1.664703925466764, 0.7765995224260145, -0.2723098255635219, -0.43676671902096664, -0.8782713450089913, -0.8874724399974586, -0.6590397760385404, -0.3628645505388943, 5.068450215624647e-05, -0.05252978372393061, 0.0036941891270706596, -0.1537044022968299, -0.005846110521202362, 0.0018029321026216765, -0.0023092471651946314, -0.06816681052462263, -0.14311540847436502, -0.9126021476251177, -1.836169469296847, -1.5992701036498376, -0.7220232859116933, -0.10554019247293271, 0.5742876072268434, 0.7097639342784022, 1.0046645732188064, 2.0211561568899223, 1.923588633637509, 0.6476118455416049, -0.8343421251899155, 0.16732828348706336, -0.9723253896712009, -0.8118871773948981, -1.2128668927808004, -0.4943963823519022, -0.3075016883310668, -0.6631013811296053, -0.10097189516245046, -0.11605878961275637, -0.4644032072492612, -0.1471914541032984, -0.02334589146067556, 0.0011498459280609788, 0.004468695388517807, -0.0759866743557877, -0.19129928541226077, -1.5367655177113155, -1.7886713376769336, -1.0265642591563828, -0.5108810451550811, -0.27215229875740876, -0.40910149675857155, -0.9705563091069935, -0.6978398996730231, -0.16792622080946165, 0.5014952136411068, -1.4229004357847277, -2.296307109671512, -0.8793893012506254, -1.2816636466103508, -1.2916679712892292, -1.6990468788905584, -1.0156233398244177, -0.7741000620592854, -0.21306748685629412, -0.3402695161290857, -0.5120790722149842, -0.7219350896966503, -0.18540775464377043, -0.010295317287326449, -0.002592264920938653, 0.0029781560316755233, -0.06349109924081306, -0.3385903601799329, -1.602783941624444, -1.1934814159381146, -0.6828281645693977, -0.31723843182432093, -0.896974329384331, -1.0893800752475264, -0.792313773835165, -0.30991451305757833, -0.7170496652622722, -0.9369115010406663, -1.3937852536110937, -1.257549184709096, -1.5877530814454726, -1.7468736279542922, -0.6463356374612804, -1.4556154707205358, -1.1843885031481378, -0.462024532304708, 0.13460461457729245, -0.19642215061117718, -0.3067074474123638, -0.3929687333088036, -0.061118019710428295, 0.002094290239672851, -0.007805757634281353, 0.0038210921732148963, -0.07830052529472216, -0.45298898212586136, -1.6491128532053971, -1.3367725095019851, -0.8803199938545554, -0.755934565813371, -0.8786679613730867, -0.6364651094869241, 0.47042572883804634, 0.42155022440787693, -0.01654111932066968, -0.6634476382424472, -0.6938862417088523, -0.3651460659220932, -0.5199709340821359, -0.4847213404140247, -0.7180756324367511, -0.6437668890554091, -1.5148080851377188, -0.14705841099770076, 0.03304679508526049, -0.16342243158035585, -0.28911703589053545, -0.25259999075627515, -0.028781537971188854, 0.0006468451783758438, -0.001582524288804766, -0.004830091336649701, -0.0361334004853939, -0.2576406808373977, -0.7900773840201887, -0.9929672275811416, -0.5806498504206818, -0.8390228222988276, -1.3993860147820327, -0.24670815962553755, 1.0192680760730954, 0.7039566360180959, 0.07108069627881292, -0.8931858248500636, -0.5323946482678508, -0.16998726695778413, 0.7190968921594302, 1.301125703026977, 0.39533574974548175, -0.09497826964648881, -0.862827727871168, -0.7616947328544778, -0.31483498843621066, -0.17378473521016788, -0.1975917168436516, -0.06215881853755333, -0.007970056535016718, 0.004662048366046975, -0.004716310075057968, 0.0010200783227598453, -0.026652870783670977, -0.151809367836115, -0.5460675184122561, -0.5697828512692823, -0.38521090290804766, -0.9432697773697419, -1.1246893530270603, -0.5851030061829077, 0.22771240733316506, -0.6159658953109685, 0.23688839717844828, 0.32404100805633235, 0.7325287824118898, 0.5055439015444739, 1.345774721797282, 0.7766569136957611, 0.35134523483122243, -0.22202729618651096, -0.7241995380349496, -0.7527366217550353, -0.5090325617270097, -0.2951801009816844, 0.003360886338036932, -0.030662368533098155, 0.000618329914080076, 0.0008145826617338403, 0.00705126226550454, -0.001959383252374684, -0.008923148756544557, -0.09457474119848558, -0.32993501417484444, -0.24441744758620182, -0.5110131741180248, -0.7863201047430631, 0.43190162873982096, 0.3037343626677507, 0.33118472584608477, 0.1078850393744209, 1.041694695077791, 1.1279076721252872, 1.7148831558393118, 1.1595783102171295, 1.1784276513625582, 0.6365381577291033, 0.3472859289039498, 0.35546613547081907, -0.13556690207224262, -0.48598999301709, -0.10672365714477745, 0.007177448157631403, -0.11150453512783975, -0.027494020913929242, -0.009879671220084802, -0.0027178200193583215, -0.001811429342470901, 0.007080651932117102, -0.003572430768191321, -0.040426398514831, 0.024820683614148516, -0.4627471741039174, -0.9164938806803659, -0.8844639887400747, -0.05235569546985766, 0.08962487769392609, 0.3019494203865861, 0.6164354190144367, 0.4842655065009933, 0.8597578460121917, 0.6414176852004042, 0.6698573060989281, 0.40612113301764896, 0.3870694823398795, 0.8239817666263154, 0.6909849232424665, -0.11740413793518895, -0.1788289091804391, 0.13331405397467774, -0.004049794132820456, -0.1868044457355456, -0.15060814202810596, -0.06742069268264883, -0.003392351859115496, -0.007248356895608577, 0.0008944516394732776, -0.0009521545668318374, 0.013168002094795662, -0.17166140897444795, -0.5682038960666386, -0.5122965870017219, -0.32236683645764325, -0.6182114809721113, -0.5240297555094073, -0.2749312849062543, -0.08152733029981045, -0.11119101296175989, 0.08436603835099891, -0.26399054750199197, -0.47738183616151725, -0.48482010100863693, -0.13280629033034394, -0.16916488006180866, -0.09474364091204898, -0.12962305208340974, -0.06469597547036633, 0.021152770374451027, 0.027101094866074392, -0.003279633114993977, -0.058982858292505866, -0.07628272505709943, 0.004790508705704545, -0.006074044775679526, 0.001704206584743995, 0.004279803538941372, 0.00447727993655863, 0.005535321342203246, -0.08560791927068562, -0.07680518472621599, -0.06568645409540277, -0.1350852757720097, 0.06273887869034728, 0.05306638654233826, 0.060560364668428554, 0.0761635926284805, 0.10231162976792282, -0.2653079956262352, -0.5654821928611672, -0.4891865519528495, 0.011250044555120301, 0.028269587332896647, -0.0006946144492387019, 0.03482794638812447, -0.030955260210673845, -0.0004726316271033988, 0.00924631470782369, -0.008988954382112368, -0.0017337319215286055, 0.0016487578058894032, 0.0025196610706080358, -0.005323746501769662, 0.00027453980555135806, -0.00010239931568664805, -0.0014354323875787529, 0.0008692108583725904, 0.0031053170040000653, 0.00043014380612894546, -0.03508013772002302, -0.03470033611235471, -0.009138004798990929, -0.023248625639760226, 0.03645446447984892, 0.026504976116202, -0.0347419900989003, -0.011095211009586572, -0.034210163544658154, -0.07701781176267931, -0.01919655621129855, 0.017437599162744715, -0.026687312053815897, -0.018070985740843065, 0.002084826905680106, -0.001636332096522443, -0.0020483932061242482, 0.001832813764057783, 0.005212313202571371, 0.002472210806115702, -0.004136364994676051], [-0.0013958501930435574, 0.0009094638452116419, 0.0007394508182818341, 0.0011611284521375444, 0.0003146990737410603, 0.0030896994159911864, 0.001477518805909755, -0.000851101352453577, -0.002292882370159852, 0.004410406482781117, 0.0010799934679095826, -0.0016402653597131548, -0.0019455491549833861, 0.003264223208720288, 0.006680124732376893, 0.001993148552960674, -0.00822485077605688, -0.0008791067727617032, 0.0022890700962896675, 0.004593760755881283, 0.004227649305597061, 0.0036618344960870014, 0.0030292698400334337, -0.00027249609978320844, -0.0007774297840537011, 0.004918486392263542, 0.002047483762476371, -0.007698381158767166, 0.0018235766198478622, -0.00022393848189727707, 0.004804914198421796, -0.004867475340549632, 0.006565743920896941, -0.008584880604597422, -0.006460041760618879, 0.012925394557885918, -0.0029926935539266297, 0.0005133976138402261, -0.002510630953421774, -0.0011599015837411317, 0.00034420355599711186, 0.0031030748169637605, -0.01136740734549786, -0.030147480297246763, 0.000396705008434144, -0.00245923726347137, 0.0031921986992441065, 0.004931752944132445, -0.0005632823255289182, 0.003226998943781657, 0.0011201639805519048, 0.004739130501674793, 0.007387463087670404, 0.007127326643178811, -0.007608909994173226, 0.00010348571970955778, -0.001312240531641868, -0.00038047408649766033, -0.0013636087099938242, -0.007658926039271081, -0.005019595121975536, -0.0004207039595226086, 0.0059226146925977, -0.004878895903687858, -0.05551861553485779, -0.12863868734049014, -0.1807024465582963, -0.04627714802661345, 0.03568061879475141, -0.13407900970076855, -0.09955710628449745, -0.24025419325160532, -0.26600919704271314, -0.18457428718113814, -0.16336323835231345, -0.23366010267777304, -0.14829494051927083, -0.07746269495728608, -0.029214741880042625, -0.009997664116725457, -0.005012532064692977, 0.014686691084159174, 0.009464260118275013, 0.005350002879135158, -0.00036076222993755547, -0.01125463898304105, 0.0005911529522574371, 0.001101574328514793, -0.005063218844057308, 0.06675404620250065, -0.03355504193406929, -0.08846892894365495, -0.16718978099351778, -0.3361741876849244, -0.4201041234421237, -0.274871001743886, 0.01756054270058149, -0.013253172216557082, 0.14921273255326856, -0.07706568998631524, -0.3721089724262765, -0.005533091636786801, 0.07857501436035397, -0.11524418622145714, 0.44536199935880794, 0.2091930854142626, -0.07267298860295693, -0.026379972847338635, 0.05177499164828799, 0.006806238007966237, 0.0001811854644977199, -0.0004248758499668136, 4.6960139957883246e-05, -0.009419965456214327, -0.002397261528287758, 0.012326133787099281, 0.06758995415648368, 0.14355511017931033, 0.01659849267831736, 0.14758847698484595, 0.6354521783154629, 0.4844377791431325, 0.3315652020269882, 0.10505489655085302, 0.4471296537655226, 0.5412107130646675, -0.048534847566551007, -0.033161081178880024, -0.1397491509617062, 0.0347446424125365, 0.8897361504709842, 0.4099889428947217, 0.1672000957816663, 0.2044158093018908, -0.02594487905698547, -0.182312279428454, 0.07194998838100443, -0.010601157450830115, 0.0006085575612798464, -0.005274189344541416, -0.009666534915538616, 0.009102459589818708, 0.0013358921649761905, 0.08427410808619959, 0.4207075250690526, 0.7960605068565426, 0.8328304992367518, 0.8765734888517661, 0.7772997466366061, 0.40016015372040437, 0.17076463924466628, -0.4754647566922093, -0.2657263349620282, -0.6044675018925997, -0.433350397678371, -0.12733308012490901, 0.18304980659575196, -0.6184850303358941, 0.023337143751864884, 1.0954883744887622, 0.7009611105070997, -0.1884355807200161, -0.34455374241938996, -0.47629168605947525, -0.17447040155918003, -0.031244205646653648, -0.001757127478179356, -0.004096013434459292, 0.007111580623836746, -0.0010167976033230409, 0.02308616925834376, 0.15187184135951382, 0.7661663351740724, 1.3879846819045143, 1.4913033218262346, 0.6738817274235196, 0.6088127057952064, 0.3806672131251065, 0.49270892587273624, -0.28802749880617406, -0.15377065790073877, 0.37304316438313745, 0.6538036283765266, 0.40556259840888753, 0.1637576453516203, -0.4754846747721888, 0.10816028253929091, -0.1879528506535511, -0.35993010611650667, -0.7934058256870644, -0.9403732231185314, -0.656501145657501, -0.043007156215438526, 0.08351744900132205, 0.00918409369870543, -0.0014718154598120838, -0.007773069283361161, 0.003541555859264476, 0.011014133969275766, 0.3435621201502664, 0.9866581064748937, 1.3375077832734827, 0.8406284175526106, -0.4531649037935499, -0.43065811076477356, 0.25628874512058003, -0.3718372796937772, -0.6931849199655019, -0.5396561477683267, -0.20478578494792288, 0.5585769621739197, 1.1546310511592333, -0.19556318740062384, 0.012701163873461097, -0.48830423153595504, 0.4722255434076194, 0.09970419258616468, -0.9709232583397486, -1.1898329320766794, -0.9779004615347306, -0.4922223033757175, -0.059717169562303045, 0.014096994697498127, 0.001603707517370327, 0.003300373382333629, 0.001792007772606482, 0.10505681043250423, 0.4199962005748309, 0.7815091711744109, 0.47058164367055877, 0.3780810639625661, -0.028917257506535197, 0.07280245973394872, -0.0019087934079511648, -0.42959852070148347, -0.8077628385049179, -0.804706347008335, -0.5953167794922798, -0.1957976112486337, -0.08663572630427517, -0.5861858555839535, -0.30201223210584605, -0.23392385316753278, 0.2137493154570572, 0.48314386198384973, -0.2311078369593749, -0.5672952035629852, -1.1892113956674877, -0.4975284814160484, -0.046548762091075994, 0.009316729419003097, 0.0013166602341429963, -0.006374600351022275, 0.00045930860563229764, 0.007632496875928731, 0.23581850975385324, 0.5079394759421192, 0.17809948947856977, -0.4020554007027621, -0.33443939314412724, -0.6752716363543763, -1.526742743812925, -2.28636698848662, -2.8063668068820804, -2.031298667454114, -0.9625119618105232, 0.2736235629599457, 0.21934701753700533, 0.22908086391498295, -0.07266203297269577, -0.6897712890926847, -0.9531563070054769, -0.03172313245762474, -0.18016149500220607, -0.3295546318564753, -0.5535563696253363, -0.3679460752451597, 0.005301719964567469, 0.00863150945496317, 0.005794872335620237, -0.006357637950051376, 0.008133962583514452, 0.03194395535973135, 0.3199697373262106, 0.04599326264626924, -0.499041937735408, -1.4569848136595016, -2.1222248474933654, -2.974507292276453, -3.050245985748275, -3.086863190773534, -2.337302998827674, -1.1895864903128806, -0.011009782984030115, 0.5940756811939908, 0.21242457067228177, 0.6962873959280024, 0.45209010943735045, 0.025323630824454397, 0.2713792566361024, 0.053309553965315296, -0.03685006366763383, -0.2849760087808232, -0.5695069350534037, -0.2571626717788915, 0.06277731272748996, 0.014182511529197315, 0.0020161549676599696, 0.005893405373150683, 0.005537475075163027, 0.03918908931300165, 0.16356933025438833, -0.1984982145789683, -0.8435772551008419, -1.74506801862353, -2.2482620472696593, -2.730537431978588, -2.4258223440709443, -1.3849451972721751, -0.3226022745636534, 1.3231327746533814, 1.8548658460403111, 1.9172760244598095, 1.484455597118184, 0.8726123918674986, 1.1318316432826807, 0.6357396405765254, 0.2503752314520342, -0.260139919219975, -0.7056326069236646, -0.9723571983827022, -0.7349849641283595, -0.14472805301711145, 0.07894047067807701, 0.029499683745418028, -0.0006935577888200164, -0.007071544035342276, -0.0010044904510688151, -0.011830248041724294, 0.004995288888582105, -0.20301449383700046, -0.3839048494996872, -0.954551970741728, -1.0157511128126482, -0.7012807306489167, -0.09524662411854964, 1.2883740902435628, 1.6192641034080861, 2.3367577724691184, 1.3019320396245637, 1.9990764219919503, 1.311357693739394, 1.3071685676359257, 0.9211254142430798, 0.7590994741978738, -0.2510531285632992, -0.8834798937284025, -1.5186659417155328, -1.377621822732961, -0.8109440185726375, -0.30964976821100854, -0.0015503906988562559, -0.0022481970294945656, 0.003159797959432035, 0.00417332758214007, 0.0028216303457875, -0.006419380546209146, -0.014367638581823475, -0.11363177726581887, -0.098918916778383, -0.12320272707328925, 0.193578332763515, 0.6017532557511128, 1.0925961694672102, 0.6577112759902227, 0.6855514682754412, 0.3341381769689158, 0.32407926933860687, 0.42258818668242903, -0.3771279058076768, 0.12947268800486444, 0.011746455398524557, -0.00220971060133468, 0.1783273035608864, 0.1847331064450126, -0.4123707388568061, -0.8924368133746372, -0.701791126178969, -0.22524868320963273, -0.024763750253094595, 0.004794954081649102, -0.0038962953604004306, 0.0035001758441160357, 0.013133083592138172, 0.0036336516094273496, -0.04607405642426296, 0.010211397853760018, -0.1735696983613817, -0.41053847735229004, -0.47187567531984764, -0.1678191119764625, -0.34911470845046677, -1.0064192867578479, -0.22423444661490455, -0.03956552445443089, -0.9032843504164595, 0.1551416925756649, -0.4355100334284674, -1.747178475692191, -1.0264238777560935, 0.013861533706441241, 1.1381552921919929, 1.1314985911003743, 0.6698679380231718, 0.264391405867007, -0.2552228280064206, -0.11929204679547724, -0.042390402148713674, -0.006584849633108061, -0.012251876222924578, 0.005870401125362464, 0.02515872044107496, 0.10239209071837087, 0.14981116975998787, 0.3126897554983137, -0.4059398199585825, -0.9923980245687961, -1.6148888348949426, -2.703775762437155, -2.8933638030265456, -3.0304547335089693, -2.1038395947358883, -0.5089413759308816, -0.3703259950830775, -0.2424390343104331, 0.23814718856533726, -0.4448538421523667, 0.23949370790009483, 0.6614358960963144, 1.4532625770125343, 1.1526005885134747, 1.2577940071056686, 0.5433428298696881, 0.290184836130513, 0.04095997327551696, -0.03718308952551898, 0.006656662035613576, 0.0018154258439008095, -0.007155707503799626, 0.006473410289675469, 0.33371012525991584, 0.7546569592977191, 0.701915202515348, -0.22243902520118747, -1.0828537761653676, -1.1886046968527577, -2.760681414574917, -4.169527814950279, -4.27212543930595, -3.6181770451631117, -2.8979512911918337, -2.0389972063824082, -1.6067703659627643, -1.0901413913578686, -0.17695900101037212, 0.5817191076316315, 0.8565396620389745, 1.1641402350652812, 1.3809764678686829, 1.3653458366496973, 0.8478432403432202, 0.06293356022796973, 0.12733254742879316, -0.059918792420979895, 0.000725867562009286, 0.0074818103397345645, 0.0006598842733196497, 0.004362736554393503, 0.37460211889829964, 1.3075506817870142, 0.9322622866900169, 0.35007755637809546, -0.21724150416855212, 0.22533989810394137, -0.7343834525291333, -1.9220442194517728, -3.340303578916054, -3.107747608614256, -2.4164953868168855, -2.2733211037450043, -2.032286594779042, -1.2246282360002267, -0.35042160386134785, 0.4197565742850886, -0.4476549739150202, 0.9989203139241102, 0.5985933638421775, 1.1324957212562834, 0.3363839190012225, -0.396467348020474, -0.7394173290732905, -0.2545637054589386, -0.036676392302745026, 0.006502643629785384, 0.0019224391749319964, 0.005604807157840837, 0.46216305606953473, 1.6887341527898367, 1.218886862799917, 1.0718697715374617, 1.1992079260095398, 0.7616623425466718, 0.7365334861697349, 0.5450138100607871, 0.24938991841047403, 0.6516767541703796, -0.20500659823060027, -0.4593782162048335, -0.7801981666227391, 0.17347740837563358, 0.45869992906886464, 0.17108515315382616, -0.42263768309779093, 0.7423816946028454, -0.05111856661679314, 0.42574465818115936, 0.09529592295077732, -0.5902438425233691, -0.995381531747103, -0.18404710530620105, -0.009006666016003355, -0.0019063380649008495, 0.004680905017053898, 0.017863294189905007, 0.25721759867115224, 1.5773058478477284, 1.0553748578538245, 1.2828350556183645, 1.395126061974804, 0.3836895219949552, 0.42815551615359787, 0.6612657700904752, 0.9776737700986985, 0.81361189980665, 0.3521532564450052, 0.3618485260097933, -0.16662105685909984, -0.6104654281830886, -0.6594743476616669, -0.3056660407492968, 0.0400624108510008, 0.5446736824787795, 0.07904398979818439, 0.33696641105669023, -0.2853506318083483, -0.9119980089984812, -0.8283521501346343, -0.1759972204151925, 0.005869450754792958, 0.007025136225567903, -0.0056811943290906025, 0.010173027978439806, 0.07206378277254831, 0.9386156207312204, 0.8094354801377118, 0.5412507013662997, 1.0333424934062443, 0.38923522209208256, 0.5590047519257858, 1.220266779336974, 0.9176359013032123, -0.17672304138989584, -0.3228440550970848, 0.4131434413004026, 0.0925223903437257, -0.8197173825889693, -0.6178699096529643, 0.33186464212393074, 0.2118598351526584, 0.06484539572946196, -0.18737450923979654, -0.06524734862616782, -0.3807191794248752, -1.0351066710009906, -0.6127149657155142, -0.07974114149071353, -0.0006365230690796253, -0.0029727764506752605, -0.003886701803202842, -0.0017546447826806612, 0.07313994209803996, 0.5078431950183737, 0.5777131183745216, 0.5739592446668508, 0.31128650128728297, 0.352889918463433, 0.5232307670936894, -0.10283134648899993, -0.055536142694867424, -0.8632364067853824, 0.14967001218302262, 0.40936301945019904, 0.23574827259762046, -0.7622370925370728, -0.10251330056255124, 0.4383792573403154, -0.1951286685010141, 0.09259597184904933, -0.3194031999036254, -0.6135458738222808, -0.8140390505523157, -0.9488192982215611, -0.41934098243007195, -0.047547564063306895, -0.0013407241995053692, 0.00025348085006301753, 0.0034431940531606327, -0.0006089989398772653, 0.11558109147995456, 0.3482911115430135, 0.3436892247195866, 0.01611995248477169, -0.5192268474138706, -0.35266907092465816, -0.6988480174659605, 0.2917709494782341, 0.04035455915305337, -1.2609067497579198, -1.4938685651896952, -0.586400780405467, -0.41576239014479766, 0.11568286433640798, -0.013110034450848025, 0.19342458459714368, -0.20721825361567742, 0.27477080260711195, -0.16956661180821586, -0.5884848105352484, -0.4689308045244759, -0.5003232909980497, -0.23258090195915712, -0.059737501924562765, 0.0020566676373326193, 0.003340043937124518, -0.000727586231295114, 0.011593403243851899, 0.08082359056499062, 0.2795527244442925, 0.5198351877304259, 0.7335784970020933, -0.10890625376146067, 0.10869037471014162, 0.35756573267812697, 1.1484227837166106, 0.3307682550334019, 0.5104143982088439, -0.2669294966397104, -0.868389327835584, -0.8269012298302136, 0.11650643423688671, -0.25634995960218726, -0.28463427268470437, 0.3361079252282565, 0.3633483848325091, -0.25481526814127287, -0.39720620856078437, -0.3603051526853026, -0.20784878733029255, -0.16511611333194026, -0.07256539225534102, 0.007694640800139125, -0.010021149522154127, -0.00768256278567033, -0.004601852287046393, 0.09405920425332727, 0.19540460809168345, 0.3576295313863345, 0.7136663720295952, 0.42613042541255247, 0.2863181494740316, 0.04129835698641818, -0.22549407130315127, -0.7552977819249179, -0.14324562983914788, -0.005876431525161791, 0.5938555139907257, 0.39270377671305756, -0.12779243841157586, -0.43046550415645035, -0.32732365642314526, -0.5802924375912836, -0.7430694888800156, -0.46119207025896125, -0.24903628519075893, -0.12881430144908074, -0.029195331416737316, -0.004158288161095117, -0.005798495443250639, -0.0017050035771333457, 0.0015706381429617215, 0.004599154973095691, -0.0029916961543829594, 0.004178394501066864, 0.0299262390859044, 0.09616077082691264, -0.0006675364915465385, -0.20430876119440392, -0.2606866925850851, 0.019527681701054577, 0.03937671422760154, -0.17227332996480335, -0.07792515291577645, -0.17236816287849033, -0.14395184277163112, 0.16342464240652677, 0.14274765624121727, 0.21270810305340493, 0.08435759133538194, -0.1632916988346364, -0.033055843304657356, -0.12124049192157163, -0.08522886760905192, -0.04708924122274582, -0.011389409914643574, -0.0022654015804497276, -0.0067428343408701685, 0.007120600847215928, 0.008225306464689257, 0.004844919346840561, 0.00045140081055997875, -0.00047165256505058193, -0.006283946020050145, -0.012692790994080314, -0.023978266192222236, -0.0283050118460162, -0.03206347327072738, 0.016532598284777558, 0.0294922931374979, -0.04401452944842688, -0.11840293989485995, -0.12690110606858054, -0.04248392121266917, -0.03952963204794549, -0.027133187553330784, -0.055075907948881564, -0.04748658911768079, -0.050109310492707254, -0.030314614899488453, 0.0005690022610656145, 0.005466220713479351, 0.005768886065966407, -0.003571387021645928, 0.005788005617388585, -0.00023113585575363754, -0.0039844226599704494, -0.0012230545556968153, 0.007036697591444883, -0.0011201798142122948, -0.0008616478986138051, 0.0016322897914415695, 0.004874471179566168, 0.005259653028009761, -0.006471211108120759, 0.003434860499008989, 0.0008676783483544125, 0.005950103488167563, 0.007842139600672458, 0.0042756620736605164, -0.002075158346396485, 0.008961050943489502, 0.00872879330832206, 0.010768123960909027, 0.010642699909937537, 0.0016344298984432327, 0.004187897425693894, -0.009076841584645015, 0.005214883667133979, 0.003728930133671907, 0.0016324140224583978, 0.00458372735529509, 0.0003893074205483831, 0.0013979882125695028, 0.004717966907611278, 0.00010787384597554767], [0.0018351929177976328, -0.0017388585735320435, -0.00015286962715912515, -0.00455859997465974, -0.0005888514243041699, 0.00159896669307107, -0.007818125845571216, 0.0029976761095189407, 0.007445375649643757, 0.0020808326132198502, 0.0019795439710266084, 0.003162076308826922, -0.001487824927162537, -0.018483392462004596, -0.02211146111880871, -0.0032364013452449605, 0.0011438714525482236, 0.0024488024392530765, -0.0038086316416544464, 0.003958328652880137, -0.006137248680695946, -0.0009889760728973931, -0.003104816301341959, -9.836149305448857e-05, 0.009230787157036392, 0.0054977999067107215, -0.008884731719832634, -0.004234945000101358, -0.004125856401085669, -0.0011684911150111918, -0.004411126627600924, 0.005360766203916189, -0.0030329499831325503, 0.009701121567170116, -0.003591801243404778, 0.0034401100117117983, 0.034110457751291394, 0.029070662031782036, 0.06720240035010518, 0.08899144452842374, 0.09042179675734323, 0.06544024775655805, 0.014233605665616747, 0.01173213534047736, 0.007935150317204726, 0.011676211666690892, 0.0040070148552439865, 0.01315918237841632, 0.10563973702162989, 0.040050904330998525, -0.011795479356282954, 0.0017649680769732785, 0.001902035319319703, -0.0010829510484169495, 0.00550031171723598, 0.0024031495249149637, -0.003975302702751407, -0.0031839934981986377, 0.003951803716296716, 0.016404639062480252, 0.006516213398867301, 0.0011050959191374315, 0.005505629148198853, 0.04234459878833963, 0.02720202000759053, -0.04230145786598933, 0.13784403352075605, 0.04336726310804403, 0.19748610836688313, 0.49839741021897593, 0.5394457523619651, 0.2866506051655967, 0.39274461126370613, 0.42911716587781273, 0.511714950572371, 0.3164438361788764, 0.1588366183246315, 0.2064765670894844, 0.12200677572691895, -0.0006167974404430034, 0.001987811344490631, 0.006700174893142473, -0.0003280121003462934, -0.007770803077817267, 0.006637328144840391, -0.0005986743486506585, 0.002711729137044362, 0.021509184227806327, 0.012366054533099696, -0.06820244326636121, -0.07017039181234172, 0.05492843975812355, 0.18360390012845687, 0.14482855051067903, -0.04913549823540357, -0.08815079743440289, 0.04777218891428555, 0.09512047016470662, -0.10155204177086714, 0.27539358694790683, 0.4852789178339184, 0.5679299940485643, 0.8402472936813593, 0.6262425859220803, 0.2058304910556656, 0.2665012800741578, 0.15561084155475108, -0.03599383132504941, -0.025776055310505308, -0.00802710581787688, -0.0019011701616205034, 0.003234238283771707, 0.001758840770914242, -0.0004179395317215509, 0.005785103767618864, 0.0050661414998079855, 0.013610492038329404, -0.044048315853047554, -0.21785222491160278, -0.1021318337485263, -0.17608380418313682, -0.4565675511880923, -0.373103491047303, -0.34884000352703637, 0.0032200640650489137, 0.07585970886603861, -0.1651041065085828, -0.11967672754052228, 0.18911001739121155, 0.3798198413884663, 0.16751084061518184, 0.0699182658238547, 0.05795071357116593, -0.13202531797477943, 0.1786006631164134, 0.019703591171535743, -0.08254566088884221, -0.020864587613208765, 8.029602639746981e-05, 0.0024023848179575784, -0.0032527083029291275, -0.006806140582990518, 0.005374657031546458, 0.06147693010942974, 0.12453394744475432, -0.32660698899272633, -0.5766615662391512, -0.5737034233484937, -0.06045284565970723, 0.16690191618545608, 0.2874063767258018, -0.07128778591362153, -0.3247386495457938, 0.38229091457392844, 0.41675211897573705, -0.23910142381757843, -0.7569667321538761, -0.5713736452317106, -0.317581485029006, -0.3458657232162713, -0.5077987848802931, -0.14779502068704964, 0.06170001201527291, 0.2620965809708291, -0.08832035697264232, -0.03568893960903733, -0.009041059849481546, -0.0006913257826019219, 0.0037111238685028705, -0.00034814835808902686, 0.004370951861674526, 0.08884676087654698, 0.36128879869225367, -0.01656566385773028, -0.2592750876359725, -0.2407281380141499, 0.3208964371855048, 0.6272230988325583, 0.635157118759808, 0.17122037950424346, 0.3650202187561235, 0.7498662239084957, 0.03625894532339082, -1.0169857672225522, -1.3647895451462193, -0.8195831934777796, -0.08735463358906966, 0.014539754227032228, -0.23707852737215687, -0.33627387807732906, -0.18124067325319834, 0.08774197929205611, -0.1596719765554738, -0.07801642955844498, -0.012743011004913872, -0.0022424979472649063, 0.0045200299398887225, -0.0002636319466580374, -0.005143100530153267, 0.06566235733170951, 0.12508918672213495, -0.305834243152962, -0.4556297423910611, -0.4203214881340008, 0.09325641530583462, 0.5750028869090109, 0.29194744343504886, -0.24827224169395365, -0.016450647131758447, -0.42019702051377184, -0.821743980692291, -0.772988367133015, -0.9781681049489545, -1.2717511327312814, -0.30614585881029777, -0.279343985342323, -0.6146998293378416, -0.7272263611545368, -0.7627768073591407, -0.2806737521879039, -0.1544802435946329, -0.06644855982493257, 0.1257726471466874, -0.0111083949001493, -0.0004229041295802436, -0.0015460114982433612, -0.013496865321394123, 0.0466608355184378, -0.2642331723583356, -0.6329109349688673, -1.0737677230810818, -1.0450217175048093, 0.2804003726985695, 0.2320954112482293, 0.13558664120473898, 0.5254139894030667, 0.11885378486893801, -0.4898136171492019, -1.1727665200060848, -1.6693243089030634, -2.5163464114200726, -1.9074860867766616, -0.9641987212923561, -0.6407812267359692, -0.8299719341277719, -0.8791012299632629, -0.7251178450907072, -0.19938747638558893, -0.11703646703746674, -0.1094727868049459, -0.03724348036355192, -0.02888697070735641, 0.004791161400851559, -0.003202583617380859, -0.02222392092678917, 0.09294297038522589, -0.08897922791064028, -0.3701170660139857, -0.3787432299474723, 0.35379153621435167, -0.06201735006123997, 0.43040412963798225, 1.581367160036324, 1.607351573652805, 0.3991862038901605, -1.2550508732550416, -1.0970877563857786, -1.2174120894218703, -1.6545608103512681, -1.2147924098739513, -1.0064152555211114, -1.2497949152420786, -0.6940812557384282, -0.9400448884163031, -1.3013977235769272, -0.2073559823696063, 0.02174824288762789, -0.26113167851029073, -0.11166911027490359, -0.007168379269075177, -0.0010059379524667816, -0.0026194284529342873, -0.015094361663011929, 0.39543540945834077, 0.48775900460153304, 0.6161028459956458, 0.20187818986806894, 0.7194044050934173, 0.3463736739374973, 0.8766649944734252, 1.9108038334981694, 1.229587051527169, -0.3162691015332085, -1.4106569273133507, -1.2469727109915933, 0.11286505989149385, 0.6099968655992939, 0.7813468796390796, 0.2718837762672263, -1.2428121252535755, -0.9701500904142207, -1.489726902914807, -0.9762317126806374, -0.11612940516836434, 0.17312188735394804, -0.30268981626780106, -0.07458162552677705, -0.00613596688066366, -0.001763998540842789, -0.0021589958306323363, 0.07422401521844688, 0.6499198845371658, 1.1336149250083998, 0.26835978074021716, 0.6279235343697255, 0.6159557249300941, 0.054831629067777166, 1.302030807208447, 1.9481265055022579, 0.9121649207159842, -0.930993900307081, -1.4908689954203056, -0.57584539457504, 0.8973430965040323, 1.9964629618468235, 1.921085975577069, 1.53059641045546, 0.1906347623828977, 0.19663119101959187, -0.10671069947362458, 0.19556593135680694, 0.6115927056867051, 0.3643808730689143, -0.47660125039851103, -0.13254888155005448, 0.00039720889805601163, -0.0009014438613955222, -0.008853262902379545, 0.008130676012682492, 1.0835939104096652, 1.3516266046454761, 0.8029482673414471, 1.0858055816642431, 1.7948095649438103, 0.9700762594524523, 2.1872431657811258, 1.603931124697384, 0.1801338490547917, -1.6743741929131466, -1.4338166910287826, -0.7698401455579498, 0.4210431378715543, 1.4152977051591773, 1.0582728235268084, 1.2658558394688089, 0.6327473049954214, 0.006641981458334032, 0.12546459261216714, 1.0313175820459948, 1.6617969781763031, 0.6816576501489493, -0.46990918514443925, -0.18835998022083114, -0.02886281275419053, -0.004109459219528911, 0.008587339347101671, -0.0072443960455170296, 1.0319578094632185, 1.3334930595484826, 1.5885394728232687, 2.563882264692332, 2.2933534005235696, 1.3626333131869044, 2.38866034963773, 1.5136252326967456, -1.290065162105957, -2.4578267326505534, -1.870293468064957, -0.7451825609243133, -0.7311390796600152, -0.6474951067722573, 0.27877830782841756, 0.9658651918505227, 1.2683404172150254, 0.274107752430431, 0.489343776646621, 1.3882463094742306, 2.133994026352291, 0.7161104653237443, -0.37687632047192443, -0.26319162954734704, -0.241393905300768, 0.00626430170993316, 0.004482620175646214, -0.005093095521724579, 0.764904856420698, 0.9804357875913805, 1.8031418612666323, 2.506991681744608, 1.4199027138497962, 1.255748923571697, 1.3493651030741898, 0.40627551113035054, -1.5892885706035806, -2.830495941395782, -1.7390721817737127, -1.5480493481164384, -1.9606201092883666, -1.091172348416563, -0.19122897422834614, 0.5833018446636701, 1.6138139136032814, 1.6815510152697803, 1.508684254796593, 1.701636117998479, 1.8613205023363053, 0.7497820721952522, -0.34715775854040515, -0.18111820903635467, -0.00848930596147219, -0.0006044973376631079, 0.020670687779320664, 0.018252215431275823, 0.6390881117902146, 0.18956873497058527, 1.0222253479964132, 1.9412408894751338, 1.1593001675594428, 0.729118223807902, 0.6604370183951023, -0.45972757449433466, -1.566710013278488, -1.7437352072145038, -1.8448977138812857, -1.3933522794903035, -1.4473230111105226, -1.9358581124705925, -0.8506124491398775, -0.07460007707343291, 0.7643587147924046, 1.0005298441769095, 1.351941773973461, 0.9825942478570189, 0.3587095346417648, 0.2109773280593381, -0.4469851444768523, -0.22725312355483343, -0.010926362033456106, 0.009262739357988057, -0.002014080258720737, 0.00912481285331207, 0.2302791148716405, -0.32319508389162105, 0.8480707850117032, 1.2557276348054762, 1.8287460815439083, 1.9781391122636522, 0.674718661266632, -0.5325556951101647, -1.1411762814498667, -1.719208259696165, -0.7162550813275654, -0.8570290205330325, -1.32836838656837, -2.027937769429913, -1.2761725340828736, -0.2671836683969428, 0.14127187565322194, 0.4807813845798355, 0.3595439626136499, 0.3656136038238339, -0.3450247514390633, 0.06633854881240824, -0.37847870766759956, -0.1544514541392876, 0.0029434033806233855, 0.0011238324195256522, 0.0016343663669290453, 0.019850628707683626, -0.02956478600960324, -0.9881097675680217, 0.10352556023457184, 0.35077933841696723, 1.5436997611481844, 1.348132598359409, 0.7057226974287342, 0.25666807753608417, 0.2270933629075872, 0.13752149703017452, -0.6401602940420066, -1.8162305800431318, -2.6165044802978294, -1.9077150561760805, -1.6111032156382168, 0.3353304884747299, 0.8557941231633494, 0.02672217615303662, 0.22191573559722336, 0.2853551057911676, -0.24576169607645823, -0.20920972560063006, -0.37483861249919015, -0.13394689290456857, 0.0003366493088961592, 0.0001969503571454425, 0.004836353946893951, 0.01808367895720047, -0.0771529272701094, -0.8009042925827351, -0.4938673181969949, -0.305634169898218, 0.30099327104775064, 0.7031768231326079, 0.23811501641398275, 0.5048949991224088, 0.688077726311422, 0.396541208753475, -1.1055549691461888, -1.6441656134984006, -2.3977540010619154, -1.316394548419689, -0.4006261940010252, 0.668505930649578, 1.0456053422669058, 0.5696829232419968, 1.0256393960036247, 0.5209504618293166, -0.6491971268319385, -0.860452371235791, -0.33131272216242263, -0.02640378713153245, -0.006498724000566541, -0.0008091242522423084, -0.0035574635250165904, 0.017073771863068073, -0.1886864082978979, -0.31068234647346016, -0.32664532282426306, -0.29964516598455404, 0.06706282991187987, 0.15599070224332026, -0.3073234597358124, 0.47653160444023823, 0.6745137800635892, 0.20627967277741252, -0.9131181226044964, -1.1569525577638213, -1.9311894349556211, -1.2860375744246388, -0.3147778050267352, 0.7311195378226094, 0.6094308669013707, 0.4059566558992116, 0.5516776915854527, -0.05867589454683301, -1.2908617449743884, -0.6644135635356522, -0.41031467838797625, -0.03064898194906693, 0.0034708441075369484, -0.0029035598526523693, 0.0032921397440638664, -0.0247056303056363, -0.34047053057002635, -0.41825132014987043, -0.24308017220754705, -0.3915196597479804, -0.861661109693472, -0.8434556056791115, -0.4902768932071307, 0.671083472376153, 0.2297871175178507, 0.026150675602079246, -0.6670204423330196, -0.7406666736955559, -0.7359972295936309, 0.2844059408802173, 0.5480452861188656, 0.4740836081676204, -0.2725433020284128, -0.3251778251440015, -0.5352420405258789, -1.1359384768579885, -1.1534757620469243, -0.5909673531414376, -0.2466050438119527, -0.009598263059794256, -0.0007381425576993809, -0.012078748388070094, -0.003514865867955705, -0.029762725952879602, -0.23624373593087006, -0.4059028944223912, -0.4486726322138763, -0.5472923706758254, -0.9656237566150605, -1.4310117790898722, -0.798743296802601, -0.06628694264678632, -0.04999317984547227, 0.1986267695350399, -0.09635363988577296, 0.3323849705477511, 0.2965286337370977, 1.2410143112326744, 1.0401083715715762, 1.0185216009957831, -0.1876439943545005, -0.22863418135771355, -0.6184748948984106, -0.9139579601302452, -0.6979887017175005, -0.26923967670657484, -0.009529331122371445, 0.04024656257039545, 0.004804361374439488, -0.010622156566574325, -0.0005414253280212016, -0.01525720947128235, -0.09200645365494993, -0.2209419249461442, -0.243607648350888, -0.7131266905502905, -1.0766749043610118, -1.9006507939149404, -2.3792150433309525, -1.9061313910161868, -1.5733473268997906, -1.7056513685216785, -0.5001113740806151, -0.07861682924103992, 0.36798641248867014, 1.0403849790684248, 0.7391934359421718, 0.8201149818187542, -0.19467423893696637, 0.10904581781812638, 0.17368397026599014, -0.720332101634671, -0.656374091654667, -0.12250774627663047, 0.003309850697123682, 0.012640619458775582, -0.007171508888266783, 0.0029540208900069977, 0.006108927676263649, -0.005489227998538274, -0.0026208150184149686, -0.07755247891034495, 0.022906129763714162, -0.17670435874999318, -0.8206733932147476, -1.6008633930325715, -1.8292169851205085, -1.0989758227390274, -0.9786129036125516, -1.3636041461679365, -0.7514691684515111, 0.04008435650941555, 0.5070922723675655, 0.3498372014267996, 0.4758006339836129, -0.014233369442717119, 0.2713650948952904, 0.7581816048993635, 0.23122876925973063, -0.2294368723935024, -0.286855509956337, 0.00044427431319276494, -0.009292251803375616, 1.8663805600167007e-05, -0.004535506054500035, 0.0033477194658542105, 0.001088395084084698, -0.0014682191394218289, -3.655943439169692e-05, -0.020824167480526724, -0.007167337064347942, -0.07794172468799643, -0.22209035980235664, -0.6100724316800352, -0.915128866239712, -0.8287902306382694, -0.5962762828644607, -0.48124355859272194, -0.2941770332212367, 0.0851735265438016, 0.554741974669919, 0.0057922604843550175, -0.11572291770060714, 0.26708021887088934, 0.762222081503113, 0.922216516824104, 0.9198686209139252, 0.5855457882515747, 0.06825173969429679, 0.020248314437836604, -0.003734666049879087, -0.0031625072260679254, -0.008318026717627486, 0.0011172236573107023, 0.0036814273071575764, 0.0007410578607445703, 0.0046394184243007865, 0.001351896118951159, -0.008214226069895707, -0.05399481473801533, -0.18259025161274756, -0.13436679709076593, -0.25818361497902376, -0.41719901412388993, -0.35978073359879903, -0.310516279683584, -0.1582463590150061, -0.27605185923638703, -0.5953622973871432, -0.1875439581122394, -0.13522155315822199, 0.5746288482694133, 0.5425740069190612, 0.32247172736316243, 0.6992928829223477, 0.4374355280282151, 0.08240852607058237, 0.046563824952111546, 0.002591571937775409, -0.005965754593879549, -0.00542879146772154, -0.006854256759224572, -0.007106228085652833, -0.0007227083599421976, 0.003425338711612435, 0.005736912299521093, -0.0037592519611957392, 0.0021732250659788777, 0.0015794319195551849, 0.03622904875339515, 0.016225251948059204, -0.0028420857379272105, 0.001104469875117747, 0.004795347272736368, 0.03652619115162413, 0.06532961420245396, -0.026247478958118475, -0.0075620379988791345, -0.04941700371849698, 0.050119015775977785, 0.10741951608321597, 0.11158913520596798, 0.22180279922273524, 0.12979549344463395, 0.00915523372041985, 0.0007233611561358686, -0.0004779306649625837, -0.004165420935356397, 0.0030445759604530165, 0.00273765170987625, 0.003920352528656651, 0.009028967601578501, 2.8975345377899287e-05, 0.0009341631450695854, 0.0014794591759720078, -0.0025440751359046367, -0.011382494140010944, -0.00012343241122882324, 0.005856849533767705, -0.0060622293727457775, -0.0048396587821699115, -0.02139906393376221, -0.0024921389161562603, -0.032543592467479655, -0.042548671407607645, 0.039169582803461486, 0.0034996450326413176, -0.022653782043813058, -0.02128047575918499, 0.0223714673702613, 0.028266238116840682, 0.1678432924044822, 0.00020438417206210358, 0.005549856185704845, 0.00768359152925477, 0.0024079371287731004, 0.008593232981760015], [0.003113002037361122, -0.0037562754665812458, -0.0071178697613116125, -0.0005567453118737679, 0.00975247967057886, 0.005246330764670983, -0.008809920896838835, -0.007332025951392828, -0.0007552940593846092, 0.004172984042100172, 0.004056767430594281, 0.004638663154109986, -0.005701718806543591, -0.0018871212634163678, 0.007027308280943102, 0.003491418539025549, 0.000593514113565448, -0.008467507728992255, -0.0005622344289871425, -0.009295727365916405, -0.0015330030501857967, 0.004673254346972809, -0.0012865639990844058, 0.00022863329257216065, -0.004343320808838119, -0.0035911237075389943, -0.0011465905196350198, -0.004047415070024204, 0.0007271623700734393, 3.962736919657368e-05, 0.0006175369640911991, -4.855986999136247e-05, -0.00021248180011228127, 0.0006183897346724883, 0.0007402380329454496, -9.486739971542084e-05, -0.0007734168411088347, -0.005370528128144626, -0.02046495291288391, 0.023001430483997935, 0.05922438123773115, 0.019425430869039938, -0.009611916789869805, -0.0019937067797020152, -0.003244014980692295, -0.0034520861274546285, -0.005960285470608173, 0.0077661570369054874, -0.0001082150507129836, 0.001546541012691536, 0.002474794410535816, 0.00182666246107703, -0.003788426216633921, 0.0014988145544078979, -0.0008179426364957718, 0.0010342920702872882, -0.0038356758652244877, -0.002603976111202815, 2.6697090671456795e-05, 0.005665277951762151, -0.007019672582438036, 0.0009362204269885622, -0.051161876510703586, -0.06927806620465171, -0.13251355040883742, -0.24521662357660892, -0.16483158426750155, -0.151544289319556, -0.1949979951343381, -0.22303840317990162, -0.23234613511912272, -0.337958785024539, -0.1667177822194042, -0.28325139686982037, -0.2638043282884364, -0.0860657125504742, -0.04343584950294853, -0.031741376748248666, -0.028560109129561348, 0.0008738339159089105, 0.005366343643576492, 0.001157551558993723, -0.006280984139258108, -0.002786529120051131, -0.006494779343499808, 0.0016051261515169265, 0.0023854584771078953, 0.0005940155642099534, -0.025447335287104907, -0.09880460867678602, -0.16618447253023297, -0.17807420405000757, -0.25360064024838014, -0.33496135647133574, -0.2958014532729034, -0.2625541390859473, -0.3156653626694362, -0.389590044872542, -0.3900611068523957, -0.28529874443591774, 0.17818283803456447, -0.23268598612781607, -0.6242578515910934, -0.38132557743901135, -0.5064995277023595, -0.4824717007754773, -0.2340565073637819, -0.031249414309500515, 0.03368830849583588, -0.008911721735056501, 0.002498582886926864, 0.0011163945411280503, 0.0003003115554942286, 0.004792559333158646, 0.0009136867805229966, -0.00370118883871651, -0.03711375297200721, -0.17936379202239003, -0.1738039142037021, -0.35753851097352696, -0.34286896535661504, -0.4203173427322688, -0.4975249246685169, -0.2832401191232242, -0.13117064556977925, -0.23463600411082178, -0.5984278161880009, 0.05148044503088039, -0.27614971488784745, 0.581065078887807, 0.2341906740736537, 0.281549971169189, -0.334231528133599, -0.7092897113446395, -0.09507771584069107, -0.16390318103211343, -0.26971525336564384, -0.19772119733255858, 0.008681896557985796, 0.008927383861730325, -0.007667247731779832, 0.007374878385958941, -0.002787363590093174, -0.0012120904250495549, -0.04735818677449087, -0.12034916368724925, -0.05486503619606205, 0.06468247974159586, -0.0948858086857438, -0.3596813388218654, -0.44398878247785784, -0.13957782588327608, 0.14692309932924708, 0.8009777254930616, 1.8173791165354005, 1.2270643294559778, 0.25341858721470417, 0.08997140411101504, 0.6561813669662209, 0.06747181067701431, -0.10421719985321377, 0.05206186546214673, -0.22981998832014455, -0.7920139397879383, -0.6553868558224051, -0.19493178824692245, 0.01238919776382125, 0.012774879422551065, 0.001155434309998825, 0.0032860574369128477, -0.003239375596649501, -0.007345512429919532, -0.05429095553320328, 0.10750225886193654, -0.001325540673189028, -0.17871313771196753, -0.6358274737853442, -0.378165228442654, -0.2582954431583148, 0.10071841739333529, 0.25058717820453136, 0.7294689099876636, 0.8576543380331033, 0.2277078063702193, 0.017397335041090648, 0.3464991297954707, 0.6357235071814713, 0.606918592911453, 0.15812836457683818, 0.5954300403825624, 0.9094169498769885, -0.42388155893253854, -1.0314487997239603, -0.28964619286928334, -0.13628282614178266, -0.0582431490044276, 0.005115773158681651, -0.0035807760865152398, -0.005952883291912733, 0.004543263372324591, -0.061558156112274345, 0.019095681393867414, -0.09853840910998236, -0.14061282786401186, -0.6415235650297043, -0.19431383599288624, -0.2749716317335973, 0.061951480922463276, 0.7133307663390913, 0.6041809235219946, 0.49389159995584236, 0.6756432173287992, 0.6163088718856818, 0.6512711229141901, 1.5990440210906591, 1.354201230208257, 0.5782747180638146, 0.9259000071538298, -0.00732986851553265, -0.37376501325413697, -0.6406158561925783, -0.5640688536374419, -0.09795138049377869, -0.020639181109598417, 0.00047962356087657407, -0.005949985844619809, 0.0019180136921164957, -0.007733709361426597, -0.194313167955718, -0.44301929448281446, -0.327981381742014, -0.2235053901621687, -0.48853390418744747, -0.3114276374286535, -0.4755473910026194, -0.10495381434809192, 0.8942205252707273, -0.02993498657228224, 0.609319633463847, 1.2624218999088277, 2.264307291554602, 1.6794830192196553, 0.8360819713561236, 0.44914407223829445, 0.8251953612508518, 0.3847099900069646, 0.06408037615086636, 0.17829927843532936, -0.5817960011122572, -0.5961240571153162, -0.31789063346160046, -0.03097400503027404, -0.0028714083357925537, 0.0044013253318619435, -2.1904382961369263e-05, -0.08327306328983822, -0.459654004994945, -0.7383460350650471, -0.3535091523696062, -0.375188385132432, -0.11762412159578861, 0.024534443869068834, 0.2509437998456769, 0.465811226185557, 0.6816210305195589, 0.9523566748137517, 0.5198773261308681, 0.38064922574175925, 1.9340338778323585, 2.195706478779119, 1.7979073101715004, 1.3732077197780193, 0.7905933223911578, 0.36940525128172064, 0.16628027579185622, 0.8135197542492718, 0.06750144091440578, -0.23414831925854723, -0.21134279479188794, -0.01038002768438977, 0.0038894022113452145, -0.0014479201405978566, 0.00638074201522273, -0.1314543608178424, -0.569639182759483, -0.7337770160879675, -0.3646872442529823, 0.10647166830059845, 0.14360253618062216, -0.4222321194441323, -0.31101767163716654, 0.3963898290097985, 0.46892719267299826, -0.46962517045958635, -0.5958398639312524, -0.5895262549466503, 0.30048580442368866, 1.559612487132037, 1.3372559239420538, 1.0212875587964565, 0.751367470793195, 0.5892887793312133, 0.8678346670416204, 1.2562488783751005, -0.036296474090671965, -0.15510366558202324, -0.1492986799120308, -0.004128241008670064, 0.007783161367805676, 0.001023027457023588, -0.008642913454832736, -0.14991837078432374, -0.5230324783020946, -0.6882145161611984, -0.1611385419417499, -0.23610254318869484, -0.15182586714597573, -0.19413205148150592, -0.22813093352751987, 0.45604099643346857, 0.01433129951159479, -0.1948961222892643, -0.727284791333994, -1.6800545005023704, -1.53414620495497, -0.07289491734240242, 0.018485840499364255, -0.21855967927816375, 0.3565902230922408, 0.581213256239718, 1.546786274310379, 1.162688336812893, 0.3473773481093894, 0.14193155370308147, -0.07929212625375494, -0.005447851728139607, -0.0004082585306313936, 0.013959178016658625, 0.005524530764343055, -0.1290390831872131, -0.3076630941996049, -0.09703961800795502, 0.27263168162677026, -0.03432208270712787, -0.11721679297945609, -0.07462278796060215, -0.30221100730952166, -0.2950281259289552, 0.3889696264163816, 0.3382254017190642, -1.1515959140397962, -2.064490684871152, -2.0767248832007263, -0.4767850562067806, -0.5955824370569089, -0.8490571606403636, -0.06245047461080059, 0.4027425081184447, 1.2023234775074638, 1.1510462943287851, 0.8344346243185705, 0.4377101977558565, -0.025799039893226815, 0.006976289051940975, 0.013901939378616415, 0.0034678017747301316, 0.008167723083717394, -0.03353158268291339, -0.18288185221696002, 0.5037467076939074, 0.5694515120659513, 0.6655654751992025, 0.17834682506736893, 0.4130314796065182, 1.2827364278479247, 0.7486798986913504, 0.8418742775354602, -0.44106574810128274, -1.7322771419079104, -2.380408886832474, -1.6488994709604046, -0.38067329386335336, -0.06530971737356511, -1.0118284762234568, -0.47998861436520324, 0.4395918703652373, 0.704079219966469, 1.2179922613571912, 0.504049841869493, 0.4691543047940512, -0.026771918490444604, -0.010769592452984346, -0.0021593774103020914, -0.008092596294440368, 0.023314755195427753, -0.007894013498285765, -0.11751127786201897, 1.125720068208832, 0.5882488498938132, 1.1627765579455844, 1.0050424816469634, 0.87608170515146, 1.1331113540865771, 1.111150815380008, 0.8389550443960213, -0.37478741520743336, -2.04169855189933, -2.418110546621008, -1.6866467855973104, -0.6875617767807889, -0.296946209185897, -0.5443885388072677, 0.07143128908406313, 0.825941951017294, 0.5353069938472865, 0.8739685003135091, 0.4254724084657799, 0.36024915490316295, -0.0008365574747392445, -0.005881326402183706, 0.004540493265217385, 0.0016584870971493473, 0.017036486362247572, -0.1835365791632125, 0.16856397560299038, 0.8323824976148293, 0.06277750353620674, 1.1354671571053305, 0.06498119103630945, 0.36963970781052496, 1.4799739750771708, 0.6519552587136068, -0.2907659599508333, -2.180805068574973, -3.2153156270758845, -2.2806379398999534, -0.9082203061061104, -0.33529914318870313, 0.2605447180458494, -0.36758778594975244, 0.08792070963431269, -0.05382900803923623, 0.06841536517342495, 0.23152781564799785, 0.28632255409257124, 0.10211572232899148, 0.024427826338818816, -0.004100894262117429, -0.011710678011472214, 0.0005523109452075375, -0.02648856950066193, -0.3166490032797408, 0.4208430562082303, 0.6643929264739932, 0.29827489356739867, 0.4122959736653717, -0.22085843416172127, 0.2408311540209611, 1.6770279657992724, 0.7153151539776985, -1.3725537867220245, -2.989392930419371, -2.5969028684158313, -1.0991786837260387, 0.11343907838564223, 0.07449513618828801, 0.13675321700190884, -0.6174462879462739, -0.017806974936857664, -0.03339341063547542, -0.32801855521251616, -0.07856675227933288, 0.17171520764060372, -0.09503963760238426, 0.02447932427086681, -0.0020072193608132176, -0.0062947220210075525, -0.007319882624486536, -0.07981260971007789, -0.40941546005520524, 0.2951072173318231, 0.505943163789829, 0.3390732804089013, -0.061980364341690825, 0.006947923104028432, 0.60641475690973, 1.979821821722004, 0.5715727385187321, -1.3997723835144447, -2.1900166582785547, -1.231735064671727, -0.23525364624856832, 0.2869420928672822, -0.2016830131374315, -0.647192727217474, -1.2434254693914109, -0.5196510943591321, -0.4637244959500276, -0.17304272578376353, -0.10659960293653038, -0.008341985202338531, -0.10456591916587586, -0.015354179664810067, 0.00017695104967802865, -0.000502228459843278, 0.002203878738982587, -0.06733596066601355, -0.6789563640164152, 0.06809047428413, 0.09244840849687107, 0.04586218834254897, -0.7347163932591148, 0.11138540469899935, 0.6986644405955457, 1.0800788749694596, -0.3608315941319953, -1.547294467671997, -2.328860172356227, -1.4510362896251336, -0.5078540883002437, -0.7205516024076616, -1.0809398327310165, -0.7544479068721446, -1.2291229854189918, -0.5370725389140886, -0.34964789216673403, 0.04535839992568111, -0.17688374310253982, -0.3560078744605709, -0.04000922251354456, -0.023969827687075795, -0.006213764747663057, 0.0023120878472938904, 0.0038724047464982867, -0.0006287275102091182, -0.6714970956760711, -0.07536526260033241, 0.0797572990549228, -0.01882474263913831, -0.41700364298140996, 0.5437777193197707, 0.38023646850635745, 0.6294073925501803, 0.35566076751691017, 0.1429740101890217, -0.9166981145844247, -1.294191991299998, -1.7216550126105596, -1.4993027344157095, -1.0427779005070499, -0.73433936546649, -0.542003043802136, -0.3740749060063905, -0.19577508701156598, 0.1055808088731196, -0.48593362413349894, -0.27460857259258487, -0.057804151430482405, -0.0054772670482823495, -0.008078795191980882, -0.003649707891648161, 0.010925259891105257, -0.026397052437098778, -0.5851862812139664, -0.5274761416400389, 0.05500908174775716, 0.23638137000068146, -0.2163034911678471, 0.4876155221052461, 0.6474880067735612, 1.3508647497225847, 1.4082134154073618, 1.1670000119006052, 0.5081491683391426, -1.178931888027117, -1.2869636202287973, -1.2450712269629876, -0.7306724235193872, -1.1812641397638826, -0.7661675435514349, -0.22650209016016046, -0.02941211193385092, -0.4517403355338095, -0.44048512755754105, -0.20919992648658636, -0.05772209242920411, 0.005941707309846679, 0.0034257232557589794, 0.005281980362235021, -0.0034361820376373423, -0.07956952388244129, -0.2810612475339609, -0.4697157725126608, -0.044856801837457834, -0.20336503175572823, -0.17880631817998047, 0.25236252008882476, 0.7779496156901572, 1.2649855609590293, 2.113172927182309, 0.5837568742322317, -0.30884235590097175, -1.1040544575107414, -0.8953461718943329, -0.6720277800132993, -1.0282178754097828, -0.4621695811186951, 0.04195450885437426, 0.1514570100783872, -0.58352516234554, -0.4115824377540537, -0.34298017523599467, -0.05948232803809773, -0.030089091780396225, 0.013553539170178893, -0.007493633764599443, -0.00010209518981377455, 0.002935241419031006, -0.020411334930517475, -0.07409673691210268, -0.4146495239047417, 0.22590723221302927, 0.5406649122938094, 0.5365125662077582, 0.5914871696408651, 1.0972363704643093, 1.3905274529682345, 2.0618734195176946, 1.040421093181063, 0.819201462725263, 0.4155448476441274, 0.2181033796366737, -0.5606914813726352, 0.10239633787101034, 0.39143639031641814, -0.0070755637824492425, -0.6278934998470445, -0.4752090335650117, -0.37470352280444363, -0.23808088549979783, -0.006483240282062963, -0.039012487995702144, 0.00611138096091942, -0.00225245287283008, 0.004758385082079939, -0.012530072620544766, -0.002230083777873131, -0.01494381397397194, -0.1171845215061867, 0.1602580855288257, 0.9391830584010449, 1.033110095432918, 1.1239609576449194, 0.9413248925317308, 1.6679450718458926, 1.326699054700473, 0.6577453680071622, 0.3747200353229162, 0.41805825011740627, -0.15373989786121645, -0.12531531910592725, 0.3881042542365686, -0.8013946840662938, -1.1996592154042989, -1.0844744113145894, -0.5728556081615117, -0.23359456106204027, -0.10351430259512726, 0.034959821882542236, -0.039227952733570576, 0.006797847134365239, -0.0030298720252181386, -0.003245706139779315, 0.007437718515581635, 0.023131436195259647, 0.03651846872622163, 0.015333402066416209, 0.027167722574352075, 0.0009049821230674758, -0.058948099524538965, 0.06648043308409106, 0.634298191681676, 0.6328121987570392, 0.4684558338232794, 0.635450251673011, 0.6252094441905736, 0.04639930756748306, -0.33020583967201256, -0.5950446934966381, -0.670820216487872, -0.6883256950639827, -0.7131440512467704, -0.8185244080385441, -0.5526937916876714, -0.21475716014386353, -0.09411173384996942, 0.02558950490538655, 0.0047445974684879036, 0.012687719879091354, 0.002001077979803949, -0.0063739265715382545, 0.0006376334885381938, -0.005389783423491053, -0.0051488739592099415, -0.05109720338537165, -0.09452987002467127, -0.21111278349444954, -0.2308435973256074, -0.13590538086132165, -0.03608818396342109, -0.16800881670027645, -0.3791731187801731, -0.6632708135473018, -0.5677329221387925, -0.6861546585645584, -0.5739659036024174, -0.4719199126582865, -0.42618209000981416, -0.409541177068216, -0.3793874329953151, -0.47437193156122975, -0.3916624983126738, -0.17230072418694586, -0.057281188228384725, 0.029678411239313942, 0.003927785667203101, -0.0007488083169159461, 0.007055371578965442, -0.005417291324212394, -0.003893382652224098, 0.00019255054620639426, -0.004540709002955131, -0.008828756818946284, -0.013672650542394228, -0.017868108885399643, -0.007188786941874534, 0.017696277157884924, -0.07333000063011548, -0.07992310258357943, -0.10688775074421393, -0.041789366449398284, -0.03529677976438575, -0.11260543079452545, -0.012496324191553774, -0.07918016908278086, -0.062232645883022165, 