{"sizes": [784, 50, 35, 30, 30, 25, 20, 15, 15, 10], "weights": [[[0.02584751294292868, -0.04282599903792013, 0.0013068096889532342, 0.01888644837895254, 0.030861554602987427, -0.07357399645439014, 0.024353456910550953, 0.0105369421602428, 0.024382883507328812, -0.03418736767841856, -0.007358306721101822, 0.06701820405935012, 0.030480483537862306, 0.017865670267839612, -0.016399067913919072, 0.029374019496213283, 0.04528814848232136, -0.03336431275540203, -0.030881316727972844, 0.0027964727793291884, 0.037616925177400506, -0.010184098016668749, -0.02872997509438485, -0.003864297303475075, -0.02620761313762535, -0.015628028257015713, 0.03314622261029622, -0.0560104784654144, -0.07646323308837033, -0.01590305768363848, 0.06299760076780206, -0.030122508010744307, -0.07807538407483451, 0.024736600045692177, 0.05455525960362385, 0.03777563038357387, -0.021366504156224233, -0.011353248596658951, 0.022377358419492125, 0.014756202551322567, -0.06115061962267839, -0.01908036791130288, -0.013645436818722611, 0.013135922227233449, -0.014218810187323754, -0.0369665419053762, 0.05031469570587327, 0.017017550141526634, -0.1020159432572474, -0.0075881459975969765, -0.0427625857373627, 0.00027554143908547856, -0.06065396135249398, -0.0869823056460353, 0.02569016051266703, 0.04392513519677032, -0.04143059924772431, 0.038855928568331845, -0.03979242812761056, -0.03424411686385154, 0.01371873572469574, -0.03304342425449508, 0.058297980368681813, 0.045293159556030485, 0.004286159390763182, 0.0488670595329402, 0.007587719009689438, 0.021748809492120914, -0.00996277007542474, -0.0018082791464643648, -0.06928335292095414, 0.00030308150642664933, 0.016875587109029425, -0.022410248697792158, -0.005239344240706814, 0.005847560228932557, 0.022907366301572668, 0.07080094309627222, -0.009643120070147716, -0.017041786453736565, -0.10212839896639783, 0.04637176646827909, -0.008201206090003698, -0.004797133192716027, -0.02373786480377595, 0.001689651620064151, -0.007137804628343072, 0.00031026911795215814, 0.02978090232867792, -0.048146593425015205, -0.0015659661062307527, 0.030844207162306538, -0.052494734247548996, -0.012322523901508047, -0.09149567036415103, 0.04621760648726136, -0.029050844506441898, 0.06838318484963699, 0.03793693329468683, 0.003728728631037471, -0.01065650543354446, -0.026588032140470938, 0.046404032307149755, -0.0009518428453957829, 0.012415407329740969, -0.023404937338364296, -0.007364662737547375, 0.03578483408333632, 0.02164511342073567, -0.024514077490484856, -0.037152842869951186, 0.012002314807278787, 0.010405557922940994, 0.01554802463959962, -0.0057042414273020545, 0.036136654125341595, -0.009414368239792697, 0.024315900088035268, -0.019842051694858004, -0.0030153465773658282, 0.02250877199457065, 0.04715229387952957, -0.024057273673846084, -0.016677498812135646, -0.021689481879335393, 0.012535253138162806, -0.017095200063449053, -0.030251632948191682, -0.01224483719575361, -0.022516992005686208, 0.02519893365605647, 0.049877446190236235, 0.009003141435639168, 0.032982039748669714, -0.05364207162877945, -0.0037393796602097178, 0.02241565579581571, -0.02981850360025121, -0.021034207048733208, 0.07247634102753167, -0.029330466014953902, -0.0045712660774159895, 0.04204273110188455, 0.004781730003429577, -0.08559117311607306, 0.01305805143425162, -0.05258784239678108, -0.026843566782895227, -0.0653777403153728, -0.043105625442126316, 0.03106262708083771, 0.02922702591301427, -0.05550054901628458, 0.04887332387037912, -0.01341739234049653, -0.0031321909711064795, 0.00579228549662542, 0.04775368065066361, 0.04181251488001501, 0.006473434127672691, 0.04044328489953382, 0.009104667626783277, 0.02143800549605597, 0.027275611929186035, 0.004676646418498248, 0.028866941715152094, -0.04679533435821401, 0.02698406539931801, 0.015642514670364673, 0.03987188604430191, 0.04484489014462608, 0.04674457892898644, -0.014575389163087371, 0.030286912504335455, -0.05841020045489581, -0.03892938616631015, -0.016534057708381508, -0.03860096635095195, -0.0013680092964653478, 0.05403394060021788, -0.0038338090270884587, -0.06738965771335485, -0.010873367844150378, 0.036735086992697605, 0.07636964945147046, -0.03535177341460702, 0.009606339642068567, -0.03772910362505225, 0.05455414411661949, -0.007975606301292775, -0.034804775473027065, -0.03496630373892912, 0.03052824115387313, -0.016715287236772444, 0.08823343321622924, -0.008581423914000243, 0.038872511352325306, 0.010577468042313846, 0.026567316337248188, -0.03470207125505803, -0.04278149657181667, 0.038593362649585586, -0.042134054629198475, -0.0262063513905949, 0.027552471315632116, -0.008280731137742943, -0.009645047481829778, 0.0389708334790822, -0.013621028151122878, 0.013451380401412092, 0.011359446029684524, 0.04692518697822772, -0.0768157927881789, 0.04786980402630727, -0.04827609413206534, 0.03131446476536016, -0.06393531625893208, -0.0012110285550416295, 0.04410121740262482, 0.02204944239219937, -0.046961372406427546, -0.05707110325344559, 0.025228885689436986, 0.073132107594561, -0.0006443179045259352, -0.02963752456049009, 0.02797620587172377, 0.01740512588437169, 0.014556633535611409, -0.03357679918333037, -0.04760588632125567, 0.018345056841244864, -0.04584956314841408, 0.0037179694286253256, -0.05362227323632642, 0.035028979003240326, -0.024046063237303062, 0.03854092308570275, -0.008229293798810232, -0.07632881989402175, -0.01770415063482896, -0.02919147606924087, 0.06418130629330213, 0.06916568566676028, 0.046292058581665546, 0.014326713227663275, -0.025331018800572844, 0.004830979837359641, -0.10013544753526352, 0.0540557833499654, 0.04704403175344432, 0.031349958855482495, -0.008253226256978828, 0.06270224910065579, -0.026963717137789334, 0.01786194391903559, -0.008644956170763943, 0.021279086034138552, -0.058308812478404304, -0.011858402723446983, 0.004837836136213789, -0.010136898241840898, 0.08172498513167382, -0.07245166828604954, 0.011204223736500695, 0.005252023398711438, 0.04369097788831058, 0.06914952459669246, 0.015299567641327365, 0.04607810989508647, -0.043563950694281116, 0.0009428886246869875, -0.03215223705683759, -0.024734801585147143, 0.007975628320848234, -0.01067427652296309, -0.0035419436618394557, -0.05457443799274605, -0.041423501211151424, 0.03808140037524973, -0.014996970863415325, 0.00632082491669758, 0.020643008532015335, 0.025258615987809332, -0.04934949723927578, -0.011206181354597937, -0.01732842702121073, -0.037968405412719876, 0.005703868564692762, -0.02453050232700261, 0.054344399900637566, -0.022246353949822818, 0.028214290088216045, 0.008008579467870872, -0.0018914902173551634, 0.0419978802509079, 0.07383786490852073, 0.03492889215241109, 0.06436028407501752, -0.03318992357340712, 0.06536402430296832, 0.014959491613979591, -0.04988490123137582, -0.024836052011623432, -0.017930545832361023, 0.022602164250917635, 0.014123605911100857, -0.0016721391150164525, 0.0226623776521137, 0.023200018449373982, 0.040284849284097285, -0.03338261375749711, -0.057464354155634764, 0.010305476127620465, -0.014319036621649989, 0.009168207088845897, -0.018660767723831087, 0.016213105952109747, -0.04861210942444566, 0.03203388147463308, 0.044073524806239155, -0.070532223341252, -0.028261436136966918, -0.028816332137563835, 0.020440702438457976, -0.021984485788181785, 0.04681870161831499, -0.037135338302744604, -0.012413310470281718, -0.033985673108572236, 0.008016358714639365, -0.09302770171029703, -0.0018548570310952853, 0.01341004683986064, 0.07246662234905502, 0.010984526282036703, 0.021445822516545608, -0.06124157256883794, 0.031424918803472104, -0.039859918431103536, -0.028572824798634332, 0.03572826964762605, 0.05344494851534282, 0.05688141914595539, 0.009287663260486067, 0.05178476484352113, 0.04509484949807672, -0.006738257886113399, -0.046144688120307906, 0.009949740247568506, 0.03960434902570417, 0.014080740934188981, 0.05603447199787901, -0.02383155150714723, 0.01236964430231222, 0.04980594488722912, -0.011344836146556677, 0.022275883745790027, 0.005581162073536788, -0.015766501872092706, 0.035527534947467056, -0.007169160082236147, 0.01623835160489816, 0.013475008040733783, 0.045059419547532134, 0.056711372252017216, 0.013358092455697917, 0.04645570116811807, -0.023133479053845114, 0.03394255045195776, 0.0259640282262488, -0.037410726379211674, 0.06315876994179229, 0.04835318659751794, -0.010638362567970282, -0.014020949987671179, 0.03233152747640475, 0.04163467920205571, -0.03486897054601143, -0.02269774286147677, 0.06630654166556907, 0.03495045604695903, 0.04617290336001206, -0.007341077656655158, -0.03306936599435778, 0.011049463749730386, -0.004169835940291246, 0.01597189585276079, 0.02641849864098677, 0.017119106778523335, 0.06446283607208085, -0.04690297289738319, 0.018436378182238707, 0.021646987475725615, -0.019567774607895924, -0.040210729334295925, -0.030596283709979688, -0.032681466581698286, -0.018296680511745763, 0.015050039348832787, 0.07242250804091557, -0.03744678123127916, 0.022570154862308, 0.052534050818868784, 0.05489150572403722, 0.016727774632747678, 0.09692268981242758, -0.0015016453525083587, -0.02570647970446403, -0.02994833404101989, -0.009812603981281457, -0.005725885269408549, 0.04026650438753211, 0.012566161672869822, -0.0010964566997930855, 0.011957695624947704, 0.014138949087362627, 0.03145728442583846, -0.04334838767177499, -0.011077211308112537, -0.06628048649111425, -0.0083423125177566, 0.047645790539978264, -0.037563271454876195, -0.073262663585459, 0.027260560359854785, -0.014665653584857613, -0.0129234636120758, -0.05286565153545068, 0.06067868542311131, 0.049240786217447416, -0.0693213226212454, 0.013780859648250467, 0.009591790581655265, 0.03955071169608344, 0.008645152508085603, 0.00213466650492183, 0.049667623115803965, -0.003320681003479552, -0.01917894415403636, -0.001682367062060236, 0.03513712116928163, 0.029245969610277468, -0.06368271899450482, 0.028677014649909648, -0.006751635413255719, 0.03938519835146901, 0.010314962624438526, 0.008337806878312528, -0.04306688376668839, -0.00490334605375341, -0.016331411910390854, 0.005646326945895688, -0.03815531646027003, 0.06391594898338271, 0.0020332869559040517, 0.034359803073634225, -0.0027879486979594317, -0.029131926164949078, -0.027735057227503326, -0.01486622850747682, 0.014192473159811455, 0.0013727400535861077, -0.01839498000836988, -0.010335727196377178, -0.025883400441512227, -0.027133119879600046, -0.04603285706764969, -0.0023850801077574383, 0.03485981033770456, 0.05671656798111803, -0.02017671832621623, -0.0685056439678411, -0.03037693302663279, -0.0048911333493830604, -0.01006173405387163, -0.03313918801695468, 0.03350332329716462, 0.06692447803684298, -0.0050786673083394, 0.004916855894869198, 0.017300386936992672, -0.029080588961446163, -0.07857680749746043, -0.017772086996873025, -0.04895830364285993, -0.011268531593092357, -0.03369044292927239, -0.03053019944319154, 0.011755395631431822, -0.00747210827401042, 0.041169959141022935, 0.04176231794409256, 0.031144997086133684, 0.040658585469407524, 0.027629111614411013, 0.010737686302559198, 0.02035141975027045, -0.004040363036573108, -0.003971639561015091, -0.00016672813146833147, 0.00662178211792837, 0.055849636286520864, -0.004470967336733232, 0.047412349050775404, 0.054442060595183826, 0.05416562717164931, 0.03185075842597732, 0.007000176985961023, 0.021664384921065385, 0.05560949137871968, 0.03607173559165892, -0.02756977348930103, 0.0020375170945759525, 0.050164030747450176, 0.013939268650113863, 0.05473555083466777, -0.033584090793636084, -0.0027556190079037705, -0.042028354660237625, 0.1214211687094107, 0.06122620823695447, 0.05756902676086804, 0.021711488340249656, 0.029282518613991896, 0.027214772205227295, 0.04482973126872543, 0.0113616170461252, 0.001416611463170409, -0.037351914568286085, -0.048917823754476855, -0.02624490783705801, -0.011724166421079912, -0.03961474692481578, -0.017661759907476163, -0.02782875054580359, 0.09600308838146739, -0.006467880064836608, 0.024237758229460143, -0.02280953747474638, -0.0037913629468671163, 0.017654907109303914, -0.1014311861922365, -0.050821156622850625, 0.03557623261028796, 0.026609329025188456, -0.00814114637275446, -0.06345943283567054, 0.018383645667934604, -0.04502935047850548, -0.003129845125435709, -0.023617463630832156, 0.0041111314383189945, 0.025706239713341978, 0.016140039229595317, -0.006887033107391951, -0.020806892596946812, -0.005028811498641008, 0.057149131010280296, -0.07387497511382364, 0.026881199812404864, -0.012588093603185453, 0.0022130404614104913, 0.008676081739740564, 0.006178876323036394, 0.024802054686752735, 0.020642994266237176, 0.05334313813065527, 0.06472866859126818, -0.018000530910320927, 0.10680297259646866, 0.09544157492231628, -0.014033192870563059, -0.007961344028748934, -0.0015579847652789753, 0.02465782679355125, -0.02260795889140057, 0.03991407041249027, -0.0038417509686546106, 0.03426573582294986, -0.024580385045427946, 0.013945542059196684, -0.042104380800431246, 0.019277937230313118, -0.037196899822640586, 0.04865281744945572, 0.00878864020335611, 0.05643419265119759, -0.005672994806260161, -0.009599314182612817, 0.011041065701930503, 0.010362618307845241, -0.018171520969951456, -0.013464047557207558, 0.019653141555121417, 0.0008320236349939149, -0.03875406188199941, 0.023659717848767928, 0.030878798275690553, 0.05324961556498801, -0.048721534556923886, -0.022232437189623113, -0.0010789255361097622, 0.058089851593381425, 0.042846834707647184, -0.02965021824848714, 0.045718000604938844, -0.0180887503388753, -0.02698940029475653, -0.04163790079509802, -0.017778662730031036, 0.03349389318630028, -0.016223810910709898, -0.02968986812929595, 0.04455273231890373, 0.01708569963421392, 0.025276573561654067, 0.014740507530688802, -0.041655509925566374, 0.008723870844906317, 0.004198945031594993, -0.0022949592911617597, 0.017556061068392335, -0.025586576069483856, -0.0007402125493705505, -0.016110809748732014, -0.01032630885351829, -0.021135001921230957, 0.02051594267765805, 0.04511927419553987, -0.04146103930395816, 0.0027084137515180668, 0.06942673158526601, -0.017391584988389105, -0.05750644216504065, 0.021846029737114296, 0.021324710892440767, 0.032392531041502984, -0.010014347139600475, 0.0747905248045535, 0.0017647165618329226, -0.043250560930934684, -0.1144805470979894, -0.028917952121999293, -0.03396423853723386, 0.01718401564292885, 0.07408228014452718, -0.016096158171992603, 0.07049434825344288, 0.061345627449215415, -0.05729477495555389, -0.044666396128781795, 0.02062027427784175, 0.036646585190659504, 0.04089025566419944, 0.07984296736500834, 0.017758554955095863, -0.0334657034860215, 0.007395231391388186, -0.03041349916195307, 0.021995488655308492, -0.027617571525339762, 0.0036498126637763296, 0.034462996886165595, 0.04134349027894259, 0.02783503085631774, 0.0670496307213331, -0.004529091351969213, 0.042726063234855546, 0.0010071034496170021, -0.01628366619319063, 0.0715042797496757, -0.07201993943152431, 0.01570911900197547, 0.01446306262791571, 0.038027348890413475, -0.057879482265093096, -0.0010380076816772026, 0.00829828916835017, -0.04627986356524715, 0.08244160538678384, -0.0021668466740262945, 0.01343096490128707, -0.000266126259503002, 0.04717233795120009, -0.013889894566611088, -0.045496759101875305, 0.018206262704213636, 0.0011901988783980274, 0.008624265366359594, 0.02726819661614416, -0.04807224819284695, 0.03857129562947803, 0.032366527637088395, -0.020327121848387225, -0.05995943096570651, -0.029679773374903375, 0.0862695958188809, -0.041930934510655285, 0.03887636351856488, 0.036473422713143806, 0.012392005411064656, -0.03102835276675581, -0.024410495097992587, -0.013937402861485674, 0.033519037380595224, -0.03598308419798541, -0.010657342094066817, -0.07875180610561593, 0.08691899894537947, -0.0047277245247259484, -0.025484197478307, -0.010465928358444211, -0.011015020476207393, 0.009876643557466206, -0.01974104802794022, -0.016434314621920378, -0.02707176344000222, 0.026984484037160375, 0.029176414679649182, -0.00821790750806276, -0.0493870089778171, 0.02381430665867055, 0.08699459115827532, 0.02218074925382292, 0.012958143652525938, 0.08242642926557613, -0.002212810477180192, 0.01674272128937453, -0.023135105919705308, 0.02619589658920877, 0.03370912212000609, 0.027498172025914532, -0.035163027417975654, 0.04443733454663119, 0.0028882330558518735, -0.019394782718685784, 0.007480885704814944, 0.02491717773674012, 0.013602364867597002, 0.0044170209523414295, 0.07268382151898073, 0.002943070867439044, 0.004398423735535012, -0.010733944188269163, -0.05400724548571948, -0.04871468838687125, 0.07584355267627488, 0.03408259343971534, -0.011158693628153868, -0.02029849129169807, 0.019472452205804222, 0.024155005027497043, 0.011808842899761706, 0.0036000969337710883, 0.07500554012010463, -0.04044323237666846, -0.04184467678772682, -0.001893343309542679, 0.04578346403754273, 0.03656369954912324, 0.014902838196898449, -0.007275227065748995, -0.03575068595014314, -0.02102287857216764, -0.0052892274241250785, -0.049235846642834334, 0.020057516532652617, 0.01594054066418389, 0.03841755846278811, -0.03334023286502094, -0.061124880142560345, 0.05848111261276624, 0.013734773394768153, -0.004611401367481533, -0.002067650095430558, -0.004867265105589233, -0.03764707047176658, 0.0011930886572042922, -0.03189429234894777, -0.01974474013118544, 0.02442299042601283, -0.05722139409146027, -0.06452704247697767], [0.007817381440530196, 0.007912860977791165, -0.04236422339019419, -0.05289039700520617, -0.04938376390789747, 0.026207996953195013, 0.021410435308192474, -0.00975163165198974, 0.017945108047190482, -0.006264717540369079, -0.05314273177065087, -0.010990618897638542, -0.026310408925518468, 0.01786972900093749, -0.021923769615645582, 0.005612613076263257, 0.09229011090680447, 0.0015910038156545154, -0.017179847890539553, -0.013885263547365917, 0.009867385170368967, 0.06084256414203042, -0.0037995301186150433, -0.05310570593478273, 0.058670846993507664, -0.019147447566097656, 0.008952124186132083, 0.03097417332103821, 0.051530413748903554, 0.004466707640908482, 0.07183050260173789, 0.016203797265164837, 0.02149028623151898, 0.01234167881747025, 0.04234094197628816, -0.012018294428572279, -0.02201482585831636, 0.011224511222781964, -0.018577009828260427, 0.01569992720734112, 0.01753389461288302, 0.060739200804112256, -0.06244544885785179, 0.028587356020904366, 0.08083867971243082, 0.012135197501253105, 0.023647332411704275, 0.09024008694213576, -0.019453646630383622, 0.036897283353948554, 0.023469264989002148, -0.10971830897367578, 0.02681854063332489, 0.003702784120428818, 0.02065275345060379, -0.03314248761410305, 0.043587626520102916, 0.006771901437707105, 0.006219826031946374, 0.07881023713657692, -0.043609311503022455, -0.031035341972202556, 0.0022441992200523974, -0.027500716731526008, 0.034722716083973586, -0.024961217790368972, 0.03425121835033995, 0.02434797293489582, -0.02670222877316447, -0.034826643578225874, 0.03968518412016361, 0.02254982994509567, 0.021366019367348662, 0.03625079384993443, -0.02101243322348545, -0.006397353826737192, -0.02501625853690313, 0.00649771106274254, -0.019142675509514363, -0.03728905832395522, 0.01107584725206856, 0.04149898770128274, 0.0024248034677214854, 0.03426760111640969, -0.0570269408588759, -0.00986560803158232, 0.0004532870137577899, 0.021450154585938307, 0.003065064871626886, 0.019734535223442717, 0.02632809621914628, 0.035210678032859904, 0.02550075067859022, 0.01996446015352395, 0.0006369798623108482, -0.016167370084123292, 0.03270189562213247, -0.016972536690248886, -0.009450823838715714, -0.033926590438828036, -0.06408604605595519, 0.035705296441532225, -0.036016000829452284, -0.027362556951878284, -0.0760757313815833, 0.02438928316628732, 0.05993280303318535, 0.03819977306158205, 0.001074547589860516, -0.025923352302050447, -0.024352096855638404, 0.041289056871119015, 0.03735779677870959, 0.06267814802514947, 0.00136705821833366, 0.0014051585519159698, -0.06278411452374069, -0.10929400797399032, 0.030959420904059468, -0.013028851679872097, -0.00881057954610356, -0.0075244142241555805, -0.05786450820492431, -0.019291286629380018, 0.07857498639093448, -0.028390126203332994, 0.048578866991877905, 0.007856684925004706, -0.04115875483548694, 0.0024406165921862363, -0.03422587944836953, -0.00834542837532966, 0.0355487089423124, -0.031841384453228816, -0.0590561584645043, -0.05923135240001042, 0.04024199910911829, -0.027444585386556312, 0.01842826701181389, -0.009449981275524497, -0.06549259642220115, 0.023046982503293807, 0.023445870164459995, 0.0919525215973999, 0.025567813790692832, 0.03704383122067757, -0.0022614376528310876, -0.03263607024008262, 0.03205638331320451, 0.005069439063796582, -0.008744965752705457, -0.040037652606816236, 0.034199567974576246, 0.009767245968173585, 0.032145545404679315, 0.010512455243290416, 0.0074457275415187665, -0.020335837661119755, -0.018480975096226517, 0.03915977371921099, 0.015185067068897369, -0.0056885505727001075, 0.013515323271625922, -0.061323820188584094, -0.004569781685548518, 0.10103154903363279, -0.029318528860369054, -0.02686090051914372, -0.009051451630032103, 0.030217882861174807, -0.020019284375252844, 0.007832234543433327, -0.014363865051605806, 0.024158155724848716, -0.05666926508626099, -0.07210476084331711, 0.016116306882673105, 0.04013547480868625, 0.07510268740560344, 0.031148268218192516, -0.0030354733291254664, 0.001871876418219828, -0.014116022745829989, 0.046615302132368565, -0.04492799190239059, -0.03150543337698369, -0.03343672717968154, 0.024344373398810983, -0.0238940855076692, 0.00997465821333952, 0.032803161467950676, 0.0034653794621896834, -0.036225241204251364, 0.056818023412550975, -0.011646443573756899, 0.016685317675865372, -0.026968157109297838, 0.06373750189781523, -0.00037662460286455455, -0.03107778906929758, 0.10632066653935571, 0.009113443083685197, -0.000570964802152443, -0.053994303275280105, 0.05343603447105848, -0.050663948723125164, -0.018849886893312268, 0.007383265579629541, -0.01894853150448565, 0.08992658790794439, -0.028524396060020697, -0.06326922189329634, 0.007206230919461618, 0.000225994108314899, 0.0058511265081589575, 0.0002738924421585146, -0.03649917896595415, 0.000495565039460998, -0.054539626864695864, 0.018033954898396588, 0.054265201844538674, 0.0657294609191505, -0.0343617908003444, -0.03285788943391157, -0.035670321358618695, -0.05740154119991151, -0.020520993094237553, 0.047666519540449676, 0.027981735996219826, -0.030209678412500725, 0.03185996753616459, 0.03325489398095836, 0.03779757677744437, -0.02334428252845507, 0.04735976999270608, 0.07565373125258425, -0.00020702224456170402, 0.02425723767535715, -0.08436333540787615, -0.038395879123905755, -0.014977113671445875, 0.003020353095687379, 0.03480683601668051, 0.00651231287014668, -0.030179483019257, 0.02413016428564791, 0.006763226788176621, -0.02087539244488375, 0.014393812683798532, -0.004037424959127606, -0.05398322419094855, 0.0434624463572306, -0.05861667491663638, 0.038189650855189536, -0.004682659518606646, 0.0301591805592662, -0.02545283770434526, -0.02909767418079554, -0.036683321314144916, -0.049756879435964005, 0.016748048403987637, -0.022772576368748652, 0.00822542819295748, 0.09781127321987344, 0.03844270185547766, 0.06799449989305274, -0.04013236620117036, -0.033164087332268236, -0.04428985851688079, 0.016461101002208493, 0.0009032259944270187, -0.036074220913201054, -0.060964632407166874, -0.030313753913616313, 0.02881752433154097, 0.018384185424980923, 0.01674454722206682, -0.09656247851617643, -0.011134509258503457, 0.009100452287551906, 0.03288317238365784, 0.07455878318056759, 0.021632836817166958, 0.03344221064725997, -0.01824961764830991, -0.02403142770184812, 0.01615033272152228, 0.018956793877884282, 0.07795932939843966, 0.010930280014570207, 0.021743147039933235, -6.821030272160832e-05, -0.014896390895427884, -0.0421484400572044, -0.028798267806611256, 0.007598533539879686, 0.04636403034408932, -0.04227092467410301, -0.06668237028847726, 0.007287418203506189, -0.01860122451498961, 0.017586106227979622, -0.0057559124064437295, 0.033802652995421185, 0.002169399100170358, -0.038661151036491516, -0.008701688217695071, 0.05338810533757283, 0.010902614783249146, -0.05376499977426944, -0.025259518069331802, -0.025289838789487876, 0.0055853714958579714, 0.005257745754745645, -0.07834899198090323, -0.026357998651834948, 0.019425873831477175, -0.017679339555830485, -0.011367464423161295, 0.026263510373065336, -0.021075915735884545, -0.02245480711933976, 0.008315418516945195, 0.019795137798040284, 0.03077556120661178, 0.057675691089870154, 0.05982710110387775, 0.03709274825718024, -0.013279549940734423, -0.002140265112465822, -0.012622298697921837, 0.038900936309083874, 0.09223645058000056, -0.035167099065175386, -0.0808166355168962, -0.052561545760017425, 0.00883896886234807, -0.026335932619100614, -0.04042541976278331, 0.014319985964895685, 0.009673935248447871, -0.02305312016180416, -0.023722739419868886, -0.08667828722657021, 0.009135273855517854, -0.03774772312923567, 0.05022873170154341, 0.021958024958949846, -0.009808568949889344, 0.037203577387037196, -0.04966256239512836, -0.01866816734765823, -0.008048742992533406, -0.01510063213195403, -0.01864434031774364, -0.05149794660618107, -0.01511960708932307, 0.03994279851877574, 0.034077802433292864, -0.03061262345271461, -0.026342436741051627, 0.040432576444914964, 0.0021358312228181324, 0.02934360366508836, 0.023265652945979425, -0.0018551625559832781, 0.051643248336226424, 0.03408255201175615, -0.01358782100900323, -0.06004405551401347, -0.049902991121583945, 0.0017378108047664633, 0.06759218091146886, -0.0031678732853485173, -0.008281269052587678, -0.024000169110956333, -0.04215927330829555, 0.05074959155434543, -0.023868817368202656, -0.012868749073251654, -0.03778591706548306, -0.007859366960893741, -0.03516598834783806, -0.036292750540907144, -0.016648246194884867, 0.02783577693780959, 0.027047301365434408, -0.04150611225699324, 0.005689953656882153, 0.03602094154806905, 0.008374892167110747, -0.002416850487736527, -0.026849488712595057, 0.07116814248514919, 0.005189505716499105, 0.005721209850920994, -0.04139489691257805, 0.02518593024892017, 0.02822895857230405, 0.0393338900528491, 0.05672423176645627, -0.004927522377317211, -0.049630220341153115, 0.02927730775664269, 0.008615059958434148, 0.003982583772653848, -0.03557915096714395, 0.029639158245087262, 0.007662266055933313, -0.0046618451797484665, 0.05576255435660746, -0.0343630498573991, 0.07987552184454022, 0.04450027773742362, 0.019922915092117643, -0.025106501787629385, -0.012235459852273409, -0.06685575254926497, 0.0067792230500481705, 0.013494561157564028, 0.03871293021504423, 0.0010644950997105147, 0.01334445847099089, -0.01733503270257984, 0.01957853368232682, -0.016873079490629314, 0.0037689455292206665, 0.042435284217915314, 0.01177290050568108, 0.026655773485238798, 0.023333427376437135, -0.014933256140608104, -0.03154780392266307, 0.005919389384061876, 0.032463593493981334, 0.024596051689701123, -0.027513957391610742, -0.012475182619777102, 0.07297264922768895, -0.01938544487078658, -0.00022298664391734842, 0.010502340596112245, 0.03922189630862588, 0.03785137905681017, 0.0009548244611469463, -0.016208601841150416, 0.06927403513369713, -0.039426828711158254, 0.0207485019723295, -0.0011726597048730076, -0.007851992421939421, 0.006677673137482431, -0.014505514756640293, 0.04948971340976335, -0.014626126232488013, -0.02027305597481235, -0.038429623369775526, -0.04199908503421683, 0.02037575057731766, 0.09635286684663757, 0.0015503089602756778, 0.008803080982597614, 0.03273310104350914, 0.015363279644725667, 0.019081494592595546, 0.030772754981938242, -0.04120334640700272, -0.015746813016355804, -0.017259557029194964, 0.06205274475241694, -0.0023318822227531752, -0.03100980183506211, -0.05384509838208562, -0.007809967777029604, -0.022484384204955493, -0.011751360277695888, -0.008537123394776887, -0.012066699777841798, -0.012493204732222466, 0.012010402847619292, -0.03269215354179675, 0.05459511500582239, -0.038188482285709896, -0.0310433859557913, -0.011407679208988846, -0.02294215492043813, -0.041539587114231495, 0.0037889171379944402, -0.009889299478952946, -5.6427636404610624e-05, 0.09038018584801094, 0.03754588597073085, -0.10355437742605335, -0.04634834954214041, -0.036321275490127286, 0.0894896365641596, -0.004111086994635289, -0.003336932637761068, 0.019414164357491267, -0.011649593151823814, -0.05478275237106591, -0.022919510840484783, -0.018055521656446145, -0.06356513140101078, 0.009943447852564591, 0.012890936671540287, 0.00261321266073929, -0.034062035411578394, -0.0333643461983691, -0.0044531284050899275, -0.03444649249027207, -0.018798303387361895, 0.03604058313246865, 0.00620281919945852, -0.03175330488927144, 0.020549470326991708, -0.02448544742157945, 0.037215870405189, 0.008474757674563557, -0.05171870920378446, -0.031331463809579775, -0.039655870635383256, 0.003991469477586285, -0.04526675423477654, -0.006629439676170058, 0.02830598957087746, -0.00045170410007206564, -0.04367782703591552, -0.002466800152652464, -0.013254018205976876, 0.02127174871667805, -0.016208486126608596, 0.0040841816472815115, -0.01028907672110712, -0.016652791679651936, -0.06211182297176631, 0.06340642653106197, 0.02759400283988778, 0.04539628958442019, -0.0010364558721662354, -0.021803928787130205, 0.008931949264042692, 0.049316646718548365, 0.046966795040587844, 0.013462695060051275, 0.041526146176532115, -0.039311466149100756, 0.00522110402247202, 0.01527846106006651, 0.005732754486666602, 0.0022222357369989097, 0.011325669914866474, -0.02552145106778142, -0.04486449875961642, -0.037561283718494196, 0.00835008330275159, 0.01827283374344073, -0.05339013020849109, 0.02174161889572986, -0.04742597210162695, 0.0005667149256760068, 0.06278915566055014, 0.005082210372248053, 0.03272286418742643, -0.012900891629851464, -0.004253138909419815, 0.021806646972652364, 0.013805786959532808, 0.012966972742871478, -0.002539295293446656, -0.021499370259128233, 0.003720480471475413, -0.03373790262460636, 0.03173088871125798, -0.02507289307861199, -0.028139055938969603, -0.008952403639917497, -0.00972341253861604, 0.035308479246671715, 0.008690512551819246, 0.03185178839570398, 0.0028169586032547444, 0.012349804851242709, -0.02091033488557116, 0.0054184904737837585, -0.03249125568507751, 0.025571732114372064, 0.028626170658969885, 0.008710824698535919, -0.01633807079355686, 0.001743144442433975, -0.038755457705733236, -0.015001238496170084, -0.01832436476159946, 0.032695557835211636, 0.019073783961116614, 0.027454623427379272, 0.049649924485548814, 0.03164351244525183, -0.03994257847973004, -0.03154314713932395, -0.032945089248353245, 0.009871453692064628, 0.009374117466724893, -0.02150983181303172, 0.037084921035626654, -0.009472698729696085, 0.02602460646155371, 0.0024875677567529073, -0.011365716543539834, -0.04384624611561233, -0.049807070840202965, 0.038519739378420334, -0.007698099134683565, -0.02520030298850835, 0.011780339723491245, -0.009971515754127656, -0.0010338774931225579, 0.0005536527903529197, 0.01992962959217632, 0.0012816471362859204, -0.021486556400966958, -0.06548177313050055, -0.014258461533388193, -0.061140849297796326, -0.009802094484918126, 0.027088296867744596, 0.023496316982382835, -0.008265373191108906, -0.016320710974499192, -0.055281198658875055, 0.01991957287428074, -0.04107332945466793, 0.03380430315140301, -0.02058524935919399, 0.029424347198480357, -0.030395496235124105, 0.06271123440734694, -0.026432959767407616, -0.0026188719022342127, -0.027788209664935535, 0.02716725100904709, 0.0060503239352691154, 0.02562496963737336, 0.030744565521206874, 0.017543178950842106, -0.00947884087064197, 0.04232541177519762, -0.013321215186077276, -0.00589211756917104, -0.05777201764096487, -0.011898924036216481, -0.053060391073920944, -0.04304851430424294, -0.0429585759661659, 0.010431362924863394, -0.016444339343146052, 0.02102224613459009, -0.016907514554233016, -0.01447513864048935, -0.0034008567426672557, -0.009593476732272913, -0.07423851549565004, -0.00040833524323570926, 0.0072797955026773845, -0.0011116127814979617, 0.004611870065179293, 0.02045417970970955, 0.006856123246608596, 0.08614215341990294, 0.003124999766185327, -0.0007325242041758467, -0.001388670144737671, -0.03329408308700792, -0.026134797448097682, -0.05520586873702476, 0.010633597382632375, 0.0075613802085893606, 0.010330267742683358, -0.0017553290096939728, 0.00703067037275523, -0.06364329019583753, -0.0012672061056308017, -0.014964878466853862, 0.010454109124521287, -0.07302967448654897, -0.0003590143119712275, -0.010398495484793418, 0.009705469325059208, 0.01709020600097809, -0.0008332478258789264, -0.024452910651300765, 0.018160551259889236, 0.02949024386394828, 0.04553100548041259, -0.06947648383254319, -0.024078570396094755, -0.032894170535036994, 0.047419979602246566, -0.03366534690498083, 0.025674064676650565, -0.03693604470400035, -0.01391756671429626, -0.017927086309828557, 0.017951548894953092, 0.0032571763785828674, 0.008177103303879425, 0.0317560724973836, 0.019342186130659033, 0.0015735599238961508, -0.01414735312052974, 0.030284726628234008, -0.02489570524727964, -0.004139178891305573, 0.0037019724906478114, -0.09763606509926774, -0.01616429369694974, 0.01641575764850466, 0.011990398286974758, 0.053524993430727405, -0.0060303379327109816, -0.016694834429129116, 0.05685157356706023, -0.04545136792365698, -0.05891874856850451, -0.03732213074433881, 0.0406013167215429, 0.02187383440446958, -0.019252934114819258, 0.008578987166923917, 0.03766362925813649, 0.014403613272244924, 0.0445517715498518, -0.06369650379059956, -0.07390990461289837, -0.05976292455647155, 0.004859501034886185, 0.03611025188184971, 0.004052213600667856, -0.027571467194490565, -0.05238160444695928, -0.026229756576461656, -0.007867305729432988, -0.023879934748856437, 0.00195234824049801, 0.01286780203620543, -0.014815230105470858, -0.033532711208547006, -0.039572277012601416, -0.009865041189426806, 0.012921176698432362, 0.01132870119844282, 0.005703126438676279, 0.031027847392568766, -0.01658624909955535, -0.027101886761620946, 0.08086241244529677, 0.032332248880888995, -0.02735389206225855, 0.03575852944665566, -0.02336701275872775, 0.009510822306657757, 0.010502153224767026, 0.014686252023862329, -0.052169100045863066, 0.023621549826835744, 0.03707566726573459, 0.008258529434579285, -0.043233977581151065, -0.04420302273067133, 0.026017880429545035, -0.03978601466482621, 0.012463100784180368, -0.012282258657983752, -0.012441072063781413, -0.004275707506522032, -0.00028134767940913403, 0.004198413648886627, -0.06738854757707677, -0.03435920502766054, 0.03916049693284589, 0.035103780679133445, 0.055554932678587333, -0.01988196490287218], [0.01693113361096582, -0.04743878037689673, 0.02641831361631144, -0.014590641931909712, 0.0304894699174946, 0.022352726518435593, 0.02010074084788391, 0.07046427363793596, -0.0372265115733586, -0.02353976935956744, 0.022177306364292597, -0.014607970232150777, 0.026866445794725857, -0.05516040308827169, 0.020370534215100457, -0.01920053683777365, 0.002890413478154165, 0.01471618154338307, -0.006356461142728477, -0.04818096607384056, -0.028843316548809915, 0.015475448937608398, 0.04371017995714715, 0.025305475897417107, 0.056359832056163295, 0.036703223229523095, -0.01056452090961046, 0.011244229226105138, -0.009566440887744587, 0.045252694367937586, -0.010088242894540638, 0.025950073140646544, -0.0728101955275574, 0.03025661466188226, -0.022621778228920374, -0.043209751286683334, -0.006657975191254418, -0.06410032115607876, 0.034615766110420144, 0.06929467017900101, 0.0016484943787878925, 0.007012245262392456, 0.018582721541413497, 0.0784431700946853, -0.003482304898262272, -0.0057738803132935885, -0.04643501074077332, -0.03452570592113972, -0.07447260540371572, 0.008466983156122649, -0.02265777626639254, 0.060932374266452816, 0.022340524183681508, -0.03645670135062489, -0.008441928959005087, -0.015516190047410349, -0.013959197365084221, -0.11667161448565622, -0.022785350009903577, -0.042207316482964725, 0.11161678497206397, 0.0563539026596149, 0.009843413931443432, -0.015446488063527978, 0.005489408629141447, 0.01659659140941599, 0.008988026347458353, 0.02373624154178832, -0.006226339747551274, 0.0011356039886868735, -0.06974107392247607, 0.0073596772519705965, -0.05674344868851962, 0.041863293282523285, -0.017526033195532007, -0.05654027222869774, 0.025025103252856815, 0.06722054863966957, 0.032516183434888477, -0.005113952420343073, -0.004789600951493542, 0.02728892202742225, 0.01629353355221737, 0.0025968621646816075, 0.07895325376980981, -0.011795178334799105, 0.05021851348071197, -0.044889260610678175, 0.00850201705103365, 0.008689857552428223, 0.04289055328500995, -0.015389710321281568, 0.019866443233823465, -0.04285532555703747, -0.025045606325193807, 0.034407215086746615, 0.02013038099892041, -0.003544186709486684, -0.03428227757380136, 0.03798822736207023, 0.0007212924485785558, 0.0038110101169965558, 0.06682796026311626, 0.03665547985608902, -0.028813069294585276, 0.010857369681608343, -0.08076654851907186, 0.001739138150317613, -0.04612858448860417, 0.03417447751646221, 0.08630589263428648, 0.010723139088432409, 0.04756184319964797, 0.015174186624004805, -0.02366488520295507, -0.013213429073880682, -0.02262965638906508, -0.031658650343037074, 8.377863902640456e-05, 0.017735160042016546, 0.005830851329064539, 0.08796423991788539, 0.04332984502331818, 0.013479943839482436, -0.015108052554343658, -0.045477583573886454, 0.002600689452953572, 0.010833649588434694, 0.009581261317503764, 0.01772114137098604, -0.04478634931563616, 0.031657022590146765, -0.09372188429143663, -0.058914488688808386, -0.024104209364418316, -0.015404709093420592, -0.02865385291648932, 0.0215520042964417, -0.011452188877653188, -0.010667913964812807, -0.06540543321412672, -0.06222184118660642, 0.01646385367737325, -0.05704473019837723, 0.00968210019427431, -0.009249573727984848, -0.04373099657530079, -0.06043727060645148, -0.0358222379886189, -0.0090516925008441, 0.03269150482514429, 0.008975916403210835, 0.01123146410161684, 0.04074859976498646, 0.011451417752695477, -0.002456332964221474, 0.06945620167534788, 0.0680558520056406, -0.006332187694804344, 0.025268970540117584, -0.02686324511187639, -0.00011208342817438208, 0.05189530850352424, -0.00921250733033, -0.02423360167241188, -0.07624793699035565, 0.0571432621865659, 0.031335940190549715, -0.02715167129628957, -0.02801910926420147, 0.01994114871137288, 0.011694515582535921, 0.009634689192703608, -0.03867229602133223, -0.028771069791271364, 0.05896067761289022, -0.00318044083098676, 0.0003294233876464514, 0.025318612932973092, -0.021991768419685077, 0.0010152166746354126, -0.013038012780625816, 0.10235098793795798, -0.06931822201366386, -0.05060382504749351, 0.060208746197106956, -0.04250092119581541, 0.02616341600732976, -0.03340730348321219, 0.01241297873325813, -0.004652672792441286, -0.07215469510237957, 0.07288725438542805, -0.03885406948233028, 0.024334135890770263, -0.012941394385423386, -0.016032031033997002, -0.03998213704197073, 0.00017793327198416183, -0.023361564960688596, 0.002936624288336682, -0.004384600027617324, -0.02962132391918328, 0.029609520526773108, 0.035371691779358144, 0.027390400872700532, -0.017040464684483253, -0.044128816674212416, -0.02918091042411491, 0.037669764346393374, 0.05725065195402876, 0.021418721861553407, 0.046917251448998595, 0.0051678575970726765, -0.03775289075429881, 0.03496716394243341, 0.009297540888230548, -0.01831087429790394, -0.030329734769707403, -0.06211640499318116, 0.04293869181057192, 0.006301477003887282, 0.04603570692472652, -0.03221889343632186, 0.008784762836142872, 0.02101542075618468, -0.06456710467863634, -0.04263790035697647, 0.01959819779530881, 0.07783557216916594, -0.024150328044224185, 0.025459779066886293, -0.05346941095218101, 0.0039317899902989685, -0.008140617112296694, 0.07367640328860162, -0.032977884993851556, -0.018722688022969183, 0.03424873864747309, 0.010520833934427558, -0.03152859305242134, -0.018179757632332705, -0.0070070565095145705, 0.0065353228440449655, -0.006104237029165311, -0.030043675713455537, -0.0027897938256812083, -0.027679317353062737, 0.019407331044133447, 0.04720321885260081, -0.06154097457669011, -0.07324717278771774, -0.012049207310799871, -0.027548986877901672, -0.008918279866932662, -0.04541207853756863, -0.03962968962831245, -0.0010701574133047684, -0.03128209283851861, -0.019117034426577893, -0.026218349963407096, -0.044774392292466, -0.07716205724015551, 0.0074907594528280785, -0.011845755296508874, -0.01668632448517357, 0.05337405744936166, -0.03180226037204051, 0.024004633759181694, 0.028134483459749345, 0.005723120467924159, 0.008535470708703568, -0.0075822260100367215, 0.09063108684007326, 0.025705220351704937, -0.007324395847852558, 0.011009795899885702, 0.013431933504868921, 0.08306191352685337, 0.03459211056950155, -0.00805722347417801, 0.015153270754405455, -0.0012499272467284721, -0.04864236513852961, 0.05196426700204535, -0.00041451675812189255, -0.005274255499796104, -0.042826176401588846, -0.032760428569586435, -0.042708802492808916, 0.021609989877678943, 0.033048620756303944, 0.019859802477301854, -0.00690243651668782, 0.043483656103733205, -0.014572865890300697, -0.0005468757496611804, -0.009730203196891964, -0.015161717395516954, -0.03446808660698708, 0.02962526679635913, 0.04339776902046833, 0.08629893413507812, 0.0019767316948135732, -0.010019154666795538, 0.012996702027094832, 0.03217345576412279, -0.04483953552866018, 0.0943585139576271, 0.009706968793092928, -0.0374919483506544, -0.015083027610229179, -0.007285521084576791, 0.00859610958711786, -0.06961191101491414, 0.0434340984603388, -0.01896763761504692, 0.050548134555026, -0.04752735057835701, 0.01642812228126081, -0.0011461155684473114, -0.07183649434805767, -0.04097699691774333, -0.054366158516975224, -0.04466793887636438, 0.0327841943213252, 0.0060554120643691615, -0.08212247163155989, -0.05486433355900054, 0.026098394462778642, -0.015861034168304738, -0.02155763356562144, -0.04073562127589827, -0.002344386705087211, 0.013544772339230137, -0.0045593862676432464, 0.030998976614216557, -0.006825702045179426, 0.04860969715017011, 0.02169906698493764, -0.016061045152077034, 0.003691333632170348, 0.0062408461896183275, -0.04904246627131578, 0.019131970798055554, -0.019305155507013665, -0.010068580034734645, -0.03285379037173109, -0.03080845497595179, -0.012867764437567177, -0.0031410479937109283, 0.011779367511102465, 0.006186549969911346, 0.011473654065168258, -0.008833898921222189, 0.0280535208419291, -0.046228075106146085, 0.020362524165797497, 0.015424668354534833, 0.005297982779196482, -0.02669702560067158, 0.043314045879332526, 0.02123029928378757, -0.028933221902437557, 0.06905154682139863, -0.02783849456840207, 0.03998479863111568, 0.083819818498694, 0.032461677130364734, 0.040639413928315535, 0.05111396275594726, -0.05007237319119491, 0.02298841046615159, -0.03713503149696726, -0.08702499339661612, 0.0029766133390470547, 0.017415291294873868, -0.040235049161401436, -0.005057381011963554, 0.016821858007017916, 0.061000277307166596, 0.0011367853843436734, -0.027293793496356765, -0.04470069309679865, 0.015438510336349574, 0.03303670315735596, -0.003093743675100835, -0.029817336237278124, -0.01625209308315814, 0.0025276212555108133, 0.028487414686732982, 0.04352640819436705, -0.011051416496683591, 0.04747811294222088, 0.007398487072931096, 0.06805728581938898, -0.004890674006602487, -0.004867032877734341, -0.01162280371211675, 0.06721009612026843, -0.03625379223908894, 0.012114479529734039, 0.069206768250849, 0.018655319942850655, -0.020515512686958788, -0.015212892687801039, 0.028737557404623252, -0.03670870989024351, -0.015555492735908774, 0.023712935744814027, -0.028664131125092973, 0.021287327778232615, 0.024282008671616343, 0.011815553859167528, -0.06372617718893564, -0.011066600543897128, -0.01097799247351906, -0.0056804243955447375, -0.03119029301471215, 0.050474739800330945, 0.02190886647371135, -0.022943224923571755, -0.0009139724960207882, 0.03361905675819875, -0.04956555917919842, -0.0577801314522338, -0.001999349049807692, 0.006148748321619827, -0.011322808307315144, 0.05358532533092519, 0.02108567473449008, -0.027713233732269818, -0.003946126033620296, -0.028316578056605486, -0.03209505537163736, 0.04654299921847344, -0.011601937705193261, 0.009293978673034964, 0.013867295268846664, -0.021407898598766607, -0.017736173101709374, -0.015033201573976914, 0.04154561427265288, 0.0038367236926325726, -0.000581281360077469, 0.03386480826255774, -0.04052001865949865, 0.007628972480785102, -0.0312940147867365, -0.01855324425351365, -0.05078333234012595, 0.06714695093624538, 0.0071474287268551194, -0.04215245284732278, -0.016520735572232794, 0.019971741291111053, 0.018900124787656597, -0.039402604317908006, 0.011185100169451914, 0.020554759238639288, -0.002752845531938355, 0.01152918352991781, -0.019879591310977295, -0.02869271078049343, -0.024009758902970572, 0.006628847803453136, -0.07669309974773526, 0.02088423759412384, 0.013764727766966101, 0.06840995645848572, 0.04070324246259622, -0.009632259832006674, -0.014781639035971284, 0.018073536199582976, -0.008673278089346913, -0.05696295663102345, 0.05734104398966, 0.0066567440706605035, 0.013512120145321209, 0.0015771721825719957, 0.004810722213287883, 0.01911114115591646, 0.0433828388343826, 0.026043723696436514, 0.005111485793296239, -0.10732386429463892, 0.09153050418087805, -0.011896483158528901, 0.03626811409636674, -0.03868710442965136, -0.03998468776581705, -0.019974003059648807, -0.07259417349308914, 0.006314170549845013, 0.032567619180674884, -0.03784856860845163, 0.033453675207227765, -0.013821595093718012, -0.08299913040494011, -0.006174326348939402, 0.0142958162638334, -0.004142480139619461, -0.010026251292607296, 0.06151449788376317, 0.0018277190420463057, 0.020521650925731615, -0.0274536436799089, -0.024544036585415617, 0.041680673854149426, 0.011891673255132294, -0.006078882217889087, 0.0021647376756847004, -0.033144102177510015, 0.04409740385302851, 0.005098352419311422, 0.025611371254532642, 0.004645195642050642, -0.010461141010939265, 0.05350024790083007, -0.0027855676611900433, -0.01180168921740684, -0.05574954477754638, -0.03280364457562563, 0.041385010703216665, -0.00962735454671968, 0.04270723012345969, -0.006665189271557209, 0.005585102498028565, -0.006725369698114663, 0.016267294002006032, -0.0059284813616752195, -0.06869391806978209, 0.027860778274171414, 0.03238420397929754, -0.0012767758849724562, 0.045033605202142196, -0.0964724387352518, -0.042480019380555754, 0.0054555181425507086, -0.007991852046272303, 0.013608779913608201, -0.019106774123879764, 0.017588004703086906, 0.02386956908057753, -0.024555001820115913, -0.002215010210225701, 0.025680132335841935, 0.014175111215722404, -0.0799104288696194, 0.03415365265530861, -0.021605334854568697, -0.05595883664939565, 0.010518919052967897, 0.0006475903723076534, -0.013301124969508655, -0.015411925032418295, -0.0051584475771720185, 0.021672610660997113, 0.03727375010755397, -0.019028434891994624, 0.07439205334592404, 0.04211563663758308, 0.028436376036939905, 0.027468708676593054, -0.011864196140196025, -0.008724194127560559, 0.006023499752013519, -0.007902112327359724, 0.03860971573512284, -0.02930209749293786, -0.01714330216515296, 0.012034857332965821, -0.005800837573539853, -0.08730335764870245, 0.006641913809256946, -0.019538476295977995, -0.011107664992864481, -0.0655213881891132, 0.042340843346716665, -0.07373443122332848, 0.0241117545529386, 0.06869820347954407, -0.005534156591500745, 0.05758975189673448, -0.0200252019230715, 0.05159674705308216, 0.027341555219916432, -0.01514320030940422, 0.023798714232031604, 0.08490442476748725, -0.0122911665733234, -0.012330315829083312, -0.024332800334653338, -0.061918776550114414, -0.07657481739112948, 0.02818723622953409, -0.04751125404922365, -0.003769114146247098, -0.04056877487795481, 0.04000661889165086, -0.04452252598522982, 0.01048943252738549, 0.05055421586841156, 0.014937242979189969, 0.032206993794952225, 6.555441411259013e-05, 0.0022022572829590546, 0.0414825785681579, -0.014831524501776912, 0.0020947471914702248, 0.07027537255772971, 0.012890779929933805, 0.01090206096887747, -0.007282173999062806, 0.011825013276042755, 0.00838945105965248, -0.015835247486242404, -0.02407927236725056, -0.026488612219350366, -0.04241016020422307, 0.014289651563394961, 0.0442521474200517, -0.01400047396704856, 0.00829008904886202, 0.07731545750060431, -0.017367311338343856, 0.03825809009912297, 0.008575990411004143, -0.029290493614252726, -0.004305250191805231, 0.04463866879888298, 0.002177459741358764, -0.0060658515131173625, 0.051405475360696916, -0.02549468846910684, -0.026030301703890688, -0.02892363649667085, -0.07521971002952565, 0.016422127560101637, 0.004383057794141839, 0.0014891561380311982, 0.05037178817473249, -0.0002554639368408975, -0.05752741444609201, 0.0518136588391604, 0.02517110093382336, 0.041940831467451076, -0.0203045314635301, 0.05431331816709823, 0.00027912988100100677, 0.017409400346707262, -0.008155003560462528, 0.0004411251309166193, -0.05677581801270618, -0.005127095379208022, -0.02027955039006601, 0.05292196386527351, 0.012408496238812556, 0.030434799063140575, -0.024644621334921103, 0.044926294643987806, -0.0600966208595959, 0.03965834161103225, -0.06304865508166507, 0.006563205558654094, 0.03660387819552366, 0.004391444132632416, 0.013571555000550746, -0.04452716082625839, 0.013264961077365835, -0.05783018414701451, 0.05060782274827829, 0.04953965166324624, -0.06588709494199683, 0.04778716129759699, -0.05663577133332536, 0.010352712887122752, 0.007149145159486954, -0.06960877365624166, 0.015161089017773488, 0.02464054994531299, -0.029371462229291236, 0.013037266854260245, -0.03104676430479234, -0.03127726320833444, -0.015526826443867455, 0.023972569287082513, -0.001764515090526031, 0.00813430433223168, 0.00942160111670373, -0.010416202351363776, -0.025229846784386393, 0.02703412071930209, 0.0638560574669154, 0.07281561469919115, -0.019537285839100558, 0.027192723111847623, -0.0008881272839345383, 0.03598599994640551, -0.02795018543283931, -0.007555869271421979, 0.016495122279784193, -0.025982144795358233, -0.05552090718738313, -0.005969057857296314, -0.01128782269460299, -0.020996994756173483, -0.021068944958260206, 0.014469269929374858, 0.02012643068565872, 0.026171242736745867, -0.022383860017168248, -0.05201224016911404, -0.016177529947528427, 0.023190233523595297, 0.03338506071013264, -0.002395420704503458, -0.041338057919847626, -0.05705523493577836, -0.02250868454342683, -0.019920312056807676, 0.049172654269538145, -0.017669926361069677, -0.06654137578338978, 0.04922175137560968, -0.004118766831254494, -0.06770065566619568, -0.028394473224499235, -0.056892576263289155, 0.012208458757192783, 0.05796759546514491, -0.0068901591731741554, 0.03831214790503312, 0.03147294840983157, 0.10387946032023687, -0.06947517975678343, 0.03210933638286392, 0.0005649267902597425, 0.00937748566060551, -0.033126936434156436, -0.042296693543183425, 0.0020302692267859987, 0.005394274503607308, 0.04059124254416875, 0.0013498608179537794, 0.02574746952220523, 0.01788590345474116, 0.10080651915441724, 0.018728457550827374, 0.06309151101508664, 0.05256125779827412, 0.01341216444691447, 0.03717011298216188, 0.11797963011753251, 0.009913468942665492, 0.028525018225176814, -0.03104008571212002, -0.03656499580860827, -0.056950585929328175, 0.006204253971786091, -0.010320237775723372, -0.026337900112338747, -0.02596059244236624, -0.024245138560157652, -0.06906770088281049, 0.009252415662906188, -0.024082353863218397, 0.028541229404072353, -0.021376554659941382, 0.03503431842287109, -0.006344504659749651, 0.011276439785873432, 0.08204057051961443, -0.035751975980751055, -0.03265994341643558, -0.03192216416227357, -0.003567644179479242, -0.07265704765824091, 0.003215972370222383, 0.059589539381406584, -0.02499212496611535, 0.021952576866859145, -0.02072174300893386, 0.02751994747255961], [-0.06522609948135781, -0.00903293752556, -0.021726642223835035, 0.004166654617121858, 0.04828677155541828, -0.015197258428478619, -0.004181613617437842, -0.007553794055478859, -0.01668325719216651, 0.040391363994586815, 0.02087875594539901, -0.01723578182394359, 0.02571263355167648, 0.010065531429760953, -0.027865027213411872, 0.05049908595346156, 0.02408238123811084, -0.02331643475685966, -0.07655837618413268, 0.020622423896589945, 0.06214521656001621, 0.02578863946826234, 0.041198091741858234, 0.026364687477733215, 0.023373203232183525, 0.010207004855898025, 0.04072552446866699, 0.005950975027842094, 0.019203401420238186, 0.02432676597418754, 0.002651181502732904, 0.0033331816145560932, -0.01939850933329806, 0.011575636581606983, -0.032904967840606904, 0.03365432532881473, -0.03698311978214936, -0.007466507872311093, -0.0243151769325999, 0.05679418140986719, 0.03698844322016595, 0.01029875017578687, -0.039327843256589175, 0.03411722026840474, 0.05170109948596821, 0.03642200763817511, -0.006664349999571789, -0.00604598259335946, 0.01578525672800724, 0.019525902542180985, 0.030519269186620804, -0.02676324050059682, -0.010048079974539085, 0.01932751241456287, -0.07454001980498212, 0.008320384033192341, 0.016618231276611013, -0.04886795067131877, 0.005839070473440247, -0.04125557899393642, 0.0028986287601698336, -0.01951407254103401, -0.03678235208076284, -0.04025825118955185, 0.003226281049759982, 0.01852121516953845, -0.016713604044208956, -0.049660903440502766, 0.055910619105663, -0.04426205839738878, 0.037756094162410034, 0.00045175679003298574, 0.01086908127382356, -0.008261283906476046, -0.013148749604902539, -0.023626459810683655, -0.059473535509926685, 0.005368485590061081, 0.06372039571350421, -0.0022950046639573997, 0.02386416789851944, -0.016757242389354225, -0.012069902813954375, 0.0035062675234179136, -0.024328171200982497, -0.0013000484903900246, -0.028569484720771664, -0.03606374798283523, -0.041012222638492454, 0.0030970914165658475, -0.03944869355604528, 0.008192222455213767, 0.029536187098240706, -0.054232059645355116, 0.017326026242810568, -0.011989732246693544, 0.016791460513716463, 0.05103277585266053, -0.03563572980318419, -0.04165953498799752, -0.027053621625961862, 0.03500759255919791, 0.030593161248193466, 0.05891745032914251, 0.04143790788919704, 0.06002893966176275, 0.018360042560349284, -0.08272420946957422, -0.03170146105775426, -0.01994338499251015, -0.030730820913286574, -0.029575600433710447, 0.0428190766102703, 0.04044776241209387, -0.02965640383346275, 0.03268084675051554, -0.006500528487634589, 0.02155971152115812, 0.07723911212887162, -0.01871683782036127, -0.00617606717963385, -0.019569754760464228, -0.014440309975839566, 0.009551450352911392, 0.04000938070476124, -0.006464303851990934, -0.04002571102364374, -0.04060770938035315, 0.015673757061658074, -0.03830999978094677, 0.06510803123486855, -0.002153736446028372, -0.02362201039188691, 0.041342224750956606, 0.07295873706220234, 0.033819029847489156, 0.0037191087360543915, 0.013720626582918774, 0.007230919696609079, -0.018391471687021023, -0.005849965059174636, 0.011204832241545585, 0.04572334617824296, 0.09155884312321821, -0.01167855354039678, -0.04058790628909524, -0.006082908383624407, -0.048187086430431424, 0.017821837838062578, 0.009160098191018673, -0.005233535351960482, 0.01793171652186141, -0.07697721480478105, 0.04317205426085008, 0.009491946308997988, -0.028544203881598184, -0.02340847311200926, -0.06467562503419627, 0.051274938122338166, 0.036290868583753695, -0.059234333371138995, -0.007577414258206612, 0.018546802654963855, 0.0931565561890021, -0.045770875098351364, -0.03278715654089293, 0.01434254627447407, 0.03852422226520515, 0.04375269921348069, 0.027804085409840258, 0.02705613626272893, 0.00304064505683523, -0.03185121971808981, 0.01742682035100628, -0.04136207172397787, 0.03093310842156975, 0.0488268538746885, 0.048039498263550626, 0.00218596558846241, 0.048847371500178094, -0.0022518873104297645, -0.03707888336802718, 0.005971553187242878, -0.014668421577072571, 0.03494000420409117, -0.04353876386106905, -0.017755665735893402, -0.037124093863677224, -0.05143198157231528, -0.00023105830369360634, -0.012163241972139272, 0.03571637121213536, -0.05068389236318318, -0.0047498628889681965, -0.007083748159869521, 0.05343796929579952, 0.02175006866568775, 0.039191864615189205, 0.00153253038306211, 0.04114192388649878, -0.018460896596889466, -0.0649821188867011, -0.015319194998475859, 0.021207986915356088, -0.009411959372388111, 0.0259949202607941, 0.010615601966472044, 0.042290636588729516, 0.04380062445645702, 0.06118133488909495, -0.059556063704671314, -0.020881785370106463, -0.031671278444110884, -0.02836304058800894, -0.0038453156574211763, 0.006762093764478176, 0.06133799208847956, -0.0023051208699533025, 0.048793594927588786, 0.041331813103198584, 0.04085035657654776, 0.0364715455070302, 0.02130009731953295, 0.01661080662189079, -0.027398413994999045, 0.00426711063842599, 0.01395541539778289, 0.05367906445048693, 0.004465568922582044, 0.004248293653924468, 0.025049146002949656, -0.02545464612644507, 0.01601477614772133, -0.0321613773393867, -0.008928333975381014, 0.017012403182941855, -0.053254272486629776, 0.06006005858432309, 0.0025591098115743255, -0.01652129796192764, -0.09705946883146516, 0.032656135096683275, 0.029117759683998108, 0.014152673754494303, 0.037257658807990424, -0.06347848087967788, -0.01828075564880128, -0.005701332910904793, -0.027747851477973127, -0.015416172518549896, 0.01415928890004097, 7.142959123283833e-05, -0.047510047719631715, -0.009738837778425238, -0.014453248674936844, 0.006742405259048916, -0.029829128440012745, 0.0013955921238250877, -0.02112731714796413, 0.020336921100116895, 0.016311090221184595, -0.00026034662867331225, -0.02330999241638141, -0.016085305956239655, 0.0517103071005025, 0.007936907798687817, 0.011522934056507042, 0.005948918723384938, 0.04237225420959413, -0.023517762019888054, -0.010667329141485549, -0.050596080849007505, -0.04532120549206276, -0.0182406114291104, -0.021204554333003642, 0.01465259620351635, -0.015884279829378362, 0.024376631408140975, 0.0066243148856188925, 0.03004554029533465, 0.043268089573377064, 0.023128292582804365, -0.0273899643908866, 0.0007292525235153774, -0.010769935120794109, 0.008691507618805466, -0.04208876218613697, -0.0027581123824680326, -0.06078374977386931, -0.030166989186206694, -0.033762341538705, 0.027657914430297276, 0.018019425669147285, 0.03859203863893718, -0.04115414150397342, 0.007888049935776801, 0.025472840526023298, -0.029366540990008582, -0.021950964686992657, -0.03912013396116383, -0.01302755471020244, -0.02600745989267368, 0.06130183302333655, 0.03255354270705483, -0.002949804091077616, -0.025841201182022072, 0.10204308053943555, -0.014112969610277472, 0.012265721538184686, 0.08706411727276343, -0.04296655848016697, 0.04563586181812631, -0.04350387632674277, 0.027341512568305658, -0.021293163081828846, 0.0066410508820794285, -0.0022394323927569957, -0.023374022102778096, 0.03736822896284188, 0.029400425316892412, 0.01223706518851554, -0.03349547413428643, -0.02900831457042519, -0.010247726592162727, -0.04821588730044363, 0.05414032437628331, -0.06702063269303751, 0.05616654567437573, 0.002740222871368437, -0.009056022034179672, -0.023061523171272497, 0.02368550035512737, 0.006174117068072749, -0.06952062559640992, -0.025573380249337283, -0.009493209333413258, 0.036080322676361985, -0.006020056803680602, -0.01608621976420284, 0.02324275381112022, 0.007886478143849561, -0.03149601545955201, -0.08628353181998086, 0.016237628414599685, -0.07984558072850938, 0.030388054618241775, 0.08064316931635175, 0.03220731147858087, 0.015773242348395063, -0.031085601940914726, -0.008605449506404957, 0.021388848938433205, -0.03076452876981052, -0.009822272855848295, 0.03277677454125039, 0.008787376839257755, 0.011148891274308542, 0.01861412595946521, -0.06539445649562689, -0.07110449922804997, -0.0015457412520717985, -0.005036121242326646, -0.03588552897796231, -0.04978147513465417, -0.05588190899967647, -0.037761730050435725, 0.011579573034675494, 0.09371426657533369, -0.028965666192010547, -0.022335547320626502, 0.04629626984170139, -0.03994204129270757, -0.0073190774783950035, 0.014533814542849115, 0.0215655633031472, 0.01139506473034446, -0.035619128021513964, 0.07470343179847663, -0.02241535329848641, 0.005971339128664412, -0.028534524794774002, 0.004488378306455882, -0.03656108826702777, 0.026668960478771462, 0.022471348481076115, -0.043981240844859285, -0.0023984869507129728, -0.05454603192014551, 0.07124512071216842, 0.047348586803878205, -0.020220481091239226, 0.01867982375480873, 0.004760959192807595, -0.024406448306934853, 0.004583307510790841, 0.03387934278660037, 0.03629904832132848, -0.047492861786987084, 0.037364643150583604, 0.007359625767155413, 0.017129151687821517, 0.02364943689198248, 0.01644227044538007, -0.0002490323073087031, -0.07609408231372713, 0.0042403060866624265, -0.05738205309887995, 0.015756351594675113, 0.05257053790888337, 0.015556314363392767, 0.05399576748562292, -0.009873149850737103, -0.008109792949157198, -0.008480000540439405, -0.0016766786562962077, -0.0416154670935618, -0.01154168581310194, -0.018172528419018258, -0.007319037978504875, 0.012090333900061239, 0.040221794076659, 0.056574922331986494, 0.04645632311837974, -0.019682652229244854, -0.04032391594830032, 0.01502347176265831, -0.045343946166032024, -0.053303404789294254, -0.007063135218262321, -0.004676635925245264, -0.05709634638629371, 0.04278128745365856, 0.048586193430844415, -0.005677556718897113, -0.005620991034696431, -0.019383072569573053, -0.03216956509771291, -0.056333265181054755, -0.006391449581876656, -0.05306745134367127, 0.04997422621343938, 0.04566964783970549, 0.012309756512808908, -0.07805799574169374, 0.017505847073600832, 0.0018193654099248426, -0.01418369947535328, -0.030212196208193987, 0.03451592147002678, 0.0031341070573201943, -0.004235915794027971, -0.020398776547904382, 0.0531401127765959, -0.017006275155489324, -0.028754435614297236, 0.01594125275391086, -0.004266884387111907, -0.09310876405585583, 0.03656224218852345, 0.027654365169923194, 0.010954188174282701, -0.033688193650085095, 0.039467797169330694, -0.006793493594023929, 0.003853308107993351, 0.05968780807820908, 0.0017182491516594288, -0.03680387903168187, 0.02696901236878918, 0.00987519437411685, 0.03895832855780704, 0.0788411844539587, -0.007487087821241992, -0.02446286079709964, 0.037123640244709336, 0.014939550146543131, 0.039390600852435016, 0.0004458385019120426, 0.04660697512607763, 0.009719527364814597, 0.04342081443601981, -0.0032432622634118633, 0.003416528853059066, -0.00855442372048878, -0.029797880095802774, -0.050313644387666286, 0.03397219492083784, 0.039563643169248014, 0.04465503869134054, 0.016740232283868603, 0.0021497619702341847, -0.052764099598243054, -0.04177122315339755, -0.029895556547766006, 0.0058407498472607105, 0.0156282111276667, 0.011761645091330663, -0.0307251493010427, -0.05405622644693859, -0.03810325086281675, -0.004885234774154456, 0.03246284670589451, -0.017875162139235894, 0.0882434992052254, -0.014040397044232576, 0.0001404901447298112, 0.04821558011385609, -0.039850986884951846, 0.0680618317373159, 0.0003110955898780396, 0.057607943047715215, -0.011141964840105373, -0.02592607851984919, -0.0500325723183026, 0.004840120253202151, -0.04930117812556516, -0.031083362318073387, 0.004827687158791715, -0.044633513764574965, 0.04082434401430698, -0.046244779293376656, 0.026740838306781513, -0.07043125950641282, 0.0009247070775680875, 0.010493070621927328, 0.004331137565686997, -0.013660389616400736, 0.030491222409921363, -0.009600422150117678, -0.019666372757372513, -0.019551360240793885, -0.027777731753625395, -0.0022563591647711606, -0.006996938183098757, 0.041626422522116104, -0.07275057449445615, -0.030087585053552916, -0.07649778557727427, 0.009135590465081705, -0.021645457780653486, 0.011095466958484675, 0.03843898244454853, 0.027857237867997115, 0.011564178378333336, 0.04133341063932344, -0.04974945052301101, -0.030903048789295003, -0.024903100329838234, -0.0036254237010932954, -0.0511840353144395, -0.003834530573956474, -0.022689975475672648, 0.010740163631270732, -0.018698416512857138, 0.020713801297736405, -0.003958161020430703, 0.012963245659750338, 0.02108742118833004, -0.061434803526523446, -0.03492301136724786, 0.05447500039844864, -0.02411952790678323, 0.006753273356675502, -0.008438507367152136, 0.019056359638703346, -0.03577640262949014, -0.02721923086239108, -0.07267138209769301, -0.07221240030635115, 0.055562632506658924, 0.06248647202325857, -0.08133132220105323, 0.0044719491157522075, -0.0026216383048271474, -0.012585840564114374, -0.041761100173545986, -0.05003586476914248, 0.05099693075632966, 0.002072450864214508, -0.07702673584940894, -0.08254629940945392, 0.015036288638981024, 0.03139201682865825, -0.02990283956655306, -0.010324238002032245, -0.017288691860516545, 0.009756836538611528, -0.010127272017693851, 0.027890583634670472, -0.03502321560432982, 0.024023399230067858, 0.043778438952802326, 0.05675793031418993, -0.014531127250947023, -0.014433683685916743, -0.03685217824221858, -0.009411235104721761, -0.023464049325225302, -0.021509847294573798, -0.07225486615446375, -0.010108609374629542, -0.007839468837750805, 0.0025349615314538554, -0.01532763486952263, -0.06338849506550819, -0.0006980116026774635, 0.05366559605158234, -0.009925621868258636, 0.09698726796275224, 0.01069720518957359, -0.0007808068499102599, -0.04711463812960938, -0.009777864409450814, 0.0034171301424944954, 0.0730106843439777, 0.04519078429090599, -0.02101648249639461, 0.02442909606318104, 0.021240843907327802, 0.0028123676751502505, 0.03140988407132042, -0.046548568436133426, -0.029485139560879073, 0.0014799401813973588, -0.05915504899016876, 0.008542184045121493, 0.006925917843027405, -0.03968660425537744, 0.11852745603407248, -0.006775977304876865, 0.010011871873708814, -0.008383846803823768, -0.050276472674282674, -0.023794155644846996, 0.008958762311874053, -0.006925747607138388, 0.027370426115236178, 0.013274599968443051, -0.043122099088591645, 0.05117961458619039, 0.05078103362819837, 0.003303715953552223, 0.03148932322712001, 0.07012854846072922, 0.007709160749839789, -0.03217814842591837, 0.0009755707301912169, -0.043067493157725095, -0.06479331408839605, 0.02921055438655356, 0.030410249807451835, 0.011816655185080372, 0.045914771520621706, -0.02239613976097417, -0.04157970294423548, -0.0004266013414956416, -0.05798806385547299, 0.00019985674468521268, 0.02487643933223647, -0.032306670927448, 0.06535595528089945, -0.02906345458677775, -0.0324214490633445, 0.03641479878428903, 0.0015581017081431577, -0.057612603699402284, -0.013636938563342044, -0.01405588900966916, 0.024414828115908966, 0.0020376037835765663, -0.015316173910192292, -0.04219355913330566, 0.030782296981875602, 0.004287347507713485, 0.026043361210648708, 0.008825613556041568, 0.009402927159136957, 0.010007276190721181, -0.029454427641255162, 0.016498536456632986, 0.04934713203029451, -0.014111073321414648, -0.09146880936545365, -0.020059375439306085, -0.014549631798371626, 0.028604333444993833, -0.007936150571723727, 0.006831410103276394, -0.1346899425545497, -0.008137613745758568, -0.013814617457741459, 0.021848721907528873, 0.016098756427165906, -0.050136478821896646, -0.054791024186059384, -0.010503575300811885, -0.007572032548228272, -0.011536292378421947, -0.014836588398115597, -0.052028297862705616, 0.014949268269230804, 0.005072241852709005, -0.021272030768598967, -0.021232276660868164, -0.041555091748987597, 0.03334025943736472, 0.058967680547576694, 0.024032548295100285, 0.014920711532934903, 0.05471561364620471, 0.00950602918670933, 0.04205730500440307, -0.02207598545710956, 0.021550688623554384, 0.02735595718280688, -0.010876900458304771, 0.00418804999151118, -0.023923437090057852, -0.07226046058431561, 0.03802600344438822, 0.04926526183199648, 0.005236578393921777, 0.02729930804467919, 0.0165828244601589, 0.00460064697335944, -0.04783870868958555, 0.02645049172890426, 0.12157855897383484, -0.007799912490970176, 0.0020050491706020876, -0.014487664787132839, 0.03565870490617088, 0.035913537639325026, 0.02985986563436279, -0.01539923358176801, -0.029132507431541513, 0.04839979560411293, -0.04257011475056357, -0.013749504807492936, -0.01043067942307739, -0.0041164159941261035, -0.027481848926026484, 0.02164546067048731, 0.011609195031052915, 0.01486459632336737, -0.018613338451592343, -0.013467742000021411, -0.013483837195002603, -0.014095604095224123, 0.03708622114963006, -0.005784031436921644, 0.039501956785203275, -0.0019602840262047134, -0.0218371240873642, 0.01106533989838475, -0.01608959523339992, 0.026958190830898354, 0.02263619031875669, 0.02629649529685458, 0.0747938880395059, 0.01864629245789383, 0.016271691097967365, -0.02493519612001371, 0.04849578343308557, -0.0623831103739917, 0.02155512544274696, -0.010752035011992503, 0.05441844839748788, 0.01731069927632133, 0.030464705068318408, -0.011709766630893664, 0.007103208341940003, 0.012842918728924381, -0.0005773727016224291, -0.001961615146579467, 0.005594356659485111, -0.04683697515503246, 0.012561132232676256, 0.044278885173333456, -0.043107417206295955, 0.01901441780103036, -0.030756596425795698, 0.07394804501798255, -0.0140711811733597], [0.042517903687857954, -0.03436956869631549, -0.010655082558017958, -0.05187511547629013, -0.02181673547523694, -0.04927765674829093, 0.030603261444273704, 0.04062980728196513, 0.048027184370259206, 0.03617016078659579, -0.06567741967168629, -0.03278414152524652, -0.030845379739880056, -0.04723976098975472, -0.054115886400055206, 0.07710220531855841, 0.00991037924994247, -0.026822437709766465, 0.034091520264624024, 0.006408096256133538, 0.02831589261434811, 0.029091887980465175, 0.040837986316757835, 0.01774060623158302, -0.019879981017289612, 0.024562735020156105, -0.025483322594507193, 0.03660913396062202, -0.0627049942343723, 0.033187887244373396, 0.047215898319321666, -0.0035342815445907933, -0.018452600301439415, -0.07294382136997113, 0.014894685026831197, 0.06216997881087577, 0.03199345557420377, 0.06286844890897773, -0.048905661050062436, 0.051036214332216764, -0.04545535870551295, 0.008471443398855567, -0.028175965918581822, -0.034503300862382895, 0.06218446459146295, -0.0057193286175759315, 0.0548479467043404, -0.002230653246704697, -0.009113624053615944, 0.05571916239141502, -0.029812766254155368, 0.034298784030495855, 0.010285088464521275, -0.040827811897029, -0.06605031885666385, 0.04194355573870827, -0.03786868461194736, 0.006084314759080285, 0.00036215363955165777, 0.019049163973847153, -0.02777034859290283, 0.03510277873696375, -0.01672866314797719, -0.019382211511381253, 0.013201479998843359, 0.03022059229358687, 0.02179490854656127, -0.04328656173383131, -0.045386283965259275, 0.01576794441112045, 0.036667640815627935, 0.019304021352600603, 0.012709402122504881, 0.008881712821806876, 0.0015680288279765126, -0.07076163830726284, 0.01695178323859863, -0.01766010348637407, -0.03218128234017379, 0.014901621407127379, 0.030864737260451667, -0.030501823870593, 0.011975070402720422, -0.03384948110498183, -0.044741378567600514, 0.01277554336625245, -0.006462175442075105, 0.0022837304172093798, 0.01708614819324648, 0.019818560461744933, 0.004586445554655262, -0.0212674285071417, 0.02072370354733098, -0.029484272110308938, 0.030732984191600633, -0.014134367409157281, 0.048224670361915294, -0.02651884847884244, -0.016015074306318006, 0.02185691515702791, -0.034332175163191495, 0.010063158090920099, 0.04116731241863892, -0.03193293458064962, 0.011515800043159734, -0.011984347151815577, 0.00908406484567125, 0.0037504165192415295, 0.012782822284960922, 0.046270956132276574, -0.01246373496244735, 0.021139928746193692, -0.027728646725533903, 0.039749230518772195, -0.04258498324738311, 0.002514040323399918, -0.026729479462479094, -0.008058946505516348, -0.043081599965519725, -0.051949407398826725, 0.013368407067248232, -0.015593503006380034, -0.01300313703150632, 0.044354343585328526, -0.023592901497183183, -0.011788900961099746, 0.06526559409612656, 0.07143293481213732, -0.014161703009793235, -0.0026144161946129486, -0.01706612031017522, -0.011075079931722506, -0.02551944919267718, 0.0019887865013130867, -0.060536480840523814, -0.027043124403808974, 0.010795636146590654, -0.03537912890214301, 0.06925274560317224, 0.0003087202564164064, -0.006537381264382054, -0.0009325857984926972, -0.018509546541047025, -0.08960441057807816, 0.008084481983145347, -0.021697404393289904, 0.015520035339310586, 0.009649716588663326, 0.01610414612427645, 0.027467982902591136, -0.01366965714254103, 0.023449193555493235, 0.05366420074117473, 0.12507276242508877, -0.021157246064930777, -0.004429546445884313, 0.0604756000244583, 0.0009267651799745757, -0.011807235566219494, 0.021545172403520645, 0.009470846540745571, -0.08152063084013315, -0.01172374946487576, 0.07551317818278591, -0.032641176169811895, -0.02967804529411281, 0.0668007893454992, -0.013880483275629282, -0.004175446481056901, 0.012005419441073473, 0.06062993561523074, -0.0223816370277793, -0.048503320921115436, -0.030294549338067293, 0.012781447297200897, 0.0017378361561756492, -0.04162223866898075, -0.00599022585640271, -0.0854328422135737, -0.0008799527418229186, 0.030694389059028736, 0.02026708913799388, 0.0011147414791173231, -0.01901377657941612, 0.03011503234039949, 0.019320709906197005, -0.004207561750580064, 0.01088419498227308, 0.07724474495279952, -0.0019267611457054424, 0.008422280148733535, 0.026769591668196858, 0.009730892982352307, -0.021161726020630375, 0.02565982647852013, -0.049438505657262856, -0.045781498175378035, -0.018598895963712943, -0.0007385103501473862, 0.04959857305289253, 0.030034188536712126, -0.014597680367955449, 0.011342492865533915, 0.011922732826299454, 0.011953904764927647, -0.0068720156713614425, -0.06941719174091275, 0.0953131804217704, 0.0007074202067681269, -0.028580780692075158, -0.06829662976410715, -0.005960242279608898, 0.005033753044243139, -0.06934668861037815, -0.01878111011622455, -0.0035117313683087586, -0.05202324213694956, 0.03666988447129715, 0.03507968780354442, 0.017852888899262398, -0.05034640662401963, -0.032598670829847715, 0.023431308330587382, 0.005419558009691783, 0.014810620662102305, 0.0031213709506162785, -0.008894105906942583, 0.032012272284866174, -0.02578151161229942, -0.0035899345718054415, 0.004049474086341716, 0.03209473713567308, -0.03814264407587925, 0.005926587565951659, -0.020601037390627013, 0.06655815143025388, -0.005746013659027446, 0.03622357013059453, -0.07725344524367987, 0.0668907417803307, 0.017648608801040033, 0.030888052031450234, -0.051050007678902894, -0.03334992978505554, 0.05313212107694497, 0.021207325342750827, 0.02274463522951219, -0.04771399239575604, -0.005141105237223924, -0.03635918721047403, -0.031065056010758988, -0.029144452510388736, -0.014966526493839132, 0.006577996296670777, 0.04703516700234686, -0.05276847557270119, -0.015842154051117184, -0.005399334598443255, -0.03027986497840173, -0.00833532581859753, 0.025632194389324472, 0.04139143122166671, 0.00436258474640229, -0.009579776129897997, 0.02638466178069369, 0.0337976409252059, -0.0319251717102359, 0.01626419376547328, -0.013525629170220887, 0.03753049557897951, 0.030214388396123355, -0.008607865361900321, -0.03619641696035352, -0.013670180245790904, -0.05443983543405947, -0.025806108663238677, -0.045604009521431385, 0.06852754769153346, -0.02500136123221319, 0.014549984939080877, 0.00017794097269884808, -0.009351065029587543, 0.029822255991058092, 0.04125998621373143, 0.0062859587752102115, 0.05898940949706055, -0.048547172414177504, -0.014716327223526065, -5.4016953605613954e-05, 0.0018267305686552676, -0.07868811881198144, -0.04629293322264432, -0.021932559438373727, -0.012028255959465533, 0.043180954486567336, 0.0399727918700151, 0.03918598635211189, 0.03662159994810005, 0.007073516375960357, -0.07753141674377326, 0.019252412397678942, 0.07240375034631547, 0.06299737445285994, 0.032384235423202415, 0.0400550854455487, 0.011826631120338963, 0.02372385697180967, -0.017881797094314526, -0.07512728449220583, -0.010920858163254927, -0.01853509851388969, 0.010445720267279492, -0.007794347657216006, -0.049524404053449725, -0.001782245954795813, 0.028040928957895245, -0.06104946445221934, 0.06458256807006506, -0.01517811344532416, -0.016128187322188514, 0.050668241827716884, 0.043126047579384263, -0.04828572188597058, -0.012058094885752746, -0.00504695749454109, -0.001515433405957004, -0.0005053346359328264, -0.028977699132501727, 0.027471740752283185, -0.033992471155317366, -0.030741464233938462, 0.07505759670212273, -0.04409080705028349, 0.00956639942897379, 0.040722606620837216, 0.037921316876595834, 0.014160023852561678, -0.07753474639215528, -0.04406381952820271, -0.012621966875837859, 0.0009839448761822915, -0.0419019719607521, 0.0006443624799404965, -0.019487702634904153, -0.04099750238757547, 0.038992559932960365, -0.0065786487147244405, 0.02268051767567706, -0.006924820399101257, -0.001684475433008157, 0.05265510037548093, 0.03171977633146657, -0.038015487087879204, -0.07153164926373635, 0.03212740001100272, -0.030222254740967954, 0.004686722957134945, -0.0014816117811748694, -0.028056454951552852, 0.048556260315777165, -0.03910476749252043, 0.02663130859150114, 0.029545817156094466, -0.03117745741815758, 0.02708185857526009, -0.005893691186177735, -0.012340340319281674, 0.0013102318349694747, 0.03447338805773885, 0.05697265255173153, -0.023749814455949272, -0.0047370838518703585, -0.018965348577354352, 0.03124534113460647, 0.005646892768884523, -0.02555618099988621, 0.02908607533747142, 0.04372230722712194, 0.0017202418884250533, -0.014206526642770067, -0.03268810318190988, 0.06574820196464384, -0.028127725703405403, 0.03199925954947598, -0.0014731273245962681, -0.08785214504726117, 0.04058962835711109, 0.0405392363509404, -0.003286099831242742, -0.0519385591836291, -0.049881222459557756, -0.006247356036259472, -0.028107730920197842, -0.004092075477529972, 0.014569023729351567, 0.03821211896599253, 0.02297589013418429, 0.0011053055788293148, 0.004437408668892636, -0.08729799638982873, -0.05437453547574835, -0.02188220769918355, -0.014512676320705579, 0.053961959565130925, 0.006531141939220046, 0.007893806029097984, -0.00672006141870866, 0.05182929586703043, -0.04622834756165973, -0.012520485647498306, -0.09578266197476756, -0.08038725567456817, 0.01266724820706216, -0.010937361661650187, -0.007206083883047677, 0.03771923095223429, 0.03501776455510404, 0.05139860605330263, 0.007236892320606948, -0.01857584136713494, 0.023264657734405905, 0.0013803029344325686, -0.000509440874494021, -0.022405464480110916, 0.07097487995315488, 0.0557780414283826, -0.05436490955641332, 0.0007867901603242493, -0.017134083048344052, 0.04834788098695557, -0.025429731732261585, 0.017938110220840024, 0.011982335270716803, -0.039839916718677405, 0.01696077356584553, 0.08522715325260627, 0.00279965205726872, -0.0785034533691597, 0.006277623189581118, -0.0299533481805056, -0.006720762794051721, 0.0054604692602012875, -0.03220321905013716, 0.010574251623729623, -0.04592035613642551, 0.06318856220174499, -0.01230697952489963, -0.01372369136700626, -0.00798868075197686, -0.0018832564756392051, 0.001429301689754072, -0.033695973536291154, 0.010618761803426358, 0.008541772491507513, 0.0032170409886816066, 0.05340131102244852, -0.07130565359142814, 0.07656707060644294, 0.059829322653676645, -0.01740874498593007, -0.026920486928371273, -0.02963462981371891, -0.014583409207727724, 0.02065753567866286, -0.02578860005497732, -0.01400319267615186, -0.006296587833787371, -0.042093124910624884, -0.004299032811879988, 0.03912068757204679, 0.06060313547205725, -0.02324204588000618, 0.023973590983331808, 0.0005173874735569389, -0.058285621469945, -0.05101705859528717, -0.028776429402548175, -0.01091524764461214, -0.029357313258106997, 0.026593371003028655, 0.021933630406455767, 0.08719880967459012, -0.007230074622508675, 0.02209640028576896, -0.03846431738479889, -0.011807846651253404, 0.024806730996060043, 0.002113920426326831, 0.01602678292836133, 0.005320554786433085, 0.019226598469300058, -0.004335679467687534, 0.0222220942112612, -0.01922347024903768, -0.02282563715614883, -0.0060315784080160325, 0.011562324623964634, -0.05322022044439768, 0.053585871836552404, -0.039389755724490126, 0.020755332892804693, -0.01816820548923575, 0.01662019951920466, 0.029237935995715253, -0.055266309969681224, 0.055633614014011644, 0.0011903694548691364, -0.006311940606549923, -0.03405794057847016, -0.017051713682007228, -0.0018373779444810718, 0.019857685499558717, 0.03502495193367961, -0.004363737537580011, 0.009812911598932713, -0.0010749956648955933, -0.07756301247538083, -0.05867421125226741, -0.009165788586048529, -0.0032909220865843755, 0.03055724510514556, 0.05332945558361815, -0.005929438100861587, 0.03294611901998022, -0.039442989608876676, -0.016054992373134784, 0.04225943345552659, 0.040548553206131384, 0.0562324413671455, 0.023132172064959673, -0.003492376276529301, 0.015903630789797986, -0.04437773612515035, -0.060151237530662816, 0.059250881172594104, 0.01733408895972632, 0.012056761292187662, 0.04460297075950722, -0.022889545259900262, 0.017071759739170297, -0.013952746150474378, 0.05237547697653714, 0.01853915836230741, -0.007734478286820869, 0.0016878723904055705, -0.005399855430794754, -0.017297069196857136, -0.005968125632994638, -0.04270908324736232, -0.0004423919151529497, -0.06533766533451077, -0.009510037772519431, -0.01154432877908208, -0.02014550761256248, 0.024097538299466165, 0.0029510086781959132, 0.03684133005267682, 0.043822803096630274, -0.04892808221121603, -0.0016242966480199568, 0.034227106539689155, 0.016320726198410695, 0.03828152187206173, 0.03789046222324849, -0.012151024938140265, 0.024386834488923297, 0.02577214274939889, 0.024763525579423795, 0.05568469562737486, 0.0007140822872203989, -0.04694238450018033, 0.05899011044141501, 0.0005186037210671522, 0.056319260100370735, 0.02887358711591566, 0.003775397332075482, 0.006511159072365692, 0.007798452359193991, 0.03699606572760755, 0.048164919731032686, -0.004403706323152005, -0.02589107421447324, -0.022016108887432658, -0.039613566046261345, 0.02346768007774489, -0.00662243255450454, 0.007293452635286575, -0.0398884417771755, 0.026974867482542946, -0.04127004623914617, -0.06432369422265409, 0.011817971728161372, 0.017513859237350854, 0.00036187060765012925, -0.010122827407482504, 0.03917296865790821, 0.005489045725934437, 0.023651584888923636, -0.05417100691531049, -0.006331197199704342, -0.07964862869975277, -0.03891006172950731, 0.0318594119361934, -0.002611653292530948, -0.005139554739352132, 0.05872933654689432, 0.04881043035198265, -0.0050326314736855535, 9.003337162689821e-05, 0.014339180243917043, 0.05563902130319188, -0.01158474203050689, 0.03165065250982575, 0.0008427129733930303, 0.06431754978265118, -0.01882997136032878, 0.019296900248045742, 0.0028708939411189517, -0.01143287660298406, -0.036534702324204124, 0.038965963620222595, 0.008310229991303809, 0.010916128590469544, 0.027994518489315185, 0.05599458790946196, 0.026527596065656484, 0.003919915545219562, 0.051122850976204295, 0.05565826386487868, -0.033218613941626035, 0.019292921323694655, 0.027222112602793027, -0.0418091360310653, -0.019190131325247026, 0.03267669215072576, -0.033238749488673176, 0.012209954103809541, 0.06093072983814906, 0.07790990610727842, -0.05280441117223186, -0.006223144316775467, 0.027287890778750705, -0.04151950626394548, 0.007559697856635084, 0.028490321064234412, -0.03558643301863803, -0.024622902099114535, -0.0036537808817784837, 0.017017235997039873, -0.016731566831284773, -0.004978569984143935, 0.015402034398152412, 0.06092031944317056, 0.004982788098577552, 0.01317650671361826, -0.06657589584393743, 0.020019882207832247, 0.004395389719496501, 0.0191047132015868, -0.06320920545564342, -0.04273840191575274, -3.800810144674977e-05, 0.018698611150149466, -0.0017804410864744762, 0.05023725126642386, 0.023014952724163033, 0.04227097522969599, -0.0728726375756135, 0.0010679479401693687, -0.047376457111169314, 0.008996247335217755, -0.05117303498759912, -0.011700409005367132, -0.012548237615456993, -0.05746395467355259, -0.03678801714606596, 0.028614238871667034, 0.0184021484976215, -0.05913567879183988, 0.08095487334425973, -0.025916574596941275, -0.02083248906864391, 0.0036301312763096327, 0.00623722662552672, 0.06191077280205166, 0.04293732220361198, 0.04702386585034266, -0.02633035753877754, -0.03833986214179995, 0.0022795635953658227, 0.003791056566695586, -0.04038422362107267, -0.04591557166425467, 0.01137544891191051, -0.03239201235732611, 0.010264737754365661, 0.0007302634208838306, -0.02231240437675512, 0.03125205814018955, 0.012795346721438658, -0.03550871184553333, 0.015126347137163874, -0.038791006219473186, -0.010594171750016491, -0.03749264878954571, -0.020950488231992647, -0.014776020364789364, 0.016994324847933902, 0.007573396333055777, -0.026321218498838485, 0.0004494920280140051, 0.05265312499244457, 0.03747378620318051, 0.015738494279463052, -0.013574061888475104, -0.00340975756984187, 0.004565835419562167, 0.02084761942856286, -0.000983343096474658, -0.043995111581648046, 0.0633087128838362, -0.0008704191878373401, -0.008479121909807211, -0.04096445659337774, -0.037035233640189465, 0.0012001545325285874, 0.00033466510503132185, 0.04867006579750961, 0.01568949496340419, -0.018250253389779727, 0.018304099044431792, 0.0014061919085312513, -0.07571855286540637, 0.00340677730469201, 0.015564929867039608, 0.0007668209682617093, -0.028824507318959063, -0.030929264257665488, 0.010363575040454528, -0.016077241353678984, -0.022040433100103868, -0.05610763597633147, -0.032537654715126006, 0.029503984032325365, -0.024142406470204363, 0.04969553970679121, -0.03871123819963207, 0.03950923205822267, -0.019181847405009975, 0.029638767286728686, -0.005027164908761152, 0.04932554304685831, -0.03171568594479644, 0.013651387379621835, 0.01240553874376257, -0.027183011792387402, 0.006021684156672376, 0.025061222257341413, -0.010048182051176146, 0.008941146597216352, 0.034973058477394695, 0.019221142337060463, 0.05034459405692738, 0.020144529789230054, 0.06549380051554828, 0.021851769458212284, -0.061277744611707374, 0.007090150183654433, -0.005165246210082525, 0.007468634787889899, 0.049797990145870434, -0.01815361791696829, -0.0506638984099513, -0.021910739234682862, 0.04310921461760309, 0.03630880648406036, 0.04771309223699787, 0.03422171850972271, -0.029013325617877398, -0.05421542521826968, 0.020977558401410117, 0.03575969291368523, 0.07769350351899577, 0.008341094335811155], [0.09295023108071597, -0.010009155910179564, -0.053606262909449656, 0.013432052836587596, -0.042704303796389675, -0.016361936233605007, -0.003075535931838082, 0.007764743339009422, -0.09354852617527507, -0.009387154503924468, 0.08363012547708507, 0.11097208862924611, 0.057478110484604085, 0.011230721682628893, 0.03560982094011546, 0.046081078605783726, 0.06651584227726536, 0.05568954689110834, -0.018794102590715938, -0.033270290214377066, -0.025620815783619983, -0.01553078619596107, 0.01787580662255241, -0.0027348179895729566, -0.041456159123484236, 0.04575839641233421, 0.05180691322465806, -0.06033253331349443, 0.003632649012317072, -0.009414037941722372, -0.01773670316859071, -0.027927664595723278, 0.026427021283263505, -0.00951973216858823, 0.018450263073162207, -0.07188271601862982, -0.04746031980120289, -0.007884906339962026, -0.025028469096789702, 0.027066742898300633, 0.015461271696123763, 0.020035506847868936, 0.014262184552180528, -0.02066887585313798, 0.013676636441461316, -0.00018450427394374987, 0.03724713116113144, -0.04716422083933752, 0.04696998859777356, -0.08768174208761856, -0.061172048098032866, 0.025862365724825788, 0.068022355333187, 0.0032604489580651845, -0.061609440945889805, 0.09658845659933823, -0.08654497763247306, 0.05571355760589364, -0.00383681285217363, 0.013021200719234433, -0.02695716021526073, -0.002641703316447157, 0.012053778263569589, -0.03978090035334058, -0.02065114012128357, -0.029935336369938167, 0.06386933147531407, -0.0038145850431213304, 0.006096990724123887, -0.016000873757690118, -0.05766063777972577, -0.010087708387906605, -0.009309169179327927, -0.028210878975740716, 0.015524609443497591, 0.02072866164438842, 0.025607894397882247, 0.03116343245643341, 0.04350060891227106, 0.002737160973666221, -0.02556365350067162, -0.050877054774468904, 0.019079859030203615, 0.004168315870035162, -0.037061715381145034, -0.08966156037095833, -0.03830102303535433, 0.002687530494954156, 0.07431319758434486, 0.002260866161966615, 0.000424810374007271, -0.028077634379230144, 0.032362104143408676, 0.053109198886068076, -0.02602434107758331, 0.04249371822480915, 0.0019533400998008924, -0.07197763819981733, -0.013946615678864124, -0.05474466008707515, 0.045748717880822916, -0.0028751876126970094, 0.00728490368888906, 0.09058222831031552, -0.051150467818656384, -0.01408872403393387, -0.010352208744013224, 0.032314857530009476, -0.0027229983743100967, -0.030211631028126868, 0.03492648266416114, -0.044484217839866856, -0.04256432536036233, -0.04973318462352371, 0.017022455608795742, 0.005941460760959932, 0.0182800657668034, -0.06248738194577766, 0.02574722022036378, -0.0044804728125973905, -0.040786677206951456, -0.00958463051502339, -0.04250176286958627, 0.004446208328375455, -0.012192672014077404, -0.02037095690866676, -0.030212573372726776, -0.021781721330583842, 0.00986961430856586, -0.09278320652644478, 0.03949541187413699, 0.00039852643362390166, 0.03665942583282585, 0.04590677802857708, 0.014833902962299058, -0.028262009218621167, 0.013288206250629112, 0.04573455743534263, 0.0049211493504861935, -0.05997209992787854, 0.040280297208226755, -0.040082794927826335, -0.04651616380794204, -0.01813201487347516, -0.01340714860598493, -0.026655304818487897, -0.018176283493883085, 0.0030425477593304085, -0.052567916906936914, 0.003831700071316728, -0.05842984747983432, -0.03191259329529161, 0.03898367641514263, -0.0323695774142088, 0.021974509874291843, -0.030548088336175627, 0.044228510651556786, 0.0031553822492161113, 0.03550432003538412, 0.0509125612458982, 0.023571484698456515, -0.027615539490402574, 0.00027358814069859997, -0.10550977733132696, -0.017072677021469217, 0.015080708901851377, -0.0021748390561988633, 0.005207173448073153, -0.00902902873687803, 0.009645963635404898, -0.06228818066913971, -0.0037333520187568287, -0.009578049179388645, 0.012650755009965792, 0.032771369382546184, -0.01210173871783103, 0.010708058584116406, -0.021051132018552115, -0.012005274623530002, 0.001588822218517413, -0.02511521130391982, 0.011526251392621369, 0.0473269059002519, -0.018179469613849624, 0.04944343419977663, -0.032313095652716825, -0.022749033035623128, 0.02179725312428288, -0.032959212836018624, -0.09332290866319658, -0.043788341092083315, 0.019119385624871484, 0.12066534333403028, -0.023370138317166923, 0.04301886257982752, 0.0430892404871789, -0.014373235402994605, 0.02783599547807202, -0.04200929010663555, -0.030465392857462775, -0.021547163956032653, 0.021998692848362686, -0.06088677916822866, 0.051104764862373184, 0.038097276432093846, -0.012934410671234218, -0.05766778533814603, -0.013274734672638773, 0.055266939759955835, -0.0011990969703620535, 0.018081907485005995, 0.011855098204296914, 0.02969347316259485, 0.014313227582478888, 0.08065892095996814, -0.030294812529845887, -0.05026507656542769, -0.0401726707553582, 0.017161207866407794, 0.028788011700958408, -0.03269691031690865, 0.013467203248328013, -0.011642361795229312, 0.00876553420548336, 0.026417900496424458, -0.049984513933516286, -0.017484263686227325, 0.005319694505141763, -0.020228967381359764, 0.014126890093574348, -0.06617705201171702, 0.006450858084643332, -0.0021341347364769647, 0.04403224707701734, -0.06762897675560955, -0.009330304805750068, -0.012545527952937252, -0.028631930147498912, -0.018525977739900765, -0.031033479739052724, 0.05469836881745278, 0.006453786409837681, -0.026178053649369634, -0.043149481723321205, 0.05455883277149925, 0.03625422661975843, -0.009339874601209467, 0.005367583595123599, -0.016674983890621203, -0.0017189495936725196, 0.030609715894701284, -0.05346685355572834, -0.01442294146349527, -0.04866025810956429, 0.005605502611964146, 0.01750845291512873, -0.058984188409265385, -0.016144779980138028, 0.08234609621228672, 0.004358198157326186, -0.04781913447112509, 0.06843886997994086, -0.0008807778403608498, -0.03739211557254497, 0.019148612510098133, 0.06288512849991909, -0.007163209752497004, 0.052039596336786585, 0.04852316467224809, -0.041975982676523554, -0.002678932824698422, -0.013526182294454283, 0.0716127498401901, -0.013144165631953565, -0.034629627046452394, -0.015931177436020516, 0.03831488193823205, -0.028821469017103404, 0.012459026005754416, 0.0726585941924532, 0.02754235946123943, -0.021569917275129965, -0.014497759082694824, -0.018309384274109282, 0.028709123063418815, 0.009247970982747761, -0.05564712293432053, -0.03726552302319987, 0.056661123661257556, 0.003198271612188433, -0.050263779192582854, -0.02903576705604175, 0.02982028577002892, -0.036195337218984505, -0.02705230450125225, -0.012655553016693515, -0.016037496082209363, -0.011240327989292365, -0.015465812138374557, 0.03691286995547032, 0.004113616183996141, 0.01766618563155332, -0.06826821574344603, 0.03877833813868925, 0.07635961644457534, 0.01212729276964091, -0.031030334212253614, -0.01978847461783376, -0.034767408500489816, 0.04364408332401618, -0.05426287561721329, 0.021698378751776548, 0.002733303321818973, 0.001799112814138577, -0.011958326791309684, 0.006245102532394738, 0.06824665887699236, 0.0369546759980602, -0.020533265428546082, 0.05335870188887058, 0.017235408975158156, -0.027047512210081278, 0.007481994701318272, 0.006736751416265204, -0.02543235792756661, 8.758122685070638e-05, 0.005009709469662043, -0.0059857544614661355, 0.0674926238052323, 0.0003202137935176827, -0.057244476962126596, -0.010534650236465645, -0.050836391529531275, 0.04851279026401069, 0.006645590042898227, 0.028303672054054183, -0.0076348025005899866, 0.00200917341034593, -0.06277149333361076, -0.014210777917768199, -0.02385185051984714, -0.04593957953829289, 0.0128106387983164, 0.0663731133771054, 0.012669064625944948, 0.05370491695318501, -0.036458815321388165, 0.017175677230831476, 0.041467103031512256, -0.001933784646522316, 0.05986332866485732, -0.0161849046660354, 0.011087026886519497, -0.0066760930631029215, -0.026708127064534876, -0.026091042747366924, -0.00018858609639418083, -0.03628481482437346, -0.008992439485309445, 0.04975201139428588, 0.0525645760300917, -0.0010621904734578174, -0.024491703684169457, -0.006817231214504832, -0.01892795517982923, -0.02877572832486236, -0.06463524000974824, 0.005274411115788119, -0.002793929007445674, 0.01669870393230233, 0.07719270989616675, -0.03967331756100171, -0.00560468844619297, 0.030582799089408717, -0.001675941015498053, -0.047937691378999656, -0.01058796148613055, -0.027119377594276763, -0.019508747036798408, -0.04129759619239547, -0.036200887124762264, 0.02413810223052755, 0.005829640501808578, -0.015903614329279114, -0.015449216149629248, 0.013715373381964838, -0.04183871941534494, 0.005496186152501348, 0.022767809665851867, 0.022383803440603384, -0.037465600911878526, -0.010040995189613074, 0.02183600012298667, 0.006245250734262598, -0.022601119577548845, 0.02682850160629204, 0.008350708951930122, 0.0581330574710566, -0.0007032386116469112, -0.03355292316506137, 0.022817079976160125, 0.06503608170293615, 0.019307394596036028, -0.013965599393175192, 0.003912050635300534, 0.04587930608486753, 0.011467028886860523, -0.012606616902853588, -0.058035809844323126, 0.027769799457844715, -0.007832490035589033, -0.02023934498767199, 0.01766653429339034, -0.0040481267418034156, 0.05425904191260052, 0.01596692253994298, -0.017760681040810022, -0.010326320093250994, -0.004753736131671327, -0.06878182807470777, -0.011251210631608789, -0.01082053683450824, 0.05960673318182048, -0.02357787851830745, -0.016608231613857983, 0.01259798958415087, -0.030907805268912576, -0.03366398010548787, -0.02004781949315987, 0.016868622072583217, 0.0091614050619771, -0.007442824966307427, 0.008767627969977036, 0.08357094600488942, 0.007511169777013823, -0.023839780754758826, 0.009056663849306121, -0.021810246323801415, -0.03461238155703116, -0.07745653404880111, -0.005162482952311635, 0.060881807385732865, -0.014903747904091358, -0.020288178758146622, -0.05135376994458705, -0.039909482415891755, 0.019364246861524787, -0.007630465322182958, -0.00263638671798262, 0.016649434975126925, 0.05733797872449771, 0.0066647323057335865, -0.04808908631109138, 0.050294465437376173, -0.011005030834504935, -0.0001719475153487533, -0.07662238535023373, 0.0002608195322789291, 0.0022984400674124646, -0.002975015787256487, 0.014836377092785853, 0.006949031922673376, 0.04492185615296458, -0.08545207472939964, 0.014671357679628084, -0.04804894502055048, -0.044947903874334096, 0.026184799452947678, 0.017144940223512553, 0.02889998915896366, 0.011736729595205251, -0.04380532372812571, 0.0017502830813029085, -0.015063174069225155, 0.054348721740073165, 0.0214193435629845, -0.0218624995960857, -0.0020515684311569232, 0.011821326017226637, -0.026972839137223325, 0.0035933968543255166, 0.0041699624139291055, 0.023787497176402016, 0.029449524054294955, 0.0027128352379963694, 0.03942211462494415, -0.01788453491867199, -0.03566605315927901, -0.024885569648090407, 0.001411891283159153, 0.058416232487124915, 0.011293723493566294, 0.060397973514223026, 0.02977249807254823, -0.003478004425424385, 0.015137216344947038, -0.04922436258124171, -0.013268478790287218, 0.05355433300877935, -0.07741998319933856, 0.013518080189785626, 0.015312427091733102, -0.012020313264435825, -0.021216067367039272, -0.041278800854778856, 0.005903208790834249, -0.023994381190303754, -0.04095207980311977, 0.025900331660029228, -0.020482776988426432, 0.014759109354026832, -0.008968488415650365, 0.03954125162639926, 0.005941463352584898, 0.0066993850891767575, -0.012125198471828918, 0.0038582898083307096, 0.0009058379187102122, 0.005820826364776181, -0.013536632023496522, -0.0016074970373433943, 0.024137575105403222, -0.006355938912604463, 0.0037555835481159158, 0.020594565851327393, 0.04417198846006457, 0.02531336877336941, 0.02204684438609635, -0.04276429539553323, 0.004915387694353671, -0.01353063630190596, -0.03189760340821251, 0.007591432686068004, 0.005017351170781516, -0.0035221079220131616, -0.06163753211279673, -0.042110112307994815, 0.07178243254890981, -0.01380510295513738, 0.02376046223908656, 0.013227230465180477, -0.005223449610774253, 0.017417691440661878, -0.005540879010091411, -0.029757227545787492, 0.07898685062728567, -0.016065686958685186, -0.03566701578867361, 0.033585260195404795, -0.07107939496277538, 0.05421693199652512, 0.009506387836334514, 0.0283958907777385, 0.016108864199205746, -0.0008190741305854326, -0.01047872788957327, 0.0021269964551736795, -0.0412165086953044, 0.04419840805884029, 0.010346616740428983, -0.05065386427672668, -0.06943665880223097, -0.006384968899062308, -0.02434341396263668, 0.08780099725292115, -0.0012359919971257597, 0.021851049610694492, -0.02653991786786676, -0.022615257999734285, 0.0645499871751324, -0.019411743490027892, 0.03384591833950411, 0.030118142144551042, 0.010190692399256648, -0.03090163120889131, 0.05373859409296386, 0.00670884734627784, 0.02049255613600743, -0.01317161657238538, -0.0040392125884802215, -0.020784129455560952, -0.054037183416056817, 0.05161350444583489, -0.0070028574697268845, -0.03578375103740072, 0.0071207340358138945, -0.03577695451417498, 0.04249261896459174, 0.0484396769520105, 0.001501081298229155, -0.03957227325837049, -0.027568652363731263, 0.019729682687182937, 0.005589398974050337, 0.026417703519836935, -0.009326933729824462, 0.03365265307244534, 0.00727013886298023, 0.024298263023082443, 0.019231083563966994, 