{"sizes": [784, 30, 25, 15, 10], "weights": [[[-0.017775710408402937, -0.04804651684555928, 0.019701224122490087, -0.010744591019858106, -0.04740133281424897, -0.02868948207067013, 0.01624469315099885, 0.00032267110354583853, 0.01215182997725494, -0.02472292358552129, -0.04780414776693844, 0.022478108701108807, 0.039319159452326204, 0.023942617628804928, -0.012329499181623474, -0.012226526130758988, 0.020217797331327732, -0.0850873165396241, -0.004438632112382387, 0.05729514019023677, -0.05127971122253635, 0.04088014890650151, -0.008454107176801964, 0.03805048246823288, -0.025080893674708726, -0.024035414378705867, 0.002011267556389962, 0.009548675919382186, 0.021484568169570856, -0.026498909150298535, -0.024253616809609743, 0.011758663854340172, 0.00044712690920897796, -0.015180725994929572, 0.043250095911963646, -0.033766391693277234, 0.0759155554711372, 0.009223569145212484, 0.06173058560533331, -0.0013880148052466464, 0.02211345857194982, -0.02370379227851474, -0.029754837407925092, 0.07948191441080572, -0.005610764799674284, -0.019994768843146892, -0.04134988106708022, 0.031216216939018954, -0.06239960986411278, 0.012146849665070444, 0.012379395635580055, 0.03974650308922442, 0.01446602598349977, -0.04386029825926214, -0.015055736455728982, -0.04096775015685443, 0.0209776407798858, 0.00884040815738128, -0.010670854335288247, -0.04288188920042058, 0.014580818254452696, 0.051655745614363396, 0.01637641191552512, 0.011603361747052125, 0.012501308882042601, 0.0116463426076187, 0.0142531507701015, 0.03659833715063515, -0.013335506591137384, -0.006828983978136188, 0.0596950278225341, -0.012722399126059464, -0.03852185835158406, -0.024844889809762585, 0.019496713180475127, -0.054548518397623647, -0.009091887456074105, -0.013304798681180296, -0.01683572910482074, -0.047265945727881, -0.015793422519217778, -0.015120274974648651, 0.0189600011506624, 0.05737705587497395, 0.053358417122874674, 0.0099370019477784, -0.0008905792063546526, 0.00668896323304863, 0.006897417463641775, 0.08703060177593538, -0.004734985144890908, 0.041305911665871, 0.024916873124541352, 0.04532111061051143, 0.016573655828817972, 0.03474734648905626, 0.07225033283619726, 0.14003354239363677, 0.06615455204583616, -0.013153446429456919, 0.03635596696189939, 0.04583638954252178, -0.032386750035703384, -0.09810309050718147, 0.004710037217631492, -0.028984376323907, -0.006763338548247472, -0.012320320713044581, -0.04712659794775177, -0.00040284752404193334, -0.0348985887665891, -0.00992385663495338, 0.005835641986551731, 0.016918784882304635, -0.02387382374291898, 0.001201254710528716, -0.04109959120896582, 0.007482433074572049, 0.017721794985652402, 0.06432111730411959, 0.09727930449986338, 0.07422715125181702, 0.14663540471047257, 0.1429404915959141, 0.15353932193718203, 0.13281339747897644, 0.12676860757963426, 0.013328220366262673, 0.055270433382682026, 0.02523979626977965, 0.005505340759395653, -0.07324789547039519, -0.00374035340168234, -0.003968569041063688, -0.030586111453566833, -0.0541375161720122, -0.031191496456015017, -0.03417745969456924, 0.02334957946905361, -0.07524554913899165, -0.04372562550442292, 0.00537348927741629, 0.05373041689933531, -0.04247393686680645, 0.0069253106864228964, 0.003937929842724062, 0.014541939503373137, 0.09487609045190847, 0.1203469046372286, 0.10635327249692456, 0.17751230561965983, 0.23692850210584543, 0.22096314090900573, 0.15631260945882464, 0.13766156715680491, 0.1537809562889006, 0.07670263129652526, 0.13856056000628916, 0.08341166252282357, 0.049913395142697735, 0.05142161234370272, -0.031583068221506305, -0.006245746454355921, -0.035591246826011474, 0.054889971048063244, -0.02589927185514036, 0.03410843120857785, -0.0010778682321001226, -0.0018415906699242213, 0.003862007716533916, 0.010998345809843808, -0.026224365776827328, -0.0017531901950460567, 0.0327773921669375, 0.06822827136951695, 0.10387700239563968, 0.062409149569686975, 0.15228225850389124, 0.16741818571536946, 0.1638322644742513, 0.011405071412800321, 0.01996333412809692, -0.026236059145447837, -0.06541432661639898, -0.022254846457863832, -0.04851312523003951, 0.019830863001446295, 0.03494321694305382, 0.014887579841168695, -0.0036699978746305363, 0.027842735286411388, -0.05017590920884975, -0.024853073626799643, 0.019489272844772584, 0.01045684530738187, -0.007605715036953518, 0.004805132052168732, 0.03972991807022039, 0.02490181721717834, 0.026798225838395508, 0.03527567483572444, -0.0404560990739618, 0.027591747897038166, 0.046285366469658466, 0.01770025877667255, 0.12087843973783001, 0.10141012137440997, 0.08658767116135724, -0.035972966690331155, -0.08171982538732735, -0.13201302196563144, -0.11071516560758382, -0.1144301855093215, -0.06825532445363094, -0.11000687855801351, -0.058166414855059446, -0.06471293414688706, -0.03871000690146451, -0.04152884219272343, -0.018045153923723026, -0.01714632851041957, -0.025227292289948244, 0.023982326491429493, -0.023406374786333808, 0.01043753738547834, 0.04381842797809867, 0.018569870693469295, -0.00971843956611983, -0.033780232215097, -0.014392248588768456, 0.06454156136203804, 0.12800973032641846, 0.07682612898757675, 0.13437128393607933, 0.1559674054518653, 0.0053824776856656155, -0.05610025233975042, -0.136019012416814, -0.08222697854978744, -0.0709609864184769, -0.048982629452812246, -0.08644823901674119, -0.09258119823809152, -0.06656435293784778, -0.06777240934963842, -0.06280904499888827, -0.03066080959948128, 0.011494304894098238, 0.0007916245429450234, -0.012297615224679776, 0.029726818967528698, -0.030293068793039796, 0.013946099891796624, -0.004258945363685195, 0.004395530605499774, -0.045887201018684036, -0.06305130941132606, 0.02404741457488468, 0.08470084436379592, 0.11247198945304031, 0.17343277290259362, 0.2477216863962781, 0.20142590114583647, 0.11579750441957659, -0.07673351980291078, -0.12070871489397118, -0.14062030747311016, -0.12235029029777839, -0.06187647866644039, -0.04421672960083497, -0.07737546934075352, -0.062350474823797554, -0.029635122752326205, -0.05415197836251351, -0.015133260449359538, 0.023438765491541075, -0.012009379817506896, 0.03697037996300175, 0.016633405017298198, 0.017410882289378374, -0.003856509766468891, 0.05770470840469501, -0.010516848092023716, -0.02990826068603222, -0.011290285505231673, 0.08167611914308147, 0.12569909111804667, 0.18656968775627164, 0.1655104510564619, 0.2305780543283499, 0.22483684829884268, 0.148105428923718, -0.03193358204144266, -0.1482930689448398, -0.23085004998288616, -0.17743745671745811, -0.10332444413884001, -0.022112529604867228, -0.03758623421348294, 0.001676459457609087, -0.06412852616970105, 0.02432286690216267, 0.0180465832507474, 0.018647782960784422, -0.002003265185040598, 0.020993590381351276, -0.0020081625797618366, 0.046560482832610446, 0.01116922008453306, 0.013953887771748635, 0.045400538313773026, -0.01984426693722986, 0.03577475683791587, 0.07014041490031486, 0.09214513690255631, 0.09991526628377917, 0.11306121883538954, 0.1829671580779026, 0.17591939563245487, 0.1296378884370793, -0.04238909486893188, -0.23183242101230542, -0.24237088733764817, -0.23574394984756863, -0.029752353028918, -0.023856810653755646, -0.039584244920699715, 0.012993393913911813, 0.06819185475510407, 0.034921057875572474, 0.11985565179097094, 0.10395554101158719, 0.07917372698825519, 0.0016110066230782022, -0.052111386151579085, -0.02270374211368822, -0.006727702103376897, -0.01199430995029445, 0.011730347097299672, 0.027366117980176442, -0.018415545521765993, 0.005180966709830377, 0.11196957954120744, 0.08216784910450356, 0.1133458794614846, 0.13244480343014092, 0.1539658622187587, 0.09563581880589025, -0.13079053705945298, -0.24432003576623895, -0.25149407626534465, -0.2047098973893015, -0.007964870169877208, 0.009000090922819276, 0.0029637769534932145, -0.01547544596249589, 0.06569369136482818, 0.11996918012268373, 0.08591999742183347, 0.10089151676860032, 0.0638851775525497, 0.09033179140276482, -0.018104101825879626, -0.015797127483646204, 0.0334879805779209, 0.022718856338785575, 0.02806192457771295, -0.04269042696747454, -0.01490566996270937, -0.06455148175609553, 0.04517477731970339, 0.08649306394558648, 0.12593354120573275, 0.09145246760217227, 0.04943886029079195, 0.07217327726520005, -0.06443422480499775, -0.21791150357309452, -0.23730023761156574, -0.20361670536650492, 0.016258033657196785, 0.06131130609518216, 0.04209179602837826, 0.026539698330593126, 0.049117479387241265, 0.07206048173784255, 0.09397569423420218, 0.2009736101055056, 0.06488133905948013, 0.04502561687944294, -0.005172800226338644, 0.01121048553770726, -0.07553628009992126, 0.018527029836194413, 0.009668083952785652, -0.014421023576387151, 0.005532282760677215, 0.040567014418869625, 0.05228443741324734, 0.14631101280459693, 0.1653910037357313, 0.10733345969298654, 0.10264963394664511, 0.059369413364240814, -0.08877298656688049, -0.0567717869822115, -0.2088254314352068, -0.1674393199838252, 0.021694237101805115, 0.07113180709854373, 0.07124429393329564, 0.08394935944730553, 0.04309021835976079, 0.05336009931241783, 0.1060517181325815, 0.08244334996101932, 0.0790649061888231, -0.00311164180746065, 0.016258050266293175, -0.025768420141553533, -0.017967289392489795, 0.022173994917051097, -0.011163686149231768, -0.038138127819479055, 0.059115817528553764, 0.0710568459241302, 0.12059033109249792, 0.19262669434933585, 0.1540524155783158, 0.12525769963905575, 0.07699856335523979, 0.000654303954588421, -0.07730889597116783, -0.06531869354408625, -0.11597309994115484, -0.14483217003804988, -0.0908181805721873, -0.037267870226178855, 0.02534285086013633, 0.10422800698044621, 0.07800757225750131, 0.15138412258838993, 0.146300171641022, 0.15987643394233775, 0.12734797366947767, -0.011594876265755331, -0.03793475313581792, -0.005098481674907345, -0.001665947126860168, 0.05964414799442345, -0.04170926181019555, 0.04031285567632633, 0.004681584860856789, 0.10859766517303857, 0.056916234844817656, 0.09334984003441657, 0.11358305017704508, 0.10319388629853439, 0.07056930407317272, -0.006075623939298068, 0.028239864208154306, -0.044849687426939705, -0.11233229410447322, -0.09953688728171742, -0.13049196200260396, -0.043130322492351984, 0.04028260233590787, 0.11210677716983139, 0.1904840919256824, 0.17483446796941712, 0.19363717728619248, 0.14594469597234214, 0.18153853912087856, 0.05874290351634346, 0.05169317580448441, -0.05205798923762736, 0.055963387195228746, 0.01956079675440053, -0.043128040555974474, 0.045793506243195704, 0.0481812177885459, 0.0641475229486781, 0.15075995072572143, 0.10444617343304742, 0.1368007356566899, 0.12351141473753861, 0.014680431409926807, 0.07604989901809243, -0.02238734776751849, -0.11061714577676988, -0.04417552387578319, -0.1605705561303779, -0.13930640152704962, -0.012472758211965751, 0.07632184042948867, 0.21877796801232405, 0.21546418224636493, 0.25285864792298485, 0.2865791486444624, 0.16384607626504044, 0.14280670550829375, 0.09600626808922706, -0.0161986434623809, -0.028025544222409673, 0.0032702780795565065, -0.001687753624002903, -0.016596040661585824, 0.015906862804857112, 0.08132932207750741, 0.06465265893061636, 0.08838259120963766, 0.20124961565605629, 0.22341568608274226, 0.17781920656687708, 0.10596046871650826, 0.06850937351351909, 0.0513927829317588, -0.0553673711510885, -0.1183180966526213, -0.16293648314947803, -0.05806404839327586, 0.06414024803890614, 0.21626466731503524, 0.250767359238457, 0.17694153164474366, 0.24471712944771196, 0.25757712307567054, 0.20990303351049397, 0.10745266590907471, 0.03595434998766692, 0.04230721930426618, 0.026075011766171136, 0.030154210722746166, 0.03319708893781399, -0.0362469284488222, 0.05576449637211585, 0.05593202401717724, 0.07853856808661243, 0.09162744530473776, 0.10780552856352937, 0.06382964507859823, 0.14523050614395927, 0.04166129641589349, 0.011926004858599697, 0.016415406750556062, -0.10749591724882614, -0.1004958804349116, -0.10123246824312038, -0.012641957911590678, 0.16986216070028848, 0.22375760995241856, 0.30960608871767703, 0.2740411103877384, 0.26563157823458694, 0.20767386488512704, 0.180432993885234, 0.09016621838963736, -0.015145731965447395, 0.022169905199009434, -0.03657605683068773, -0.029925125660447974, 0.09905791128866087, 0.01175054426683675, 0.05946047183355695, 0.04538368906182603, 0.15858821004622298, 0.07686723909254094, 0.09965776961981651, 0.054531693121249586, 0.026704058148729434, -0.03257894437258504, -0.01847463060304207, -0.04903572976174537, -0.08676948235566409, -0.17349356384225478, 0.01609210601295519, 0.10734057075312764, 0.1472380126046375, 0.2975489254733848, 0.34454488155470014, 0.23671330325821346, 0.1778805925309702, 0.14501790180213872, 0.08025491273194153, 0.06527651232358964, 0.0002925103109810638, 0.014004451377148524, 0.037480735486655384, 0.014277232535803375, -0.006356197931253615, -0.048846815393398677, 0.03902906849464017, 0.13791904840675392, 0.05963446987859491, -0.002874726858835712, 0.05505536189897639, -0.03849001204190932, -0.07685739300561037, -0.03757852520478997, -0.03895272223562743, -0.0326887181881367, 0.034103066545010136, -0.029935065590678534, 0.05122841268218343, 0.173065169801625, 0.26830597661308636, 0.29153329178931736, 0.24092967678504093, 0.24463041366007005, 0.11478181728276175, 0.01492994301258354, 0.03181955965143089, 0.031605206628991515, -0.019501901168800215, 0.02052670225466657, -0.01087455805125387, 0.011369125395707917, 0.027689769493751206, 0.0072368653792549715, 0.0684479934009399, 0.06208524709791813, 0.06430816602688597, -0.0015616459258831713, -0.005930220172156576, -0.13185114254173447, -0.10792062421233851, -0.10220611783133846, 0.05054791327366876, 0.020294566293689392, 0.01170254138807513, 0.03636370410978115, 0.15566802558876663, 0.1312181945166876, 0.2172063143919985, 0.26959336420982416, 0.24217234981396987, 0.1398284342342539, 0.11724153412372336, 0.11727888317894788, 0.0019436572112034344, 0.006859242509700837, 0.06867903672335376, -0.014768998194844379, 0.013489761191523916, -0.03628097578688229, -0.043768775410228895, -0.01739422298226144, 0.07243762291144468, 0.03821210015382277, -0.008034723419819093, -0.054097758397283036, -0.07688109401999906, -0.06386431674432459, -0.07974257507974052, -0.05921756783543373, -0.0208445975822438, 0.008231057989533849, 0.051688781209020096, 0.10590071618753545, 0.19676859702673116, 0.14764708505966664, 0.1735835538874161, 0.25770361551872506, 0.17422924525632333, 0.12172923155543075, 0.052690073283162234, 0.006102748940731705, 0.02816116797190152, -0.018345940630620405, 0.004684603013122965, 0.0007001421097946735, -0.013747844519236892, -0.021277536300990444, 0.03692349443657466, -0.03579991773386219, 0.0032827823772771164, -0.01225835475641315, -0.0798651978449969, -0.0606280136004335, -0.06557935630963624, -0.01924872375243443, -0.05786814111887364, 0.025460963471521266, 0.08708971755137232, 0.06683033180151479, 0.11104361543365118, 0.19031666054433719, 0.08215654045096107, 0.07030413227762386, -0.0011318029203655406, 0.09197960692152711, 0.02928424545498682, 0.02846349620288911, 0.04585237135815518, -0.010103325023570957, -0.025056522320942347, 0.025141152166373137, 0.020727249878544782, 0.015082874330257843, -0.011031845338023505, -0.00776964012494185, -0.011248646870549361, 0.014518839357858354, 0.08391844879912205, 0.004721604460919801, 0.030984670504609027, -0.05813111153585706, 0.0466603725275545, -0.05651680131090038, -0.0692364238743485, -0.08459531713513173, -0.028994465201419864, -0.01127675223813117, -0.03560828015768588, -0.03440303599687452, -0.054095295472241775, -0.054054855210129496, -0.07768786894748787, -0.039626265841417346, -0.06888559861170873, -0.053059521988828615, 0.03897074773809525, 0.012685629620647119, -0.03142563546931372, -0.06498434425757504, 0.009427849977478118, -0.020503581556830432, 0.006121747579727408, -0.026349818411782744, 0.04310071057946641, -0.020867417511598374, -0.026800381893095367, 0.025769128373646328, 0.014461184511658816, 0.0019380221513400982, -0.019210448364714118, 0.026059168076581905, -0.05737035920688054, -0.05027325113155061, -0.02581673806326112, -0.02802880139048425, -0.05326485354479599, -0.07013967398773713, -0.06778103366456384, -0.016264041742965654, -0.027452089433027717, 0.023651492292584436, 0.022519927151894346, 0.025492453217892376, 0.03105381719556742, 0.015817792052430828, 0.04871683956591031, -0.018266740691675942, -0.007966593340164004, -0.03421612590386803, -0.035604770283750184, 0.04605313952267341, 0.020949662075584602, 0.013256658137384093, -0.005834843296224892, -0.013620561999778175, 0.03280296212157997, 0.022257260144565184, 0.02135162633335358, 0.043524569166994855, 0.026401822958503966, -0.013537391468750569, -0.03147020669445911, -0.04043727776413083, -0.004988045388626328, -0.00472219115070578, 0.042557202115233804, 0.0272168773947813, 0.043065851682150276, 0.025070681058406926, 0.020851744995443813, -0.030788165141547953, -0.06123604437157581, 0.03758760873600963, -0.019664151143028292, -0.009329974140346746, 0.07132384157789515, 0.03159997806685093, 0.024557777652984232], [-0.02962200709879474, -0.0040415616050711225, -0.030766438166174064, -0.0296733831040145, -0.04961761857605612, -0.038576307411987365, 0.04981365236763519, 0.040923857705104094, -0.05959764000908399, -0.004708757643956416, 0.02965968340426733, -0.059140687909306974, 0.015376393866649834, -0.01959809176256249, -0.03555671766685227, -0.0687903902237853, -0.0011818433817077643, 0.0011161234895054983, -0.02082161038927074, 0.036391257102090804, 0.027526174781383073, -0.029280401746491037, 0.011405726646331158, 0.02532133453726772, -0.029035407500799183, 0.05702570846741624, -0.059709480711188666, 0.03181783424101536, 0.025901631704747376, 0.005849863602313123, -0.07127146090733992, 0.021190228242091394, -0.018102275208679724, 0.034068439910795584, 0.0075451131321688, -0.03235318439029912, 0.001193805680703397, -0.01938228647860476, -0.00669118138429886, -0.03295424808850099, 0.03783317178377574, 0.02085763775935667, -0.024729048887107325, 0.004300140418727841, 0.018191688657509766, -0.0367265753758462, 0.022447096085126312, 0.003963243625921342, -0.0020375018843964195, -0.003010765756169676, 0.02337836907448323, -0.025597286494119947, 0.029407493881662295, -0.03711935628468853, 0.04848646323456262, 0.013300141879464234, 0.026485118944729377, 0.012335231140231539, 0.00891924889065895, 0.006082648651617431, -0.03037509903786521, 0.03175809176600245, -0.017852221446938488, -0.03460003723331645, 0.03809446546729746, 0.03197399349971114, -0.018026557916291965, 0.05934900325093475, 0.03164584627484265, 0.061099363656353656, 0.1121439211204825, 0.08808851018731406, 0.10231206449927972, 0.05405344663293901, 0.05443762665630581, 0.03634236565320891, 0.025480741574954946, -0.0053554487600644, -0.018804255802448076, -0.018968061068097262, 0.04892119319675203, 0.026734002556277642, -6.938437920085988e-05, 0.02580317510750792, 0.0007217939815964263, -0.01718404686854253, 0.003291535284697498, 0.005748103196395406, 0.03446558113759422, 0.03935432272132583, -0.060324723367779214, 0.002041620507709199, -0.02517429576924145, 0.07054132986907515, 0.057492370928560514, 0.03783738092363852, 0.0722428961844854, 0.026754058956726702, 0.1325531546501013, 0.06697009538116652, 0.0022893162485702733, 0.16105715963651718, 0.15102851600405148, 0.11148192855645492, 0.06330188767312235, 0.046249417541119664, 0.13317110008967695, -0.054082406633942946, 0.06325784953557093, -0.019816988800426705, -0.03665050352378349, 0.03196333345586733, 0.002633475760313323, 0.018151357627322937, -0.02582510185788805, 0.029812089947420572, -0.011230799549986879, -0.015227707609298492, 0.03239508559790411, 0.032487197395973916, 0.03648903949660274, 0.06792977116420243, 0.05253605607621846, 0.017414424403502837, 0.007866459221274566, 0.047966014342829814, 0.019235919527022013, -0.04805568845303682, 0.01116559350314232, 0.013267091660304996, 0.06456477392625215, 0.11416844818499827, 0.04776359308412859, 0.12648795199311721, 0.040483458437830765, 0.008044364995606141, 0.038429450216306706, 0.021300315762340205, 0.0886914276564238, 0.016545267134515554, -0.03064990981039299, -0.026671444609844695, 0.00915679282154381, 0.02962130886376843, 0.03749156931123133, 0.04056988378786354, 0.055622692430144956, 0.06416593024352894, 0.09767668308976188, 0.08565514085099118, 0.08213879657025495, 0.01852019556974304, 0.05518684332394497, -0.10918942877678024, -0.12056017339687147, -0.12493367721385173, -0.11808241623076939, -0.13600350972657638, -0.13406842199981192, -0.013754872837553401, -0.010363448751117324, 0.048095190923792774, 0.016380998711618328, 0.0251645781547978, 0.04909605400478791, 0.023733360365178285, 0.037408967512448314, 0.016857586928360903, 0.06898463852443215, -0.03517610886554552, -0.008657735152855188, -0.03080230999268079, -0.01257706262959632, 0.04657123123494921, 0.04949922332385482, 0.07669090467379049, 0.1421195592665688, 0.1824679753178192, 0.12946805374953896, 0.05312023380710318, 0.0249847491095572, 0.02791234727540755, -0.015976148221515975, -0.06922951084917317, -0.06947515158828618, -0.1672280261268554, -0.16171385410504366, -0.158396164511132, -0.06952003418588606, -0.06790844718652914, -0.04700862919155311, 0.023120150823960038, 0.06859097936935812, 0.08088701147236722, -0.0055227522794731344, -0.015250444542673007, -0.000997172922591157, 0.01587170712843243, -0.052431103995361626, -0.02007585190887388, 0.03565024948678669, 0.042030336449598076, 0.036542675862224025, 0.10228162269705485, 0.1426887565909572, 0.16600542368604582, 0.1507452100087178, 0.06453416155070282, 0.06377448901149306, 0.04178653418473221, 0.033122710173524625, -0.0054699419867295564, -0.09481508669716782, -0.18918087591304383, -0.16328442604959564, -0.13332861620452421, -0.06588094899551665, -0.09593610204975221, -0.06011192697661929, 0.04765411154937265, 0.08312909410397044, 0.09026893753732547, 0.05122131342565672, 0.0202389123102613, 0.01785410868515484, -0.046546787708525016, 0.01682879109907701, 0.012519589460333172, 0.04732942738109969, 0.07332841551209217, 0.12090007222412252, 0.11432536072471385, 0.15404287035224148, 0.20165717510183606, 0.11743808548702668, 0.09663147448235702, 0.04264900720499099, 0.06440263742488721, 0.005624086582413915, -0.025693410089963873, -0.18214363552968413, -0.15325587285624553, -0.18943709775390186, -0.12496277464313747, -0.05146342387114492, -0.02605552352825828, -0.03650988704739789, 0.032156429218063116, 0.10386791090941655, 0.056428098701859206, 0.020189110222913108, 0.012143004543425382, 0.0015042980516900648, -0.0357426594196408, 0.02292806445258127, 0.02715237713458801, 0.03117632856852448, 0.0723994546462166, 0.08533142667119115, 0.11579398719187298, 0.0997555846750868, 0.06813213182352668, -0.029992358747187867, -0.00735835696623914, 0.019185819193994515, 0.027564175613829758, -0.008064421989043212, 0.03442740932107784, -0.15288564254760192, -0.19744984686260503, -0.2660584244473743, -0.2589674031020567, -0.16273663674995195, -0.11679984599860548, -0.0726501306819463, -0.07874030884332507, 0.026278595150957117, 0.023585475677769967, 0.03912299724964262, -0.026848114400345506, -0.013931757415670721, -0.011598296888320902, 0.009944582587721879, -0.01665108303117839, 0.07138078943768911, 0.021054778278420637, 0.12806706527873082, 0.18490466949916168, 0.08580289827216109, 0.02475212098670392, 0.029619406265862673, 0.008809746373753546, -0.02497321323875058, 0.04739632201432469, 0.05883371031655033, -0.0006760480787465363, 0.04939427581227548, -0.03046807459003543, -0.20210720613769312, -0.2695388956523531, -0.2222673539390334, -0.14476115189271718, -0.16778218536916184, -0.11224913141482584, -0.03851370986248679, 0.02231394145902356, -0.011338062646952259, -0.047073482868935236, -0.030238919926930573, -0.019790829387871665, -0.03589939446647921, -0.03389399435953661, -0.015045420248652195, 0.06686525170930377, -0.02534119006469101, -0.009430265649079613, -0.02151679709135665, -0.022967276734498086, -0.058185533976273025, -0.011445619104238414, 0.03958034220054141, -0.0006880199699992302, 0.11987215118501365, 0.20576645872843385, 0.21912502551165305, 0.12267686854506135, -0.058786587692471644, -0.1888449848736334, -0.32317427494116874, -0.21125366537835874, -0.16320109232294788, -0.15461130866214262, -0.004846626777106154, -0.04268873758373054, 0.016402375168191475, -0.02987523371885669, -0.03170661335199389, -0.07183684256103168, -0.014657615821458133, -0.006721431886140391, 0.03215254011147296, -0.01356150465645808, -0.04908178752630044, -0.09938282125609738, 0.012670712801439119, -0.04520785971069716, -0.01320490655595695, -0.0022096820995928094, -0.07579686560829504, -0.04734656486990935, 0.1856278111956597, 0.3803117612394844, 0.3629447001016598, 0.22912121623605972, 0.018703262867681078, -0.11250481417908229, -0.08271588152111305, -0.05275329063580614, -0.22604989057227814, -0.19379011476388053, -0.04069404720751424, 0.006408033150490667, 0.0684012964862688, -0.012908497024027233, 0.008926646849509582, 0.03733461563334988, 0.009707280734305575, 0.07001290114154402, -0.04504007936660727, -0.06947688050458055, -0.10394053256030024, -0.17620136793226687, -0.09935483772550538, -0.05027652637024319, -0.013895829767429932, -0.05719261821654194, -0.1278030437047647, 0.03400197235198272, 0.23428882748330787, 0.4542663200787554, 0.39193860424123284, 0.21299130941219538, 0.02001052888108555, -0.022453548162881084, -0.08968217243331733, -0.011232071068667119, -0.07096497013635668, -0.09936095083603175, -0.06063174416333152, -0.0018486882963246276, 0.007158757211576004, -0.02846930002640335, 0.005425044881455641, -0.008563008101955174, -0.08833515040670273, 0.005874237002063907, -0.03165569522218471, -0.053491843201787494, -0.17467562136905332, -0.1972066204783358, -0.1385199768614515, -0.05020356952107664, -0.08073061708681897, -0.07484494915446434, -0.03533301006622828, 0.19021366676478405, 0.34925548101063075, 0.4514577524714509, 0.39886929910973234, 0.18428200681176013, 0.07121020904792831, 0.045648194130118745, 0.021295144454453952, -0.008079099803249475, -0.12121537658537707, -0.15086069418816636, -0.0833844801856348, 0.005943237794586725, -0.028937343327592575, 0.014910092385167939, -0.019855657350837264, -0.08206914740290429, 0.0312374894854105, 0.0009830463973923354, 0.020448298941386077, -0.08856451127964819, -0.0516045424779792, -0.12292397698731358, -0.08115313873043643, -0.16041342251639945, -0.01518992522036651, 0.011741922290168585, 0.08091001211792226, 0.2835068033329349, 0.4474061982680919, 0.32886684174184133, 0.29167421589485093, 0.12847771106761238, 0.09387369194416566, 0.08407891764383676, 0.0066137755582678336, 0.008667020729129726, -0.06453171527940381, -0.13308076838440455, -0.0658322189487769, 0.004830608563869236, 0.03664568059983892, 0.0330192484808204, -0.016552142072417224, -0.04228527848005218, -0.03764753500823052, 0.024655521446631298, -0.013733275904818232, -0.12910184476510872, -0.1280698762551144, -0.17589413916492375, -0.14980035244792203, -0.17114471342832396, -0.10050368035761403, 0.006830928694520045, 0.24770721814254967, 0.4250560011116056, 0.3902862933069548, 0.2976536747428102, 0.20426436677412435, 0.13760625397782197, 0.04066446638852531, 0.023238566210776832, 0.05748379403431343, 0.0021172571160836284, 0.04628540725374354, -0.026177047156171137, 0.006613888234592226, -0.0006132131039683023, -0.010171414359234597, -0.01481716517507644, 0.0171413246709642, -0.019814583084752792, 0.0044021195566734134, 0.015496361799972509, 0.033694881308024546, -0.08713240260298151, -0.04769465902106798, -0.11707928004546182, -0.1248978950698025, -0.16023390671186838, -0.1451113197634036, 0.08898175042718062, 0.3164208613537869, 0.36859090863904614, 0.33347480345345465, 0.2261525186886895, 0.11980925189808751, 0.01060056354446567, 0.054137069849792496, 0.14924380994713435, 0.036254178195626555, 0.06846159841417893, -0.06481964300983216, -0.03636379971060774, 0.019123994237665913, 0.02204498517838439, 0.048255180060585746, 0.00967291732815412, -0.05143558156874734, -0.009171273330957765, 0.04440386177337223, 0.11604090346104089, 0.06109351458862877, -0.05003650999375452, -0.06752719630579598, -0.00942261631674779, -0.07768746321537297, -0.19636561809632505, -0.19160080630960966, 0.0019045790938111585, 0.1600884654409068, 0.3176680170509695, 0.18980847580838262, 0.05929739207091415, 0.040785566483466075, 0.004061759069704252, 0.07297628700220285, 0.09284661549074999, 0.12618192257447156, -0.013069729870590225, -0.031239296266762383, -0.021351697074128387, -0.01062466889686963, -0.017644611559246903, -0.040185911329510965, 0.019727005387227835, 0.05180374523737232, 0.012639994605516366, 0.016407034153805802, 0.11356247377753653, 0.03481012993058841, 0.03553871341376693, -0.006810460452415421, 0.01895904952600847, -0.04161149722875042, -0.09352957559669202, -0.16438015365447403, -0.11621670278019337, 0.0073384268653076635, 0.1781041789431286, 0.16036789001694465, 0.030325848613822044, 0.06806574452792995, 0.05718878995355539, 0.07372443682843549, 0.06432025383676221, 0.12786091609868935, 0.02305430517830304, -0.007985521682378692, 0.028671581390780316, 0.04216030263722496, 0.057235780052926975, 0.009039430106065676, 0.018265244186623224, -0.014964196925427529, -0.03581551664262395, -0.05249912311512491, 0.06827248478494564, 0.060488944315465955, -0.00800319752506199, 0.03324675575916451, 0.02872874774139378, -0.02977339047374652, -0.031092262549583864, -0.10889384943185158, -0.11197708944083354, -0.013732542104196223, 0.009853530501482464, -0.012330979476349946, 0.07743405713998505, 0.03382367080502886, 0.08467861139891293, 0.1527298674186755, 0.16188361305280607, 0.11870683250746981, 0.06458164550523413, -0.0163814374050671, 0.043345581332727874, 0.0682426188755663, 0.062263603671680774, 0.051521792111610204, 0.03646347919590599, 0.014204814347696444, -0.0050177169751211455, -0.008502342600325782, 0.0446144623393282, -0.005677477059161639, 0.009529117930571823, 0.01955544227727577, 0.05273330456589689, 0.06912935657353683, -0.022379448921896927, -0.010525630974810653, -0.06710349245662603, -0.039554224888560224, 0.028934561317366967, 0.03915831593351439, 0.08239209013567518, 0.04450008734211696, 0.14252891463103318, 0.09462613048025514, 0.10153784476968374, 0.052290922882506086, 0.05845421219639009, 0.00821162938737733, 0.07159284096181315, 0.03322487312048073, 0.07522679889051034, -0.023769413401025716, 0.014590778160397628, -0.016745583414711888, 0.014002467899618981, 0.030632993289588857, 0.0793951489901456, 0.03721870728904654, 0.06063318489843929, 0.0019684616652435975, 0.017875922238496343, 0.03646310576344006, -0.07803617172686765, -0.03664205136202487, -0.11331971265021422, -0.13981393511103132, -0.14083965917728822, -0.07026244547773583, 0.016406621272638946, -0.0013025038568352603, 0.057624570998151735, 0.03440911973902588, 0.11224167534672724, 0.1164758831431588, 0.0821943699538543, 0.07820697379541906, -0.04755506902672981, -0.013874756692323104, -0.04104201722623769, -0.021729364529196465, -0.016292182211299553, 0.044657397638368554, 0.003874351986934422, -0.04022845207036291, -0.02048429610027645, 0.03692498519373208, 0.0096630250225732, 0.05184014404426456, 0.015061743068129053, -0.023748348530890986, -0.09948620393982327, -0.18509200732510214, -0.17564557932945746, -0.10925898917326059, -0.11077675697508883, -0.041951627293479725, 0.010675985338573581, 0.03334220958673337, 0.03537000855047022, 0.10140500866874948, 0.14352597132846628, 0.09250391361008432, 0.039733408025401686, 0.0013352520964194665, -0.020018704293826416, -0.018840536582547345, -0.003267642070082455, -0.07812287297810039, 0.03687653171035126, -0.019402667716621146, 0.02262752220478853, 0.005081535440560353, -0.013688606898898177, 0.02900491945564854, -0.02951817093538289, -0.01698197106329658, 0.0975541087406003, 0.04341775985664822, 0.04980965085170563, 0.04777036697103761, 0.10459139284894127, 0.018311145626715326, 0.02029920133481938, 0.0416619834901848, 0.08895904275703122, 0.04583168000123875, 0.08177308540708154, 0.023824071750718597, 0.01455270348811338, 0.031863855320993575, 0.024686571006808055, 0.07144304176335917, 0.07394976085520605, -0.015033817199343574, -0.015945511501843732, -0.038445391987821376, 0.022171154042044432, -0.013348861873513326, 0.0056592431494365695, -0.034621793999885374, -0.028934343030281463, -0.048663764322277175, -0.011853311037935235, 0.01800375727870901, 0.008989749704076531, 0.002594464102122451, 0.015804578031068557, 0.11905363002161021, 0.06897498933426943, 0.00017239285738682755, 0.05356449531174773, 0.0915178181513452, 0.03953193471143326, 0.08106080903545199, 0.008064115313933315, 0.01556941863983837, 0.04746006609575432, -0.0006403360994193571, 0.08783945062122817, 0.011465409312382368, -0.04611836981241508, 0.015429103994869334, 0.020588317713338678, -0.007129622684038955, -0.017763310064641987, -0.02270962962747143, 0.01526536324964001, 0.024619544811496932, -0.012456738387184576, 0.022850299188914527, 0.014302323446698092, 0.019835486042442188, -0.04533175374877759, -0.005931851944135051, -0.036626961762054294, -0.01318276228588917, 0.04519961646879355, 0.017268746802970737, -0.002479793541720021, -0.05746849857100561, -0.03524202850382073, 0.01004347114357373, 0.017283976849841228, -0.0016680094920551191, -0.03500071920514826, -0.060886708232409874, 0.04488965739746564, 0.02202594221699101, 0.08321285306900982, 0.047184968468936536, -0.08956151109920753, 0.009614785497437786, 0.0016706615529803492, 0.024509033834551573, -0.05932918881787241, -0.022071821364346326, -0.017466266759814605, -0.04172887045046408, 0.033599104793700055, -0.032798638550591654, -0.02307836038595572, -0.00991676960852981, 0.02602867366794525, 0.019877830507594594, 0.026258862782008376, -0.01006670266971287, 0.005929353717132381, -0.05980210023557804, -0.00475434550950951, -0.004098585582798237, 0.02384171981640822, -0.045037353939871155, -0.06776388738549251, -0.01172868646104939, 0.01842415697188993, 0.023401012021683442, -0.0053497655459012914, 0.007487813887806009, 0.008470834406339002, 0.02091864845880275, 0.12181032363842818], [0.001432580554168836, -0.03186063113360794, 0.03204499990963938, 0.022798930290966395, 0.012174467932671807, -0.05409785477790298, -0.03393473608228092, 0.03966540671439234, -0.017956210275617307, 0.01802053754835338, -0.05793394021482933, -0.01092806748839527, -0.012328737053420778, 0.0021387631010851074, -0.014607862045989005, -0.04047524476260048, -0.005496856636745523, 0.02179902823024159, 0.024573870867654325, 0.0380815398934225, 0.010778184198801454, 0.0329864578450802, 0.027851051609143022, 0.020846266533285168, -0.028641667431606198, -0.04352942182351591, -0.04161339649507316, 0.013110895526852408, -0.021593894005265468, -0.017940882019976477, 0.05087559918912388, 0.0050249655590664435, 0.029224151914482993, -0.0016736377621483858, 0.005228912072444072, -0.031868249356288444, 0.056674226229620255, -0.007158175911660198, 0.06036985176611429, -0.02149450539309009, 0.02610905940975874, -0.025684424213554748, -0.005643671177930127, 0.04053870646925075, -0.07989505398986854, 0.04631506363734219, 0.03084233218164504, 0.02229362260221055, 0.024984081705065813, 0.06746222465408044, -0.035473522397225454, 0.038033329487788835, -0.06943101351798163, -0.022386692089747508, 0.045517494888370987, 0.04492698461725376, -0.06144539803495942, -0.004924272985605697, 0.03425999844360347, -0.012671049192416992, -0.04896081527961132, -0.009143039187279203, -0.0029795077909665684, -0.04878499912696435, -0.019980917892062265, 0.0312155440972624, -0.022267508744924624, -0.04446866543160378, -0.04668561338974685, -0.002681197372139324, -0.005216700584598039, -0.002098518413715388, -0.0406569008358318, 0.005941026901560904, -0.02473779251358075, -0.043917429892840636, -0.0027392282867970187, -0.009283251470291716, 0.0592772853926024, -0.08547258798264472, -0.06314356756744055, -0.015112373990045492, -0.014682614245185834, 0.030856842215298386, 0.03997074480833504, 0.005019822099113506, -0.011467762224740913, 0.03219847736306996, 0.03698932478349125, -0.06034177193161106, -0.029580188887888617, 0.03693039431226249, 0.019711739802463605, 0.0018641916826086246, -0.08125612671239778, -0.05213626685678222, -0.06725194720193456, -0.09101861294094132, -0.06420130936864028, -0.10011102599563018, -0.03382123031360104, -0.03541499807342198, -0.08014738682072912, -0.0006837031876055729, -0.03380605579681001, -0.023012836772590247, -0.00528847594111441, -0.035958656582215864, -0.04385639558707701, 0.029548366950796948, -0.06026538497606412, 0.01981040441926766, -0.004421192930371087, 0.02336262085601989, -0.03768698679247415, 0.04370964675249246, 0.019640605164303895, -0.02645274464525446, -0.026775249032183406, -0.0019521208591554732, -0.06023335265546554, -0.08954021499278604, -0.062019053232587426, 0.04907034556472137, -0.034047143898651606, 0.0008930086090058463, -0.028968229486746683, -0.06574770834171023, -0.06465998744492123, -0.02740860490359111, -0.05640581622038607, -0.04249730989760518, 0.0032039860061382312, -0.000328603229438079, -0.0691490450871404, 0.0014103608561248913, 0.014902823678335298, 0.01406918203784609, -0.024623586650036573, -0.07414763094004344, -0.003205312422668963, -0.008930836673237916, -0.013124440386286686, 0.01165557371641107, -0.004036532862217899, -0.01627524195143911, -0.07158621774629648, -0.027243940415476234, -0.029578098384666802, -0.043182355950778815, -0.03836678368850014, -0.03801153129198239, 0.006991427767257004, 0.09735068239089623, 0.08170569878158596, -0.004682134957997654, 0.01909955417142373, 0.06582643764022127, 0.06682716810456421, 0.029702181702324488, 0.04374917487455755, -0.011212440154136891, -0.0021848069930787365, -0.007442733464247891, -0.05153100060948913, 0.026889976106699832, -0.038532099871584055, -0.005944723322179047, -0.03718178207098934, 0.010298595744272259, 0.038696684517106186, -0.04391477737904193, 0.005704072744056982, -0.020157206981399316, -0.032313409983056894, -0.07101395201601374, -0.04819595745054082, -0.04416941679111375, -0.03605632252628934, 0.007266345807285739, 0.02294065081454625, 0.08240294386932759, 0.17974055339503067, 0.07709646369508054, 0.10745070174478623, 0.09592960987798681, 0.03944450979944321, 0.06059081568036887, -0.03355205127361641, -0.057207732612871195, -0.024128645800001503, -0.008120562843327577, -0.10314452151979926, -0.01448643605191736, -0.06780137357954197, 0.014924970150163515, 0.004176439597242779, -0.008471455380208015, -0.01261298166247675, -0.0033479648501441354, 0.0494152417151857, -0.03884256858928273, -0.0029701069260674937, -0.041819040433162355, -0.10295919638068483, -0.10355058013403694, -0.01835262701787864, -0.02730488912842788, 0.028632604376280554, 0.06778181334967823, 0.06194380814661363, 0.09195275739246893, 0.07390558395665345, 0.0404878728821125, 0.011064687216406903, 0.014456363200646223, -0.022023448974731873, -0.04631790830328481, -0.06734227667076231, -0.09580531479584804, -0.1467928278899875, -0.11749286734739836, -0.04068714065756531, -0.03159053206200215, -0.02751328703852531, -0.02150295401257021, -0.024332041067359228, 0.047252531914712126, -0.03208762816635171, 0.006384936192723953, -0.02195074470858878, -0.0344373040033634, -0.06237972118796884, -0.024648428717530615, 0.006375956529104229, -0.061697673093258076, -0.011845078096025577, 0.020162219483566744, -0.004292670147661982, 0.03759387544621931, 0.05530020960924826, 0.021708247592207238, 0.018211271596262537, 0.0011335944681078024, 0.0021401429898498985, 0.0035811756865747123, 0.021170440159357186, -0.05550331666188345, -0.07055816212024153, -0.12369132235397999, -0.05097965557951916, -0.0021336826738091123, -0.027152661587582783, -0.002154569147644862, -0.031069554780946498, 0.04048982971639062, -0.03198718500971333, 0.05702530138851332, -0.03167790508808754, -0.003939310694907647, -0.053100053813610125, 0.023764071981154385, 0.01693587200782883, -0.007150848418854771, -0.01160424435945437, -0.04393155055832684, -0.03230865056450497, -0.09733634577890428, -0.01777939943993512, 0.0016724406800265757, 0.08383436275379512, 0.1685104809935917, 0.09532309871332924, -0.018038348758035862, 0.031420604338885785, -0.08941405262584966, -0.1311393580625406, -0.12416749762102451, -0.015934060709393915, 0.023583805958231584, 0.06293461991707486, -0.023128928906730958, -0.025060501361084425, -0.029500851541456357, -0.02755243070952754, -0.021003317064035194, 0.06236469273857769, 0.012963293445692959, 0.01530997312993383, 0.06789050924790685, 0.016756268759127158, -0.036480099645230184, -0.09201444660309432, -0.10653556995871309, -0.12609495447810698, -0.1710358211512017, -0.16529004126291347, -0.04772060543279759, 0.08704472461865634, 0.13371060801907717, 0.1952235171014201, 0.13701013353380292, 0.10464119959652039, 0.08481668593268077, -0.035055472415900416, -0.045697202769442336, -0.005323520376862752, -0.07771816988080452, 0.0356936037765283, -0.006074279665369434, -0.0389050516003611, -0.025033584041958108, -0.0017189968882737922, 0.00800632612761637, 0.07173703837570775, 0.054919794677182374, 0.0669900608209725, 0.06832590768113089, 0.03290094184680845, -0.06410165405710314, -0.0680716864681682, -0.17873766802222796, -0.23031660920696326, -0.2577505320692626, -0.1640630400437725, -0.06349357716667496, -0.016993197007727643, 0.14590952715984637, 0.14059217629638598, 0.19250558093605033, 0.17872031137455013, 0.12178691977535326, 0.02797733488130389, -0.06650889514605351, 0.005667104359653705, 0.04413662526425109, 0.028991690203006664, -0.01874417282277567, 0.03972132987209886, 0.06275252941274546, 0.047135280091229644, 0.1115941620049917, 0.11589824840411651, 0.12084305223118258, 0.05078661785643299, -0.0011380008598050537, -0.0088314984285828, -0.03807574141556363, -0.031693845642124796, -0.11619666514395711, -0.24501001673153086, -0.22195628035596232, -0.21924987356258885, -0.13345446267131772, 0.024363862895998605, 0.10451906672598485, 0.13313134269934324, 0.12788416678729003, 0.1763087593521815, 0.1541565491654845, 0.06714226436374075, -0.013577285597188538, -0.02878361571781082, -0.034971964907210745, 0.02504080061097739, 0.042204209372997945, 0.03784908941870187, -0.04887874469817179, 0.03752766315548719, 0.08552143278267159, 0.18024509240636938, 0.14513891409076257, 0.03599240335639756, -0.03986749860068972, -0.05356863672172334, -0.07258430247766962, -0.12549451855217997, -0.16329726996918112, -0.23856028736194912, -0.2185354958354352, -0.1805402143652318, -0.1017679467382953, -0.09328574088894205, 0.15597299374394968, 0.09474342383880965, 0.11257335935100349, 0.126164517771994, 0.11006052691325802, 0.028788789358560107, 0.03794404196072761, -0.02647298910029078, -0.0046278501008914456, 0.023901129875539145, -0.02727030744442482, 0.0032158291065604106, -0.017531029994068695, 0.0303976325462044, 0.09882556375918093, 0.10968098375176993, 0.07850770116022103, 0.0575234208661739, 0.003081358231686158, -0.10216016822423796, -0.09565632796985421, -0.05643671003069887, -0.20295123662149323, -0.2449827171912869, -0.2806736022051609, -0.23660381146790518, -0.12346072623055837, 0.018028766080874174, 0.10269163836991543, 0.09012765015336481, 0.04363673366761367, 0.0843470227180834, 0.022059862087707507, 0.04521771970794094, -0.06692812223768009, -0.020460821473203224, 0.02978785396471809, -0.07580923388546779, 0.04535168082577295, -0.0332992402151311, 0.07490342297065827, 0.03887795935472128, 0.08423618019751332, 0.09778849322120144, 0.10716911506870369, 0.07479202826225584, -0.012656261688901686, 1.0217929475464667e-05, -0.06786789448105765, -0.07712540849771919, -0.21572805991946387, -0.29290859478605275, -0.30497240789986946, -0.27492408663891466, -0.07522082673933747, -0.03988828443011989, 0.12425191652215269, 0.06865432316531556, 0.010776945830481588, 0.07905616631420437, -0.016001814322562053, 0.021000157316597573, -0.04668021482598325, 0.011995138949211179, -0.06711481523630668, 0.01732144475300903, 0.048896481200149, -0.014820459066398442, -0.06112155637837831, -0.006050038359765864, 0.04203985691915851, 0.09180070392143119, 0.09150500363248604, 0.10666660873017031, 0.025523343921091395, 0.01025318987275305, -0.0808602576236323, -0.16744686478024423, -0.18981212505671327, -0.32592352475432523, -0.3147946229459483, -0.26987467757042766, -0.037568667742043614, 0.049099589199969686, 0.07760950418468673, 0.020276238552726235, 0.03346139133747819, -0.045367948652561566, -0.012941503670302048, -0.044702937581987866, 0.004546592069566953, -0.021654466802896937, -0.007299105690276863, 0.0883556292749416, -0.02542403727389161, -0.06030155457044672, -0.0690093548220453, -0.08192844346544222, -0.0026650381349253094, 0.08633091049249611, 0.08424030670866287, 0.09772153026540444, 0.05631758244523009, 0.09488671782340513, 0.0062696584389736396, -0.07793549323695609, -0.18123967088305737, -0.36927654327731774, -0.2875672633469107, -0.15451035500152538, 0.00523375485134897, 0.10815312915574248, 0.05812212252963483, 0.04389370870857133, -0.010616732940673316, -0.03219874677862988, -0.04965509575444285, 0.055540151118107554, -0.007436946075923835, 0.032193530901685995, 0.10204185988852464, -0.02502215591255733, 0.002753837187755209, 0.002619364589642256, -0.016418243593131644, -0.03316237914996581, 0.07767083304722004, 0.030480986760120093, 0.036675825711832866, 0.02266374175017551, 0.16031073888636374, 0.0624438327511108, -0.02644242772103758, -0.1336602659272258, -0.23568681560758045, -0.3077876510805582, -0.20066109764410764, -0.05194946074569347, 0.14685912469401532, 0.10729246146992992, 0.09933130638346548, 0.027322312649147466, 0.006041191133896535, -0.03471611216827975, -0.09473544409978278, -0.06691258632183521, 0.042405485992616246, -0.005932147514372594, -0.011826861570170858, 0.0010064976180099627, -0.007138321012024619, -0.03859745470388776, -0.0553845218715568, -0.05363789640954103, -0.004519032695041265, 0.0034335494601766955, -0.006235215351934314, -0.013869017705067136, 0.0013279597910214056, -0.02834987005332882, -0.08472061819445234, -0.1747625679152793, -0.27411618182462955, -0.24423168014179314, -0.20041743669537002, -0.01173446244359108, 0.09318749652929356, 0.10055661746462553, 0.019458439907076682, 0.002244952985567571, 0.03874211154959854, -0.08567577505632178, -0.05790485842811866, -0.08373732657590767, 0.027806581943573664, -0.04629558376420283, 0.04392788255246688, -0.034085511392092455, -0.018317626828301688, 0.0020266973581367347, -0.025124329042875797, -0.023872712297057654, -0.027878557561466705, -0.0031767126376445573, -0.08671649444246632, -0.006860016685561418, -0.08249223972767089, -0.019246213303248456, -0.11958125241102034, -0.14396438541614434, -0.1848325093677901, -0.1025379993637076, -0.05561053885411538, 0.040933241011218334, 0.05039743068725215, 0.07534221368009987, 0.0056319489753149255, -0.025645427386045187, -0.060735948258701246, -0.010936226858316599, -0.0628139064736303, -0.012165346384893484, -0.013472771673960618, -0.016803833134392536, 0.0077357247086440985, -0.06684257086358467, 0.004384763893373667, 0.008277469575396207, 0.033887895598430286, -0.003098939326441956, -0.03740029920825865, -0.004223910879847969, -0.025995918007374535, -0.048909014378819816, -0.08769280212646417, -0.083599055241832, -0.0044280529044476696, -0.14906291373769345, -0.12225556591786224, -0.10671531928420676, -0.05826513350432894, 0.10226374895310432, 0.09310013919953974, -0.04484136441025518, 0.09754071409182517, -0.06560996559706796, -0.022423462593115246, -0.04346398686819265, -0.04045433817160027, 0.036674553670324926, 0.00026006304172526224, -0.012416209652997823, -0.02052727666703769, -0.029577041493512705, 0.020098544071545977, 0.0012421839399903646, 0.008968517147714967, 0.00396506682925665, -0.03257560708289949, 0.03092469524868708, -0.02779677341211027, -0.05365556400256136, 0.04780140436724134, 0.012610818540213179, -0.011424620121237624, -0.017817092159009933, 0.05627868922767437, -0.015129739672448064, 0.058202508778758925, 0.05643303000650668, 0.1054026860938734, 0.05545972526294386, 0.05855609729880565, 0.02099196812044225, 0.01770809581816265, 0.009960086577857801, 0.026014221971657835, 0.00883963716098375, -0.059696371000300244, 0.03938629239490273, -0.007762390627871146, -0.030650840221111888, 0.05561607470194724, -0.018623889578558133, -0.001861505291359708, 0.0067925990539905185, -0.07597821682743597, -0.0461046454235178, -0.010894282062808975, 0.0162743562638344, 0.017106638779792877, 0.0028289739224190906, 0.05974740403722422, 0.022585276129641448, 0.09047379579208017, 0.016484954873511252, -0.016122083474864293, 0.010759227943659045, 0.023189800069770002, 0.050776666990116834, -0.012324805653050218, 0.012195691147030365, -0.0009579688897904256, -0.04516504745999856, 0.036430973295267045, -0.004608581689780864, 0.016195088454651927, 0.06098075491493055, -0.038872184372934826, 0.05150596311513698, 0.07433110074407048, 0.01575632500325137, 0.055892909711758046, 0.0018968581219704931, 0.017480550828731525, -0.033074019476983366, -0.06163047668309669, 0.020631596366949202, -0.0961969040281447, -0.09692057689607379, -0.07504412057033871, -0.03692381795062002, -0.04164119198861081, -0.07382983957890092, -0.07282658360290706, -0.030851127865647424, -0.03139336537886843, 0.06144960305132227, 0.00018548345941552473, -0.024627523959711628, 0.09690689070375777, 0.02152244095518158, 0.0226897789524246, 0.061583183585161946, -0.0009757277395355472, -0.02700827418103631, -0.01598620516244183, -0.010602234346381752, 0.07485066614023612, -0.00733080375510507, 0.044078458885210156, 0.018703472558367275, 0.013326404876070876, 0.05309437245251408, 0.006743745040291649, 0.01884458087170114, 0.014957996094403143, -0.015725305225541535, -0.07216679384346056, -0.08630970690601565, -0.082466255784661, -0.05034684824577968, -0.053003501578742424, -0.013985167225208053, -0.0007121534915529397, 0.047400658670774476, 0.06391934865614807, 0.08672310358132865, 0.03261926947628142, -0.04657515072120949, -0.03127314812188378, -0.004082419663840248, -0.08558888914828858, -0.01290820144333765, -0.01886820618145099, 0.04448886846516926, 0.01457396511205633, 0.014863976478320351, -0.00934920693294918, -0.020250112573738124, -0.00020861845888551345, -0.008649872578251646, -0.01539239505471161, -0.022684276309104388, 0.05111594842652655, 0.010032067145449203, -0.022448241925241662, 0.04160085213332888, 0.03909954383982197, 0.06075867530499459, 8.863554186096987e-05, 0.038595166963965616, -0.020670089068963185, -0.0006958266328923376, 0.024078761303336433, -0.06736439504143513, 0.06468313833788317, 0.022751231976482256, -0.035227283094921784, 0.012160487703824994, -0.004197585431334732, 0.018384531507708562, 0.018276379242195488, -0.0182684608258205, -0.028005673657710225, -0.015236407205331764, -0.01895859666562969, -0.030953816688135613, 0.026336420290624826, 0.030669202783775364, 0.06671195353401077, 0.04062249809291996, -0.0017963313006609373, -0.03136542028171322, -0.03136955395920355, -0.03592997524943288, 0.009673447646624292, 0.05156298476966158, 0.0474705252495322, -0.011824636956753638, -0.02052142080521464, -0.033256942273436924, -0.0005434973613184621, 0.000901747369580847, 0.04681016335282342, -0.01794451832983318, 0.02939457472788537, 0.006592406632550067, 0.003574580808012688, 0.013406641947476995, 0.02239007696793497], [-0.014139462058124663, -0.01759532208061923, -0.01825415883774932, 0.027916475718786617, -0.05809875253986018, 0.02608285257487261, -0.020350371324741986, -0.02889873630140161, 0.02336648491354627, -0.026878398804213662, 0.02569733025403982, -0.001960602753159058, -0.03542674426462343, 0.01776470182416327, 0.018040121277757892, 0.029311864963682398, 0.023749752662650635, 0.04653990435445399, 0.019439480954464235, -0.04679595025061752, 0.011830932773283898, 0.015281045843629363, 0.04982525673197043, 0.022769623811973973, -0.03294976834975229, -0.022239872042816553, 0.0391969016015722, -0.06774947818550757, 0.020962715992554053, -0.021500843863061947, 7.228031396865552e-05, -0.006193789146103793, -0.004118014716863627, -0.005116461162073886, 0.035992597312502095, -0.009359136201221186, 0.002981421710592404, 0.005781281469837789, -0.021988227409788775, -0.012136204256814468, 0.024481879901388868, 0.01733453906039929, -0.021162034496200025, -0.03221619484891623, -0.07629711542630922, -0.0036516856817038717, 0.024913775829610404, 0.061161988467172995, 0.010792183074150193, 0.018303129808247276, -0.033179561024243805, -0.08606267347365754, 0.012929312532741492, 0.049774988733286896, 0.009674227030948456, -0.005209919027050774, 0.027819370563558498, -0.02925224316363728, -0.05128355998943817, -0.011813399751502187, 0.00463657256645262, -0.01923199837813914, -0.03139412684294938, -0.05687094849518181, -0.004554884160569481, -0.037656400555259546, -0.00922095509261541, -0.07334796797905506, 0.003818139883760399, -0.00860794235115131, -0.01966400792011244, -0.11467479325717034, -0.036112616336473814, 0.010889746815121028, -0.014880686174492199, 0.022672376427991546, 0.0004347663709473794, -0.02546728718999815, -0.0073880990779734675, -0.009072996870909303, 0.02024912315335381, 0.0023542929262258443, -0.010124843283262564, 0.007526495385096553, -0.02210131053408561, -0.06653417804307557, 0.05268043350847461, -0.016302252716962732, 0.05208118026195732, 0.057098895261206914, -0.012711986122756255, 0.012441626803447856, 0.005958577742697071, -0.0406279577629834, -0.0686972708219603, -0.08301053892504359, -0.08291881085330947, -0.12695260261964306, -0.12799631443924117, -0.1736584722013098, -0.19439080540085785, -0.1083231269412142, -0.048388624892957546, -0.05421314447936108, -0.025591406097340615, -0.0465807858332773, -0.06770314254820378, 0.02481466993254922, -0.02214858578253157, -0.012320467535809898, -0.023536795278917583, -0.026834939521936982, 0.042418329948832684, -0.006725052193793064, -0.01995326509365728, -0.019827733623617158, 0.0028223538394288048, 0.00020278552352888957, -0.03980182517215905, 0.008777439663188056, -0.13571287495229298, -0.11402365563973152, -0.1473145039170377, -0.21560751324166672, -0.21100390622332701, -0.20405450948867063, -0.14109572897675654, -0.15449665705754348, -0.08068763394032853, -0.08155509010433959, -0.0679030208994218, -0.11185179529749986, -0.07111529514988972, -0.03648531657150434, -0.02638407285492873, 0.0655552969320155, 0.0784508328697519, 0.03521110784472917, 0.009519587124162524, -0.001344628409363501, -0.004429723085678132, -0.033191885012612686, -0.006475583128674523, 0.0477753471279111, 0.007352915643114231, -0.02856100589889906, -0.05834378814662376, -0.1458787619921385, -0.042263748770200046, -0.12615372976920727, -0.11857710303804254, -0.13521592760348844, 0.004865802980259338, -0.1652214349450546, -0.11173941210866262, -0.18184599419316416, -0.1620749300268358, -0.10944736467829153, -0.12275531698909273, -0.10903738987129004, -0.029049099082768374, 0.010181287913061412, 0.07406058193166576, 0.10682196952909132, 0.11547248906042029, 0.04470374451753408, -0.040056011377153485, 0.053988341924752346, -0.007493732491877621, -0.06651898063522511, -0.03063286492481072, -0.04195475441478631, -0.04283150897353212, -0.08602525027522881, -0.10938296519491637, -0.12436858596480047, -0.11964162036564582, -0.04604483596329206, -0.07837006006605457, -0.07416865690720455, -0.06222661721876031, -0.08939209226293274, -0.03783530993595312, -0.10204215428477664, -0.022425825446359206, -0.03865600976023472, -0.012950582692985874, 0.06731823295711346, 0.07324461304503173, 0.0853539410249111, 0.15239224189618267, 0.26291065177768347, 0.24711466194012352, 0.0561018871702166, 0.031556462733680755, 0.03855892995954362, 0.028999482178634028, -0.060728180713453234, -0.029444975053130963, -0.0810469517792304, -0.02963620236113321, -0.05105261689532068, -0.07111784359345572, -0.017311154873032465, -0.03229767584871478, -0.03155648226606916, -0.03180541774847201, -0.0049592933442348785, 0.0112570019709078, 0.0402157082717264, 0.022400930742914615, 0.02680805526988296, 0.09168375833194153, 0.050789242499512194, 0.06712734769457003, 0.11620497328171667, 0.10135562905835488, 0.05668830360638762, 0.13815539555623116, 0.3871740841976825, 0.2840711852218121, 0.15960037055767465, -0.008890449750295943, 0.005405837749936451, -0.012780255093506412, 0.055018390951972716, 0.04563538178832376, -0.09883215125301563, -0.07282977036851096, -0.0733647260984635, -0.13021033597454168, -0.09724210952365162, -0.020106903333865223, -0.011971301419324449, -0.06482813696569054, -0.03336253424709032, -0.032995183167913694, -0.013227814507527417, -0.046003076380681844, 0.030056918100601487, -0.006707670449822146, -0.08033457912440842, -0.013821125175348888, -0.04100033287915721, 0.059187365486786186, 0.11495567625608005, 0.18651562634116, 0.41155608874578065, 0.37654036507148636, 0.1292953407496875, 0.07986449481931597, 0.018584076978257758, 0.005379634062192579, 0.016691105921394885, 0.020695450264614, -0.06380159082516651, -0.07562428486047372, -0.10433255209972102, -0.12837920570224462, -0.03261767087360812, -0.048456769001095364, 0.009837539065724302, 0.045443938291306385, 0.026896093930729833, -0.0036782734994194057, -0.10485662686917763, -0.18625257604083348, -0.2004363460780882, -0.20388289329820422, -0.06898151455249373, -0.08017864760527806, 0.014668986230146714, 0.07509247267790699, 0.09500777303702161, 0.23673309061680242, 0.3478001855267823, 0.3135808823497718, 0.1713470390783412, 0.007147113504858446, 0.016362228021917127, 0.014549519415461974, 0.011867087238848857, 0.016585074253386282, -0.03485325462310101, -0.06127953180403224, -0.09103400488988013, -0.06106556074511307, -0.009694512242940339, 0.013282438228814001, 0.12110245357331244, 0.17499496093566838, 0.1578152799015183, 0.13976154491842463, -0.0024811731827110795, -0.13379278879111903, -0.20901938003593704, -0.15804765857801337, -0.18553387066778357, -0.09778612936071303, 0.0010126342946672362, 0.03977121166626098, 0.06616321001895172, 0.15243138114439392, 0.224851243239035, 0.19255750351679765, 0.16434420788013385, 0.05250712376474312, 0.032927310141462156, 0.05985711060488103, -0.014110129775853325, -0.003352047460343306, 0.039273888287883925, 0.007704264077452375, 0.017256586759493146, 0.041926615797759324, 0.04552681121527888, 0.22053592584449175, 0.23390250356015327, 0.2189226804870747, 0.20745627353196675, 0.2222296261935143, 0.17767960579966066, -0.018687074971813253, -0.08582587021904325, -0.09427795887121451, 0.017421484833160836, -0.10212877135025178, -0.13624091971876665, -0.04355859109311559, -0.1079360920227484, -0.11229841536688723, 0.005203280541510066, 0.06632335336432786, 0.038906881218038473, 0.06888909960696236, -0.009845763515986733, -0.006500474732456247, -0.024662634151783283, -0.0168701136079688, -0.03371562877063103, 0.05304755406294094, 0.05890852804147364, 0.11308920849473893, 0.1764768364860487, 0.21441898293540348, 0.24726119704756055, 0.18802111427528298, 0.16434609106531603, 0.1743305737186373, 0.25570535062610755, 0.019321657664714526, -0.024152589766604636, -0.029189294773801194, -0.015390256378587932, 0.027763906660129442, 0.02572128135874189, -0.01745086263558411, -0.15420581127734198, -0.11097243754036581, -0.0567357014640259, -0.10536897645236527, -0.005554708474852188, 0.05284179676759048, -0.038363505652785304, -0.05053390566895481, -0.06447753281263645, -0.01969150321261026, 0.035691754880158875, 0.018978278604468313, 0.13256467421467485, 0.15230067827804533, 0.17759186640606933, 0.17798474291855795, 0.08894149830233927, 0.12592459792556546, 0.09874916949497298, 0.13143344323485523, 0.16336714519959106, -0.021267613802522612, 0.000390394244155427, -0.018340012820065935, -0.012814234164004918, 0.07974987543513963, 0.020314055170396778, -0.003029415270908548, -0.1249766974823035, -0.13254463321159085, -0.19270707284731867, -0.07831380082821776, -0.025684974861831113, 0.03063553157807501, 0.006672830999558156, 0.004794107397014319, -0.010674109170332324, 0.012725813364122329, -0.04562579403782116, 0.006468020146517058, 0.019279029260036922, 0.002525044104863619, 0.053780071215614546, 0.08853382319961753, 0.05786976686741927, 0.06100148339030922, 0.07161815801026687, 0.07194091190796882, 0.07287907138487218, 0.03266183646862786, -0.00870439847698597, 0.006976342785490294, 0.05140028320498384, 0.025911183393520085, -0.01795369841399494, -0.06336484841891035, -0.0929118421518799, -0.20373165128783646, -0.17419076508684392, -0.07903648897831804, -0.008220210655210338, 0.007705418804829115, 0.011754448563889784, 0.022982748152897955, -0.06830413901584578, -0.014564632607269725, -0.041841019492810036, -0.07510657492920624, -0.04648344529212334, -0.1035789785488632, -0.14009967716565414, -0.035921239167225866, 0.0010693322592674173, 0.07357096255722755, 0.021568652356226604, 0.13968732067473735, 0.0346782392931362, -0.02064093855121343, -0.002504827849680368, -0.034692665302506726, 0.010249141643098111, -0.011995684926714977, -0.053835813783743476, -0.18382002773539477, -0.21083930875577497, -0.14750851940342993, -0.1070678633831003, -0.1070283296770298, -0.06107926038386011, -0.014754023662457422, 0.006410924621800564, -0.03719204628230198, -0.02453633980018628, 0.03618982743756884, -0.06585495371840748, -0.08786644104312512, -0.13007311592112064, -0.14671967795371377, -0.1428146762599887, -0.08909497410883611, -0.021659065018791047, -0.02730264999586709, 0.09318602623917509, 0.22564926009215086, 0.1490844630337076, 0.0442866676831661, 0.1220339650057577, 0.01557459546881171, -0.043167068846980496, -0.07786409022506441, -0.1723272169007313, -0.2071587770275381, -0.24396919458772737, -0.21646219122344074, -0.19420748264889176, -0.12075260354748162, -0.06665264668114444, -0.009664661028777898, -0.039925091321797966, 0.03909077294579311, 0.01835432153814903, 0.04443591849226654, -0.07329029599537845, -0.07618856473152091, -0.06414234697831375, -0.05364861434917098, -0.09996862163667641, -0.09757619185837331, 0.0023229312399000767, 0.003959286806940198, 0.0745069783985717, 0.09497678210275948, 0.10050456950861635, 0.054608266058879126, 0.09501274480424313, 0.054349346652475684, -0.07178166523754304, -0.10425212958938301, -0.15714992429713956, -0.2496359513862418, -0.23159697418400346, -0.2208668333306907, -0.18466157907065434, -0.15345869806127346, -0.03721590194423038, -0.06518252101279748, -0.018138619156201748, -0.034555673210471066, -0.010800558932442717, -0.022110797153776465, -0.07410028964450663, -0.12111998523778197, -0.0848836238495433, 0.06225909463571572, -0.038253825244041466, -0.05268450656939148, -0.14156710268204992, -0.11568070552907468, -0.07835806684074596, -0.07387587000339596, -0.04963707107386289, 0.10730890103091711, 0.03928237522028552, -0.008329757250063552, -0.16545759393889456, -0.20168555636820995, -0.1507161265782941, -0.15338834803209703, -0.2523904661198053, -0.14716847635257468, -0.09466871007893404, -0.0998153674972937, -0.05353634740466817, -0.02252523350959972, 0.01125126139365404, -0.009462725796601781, -0.004106434408502985, -0.029776173141469228, -0.036537497294769836, -0.16166671368025873, -0.09301814052532228, 0.016271682101412745, -0.002900937566050691, -0.010979565742974009, -0.0922304096013618, -0.12426052834196809, -0.16937920501386944, -0.10874790370185851, -0.06372391380368077, -0.005662077028639105, -0.03858356717496862, -0.08176177492436858, -0.19018062844878902, -0.1714376012522847, -0.1225894731418878, -0.17564713071071383, -0.13538965474077266, -0.10908985362429444, -0.14149213044510184, -0.0792419208663374, -0.05753352727054804, 0.031229723578943835, -0.0161494101518292, -0.030623210204515017, 0.01643083679568987, 0.023244767522506954, -0.053348443241469645, -0.1536381408840117, -0.08205108621868261, -0.0527427858712818, -0.026173585106844942, -0.006380011246351349, 0.008151317308581681, -0.11185663197925155, -0.12261903115824481, -0.09682157246335234, -0.10271502971441505, -0.13738051891169675, -0.13050992476195233, -0.1750225594880134, -0.09150303505617587, -0.24273010767905295, -0.17338499094972865, -0.20298510240680745, -0.07876489774593053, -0.014469093492615147, -0.048356576323403275, -0.02461477071874738, -0.01041667573478889, 0.038086351983612515, 0.016039609281403303, 0.004994064968818937, -0.04632084303919547, -0.009701161961249464, -0.10931776379106095, -0.151818909048027, -0.16802219045048047, -0.060601680376611754, -0.05040411843420749, -0.0037269132595597163, 0.04731830043401095, -0.044490018385174655, -0.06696640585946494, -0.09364579670443862, -0.1298007878801545, -0.24796845520039765, -0.17039766683950236, -0.17226188112891827, -0.1254773075611012, -0.09929847529571187, -0.07978498037333796, -0.057179440829751814, -0.10472317494802558, -0.041749545183585264, -0.09857847886757756, -0.004514105897076259, -0.00011581770452335019, -0.04459077513066873, 0.04714827761117714, 0.022327458776298804, 0.029541735728910543, 0.0053076901108178596, -0.017635122142428024, -0.08250315249523246, -0.174042729785802, -0.14561974023227264, -0.06495383831593654, 0.01702792279407409, -0.0050222786444646846, 0.03284811374266694, 0.14300739960754383, 0.021370043156471005, -0.06599609794462662, -0.06834266998182753, -0.23061469051076147, -0.1671011755487596, -0.1263847973038611, -0.15148887967433688, -0.11907098411497086, -0.07043823257907847, -0.02869854154771738, -0.09016305045636099, 0.00674505691730959, -0.010127016032115991, -0.01585984818622916, -0.05330081627691345, -0.008946936744344222, 0.028315320649779332, 0.0014551472583547794, -0.011095789870815007, -0.004455358207678514, -0.03907795574822102, -0.06697570637835826, -0.1365179601065256, -0.07540089903615053, 0.006440800837538542, 0.08673332930393841, 0.032084745483867284, 0.18241300677162528, 0.09384925773129182, 0.09551525871898787, 0.06551908567445952, -0.029535883275570603, -0.07528777193326795, -0.1080356571979148, -0.1329135670614951, -0.03150693891676382, 0.01652810120181685, -0.015138806539285116, -0.005080193806211107, 0.05860378305665033, 0.04714222056278893, 0.004826064483653335, 0.045876705856954865, 0.01158054095817774, -0.02714964450218592, -0.04053933915799466, 0.01647492278073178, -0.02863290694313558, 0.0024677673521346474, -0.04917870924639324, -0.009188090475259003, 0.01780372837154969, 0.05708920929005766, -0.02101588404019335, 0.051050254256160756, 0.04243352923807945, 0.010440658595983405, -0.07979830045848266, -0.1005286535795382, -0.08062907361009812, 0.029860081423597903, 0.031153664621829426, 0.06163998317900119, 0.037094694226722034, 0.06376670566189806, 0.05302406841996582, -0.04054578181307538, 0.009793245304878483, -0.02425415257696057, -0.0036402932998334287, -0.026795077738838904, -0.0290147615513429, 0.03282081496989254, -0.03117441248030991, -0.010568110277174001, -0.013431025611041916, -0.04030390519457793, 0.014006048992200624, 0.03964934538814229, 0.0530665790744215, -0.023321951283116323, 0.11006900889106126, 0.02186731729512419, 0.01911982881938947, 0.02649915763207096, 0.051412250312928676, 0.043533741267782394, 0.0024596092535066768, 0.1264642574460312, -0.015080113863125076, 0.0814006446762954, 0.0993344653574089, 0.02226937672878824, 0.05221122183099884, 0.062275180592286095, -0.024677762543291855, -0.01406734968844189, 0.03649979131682529, -0.05573215207980599, -0.09827126807055707, -0.020618246729783775, -0.06715186568532641, 0.01849592694948822, 0.03094295870349882, -0.020488885720604665, -0.027641362385689174, -0.022944399208845175, 0.039662279419562844, -0.06238324268589093, -0.0029433780140410795, 0.0753313764139541, -0.0005873276636323365, 0.015995045182203148, 0.0037721811621011037, 0.031717851984444365, 0.028466591284537504, -0.021614125749151985, -0.0175083443550258, -0.07549974887843124, 0.0025708656299515843, 0.01634592209748182, -0.0015039274325124637, 0.02298931965942871, 0.008708491533981169, -0.020772598012959137, -0.01977865122585942, 0.03736806872712817, -0.0026341476930540194, -0.011876314346171703, -0.003928644326238652, 0.011573852883040631, 0.0025215483912773523, 0.014106497208982684, 0.026675925428537774, 0.022603562142426942, 0.02484814064831927, -0.021206313346017466, 0.03731031265679399, 0.014797725852323338, 0.025597338339612273, -0.04857784972129977, -0.062022883503727845, 0.00636296321280921, 0.024784685838898604, -0.006995128055323905, 0.008837056874743947, -0.03301895413025489, 0.012027887538528605, 0.006323208222207923, -0.0387462338499248, 0.007378095131719231, 0.020170749160148247, 0.03614545405504526, 0.05409771400235984, -0.03659422985988261, 0.03553644151513886], [-0.02312850925353906, -0.012749520276222993, 0.01702043863505602, -0.0331549963738514, -0.004175206251222607, 0.045641483685191615, -0.03211742484635541, 0.0006743352369163589, 0.02288894159630478, 0.0018971542051066446, -0.048878216745925, 0.03657404322909655, -0.00904707716693896, 0.03643887888009183, 0.03570639847324169, -0.03655571048094918, 0.0011215610453768452, -0.02066264397448609, -0.00909738490272637, 0.010208207474059396, -0.058437521814462025, -0.003951532937850431, -0.037103444934282706, -0.01771622756565356, 0.006705262845637747, -0.010292268669462836, 0.030837559367361798, 0.0039511144730325805, -0.030799975847436902, -0.01078925079331535, 0.02238755254798879, 0.019761920882765877, 0.00506207845087825, 0.02491461840550323, -0.015267566986978334, 0.05443006678672104, -0.01786661889064805, -0.010925089586470376, 0.01168864519199428, -0.028664548321126224, 0.03331848012394247, -0.004735233564122951, -0.027190591743531077, -0.06586013669560359, 0.0622886465230176, -0.030914544453723998, 0.008122680474751967, -0.02364522341744328, -0.02785982463982469, -0.010336275070477305, -0.04069695792516179, -0.011538116349269135, -0.004468702597468543, -0.04933594198418461, 0.06327028842603649, 0.017832734607241607, 0.008235194752424757, 0.06061391076277483, -0.00509991339309861, -0.011147114232268716, 0.019975066870956036, 0.052874889975913546, -0.01886553240609365, -0.002359904047612512, 0.031234274979903595, 0.051637144276592564, 0.08369978121795581, 0.008468673226243627, 0.09770433673481238, 0.04047423683541261, -0.015901347525363915, -0.007202149913281272, 0.03499500035604971, 0.04652092007239786, 0.107976646472, 0.054835229971499214, 0.04873184088690403, 0.03902484162977275, 0.022598391102022844, 0.04383188679843277, 0.021952197000307636, -0.036240763329084026, 0.06846265015153398, 0.05972018468479657, -0.007392087886314618, -0.0022603980304040628, 0.0030740434646937503, 0.017766670144628172, -0.04193055166963718, -0.06893097712432186, -0.017188366441200403, -0.014287324528627755, 0.021930052061828915, 0.045611003159756566, 0.10874419410419216, 0.08025510485857515, 0.11097504490617498, 0.03716660255698368, 0.014191693652610167, -0.008885505262353063, 0.019478884613533743, -0.026963954547754392, 0.06267576531521743, 0.09202139822544379, 0.04895009504701339, 0.05768537050052067, 0.03522941562804286, 0.02252259907506527, 0.04120732033004348, 0.02542597328049995, 0.02665986504143612, 0.01172607086557024, -0.0025762288272335333, -0.008707763834821974, -0.03974711691874536, -0.01467475216812034, 0.02088270609679844, -0.009332397422726044, 0.003393252175965058, 0.08759020463879133, 0.09312172543821522, 0.09002043660302789, 0.10770764866792422, 0.13614990038269215, 0.052746000246064836, 0.050510116484421434, 0.012484289648986917, -0.15603378250385447, -0.12237244536840598, -0.16298284083867828, -0.19281763995735177, -0.14792137432733504, -0.03733655423953918, -0.0042686152324604544, 0.046052455201166465, -0.015117686640132041, 0.06143249192549728, -0.0009709425276909539, -0.010197097563130992, 0.04596277724020522, -0.029390185277377138, 0.02760864225116442, 0.03833639233801636, 0.005220265199556224, -0.016248411789869185, 0.06379627660462057, -0.000897386812025873, 0.034020590945152175, 0.11558792731600546, 0.1768874683616293, 0.1777278604356162, 0.14784646531505702, 0.19190644736670093, 0.17091868811257055, 0.1643323787594266, 0.13428867017113674, 0.11867668081796168, 0.028455666189868035, -0.04452057601236734, -0.05095404897646254, 0.048233921412811444, 0.026138492207512194, 0.10512391610529472, -0.00761753612608773, 0.00012573872866579791, 0.06519092435122736, -0.0025618051243460976, 0.011894968200634987, -0.012476320876003267, 0.017780059846739776, -0.053826187982261166, -0.039194110947394036, -0.01007349177860436, -0.02264125411133775, 0.05446131325337228, 0.07676514848683574, 0.10481594179924901, 0.18455980167361574, 0.09203555571228518, 0.07972166810098114, 0.11419055880675233, 0.13745711448428793, 0.13662183326541105, 0.12372893789062976, 0.061503586613819834, -0.031039851335460358, -0.1397841414166715, -0.05374447232064906, -0.046656846176738424, -0.02440781395097766, 0.019203460464614977, 0.04371536847525521, 0.058484749666979106, 0.05710169065924348, -0.025120719306787997, -0.00876912193471506, 0.009594471185704773, -0.03310225169457455, -0.03204189519722713, 0.02740729211356037, -0.023563243889447697, -0.09811654704521282, -0.023240683322371197, 0.0024733269968333325, 0.046686645122642374, 0.0764876950070663, 0.052378638294674436, 0.10670611898332835, 0.058592360583896684, 0.09615070459201114, 0.19518734860527734, 0.17750774249801837, 0.04114694550481683, -0.13722491455795102, -0.2143224685998551, -0.18305192928717406, -0.2022267659740347, -0.15792986167273634, -0.029228438049188395, 0.03512869270853483, 0.04640536338765678, 0.011204795285090979, 0.05411326746795405, 0.0059197849404429405, 0.05703248443702442, -0.08325075944291745, -0.021804344404224244, -0.06462215346510305, -0.054911400077373836, -0.048650432469542065, -0.057478509740874255, -0.1169796558429061, -0.04286293609356576, -0.009519161963067117, 0.06070302830368519, 0.107416902575113, 0.0984119531369705, 0.1875042057387271, 0.1413593311078349, 0.029488203527052916, -0.15841072951794072, -0.24371952320066242, -0.282044068210632, -0.15990983883834683, -0.2562045190111986, -0.1844764866508836, -0.08301920426652747, 0.06569472451902704, 0.11266047051118816, 0.057734594403528725, -0.0006035636326266742, -0.039346304529527976, -0.04929643917949677, 0.03713017398116121, -0.018227046224092273, -0.09736961945217275, -0.09702288009891716, -0.13528853095264318, -0.016375560414488566, -0.11866234852758457, -0.05908304315416597, 0.007945252505206333, 0.0316034202000174, 0.10829022223099947, 0.08506614553852052, 0.0785835406225352, 0.035352561058687164, -0.09621259188141042, -0.23600735496794256, -0.294467220746333, -0.28921642639097006, -0.2646719397317256, -0.18838011435055904, -0.15723244124679472, -0.10591157083820196, 0.00656817355020785, 0.04386292898215416, -0.024995677151411756, -0.010672381671177537, 0.013323204255532886, -0.018993324271997115, -0.00709996113008472, -0.024703358076359472, -0.13329058574131608, -0.10818570977992328, -0.03760206660311413, -0.018323199520214512, -0.07807849182778225, 0.018454430707173942, 0.10153351946634125, 0.03630354526182257, 0.0664492311045082, 0.03713762437788234, 0.020710106035913747, -0.02262394136669972, -0.1908626471696212, -0.3627497044603552, -0.26157101088869417, -0.23742228163912768, -0.26056885661110424, -0.2092274445350092, -0.22506767080340837, -0.07871561618505456, 0.012974642056796616, 0.029409341063889264, -0.02375608181082947, 0.013232766279591773, -0.021045840390246075, 0.035656504062839954, -0.02097024174641674, 0.04353599264069304, -0.03153941797365963, -0.061100734950732864, -0.024725284354594673, -0.09769991998826652, -0.02781042045049907, 0.08865708089288292, -0.03616464672819883, -0.012554778002609953, -0.04131254724090311, 0.04647033311229182, 0.02492189468052943, -0.008283181187120176, -0.19497872583577608, -0.16298043360644357, -0.22474295200518943, -0.1707575283793091, -0.1817829542122944, -0.2437254037422294, -0.13000567666186202, -0.05670086386645702, -0.03178340913382702, 0.08872285712959924, 0.010134952621233833, -0.0010992636589551097, -0.020278954354734563, 0.018743848760007627, 0.00953759577035315, -0.08071939277378418, -0.012900389891205802, -0.06322555518064861, -0.021298764763041707, -0.0356551112837918, 0.000156505392593755, 0.018345466283766015, 0.04652282601803841, 0.012778724127481276, 0.07296081468814489, 0.09737689709492134, 0.2349104208969921, 0.11849625693837217, 0.03239121978352103, 0.010682058897124515, -0.05364442265978901, -0.03295710647238133, 0.030620684226776516, -0.08617881676040183, 0.013091330112660213, -0.019448142531161443, 0.029653842995025652, 0.05927568703010881, 0.05475564843235854, 0.03686898939481496, -0.021460123217855585, 0.037874926558603736, 0.021875202740797288, 0.015035762938892808, -0.07769694715569812, -0.03843436819473558, -0.09599403309437948, -0.0945168406567082, 0.04072807663196282, 0.06068793285722359, 0.10440586667540287, 0.15583297321971168, 0.24512818178752355, 0.34886946750722314, 0.3201233219795248, 0.3900895784106334, 0.15924489850599338, 0.09100916871948775, 0.04808972434810789, 0.037547184183294564, 0.001439099505870014, -0.049307296546606684, -0.03135072934420382, 0.01131378193879186, 0.0010008806064442021, -0.002371338663621486, 0.011700423559570586, 0.05743611567708707, -0.024027304797009385, 0.028078489848584846, 0.014166336537992421, 0.004627714108411741, -0.03363500403331832, -0.010302604861242652, -0.055975311149719875, -0.03184156730785397, 0.057653402089670354, 0.15787911195506588, 0.14931801655220925, 0.1546204723322229, 0.34989438695033265, 0.3607144142805001, 0.4198406974413005, 0.3196752355967451, 0.16242339373778164, 0.1734408925770734, 0.0895243090014902, 0.03950192214513592, -0.054423540182381346, -0.05600624575389899, -0.018410790341575656, -0.04920814798658067, -0.020250068796298898, -0.04408248831420141, 0.03106695071756771, 0.0727439373836546, 0.0302093582375004, 0.0010871457444651407, 0.0007186315809676238, -0.02011804221483453, -0.06283389161336987, -0.0018726413897500475, -0.06685970292071199, -0.08211447452728393, -0.07190144558930762, 0.06539285005252601, 0.19306409260216378, 0.2033984004780951, 0.3300554236883142, 0.33915541498427687, 0.4113988352777764, 0.28524186932951884, 0.058727894429526806, 0.0525932505312895, 0.043504325638938725, -0.07138749842230017, -0.015474727727371332, -0.04983683774498893, -0.056850185591503864, -0.004389790705123913, -0.0656469687223518, 0.05100582166659301, 0.049539132342858734, -0.003975148555932127, 0.013242320692688136, 0.040544036202642846, 0.05945643702208293, 0.051684116400177046, 0.00217968477464714, -0.06180844667593097, -0.05111123522643848, -0.10013931614265552, -0.19966985980908786, -0.22150616509187668, -0.007185122029095688, 0.05660651639635362, 0.27022690993581283, 0.3508085529493296, 0.22304395574141514, 0.1603558317731783, 0.08034862908852645, 0.055873335050728036, -0.044925894736103936, -0.023002902991211015, -0.07260024410580898, 0.05653162384393395, -0.04466572346358882, -0.012325346407805717, -0.02234467623626567, -0.013592329222533301, 0.0883225466174705, -0.035831246228318896, -0.023851344791770163, -0.04350539814114137, -0.041558142703667894, -0.009723804843736071, -0.01056835010606731, 0.004780615525357323, -0.022321797627519954, -0.12249660927849626, -0.18149096237483386, -0.29674591321250954, -0.27849018677554704, -0.11217080244453655, 0.08564839143623222, 0.05485884507648652, 0.017188120935137306, -0.04395708253947515, -0.007142026021449615, -0.00012857223618111164, -0.06689076469751129, 0.002514525063731178, 0.013294832812761576, 0.11216497417503979, 0.04879011755230754, 0.029148314147346168, 0.05901851054470486, 0.08331751715516447, 0.058192937836335216, -0.04780177125366288, -0.03600589045228616, -0.10684158661344194, -0.0015128175105631294, 0.06288143622320003, -0.022570552059545113, 0.0012832353679947427, -0.03473017834243475, -0.05581178623075275, -0.09732805969938899, -0.20995378228394937, -0.3145403393380965, -0.28678497503917827, -0.301218127127706, -0.08881099221005184, -0.10761499706124134, 0.03158431919712342, 0.05034762360666854, 0.04644670461984704, 0.09333604413255278, 0.056196763829981664, -0.0005499748497183857, 0.047299132177347845, 0.12820629246763837, 0.11242696427685778, 0.11865744819125346, 0.13536847609817623, 0.028035418969115745, -0.024170788861796556, 0.013313594936376662, -0.0014244823044990101, 0.04672704078004832, 0.0389629172855799, -0.03156997524815076, -0.04211644939261695, 0.04990050124949912, -0.021511296788087796, -0.08863640759909577, -0.08291584523289998, -0.18614302600252453, -0.22546442104259876, -0.21255827339532476, -0.22055413020366268, -0.12746446020892202, 0.014099515348560425, 0.17136172253346163, 0.21380347263682514, 0.178007003036485, 0.11994346684054062, 0.09227528489132021, 0.08722760613499288, 0.0734976086817269, 0.08975441284983877, 0.16292386339211146, 0.0822361071920344, -0.015750554725538757, 0.04648547748915339, -0.0029429059985714985, -0.018847841533660127, -0.0430360018737527, -0.06048304034160265, -0.06224863166284424, 0.048888470252548936, 0.03383513151460215, 0.032987740968583555, 0.06894010094690366, 0.021850716439493347, -0.06162344729566786, -0.10433355786437506, -0.1955906554745239, -0.14402676584846716, -0.04610798641676431, 0.08162866851172504, 0.20520814741354657, 0.18843460370963436, 0.17740383873861676, 0.19493170208590366, 0.20652461132035857, 0.17248996591284999, 0.10603289460814275, 0.1343241911854639, 0.09140532924321974, 0.08946749455810574, -0.01555871505980786, 0.010097256057768171, 0.011975664775428503, 0.02545408376607691, 0.029833524224816665, 0.0015843583452821758, 0.015850053432536787, 0.03353263747619736, 0.05062206929114187, 0.15218577453149626, 0.16471554090242668, 0.12782628526483328, 0.12090032313800757, -0.022582624202168198, 0.05522439166991945, 0.030203958410574588, 0.05470134005946542, 0.2030621785151349, 0.19675497439827502, 0.1867155018318197, 0.194988461875075, 0.21846837101882588, 0.17023379583392642, 0.16253558091165607, 0.12410200418636569, 0.10067815047731185, 0.08175089360962452, -0.010339886769101074, -0.016386426175441372, -0.014368712541188952, -0.025241680458886986, 0.0966163261958085, -0.013397202354101438, -0.03576743948141993, -0.0025561347513541784, 0.06833902859054687, 0.09062790558467793, 0.1125530444987634, 0.19173652892170157, 0.154308179834551, 0.0819546143883889, 0.19977044530207183, 0.10782226284904696, 0.14050535177560147, 0.0853405072275737, 0.005483777822553655, 0.07610532735667203, 0.1483144947112334, 0.16594167255582745, 0.223324307048413, 0.14445977190544967, 0.18174355291847238, 0.14548871803429508, 0.12348901113465018, -0.0064261564158935, -0.024554784981863365, -0.03553185334634839, -0.021671221165477025, 0.001138560798500053, 0.01678088776721863, 0.032703432151267156, 0.003323462985639942, 0.02126275988440486, 0.04652312978776142, -0.06065198918772544, -0.022812734390372885, 0.06961697720999273, 0.16084270175445212, 0.16469370500783412, 0.12957902764606047, 0.14385673292155154, 0.151612782883467, 0.1657800592072642, 0.13652814766427326, 0.13028842029615437, 0.13281960403321977, 0.15716686810782385, 0.18053660572954464, 0.18011451591457708, 0.12526119518446674, 0.07308619590054952, 0.036217997778667764, 0.0034007566777623033, 0.008011318534623115, 0.049246404978802026, 0.00459013953804483, 0.002511645563712494, -0.00924040714466043, 0.024906449931795107, 0.019225134318695606, 0.040514312256157155, 0.03698281015277026, -0.1294223610153285, -0.11014789342900341, 0.013841451692563332, 0.03941671309312505, 0.10216804318551502, 0.16789158723664596, 0.20128678430909322, 0.13330317374283793, 0.05240191391017792, 0.06440431984391042, 0.0525174532821174, 0.11472680562181913, 0.057119880124406934, 0.14138173951245836, 0.11381759841052637, -0.00825224814614128, 0.03966728143024393, 0.001381196610826986, -0.02343625285232137, -0.06807667886196102, 0.012542378470618874, -0.019009797538657967, 0.01832542632861601, 0.0010187001355110154, 0.06460539423796365, 0.04094162598687995, 0.021438443423806394, -0.03405124822910503, -0.08833023335010788, -0.044561738027064764, -0.06067620562711225, -0.07966330169929052, -0.08237082429598602, -0.036627674285768845, -0.16681283382590895, -0.14225068175539507, -0.1896429486559533, -0.21490364636723985, -0.0963886460170875, -0.034251489514913434, -0.04605314471215332, -0.023348438020128398, -0.037751739563909224, -0.03387048905018617, -0.020458314442717097, -0.018148202046493374, -0.004247602560090201, -0.03667221943957094, -0.02906222292373612, 0.0005489237815239852, 0.026378052925809796, 0.03157739212119603, 0.010721074118924201, -0.030868244462654054, -0.035493767453488416, 0.05388475569885235, -0.026786241856326953, -0.08700273584153766, 0.034167530499258095, -0.05295870953910402, -0.07840016623839804, -0.06324831281281278, -0.03952513284072885, -0.041060163765079614, -0.13618019708274248, -0.08149296791633924, -0.14949545899799427, -0.05895471318029974, -0.04643047270017769, -0.06140717832522241, 0.03473021589999626, -0.019262742081912573, 0.019152660756299632, 0.05165217468131744, 0.018975955827372725, 0.04588017722690236, -0.0017763715074362303, -0.0734384100299039, 0.039618193300922505, -0.027443106815118235, -0.022061811601579356, 0.006820139438954839, -0.020099854206639556, -0.018322099037348345, -0.05936096413087914, 0.03452868356267634, 0.02416558215407681, 0.04786746533841241, -0.011537300444555075, -0.0007077720206885922, 0.004317285648605553, 0.0011379778229324712, -0.01848670864217867, -0.01137743138785077, -0.036805284478637054, -0.0008186396010375107, -0.06709598966687298, 0.02846052691211932, -0.0063763263697866005, 0.016446654884273305, -0.017855352201293296, 0.029590740875274836, -0.031254346035723815, 0.006493327214468633, 0.008000516972142642, 0.04817488604942134, 0.022322787866424332], [-0.04162397603654543, 0.0011069349749213996, -0.058090964589561894, -0.007256649943040337, 0.01886269654604399, -0.009289594096489327, 0.004929329908637923, 0.014632180544095954, -0.0038281837012477987, -0.013529343612267373, 0.033082381786155635, 0.03175321216527919, 0.011619866258554386, 0.03344247546297742, 0.00649549542421611, 0.002762126779611605, -0.006653084669941515, 0.02694607681936001, 0.020661296598653418, -0.032484699135731286, -0.004641356105627214, 0.001886609019227779, -0.026629981219281586, -0.009576060665083722, -0.022293660840012518, -0.020323338597436545, 0.01698532554047744, -0.00859411426050635, 0.009209666765372392, 0.031972517338695064, 0.0638661385745286, -0.010902233514278683, -0.011563604388269002, 0.016675470807748848, -0.011808956927296662, 0.014397028761728577, -0.008668875314567734, 0.003850729264738116, 0.02684882803363372, -0.018022197697427054, -0.002724512697216112, -0.0026802981065799517, 0.027163328342120284, 0.007657660750112881, 0.02445971532808554, -0.0325444479982658, 0.015630360951118236, -0.00731751091168995, 0.03521211865457563, -0.02971530928561521, -0.01018044259376942, 0.07479235797640682, 0.025222322476261425, 0.0018313382194286981, -0.0375679880879753, 0.05301878063898497, -0.011678583686174195, 0.0019053029131751319, 0.03206230996016859, 0.003352695099037087, 0.003808973020351204, -0.02196458708334496, 0.0028608115063948614, -0.00514325233437888, -0.058036237929624146, -0.02803841311593783, -0.07798820114947161, -0.031141236448069057, -0.015061718660551447, -0.03769192477963631, -0.0818278969401939, -0.07228667665838308, -0.09590889397842475, -0.057701495162472576, -0.06077871871233171, -0.0528302876608674, -0.03308539855530678, -0.05159331053523317, -0.05363972725629867, 0.04191720174715092, 0.0251641689947625, -0.07028787678679312, -0.0010919380260291406, 0.0256672803818505, -0.006299710222877084, 0.05185546247361663, -0.012356720906859357, -0.04515532633319757, -0.013499265923559753, 0.015137219227054962, 0.01006206828842794, 0.02275405122817675, -0.053649627647702654, -0.08729051214994656, -0.04900760075964402, -0.03222901857458922, -0.04000668032286879, 0.024090661736189987, 0.07237671533191985, -0.00982137264425236, -0.0017146622476859772, -0.05910264447813356, -0.0894835757197906, -0.08240992641294152, -0.13545418553520647, -0.1167084390050181, -0.02819396862146463, -0.07535611937175171, -0.04076098891363677, -0.003814300618296971, -0.03251371151027411, 0.02491811783874231, 0.00032586249378496203, 0.023679814165855097, 0.02586011867558775, -0.02227393481774946, 0.00819139803510244, 0.05245238340753957, 0.016450786251095913, 0.028981063447237384, -0.0739645918960971, -0.06426750223453134, -0.08466001991221277, -0.004105531850350357, -0.10067783000481743, -0.05778798212058442, 0.04563640842812403, 0.12410836156163998, 0.08731046782249358, 0.044229946140189255, 0.016224509419398105, -0.006105847866214457, 0.0012613501778535722, -0.04064134590883256, -0.035969372765679096, -0.001380650765165689, -0.051847662392230875, 0.0023083575359351825, 0.0041736011538698985, 0.03151711663263263, 0.03391699337390076, 0.03939829436299359, 0.004251639408622597, 0.018629328463648873, 0.04928900302097083, -0.06469844887030227, 0.03403710515991699, -0.0513945989879783, -0.08739781712563353, -0.11978650604394371, -0.1582724290947142, -0.1195216181421291, -0.15025627968810268, -0.04570063855960363, 0.0009381687869695031, -0.04332703451161463, -0.07330904375946903, -0.12915633550113362, -0.11006880519574591, -0.012806573272373225, 0.027375615243780405, 0.07830647124156068, 0.17229347882910293, 0.11483214767363034, 0.005932738559410119, 0.07255186262256737, 0.019452587497160667, 0.004958858191618002, 0.022173692741541334, 0.04148938528006409, -0.016208014459380478, 0.01840359296388533, 0.03672780955933678, -0.0011023156683088267, -0.008917501126249054, -0.12326104769179551, -0.1011474194933958, -0.07206906301128553, 0.03424698173815115, 0.08200390862328483, 0.12893572481724194, 0.31308866927030254, 0.25043713980868665, 0.1311638521355199, 0.08612687477213414, 0.08040641126382901, 0.04166590027473222, 0.1684340191917444, 0.1939100279457323, 0.1955752369507877, 0.19431660828704872, 0.20680330055047744, 0.13412296532979057, -0.04472931320623628, -0.019178904663842655, -0.06339703835734568, 0.015079887123296025, -0.03389405634405669, -0.008052548697490568, 0.09642702469406383, 0.02506479025442863, -0.012365993075800382, -0.09952223946183188, -0.1312318948367038, -0.07450291602201181, 0.018721012988856346, 0.013962775385180023, 0.011424596923688376, 0.24124466551373513, 0.19975604373714465, 0.2045680419689257, 0.14592530932056735, 0.041750768697812905, 0.042755883523807985, 0.13977442278802812, 0.24042423898787552, 0.23486424907993253, 0.21499952855463156, 0.1942711257986062, 0.19131336875483432, 0.17013854058084849, 0.12498755297886081, 0.04475401479964458, 0.03796392059443203, -0.043260651741019424, 0.02727183197231467, -0.026377636000012705, 0.048847132157073855, 0.046870071854805004, -0.06173771005272158, -0.16858574173865618, -0.07285454341446407, 0.036670897926115636, 0.05782487283879512, 0.022162431941703035, 0.1077302807146817, 0.18918376728302874, 0.07869857236939516, 0.005211146076700566, -0.1161625477170739, -0.07733916343228374, -0.05145528422804248, 0.1558770532553338, 0.14831940082341621, 0.1672655241808448, 0.16245902976107307, 0.12023611586200163, 0.16450542158867323, 0.1472320607334352, 0.11328285576673522, 0.043867254922663634, -0.020591975729292628, -0.00818305182456555, 0.015044870545970264, 0.001972759116692479, 0.05502286910896595, -0.02970754046507638, -0.10681244665325644, -0.08707816111156647, 0.0665122955825348, 0.09461070155111953, 0.06225446155702544, 0.11461615718210941, 0.2037315656352921, 0.17368544774885353, 0.07181087605622619, -0.007230346848296043, -0.110878172167008, -0.032812268614002, 0.004972222564633231, 0.07870288551042458, 0.12399613819978138, 0.1440281462621895, 0.07847336430440756, 0.1079001429956693, 0.14866823672326127, 0.19840343921541773, 0.11778920520545676, 0.08349018591856075, 0.06309552356334339, -0.07312786999753636, 0.058179851492367915, 0.05072975043092608, 0.061790485871328495, 0.04921233116195476, -0.09824806290397811, -0.09403825905031277, 0.018089338948145874, 0.09212011223562946, 0.09824988098455752, 0.17890740370804167, 0.3033960070152272, 0.22099869949430698, 0.20182927259177205, 0.15386862941753968, 0.1549352171429984, 0.08164568245181918, 0.01631145666639638, 0.11870370693701784, 0.07221308030523171, 0.07577987130638854, -0.017477022037087682, 0.02656775831590206, 0.07439682618309311, 0.1146976699962992, 0.07824455426886903, 0.032317092718460165, -0.030722755416867385, 0.037789620571102356, 0.0464595165963485, 0.037005280170141465, 0.000992719810175949, -0.06034935577507387, -0.12367798609726975, 0.004851439757510523, 0.12638939521027226, 0.10130346132858305, 0.16711000078630894, 0.20763718164474118, 0.3616473642286672, 0.37174850888891464, 0.48514573662663374, 0.4303438453106898, 0.36140846653873004, 0.17052169790806043, 0.1839581974766717, 0.14467091298664234, 0.052940573787777334, 0.006157687690180689, -0.1343277885258681, -0.07047422267101808, -0.0197004251794421, -0.009647548892546367, 0.04105656000150065, -0.0011754530048741704, -0.03250744311374098, 0.030262730279939695, 0.057002836924773814, 0.00583082944299862, -0.014925226323585684, -0.02068347256403585, -0.07855485022771647, 0.026816955621289253, 0.2042340076053083, 0.10008335089609605, 0.11963601603611791, 0.33752342402063895, 0.3487078177394961, 0.43715592878008974, 0.6109099884386475, 0.4948891816724609, 0.3441739800111531, 0.18232508949974582, 0.26805043359553343, 0.22643560477091107, 0.09528754919410373, -0.016401627077806527, -0.11002898146832109, -0.18468951847932977, -0.08187001275385176, -0.10310374527347821, 0.02266256635054436, -0.011919153267384776, -0.012783438324958485, 0.021112850956399868, -0.041744608338786994, -0.030514323892518277, -0.01074560374400694, 0.027790855473940744, -0.05405787316821084, -0.029517844805710586, -0.007476295026728335, 0.04730969352269861, 0.11165218591434684, 0.18252083792576734, 0.26055731671728216, 0.364101161979959, 0.39302968442931663, 0.31051501928268926, 0.26816017581311, 0.24259265647118722, 0.23535135903011647, 0.1888761505134625, 0.06456784659742346, 0.05105557548215126, -0.06803801279436446, -0.12343176202305606, -0.18827154571861612, -0.08296396378413637, -0.05003125243542171, 0.02021719473916212, 0.006537965386555024, 0.013210516578223296, -0.04046478829661586, -0.03425651005198812, -0.054482764073069116, -0.043704135667097195, -0.03150534945114238, -0.11312416416461477, -0.16136870744838216, -0.1931791286812562, -0.08181259493849982, 0.045918922562413395, 0.11641815480394835, 0.26300037999565473, 0.2504812315697262, 0.15035149854974228, 0.1649118056446272, 0.09270359895970984, 0.16030060230641718, 0.13608136394937878, 0.1328811042846636, 0.10950064704418841, -0.08583028996487875, -0.1412596649634044, -0.14101408273156477, -0.04644901906118763, -0.04354159867186805, -0.06472103775516269, -0.005361566440375923, 0.0009896367516948814, -0.03940049283635648, -0.047277990986153394, -0.03196103087377468, 0.0047121667546102365, -0.1453589094394582, -0.22734147863115275, -0.20579009835936635, -0.19386425719093994, -0.14341799875139355, -0.06191957151075525, 0.05075555187027056, 0.17493602823307386, 0.050435987662644406, 0.04002900810338198, 0.054126310701382185, 0.005200988094776758, -0.009565189783026243, 0.07857150914724795, 0.05514442493595358, 0.10464041491861892, 0.0091877411404501, -0.03238465614603671, 0.03296237211166611, -0.04324799548137537, -0.05715228360856596, -0.0033701873154095368, 0.026102168125795144, 0.0073314102215254265, -0.006968665635956166, 0.014620508204129358, 0.022464004102538168, 0.010179863356209204, -0.07051417993062231, -0.18990543901982102, -0.1551986167215552, -0.0010629336761879408, -0.06393246679008577, -0.10325943057528054, -0.11051262532190542, -0.06555878489591616, -0.11428910186807968, -0.06800629134248254, -0.12145315193146954, -0.20800800889545615, -0.1567869312881242, -0.04389087715213452, 0.010070435188433927, 0.04200077518226419, -0.034094853916642694, -0.06370158424252584, -0.04310027234473208, -0.05004183424444451, -0.0403339416162687, 0.017097497524978602, 0.01132598243390634, 0.00557095291470272, 0.0480004260355044, -0.03098775331423295, 0.06566994585950378, -0.021661345662981363, -0.06906767448441596, -0.13544698363586125, -0.06728476910087242, 0.057448777765410235, 0.11294271163438264, 0.010831435333610381, -0.1373363039084075, -0.16364360222015048, -0.2576241881666646, -0.13866013912698982, -0.12588626606787465, -0.15462413972792838, -0.09895698847763884, -0.07653984145695754, -0.061498220139886636, -0.06506333671915693, -0.054957628078419175, -0.04088352096641143, -0.0744915427720568, -0.0870494781835146, -0.11426472812773783, 0.029639462822310097, 0.021502424779434218, 0.02240417927422049, -0.007738497975400543, 0.016931107396907213, 0.0285093017716745, -0.007940250863118411, -0.04101228551336832, -0.03925136920619493, -0.14616281494793837, -0.0058175134174274345, 0.0920667935120168, 0.006501748354177286, -0.07614012868786309, -0.3814017613954452, -0.23841214864257784, -0.16023615077482403, -0.06835688245431204, -0.14070412522623404, -0.048849067801776495, -0.04774070847468273, -0.028517941422944518, -0.05718385070851362, -0.10074382830168668, -0.08943043030690608, -0.21605554268568505, -0.26949067916789543, -0.1277736700980896, -0.02997687816400111, 0.016888436557995816, -0.0021800643204932294, 0.08101122771396216, 0.043864387714598475, 0.02621988230361493, -0.05094382804559088, -0.029259552041150973, 0.019955737331990114, -0.08885053591533174, -0.0030096143586422104, 0.016040834829164227, -0.04461863373277266, -0.2850276703934287, -0.3393000191452775, -0.2815288680172184, -0.12177534036530893, -0.09219145025356425, -0.1876223266255009, -0.12851536177689005, -0.05506610385007552, -0.005081328851379078, -0.15068805673415425, -0.17589996770648192, -0.22027894157727534, -0.19566237454739516, -0.18680554672065747, -0.06765731347565582, -0.018716405505223525, -0.030432268300723393, 0.02008321832119628, -0.051047356091106916, -0.062212119241618166, -0.0006351924276434629, -0.049220988023245746, -0.06848960962182757, 0.0032596235581977637, -0.02886857061733148, -0.1142530343141145, 0.00177919812304037, -0.07499885214210882, -0.22124707089103174, -0.318017606358852, -0.25127133219171854, -0.14133250462546296, -0.1973584590780294, -0.2163014772359389, -0.08667762083585018, -0.15572949814928266, -0.09965044766713758, -0.13964529290907607, -0.23435894529422188, -0.17949596593457584, -0.15146038309812987, -0.1435050149373128, -0.020104701351657595, 0.030178618916247957, 0.004911886393940875, 0.06183034941783686, 0.01837368046503895, 0.01844126074330964, -0.056453784468256586, -0.06509039711874892, -0.0361696353576652, -0.028135830783183484, -0.01550501542983504, -0.02984248579472127, -0.13338932643526857, -0.12901086836513606, -0.12208181946565035, -0.18115450106547923, -0.18394614320871566, -0.2268035162415881, -0.17359541686436292, -0.1652497610992214, -0.24071582878456552, -0.15334835425382204, -0.16720623737803852, -0.10413947044623792, -0.124126492594778, -0.19505343288773688, -0.23586174602147297, -0.17785847971652458, -0.011007566196810765, -0.033735958877299264, -0.005419807426684653, -0.0067955925836154325, 0.04547125354044442, 0.045398897050758585, 0.055515703523334195, -0.04751576369977655, -0.09708237626496558, 0.028858621266270586, -0.0665348656928232, -0.13308412480948126, -0.14234758269782732, -0.12028411083924273, -0.08790176099854473, -0.0008445755785348813, 0.0721977950677428, 0.08070295854507577, 0.0569948536220111, 0.07210690274597076, 0.0029234766240525253, -0.09608631427828442, -0.11899763149626165, -0.22367151518622935, -0.2337229596108389, -0.22636438128447792, -0.15930085996131263, -0.11042873959091112, -0.07165907885708327, 0.025986896037583654, 0.016748886102003462, -0.044905023860201725, -0.006779185967379619, -0.013880335836705589, 0.020354653076799692, -0.05333365448690598, 0.03135438187907563, -0.06516941025312234, 0.0005295537177367037, -0.013481218135196791, -0.024355974273025008, 0.004639896994246309, 0.021203356960367882, 0.0931513387332226, 0.24413362984659687, 0.22311407229468694, 0.186122990760581, 0.22579538558792397, 0.1967299725660776, 0.056712804476901954, -0.05747717773729507, 