{"sizes": [784, 90, 65, 50, 35, 30, 25, 20, 15, 15, 10], "weights": [[[-0.011853080318859467, -0.038438274296302234, 0.019284428218209144, -0.06778202495289584, -0.030954236771305797, 0.03243865736715343, -0.042429009527853535, -0.02009088506652281, 0.015190898810582299, -0.008750168207087392, 0.004176251946020172, 0.01468706216462279, 0.0006497973047024637, -0.0110520402209657, 0.010206583826552953, -0.0797553855981235, 0.12078298493958059, 0.032405234640191835, -0.07415753916069324, 0.03981280802032104, -0.04197749078065426, -0.002058034472391703, -0.026136485443382963, 0.07795737195018593, 0.03674748684588076, 0.0075860651158442555, 0.02623938528679509, 0.02636366969465215, 0.017919968615269087, 0.06629682873214475, 0.01773793385296713, -0.030415298400788306, -0.032256445508968376, -0.033399994094189235, 0.0341648846482133, -0.007525438809327682, 0.01243643786413873, 0.07144459797981931, -0.01774700870061322, -0.030679344604462002, -0.04002909256178721, -0.05657871223864097, 0.02016352787908552, 0.011127059125642005, -0.06264865257955853, -0.07087509445901836, -0.013370132657436985, -0.0008124005232398466, -0.0064967221152968475, -0.00810936462949846, 0.010206137960692882, 0.025142469192731973, 0.01059994858127695, 0.025993540326418017, 0.0030016609552729425, 0.0028734328157934324, -0.04114780154397164, 0.018707437211448043, 0.05494436444037501, -0.018094531254332236, -0.014120750849223913, -0.03660727209675878, 0.03829433744071354, -0.0011095902928276694, -0.0036167189168935265, -0.019655895721043027, -0.0215690581584463, -0.016708918499083496, 0.046191835734126725, -0.0239745243594598, 0.016093249046812187, 0.05771300259266933, 0.005118579171268746, -0.004250380324920287, 0.021944525265564865, 0.0022056821931448617, 0.0036520916098632876, -0.027366667606403543, -0.02666336649700183, 0.018507379585421473, -0.0010920163272266517, -0.024161282063610345, 0.05175917859677116, -0.009031090483082496, 0.0344383132241732, -0.003016193193267644, 0.053202286203080096, 0.022205675713047608, -0.038033457738750186, 0.047828478914111724, 0.05560491726700119, -0.01226421490884498, 0.03667690594311752, 0.04615407732670707, -0.01693917100814967, 0.004377135624315781, -0.010530121640853846, -0.017385976479253433, 0.01243447481525426, -0.0006482159999667742, -0.021009342516544863, -0.048248693262950684, 0.03977988855370094, -0.026708701345139002, 0.038921647611826815, -0.01990241339665291, -0.024473037856049325, 0.0017380573583801982, 0.011038394184269685, 0.009181385950378136, 0.004353837365682574, 0.04355325712520926, -0.0036537518150778357, 0.034857650790406904, 0.07809979526167166, 0.04336841877601067, 0.0044166333272927525, 0.005392393803724201, 0.016462330234429477, 0.06682337379257192, 0.030562288344150267, -0.003149262100608122, -0.01926362045965819, -0.0036832217245028917, 0.019060560039408432, 0.01358867991787065, 0.05299094738911275, 0.04524932503143924, 0.013342954895646469, -0.00120312681489345, -0.059918385218557975, 0.002132394113444366, -0.06298123426132049, 0.0037361737151235274, 0.0006398042902045649, -0.0024255018902879675, 0.02524502898164339, -0.0008782813132372156, 0.023161153064705134, -0.03459095322637769, -0.06703774869225779, -0.06721075000123106, -0.06933937065464664, 0.02174705137747663, 0.061699447451280864, 0.07215594668280594, 0.04779969067543891, 0.02343494422703361, -0.011285659651280177, -0.029042486807554953, 0.030580558855091547, -0.0943972973138487, 0.07202595483729703, 0.0928513542366696, -0.046204512444816576, -0.026351421314146233, 0.017382718310215275, -0.0029809076472953203, 0.02939037231022778, 0.009403313806906032, -0.07309230001756811, -0.036651178413140466, -0.004894144946422006, -0.0929061589439519, -0.04522196514185695, -0.04621942739277273, -0.05095631128319414, 0.023298843591061814, -0.026547822143463053, 0.01362240847457897, -0.0011927471695751869, -0.002008008653399595, 0.01677983264377084, -0.040691354604073755, 0.008074929648780984, 0.02246460131425267, 0.017575439537706468, -0.022750864468426207, -0.03172414325075162, 0.05150305173634237, 0.005708145912546477, 0.004167454175451473, 0.03276377213293071, -0.020709774379334956, 0.07952117797322565, 0.03990671004154999, -0.06194618969066478, -0.0677786558267804, -0.002042069847555292, -0.04725066070284762, 0.002971731586424549, 0.027073682596038085, -0.03343044314993638, 0.02469985009728539, 0.059524410283918965, 0.057123642654686356, -0.015141000907275014, 0.021768810729607783, 0.02073803426816314, -0.03663824994088849, -0.005084239758779934, -0.00621730659225527, -0.02130713133767037, -0.01579016894104684, -0.013058682800275622, 0.01755633068273878, 0.01999269082669727, -0.0025806757388531125, 0.03146186319260393, -0.03890009998467939, 0.006744950191845406, -0.028481619155996507, -0.04430770740160039, -0.02920012221710823, -0.044386728222814906, -0.06363229324459801, -0.02847592970064004, 0.07160068046722834, 0.06237166320974387, -0.006701336268153532, 0.01190385584627038, -0.010274049494950666, -0.011522204406018642, 0.010865848741713363, 0.030373919532863315, 0.045105470775456374, 0.016087859107355225, -0.011166116112538517, -0.014829248509937663, 0.03491785856872436, 0.014379833845982702, -0.0034228747186589308, -0.07766736688480164, -0.025835918166349094, 0.006472981981902485, 0.009463717715973343, 0.03655083159380795, -0.0409891222461467, 0.015910160549727517, 0.014498501029693581, 0.03547530725197799, -0.04649274869455665, 0.017407947559917036, -0.03622097720363517, 0.04888976016427835, -0.05193553545332258, -0.006545099332802131, -0.015436437901627036, 0.03403514152511083, 0.012001693313486989, 0.005397496145616178, -0.014237112210822257, 0.01988092884476082, 0.029031694042605954, 0.046386561235043186, 0.038848417131317474, 0.00931116959156861, 0.007408833849317995, -0.026112844384328125, -0.015334154875597623, 0.004774558844842035, 0.008393026615549479, 0.037174330275562106, -0.0643790890323267, 0.011021406761077207, -0.01668196063114747, 0.006469685288233082, 0.006736248326498009, 0.015064681148678693, 0.05316775857154749, -0.06758909456374129, -0.0450536574885009, 0.0315365494936668, 0.06179522576039531, 0.03923428383948822, 0.043122964871192944, -0.016763055565699608, 0.0076085379800394, -0.007314984864551543, 0.04292110238123987, -0.046156934160711004, -0.043734719384872216, -0.025685809967994282, 0.03957070892138899, 0.0007208717464240291, 0.0036425859825029686, -0.030175048000727303, 0.0180955302223066, -0.006889293886594637, -0.09922693230593939, 0.018732411755619134, 0.025394109133029193, -0.046054951863841564, 0.06917310107907454, 0.05621166369551255, -0.0030717038333812037, 0.009759120111992906, 0.044985925449639155, 0.04107228633502622, 0.01698938950909341, 0.024167433717151833, 0.008976635351576702, -0.044411189869288215, 0.06151318674547142, 0.04012020454080873, -0.06329930473246782, -0.021285674426663237, 0.012857867037747045, -0.01860779804253316, -0.018613735498095453, -0.021219990856634136, 0.03734828994248556, 0.008939244955802757, -0.017704769202198756, -0.04075238679461373, 0.04967849049322992, 0.024808603766874188, 0.03427997309530518, 0.038507106148795545, 0.0025603073240072524, 0.03472243263941376, -0.0005488779525586209, 0.012157815164019037, 0.00320189800515405, -0.10979497811643879, -0.0435297268847759, 0.009600296941296924, -0.04785405014693821, 0.04669511937123584, -0.06231878442301749, 0.007211008150168018, -0.0139034128355301, -0.06104457472938028, -0.03329123334509197, 0.06507907357193617, 0.04157892076199109, -0.012611539767887415, -0.0019716383445292367, 0.029359143348150107, -0.04205677451562356, 0.020445248573411193, 0.000639846818356345, -0.028217378419793653, 0.04038479807101555, -0.03048765819367234, -0.07318628274596424, 0.014114086304967131, 0.007212508239633881, -0.026272941184948093, 0.011454488745493789, 0.014131121228462211, -0.06898635532948406, 0.010043003857424172, -0.02501501744603931, -0.020852609314009573, -0.008033574780628477, 0.012646215240640805, -0.001414267949294682, -0.018953067772685916, 0.030027149395809714, 0.030330388063442043, -0.006398801578225836, 0.013932275258430259, 0.029582974276434523, 0.010614975534928042, 0.015227051879390411, -0.02863073630435391, 0.06001240396293439, -0.03566679299783993, -0.01816285718627167, 0.002275754709020375, -0.04176961093790622, 0.054980049019010845, -0.01995564386943226, -0.015817163754922724, -0.039469670575635135, 0.018507381373883636, -0.023684553462631246, -0.03203365868720854, -0.049977592794269984, 0.06236338994331287, 0.03601361797730714, 0.03413757904667897, -0.03728732118700754, 0.009669784705314101, 0.051924544746360865, -0.044756927750232746, -0.010065765667604252, 0.01740905137515851, 0.027881574284969526, -0.008892024857880662, -0.0035581782541478204, -0.027291382188186386, -0.002481478004376879, 0.013599964372363512, 0.05561189549994101, 0.07281567714014317, -0.01498467516203119, -0.020942161606139386, -0.017689262618037566, -0.014597294155631664, 0.014841148009874395, 0.03326470112881539, -0.020216487040107783, -0.023558471707054007, 0.020351721706551897, -0.027383868622032657, -0.035911147855423896, 0.008533856348679434, -0.004897268650538353, 0.017553831736132345, -0.007881372015909074, -0.016375557544369257, 0.09023021567594225, -0.025138018443269034, 0.05159564716768241, 0.00385833224097215, -0.017654719698187223, 0.03498780385912129, -0.035438022378158164, -0.005889845921089085, -0.011031554574127841, -0.02218999816167452, -0.007116095608014514, 0.02351709827023089, 0.0009646683163491486, -0.021848813972344228, -0.021420113423982538, 0.023781486693405816, -0.011194903273994585, 0.006945122523994678, -0.014682692745203582, 0.02019028220167489, 0.013845198337708104, -0.008112559427048024, -0.05633258705622355, 0.03892150482249733, 0.020185849473089996, 0.044051496875748705, 0.011840029843258864, -0.01418152368927983, -0.0081031311999849, 0.016247807249360823, 0.0028806917236506658, -0.04608866853893636, -0.0077791698586794095, -0.0006370183134232628, 0.028049749166332856, 0.008397011343153602, -0.07351660597983459, 0.014342494458439436, -0.06496689734286916, 0.024066333895786652, 0.01571910961112462, -0.01040386187588224, 0.005771712119111882, 0.023061686605111438, 0.04605700011814486, -0.04740920379332972, -0.038301737345073916, 0.04572208862231255, -0.0775268917471506, 0.009436165744222007, 0.025111999638106657, 0.0029026135772873885, -0.01174499648846146, 0.010754671845173014, 0.03977090259440388, 0.0032032083666967263, 0.010596542760546427, 0.0024024091911799823, -0.0053697109163799075, -0.03166702123463939, -0.007602207619048174, 0.029277130687639555, -0.013712844802127918, 0.015087046994619626, -0.0032668666838738406, -0.01897930545195893, -0.04880362522296124, -0.0275847048871287, -0.0682252466167791, 0.0038522973835718667, 0.013735810503633122, 0.018234794631654512, 0.028925453442744067, 0.014053594616046647, 0.028638010376147577, 0.022739888042223773, -0.004786033980163948, 0.04580710937238257, -0.0017182532302885496, -0.025840964534919634, 0.06494827562793301, 0.02530644409358881, -0.041806098530628, 0.003146387242108484, 0.03270676019095985, -0.031662328650668814, 0.03012305845962226, -0.0033763206861905206, -0.04284102018623835, -0.011448081665171472, 0.011872962864108022, 0.049186609815820674, -0.003715193908714102, -0.03705965702334659, 0.011864746249923695, -0.03533890160188111, 0.08581528125889162, -0.02566063573695459, -0.05402012607085968, 0.052739065946091235, 0.06402632285523481, -0.011254778343510057, 0.01254076749208732, 0.003003910768464938, 0.047840359490111076, 0.027628412938690037, -0.07662439387296252, -0.05157424893711181, -0.03087721599222616, -0.005918139063388836, -0.030899271121110374, -0.06383915902634807, 0.022253842784540196, -0.017552921244226555, 0.0028241838102415935, 0.009778462420417255, -0.005191997068573723, 0.06213825974774136, -0.046943738516555845, 0.021202357027254443, -0.05222547033785205, 0.012992785814985083, 0.01824801490522902, -0.059377398962057494, -0.012566843247481087, -0.014064729172387096, 0.015751611334934724, -0.05375080472260545, -0.020664166958385077, -0.01754576977045835, -0.009365391120427795, 0.0026579399178692743, 0.0023057254426408513, -0.025781538264960612, -0.03881446797954765, -0.06663298238811398, -0.041638172031505966, 0.022652147538390385, -0.0012641636068407782, 0.04921025493180823, 0.01662585926562276, -0.02116629798245836, -0.024895719346711587, -0.014094322088467453, 0.008172397478178677, -0.009669422736487254, -0.017479484219972332, -0.024711786167832088, 7.551101567117833e-05, 0.024600258700408054, -0.0039822175811774635, 0.0426040695328705, 0.03164603974124246, 0.007368994772241909, 0.020412053829703708, 0.027239796922553943, -0.055337219894244345, 0.043953810045857224, 0.055218528957093185, -0.04089262260596856, -0.023791361751478488, 0.010554357926954201, 0.017688770793653753, -0.016196215261626, -0.024576473821283716, -0.004388390755609291, -0.03922056538080381, -0.023760073155303908, -0.022405763592345078, -0.07384545349310775, 0.05778819148762944, -0.0055023831319663515, 0.001316002314209468, -0.024884598331508204, 0.0250186550377521, -0.021165348777240345, -0.025265456255780402, -0.03656982321059821, -0.0023138602174783487, -0.028567738055028723, -0.06797491902342562, -0.016920396345955407, 0.03928075954244009, 0.07151077808867749, 0.015341250935706692, 0.06372968969716043, 0.014845085820827731, -0.026378309696970585, 0.030870244280515866, -0.04161088950001035, -0.0318295213794604, 0.03107226388457999, 0.05733302908175981, -0.007988772422540449, -0.03287702639895324, -0.044277989128629666, -0.01718810674079524, 0.07394868698896657, 0.015103216525782925, -0.003553692575442716, -0.02143930993001344, 0.013057522363213852, -0.027866003977835667, -0.0003967129183190746, 0.00040939209662314065, 0.02731968777308086, 0.047788438064389066, 0.0077388004697817, -0.01589317219022195, 0.03385278999282529, 0.03454899094830643, 0.05020405186955051, 0.013321610562839079, 0.0021023642328989, 0.07550878106902092, 0.04183573426982422, -0.019907511566052253, 0.043685648549443484, 0.0577046475014566, -0.07169355246190394, 0.0048515812891804675, 0.07161065740603677, 0.05657126574615828, -0.06986122180145392, 0.03614806753929164, 0.04563946465669939, -0.057253449198024116, -0.018503532035231682, -0.0022055416058049037, 0.040429495841294676, 0.0461038291787412, 0.014170536689765563, 0.0005523979635898351, -0.024830958902482023, 0.023367290906526655, -0.016732684480251604, 0.09437790336637138, 0.042934095428928946, -0.02885642069455736, 0.04027896985094311, -0.01014407446584286, 0.019327657947685494, -0.02964601121580398, 0.028600715994166945, -0.0001020692537075391, 0.04124218519372869, 0.016734891752464464, 0.00027781155166431984, -0.005358524938690025, 0.002536772873297315, -0.008195325507917647, 0.013818540465300459, -0.028972482050261327, 0.03911185364433082, 0.030216528124098606, 0.09154456628003817, 0.014327787122981342, 0.035654276105713215, 0.020475966392509804, -0.05768619310829556, -0.021341964928619644, -0.037185077597043974, 0.0024022180926380116, 0.06895394884711942, -0.02399897098877892, 0.022010879801130864, -0.04799949606624003, -0.008639108676958461, 0.020029024671838154, 0.030956597658291393, -0.0164785422343974, 0.012252696728740825, -0.04067418777981902, 0.0331657357937987, 0.006480443760527071, -0.03737942338955224, 0.00022086542832946206, 0.0280510784632418, 0.006502143082301928, -0.03458241249509906, 0.002148145039055593, -0.006844538254983137, 0.017958404601115103, -0.003523152008777118, -0.014094257673250319, -0.0020880395745647307, -0.042500822455138025, 0.019274375483733248, -0.019032105368839442, 0.012904038193094916, 0.0025935840734069835, 0.022748220757505294, -0.050394786145492164, -0.0002626833355400616, 0.011917229415398889, -0.025117869131635166, -0.03493280106392584, -0.028094671811886473, -0.030026367460928103, 0.02303216698495854, 0.015101730988090364, 0.0499179584689422, -0.023984422956963236, 0.011228655602246656, 0.0009082825627719812, -0.03348365692396871, -0.02131240489103627, -0.005360374914229033, -0.01378503331523071, -0.01666397405616399, 0.02432986327717576, -0.08533189914001749, -7.258117230636862e-05, 0.025178020769534352, 0.04215040520364588, 0.023084941023270668, -0.036794612112346234, -0.06511826524863774, -0.05698105261337985, -0.03177660570553616, -0.01764759890297462, 0.011599446373038124, -0.02631430761026013, 0.0061870214275277615, 0.021799505883599593, -0.028039096804655078, 0.048118454037132184, 0.0013297061368339072, -0.010149973268270815, -0.013739050420186373, -0.02223784119759785, -0.03855611491602295, -0.057442596731318456, 0.0376720001591725, -0.030845336619587813, 0.06042909696330893, 0.0387702386624467, 0.02017572042768411, -0.005565688917708491, -0.05641251653154513, 0.016817952905308745, -0.002683589847218489, 0.000937396304627017, 0.053624640984254617, -0.033367851818730886, 0.037963445337695315, -0.0012320066224532772, -0.02395953358068902, -0.03136315813760177, -0.026785503862690813, 0.033373119189935366, -0.04391822125972855, 0.03796488190051796, -0.05749069129954658, 0.010096991625290774, 0.04190598565934903, 0.012605265372152806, 0.011812004303906908, 0.025967415854314495, -0.02535414852675298, 0.06204155418199035, -0.022722199208533328, -0.015582527202899196, 0.037177258861416144, -0.09275815688455102, -0.017393916027118882, -0.024201774847265878, 0.05181962593578141, 0.04665682729539169, 0.012359243462929681, 0.002690856710744089], [-0.01099774614043907, 0.0553356857015122, -0.02663419885814413, -0.014157322324832407, -0.060057583027844454, -0.013908171655473514, -0.01447582631005134, 0.009067933979374946, 0.04080760689515418, 0.013436693277290728, 0.04096366718188265, 0.025725900342657735, -0.0017390191075002243, -0.0808076249563986, 0.013431040108110144, 0.028267666894664357, -0.07418110242526464, -0.024932714128874843, 0.008055462123574646, -0.0003765355844732975, -0.018752304966059563, -0.0598918962167214, -0.004426545464421876, 0.002883364088755409, 0.012795042176706647, 0.029322449931302123, -0.06042159055778291, -0.014218881892185186, -0.059258631790479174, 0.06674227246444148, -0.05170967353366567, -0.03720506542414561, -0.10093912400926532, -8.140953289111027e-05, -0.07832303112196429, -0.03480323429485481, -0.008961223330537222, 0.03097266313491903, 0.043949477073870875, 0.0273778990511052, 0.015372272613055, -0.00015006371200031496, -0.014294964837600977, 0.007732525272816524, 0.03259295542398481, -0.01286977210120276, -0.0020533542305070816, -0.08036584612570287, 0.03539354758343062, -0.012785880523455846, -0.05866214682995707, -0.00458840797179498, 0.05618667326184585, -0.022560846207854694, -0.08087965165517018, 0.004605406900656263, 0.03716696543598112, -0.04527208719011315, -0.002639650428036467, 0.0698471542183882, -0.029235629188114405, 0.0019211252800522263, 0.01177226395320595, 0.022295399567974647, 0.019873666085907547, -0.06413446880550072, 0.016897151030251037, -0.012197300815166897, -0.015919006040339, 0.07964140895434177, 0.03391190909255945, -0.05704863929889225, 0.003454248127757861, 0.01187066397960478, -0.016989586335874104, -0.015985050431108767, 0.0032004326177158347, 0.055965088186528913, -0.043240186573745454, -0.03189610400604047, 0.012408153345988649, 0.020783612968383866, -0.0031820101673098317, 0.03483020100082008, 0.002901307267077743, -0.032906706723052466, 0.04586030262248665, 0.023286552368438605, 0.023135355549923256, -0.003883404137190404, 0.05038485527504272, 0.005086089155941832, -0.04881568727378578, -0.05532328273436054, -0.0620434596704175, -0.05187288081241659, 0.03173165751592465, -0.041566022431447205, -0.02401427715060551, 0.03064354220300697, 0.005561328687351002, -0.04808273768251256, -0.0035716527327989247, -0.008205566483932865, -0.05292369720617663, -0.02131627991352718, 0.02498980099281049, 0.000466569856591253, -0.06036398931922131, 0.04988830854981042, 0.041719657328990176, 0.01831208560557837, 0.0021452359916009725, -0.023169848473072095, 0.034096468028229854, -0.032047337308451454, 0.014901159814737991, -0.0379644094612315, -0.004082390647213997, -0.012344574884217368, 0.029385654743881214, -0.0009630981642677417, -0.06115154044440797, 0.01702399976866489, 0.03579116411653428, 0.028055123513911064, -0.0032637027979235756, -0.022639722634284182, 0.046887018884134615, 0.017996424652844675, 0.02128654207174455, 0.002767620427181275, 0.0016693908941256025, -0.05137208924553225, -0.01468569108474973, -0.005411100482386594, 0.03621743482184265, -0.05281305305002661, -0.018538696100576933, -0.01488032680817255, -0.009311128941771388, 0.004167788180896342, 0.03726953633171978, -0.003771779577362392, -0.04043447245225293, 0.044872101027224456, 0.009461187034273276, 0.04321470289225799, 0.03715581860173682, 0.0038586065044323836, 0.06627030472385592, 0.011197794025155538, -0.08669366226378351, -0.004966669706064936, 0.05870461003036026, -0.02601238068373767, 0.060890926662686806, 0.03215061086405543, -0.06651849141960071, -0.02006524303276992, -0.007736639666664353, -0.0073470697725796785, 0.001993331415953577, -0.012733475805571166, 0.003172320773645546, -1.2226298981132303e-06, -0.02454633477464727, 0.008672735931080713, 0.02076894789474051, -0.03176474491212821, -0.017048634682682532, 0.014279764954693332, 0.07704459173967397, -0.028232212537690746, -0.030877935811990477, -0.03969336380210738, -0.009995232762942572, 0.03448249673078622, -0.09728595770519373, 0.03248396847999462, 0.006861706248635979, 0.037223418941692926, -0.08609239539322786, 0.006807074956450216, -0.007768554540741203, -0.020021252579541786, 0.0004461808880161423, 0.013419253935016024, 0.0036486943103209097, -0.02736505384378711, 0.011044820207865586, -0.009550794916210964, 0.014599830940714613, 0.0032010581761893033, -0.04394057425806422, -0.05500193994344649, -0.02997137301414253, -0.05386574299015946, -0.02624166020303117, -0.009624859919526078, 0.019619378473691017, 0.0309001597492776, 0.019709333838601892, -0.04376349751179281, -0.05360645595223309, 0.010451846373193593, 0.0029706913400941843, 0.0766137190466716, -0.03159189043943069, 0.027350293170649017, 0.020208861670040774, -0.005032442684725957, 0.024587191107402075, 0.01311162709971701, -0.047587560126951, -0.008157757594528177, 0.007241796727407954, 0.05266174351500369, -0.0647338523151534, -0.09380600883611509, -0.07949371889890695, -0.08465788145351612, -0.004153601459772128, -0.0018970631338551631, -0.008778333347852399, 0.021355920873164375, -0.004325322720227554, -0.0016323153171203001, 0.013539490864913574, 0.004047155193717931, 0.06704032167858968, -0.021640150909776334, -0.005099203954488764, -0.013869334839055137, 0.04572105715331917, -0.04021118617920487, -0.014312921575021705, 0.008735661901980853, 0.05969015376190846, -0.03443437952401176, -0.03395616021447182, 0.039007827236786426, 0.02077703572028166, -0.01888046324541935, 0.07880683698861467, -0.006052430623639528, -0.0035816301069007093, 0.05969015152443153, 0.05526765820980585, -0.030475452834967182, 0.01250815272150288, 0.014492265286542245, -0.019231179455322735, 0.028163044463558846, 0.014084410621335688, 0.0185406339626855, -0.024465877461387817, 0.0320534836312862, -0.016771695106733604, -0.058006839974946316, 0.018713106994638472, 0.010544535563195331, -0.020362386832078867, 0.009721465272202143, 0.018769356601730573, 0.002434859457753938, -0.031836282356122014, 0.05832480798965894, 0.10970634282473994, -0.008169560545912485, -0.006109159231409143, 0.004281922320593574, -0.014642905858248107, -0.01644206631096827, -0.002475712132400041, -0.0447864655869726, -0.0148542886721562, -0.008737673184106058, 0.03172450606472536, -0.05236313295184204, -0.018626078044698152, -0.05599053414499736, -0.046680896745431105, -0.03962113094990484, -0.03549415655048282, -0.01995869492377336, -0.06741071897574373, -0.06900550434236281, 0.04110345610973044, -0.014056759464032863, -0.020692543410570932, -0.027704340699029818, 0.032844683785233954, -0.07082344504337042, -0.07874722285672459, 0.010062414483996583, -0.017368801476675466, 0.020401271185447697, 0.05683203410411369, 0.021566277566336094, -0.013751387726543048, 0.030630665751902885, 0.026925011833829213, 0.02339734001762605, -0.037976327033341487, -0.017991851033190058, 0.04753537913530423, 0.03129327133592247, 0.09693667130227038, 0.020895140236847604, 0.026432160031632342, 0.0503342221866501, 0.0006914463580435407, -0.023876482005570073, 0.005422518863834181, -0.021111421272937206, -0.013304789381762286, 0.0063038108502399635, 0.01563630164523176, -0.018203797733648112, 0.00829869914619865, -0.027057909759118738, -0.022033885849553656, 0.012507720600255522, 0.026351653430233237, 0.008806161069046659, -0.02959892537406611, 0.028423598804305974, 0.019208652063985553, -0.010963455675293554, -0.09816146787788728, 0.001343144914938939, 0.002213606204462459, 0.016644647929429893, 0.0030135092425320753, -0.0207565383844976, 0.06863209748154929, -0.029577135797801336, -0.012333525023793618, 0.016155343712909415, -0.018792660165455544, -0.03802452725064402, 0.020993711890080913, -0.020226943528528576, -0.005817309985542281, 0.03768684365252818, 0.016653999119375915, -0.02918363843092101, -0.05079488124900242, -0.04084242656248764, 0.01600845310640378, -0.005846904169696452, 0.028904838977833257, -0.008973257116508043, -0.08258409344991281, 0.014045181201444367, -0.019027168528957594, -0.04611168340193279, 0.016633093514771987, 0.06563414692913272, -0.058282278764195096, -0.020261128449516677, -1.1294353938732364e-05, -0.010542926696904414, 0.03940637323268611, -0.010579618165816497, 0.06537622909510467, -0.002691822666783388, 0.03282805295046558, 0.005360314804889914, -0.05396422920431858, 0.034106784621907006, -0.023302587846066973, 0.02435969040619491, -0.033845615969113535, 0.05501167201523722, -0.0231512732079761, -0.017839075497431734, 0.008622490390200513, 0.05116832476434372, 0.07871371242834391, -0.018954417539693014, -0.025389155235351617, 0.0036148314883882836, -0.013034079443826275, -0.023509886211656752, -0.06650038674522991, 0.0065508321638382185, 0.027371734998303116, 0.03216336510248567, 0.06343184097893073, 0.007385797545289301, -0.004053141616573728, 0.01089866998945224, -0.00963690286477503, -0.05190034679032308, -0.025381407752409928, 0.03924991646252572, 0.002028344274136058, 0.0754237339186193, 0.04371535600276403, -0.0397332275757285, 0.0034424996151394584, 0.000837706897116308, 0.03206347480823301, -0.03097178271450917, -0.05576644461882796, 0.06089341858853606, 0.04284243132238375, 0.03926755814096158, -0.01055313130556203, -0.05503702750389258, 0.03177941101223029, -0.018825364037493807, 0.06970722863964515, 0.05098956551661795, 0.010350378371802473, 0.059229841767729094, 0.024281762853235155, 0.08378200052666161, 0.02979596487948888, 0.013404816433448243, 0.017023864207527876, -0.004114761109242115, -0.004398815926394518, -0.03835978636102722, 0.01795318877094722, -0.00012479153025951752, -0.06305998783279039, -0.0021838631558165305, 0.032190283756488546, 0.01685951780562396, -0.021842554935977428, 0.001663565522254988, 0.01577130608654189, 0.03742056861422743, -0.02859988111499178, -0.04684500532600043, -0.01716607937525363, 0.006692368206432708, -0.0003714040691071779, -0.03137607285809603, -0.0016275721770811745, 0.02003834354458435, 0.038143449143192315, 0.010013180780710028, -0.07234314832170949, -0.0525583155282984, -0.016231602812344977, -0.004752719751856943, 0.14813529454921653, -0.024980207260525435, 0.028486831698021048, 0.0012498155575923558, -0.006236517683831763, -0.02652737004815034, -0.04771949500950488, -0.04387955111989863, -0.021873780529571004, 0.040582261051361534, -0.01545089764614344, 0.04772071051288519, 0.006261342946887272, 0.037093701752937046, -0.01118796620378349, 0.006295807401157222, 0.010095553914907756, -0.05872937011919025, 0.066350957544792, 0.04630344145698126, -0.044409443551567715, 0.04540521777607213, -0.03544664484348994, 0.017115121169938352, 0.009618779209503454, -0.002390624918427587, -0.028428799900069267, -0.0027470409644559223, -0.0319543132412357, -0.017139555458313718, -0.0018610114403741199, -0.01212552648946237, 0.0399828442899162, 0.021240955668264103, -0.03470423129223346, -0.028346476155198346, -0.011379395995857121, 0.005503014416744188, -0.06111665118722072, -0.006680183387975586, 0.046319974349940146, -0.0467263743659297, -0.033312499448022524, 0.07464394800943296, 0.031151233015973872, -0.03203608711236679, 0.016250361208782375, 0.018156565617762133, 0.01559765924316829, 0.008269149053010606, -0.021589595688566655, -0.011000756313765236, -0.03561922103562943, 0.02197529354229904, -0.01702996532720455, 0.0550525081296171, -0.012751876704946145, 0.009886611756350869, -0.03188781600889835, -0.060042750341846585, -0.0057331545402744466, -0.030451939581516502, -0.027249991508161386, -0.06852329036960833, 0.02621316791245375, -0.05736179719463831, -0.03894500883134677, -0.03983529691555057, -0.01184229781861543, 0.06906489012882831, -0.021847195017361314, 0.00615545157945613, 0.012072664656604625, 0.020115464268220612, -0.05038035300191108, 0.031958390954192555, -0.016494899762348383, 0.013571736441762459, 0.026819574021659857, -0.02248292697558745, 0.029758517966844224, 0.018045220358045563, 0.02491101317941625, 0.032276111648293866, 0.018323196512955046, -0.008135432872492559, -0.010377943641273344, -0.011044115137609568, -0.0060924491235038215, -0.001511090258058552, 0.10698873804116792, 0.02838212244749707, 0.0005321259788079981, 0.005968464605442143, 0.04366001480017572, 0.05037070780982393, 0.01898361714629583, 0.03643688678772351, 0.03032997253044417, 0.005772557772178904, -0.005033740927269154, -0.01981120058780222, -0.02456756951912847, 0.07030520131268013, 0.06265281602960478, -0.033389204087070454, 0.05449808117961869, -0.0014026826573775159, -0.053533194187303124, 0.008568647115185488, -0.0038315906951404285, -0.01484184340153371, 0.0319477966741651, 0.016119325123864048, 0.014318133291889532, 0.05774067126534426, -0.03348062749016867, 0.0023406167226533254, -0.028135739765152823, 0.06602762826471814, 0.011566731693487022, -0.029973227514383707, 0.03244902323808082, -0.007672920806225746, 0.01600506264001973, 0.024932177021483513, 0.016279439720283166, -0.004365451908005921, 0.07653618723160478, -0.0539086530837768, 0.040565107240148265, 0.0110809764033606, 0.025627701112721762, 0.04323456264902002, 0.01155526380384515, 0.012913209522558401, -0.009379927870791286, -0.0866206560347462, -0.05917364955737517, 0.0040878686102930025, -0.027047388206893296, -0.023322182182693874, -0.005009668190019457, 0.01963459645431655, -0.030241461889857976, -0.06794750839443313, 0.03027830419176052, 0.004129636520232214, 0.03208578017146604, 0.010836062147533354, -0.0345458737381953, -0.07220630272273376, 0.018515944188684127, -0.016601706115093543, -0.013054794952854434, 0.07997859581184276, -0.041033677242153885, -0.047853497198568996, -0.010168995976051223, 0.004294009946272663, -0.037466840094274825, -0.014974785804277763, 0.02006038565338798, -0.04889790736566712, -0.0634113129958172, 0.029776158140322726, -0.016057283713282227, 0.03510138630808096, 0.03076689985336232, -0.0683033919831821, 0.010563486881563238, -0.04696759447195274, -0.003004417260488064, 0.05535388710150053, 0.0036273548344807776, -0.027627081597963992, 0.010947837268390732, -0.01694161321599888, 0.034623804293062097, -0.016676427913775018, -0.04658813580530966, 0.034339659598805986, -0.039428861603846885, 0.03988316266500724, -0.04491191566321232, -0.03486662569842296, 0.006131837103115366, -0.041085280380459124, 0.01093432618728714, -0.01292060587694554, 0.023224507232458586, -0.009860761414334266, -0.04564705027947286, -0.0011338182455878985, -0.01603719559326559, 0.03739281389895109, -0.005636963260942776, -0.012861467583769692, -0.04836098978239338, -0.024515800607426044, 0.043852918334375095, -0.0060380673589965255, 0.021457122372779466, 0.031416185588031456, -0.028096089289122446, -0.048312574937396276, -0.02289270110787326, -0.050599578145286137, 0.006603969576345815, 0.011557211989477244, 0.02578705208170423, 0.06275186430849243, 0.014244654276655846, -0.03193437338651796, -0.04562552041212406, -0.0014839093870228806, 0.008710649502607299, 0.006852102063109084, 0.016277517645715223, -0.04788089923077409, -0.04701791275360046, 0.03854925433611576, 0.02785959392548906, 0.05849059234871103, -0.007966731547586745, -0.01636699629685841, -0.02892366370974974, 0.02421300848633936, -0.017235784313524904, 0.02665211292440355, -0.027027259087423487, -0.026790696947898016, -0.09277305206661479, -0.0062243071800439104, 0.02160205662732799, 0.023245810910461122, 0.014832553213024862, -0.02856349823438777, -0.023259447343692785, 0.020579371882883075, -0.02217075673415418, 0.004121002296559444, 0.009955806728882046, -0.024517909415558137, 0.015778922135584156, 0.011343771882065043, 0.007523337135508451, -0.005123224098445366, -0.03594536146150546, 0.025251918674315674, -0.044426320415569535, -0.005650006351971159, 0.0007575881268242854, -0.005065297340550333, 0.014271234687800628, 0.01535371507798054, 0.03505044043198055, 0.045951491935362763, 0.01182626166994291, 0.00930924369222458, -0.0500190798826574, 0.08409830956654069, 0.04372663303379326, 0.01746470624833251, 0.0389175184988965, 0.08355856484121454, 0.01574083890383594, -0.05567683021829135, -0.024547695540386442, -0.008816919304272497, -0.08932531138434828, 0.06329732188767663, -0.029980764569506532, -0.0020050654331029, 0.02241174327428581, -0.0011311089370510034, -0.02097241392963099, -0.016721944888606323, -0.04540896153663116, 0.015360703934563093, -0.014646444535432821, -0.051603444981009286, -0.03365284986370182, 0.026619314247413227, 0.00363040092705663, -0.014293623271467904, -0.003435722398133923, 0.015102402870107992, 0.024156989426477843, 0.013557149592545283, 0.005866861499718211, 0.009765565375636292, -0.005404910308399084, -0.01097844896819753, 0.010844274169596444, 0.023209925513759826, 0.00038547805774400264, 0.012413672971280133, -0.01388572359567533, 0.02954017796123824, 0.009907868455932318, 0.009446341369767457, 0.0015979529372286076, -0.02808569559913835, -0.022490207373466502, 0.017788385403986216, 0.01911051353155539, 0.03681994625227581, -0.020404241504076374, -0.021728160574617468, 0.022842977384374588, -0.04696430926679087, 0.0891331240956329, 0.05220154501368795, 0.025747374567579393, -0.00010057133766544291, -0.0031530638983002564, 0.04664082378080795, -0.07141541460749246, -0.004423721743399185, 0.020700260686213067, 0.0010273696530751686, 0.004128683886085026, -0.016286299129613463, 0.006255183244132825, -0.03356450127035414, 0.018717874010379977, 0.03648503266957476, 0.009858498280684977, -0.03402964782247235, -0.00555481069966732, 0.08740101272276275, -0.02199916136229579, -0.018440781113246384], [0.022824656767656652, 0.03107388734221424, -0.029633189955826533, -0.01122853156030756, 0.06582034903659521, 0.0060119617502397615, 0.0009902558249591012, -0.0610218751824505, 0.03172269200882535, 0.007241312677921895, -0.04595373386017411, 0.031298760826452096, 0.039252275743364554, -0.05652529548990236, 0.03372340534290099, -0.040330600539999976, 0.005821615632808379, 0.0008300915502313213, -0.011656552754760893, 0.02996841692372612, -0.017651934796520587, 0.03567226681394456, -0.04136785763494898, 0.006649451513864965, 0.09943028405284297, -0.013019061604838686, 0.0693682100615235, -0.018504394361123427, 0.021749783288882104, -0.020544257256570504, -0.044807793559025554, -0.03198481243183986, 0.0466701197895258, -0.027169063879328596, 0.06890525108651574, -0.03040143431482385, 0.004084480669646407, 0.002802444226038464, 0.008736601105280111, 0.011360997128027944, -0.005478088933024362, -0.014394563147236299, 0.010334190289359113, -0.041947547858300425, -0.0464032878269776, 0.012342972668966987, 0.006288653389977506, 0.00956086224292224, 0.00333265390573132, -0.05127648374190175, 0.019224800162873472, -0.039035827417713734, 0.07113082597164685, -0.028815635122163487, 0.0035814766067824586, 0.09588584447472383, -0.06552684877087421, 0.04842035620203222, 0.04848177600621968, 0.0345056024671121, 0.01638007749114189, 0.047304955339401905, 0.00557852680463031, 0.0038739519546177447, 0.002636995409935962, -0.027384644434829467, -0.046743585327792034, 0.03704056059778016, -0.07961930772139893, -0.010786065562492415, 0.07279726541044514, -0.04479668165601278, 0.007790438851367938, 0.06686196642031315, -0.016584440356677613, -0.0003523958594581356, 0.034859652209050754, -0.045015843171244366, 0.06526984793525077, -0.014751868087477568, -0.014233868641736851, -0.087897285406099, 0.03218736190214374, 0.0023247238791055252, -0.032599279994272104, 0.031738272681434525, -0.0017768889735773432, -0.03739607096112709, 0.06797787851271574, -0.03758211624757048, 0.05971018505388111, 0.07727757190796014, 0.000295359370976249, 0.007836593308447048, 0.04127083895081062, 0.0019073673699924584, 0.026581894781091114, 0.03418204035829592, -0.030181832272392718, 3.3470427568086784e-06, -0.008752340672399888, 0.0019710763511756753, -0.0095615858376733, -0.07424155417430633, -0.003949209647461031, -0.013659747811405871, 0.012781191998749344, -0.05829800777567744, 0.04154372964445795, 0.03297745567925186, 0.012883604627477278, -0.02321843404067443, -0.042051422732889435, 0.026597839136142876, -0.034798992467439026, -0.03884558966974369, -0.012584531857006113, -0.039047997618912936, 0.013724127059527757, -0.01652170981871649, 0.025362270472061695, 0.013439845903741846, 0.021964510114715688, -0.0015321731618759226, 0.006159424908198835, 0.002460528611572054, 0.03147038549173695, 0.025429826176220693, 0.017562876912773577, -0.04401890036128653, 0.005935100077932169, -0.010615103124694044, 0.003552939436195264, -0.024211320612438688, 0.005364292629349666, 0.08259489812481251, 0.011993422267051499, -0.02630940348790482, -0.002669184516915847, -0.0579468402825797, -0.019977854839607272, 0.04883357010954654, 0.0013210083236631525, -0.07272386132652806, -0.04047171109437977, -0.020941228892748933, -0.04896703313545346, 0.005819821229735777, 0.006502996649466925, 0.021803545602782165, -0.04631394764210927, 0.03705544280929553, 0.053391336740585986, -0.014707565557752522, -0.029910727484046884, -0.03251558799522858, -0.03929493239135299, 0.02684483089963658, -0.05430702359710378, -0.060570522646424665, -0.03354983258049608, 0.05808638570700735, 0.01564483854962425, 0.05312250129394247, -0.008748621969931546, -0.021439795020255215, 0.0073592516311228925, 0.0031159828994126925, -0.005985662206714947, 0.053896161843294606, -0.062612765019114, -0.014460649106243794, -0.0012712254271860682, -0.018670873892800578, -0.005841576520958814, -0.028334160198109956, 0.04845856283254888, -0.0006124718058844576, -0.003278867224139973, -0.03496152124779443, -0.06299185397925347, -0.026830831317025065, 0.052200184783417716, 0.05083267415313024, 0.053673962909518196, 0.02769407350092605, 0.006972746877677907, 0.01586589420885383, -0.0403954554120565, -0.027656529305148933, -0.004024734305004735, -0.01817589114906982, 0.04535966253605733, -0.02122348106880869, 0.01724626695684227, -0.022250730780851272, 0.011606227532902705, 0.012613367818884932, -0.0020736383180663836, 0.06312825928711686, -0.054753246049396916, -0.035108503041194325, -0.00018329611910196042, 0.006781374270544748, -0.057763693125911404, -0.018719366458181258, 0.009667333313906968, -0.06219648264494886, -6.343398445744827e-05, 0.020827099551007408, 0.05178081496121135, 0.022246917372096237, -0.01924259122323584, -0.004254849910743696, -0.011414721980559159, 0.003072128408558344, -0.0022504666649566804, -0.0035720170614350023, -0.0012712578577658959, -0.023124260202944495, 0.027837526253101496, -0.01815755929124006, 0.057184255967844, 0.030688635731360856, 0.01969343218362424, -0.010368164824860363, 0.01404803646920588, 0.04314056649977518, -0.012927295009950638, 0.0789965229232633, -0.05284724385045718, -0.02983903964531328, 0.0003660862409450219, 0.003482228498028257, -0.05173064644628519, -0.017873045212415794, -0.04779552871142519, -0.049762683755432933, -0.0046767944157472255, -0.04699873051383204, 0.011900638971428845, 0.030669279789893734, -0.021717184698845562, 0.06857649491430164, -0.0008171745417883552, -0.06630677191669669, 0.007078322241239922, 0.019520155655591426, 0.011125478290402512, -0.0006093802366199644, 0.034442560938127115, 0.024526555303794884, 0.03149885844973027, -0.03332161674315694, 0.03676849151480053, -0.02104614158739551, -0.03069726272484627, -0.02647563042946143, 0.036908815857820534, 0.019418594439728976, 0.050716812038558816, -0.07380180594555906, -0.017136087890919336, 0.014654501706448612, 0.0409126709796564, -0.030849131743317677, -0.03152038553830061, -0.029785765000374734, 0.0014970532067073473, 0.007887662653859144, 0.043674910795247546, 0.03860181012130324, -0.05971389723961125, 0.015889237543376417, -0.00498326323378127, -0.022124681069743475, 0.01149100923379488, 0.05983368356315232, 0.022073786813413633, 0.031136231631748463, -0.011052792313539247, 0.004592702700339164, -0.020493665977548113, 0.022191090386737992, -0.030889862447499132, 0.021038295192970416, -0.022019060228996003, -0.04727151312436159, -0.048607264638764414, 0.011756110754458973, -0.021704977428278146, -0.04988335226415933, 0.011801814534268144, 0.05545092467749758, -0.01904570512144657, -0.02282509532268313, 0.018203191202666443, 0.04627480937042685, 0.031810653313370754, -0.020904115904110156, -0.04704221459248617, 0.03486298363019279, -0.03762330897590203, 0.0509305224191006, 0.031717987449815764, 0.0154997078071379, -0.013244038961029441, 0.0007777922105472249, 0.02938944719804271, -0.030161742024345885, -0.08013361051096515, -0.015887956217708946, -0.06133102638748666, -0.03331466048469734, -0.019250159683529944, -0.049092229448426394, 0.013959317878533316, 0.08869913031564378, -0.0012078527093315901, -0.03261829783167526, -0.03305937649899426, -0.028496309211798153, -0.007446536284881867, -0.00014792338243568468, -0.029531122246877584, 0.036996651233405384, -0.01808980110046163, -0.018531219247997242, 0.029277596264578876, -0.0053789332263224935, -0.08046758164251165, -0.03336116149260658, -0.035231480938808075, -0.041068219561166006, 0.02390938208945975, 0.023839873294778692, -0.040028136452779264, -0.014585313764608409, -0.05499013269121603, -0.0492871276617614, 0.015154866625603522, -0.06895149304387453, 0.013158027133306263, 0.04345145240793304, 0.01484370042319906, -0.03603383627068765, -0.048761577609852065, -0.0371159629343195, -0.019807915396415514, 0.013826152684898048, 0.053279176739140476, -0.008303597702325872, -0.04023342679259062, -0.017945051731387524, -0.010649679055406957, -0.0010751471358357923, 0.032891033916559016, -0.04728351823355631, 0.015012824535449403, 0.0004763365970717553, -0.00844556940844458, 0.027168792418333195, 0.05056799948865494, 0.03901750022272625, 0.047308563432454216, 0.010227900470343972, 0.02473224750352531, -0.015899060337849654, 0.01631989318135361, -0.01218382077865582, -0.02377185319314693, 0.009680772153416702, 0.04417519761779336, 0.04257708217612182, -0.007814312016395358, 0.007776606062814302, 0.026697352131048534, 0.048824252619654764, -0.045608930975599746, 0.034377995007111146, 0.03518365863717882, 0.015705496882807663, 0.03254955074990422, 0.03358386555321285, -0.01522030023151528, 0.003016645101783169, 0.04884985671018786, 0.027348330708818303, 0.021897567833554232, -0.015510127558045319, 0.0169267822469351, 0.03224246511998935, 0.016641934388769625, -0.022660910118382428, -0.03428875536724262, 0.0628831567447477, 0.02039242148557597, 0.048208457681677246, -0.05478512797901234, -0.0095050805585334, -0.038919079499269184, 0.013392935551199829, -0.0009917173384422042, 0.04417738331385771, -0.00597705678345023, 0.047162539898185536, 0.003439702840624731, -0.0023671436048887016, -0.004997529921307757, -0.00883084965752113, -0.032159176065712516, -0.015178928976232261, -0.031173404688184525, 0.037249939767392035, 0.043350343474725356, 0.00402129639071424, 0.029520989147871716, 0.01197423952453153, -0.049031657293515885, 0.004766303764380232, -0.04666816148474487, 0.07915452128900298, 0.036440466661744504, 0.013024065102725139, -0.07293650503672222, 0.049250231319387806, 0.02627628243752843, 0.017421046294506904, -0.047720795238428385, -0.056109944366441095, -0.040741938803404154, 0.0015430634750346777, -0.002256423783889008, 0.02608929875145024, 0.04248740397995968, -0.02050023586105089, -0.004746590144628434, -0.006444290559019753, 0.04937618406621152, 0.03801257403552755, 0.027223797195461225, 0.02101775354723958, -0.01979708066132129, 0.014478994342629852, -0.048313938575767386, 0.014860075374708239, -0.026577530835020666, -0.05573490744490896, -0.06225732622713317, -0.02422951374592113, 0.04527552549325989, 0.002618205865709152, 0.021464041932252584, -0.04071340171492598, -0.036216561801274735, -0.02580610638492642, -0.0010555173977078208, -0.01683735528164972, -0.038105318218243506, 0.050602707931084255, -0.027555680624990232, 0.0328507271888971, -0.0061517576952085555, -0.009373058805544213, -0.0035118722554730395, -0.006318545878717305, -0.027425018220641667, -0.027100419306256347, 0.0026728121163891567, -0.022992773848195428, 0.02306135815792236, 0.07763471334944952, -0.017548006734928408, -0.012881238230395217, -0.031505942885701486, -0.022529592431305066, 0.027445154619918456, 0.0628694195644749, 0.014030902601027772, 0.05547352613531148, -0.05740617435058958, 0.033952625515045624, -0.057678691630426576, -0.012288118151697452, 0.029691094424114148, -0.011336291027336494, 0.042093358452191115, 0.0005892921115717266, -0.013252162473950212, 0.04159017559675047, -0.007495549450116065, -0.047940407856561944, -0.027814810048127574, 0.01506251129367541, 0.027781929252806026, 0.005814467219094906, -0.06855281151328403, -0.06176187395236571, 0.03970002884921898, -0.03287284652911769, -0.022002977989011477, -0.04134160678204766, -0.003155167841087822, 0.026567973853666386, -0.007938918224057935, -0.02531026178340939, -0.0245277669166363, 0.022176080279872407, 0.02823568945869325, 0.005442905120019887, -0.012997385607674728, 0.08766243869744694, -0.015394137006154244, -0.02819226298969469, 0.004720060147215538, -0.012824527990938245, 0.02763818051973353, 0.025774220152532227, -0.01212858822903735, 0.009693464591568059, 0.03745554022314584, 0.020338961797215064, -0.09122199302732414, -0.01272423186909923, -0.01194744653110337, 0.00615428115245076, -0.017290668005670987, 0.007301990377707658, -0.027840090424016466, 0.023775692458115106, 0.020480575885925383, -0.008314067224000066, -0.018099137850093115, 0.02802699364089039, -0.03510506724820373, -0.016613544109030525, -0.017603326817834764, -0.013788515524945078, -0.03691772982665182, -0.016491514947948593, -0.020088944587593013, -0.013121044136227502, 0.01652239446970892, 0.017774438022971416, -0.010286107496121842, 0.01600890566146709, -0.037795285899176634, -0.010593685698232996, -0.008045343794900446, -0.030929166490139683, 0.03250400115712406, 0.04250270637937683, 0.013184028684387717, 0.05334594192169979, -0.014513215956409165, -0.006440006353888799, 0.02623768098485649, -0.023340886268293105, -0.03880540814875298, 0.023534773911584934, 0.028738355280936562, 0.040863180310086, -0.004149052410467502, -0.06673971521050077, 0.05223674997755443, 0.062436426671778886, 0.016390320327491426, 0.023464093841328755, -0.030843973468658397, -0.024725853359670178, 0.03186617003168748, 0.012716456340939927, -0.010618403781064174, -0.0036579581409761875, 0.036348678717679495, 0.04280944203336599, -0.00943678636696622, -0.025068553708303676, 0.041645783402648955, -0.020989326362496202, -0.0803320653267459, -0.03792267376031209, 0.04563219891355575, 0.04672866177832913, 0.05730342865722617, 0.007793639194539106, -0.010532627353229088, 0.004536688008909532, -0.026954254368540678, 0.04263859770660277, -0.026787220919229995, 0.01268994394179713, 0.02412719832035821, -0.007047542713974749, 0.00790626796125569, -0.09258135385890706, 0.007010858566360962, 0.0027964134557671113, 0.03336232273311633, -0.01060172197897918, -0.02642233199398556, -0.05014859262780352, 0.0222339024572361, 0.013121633910007625, -0.033019433702216286, 0.0010255913332096517, 0.02223497772568636, -0.037695644271224404, 0.012636570663039482, 0.014802288591640667, -0.03545247012218778, -0.008124381712505391, -0.008887216802754417, 0.05021019353482259, 0.033585485473881155, 0.02182985276022575, 0.00650317137937936, -0.01931297708799399, -0.044556189858542775, 0.005693783680256329, 0.04647901498769439, -0.0372381930636348, 0.021282213144557076, 0.04215120722789661, -0.008783633696669317, -0.006738387703097474, 0.007193239625434418, 0.06378905092782064, 0.04232624752015176, -0.005965783248660171, -0.008408454710926057, 0.10880050294818568, 0.0007185179842675309, -0.04389439019875707, -0.010422430158379889, -0.06029696707364732, -6.32837466885113e-05, -0.002360706400893616, 0.055495992505134144, -0.03295584999755941, 0.03124096589501291, -0.032855519204529664, 0.010033207084960326, 0.06181728430126549, -0.051055586335206495, -0.025851880614126427, -0.03973445247470261, 0.02268083278849846, 0.016569781625821362, 0.0047417651315393786, -0.057394851078688, -0.03848612263142233, 0.018777744132314766, 0.031177693444305644, -0.029055330799160617, -0.05187118218579853, -0.024024881736552865, -0.023078467626627273, 0.02303947087545577, 0.014349059708582074, -0.04404727584030161, 0.016859358345403246, 0.01731795304630233, 0.01298245181030925, -0.012805752636647643, -0.027041572469794016, -0.034421595416680516, -0.00350198053556538, -0.017666166920585834, 0.0028052659590940654, -0.011824041370461207, 0.01608163676886099, 0.025144024777244332, 0.022873102728577937, -0.018106597678262403, 0.007139560880991909, -0.02565368309406409, 0.006198124001897422, 0.05268732914650926, 0.01570987658742827, 0.0024035288824402466, -0.019018154275845203, -0.00021119569179825156, 0.02685260807391437, -0.009910844723851717, -0.020170111989265552, -0.0025953379379608926, -0.003627187534724345, 0.02538100577811308, 0.010376427936494077, -0.005177131649881395, -0.012132077066389167, -0.040345458917479635, 0.01309629442594953, -0.017635343188559468, -0.018100541436404154, -0.015987524258746205, -0.049152562722311735, -0.0568786499064183, -0.05487787929385711, 0.02169957739810424, 0.03032269680404833, 0.05974166788801028, 0.08206496793321073, 0.0837960951955635, -0.03477877970774986, -0.0429064154317277, -0.049523108137028496, 0.025258860959353143, -0.0507571107419633, 0.03674272597367954, -0.009796219670079142, -0.029619764994740123, -0.03841974690541105, -0.060143562920066625, -0.030716568630546212, 0.018886432233125132, -0.011448069657054657, -0.03771070073697981, 0.06157909912611845, 0.011982487761841543, 0.020445139334917904, -0.0008701218713672763, 0.014626895883437466, 0.07131833060037635, -0.003403257545232057, -0.0035481573634540287, 0.0979435053910999, -0.018684388760733205, -0.05591911969204789, 0.0026128540868568207, 0.02678434835051966, 0.03630005283937502, -0.04294215361960371, 0.02220130366223903, 0.06111930743462695, 0.04183228966002732, -0.009420010926469834, 0.04509380398437235, 0.023675302570762433, 0.06453731535351165, 0.0134188386425235, 0.015356758349208098, -0.05274074338701219, 0.023241763381293995, 0.023480796331375647, 0.0706495832536988, -0.020721363895336513, 0.003300092110560013, -0.011093340115933806, 0.003913517081738054, -0.0723644829776188, 0.03478084631512513, 0.016185347280949076, -0.029885827314950947, 0.04552196341014277, -0.045492367196837684, 0.04437367399752494, 0.049999438269626315, 0.03938316088921824, 0.017094899189298747, -0.05039632995213566, -0.03490234419381728, -0.010656073497587779, -0.009140185567519547, 0.004434413188057572, -0.009381644980878229, -0.02883749901662139, 0.00546214061333969, -0.02091413230463955, 0.0033321051339887924, 0.00018268449742127066, 0.04561341449351461, -0.01134569714146077, -0.037210206979618195, -0.0386405659342752, 0.017723160992045562, 0.03844660672079254, 0.002706876713515551, -0.0016842056380524126, 0.02256935253311178, -0.01150882012858327, -0.045247972084606, 0.047821880137198035], [-0.027481084090546653, 0.021972891764416577, -0.007817146384479657, -0.029847977894712312, -0.02259303390566206, -0.04982421343969363, -0.02023514254693747, -0.00995781335558014, 0.0008307646873381292, -0.01476479591925712, 0.040060295520184926, -0.017544372334087593, -0.02515295035520642, 0.014049164671466585, -0.029319175464422184, -0.04420725134926026, -0.017780556809648945, -0.06840044887003573, -4.601045101214721e-06, -0.025675918593748983, 0.02121558567454571, 0.015126497025463991, -0.009478447531259452, -0.00020078043120717585, -0.004770623636882867, 0.02021855214725964, 0.016752435720740165, 0.013856681204589485, -0.01898452307188595, -0.047570946714365896, 0.04164114513916913, -0.003950559170307718, 0.004817460023947971, -0.0030856073280869363, -0.00447537693948734, -0.025497930050740903, 0.033473169633323946, 0.06385213404661863, -0.0006699460720909497, -0.061400418976308296, 0.0010134045407154428, 0.036559816872707734, -0.002266646356104014, -0.11343724353457656, 0.006877097134821588, 0.00919631035286292, -0.018753426917025768, 0.04019866300045097, -0.038658292841573294, 0.024249066036929987, 0.016681893849003055, 0.024920175273896884, 0.02710667814739025, 0.029831996607639, 0.07331834606175484, -0.006630415053085492, 0.03449322055632957, -0.006052083301942393, -0.013293577209653845, 0.004459810814471811, 0.031919995091063795, 0.042898628405275196, 0.020390708822559826, 0.04389801518231855, -0.023676371515271993, -0.03563549299027089, -0.02692896640975635, -0.0005690676497388959, -0.019239521309869875, 0.015201976256048263, 0.0029725571583780735, 0.005198287973718294, -0.019360342397725373, 0.026978397602349928, 0.06339578499221996, -0.015414883419081255, 0.03451155888334074, -0.0440111642978713, 0.03331221770498467, 0.03327659989466457, -0.025869378866587505, 0.06549590818143991, -0.05740737685457098, 0.018452138154918606, -0.007954938458623802, 0.03903979835440139, 0.023459625036092998, 0.004488797248545234, -0.006539634193913828, 0.024013371179647216, 0.004159681241523018, 0.004273007008907144, 0.06039118429681737, 0.0028644677520910573, -0.033143475335878886, -0.01432746725172149, -0.0034152778568956707, -0.03419259962344089, -0.0685161850791559, 0.032654354570045833, 0.03908361846198038, 0.04132263533637907, 0.026394540603483597, -0.02298387763483659, 0.018964211243757613, -0.012923762290418594, 0.008552787399305824, -0.007579613120038888, -0.057903336799589096, -0.02649517888030562, 0.000441006779518988, 0.030807744351908473, -0.04726463203888757, 0.05481042001588989, 0.001334850623648743, -0.04658997204257381, -0.015571252322272057, 0.03994612346242411, 0.01523247022209114, 0.0401164060888455, -0.012314812193429602, -0.04009368927079737, 0.01897958992217098, 0.0012905873836027242, 0.052207115225325104, 0.04060624597459064, -0.02361806627380534, 0.041303530160863, 0.035526545941165145, -0.003005210950008192, -0.02898197445834942, 0.008597242359983706, 0.030608463773246608, -0.02992015495124255, 0.012795883976341871, 0.04193861397624803, 0.039861260920873706, 0.08537762908145359, -0.01951552570673212, -0.05137051573317713, -0.02558068409764686, -0.04768596489933617, -0.046839936152637575, -0.007507909595020424, -0.047284137522551305, -0.06990570065777216, -0.04870986012985928, 0.0453904921814125, 0.020533203645967082, 0.08232628712852269, 0.052202872028859246, 0.04378329132252136, 0.002413110608867532, 0.03162861058384676, 0.012659387354883473, -0.08104331123651157, -0.016532257208997855, -0.042973112760379496, -0.05275124774957103, 0.019939827390328044, 0.01964793376741489, 0.07735303398363165, -0.03854932194361852, -0.011987722454255717, 0.014831040335530964, 0.00909435460354722, -0.008553635805662698, -0.013551166030137788, -0.07055834538015798, -0.0250270908124069, -0.0467954622952666, 0.06817246772670432, 0.046526230406966886, 0.06783355066762281, 0.03789327589311567, -0.03703410563444121, -0.03392843502565143, 0.03606594981223586, -0.0024042420242215753, 0.03542108310514988, -0.06036730965461726, 0.015029311127227767, -0.019986301994773643, -0.06427612418493926, -0.03777979038661602, -0.006022740001613839, -0.013488827044578816, -0.03319231792293925, 0.12230171326342756, 0.011867311996213433, 0.014977051389815378, -0.05372104222716897, 0.059360975319490326, -0.017425479959392455, -0.0438526159832965, 0.018105594282959943, 0.02995713852698678, -0.0016260437151139784, 0.01034730130059833, -0.003381893110140692, -0.037848630794083266, -0.020792822969428564, -0.009981780031968684, -0.02938120408970046, 0.03908455206088245, -0.032273581146938006, 0.031136297093465014, -0.05717742370165473, 0.027231530141897782, -0.010079869320639583, -0.015771381547307936, 0.0019103362955838034, -0.006129312263046527, 0.0021648607991110714, -0.020786098510932823, 0.03394273250933233, 0.0030278425429071253, -9.148521804900713e-06, -0.06099373100093676, -0.00848836897325007, 0.05169217210594651, 0.0460766835894398, -0.0022227097939797585, -0.0021648297775755778, -0.07272728397560788, -0.003740665785757894, 0.02151027075850206, -0.0018684781507600555, -0.022383930945452414, 0.04822530097982823, 0.0010168030762102095, -0.03138855934907615, -0.008772322760690395, -0.014083765246720545, -0.0013367826269286172, 0.012299393512886768, -0.004674411263618037, 0.020454995969818156, -0.07296859796088515, 0.021908341798690337, -0.027067242395520084, 0.001807918332689699, 0.029381117406913054, -0.04550206248804002, -0.015911413198452348, 0.009397272473941228, -0.07467828820183442, 0.0007595039226024972, 0.012969561573056121, 0.02699172544675379, -0.046198225865571804, -0.01971709607071967, -0.003274256512438456, 0.0027398232635854765, -0.0027039266785578737, -0.017168738471766903, 0.017090102881786185, -0.017413347391772745, -0.020523899225498188, 0.0068415358506340165, -0.033576602056915754, 0.040146835372090135, -0.0267066777764986, 0.028513821325097197, 0.0302944574659543, -0.01490495448187189, -0.023371546737258057, -0.0353538663435392, -0.02138247105070441, -0.005218797128812256, -0.030639293924040596, 0.04170680280475217, 0.08678037698262916, 0.0002145007856704311, -0.0448105840753539, 0.0076635557108647645, -0.013554198142327323, -0.002952693485890737, -0.04097931503543146, 0.05405066640516102, 0.019662518943258326, 0.050343202492478874, -0.009548560162232104, 0.03156770363080876, 0.04775218013646567, -0.004956396952878556, -0.02965351511736356, 0.036841697453236955, -0.01763382184939737, -0.0021831319352250897, -0.019718678435953253, 0.06579190126225859, 0.018589285330469604, -0.014424941250689684, -0.008765567785646569, 0.03227211812172779, 0.027563335870676043, 0.07216871136850428, -0.021069472260080664, 0.04243729185877752, -0.02053859768664918, -0.050533626979688516, 0.002589074465773251, -0.003217925630867237, -0.01778729409409167, -0.011418283021181185, 0.012231862292409166, 0.017996186294614296, -0.011305044419203209, 0.027983282949135695, 0.037653708744173724, 0.01966427096453164, -0.0063544613460746685, 0.03166521023511883, -0.011303721474831994, 0.023541247787807085, -0.004236356262823566, 0.037232868562902005, 0.0075003195874280455, -0.04995473124422987, 0.02939295175748464, -0.0005395183272666786, 0.07463142705631351, -0.09184029149743062, -0.04142005492811234, -0.031483524278471134, 0.04202498432659113, 0.005746410243692554, -0.023862069877594372, 0.024989782830854835, 0.03603193202444324, -0.04121459781572881, 0.02927613096673453, -0.050331095998401375, -0.019114447057792673, 0.022944655038085057, 0.028701242916200857, -0.05537203240781142, 0.02500784769536769, -0.021371282084041206, -0.07155804520629351, -0.037719826287221564, 0.02753697185363648, 0.026195207743055764, -0.0013365223903010668, 0.0069226569535697025, -0.039455334574635605, 0.07501457375122854, -0.052205817025689875, 0.05930151399194913, 0.1160082650728432, 0.005003315110853466, 0.0171347644424642, -0.04510632787523605, -0.017650366004228698, -0.00252649288972998, 0.009506826052166259, 0.0043222108585173, -0.04598652657278261, -0.035237664159847915, -0.026395306465054186, 0.0012067584449126547, 0.05613300270927697, -0.03291466136086444, -0.0054851579838929646, 0.05396903224286534, -0.0032675958406169605, 0.006985241216140204, 0.025921708480552294, -0.03589129795873095, -0.02530257235717631, 0.08450718819065087, 0.022209475131967468, -0.030520162385116394, -0.06406519721431256, 0.0272944627991669, 0.01880615048754081, -0.020050843710486748, 0.08161354759652217, -0.008998947371262469, 0.033380175399310354, 0.06731958472520681, -0.04554377115978215, -0.06777269242273734, -0.02546988740529371, -0.043060419417936285, 0.027245876205279414, -0.05729056969248012, -0.06320716285857501, 0.030193553167197778, -0.07485990192624796, 0.0431184311535805, 0.03744306928094932, -0.014061439584350624, 0.0017514058044263356, 0.02000637467098527, -0.0263502933167958, 0.013229912601122404, 0.04919009810198276, -0.0421034245704998, -0.03617035595921266, -0.03635905523513441, -0.09164338427818468, 0.0736095666033067, 9.239308000753506e-05, 0.0008993480920563122, 0.03299643886194753, 0.010206026239922245, 0.04867759744916837, 0.021855043407977497, -0.022332691256443545, 0.01769320710520035, -0.015828640393554975, -0.08796769306818272, -0.047122346005121156, -0.01960048400320133, -0.005533587562804743, 0.001233812356287566, 0.011752710765842092, -0.03901277501275974, 0.014774722507752022, -0.09284595125949086, 0.009544870629769088, 0.0274857262420913, -0.024068436455581543, -0.045441528121443475, -0.01591587386512491, 0.006246949848031229, -0.039742548377924014, -0.031043742395444832, -0.04149120216008545, -0.0755434923475564, 0.020128085307650433, -0.07578632576091496, -0.04144370658180157, -0.055119470098754814, 0.048508858407146555, -0.039207999291830574, -0.03751550393142924, 0.011494649723272576, -0.02962453391319977, 0.05363965386891095, 0.009891662494379241, -0.028411202232977547, 0.035939465425211196, -0.004786017963570462, -0.0284235012192608, -0.008091203328750846, 0.040383577533237736, 0.011909203433272205, -0.05567568891431934, -0.02173269361575879, -0.0037987650394183474, -0.020853368760584697, -0.025454062765725163, -0.021044900086869895, 0.03102325582622224, 0.042267917300208624, 0.05085228784344423, -0.0033621847887433786, 0.02003996480131974, 0.07688288127296485, 0.03390386224310374, 0.014991891074408854, -0.01376385218033023, 0.043310199696457385, -0.06015765347075799, 0.05264838609193847, 0.004160692960368162, 0.05974856612756742, 0.009872712148494448, 0.013560646316774424, -0.03861923315622151, 0.032928153212214775, 0.05957988675056786, -0.011316139628252172, 0.020793514024393146, 0.03834900809976351, 0.023347914101273466, -0.027953426411854457, 0.028842737985686675, -0.03237319168351749, 0.02657126351455052, -0.049159238945626224, -0.006662125886650141, 0.0335513297970689, 0.031024733373336923, -0.010159305646799614, -0.029829157250192386, 0.018342693932182255, -0.023870262053219488, -0.022989692726973612, 0.013159891702137173, 0.003294125547834792, -0.0252063121411685, -0.061525848443495755, -0.027710261697748116, 0.026892305555782946, 0.04622543872850929, -0.08363220835630988, -0.05792050910413413, 0.08221320393585695, 0.038476762928146925, -0.031603774619867346, 0.04190226271583717, -0.030407137140689832, 0.013973962002124054, -0.04178932634662407, 0.04167200997664837, -0.02327455356197564, -0.04251066970448424, 0.0018398965704641873, 0.022421679067005318, -0.01732710095939406, -0.007535178661186814, -0.004632455933332158, 0.04614046597493292, 0.02472633661337146, -0.007925494747097252, -0.025372551647973255, -0.014507388002746447, 0.0063331724629015805, -0.03416517034362829, -0.00014087944335296874, 0.03627789641900086, -0.0029959137113137373, -0.00943784174291857, -0.0323242052309492, 0.027822428869900957, 0.029034540472897188, -0.03593305742801117, -0.04449928157802547, -0.0034758082843947356, -0.023670330236759386, -0.014567814437471568, -0.055378050095997944, -0.009249545715322235, 0.011248702007129678, 0.01749297858408331, -0.020901128608716305, -0.04654903358340509, -0.012629940238972587, 0.049119676041405935, 0.05668212582254506, 0.014146375355078719, 0.01166474536679178, 0.02187628920325898, -0.055832541731802854, -0.005979867708271692, -0.043467291299144215, 0.014798512352926741, 0.048160137652647844, 0.006092565320934664, -0.02462184517630467, 0.01980722916315304, 0.03535754334920458, 0.12329905368972804, 0.05674606755673722, -0.01210945544067071, 0.03200288327088932, 0.014451698722205069, 0.006133297133712386, -0.008623113475247848, -0.04083402007864892, -0.06590321267151694, 0.01628975117487826, 0.04606485855960034, -0.030296511372766156, -0.025624996884786824, -0.0029062418016208885, 0.014954169878221337, -0.006380653459400366, -0.037975211986135335, -0.03859501527254776, -0.03988602817581725, 0.029161356404280706, -0.04222159163734943, 0.013391084989400436, 0.039612233532113496, -0.06503298196740294, 0.02168555149981286, -0.0284113859732702, -0.012394886651644024, 0.018111627596640433, 0.07562851370196234, -0.033674472240966216, 0.02484840167371299, 0.04749520364305711, -0.0036781671177406956, -0.037872743653564564, 0.0038489848198154067, 0.03703626404093854, -0.005858916738005201, 0.01607742602921894, -0.0049021573129188365, -0.06832646680008228, -0.029110875209089657, -0.02862478572357873, 0.005127006140000785, 0.013366437063133788, 0.02747574408232428, 0.012547149368478382, 0.017327722382765566, 0.05687805076431082, -0.031137977908289042, -0.011269764411165189, 0.08405965568557647, 0.045195107148402774, -0.013147365357497963, 0.031383321155484936, -0.03175046501897673, -0.02491453846646666, 0.01775609106768329, 0.021440758643194047, -0.003754706705617499, -0.007907292763486728, 0.03392425884809609, -0.04976028825951295, -0.019301741607273708, -0.024301112098727422, 0.02061303481657804, 0.003547179679810885, 0.04016865242557526, -0.057212505424657625, -0.04548175657492768, 0.03748712066520018, -0.032423871459675825, -0.048366561449352044, 0.003413538644098339, -0.0201397858596181, 0.014904999455153922, -0.02979268029501136, -0.01943246548138664, 0.05247416238355325, -0.0066712678379162275, -0.02279333563662263, -0.06743896226577069, -0.038246130523471124, 0.009904675297529777, -0.046826834070598476, 0.05022035167357725, 0.01454627486560721, -0.02825279121397567, 0.007835649259208011, -0.014011545867559065, 0.04951275712057797, -0.022203280528299014, 0.014164165202894688, -0.010282910504784264, 0.03531984189411241, -0.03855678627829459, -0.033967158855632826, -0.03855318149069857, -0.012552692464497379, 0.00757210105420185, -0.08074533738267524, 0.003046283141559534, 0.010467871744793454, -0.0031155323547574104, 0.004159647509189888, 0.017390773815669874, -0.04159629041610231, -0.02290531504330984, -0.004849396692184367, -0.006311643984353189, -0.07157144638469103, -0.036224234228642134, 0.04723374949571402, 0.04050621559817737, 0.03690602781944082, -0.041089362106400656, -0.01448746705893641, -0.021974569139286877, 0.012143837678389936, -0.07434234193393592, -0.005688713289747547, -0.04497567055371162, -0.015059183503964756, 0.015489068996726989, -0.020453700352619605, 0.036189124895938236, -0.022477106388422246, -0.03832039258304001, 0.014987657835078275, -0.0248223227900041, 0.016500430290915788, 0.022564397656033908, -0.06273735981556187, -0.07966622333301364, -0.07989346274989222, -0.024894426211702285, -0.007895213978631821, -0.06186409526845148, -0.008124123636386395, -0.0052024433689299935, -0.0017961806651592197, 0.030260159840917424, 0.020258895404184275, -0.053925075739730294, 0.05647134815266874, -0.0009290814096116994, 0.0007507083413795625, -0.027512498056838457, 0.013358724192607922, 0.0415137233785012, 0.002653017910533697, 0.018448992699219367, -0.011632345101695368, 0.04666423464174751, 0.03707572633278295, 0.06030461730115031, 0.013174845622454672, -0.018227099098170132, 0.013198596313801422, 0.003113216881502737, -0.0504703499723863, 0.051103273873000794, -0.006831171735011391, 0.007858767290812755, 0.022363883484604618, -0.009221245076636596, 0.02399038671387073, 0.0015355743364845503, -0.030022308729322853, 0.024991073379451625, -0.0194294079800173, 0.0480907155361293, -0.03905294236049678, -0.005886737195424057, 0.02106657413363331, 0.033994544306568356, -0.012838500831088378, 0.0058997054155063, -0.045760570026038276, -0.001846003485764027, -0.03433485510709664, -0.01390259454805871, 0.0494940969614245, 0.014611356645750579, 0.004370721310992242, 0.031653748715673, 0.016714060232040032, -0.00206653679574715, 0.039360786318196575, -0.05140981032966682, -0.06000678460921834, -0.012581545305101693, -0.0677859288676993, 0.025513848900450678, 0.03785872814537787, 0.03202975184702943, -0.01136216236540882, 0.013591492107757898, -0.05225176751832661, 0.02395878366328601, 0.053581115746301644, 0.07855958254571324, -0.019464494813488768, 0.03629998017007067, -0.028791215255661768, -0.050383469911495664, -0.030384179991567197, -0.04907174416222544, 0.07919926980149201, 0.016329409173021253, -0.0532136124707102, -0.058249250004000726, -0.0206233150956207, 0.03503866310101341, -0.06159487126198136, 0.012986969479018642, 0.014326391781118091, -0.02924922115469861, 0.056618866735307534, 0.05421835242743645, -0.01732449003960684, -0.051997492597537644, 0.029337368896919264, -0.015632690265862805, 0.017042744735173827, -0.001267015043237188, -0.0008089228977527883, 0.02640616769964576, 0.004073623138711639], [0.025243316761750994, 0.004162671817294969, 0.022306236931037695, 0.023768148695834167, -0.008734168526433753, 0.007242393082188223, 0.016591895001842445, 0.04621685886186146, 0.04824771405859397, 0.020459049222219944, 0.025360587981433227, -0.014794984395324489, 0.008738937268951774, 0.012785368535422812, -0.02371792773354896, 0.024965997893860583, 0.01256813485086697, 0.01116829880572442, 0.003501600430674806, 0.014657700684552747, -0.008915867973690551, 0.01602813771797816, -0.018924732221841437, -0.0005616042221237465, -0.012121559644190955, -0.02797363181110764, -0.02202563619012043, 0.03823562571440743, 0.03616375185786053, -0.00854445345721121, 0.0746079330358692, 0.026543454065923677, -0.012413621488376186, 0.037396724901902614, -0.05510062931509587, 0.011242913780205154, 0.04591671333547496, -0.046805127949914524, -0.021984795351491924, 0.0030989999171056122, -0.006484310360854037, -0.07036182896063825, 0.033349074388197134, 0.0423181626414732, 0.004731114240388644, -0.0712010975321777, -0.06305235791884904, -0.02605403931354115, -0.008358234647395038, -0.004288170115275916, -0.0814818121068811, 0.017968896957225342, 0.028495273570408566, 0.06368382276349242, -0.008866588309813597, -0.041212791985654064, 0.0012717485217547638, -0.007004194946597167, -0.013419663496700157, -0.02601494368798735, -0.009709268429464301, -0.012934782881208234, 0.014110453035694621, -0.07127599021808934, 0.035243814820124175, -0.053257387765102415, -0.013615096756708857, 0.0381796348163817, -0.015397082998611042, -0.034033218196833866, 0.027294801450253318, 0.04040879504132022, 0.08397337395638975, -0.019520114060765457, -0.011343638300406321, 0.015421949894473897, -0.0025828009223516604, 0.06641735351601372, -0.002375449257323696, 0.003359608859519415, -0.0023788941726490937, 0.05763544627437807, -0.029458323595100176, 0.010263713851215061, 0.0679720869596856, 0.02411528900631039, -0.07272587771601596, -0.02711391676114692, 0.0046286274713674075, -0.014812118440607562, -0.004520756260931886, 0.03749976321118756, -0.015224349599375487, -0.03410194150073985, 0.0247958016897885, -0.0063364215353913685, 0.021871765493967663, -0.039876836599237374, 0.04540171632136782, 0.0226662968784122, -0.03854479932442208, 0.00952722038615042, 0.04605572029362521, 0.0709210243826774, 0.09552461982889625, -0.00393795885757839, 0.018369159583705393, -0.025658183576220087, -0.014454397179356681, -0.00378939992923053, -0.02408479336622113, 0.014851658173053313, 0.01630392903807249, 0.03388639380438872, -0.01346114244372158, 0.0002844936269642915, -0.007055384448275212, 0.05837324729819371, -0.006497343491546225, 0.0516464180394065, -0.0012951988203631498, -0.014498458015154564, -0.054937867954139886, 0.011433184534639285, -0.020711036628663613, -0.08570118135369088, 0.018149192244463947, 0.03449679770970536, 0.02307097220662821, 0.05532546780225702, -0.02642165142516739, 0.01894064558553037, -0.023116629256119087, 0.003503013753080589, -0.023261583711684474, 0.031783906049540074, -0.03332137165455958, 0.03704815138397504, -0.024606756702598324, 0.028975106658106767, -0.018629122636201163, -0.04646200457221113, -0.028702752176554276, 0.04068063876739127, -0.07009493043792937, -0.03167781691433031, -0.02336711841654796, -0.036840042067239405, 0.06829552362019572, -0.03827784605471045, -0.05265294468570921, -0.09297665049923409, 0.007107205204381144, 0.0426788948430284, -0.03664721568325421, 0.01382589469441123, -0.05825773981217849, 0.0033761511066519993, 0.0013869457376532335, 0.02026666890264978, -0.07218027349409324, 0.014742441592814542, -0.006623953993731338, 0.01584274397931353, -0.016783261200209093, 0.030507986064472692, 0.02324617536603191, -0.02921994571314066, 0.05538664090085143, 0.012834384910219288, -0.002131172704779506, 0.015116747625569983, -0.09875985917769053, 0.005381252599104377, -0.05039336671035329, -0.05292376013978915, 0.0905216962984817, 0.03339729145407409, 0.03657197031078818, 0.03680648197642212, 0.07408102315352241, 0.01056329257290736, 0.0064758638532137446, -0.0008049146460540347, 0.03395168613227536, 0.02224467418692298, -0.028241674805891855, 0.05993719479692229, 0.02360715350293024, 0.017248653649429298, 0.01671592325377444, 0.01621610816545531, -0.03890200937657608, -0.022015823479601286, -0.038979499531460245, -0.06820061936164008, 0.025306820431892973, 0.019008076442257143, 0.01179843535567796, 0.01575847994180947, -0.04793339070020617, 0.023729085681003428, -0.005363398092330705, 0.023538369160222172, 0.04022831757190806, -0.020812855908490645, 0.0036376925776284413, -0.020943137030033775, -0.0002453798743671342, 0.007866387472787, -0.009541201957816966, 0.06528876612209757, -0.002284467654708313, 0.048076147280736774, 0.01817648324547978, -0.0004465638654596055, -0.019208865171315113, -0.030050452217906712, -0.0657506162873858, -0.024789901210098303, -0.026214129178197727, 0.015005952342075793, -0.00969087372519682, 0.044729154138559137, -0.018708888342682653, 0.032793418260157, -0.027478926071426872, 0.05412672628637817, 0.017143193051315786, -0.027905719914864013, -0.026813124357887845, 0.030736597720574525, -0.027781384178772413, 0.038657968960647965, 0.03405861759641117, 0.07738417180712483, -0.030892023951165675, 0.021461048713110234, -0.0015842897214279757, 0.060955803681280556, 0.0301135855305303, -0.012643897635934702, -0.023366368224603286, 0.004837196907864271, 0.011584522652143278, -0.0031699786094736737, -0.008072010207404121, 0.02781326818795122, -0.056350193409600235, 0.030790880935649276, -0.008777293386668952, -0.019896761804461125, -0.0016725988839158938, -0.05290371996405438, -0.02631574465577673, 0.013733098848235328, 0.03518203166013029, 0.038427893516651615, 0.005932626282482404, 0.01269572938434782, -0.02502409848668989, -0.06021287253241746, 0.012494458201528395, 0.03711045418635435, -0.023867997481696806, 0.002595442973920769, 0.01750939474427779, -0.02333237789643336, 0.009274005866913872, -0.007954508928542256, -0.029215934926210847, 0.02473401000198087, -0.03344648790859548, -0.03468971972839958, 0.03949085936545851, -0.06483241759545166, -0.01283257006460206, 0.04973659677090649, -0.04810363325906547, 0.04629179740780895, 0.005950988310211664, 0.013750186322464589, -0.025829920823091764, 0.061955877748340334, 0.05079302993944801, 0.06683357943664432, 0.058103401457131644, 0.04430565460545743, 0.017738471237256546, -0.03980121126587503, 0.06506980607089156, -0.010025632086708642, -0.004407956476168797, 0.01407028488212533, -0.07388282529733022, 0.03105002768679919, 0.035488765968313886, -0.007834892916388092, -0.008758196839231918, 0.07621594336947374, -0.02320451799298609, -0.02142847860357445, -8.187321450733939e-05, -0.00806869047652767, 0.036572988916543814, -0.039977860572516864, -0.004563193327645752, -0.005594567129892612, 0.09635381688879233, 0.06127639203969913, 0.010249290007791068, -0.01803057897777343, 0.009036736744585312, 0.03832179074152408, -0.09779777664474533, -0.010760828381232912, -0.03666753442131621, 0.013647331248624392, -0.013804310799452305, 0.021000327863448843, 0.06353594359811972, -0.02071610888304932, -0.050397772058250426, -0.04239922758694823, 0.007854920198879864, 0.00967619874600544, 0.039748745387808794, 0.027776521195276474, -0.002129075865036206, -0.002235696269686907, -0.0006868858052710883, -0.010166052574262386, 0.014387938279565386, 0.023666891437545187, 0.018504721085814566, 0.0014862363488781947, -0.051579743139755885, 0.021946547288273985, -0.024158044883179047, -0.051431938807937574, 0.03537306770890857, 0.012490669550261266, 0.001351028343602955, 0.03246254831792532, -0.048070425058183756, 0.026756106680145345, 0.014816573202713517, 0.018626180150814586, 0.020545260609399336, 0.038125593628470233, -0.027266568291179478, -0.009379240920988852, -0.02022496394574881, 0.028262654015064313, -0.005821199857246456, 0.002839677148465175, -0.10680590082417607, 0.0455751726146709, -0.005691287397537357, -0.014256452633418185, -0.03258121808770003, -0.08376988486986076, -0.06920189245286318, 0.02147233503061723, 0.04583085549655029, -0.04469867008904044, -0.024772946828199027, -0.001564418138007599, 0.04482851720535374, 0.029828184989941723, 0.024029944228851137, 0.04090852213872247, -0.052684164537035394, 0.0077250794208331254, -0.03497411256115146, -0.02450863285652698, -0.06371704905637898, -0.0025139462311359237, 0.019276067882987212, -0.056505107467951114, 0.06556879157142238, -0.006532595228035464, -0.03269914288386617, 0.016077785838359126, 0.01955432729493026, -0.01700457808011691, 0.006278266473757788, 0.08567835103887132, -0.027292145564523942, -0.019201311871157624, 0.04539055127543718, -0.037718923348953486, 0.02821347677723411, -0.02131094556801826, 0.019014171609281094, 0.024893577042761884, 0.0010116002945814051, -0.03999560389939548, -0.015524825105794839, 0.01344629633018961, -0.024701954802175956, -0.005254268634346294, -0.0035478289515565565, 0.017441254525393034, -0.034897521582921316, -0.014311920103230302, 0.030467955290631576, 0.04950667000088127, 0.03397835993085967, -0.02448852995166844, 0.016194189668553946, 0.008363711813453311, 0.024368682127627016, -0.010359866198264457, 0.022467520057633125, 0.05962011728611544, -0.0057707871095632485, -0.008116619345322472, 0.0038419559814615884, -0.062465618496384955, -0.02949943467010957, -0.02546413517596035, 0.0071004355967018064, 0.05330785218088592, 0.01104930955088352, 0.01873000946332794, 0.08631766936860255, 0.045225283034638165, -0.009708477627643911, 0.0273071378701697, 0.008976040861192403, 0.02818201405698246, -0.004496490902647556, -0.0011643842868649644, 0.006831675145180286, 0.035591411491962266, 0.04340830041762475, -0.0036443399701847905, -0.01138453137146402, -0.006832208601176259, -0.01154951186343687, 0.04410222518406248, -0.039439021955761176, 0.0457674045600606, 0.014848499168449492, -0.0030083928652180182, 0.05802593809394372, -0.005041252649724928, -0.014504957581084891, 0.014690545382524805, 0.08819761373285447, 0.0027986365880356898, -0.01716687445962944, -0.05218480983278245, -0.020947483630758407, 0.052866844683560864, 0.006601634254014709, -0.01945153026313274, -0.04575654532042225, -0.017664348685762377, -0.018673076596399014, -0.003913031801477863, -0.119672226089971, -0.02028871445644438, 0.03277571212591989, -0.007022307364778257, 0.09057650622610704, -0.0194743570493749, -0.03298925918394736, 0.012564073941665935, -0.07207188193195545, 0.03546843193058058, 0.014196774840413654, 0.015747982126769887, 0.037363712577970803, -0.018155292447239842, 0.020562733764399092, 0.03090797096485578, -0.023093215056913592, -0.00028380275635025184, 0.04245236084992244, -0.016953583389999142, 0.03839312445518421, -0.006852158837925152, -0.04451098372934356, -0.018172195570735305, 0.011946792868435963, -0.04228464333685133, 0.0030468356923139027, 0.051204732894526116, -0.02249478887368195, 0.06616947921704851, 0.05333226492749008, 0.022266837550165123, 0.016086818320185367, -0.06945352220253849, -0.05014454024148024, -0.005125801971416871, -0.02619341705500637, 0.011452309764340854, -0.007138931499943926, 0.0716692714329742, 0.008495548062737638, -0.011794764191111742, 0.047246995605813476, 0.012263991297927924, -0.03563900636516491, -0.017187639093010375, 0.00389853531986139, 0.05183236942273006, 0.010435253481230177, 0.010630842517194093, 0.06736179922306469, -0.024222879874799572, -0.026054889765207583, 0.03183516325166864, 0.03334763892209837, 0.06782739573871255, 0.0037872454367666704, -0.009203276534099513, -0.019501339911899795, -0.030907071660714946, -0.006091790265938661, 0.04955557187415302, 0.02687180452117081, -0.03217109712324748, -0.013982881800132184, -0.06623190315955367, -0.04865097472738922, 0.0008152025443355552, 0.04508674557700861, -0.03917545872350977, -0.030600801098404743, 0.028240707971559174, -0.03278029146069061, -0.024493524567744, -0.07467772061493066, -0.021834334309840563, -0.05743311198644985, 0.01120720004706739, 0.029175419436343424, -0.029083286976094462, 0.0024703553480813936, -0.03900216845581328, -0.03651244433158001, 0.01773610904324652, 0.09065179101280516, 0.013093502707550334, 0.03711751148975006, 0.062169824131982465, 0.012131620040819172, -0.030256213536347873, -0.005627558349797445, 0.036933864947224795, 0.031043357860899894, 0.027369219752623467, -0.002783622851127547, -0.08508168805475526, -0.0272430298087985, 0.021353415561303744, 0.010558033694216122, -0.015203280217942136, -0.0015670282825898975, 0.07091380536450509, 0.0077462914824643235, 0.04596009383687003, 0.03289613333330599, 0.04874647387512503, 0.046662025015496746, 0.00314753756103026, -0.0658117737292824, -0.03539983294727917, 0.003497156262874356, -0.010983709946694472, -0.014538372680624596, 0.034541224985698234, 0.026877993529836764, 0.04859718611469008, -0.04260486692491306, -0.025744200396441198, -0.019774790857054952, -0.0016055016126546885, -0.017877652325121212, 0.054469442103764046, 0.007232585579708647, 0.03564818335231552, -0.0159051856963863, 0.008918035494605831, -0.013408758712500381, 0.014463195150968373, 0.01776218693452474, -0.04149362389840862, 0.09310138568939384, 0.027046398035202236, 0.028481660816150906, -0.0003137839305870336, 0.045593537341108, -0.007705970659299591, -0.014064721267443871, 0.013402891470515947, -0.029514269504461458, -0.025374899974781717, -0.018914237233379233, 0.01219621596802473, 0.0222718749253633, 0.003954637830471357, -0.012229171274782872, 0.010602645865411785, 0.01963357531421279, -0.039858360295499246, 0.010769866084607978, 0.0031533820664679775, 0.04043023008031877, 0.004594910873875185, 0.031119138756556808, 0.043022215823333834, 0.018293526544576617, 0.02226358491463154, 0.007516222292344681, -0.04429790155576801, -0.02550793179667748, -0.03521354554628998, 0.012555467071261957, -0.015812150559856887, 0.032316648560738744, -0.0050369137414800974, 0.046885776861785994, -0.03612720046234663, -0.02823431083022333, -0.00011778748017706973, 0.08097636515289258, 0.057988645389339885, 0.001040261857510893, -0.004709617938159196, -0.016329081812288388, 0.021489617610733106, -0.03289206289255293, -0.0024149273109987605, 0.0013878601948743147, -0.04917485190744317, -0.01761336916807955, -0.010243509076935428, -0.04551788396111601, -0.013543640282173423, 0.0455010511981348, 0.07684481620610546, 0.05464241727925384, -0.02824977869929196, 0.021756202183331005, 0.017734387178765895, 0.017350626197841345, -0.05019840615477308, -0.020588365529125525, -0.0027318695085486863, 0.055884761728425505, 0.01403237752733106, 0.0596257566727915, 0.01609275353551825, -0.04906097252255638, 0.027109643091403512, 0.005082724426891245, 0.00409945824644882, -0.005774381551775351, 0.05476637917011268, 0.014906266671297505, -0.009572723356074524, -0.0345981783310566, -0.01107907932456171, -0.043934088766711704, -0.007774759964089895, -0.013522076053515417, -0.031068704083014962, -0.01893383572241169, -0.020493035332063685, 0.05211840607454346, 0.04976669325041216, 0.056580042313422584, -0.01102667923330705, -0.043739792970663514, 0.01152021455373949, 0.002423540096447686, 0.033444307089108595, -0.014161758466396475, 0.04214802337787471, -0.00275619241489063, 0.004523613921511098, -0.010276896828824508, -0.00025549082947632826, -0.03987459947534881, 0.05404530265440463, -0.02777072082544191, 0.018886836102209984, -0.018654470431170005, 0.009096781824024364, 0.009991724007037772, 0.04331437819031428, 0.0009879957024248054, -0.027512582651958897, 0.02912893771135976, 0.0121963520636591, 0.03547296790395031, 0.04043474934953274, 0.041366880024958766, 0.001583967463042249, 0.05806067708706005, 0.015584197641983667, 0.025978912778931135, -0.0053103536078208105, 0.022519379149647783, -0.026671005087164343, -0.006366314017658142, -0.0005850177776194236, -0.05705557822877375, 0.04259287122886968, 0.044100786887102526, -0.016014790042343678, 0.03471235383467036, -0.04008281030242278, 0.02116899493118425, -0.013607874923661997, 0.0067266620216219035, -0.008555888365220936, -0.026678360680626376, 0.08439402893854413, 0.034180650216512676, -0.025661861856921174, -0.034160942787200284, -0.016545099127847598, 0.05315942857560031, 0.045742020683293846, 0.019903389787994153, 0.006511714646438632, 0.006635247031675139, 0.026627790058387668, -0.026817458250155028, -0.009129681572686248, 4.411834951020649e-05, -0.03758044304216083, 0.02437472732226694, -0.0022885383407250837, -0.06527192815152572, -0.012427592492508636, -0.004297740942629028, -0.018329667059577906, 0.007863376108341322, -0.048466294762710596, -0.016035212155045556, 0.07651394777438868, 0.023402040559469033, -0.022743599844660577, 0.06531887178283666, 0.04455329270272577, -0.0031527474680291996, 0.03483232911526737, -0.027282292144633714, -0.024954731246590527, -0.03313229082863459, -0.002248144595043502, 0.016574367648294296, -0.07482281388685821, -0.008431809188461672, 0.010992478773909407, 0.015108712605615832, 0.044203382962510376, -0.009898357180482136, 0.023542699615225114, -0.05036587395104752, -0.007287423887506637, 0.01222688270228604, -0.01813406792063939, -0.02093173075590545, -0.04021858646776178, -0.0378982698047941, -0.028714929465100097, 0.017749186891487318, 0.08663163914287789, -0.037009431774674875, -0.015033347663889852, 0.01865752984045332, 0.03477058535867034, -0.04633424117106599, 0.0310087353935181, -0.08259168622173395, -0.02565718246435916], [-0.0019594857725786863, 0.04325473429085151, 0.03893172040441014, 0.02079202729311726, 0.021415108040779795, 0.010195481069014948, -0.04507745468070884, 0.0511670592946755, -0.011830616004494473, 0.026228764249014623, 0.037697767308312556, 0.002536357287156257, -0.033716610847640924, 0.02331277690914464, -0.00038170589201436827, -0.038723553691109615, 0.0031292085099844415, -0.015406392432548292, -0.018157485355063258, -0.008640783659362114, 0.02215159608486435, -0.03438155899983447, -0.02591664063306848, 0.014999666942339956, 0.0012629930494669477, -0.06315193048308756, 0.00571024430595587, -0.05466767164856394, 0.009276259001690757, -0.008135375853595134, -0.01876312897426861, 0.016473889716049878, 0.010938088894792442, -0.05167769311050946, -0.02018466514357073, -0.010414507414001285, -0.0021571850292338114, -0.007819712335559384, -0.038595243759070585, 0.0021087118369745935, 0.030612237012158334, 0.0701348787590207, -0.005288892637196932, -0.057874256641992534, 0.0252272346659181, -0.024727815667459616, 0.023922324310352596, -0.025437136472782305, -0.03200825588191804, -0.0019664600260584767, -0.014280836369600295, 0.06365858819973781, 0.004494590854103733, -0.006861826473460315, 0.036261861215780025, -0.007834425561408174, -0.025082531359697683, -0.08357386645944165, -0.015007837350918313, -0.009333569838065672, -0.037841491156568034, 0.004683816569293039, -0.025588619547916587, -0.027178353065409853, 0.005250011628525608, 0.013675878964334124, -0.03708191470684143, -0.0959319990357966, -0.010020587360304657, -0.031712921331482326, 0.03980341112357373, 0.015776413929129648, -0.08793649724454905, -0.056352430410833404, 0.003347957275815526, 0.019198929112154015, -0.012354411003919638, -0.07106208100056788, 0.06955254395862559, -0.07103233000916584, -0.08871378847237016, 0.019430000860042426, 0.0018898029795668112, 0.028630768464540914, -0.055527925092653106, -0.012609220200116431, 0.016736005059826278, -0.08666801388033206, -0.019151844863070287, 0.02791949344791328, 0.028636876098591887, 0.008345560702608076, 0.010578120931202136, 0.018985212821308276, -0.07919372335518386, 0.049886668213799924, -0.032617529656158835, -0.03904762285192127, 0.006089025293163272, 0.0397984739902631, 0.01034369101942842, 0.05587067016528692, -0.00789215269202721, -0.01851036092503632, -0.018432364848977277, 0.005381629340244098, 0.053602970487174266, 0.0037376466232133675, 0.014062042954162936, -0.002544709124043724, -0.013651928094730216, 0.031172794916392077, 0.010043201305891897, 0.04718156962051158, 0.03865113466741377, -0.002389325216856317, -0.003368244504123888, -0.0012312949385270822, 0.027764052309687565, -0.0028298379912832417, -0.0480914364517732, 0.0002465094441642302, 0.002345543129141608, -0.09030263035415495, -0.022666611925384255, 0.025819120095899782, 0.06837853201382835, -0.042353579226502285, -0.040735060767176014, 0.06583898412082863, 0.012692335224177568, 0.001710540267842562, -0.029875932217433676, 0.01376481829446188, -0.015394922245281537, 0.03535267362137197, 0.017084635211480074, 0.01942535519407134, -0.004770274026169452, -0.029006115967797272, 0.018271814767386586, 0.00831702077519631, -0.05535569228607519, -0.0286252648211212, -0.006585692826070113, 0.002299813812723326, -0.025830619684676093, -0.08308121933263285, -0.011363739739890183, -0.03541128318422286, -0.03767529709694866, 0.00821214195998769, -0.06823123666507673, 0.024656740802939798, 0.06414848414112476, 0.027459548909314242, 0.04088318724040146, 0.011657330658367836, 0.035309097890566056, 0.05313867255739265, -0.007216796436729949, -0.03884225473443835, -0.01612121902589343, -0.002935452194222505, -0.011955982110355524, -0.012214259719199884, 0.022318112055278835, 0.06551345722795186, -0.02959139395830515, 0.034215074762926324, -0.06116337518601846, -0.020292448360831224, 0.016479882397478062, -0.04521459962883033, 0.0272429719498571, -0.004632371421428741, -0.02170504429532838, 0.031198299080904667, 0.03428223563416405, -0.012040037008740196, 0.023944749247454534, 0.02754796289096246, -0.01992493194095718, 0.013479406381726365, -0.01765099571566686, 0.019667536424412085, 0.047649379842029424, -0.029513229469337317, -0.00023814448643433053, -0.033109292598553434, 0.02397672221013742, 0.0006948510237773903, -0.00531840218170798, 0.017298715687759796, 0.018803158055509455, -0.019903595643608746, 0.07984430159141548, -0.03087528591649851, -0.028226775600831686, 0.0016943690933696911, -0.032426520610439866, 0.00672539665866255, 0.029216006839854102, 0.002510847452980438, -0.04195628215656318, 0.02826246791756529, 0.010496269018686189, -0.02582341880137756, -0.02494305573967683, 0.017422123448178277, 0.003718337467657314, -0.04962134678351728, -0.011277533446966893, 0.03613779702231482, -0.004441918570744384, -0.02831699437477891, 0.004100403095249099, 0.024122844123712704, -0.005174574073896625, 0.008762610884311555, -0.07775281014937967, -0.057469356114344665, 0.05340203219950413, -0.01432110725110542, 0.03695562183953812, 0.052314127667457806, 0.026943105817401947, 0.013990942830470034, 0.0013455088170633265, -0.004086033186029986, 0.05235046192526841, -0.018187616841907124, 0.025417386977690852, -0.007991277947400987, -0.05114116762555323, 0.044315005355986974, -0.021743941789123332, -0.0755407224078642, -0.00474136119803187, 0.03362253890220839, 0.09435643145001843, -0.006248002629794185, -0.0010790735004155524, 0.022254146912463805, -0.0359511693652411, -0.04235423222873487, -0.026417852726227646, 0.010992518523120347, 0.018175277259702444, 0.002490815501751815, 0.03169831439672506, 0.0040441472954262795, -0.037748750556021164, 0.0052967415609757994, -0.07566261077189498, 0.02170563301893968, 0.07245737466341066, -0.017115705055388404, -0.04018817761862796, -0.0018594364807376616, 0.04806354622213967, 0.021128976200534017, 0.020224962847623137, 0.03647570673003929, 0.009565981289897477, -0.013257730882813849, 0.030100276503218795, 0.027430701685109932, 0.02876180810450647, -0.04071551677492713, -0.03896551537529685, 0.05818176747298859, -0.005351840621329765, -0.01714292246596258, 0.030592937045615363, 0.008347875070934745, -0.03297799633978112, -0.02347288573208892, 0.01068245528954264, 0.043569931019091644, 0.011665707999736775, 0.01801552972109665, 0.018441843869309332, -0.004826326664642838, 0.03788232473313048, 0.02936250855110531, 0.024416871051783532, -0.030486076589754583, 0.06007622155346188, 0.02986070094573984, -0.03925042920635124, 0.016199895843788083, 0.054994105213337474, -0.013175050822278914, -0.016269425165200052, 0.008025806556513113, 0.013742150031123784, -0.01021553973632395, 0.03643366850757501, -0.04892133034199972, 0.040649743722114925, -0.04483112512340006, 0.059449911022473004, -0.032483044133002646, 0.009645490655886655, 0.050412337141956504, 0.019960399032602393, 0.023599074375563092, 0.055993582989371266, 0.04279462054372324, 0.05614825129237748, -0.07498941487801128, 0.012793429390250188, 0.01273795838324336, 0.026898495796652162, -0.023549754574573232, 0.026602217854610567, -0.06652221589780354, 0.04029712068146005, -0.0353385128161967, -0.02659071573898396, -0.04765014544643337, 0.05391508980644951, -0.01878576507638653, 0.027317266798162657, -0.0038640191893015803, 0.024059834339698397, -0.040205001487043264, 0.013214397263664152, -0.03896525257246474, 0.04674311854716552, 0.0027805287341368485, -0.04384570167566206, -0.03943681864544744, 0.03292710151366249, -0.0523439346008496, -0.060768745721980294, 0.0028766316669833853, 0.007063610065132263, -0.05360263308962602, 0.025515183089133413, -0.011161384211123341, 0.02616771477737758, 0.004307164783233197, 0.04068970138699528, 0.03217686167957719, 0.0037689499069178596, 0.060073112659119736, -0.03996765210083312, -0.024934710442424044, -0.007060735147422349, 0.01994657435392202, -0.031155285149396094, 0.1003381894970781, 0.02310476395525895, -0.03499052773565337, -0.044816724902677775, -0.008632226712704862, -0.02582244768309484, -0.028158720027364886, 0.018361273755159044, -0.0011429724351076508, -0.008732992466377836, 0.014408410645558305, -0.06778022447114332, 0.00828647261842889, -0.04622863631608736, 0.021489859376870337, -0.03529257549588562, 0.06736523614799725, -0.060289697741669965, 0.05787628161449797, 0.022891039640219258, 0.07856475710368901, -0.0007527960857398505, -0.0016732783604269641, -0.08960025299750013, -0.059606898984728304, -0.02574059830710728, 0.016135704498467903, -0.013414661314837602, 0.02043594482021687, -0.019165294508293424, 0.013132840845324293, -0.01698374193557671, 0.033141905500055045, -0.014267070511547556, 0.03328503488738031, -0.016980137639867946, -0.039934659116056544, 0.011494522273779263, 0.0026775318301042327, 0.002220165725947288, 0.0179648647325341, -0.031055148426544492, 0.005551039808509034, -0.038425795876601186, 0.024222544360393224, 0.012235525807142744, -0.023341920722645546, 0.030345782982411338, 0.0018824878084243292, -0.00032177402235433934, -0.05257321421906082, -0.01269773105972551, -0.041587174065129746, -0.027066575442226577, -0.01932731193035357, 0.029809893108906645, 0.020049470628230932, 0.06644759209664541, -0.006411880020048524, -0.09319291101553917, 0.023720353295734947, -0.013541964643142924, -0.005154724939574419, -0.004666605824540326, 0.0137662207605626, 0.03210102166176203, -0.029675732786993286, -0.009426850983519664, 0.04951185893844801, -0.010962085393362088, -0.032082328411517216, 0.019140850894447264, -0.03721423412366026, -0.020423638687891797, -0.0011339276838475132, -0.015260821131437386, -0.021714705587367596, -0.01756261861682103, -0.006965875484473604, -0.018216972543559654, 0.0020530977917956592, -0.01981720367549633, 0.012705714860534461, 0.01849106212199028, -0.04615287041838354, -0.012292085584755528, -0.018050045607778974, -0.08369485152835868, -0.05494268244734497, -1.4903815292918427e-05, 0.025506166985022807, -0.008514855529957427, -0.0057821114619233905, 0.022882700300554004, 0.004701501388777516, 0.04313805200972754, 0.06564951204295301, 0.038143207074296685, -0.006361071189842171, -0.018441215954787912, 0.0036237669563584296, 0.07545785240782717, -0.017827395280799872, 0.07857406737590635, 0.04933838670574732, -0.01841047632798369, -0.03006524600685322, -0.00528805141908341, -0.022263402655595278, 0.016079491111713074, -0.09124337493601128, 0.010703327116933163, -0.006171653150193593, -0.02762694866746877, 0.027457643187397733, 0.022183976034902148, -0.017917171878604705, -0.01129020919886139, -0.03621424278907463, 0.010412211219401047, 0.032623889255742645, -0.004538482521085395, 0.009708582788884415, 0.012479341940490269, 0.0019067674735861126, 0.033059438458820006, 0.04974774569466809, -0.0008810033232739719, -0.03620651381276615, 0.015531344702101246, 0.019616900221242996, 0.010517560362568769, -0.016890802398729615, 0.05497695611770158, -0.010944943657225793, -0.0028831195823784527, 0.023126015833092175, 0.052456627691208395, 0.04743563554214873, 0.034345764669759526, 0.01203703871573462, 0.0005554877266181922, 0.03075054379330595, 0.006662611217259409, -0.015110270762916895, -0.05765201191013913, 0.007906081518986778, 0.04884957510227911, 0.026043964806430408, -0.03411965788349246, 0.0763753530837499, -0.026966628951174357, -0.002962429997771484, 0.04944137347385525, 0.00527381373639401, -0.07251763608626859, -0.047044691498733485, -0.05129614871589364, 0.008760086453517689, 0.03735369869436261, -0.00329157226428936, -0.07124979558320779, 0.019611393834166914, 0.03067332958234525, -0.04037870834225855, -0.08169261511035651, 0.03800859460449713, -0.0657047458093106, -0.03799467058458078, -0.041748888695574464, -0.009402713467851806, -0.034058828930554494, -0.07150841925930047, 0.04656289158523825, 0.05324171241286649, -0.010225113371476394, -0.011329726768629604, -0.0052983736142197405, 0.01630157156029957, 0.029785595901398253, -0.03704849504309865, 0.017980597573371875, 0.038647320405043574, 0.049288241208694315, -0.057150400677459016, 0.020403612926555754, 0.017124643914713553, 0.010961604475913687, 0.01116129006564101, 0.08231526865510448, 0.0010640848949420643, 0.010503452738701952, 0.02767825907476105, 0.006562770684585351, 0.025856316325004167, 0.0030673697943695176, -0.0018240009437578072, -0.004675946880637198, -0.0013688754657997706, -0.01849433097570151, 0.03066568075839605, -0.03711575196762773, 0.017234568415611277, -0.025814627216874365, -0.014225226411523939, 0.007882351909591953, 0.0030401947603463744, 0.03876198721696607, 0.0165426200230464, 0.04838288876067049, -0.04086764869791194, -0.04868700769877946, -0.036182659614140175, -0.032070855890485264, 0.0031354628936958884, -0.004058121685707568, 0.0199128237210142, -0.008883791949105711, -0.034454045702793715, -0.016496899306506427, -0.017344148834952326, 0.013231634519106007, -0.019166480545512253, 0.0057765712810310035, 0.03465265008260688, 0.008932171253560129, -0.005244616385774633, -0.010018991453986185, 0.073176441226122, 0.05546782255623984, -0.06365877388758391, -0.02870568695198258, 0.050352899362504776, 0.011480229888228928, 0.08182252726420798, 0.003173121514754285, 0.016811224581366434, -0.014637298405273409, -0.025753349208724984, -0.04860089042046243, -0.0031347076769957546, -0.013155817888233215, 0.03428646500371886, -0.02507504148127368, -0.06443163594080233, -0.03208787410456067, 