{"sizes": [784, 30, 25, 15, 10], "weights": [[[0.042784384557164094, 0.004681247711807412, 0.06276732716077932, -0.01827826724855807, -0.057919224663961974, 0.019158108252184843, 0.022382812847774217, 0.0018294829497208713, 0.04492490689640326, -0.056990829556850364, 0.03702584411500181, 0.0006089307535273485, 0.03993063524522816, 0.0346092383334452, 0.029750292885597666, 0.01623966013434349, -0.05779411344445172, -0.03810079526915995, 0.0030804969512833796, -0.004696831833785846, -0.017789979061129026, -0.013602235120934999, -0.014193214188757401, -0.01982799085394235, 0.04357553952994491, 0.05635194995131328, -0.004194917435478035, -0.03422075487154806, -0.029685110364522024, 0.013024557726535983, -0.01374040857979327, 0.047338778047577385, -0.016256997257737407, -0.024270620626418254, -0.00445338465577755, 0.035474806638273244, 0.034240462216456075, 0.0036288421701454296, -0.04688512556709078, 0.021196435908594168, 0.04209753750733306, -0.02090217974768255, 0.023003984600478016, 0.004543294333061404, 0.00018950871301158428, 0.020828437065303747, -0.0372798201877682, 0.005332456056999809, -0.0032368020667076715, 0.008179816904673239, 0.020178662845017098, 0.013201921909154838, 0.07429439014784357, -0.023361089507988004, -0.029127098143813732, -0.005699771265368052, 0.0516420745099375, -0.03889530268075997, 0.05082841639977041, -0.011013533211297789, 0.029621926666562298, 0.03456450866931052, -0.0108581979503977, 0.008685481957390849, -0.06200784102130647, -0.02234131042232023, 0.0012050634409241764, -0.009584292317585391, 0.031717982445093135, -0.028338905826856737, 0.024239102696448158, 0.018676278919107375, 0.029983602193871344, -0.02479871132842431, 0.011036842969781207, 0.021866259981008045, 0.003498534811378632, 0.03313083760449772, -0.012315570342189738, 0.010447956354630963, -0.07026946257203467, -0.04917093895422358, 0.017085333357307306, -0.03093259011381828, 0.010600237623204325, -0.027732847736453, 0.021027077265551843, 0.014162910580557886, 0.020822332061793812, -0.015192735999017696, 0.008879846176769741, 0.027782796446374245, 0.04107773368828199, 0.04845502498400384, -0.00893658467182621, 0.05108721766968834, -0.0594477682644074, 0.0008501266044769625, -0.021199984681976074, 0.01777544228331149, 0.010306118022388564, 0.07935818065291571, -0.02238548787845221, 0.10372061745513599, 0.00012055652234810512, 0.07979327096176603, 0.0865447029259998, -0.029856459693757595, 0.03720751500928054, 0.007897850347371923, 0.015864304345975643, -0.0021590300032070285, -0.0009454309237138496, -0.03685366372968777, -0.014555270281181865, 0.02180258033400152, -0.03571566076771344, -0.0015342709851822796, 0.0330615493181293, -0.03304082081096257, 0.011986655737100945, -0.01221375484043817, -0.048284206780432944, -0.10609266369529059, -0.09684931910482576, -0.05385054884048304, 0.06523083267447259, 0.039715902736662055, 0.06032960677257872, 0.12754471212629612, -0.1187403420589345, -0.028576853548161026, 0.043468403666273706, -0.04844271031765547, 0.038383808760043304, 0.019640965108575197, -0.025883932982023607, 0.01905430016557871, 0.029264555520328563, 0.03492009144699822, -0.010875823453995815, -0.037176347153876625, 0.0003514299769952423, 0.008999082258951244, -0.058611935325285046, 0.007820844192340347, -0.07343326581671102, -0.07887851720763984, -0.030896602726385815, -0.04883099485617055, -0.054209160473829496, -0.06088362045632021, -0.003138994891656397, 0.048885545974191175, 0.04355711886627749, 0.1171092645234293, 0.003206701893438606, 0.016215887937065566, -0.006956984926058186, -0.028867671101577442, -0.12598593146490417, -0.09010189848058109, -0.13761186890862395, -0.10032628784951357, -0.07635136919609688, -0.06164730278335313, 0.05244887523675288, -0.013264915394660272, -0.021875032470105422, -0.0010947781169771997, 0.034164083744525224, -0.05659951655860676, -0.07126944568936114, -0.07943911247662484, -0.07126086664011254, 0.022925432372418373, -0.03226212163135448, -0.0536881807275843, -0.15858584672233147, -0.11886895615859873, -0.05697763681112959, -0.035040736868374486, -0.04165341337285506, -0.01722090918084226, -0.17332309832770956, -0.12816631629220152, -0.1188769819235336, -0.09175497917691527, -0.2644312262274837, -0.14758313891058794, -0.17953201205788652, -0.2041120310887245, -0.15030625037585857, -0.1073643172133896, -0.08075503191369114, -0.01027610252824752, -0.0006499619836896923, -0.05401153646709979, -0.06624683854334786, -0.02427433536168016, -0.12888179632573515, -0.05313957358356045, -0.03917450709058311, 0.03300917629753811, -0.019286274071458043, -0.10419619951269246, -0.048717191863865764, -0.07928201337546847, -0.1443437977412164, -0.13875279854742875, -0.1536531438923169, -0.10507363937103156, -0.0872091969786821, -0.1708415422716496, -0.191417396718378, -0.10349288433574907, -0.217387950356543, -0.1510442938859599, -0.13868639557232723, -0.12004860352386533, -0.08695422293384525, -0.1485573953336967, -0.007446297835657204, 0.04337267438329987, 0.0372995781243248, 0.017983236302062933, 0.030903722397844304, -0.034287250746374835, -0.053089190692255706, -0.029542560956758925, -0.0035318220893099505, 0.058328307180031534, 0.022423598621190647, -0.07301591430859458, -0.08565569786387345, -0.186295139361647, -0.1470265821413804, -0.1571085966247914, -0.14586382267128656, 0.02447979851224198, 0.06234373284243601, 0.041647688145253214, 0.0036294737973516754, 0.03332915094299096, 0.0345355003268003, 0.06451064481207441, -0.03869160969715104, -0.0626728687480672, -0.1360352794840885, -0.09727768137073055, -0.030775136589007268, 0.006102723792880671, 0.005349091174828658, 0.09480572080876157, -0.022993483585338707, -0.0026632249195373283, -0.04706862402290462, 0.025258884416874114, 0.05900768791755326, 0.06098802807769481, 0.09520752990935517, -0.040355409686318656, 0.03689592511976748, 0.07222081614480491, -0.02525583520227876, -0.037202775513825226, 0.1127579491158997, 0.301142040153055, 0.3550812146160719, 0.293585461298863, 0.2681390255882028, 0.22049547400593913, 0.09778598925912944, 0.14365568522752237, 0.045011814145572315, 0.04201770102932908, -0.06802183366677221, -0.1260283553683301, -0.04901497445125888, 0.027490885490886435, 0.015839356203927055, -0.012613585262561794, 0.0003542578384670907, -0.00731082995192309, 0.02354947261666102, 0.021018362275144534, 0.081169946162495, 0.2084173922387204, 0.1798613680815472, 0.1697764609730385, 0.26376436251709134, 0.20966449767967987, 0.19510554523367463, 0.17931682197745102, 0.29129645419122496, 0.35354039315948876, 0.4283271960471593, 0.44467901864347426, 0.32668494380237845, 0.3602384470587578, 0.2627756587801741, 0.24435040990933085, 0.17234062894716848, 0.06907131860689968, -0.039232862777872586, -0.018995198774383243, -0.053633676376394004, -0.018857282887889806, -0.045703025653707464, 0.023755704878340427, -0.039999071615253734, 0.025524190870401794, 0.001997573656477927, 0.07550125799611299, 0.1980240414538678, 0.30437548301547634, 0.27566969164618804, 0.26269866035723605, 0.2840274232435379, 0.17868589779784388, 0.1242677707489478, 0.03179568571462172, 0.060061983702070894, 0.17950736507655574, 0.2785660167942021, 0.3189462532621768, 0.2676170435857948, 0.3576861495142642, 0.3630181204136873, 0.36713348245371114, 0.3400248899111649, 0.19807272161381484, 0.061417483671895666, -0.005803488794883291, -0.025262025303142525, 0.03351085238606378, -0.03589764058438279, -0.004901772753198258, 0.052386502367896985, -0.025305183678866992, 0.07972674134074906, 0.0956336395835159, 0.22558179613476448, 0.2668132103207966, 0.19171035015525184, 0.2094805875904391, 0.10713013603116858, 0.05781054389725387, -0.05578375411785215, -0.12276384187521576, -0.24786075318803594, -0.008210531086380719, 0.11062489364563083, 0.13094850959258833, 0.19446282950094942, 0.34074902215831276, 0.4618146003871191, 0.4192504493995609, 0.36015565670403976, 0.18823381356038713, 0.056151528248254944, 0.05034507757039541, -0.09296356219844173, -0.0007983084106089564, -0.04787950770188358, 0.05505739795152669, -0.022301761113015427, 0.010017439810175584, 0.06248838780727069, 0.12829349286794847, 0.10803785388860465, 0.13813410965274026, 0.07341914541105492, 0.0968097734325597, 0.06495874467635265, 0.054447331548254756, -0.11994217866793029, -0.24061814616881622, -0.2018280194421628, -0.09263343356276131, -0.01851502057966389, 0.041516717882908165, 0.07158833107909664, 0.2628815545899642, 0.3193322882283906, 0.3152886335647004, 0.2973118974190701, 0.2411376639130161, 0.11044660852608967, -0.003953260173684813, -0.012418326262818106, 0.006075339951780487, 0.04371270004121857, -0.007175979695285701, 0.06456242957257237, 0.03447632568783673, 0.10149740053108913, 0.08414150517087618, 0.1280626513633399, 0.09849135697899175, -0.022650738022314765, -0.05649343519041162, 0.03986173672917217, 0.043617961888215984, -0.11789606054443275, -0.1573500786892527, -0.15117051027982298, -0.12516993247990282, 0.020016410052917315, 0.10698677823517955, 0.02842060209084333, 0.03743390455391875, 0.10172035517113168, 0.019726509134957233, 0.11563668416228201, 0.18317547577470092, 0.09372410410583519, 0.0061435128904772365, -0.012760795112226839, 0.02245101087388968, 0.06113453786725069, -0.03172963809526159, -0.04840191033530413, -0.03964341208202947, 0.040555130894211186, 0.10874332860132538, 0.11995279618562542, 0.11931125745106486, 0.08071044289696075, -0.13525013662240098, -0.0697815833444117, -0.1355637335673756, -0.18312493840865518, -0.25252893619269934, -0.20148518995232256, -0.06611086965344805, 0.1240063969456394, 0.18765357457241663, 0.02528313564882992, -0.0586733028701951, -0.11144972314172943, -0.11832302835611268, -0.021693580354794868, 0.09608557200108095, 0.09143671045565685, 0.007851427901240252, 0.003969630911722322, -0.02429559571872194, 0.03832247147654515, -0.02753843937044736, -0.025344807184376227, -0.016299239939836115, 0.08718313704373064, 0.15360652261198443, 0.27808216618506093, 0.33439451245022944, 0.2773149626241929, 0.24365221613043417, 0.015787831016537583, -0.051161555118787304, -0.17150086484488686, -0.22519728395633096, -0.26745608474591925, -0.048933108058316764, 0.030859165926407122, 0.08705484885125131, 0.005032544754019602, -0.13773327766788776, -0.1334863586076811, -0.20198513734106702, -0.1360676876953605, 0.09149955537427347, 0.03548885003657146, 0.09223642500443963, 0.02461502067144432, -0.03181539090899792, 0.024175885518208488, -0.030856703657902284, -0.01768279876757087, -0.039957150860321776, 0.0825581691826821, 0.19122671224245716, 0.27133832744200503, 0.41240672040789583, 0.5378053167487413, 0.7104885894060393, 0.655845825713914, 0.5400437422121892, 0.45258857920070705, 0.1939914225528409, 0.15850821691448397, 0.03474743008056991, 0.03072683143911961, -0.040433402528349184, -0.06451099767240663, -0.13375086371124997, -0.11729934578192067, -0.22099726110532403, -0.13995892672282684, 0.03711529428279936, 0.07571474864970779, 0.030631012300176414, 0.003940625638406313, -0.040410557736027766, 0.014615421770327082, -0.04393927681010261, -0.022696792397934998, -0.06758646987903187, -0.03981976927338677, 0.08469675369223684, 0.19507361514459728, 0.26264464774870655, 0.4589666511349281, 0.7039860956533176, 0.7642535627196512, 0.8525237796869127, 0.8189012054938092, 0.6144897912123589, 0.41199776028908497, 0.14580952405659758, -0.14341601328389797, -0.1312322214451475, -0.12286783673218717, -0.15869519723179787, -0.17530398540558098, -0.2577156159186488, -0.10324335497648536, 0.014844070707174608, 0.06318153743505069, 0.04645164179030181, -0.017814383609151132, 0.0026055611750686707, 0.007664877644786307, 0.04521118346630174, -0.04971284697665971, -0.1027399581990746, -0.14369165671906925, 0.04722311078240766, 0.04223887890161471, 0.1430803517761091, 0.17024532496136957, 0.26893746083569087, 0.3274384827873359, 0.41984551529459707, 0.43118170045950294, 0.3273344087950374, 0.24853862255271342, 0.11822760810314711, -0.03894444586569702, -0.12691096127086834, -0.12200798910978268, -0.0706262704450515, -0.170380056161771, -0.1367092410994662, -0.00925971127018563, 0.10024827757837493, 0.09897476530422956, 0.06658939457972414, -0.005877969473429894, 0.03425281770878635, -0.002687791809585546, 0.015341340130864913, -0.049415159961137746, -0.1334240016283409, -0.11296494692521933, 0.0016399599141061802, -0.05763021913222177, -0.052983757660597486, -0.10736591129744691, -0.07681539085319593, -0.01740690192502705, -0.0005370816357539139, 0.10932526378999559, 0.07410618752127687, 0.04104989303153385, -0.043478408017506354, -0.09271108163772084, -0.07343856456386821, -0.12836430044086916, -0.055204193548822535, -0.14845669577080284, -0.045252848851926104, 0.013242982654640214, 0.0716534714048225, 0.07046470372138021, 0.020855643991679194, 0.051901107754671466, 0.007427209594541846, -0.01911786342478656, -0.025937834805479065, -0.012084861834395753, -0.08995600972264539, -0.13454757309018625, -0.13619807887651225, -0.07979230030199569, -0.08356126532454705, -0.05954092664258521, -0.06006166214078975, -0.07835282278277715, -0.03591979968246595, -0.03396152231950217, -0.07699524532465064, -0.1050931448141034, -0.10125861767662064, -0.06566614797706731, -0.047147629569700034, -0.049760255020081676, -0.01605063521531726, -0.1402069297821463, -0.13014798835926109, 0.0341082584415992, 0.11131752931916952, 0.07146003663631177, 0.03774037082734528, 0.03151180257112147, 0.03782380236502193, 0.03163991959488013, 0.02770444032224541, 0.028727634849259866, -0.04352608070188188, -0.09607028716273858, -0.12655432521588925, -0.08502796177559727, -0.04800703970041198, -0.02141577967758248, -0.12020082177808093, -0.03918293845277439, -0.024337980256912802, -0.02652104402108864, -0.025613389062925214, 0.019263414579855764, -0.05401372240857605, -0.029250568307586426, -0.07732991057462756, -0.007260576881614239, -0.16039379021584454, -0.08617415615654168, 0.06821067213875034, 0.10660286584023551, 0.029756866769083973, 0.02496355086944445, 0.03645819198340659, -0.026120956274520855, -0.0018970251026889894, -0.049765221006779395, 0.0008413665090508833, -0.02417012682554977, -0.01939255612496239, -0.08338260232034585, -0.15963673810569579, -0.18275610561709132, -0.17933957959569316, -0.08982181809398739, -0.20859344120811302, -0.05195357204076413, -0.07577145770092059, 0.0076324390013290085, 0.015196219648377855, 0.05664407111230969, -0.09555848169817506, -0.0723182360418158, -0.06244971696643911, -0.04196984165588831, 0.008501997019438497, 0.031206938520982764, 0.006820665066701675, 0.05522893222614632, 0.07144885336939776, 0.020256007950575056, -0.02354341551893751, -0.012149755207971173, -0.020531601817415278, 0.014535513100195414, -0.0313218879547402, -0.02665599984200475, -0.042856993786257215, -0.11959880104469907, -0.12534602568707065, -0.2198920468314364, -0.1611564382780893, -0.156773833991958, -0.1916331467909075, -0.17888590366069318, -0.12940061680274778, -0.08319925962444179, 0.0054641936018414656, -0.05283386133059745, 0.03777671570455422, 0.027700540062452483, 0.04656440958323531, 0.10614509284179227, 0.12596953957069645, 0.10515056769750011, 0.08647763715742271, -0.017048960350652925, -0.009716348801452687, -0.022395258680695192, 0.048153667965030005, -0.003948029002968881, 0.06593381094509285, -0.060796818314881755, 0.01758376632497203, 0.003824451539748521, -0.030672127293227845, -0.005650001647705579, -0.002610058611166899, -0.09787670338496972, -0.06306792285142086, -0.05282247780891691, -0.09267319565233656, -0.08624474083810066, -0.130448769236361, -0.02910349497946, 0.008747264518476834, 0.10347502550398834, 0.09869102745239787, 0.0672640435763643, 0.1241144371557402, 0.18337352803019563, 0.12436536428341444, 0.0635385118014166, -0.021248455143957047, 0.02197194875471438, 0.05237095801823465, -0.038095124416714296, 0.04841166107870893, -0.008719180690883085, -0.015478920321500639, 0.06243903405850524, -0.0071184313461152985, 0.0300966678247189, 0.06388026515452387, -0.040279381374960045, 0.035614484357981764, 0.030186917438162455, 0.028402480369549326, 0.01835527312725434, 0.03185590030136133, 0.035706224814237277, 0.03651616993748413, 0.09306640037115833, 0.03909001508529917, 0.03017490428283375, 1.689451065384377e-05, 0.006250470096009448, 0.03489147450932149, 0.044421550540448516, 0.003483448957422539, 0.03679495763819513, -0.08890033560275247, 0.0457168866867559, 0.01219734581204938, -0.009487102579346837, 0.08272601442736885, -0.023612902500775246, -0.009149111644246213, 0.0038870516808247467, -0.004510206791892431, 0.05936996245362249, 0.0010818270231688068, -0.0693495498382384, -0.03972091803782253, 0.02201315487080039, 0.06422604573261423, -0.0115600515944129, 0.005028568322962728, -0.02187684897070234, -0.039778679704205594, 0.027454789930059956, 0.04811802346877111, 0.02883610665138558, -0.0048705910895598505, 0.007512505618132511, -0.05986972493837481, 0.048099786992802714, -0.030867237362491695, 0.007783787576853788, -0.015431182502509865, 0.05198774011144393, 0.04535545010314811, -0.042534946193940014, 0.03997000477182552, 0.011961962279177294, -0.01696964927305077], [0.06305316088613513, 0.021305068150269613, 0.08506819598691608, -0.013857003849123292, 0.013842824638501894, 0.012473685597153108, 0.029670389353699294, 0.00010958153025249673, 0.014996156021476057, -0.052129342101856414, -0.012182875768960157, -0.007917479266808821, 0.006143942357506773, 0.04323598296313388, -0.08619939705809895, 0.018100819308034363, -0.013362998984059663, -0.00921342784738113, 0.0117445148504875, 0.005188490728950622, 0.02350515558568447, -0.04768087242218624, 0.04203579737031325, 0.06242654334765834, 0.013960131151803954, 0.04000733770534904, -0.0192727599648524, 0.010712486701025913, -0.02447242771681348, -0.01684955784087547, 0.06907493055727187, -0.033836111623603, 0.0004799938436263556, 0.006303773364073026, -0.032348018867055295, -0.04324999645347144, 0.05360874961678077, -0.0377978673603459, -0.028110169689913183, 0.03784370623081585, -0.00431254988165288, 0.010340982293323692, -0.03605367051286689, -0.05019265945638694, 0.02529931365433174, -0.046788042669665006, 0.06339169076046876, 0.04481131589955894, 0.00041738985041837493, 0.005848414067271101, -0.029038890068572434, 0.018153782207237755, 0.03485909985237015, 0.01814889631250831, 0.0010153059670267714, 0.0012620469110033248, -0.010971736731958595, -0.04229107936241745, 0.03290769210636354, -0.06495195638143608, -0.0440742619523968, 0.015602028701578641, 0.046808663786694786, -0.039097033048551, -0.0014914207611229227, -0.043798988222122394, -0.07036914098001879, 0.018686840808004493, -0.06870590434235024, -0.016722085266213573, -0.045223315153057206, -0.02210179905142006, -0.028900719046880373, 0.03867552984527408, 0.012577169209245124, 0.05671985374139626, 0.030858624761817787, 0.0023085951595151945, 0.03700579789176424, 0.0555572636608887, -0.018921503339974055, -0.023732059219533124, -0.05477597195587836, -0.04879259633838609, 0.03491306477113804, -0.019687275144973, 0.02709063306747235, 0.03417024905813682, -0.018966695944558905, -0.009396719477296743, 0.023318939078118578, -0.01003473020159415, -0.03329430873010549, -0.034490986001699524, -0.07475475442543336, -0.16494074741089165, -0.18066751370992964, -0.18215281888053428, -0.10347276311548308, -0.16945647559702284, -0.11300035163461492, -0.0035274669180820513, -0.06138547823678029, 0.019621163336894877, -0.008261448344043104, 0.12031842168710422, 0.02715010793880359, 0.04696763485775448, 0.0834083690388477, 0.05430852311104979, -0.011330055964876067, -0.052310476962691234, -0.006960231222064442, -0.00516054021795896, -0.04002064190247416, 0.0020869951013905404, -0.011606485060071448, -0.11022684931303915, -0.07052559480874143, -0.10160392029592316, -0.11379205719905078, -0.19151361419982313, -0.2016560302395649, -0.2275517761046763, -0.2210239815536536, -0.1958351025731429, -0.24367118593024636, -0.16131277939238414, -0.1456529582120491, -0.1199746575074941, -0.10236037842044918, -0.010385130068997335, -0.002930048096251791, 0.059942063755507785, 0.046032423143106446, 0.03442517580068262, 0.05618258920653395, -0.010218733053895654, -0.004398173609626201, 0.03990739734899307, -0.015234870570789427, -0.0029988325961709554, 0.037801329872272166, -0.012159312181390396, -0.06732791547698794, -0.06497203438023601, -0.08505451361436848, -0.07902546104774814, -0.17708160997230923, -0.1665734841191806, -0.17572568572571762, -0.19214809717764017, -0.09542279498255239, -0.09069482350735382, -0.017833490302446128, -0.10158053731432148, -0.06095458768612322, -0.038435151786462375, -0.053982917577603325, -0.05403706493639456, 0.012146552199939825, 0.0823283821702081, 0.05955518288510212, 0.13258055664089574, 0.08573199733316261, 0.06948999282880776, -0.0009564531737091442, 0.011525243092121593, 0.009900108273120201, 0.04430538023333459, -0.0062234899632897765, 0.028704563515221486, -0.07909348263291498, -0.07693204277798316, -0.049571593803207574, -0.09004956243842197, -0.09251731094856741, -0.1039061940422937, -0.08452937815201693, -0.023802910538147388, -0.057544218273314275, -0.09448655430021896, -0.1961740804800584, -0.2288125061090881, -0.18454270035227324, -0.23567264802135202, -0.17189518653523475, -0.031029007638155567, -0.010639283697469306, 0.025777874266265967, 0.15511534512460184, 0.19933927078175429, 0.12737692054105978, 0.05518912970716439, 0.024731793897351643, 0.045416957584663305, -0.026593343393102715, 0.01993622802133809, -0.049698128017654414, 0.01561659427760376, -0.06857458474597544, -0.02699258859929989, -0.009997646988983932, -0.028682856456433772, 0.004023499279119078, 0.060908456850263845, -0.011912397987031299, 0.025252622345453026, -0.08641690192480718, -0.20847306151863235, -0.25567279528463877, -0.348329747827985, -0.2394508595177145, -0.20409880922258064, -0.1450649881040553, -0.040957374585976966, -0.08276188372900328, 0.03697658323423611, 0.10905654307615585, 0.16702714124574733, 0.12293688254886598, 0.04853028622123583, -0.017032601854535243, -0.01638609143759588, 0.002638245885419463, -0.022604257300379457, 0.04581020765643288, -0.05747909438183576, -0.024181708644193754, -0.02898413039206109, -0.01610242945599767, 0.07821567005602682, 0.1289942217908624, 0.14169251072254618, -0.03812032253064178, -0.06936509356408985, -0.13374495179694731, -0.24119036178642203, -0.24670142977143728, -0.19177010519942084, -0.10242566917918727, -0.07677835752436458, -0.07914752965976074, -0.10896788303905566, -0.09402833810490374, -0.08406924389798262, 0.02755066535803087, 0.15668434326069924, 0.06388975216148793, 0.041970028929659745, 0.010586220725490125, 0.046065130292552596, -0.008788282526287486, 0.0008043177124146343, -0.05187554248304553, 0.03487838076545613, 0.041722727949805936, -0.02099750163699902, 0.03856415555562878, 0.09927424898842904, 0.12372862886207965, 0.10207015148828537, 0.050689090346802246, 0.033433240921718094, 0.020189233272450483, 0.12224759247130157, 0.05324179081630957, 0.03198797952441237, 0.09056821782594526, -0.032008053009393175, -0.06653113820297409, -0.05887443509939488, -0.035633440991667424, -0.09366791282288489, -0.028169390469623766, 0.04313242049908938, 0.08826384062585721, 0.026846105854462433, 0.022016720323472197, 0.005799250703747495, -0.05292947844319195, -0.018826145732423583, 0.011199934819942031, -0.030729328414991472, 0.03083612026309202, 0.012027922399714943, 0.11907517424864861, 0.16886068041341368, 0.14961325831951022, 0.19404891740078883, 0.222487137370494, 0.32041634619248915, 0.4365210521283092, 0.6011368251247281, 0.2880964460897462, 0.18100601441494182, -0.004188602261330226, -0.041408084722811364, -0.10070162014958253, 0.007259360779718192, -0.05168131735796676, -0.04818391867809739, -0.01197135390227698, -0.026097457154920855, -0.02383337541345639, 0.012389289620215217, -0.035033820732297896, 0.0021856191586978996, 0.02903300516326851, 0.020216134266852218, 0.034906470520783196, -0.056645068385059345, 0.0716671135539833, 0.12292222309736259, 0.2554577898714103, 0.3172035251237259, 0.3127650130607295, 0.31766784932178616, 0.3699302816647445, 0.4536538627876786, 0.7834553944271898, 0.8069724974281751, 0.275966595995676, 0.011554638412940441, -0.07277449849918828, -0.16526381481297028, -0.15427083771049382, -0.14762980478905974, -0.1961327221165796, -0.012657718251618271, -0.004509456473252622, -0.0010316938858485533, -0.025545696576000015, -0.0265621474431692, 0.03396204307322586, -0.042305738796222535, 0.052928778007958054, -0.010595399933889655, 0.014691833667525772, -0.03139689423408248, 0.05141977643278999, 0.22719719008757644, 0.3490323899128416, 0.3886043736883772, 0.2990527963272576, 0.27667104156485445, 0.31213997951993483, 0.45898614434956697, 0.6515892887955678, 0.4921776028230061, 0.008886692742922959, -0.07809170973834388, -0.1746911718684045, -0.13018715388273036, -0.18199340277865242, -0.141610288540803, -0.10211434142607924, -0.013799620213665983, 0.12228872929922249, 0.016496573848110797, 0.07681444297932806, -0.017147143342934972, 0.023551934601957068, -0.025582109435370932, 0.03718263301595882, -0.0005848447282034133, -0.027706994206377948, 0.030844130277417583, 0.03220094983951531, 0.26832124937437324, 0.3463020700108167, 0.3214105847936303, 0.3266033397290421, 0.20631586908001887, 0.17667836065948478, 0.1810684910367913, 0.27777435780582205, 0.16500281969750374, -0.11637031901116186, -0.07481155104316746, -0.12558015342774204, -0.1358989116770919, -0.11574662535317391, -0.07519012334291968, -0.022868029749827525, 0.056150939120178385, 0.21292813797146626, 0.20682336351500355, 0.13859485712062156, 0.03923441914947173, -0.03467815229059785, 0.03994231464873806, -0.010788556066300473, -0.05072214286372023, -0.013291095799222823, -0.03586584126141035, 0.09470744584806949, 0.20097206188373415, 0.24170426521793828, 0.21314288087137936, 0.17601239221641907, 0.03407558809805881, 0.05108638790041497, 0.048305840730596905, 0.04125181551191626, 0.0072739976168914615, -0.06809680642643472, -0.12152615148438686, -0.08368463859099612, -0.11856422197379674, -0.06104590732306489, 0.08426196392798693, 0.07119824350370119, 0.07392890648872992, 0.1296795152632725, 0.2137691091788423, 0.10881265237037512, -0.04107319779504747, -0.026617303371909318, 0.01265834580703068, 0.015928460692263422, 0.003430670660231423, -0.025931675553426875, 0.034400144932644226, -0.01612819971941696, 0.038799364201578604, 0.06654089226625008, 0.059610753623715165, 0.035587834370242474, -0.004965880941970648, 0.03251818570381145, -0.008784125898639077, 0.012097282636987106, -0.04315501134559229, -0.003451640454033891, -0.08792685428810203, -0.15327530934924702, -0.14342030530205868, -0.10555758606788813, 0.01862750892365863, 0.08341160794915246, 0.04779385514416268, 0.09560326420558483, 0.10853858850611227, 0.03186845887800407, -0.052502193121562686, -0.029495925348668232, -0.03347766006494699, 0.044189850473201016, 0.014080177383110433, 0.0287760830103576, -0.06378044427411401, -0.07563401510620094, 0.03512263510590179, -0.017162260384927342, 0.0033455113287647062, 0.012284735507323695, 0.04328301446395368, 0.010851410068116905, 0.05635332885262167, -0.04030452969031021, 0.04183757529601192, 0.004866376527555556, -0.05461012379897447, -0.1444048624657407, -0.08201765339558961, -0.01859464686572388, -0.006848878961929752, 0.09377476304322725, 0.057221676217466225, 0.030422696655040212, 0.05434454572235126, -0.05920009760460962, -0.09187151737783308, 0.05529182425989371, 0.01592828507894564, -0.014739442118220479, -0.0015753922711971276, -0.03573265713009816, -0.05238289892844033, -0.16763563821594948, -0.07407449844499395, -0.09811385378890132, 0.022815959682823392, -0.03682907640945295, 0.014469512581747621, 0.13845309383622217, 0.08264236464588644, 0.02195045969557336, -0.0021414432333780277, -0.019167058948496213, -0.06669788327922573, -0.07239029084353628, 0.007230988891381761, -0.0013320869947837076, -0.04746244246414407, 0.14198776645740302, 0.0565541528991181, -0.04992673676682907, 0.025201812195953834, -0.07931069901680503, -0.06513853757694414, -0.029637114007634986, -0.001862045701322898, 0.037384983668364666, 0.03474099689819487, -0.0496468709373618, -0.13917735509203014, -0.1629701775694282, -0.19373119188702212, -0.11416321476822872, -0.01924459364626478, 0.08247148038350688, 0.04739466764900785, 0.05825793927599765, 0.04935969223346719, 0.04536684679799181, -0.0903055949937298, -0.13530385245442408, -0.06927398274719593, -0.051012002497925125, -0.0478661992133646, -0.06828310751875365, 0.007854805065543872, 0.05764548091749787, 0.06553414058871365, -0.05674281742329101, -0.11110863017167309, -0.09722833707851822, -0.02749976292111728, 0.024665148461636296, 0.015599668375261, 0.003950870005430839, 0.007521095437657978, 0.0009154820016048381, -0.14525018787897132, -0.15588871933365556, -0.11724050370923564, -0.12709745170798442, -0.10110900697105073, 0.019458415403739916, -0.06219687326127008, 0.12397314605162628, 0.014632189812482026, -0.027886782897580786, -0.10687684799311888, -0.03213442428821569, -0.10775036776471836, -0.15216684831211308, -0.041062559908748124, 0.010254689913250261, -0.01722453801446844, 0.07512685656923208, -0.0026554154529310455, -0.030708077574084936, -0.08655467819764234, -0.12188457832419386, -0.027028186907926223, 0.02824389735147713, -0.015516875927895937, -0.0031526418174830906, 0.002067208848424288, -0.06592929946421248, -0.09399452902190096, -0.1525664386367948, -0.20296840796393195, -0.1299320862243739, -0.1075549237632893, -0.0077883322914399115, 0.03276804648720603, -0.014089489542427534, -0.008989737404431123, -0.02974710356726764, -0.0016335834368762594, -0.021706683702757162, 0.052878795117778404, 0.04522277876332606, 0.008011029851965166, 0.021282742311504347, -0.020849033069583984, -0.04282952407903189, -0.011687786155466708, -0.05819939706237081, -0.07455624183467614, -0.056622364559038685, -0.0416880357089289, 0.022408408097938242, 0.0004249781153040403, 0.017196937116282646, 0.004568004077202081, 0.01039850020132569, -0.10433813517451276, -0.18274460103802986, -0.101977300120202, -0.1712097622359304, -0.08626960253010038, -0.05597142589135083, -0.00925590673522188, 0.07237696558865007, 0.0762298499915348, 0.019666350427072522, 0.008903969509808847, 0.0314580936674551, 0.17415001172041014, 0.045452453064435364, 0.048023812194706264, 0.006533717644503034, -0.013306279247029025, -0.027773903360733525, -0.022002509811287336, -0.055482877055196736, -0.05642314444857837, -0.030456621719546925, 0.014990030392858514, 0.029526059355274806, 0.055816893450912196, 0.06049038844812025, 0.020502154632880243, -0.06606498502401639, -0.052921891847900686, -0.12460618334193714, -0.19470519909086326, -0.1506914491640264, -0.05326328293863023, 0.05340151083643453, 0.026064503050236065, 0.04917634279812909, 0.01870972715895998, 0.17299709927112888, 0.12809816606925412, 0.01844573811397655, 0.032271873267763804, 0.028487105446889788, 0.03770643096377042, 0.05830500060332039, 0.05129370865576009, 0.1003783266467001, -0.00888888215038269, -0.04144223672820033, -0.0396240509619105, -0.0359977179621703, 0.011433677044570031, 0.004084815060796358, -0.005835891987626121, -0.04395969148501848, 0.03516886891269773, 0.013581732827864219, -0.09647615226788483, -0.12883630962607814, -0.07364593979097397, -0.09160866271986821, -0.06464864369536787, -0.009156246612957317, 0.09065955125899437, 0.020982220453169147, 0.07530692909240329, 0.02867144694996879, 0.07442332402759025, 0.10557937331273254, 0.11756916975196366, 0.0888060374829957, 0.010099940219586441, 0.06587220810290459, -0.010484747937097952, 0.10084355662744095, 0.05161411349881562, -0.027242816589071257, 0.054249816495906614, -0.02021981659958382, 0.020982228931961666, 0.011722780926176327, 0.0027137121661274647, 0.03125742475232529, 0.05989759585357763, -0.0016016251375139353, -0.016982542737901736, 0.014490638365931776, -0.0837220500159668, -0.062474762796752965, -0.13069221089428715, -0.04364238884837136, -0.08504298476531302, -0.021415733073554842, -0.04740003944325983, 0.006361831895238032, -0.03386313368964198, -0.017899454602163505, -0.04151190274882634, 0.07972653580213253, -0.06618120079238446, 0.053732005538500445, 0.07278303668793246, 0.10772367410755326, 0.017407463795558596, -0.003225501084110111, -0.005119873263564769, -0.01141008795567515, 0.04470928027788194, 0.04502307647641098, -0.005960892571899295, 0.01531200319310875, 0.008898987246667378, -0.0465895315704988, 0.0331737455383363, 0.029362965677142222, -0.01712176983798057, -0.06404505507083368, -0.031189412554480066, -0.1371962520146594, -0.19244259408042408, -0.1807855386396321, -0.19282868328395789, -0.1458929336166089, -0.10325036432311925, -0.1787925981118647, -0.1612321784386447, -0.15250714801216725, -0.16121930682891147, -0.16647374304281984, -0.07033576812899439, -0.019553179905136168, -0.01751099952369056, -0.024808699851662546, 0.0015202175050873412, 0.009831587265941811, 0.01698027922941885, -0.06999589119501534, 0.034101832271730706, -0.023376555934466914, -0.03800256354596099, -0.034640170634815656, -0.031120801626356765, -0.01831460546706852, -0.02895150807141153, -0.02554662231739206, -0.037077360235037146, 0.004757157116905472, -0.11166616587906994, -0.1232583104448236, -0.12270752312930643, -0.14130637629137097, -0.09448134458835283, -0.08193318134518512, -0.0938023525229409, -0.09661304515552945, -0.1370842132977583, -0.09715222696215732, -0.065296497479622, -0.05824982273740356, 0.021242651355526984, 0.017423950145433933, 0.022813133608068897, -0.0745246747502771, 0.01379048986627521, -0.0034823858061431784, -0.042616349847393355, -0.09074389237740135, 0.006307522500422099, -0.02565982464512685, -0.013782503522467907, -0.03686275868608524, -0.03151484772320567, 0.010034751961843776, -0.09662380479524343, -0.029953005285227898, -0.00761666914108808, -0.056434053569784225, -0.0014222247632069143, -0.013602922429370104, -0.011013220640584973, 0.009089561219451437, 0.0043679202179964715, -0.04824966279161164, -0.082632320728225, -0.02863363902815113, 0.03492859070828164, 0.030476827498820917, -0.03632580286528915, -0.020420775491436012, 0.020859429651109297, -0.02750451732641395, 0.01652995781166386, -0.05912067041309603, 0.030548987647118157], [-0.009219811681187257, -0.06067275652738189, 0.0038571627695339265, -0.04267061589893901, 0.012059800177901505, 0.015825666683960564, 0.0009341600217315082, 0.03298231370557653, 0.025635729238623606, -0.004162401390673384, 0.04910659132247521, -0.006916617589497538, 0.006517680589832181, 0.033766199724320906, 0.029206037578809282, -0.05059191819184405, -0.033141575249395996, 0.005418871897882248, 0.061314580545624886, -0.03038071744080507, 0.055469382035328876, 0.046054334328574684, -0.008375324588709744, 0.07665950681393317, -0.011082944636781864, -0.027273435759940182, -0.0010755385406946067, -0.022474376130910467, 0.01761266717746448, 0.009916957896423781, 0.020748924907171656, 0.01652868638157181, -0.006941043453907353, 0.026825371638182285, -0.015814810067449527, -0.017120638215659217, -0.03983827832670599, -0.027684823926054886, -0.01994442825376908, -0.02787914752828968, 0.013788143092300975, -0.045859456637186366, -0.06115782385036808, -0.059907838529490935, 0.0461480016033565, -0.05197904607328059, -0.0014378278486276172, 0.02261740852307857, -0.02034228559055446, 0.022231079668258887, 0.0254960974466506, -0.03174754612158932, -0.014281647304683918, -0.03802599363938071, -0.011897621391436072, -0.00982302822544918, 0.020048607746005143, 0.005964243002159151, 0.04932513661672877, -0.038061112635731816, -0.030885364575855556, -0.016766356521337216, -0.02873731048787503, -0.005031378514787627, -0.003996960345184262, 0.03758299522239722, 0.025989783838955074, 0.05507445559148556, 0.04303831940912575, 0.04142694793618004, -0.013392773110668672, -0.02210364541437323, -0.023514631454521366, -0.0008753284982400544, -0.018681291351570577, 0.011267319463717925, 0.018942345943963056, -0.04190476878437036, -0.048330340101190944, -0.01861951213081902, 0.022355975453210643, -0.019669702116239196, -0.005651713110261529, 0.004848973898908983, -0.003078216323465098, 0.020686731738476977, 0.024418070974018984, 0.06281113349500622, -0.046804295375797986, -0.018933889900364733, 0.043219879179618816, 0.013098506327591252, 0.015153577530048151, 0.035127536440543845, 0.04422184657717101, 0.09644217741118725, 0.1143878922439791, 0.07670829069976362, 0.12920237102874385, 0.09707761141835385, 0.01606004938015252, 0.04853655736980941, 0.01785997899367558, -0.028857525110833657, 0.03523449993634875, -0.034113718095950436, -0.06167146635982358, -0.09603074512603837, 0.009439790117580938, -0.0030481571545267817, 0.02401668813769185, 0.001012504549947627, 0.05664516336614869, -0.020993700097156655, -0.016932247468602456, -0.0005322688744324494, 0.001894644660243391, 0.02058367930974596, 0.026334319889124522, 0.008429442305665611, 0.1258524381644606, 0.10766704147842389, 0.1685729390846034, 0.1823072961919242, 0.18756906082399077, 0.1703362599051, 0.09306280485841432, 0.02440230942223508, 0.05702097479145181, -0.05747651367750564, 0.0018492750700098912, -0.037618513613521455, -0.03041975685042528, 0.05261319524421189, -0.00011825825044806844, 0.04932382296673734, 0.053056805094497936, 0.0038204631390828282, 0.09021746730086165, 0.025044327573064663, 0.02143452655919331, 0.0022986365164294974, 0.04110931351581317, -0.025485564712087197, -0.025787078213220717, 0.0315812315329043, 0.057520896010670716, 0.04694884199194411, 0.1680635042344943, 0.1290092390174129, 0.16509702476962584, 0.09314639676874445, 0.07175632435591155, -0.02193831945949009, -0.06408421499651208, -0.05627459032915749, -0.06359366678373995, -0.10157339091063854, -0.21792891704216116, -0.14808083359003682, -0.07234674264880896, 0.005179958102159806, -0.003050629325433498, 0.0435328236237298, 0.04517503555895212, 0.015014478373880922, -0.020812975589623892, 0.041899809390679305, -0.05535230933010769, 0.023587879847997362, -0.02881297319346667, -0.04948652907621384, 0.00600003556066746, 0.031854407413297474, 0.04523550777094253, 0.09969100266514155, 0.09839906762444313, 0.1858348085918549, 0.17936453990168383, 0.11194509950804823, 0.021753701754442585, -0.00987945375915352, -0.08265439224807214, -0.12306261397844398, -0.039271789485240204, -0.15798385777025004, -0.1478395242508389, -0.18903935292317925, 0.01045294855559555, 0.018630688908026195, 0.05110957457608784, 0.09278583366659135, 0.17053578622468973, 0.06102155592049747, -0.006695352248045001, 0.05969224082450511, -0.0347226083076909, -0.054408729208592785, 0.007294437924447588, 0.05002676696831361, 0.006586507881505932, 0.030086828361840165, 0.06247482903923506, 0.0031530832376787513, 0.12371812599319794, 0.06627322707101273, 0.1232635433003917, 0.02413012649680298, 0.009775629777596332, -0.08346494315249485, -0.15542544864075186, -0.15518928927097322, -0.1534998014208431, -0.1917598553406558, -0.18184670841310477, -0.10265227071052434, 0.007365539108085561, 0.06632396679967961, 0.06350188405461488, 0.11427762652528849, 0.14855532564655782, 0.15233822709189584, 0.027138179383151165, -0.03468745247002895, -0.00016522702944414593, 0.033971954534381385, 0.005457341665974621, -0.01260410117304346, 0.022401390454843358, 0.06803626235100461, 0.03702452986187481, 0.059026405203486274, 0.13668681530472807, 0.15055048893141548, 0.053974064237403134, 0.02466388099684214, 0.005242176541387624, -0.10846237051175736, -0.12213944939950658, -0.069696515086297, -0.1346594564644462, -0.1946648320978354, -0.09066785773179001, -0.058632208595538235, 0.022707948366456687, 0.14599184628700948, 0.07697147781343096, 0.10530144526288888, 0.14852063867215926, 0.14184163705345526, 0.05708122144714485, 0.05202298985290047, 0.04700056499247054, 0.049112105900586796, -0.04125906300313841, -0.05067841317081918, 0.06323615309466764, 0.004029025306881847, 0.04920346370021099, 0.07992749123412823, 0.1565975912489995, 0.11429118576806889, 0.03137229361184588, -0.03063690940845629, -0.051821383951105526, -0.11900662297023827, -0.07957655812645525, 0.001641802392852424, 0.07112207141216051, -0.028552299994468462, -0.017307365181517095, -0.05272152096909622, 0.04419105718250231, 0.05488065944359333, 0.09859164969454653, 0.09081782518039408, 0.10092168180563463, 0.07037074701569485, 0.06644421406747274, 0.012317590688819597, 0.028372018851919943, -0.03646080133986678, 0.0007481719597106544, -0.02363594179697753, -3.0451757931738462e-05, -0.03240887213643018, 0.05031912473194985, 0.051435994667468066, 0.12552305620684168, 0.10192205018601146, 0.06469646781389703, 0.079666065139792, -0.12087713101804005, -0.11267003548735456, -0.0025098538673650104, 0.20416707181054838, 0.1763228595588875, 0.0556864836909727, -0.0698793413512817, -0.039501028331160114, -0.040253135717157947, 0.023188557927788754, -0.06085665477407172, 0.022838921491215324, 0.08490981268880977, 0.08780845765591995, 0.031234246871403176, -0.009138692031541043, -0.022283376601300295, 0.02238602681432076, 0.0784342844266574, -0.009689627333463307, 0.026037360859545777, 0.04664449366299562, 0.01186981349045889, 0.04266112469277702, 0.11004690596774747, 0.09237162307429603, 0.022763513035176028, 0.015075572178025621, -0.018282502550863465, 0.001184999102636957, 0.1718120585275543, 0.3284086884843254, 0.2721047490625183, 0.10022688131287516, 0.00759130977668008, -0.13456498420665536, -0.04470575422306796, 0.00439749747841981, -0.07705080811587714, -0.044417739367677046, 0.04551756727180979, 0.04670605183700442, 0.04532262038623983, -0.0015409433037179886, -0.017647036260818608, -0.009051973655818089, 0.017513761799100212, 0.04188314651311951, 0.0786334538749646, 0.02820788111086996, 0.04762278400335844, 0.03751099554211481, 0.08013851130108056, 0.10324343547755528, 0.12657656398186456, -0.013833005156220823, -0.022794200082547497, -0.004534285519234514, 0.2893741501379288, 0.36183309853329293, 0.3029442983048512, 0.19692942746564732, 0.039700907487841414, -0.023335232629931507, 0.005724950273885676, -0.005205883920559682, -0.06059820808652602, -0.1513653539366118, -0.0803548290157239, 0.0622242142749005, 0.06398895374767047, -0.03431236715483173, 0.01777816907803063, -0.06538287589967781, -0.02544930283085159, 0.030684627178355663, -0.008626027292807502, -0.015771297344167063, -0.015021246302042168, -0.04037024721801987, 0.13706375713934518, 0.043385805309810635, 0.001789419939374439, 0.04022066765852671, -0.0318905523761263, 0.15217383712150398, 0.3346773229880429, 0.4282306509935456, 0.3113108457935209, 0.15559047550957728, 0.04628621380001949, 0.06597538190632317, 0.0779070229013446, 0.02614854080558781, -0.12192241294453143, -0.1528848622090274, -0.13264406358659425, 0.008230057545438992, 0.021218026978857465, 0.03807566139420766, 0.009094342341941833, -0.06993339331343247, 0.04582051176284583, 0.02287350355089957, 0.024663174302376047, -0.1416094793055359, -0.07735902632656881, -0.04884984225619188, 0.04661109905047579, 0.08369394582162258, -0.0982473821695978, -0.04906406854150913, -0.053457983581679074, 0.19854720345094676, 0.3173565135526146, 0.3231125507984311, 0.26824699199318397, 0.12365164121460394, 0.03697297835559842, 0.045928281625042505, 0.08709942985333634, 0.005160711633857622, -0.1658242435353442, -0.15337520476802877, -0.107965836121726, 0.0016290784715776593, 0.028572672356568782, -0.0020263080595876613, -0.013072050083838167, -0.050791049553702415, -0.04344197576445812, 0.08138412877681953, -0.019360473773663716, -0.12955539811999722, -0.10678344660005855, -0.04572297770329231, -0.03729891019685558, -0.06331418517557326, -0.12560576765882292, -0.025617485279116555, 0.029686968667671395, 0.3114327023954324, 0.32199949486100654, 0.31156077988674225, 0.2069157968554894, 0.12538787966545745, 0.05766426819004479, 0.008167158995560114, 0.022343070810645113, -0.028058794005213918, -0.06045173089559989, -0.12558746257896522, 0.0010663995406036202, -0.037014022735280955, -0.06834334569755471, -0.005633667010767594, -0.010597408276125281, 0.01703776886926705, -0.011388129993178784, 0.0033886705973416175, 0.042582630442994596, -0.07516974012377449, -0.0618084385107778, -0.013576449097441311, -0.10235518670219744, -0.06803854313894424, -0.15518261339155573, -0.06567409994386987, 0.26508106665425574, 0.35118624001779364, 0.3214630255750458, 0.29637559423954446, 0.20929524184648896, 0.10288636527460678, 0.0179897223328891, 0.034046659854513356, -0.05678295832538828, -0.00933492002763381, -0.09147895780304857, -0.06562417263341841, 0.08801274039786913, -0.0037064861385054286, 0.029329653092887195, 0.06115988950814655, 0.03205686946772752, 0.014653060275287446, 0.01550361877288212, 0.0868538134543428, 0.0013664002063081158, -0.04786402073867632, -0.02447105286446327, 0.00885019480391539, -0.1270120381017558, -0.19134992411008966, -0.23700143934697518, 0.012775251087258029, 0.2829335883093519, 0.27742759614336954, 0.30949172007491715, 0.18521745947891843, 0.06971760931839407, 0.01988069219738984, -0.008284005741947405, -0.026185687591944826, -0.07924256276743658, -0.01244883366154904, -0.06537048815462548, 0.0023913792725098935, 0.034480798079885557, 0.06758117625906897, 0.0028663308546928424, -0.05652183084779524, 0.0016928915850929576, 0.001954504939226985, 0.010105571331778269, 0.08497034771929309, 0.05174588726574282, -0.0025397969272489235, -0.0016263049019267417, -0.03126870211310928, -0.16175506500282458, -0.2619568416112408, -0.1353822267937056, 0.14146854031767875, 0.26601489608408374, 0.3423548904869293, 0.2685592106320933, 0.12660005335424265, 0.053578111246706764, 0.037566662792646255, 0.0032627850493651767, -0.007241932708920564, -0.01946301169828141, -0.026392632227135584, -0.027132188854700225, 0.061825758595162365, 0.07628650859800978, 0.05775959516565409, 0.049343238715325165, 0.015269811898413997, 0.03167327906733351, -0.001146690310414885, -0.0020554376542012342, 0.06825362201657147, 0.02571286786682615, 0.02998928163663442, -0.019268442689260826, 0.0017526689455841851, -0.10372953401586628, -0.11344428972390312, -0.14010313871663016, 0.05285288590195415, 0.2412526161558102, 0.3089279433131453, 0.196094661738693, 0.12605525348870655, 0.025870549721504113, 0.086566235710163, 0.046274942035317214, 0.047410897743292685, 0.048465820150265106, -0.01591697583538628, 0.07099851256888061, 0.0010875030831975182, 0.03570236636658873, 0.05729858705458968, -0.0012008158389490804, -0.009382963691563028, -0.011224569720466034, -0.00013192749244438784, 0.009962970204083394, 0.053723146124533154, 0.044971504657458236, -0.06400502339157832, -0.009898398420994877, 0.014383942817973363, -0.03738346086945238, -0.12896936017817773, -0.09131916281314544, 0.02576544860310151, 0.04197007048845509, 0.1158023338474722, 0.07864833959209921, 0.03789714160437071, 0.054012326769723416, 0.09670601909692367, 0.08017337497084809, 0.07828795813330161, 0.026283857230777367, 0.026469163330288054, 0.05443827855425175, 0.0643729992676388, 0.07112590142810846, -0.015373129073605902, -0.062320834648246747, -0.03790598309741833, -0.01401317123957423, 0.05786014540296565, 0.016739952358653973, 0.02196492645404358, -0.04948172840008942, -0.040451786783889956, 0.06046054485724685, -0.03980903936325117, -0.06366078410213774, -0.09182739471764449, -0.2161723806491759, -0.1519630595897494, -0.08655490430640697, -0.039062375802906765, -0.03900219234119584, -0.058592962867798755, 0.04887047998806086, 0.06551584802742577, 0.07976358456707651, -0.00608750238273965, -0.03344786992430378, 0.0036882003191572787, 0.05559547611892178, 0.07847825326999766, 0.05764558123634498, 0.023396048013527924, -0.008956354575683067, 0.03410687430469827, -0.029573402065344336, -0.05022486839129599, -0.0028792821346713413, 0.02059220271419332, 0.050673502587665, 5.941378418891294e-05, -0.05279511961640457, -0.06739368763321896, -0.10582381801755855, -0.13858761303223505, -0.2112056365208129, -0.1943988730287856, -0.11139992786080602, -0.12352899564776497, -0.10631294234404529, -0.10365773530044334, -0.03462912591386212, -0.03711348375564042, 0.023985308996600542, -0.016883738222509576, 0.02744991723176272, 0.015567096236358777, -0.022796286918547518, -0.016421489195929465, 0.005151393283465736, -0.0827446236846175, -0.06679031870452334, 0.04775948413109328, -0.020939589088185984, 0.017343575575446937, 0.003767928623767274, -0.0015589920760515886, 0.026906908328664464, 0.011159109171907738, -0.01319710843888636, -0.11472437280401108, -0.15204544351823368, -0.14470399245192517, -0.18495319025015597, -0.17853885880787818, -0.17171991167780554, -0.13151230879406128, -0.11097831925667855, -0.03435085002857141, -0.022021860184508447, -0.032997309482255335, 0.05271515693210902, -0.020410761488409947, 0.00797935458505351, 0.04666912547394484, 0.05143649053409044, -0.01294709021175047, 0.04759951556511849, 0.014038047152923325, 0.002951268565941821, -0.00908026822982379, 0.0015411323140869478, -0.06153769550402723, 0.0013042864743597407, -0.010376107941911293, -0.04441130968853514, -0.03646690720656499, 0.003787627767632683, 0.004137070928833559, 0.027917898547891108, -0.034105524301923394, -0.017143139014997734, 0.025787603880976135, 0.004086315018607746, -0.023892443113384766, 0.04556999973895739, -0.005522604366320948, 0.06824555698655325, 0.09390974380230635, 0.1124472448861506, 0.0723730447295521, 0.059285806009954096, 0.0562211706700036, -0.0034862301230954114, -0.03590472622953413, 0.10045442087982825, 0.012749045202124169, 0.02667894146831499, -0.03938385567641868, -0.0246351880460623, 0.010754960029332423, -0.008775450707502123, 0.01920546715342775, -0.0365829044890949, 0.018255445397612837, -0.05679126328794784, -0.10173393627487812, 0.02524275362923151, 0.04277190999133993, 0.11034519395903172, 0.11074055082012672, 0.1894846503179299, 0.11620983542515988, 0.13905701922497762, 0.09126836520290249, 0.1960065751175119, 0.09732186931902312, 0.11501506299331489, 0.09254869689165526, 0.031379363531266, 0.029780358166586637, -0.03761922570933522, 0.02429694366590136, -0.08578536305364146, -0.04788448095990989, 0.03196592211294367, 0.02243939118608985, 0.01620875066632325, 0.0009860082463486182, -0.021082449181822498, 0.008490585753657522, -0.049963043432399046, -0.04598489650666473, -0.03602733272488955, 0.04878142352616327, -0.02180131752921344, 0.024897872136011117, 0.03078759151197157, -0.009047813418897226, 0.06404715243595624, 0.03275804720182464, 0.09918397234200324, 0.11085222395024848, 0.07961386022682075, 0.014708258564856271, 0.029269678555315093, 0.046338677524808566, 0.03813732239334446, 0.04420322689208454, 0.035756769237435454, -0.013210071336799823, 0.018093570378932427, -0.04110529877073464, -0.019873232157868154, -0.08323396416466969, 0.005761217691512698, 0.016291687932418683, -0.010463412488076581, 0.03393712231415993, 0.012453404170070152, -0.030254798309092452, 0.029135222752457102, 0.07444698744223234, -0.0025603510097761957, -0.030055798659682116, 0.026355036315026923, 0.03237343718858814, 0.02639744947637607, 0.09634352577320379, 0.05181192221232765, 0.03402327488499112, 0.007855050640088446, -0.007963218239823835, 0.008766955868791164, 0.017872830580089382, 0.04699123209458378, 0.08073206937672295, 0.019690265816053126, -0.029669093166600605, 0.037346410638607726, 0.006583493101888094, 0.008101735419624922, 0.0640674476934379], [-0.00940273314861475, -0.05325767509431956, -0.02544846708737066, -0.03464228540577556, 0.012250558613478532, -0.029932416129798287, -0.009522248426399616, 0.024558858448182095, -0.04241246099225109, 0.022016057618317056, 0.0005061458525039795, 0.028339528150914815, -0.020481565801616697, 0.01817653595912781, -0.007426577380746592, -0.0008097662406553227, -0.009442093969313886, -0.036417515104435506, 0.02255802069963392, -0.03985426246642612, 0.02391261258192869, -0.04455637314437141, 0.010449663663541225, -0.03181528144125763, 0.026488255317679926, 0.022366002429600573, -0.02320841407993485, -0.016087871069529757, -0.05304307937804914, -0.041695834139880227, -0.0070705099272706145, -0.04017797176720194, -0.018056406224165114, 0.004608893008294049, 0.0463939382383272, -0.001028044680206357, -0.019255123832498104, 0.048025933724837204, -0.04879992370207684, 0.011759260046074612, -0.03238426191703071, 0.01477107121636345, 0.029258058426237108, -0.049613956429667594, -0.036783256750007466, -0.014851386708686742, -0.020858128440430203, 0.013627777365791984, 0.01720377223847467, -0.04417056705065109, 0.01921197865927596, -0.0423187108714755, 0.039380079148407604, -0.0014933459523594455, -0.0014913879037486476, 0.005948319944951725, 0.0393521275542681, -0.0031007418879077115, 0.028460659320936662, 0.042968967482347575, -0.014303891474028989, -0.012545442395259435, 0.02076568387396294, 0.01232878324839836, -0.09150663493359304, 0.0792106776441404, 0.0316976982955968, 0.04615748999940985, -0.0219660172184645, 0.007964792210988295, 0.049436224465371575, 0.007054285775647002, 0.03182090619563743, 0.0003412281820165936, -0.001925380438424138, -0.0751001449058745, -0.05166576161638598, -0.015350458693529684, 0.04522993969841951, 0.0032689388196851005, -0.024154239539579448, -0.060586370797642716, -0.0023205780445124413, 0.020795167883933385, 0.05370081180998109, -0.05576036279859311, 0.020547793903817394, -0.0028173039626203894, 0.003358235803644538, -0.01003705502873304, 0.010268963250032983, 0.026581572416096055, -0.06182627679964432, -0.07584858092039186, -0.07703016827650042, -0.06130511104511274, -0.06862562396371819, -0.03695729768355161, -0.09949271809753694, -0.043090961357951756, -0.04584222237871542, -0.038878632319979345, -0.04736601149240661, -0.13863500315128238, -0.028958572192163176, -0.009668842365379326, 0.01255229883674042, 0.07195043162219115, -0.014448103129982723, -0.01708982027223105, -0.018408033605821404, 0.05861708798477648, 0.02680147546032761, -0.00012249007611231459, 0.008639615134399961, 0.020483440288877695, -0.03655281779623705, -0.016807642972188876, 0.006513084528044922, 0.011389341551659344, -0.03206142801728633, -0.07483822289806492, -0.11182967421474653, -0.13597060662521812, -0.07176396870862164, -0.024183367176174808, 0.05283392061324918, 0.02144885003093418, -0.08180651873942953, 0.04653487365273418, -0.001994116903086051, 0.0915975391136733, 0.07463775856454441, 0.08715477307555247, 0.06309673875357905, 0.000662509064610399, -0.03650031886873238, -0.042196836321301945, -0.048303656112742635, -0.002044570627610875, 0.000520060718048045, 0.025555621659364595, 0.015302026511856455, 0.02089645627425334, 0.024161027516154322, 0.02510250953154268, 0.012003366023697856, -0.1171738510375637, -0.09083596310477177, -0.18871421050107193, -0.15023852959290449, -0.18825227833283406, -0.12713740840970403, -0.00562739674897632, -0.02741103625668538, 0.054000865884831724, 0.02120605014104718, 0.0008690116364583665, -0.021122081807406826, 0.07203827227116891, 0.06640364576353333, 0.11737858067777913, 0.06469348085253605, 0.0028210176968520013, 0.03821427598677335, 0.031317164444272294, -0.026382625239082556, -0.00831293332665235, 5.0661815924347836e-05, 0.013273677819975939, -0.021814461038140595, 0.04029342400126399, -0.03712309699726791, -0.011192373141323148, -0.007662818587637408, -0.07028449914839308, -0.13489685833132203, -0.16155444208609884, -0.19090227155329828, -0.1713871026676377, -0.10807060738979796, -0.05559496530216828, -0.07837810913708315, -0.11866815411444095, -0.09948100183595755, -0.047587442354709124, -0.055604886517512865, -0.025650364146324628, 0.04521544059683018, 0.010930031978289057, 0.06062139750801454, -0.04349474531028827, -0.09875342872541142, 0.020470005772741207, -0.0038342169856423374, 0.006615979368008435, 0.005813584815110922, -0.005811239121669892, -0.028404731326591694, 0.051608267525388204, -0.014967931534005087, -0.021673406980426066, -0.0698109721056864, -0.11084530426450216, -0.21921683672454, -0.15495601945108692, -0.2618232581455487, -0.23117977344158808, -0.05807671643070465, -0.1314861194428156, -0.11586623947274335, -0.21741984647574744, -0.21686804228065887, -0.09492649014038937, -0.04674941257392529, -0.053176235845113023, -0.03505796967321183, 0.0322094406138257, -0.002636337168426026, -0.10675641966148644, -0.09905640405542089, -0.022853358981010312, 0.016615248468227085, -0.02716110014093673, -0.018422292176766653, -0.04380149591895212, 0.010201355731555565, 0.026215966833190472, 0.055939466474282565, 0.01772666164648481, 0.014058785218167917, -0.04730796740376797, -0.20400627389874443, -0.2749947788354427, -0.2741918749609634, -0.3002537231375702, -0.1561344795406515, -0.12306759148552782, -0.1150835103054402, -0.09350937203990298, -0.11674223376273246, 0.008381853929934764, -0.022395609578821512, -0.0580628087809231, -0.08281449066036162, -0.14105656303668232, -0.13056680607615137, -0.21891786036698055, -0.13067371295595895, -0.06904573560310782, 0.04521081408846069, 0.009898456886021999, -0.023366763801479833, -0.04482507102677204, -0.00942522350284497, 0.03948286791049461, -0.005890173087452211, -0.015745270722750497, -0.052241809507009115, -0.13886177117822573, -0.1998179853168583, -0.24565493516693426, -0.31330738314327217, -0.2206429665089071, -0.23317639107149704, -0.037829881981239974, 0.07743202445958386, 0.10242222353108416, 0.09711535136268898, 0.013389537705091931, -0.11624693144928105, -0.18757145103644007, -0.20975079439320943, -0.22725389223636513, -0.22280597448625628, -0.21295457397223108, -0.17348508741991772, -0.01568663715372478, -0.026433087717207426, -0.0067920950643244795, 0.044225220253974205, 0.060318420027151376, -0.00904360308704025, 0.030935796698391894, 0.05798204449558314, 0.0014492669828597765, -0.07124197539219364, -0.10964595856627113, -0.14026132633078564, -0.1657173648988505, -0.2730149721491128, -0.2686738222250842, -0.16088594306120893, 0.05050397908305146, 0.11326785840380625, 0.21180564212636122, 0.12178915882601957, -0.0012050169593063524, -0.1133695507736619, -0.21546574866319995, -0.23200454962571457, -0.17845843702533687, -0.23178384056331736, -0.1712784998798663, -0.09013673440841513, -0.04014198966523102, -0.0003535122314061589, -0.02351020841829806, 0.011869474289476361, 0.018287408892920656, -0.024284486682914254, -0.061172134195129284, -0.07128270135781989, -0.03766240079670917, -0.0895880042563083, -0.10167890687891046, -0.19785483543341895, -0.09663681426591983, -0.19253396539647732, -0.27641305137155286, -0.08801723114164796, 0.18140844935483624, 0.335077292317429, 0.2627107949400183, 0.04779326477945634, -0.07184130447295116, -0.16821102904098412, -0.11943671311383776, -0.15677561512554086, -0.1551494616428592, -0.12671419329378233, -0.05788476210804582, -0.02370860749644956, 0.018324672515019312, 0.021913131912748116, -0.04998424212797593, -0.006869330234247032, -0.012444572858550086, 0.020650687734176942, 0.046656064043933534, -0.010785372318701416, -0.02461687065168915, -0.048064249111128936, -0.06905704930214522, -0.1021028573267038, -0.17743640519348064, -0.16099038867678558, -0.1960476200951458, 0.001476604270457447, 0.13860462770362947, 0.38404153372647637, 0.1969589253254017, -0.021747836709108317, -0.05557587927434663, -0.11932115538454766, -0.14362583573431995, -0.06253424342845053, -0.08497415968491884, -0.09626158986265661, -0.11759699298495577, -0.06844895235088086, 0.01873719597904254, -0.050220484647135695, -0.0023008225467975193, 0.02985725177948534, -0.0011472055150257765, -0.012264231650802234, -0.007384363727817065, 0.027415039997306052, -0.01129638564872819, -0.047870044157771, -0.043237863148644536, -0.07319882818302755, -0.06925940099291293, -0.26008890361988496, -0.22378668255206713, -0.002120814617777117, 0.15167136231373998, 0.2536153246565352, 0.20590556631169743, -0.050191457361802284, -0.17188894216181602, -0.19730342805315013, -0.1121901121636131, -0.03974564058082946, -0.03368198111893636, -0.0977982766142858, -0.06604576528896854, -0.02209692163067141, 0.0019605644705840823, -0.0005197725167789297, -0.026495787590862047, -0.030753515641984364, 0.0258614630095472, -0.02057464252518877, -0.05196201173548742, -0.004880867049994743, -0.06233253866827097, -0.07536068077221769, -0.07175016942300501, -0.05210063092662652, -0.12408550160599502, -0.18352295312356748, -0.2013278902453094, -0.0354312384842223, 0.14555948794847395, 0.23423099145195883, 0.02464088465597935, -0.09781135227725228, -0.21419779595845057, -0.17202818792304886, -0.09235181348888248, -0.06397045836898087, -0.04472250700329581, -0.021393144301104845, -0.07622970044059298, -0.0088138908615783, -0.03294922647813008, 0.012169307542175928, 0.01928366266256391, 0.017950464133451718, 0.029432515516965185, -0.015329313830922035, 0.011812500361821451, 0.013292186787288942, -0.028944481960466287, -0.04781250900408443, -0.1299450771551707, -0.09209265037092988, -0.1368487512140092, -0.16681368864861185, -0.05967341741601454, 0.01993713262334721, 0.23929335638816304, 0.19240082641949496, 0.0032714858287736393, -0.25668847705996983, -0.33912558830327044, -0.18265965148103963, -0.04843351970875483, 0.018017351424353487, -0.08162809068219481, -0.03322225307902475, -0.051967048448164146, -0.08637316127109268, -0.06486760649164115, 0.005328249742847602, -0.014022313277894905, -0.010019675996759287, 0.014514066192870228, 0.05278878311074227, -0.0012068597268594763, 0.031938503146039486, -0.028308531220657462, -0.05686284249020386, -0.2066749013588669, -0.1526325654886337, -0.06396719527099258, -0.06442467239166345, -0.037144633513937014, 0.018162460275480827, 0.19331060844411957, 0.17016272489770679, -0.1716289928643496, -0.3053708661753103, -0.3750637434555528, -0.18608638233501726, -0.04220820111929675, 0.015857497946899363, 0.009202348442642446, 0.01277859833023309, -0.019481512024474183, -0.02346048601943666, -0.03995341886890945, 0.039286324664912504, -0.011642423180920788, -0.03359327579650757, -0.0073488325186248735, 0.006199984618507045, -0.011321846607754274, -0.029320742297241145, -0.08854305787073379, -0.07620330976203996, -0.14549328758285704, -0.13883218866269675, -0.0986959231234704, -0.05811827909578762, -0.07732461871540716, 0.03884160692376314, 0.25318327640107563, 0.12291285790905263, -0.14782039035080205, -0.3844932381418862, -0.3483890653884188, -0.16706956969021547, -0.0377510477594637, -0.007970617831529522, 0.03236533414483876, 0.0025365594413756295, -0.12055328298720035, -0.025632440325333104, -0.084070390324544, -0.01956445421790855, -0.027174857160523005, 0.03594428809492802, 0.02667186528001999, -0.03974256535661037, 0.02971935751349006, 0.015398968636777446, -0.09969737166281295, -0.26290209504824885, -0.2002516146876983, -0.1518845131511179, -0.06622907068517644, -0.12934599918136952, -0.05652811848123697, 0.10488026545603506, 0.20767344089885864, 0.07264305492869685, -0.2753031627799998, -0.3493212631964212, -0.2319959266810611, -0.13493886161675608, 0.006863991820419711, 0.034678080092469366, -0.013618286247145676, -0.012312124953577176, -0.10469011365168304, -0.027682600076301942, 0.0005703880121022371, 0.028755482455427563, -0.02205571055954512, -0.027813682319995633, 0.003995632380023748, 0.0414102836162579, -0.0019261377653521595, -0.0166159766712221, -0.07178928644764566, -0.13288039945925498, -0.1199286955059008, -0.14116568063706522, -0.12128449007273003, -0.06855216054019583, -0.04250651260340769, -0.019031352067616268, 0.038881320158300106, -0.07304916972803992, -0.2454352771799801, -0.2606954290255592, -0.17235453824983035, -0.15370152841493687, -0.12061535412111382, -0.061868115360849345, -0.057959355855532274, -0.02942453080672115, -0.04292671924976836, -0.06065500329099376, -0.06355241061723545, -0.027535337644737607, -0.025430899440896177, -0.04062861405592147, -0.032832902611241666, 0.014929978628063258, 0.025448263617534994, 0.09462635563116598, -0.06235865972383791, -0.022939732745463768, -0.05396651041418116, -0.027344478937898764, -0.11741392550591978, -0.04744983899397283, 0.012835517772292476, -0.013957942749570924, -0.03946246453821374, -0.10420765144967571, -0.17603531896929336, -0.1264837593383748, -0.1652631971324771, -0.14436017700955725, -0.0716952082921251, -0.10478511816445882, -0.14215154995571846, -0.11185361903583659, -0.04738727132649336, -0.08811749593594902, -0.03568864740862278, -0.011321217129922265, 0.006409711360778218, 0.05788264236488933, 0.009755560070789454, 0.009478176418044762, -0.007552739869139113, 0.022652253049002237, 0.05949976496078234, 0.02594387550188625, 0.014371111934094209, -0.03877312361647914, -0.06404054203104344, -0.006209761818516785, -0.08222256584935575, -0.17757523073856052, -0.15788461014676042, -0.11575092050577052, -0.03982773993892268, -0.08738071987689985, -0.10447012843545338, -0.12128852576305155, -0.16783148508451268, -0.16092055789525803, -0.07984220931067416, -0.08536831334978978, -0.13621676162457408, -0.005613241557806317, -0.05460388893858182, -0.012519188754280389, -0.002381025933008246, -0.02839125822715971, -0.011092663674557565, -0.031813999246869756, 0.00953772680546896, 0.014511045407987448, 0.10448411648991117, 0.14141481454321844, 0.04690711224520386, 0.04515151811588945, 0.03901061874412956, -0.04214701421955985, -0.16358935926042453, -0.22141649591403323, -0.22677223599677096, -0.09665725108879494, -0.03621470047119496, 0.06221629042182679, -0.03771730632088779, -0.08541832006077343, -0.15119713513343916, -0.0859817348364862, -0.19551782867959913, 0.020406293624545803, -0.044799665554304945, 0.0001579616856650795, -0.023683156474765606, -0.019534314206429332, 0.008012382504050801, 0.01283449079129638, 0.006669546037102298, -0.012643972617650361, -0.010899749094228547, -0.003837321859894914, 0.08897371429052901, 0.10498112385155536, 0.07499700700524518, 0.03304103420281198, 0.05664962551014335, 0.000800527983880172, -0.11392380341331622, -0.07476882837916318, -0.18675656068206462, -0.04552750578327932, -0.07719533381875805, 0.042852797778328885, 0.00890292629701839, -0.057544852971275276, -0.04418345557594377, -0.09944670248292509, -0.05322077451203077, -0.03519061446771944, 0.0026351979052935634, -0.008319709962684085, 0.026448857797006082, 0.01691822280054035, 0.008945874179950193, -0.001896228187820738, -0.02261928511349577, -0.032451279509982396, 0.03333766404346321, 0.011878420328869328, 0.0008139650938068643, 0.012680413177185131, -0.018481152560130297, -0.07775860056248775, -0.07164856294136626, -0.15594888075554286, -0.24058270942441645, -0.16493541932678762, -0.1401285438137294, -0.11298497291466761, -0.11611450555258235, -0.08466631968615028, -0.025753679295199398, -0.030027987131620092, -0.10248032926115601, -0.06342996734346762, -0.06838829477535678, 0.027718843987560825, 0.043593924065009886, 0.027136439166087482, 0.022130928085892447, 0.009212642464808875, 0.02491557240208363, 0.00471444937537646, 0.021928150177722164, 0.03670320060722204, 0.00014230376115068248, 0.02440814348239662, -0.005852149794607063, -0.007353510535326997, -0.09265376173045162, -0.06385577341078133, -0.07343495539890763, -0.11949229614258537, -0.1253137882685429, -0.09957066719108658, -0.1385382274438374, -0.15435528450722613, -0.09698565352643984, -0.08900462642168379, -0.06006223780757946, -0.016702091864083227, -0.009906892139882542, 0.0194404801676948, 0.008942710802730439, 0.02434592263044879, 0.0005990859798497688, 0.01861589032724011, 0.009684166384137041, 0.005482395056711513, -0.008915645592206162, 0.028857711717513203, 0.028537053837136398, -0.01910369905461856, -0.01158885276555019, 0.008844557726947236, -0.009806156687413909, -0.042297859200073305, 0.04132150175670181, -0.006423249771228951, -0.0413030925122607, 0.010237414842680953, -0.026558176781136877, -0.008464244185387102, -0.027783581205550162, 0.017471708600171, -0.02215060226957539, 0.025470884896157987, 0.004248529605696287, -0.07171991516750137, -0.024169451033424584, -0.023915075222448047, -0.001525303278753343, -0.02358278611949467, 0.016017547957613985, 0.03788074968946144, -0.002639119185818802, 0.018111704168360554, 0.035583828422342374, 0.015467215495850688, -0.00018898496701133985, 0.019291374710546608, 0.021610533627729533, -0.020040454062165893, 0.00917435695765148, 0.028100856568342672, -0.05536663553916489, 0.059324444119474615, 0.06923413201429597, -0.033823559267543955, 0.012462455826593142, 0.04373914202614477, 0.014775261356034207, 0.016711032067303996, -0.02625619280768407, -0.026841410293680982, 0.04082257024256405, 0.0008654683294498088, 0.029775104430408574, -0.062448162636157226, -0.020697254191442298, 0.013178238084407077, -0.035737435459607246, -0.006134015352297508, -0.034289536973633405, 0.059082625636806926, -0.021503433177176068], [0.00954605974129141, 0.03121390019462369, -0.03755072346614982, 0.01596163542515411, 0.05822569022808764, 0.032612375125936524, -0.002663416449080164, -0.022162932352613147, -0.04261981258610475, 0.07757181716646985, 0.04245551853998473, 0.049368122388263436, 0.023800020551244538, -0.030324053509013422, -0.008438549295262164, 0.024735204475306683, 0.004990882603922182, 0.003019940416098161, 0.027366711525109833, 0.015923602322375514, -0.03215312179052616, 0.0034153543161833623, 0.026531477272458432, 0.020028497540989815, 0.012839342048146546, -0.016083537297053474, -0.024127871552354692, -0.01706355207351387, 0.006523815793540457, 0.02980421182296297, -0.004706023811009803, 0.03107621647775333, 0.008794985615459331, -0.019024907795106266, 0.004021025102973417, -0.02074876353543327, 0.01834113538889952, 0.012211705029247627, 0.02399843801333907, 0.029569465189759142, 0.04363274252989946, -0.008987184999112144, 0.009891120294785194, 0.007900730476263244, 0.03784830683782264, 0.018653822912977534, 0.03873290372928652, -0.014103381412464446, -0.03273216865901362, -0.014710192409727834, -0.014048933093242552, 0.021638317023061238, 0.0015679352277768667, -0.005652690792530686, -0.016774660696581224, -0.03144093995110071, -0.03569694686085143, -0.0021156888108516693, 0.04511231994585319, -0.021605682659481793, 0.0470480389812205, 0.020523972322270417, 0.035962039128920376, -0.03127141449049411, -0.0481109918767832, -0.0004072053998828236, 0.04915466940410157, 0.024621057886539073, -0.0015769939177257366, 0.058194859497892444, 0.02699602572626636, -0.022342283850207544, -0.05872658896687714, 0.024489965650212317, 0.009621074012268934, 0.01741245658461409, -0.021110782977061256, 0.027783265835755504, -0.05934738663434715, 0.0015499283633253315, 0.0031576218986906586, -0.021111314921899417, 0.023689459564274824, -0.04133911855535516, -0.0386935088537029, 0.009262532200975908, -0.03820393298335094, -0.0281601480798579, 0.010916796883495037, -0.025986307452420615, 0.03583746563120103, 0.020552785426554983, -0.00435759103415008, 0.044876420610693274, 0.03537969937768344, 0.05880648158939438, 0.17003247588834303, 0.08416492936198491, 0.1043314001240311, 0.0787555442081763, 0.06114662315406775, -0.01235866813786223, 0.034565652693438226, -0.07611478716478617, -0.024124669550145094, -0.043361303452356295, -0.04349228196864598, 0.004095790578169091, -0.020381470838151856, -0.03435115779560899, -0.007795395269253962, 0.07624806396937481, 0.0019079339324856743, -0.059345730167419675, -0.0012835772374988675, 0.025562987893121985, 0.040383079139497534, 0.03276486495101823, 0.0019847735821211725, 0.026085570033098027, -0.012787553813050996, 0.07937071900281663, 0.08750827768039511, 0.07969617064329718, 0.0971437430704799, 0.11156934840460213, 0.11318461930554836, 0.14523188199757725, 0.07138004782993079, 0.03791552693773267, 0.06154099505312595, -0.023381431233141462, -0.014894136837824474, 0.004441113313646411, -0.02347480181753256, -0.025718913343263518, -0.0459583227914307, -0.0017890636462496794, -0.025850314749920503, 0.027436472798435172, 0.0035031908324218057, 0.014473219989226911, 0.07531890374807122, -0.042986231382292336, 0.02613269068492026, -0.0021425859613907103, 0.015982401199846, 0.011747241650567931, -0.011433395767770315, 0.06283183966007236, 0.11991711754579655, 0.16457448648221007, 0.10754531676017832, 0.17670723669812283, 0.14003931837912842, 0.0822243256239392, 0.1623269025629206, 0.1683543647875195, 0.18658925816610716, 0.17190905378023988, 0.08543911988547265, 0.07749233028343208, 0.010621986407226704, -0.009348889635986044, -0.014635823571075169, -0.020144165087513162, -0.03065599195324508, -0.04081715911617924, 0.07370537977775501, -0.07662960091232851, 0.004673951800164653, -0.058617340375528584, 0.04258695828336225, -0.0009554836125810525, 0.04608595514204139, 0.014560808370960566, 0.03799703284934217, 0.02597226521700177, 0.04663680079504374, 0.07886102006315691, 0.08954679215141884, 0.10522626459326904, -0.011738714618897956, 0.007412505309801422, -0.006262933980740432, 0.0744034493633575, 0.15258307908832844, 0.17648041295618072, 0.12400991819664163, 0.03470585296704257, -0.013584329193207956, 0.09124277848389677, 0.05560964455048541, 0.03286664877425401, 0.039239552420306925, 0.004950289962661542, -0.004008144032252395, 0.030905381405563273, -0.0031959247052686223, 0.018032201407637807, -0.020331237628447206, -0.013632024135710338, 0.006321823999539086, 0.06905008696548595, 0.10118201437227323, 0.018659492901841396, 0.07553049369918799, -0.016790066295713026, 0.01183704260713688, -0.1516184081887475, -0.10833559479178057, -0.02801646637994737, -0.07041274167973086, -0.06264088157086233, 0.09375912951921077, 0.20318657092703524, 0.06640249231096285, 0.1101331958227274, 0.012320204464118757, 0.04014518940374886, 0.11815774054893018, 0.09523107958146725, -0.03780278963483635, -0.048904756299828635, -0.04161708151288559, 0.025182924586918797, 0.060529392188961015, -0.021468752448841315, -0.02827158664651383, 0.012565729677377372, 0.05290143147475998, 0.029862092025884267, 0.11692636552042958, 0.03857350209053215, 0.08442759961659436, -0.016396223621862736, -0.036076175631662204, -0.056887557470163885, -0.1068856217314407, -0.111185416364327, -0.01267454724639855, 0.027047617028142363, 0.005219282889778472, 0.15678465895999485, 0.023664231805960056, 0.02263817648803963, 0.10636169257816479, 0.1149008691112337, 0.14940210769654189, 0.05539793052456131, 0.02521502259767009, 0.024818277651708093, -0.01631574394653134, -0.02117571459721753, 0.005520161148622747, -0.06315928608605435, 0.0058453696738472085, 0.048842183114562135, 0.09178704150565879, 0.061130431235545, 0.11283559306402877, 0.04878527481445608, 0.050443721007321064, -0.023754223195352794, -0.009286296504540683, -0.052697372046958506, -0.11426248308418303, -0.15161946901992646, -0.11099581782047596, 0.0415625929009979, 0.08518090686975342, 0.14149049068182232, 0.062234031548157216, 0.12025443821309739, 0.08077387813908261, 0.155986743807715, 0.20463552421934472, 0.12982053472929989, 0.05156789629564218, -0.0233694419556201, 0.03950180671472903, -0.007696522666172427, -0.02127689006058134, -0.05665486792350443, -0.006257058128874392, 0.04451633982223227, 0.04412377193367719, 0.05274429058060348, 0.003952669808569707, -0.04497628909715222, -0.028240220349721953, 0.04372598198103882, -0.017873357684324506, -0.06760853276417392, -0.13492765939772491, -0.17134236347209003, 0.002357269574778105, 0.07642492232457895, 0.06135391903367592, 0.09297351851341644, 0.11226220358258547, 0.09728766276995128, 0.13230162890275352, 0.186746480754838, 0.14974330849679426, 0.12553665237802336, 0.003030315892546141, -0.039192844558557816, 0.021289045902188494, -0.008876430776505491, 0.0489599175368858, -0.0257163345477852, -0.043843518442439514, 0.01995957233139755, 0.01734170038566453, -0.003663777552874021, -0.0747125757695831, -0.040026173192970825, -0.02798937410785395, 0.025774274403686084, -0.020269511038330443, -0.05999089438195926, -0.14786116903173155, -0.2504454862536613, -0.05958728787543108, 0.036808501287306034, 0.02041247056840522, 0.0968831869572033, 0.04223038243103462, -0.003131315758450939, 0.10190447586820538, 0.17544485747648486, 0.11292648567982685, 0.04770497003061696, 0.0449530705330365, 0.00877700141150519, 0.011171440876809267, -0.050504472919781995, -0.0659851221421753, -0.03995318417804681, -0.028352565133566054, 0.04318780151151382, 0.010676107180616469, -0.03704558460525973, -0.07371162925498113, -0.06347328433054988, 0.004724447536120519, 0.015260824726599318, 0.012305537816899343, -0.01407166046320564, -0.15039252530221045, -0.2187136482691298, -0.12962215313179665, 0.0467603644204732, -0.054471589226114704, -0.05891155291743392, -0.03562344990235893, 0.023783477557973682, 0.09709380489320577, 0.12248249460411814, 0.05524187679888445, 0.03130448742139187, -0.0029483754729102887, 0.037304925443356965, -0.010029910079481928, -0.02237755200101045, 0.04718470015117742, -0.02391389522397887, 0.023370386835335592, 0.04699377411865697, 0.0380282510149884, -0.03940302665088128, -0.09710381110265451, -0.055753982682003274, -0.13137065208152282, -0.016170743956233184, 0.011021500923383097, -0.12891977264796153, -0.18375516965721492, -0.23975411749583575, -0.013398812999283298, -0.11642987673411803, -0.09453740755024335, -0.12858052256025962, -0.04772141475022818, 0.0030162911376506547, 0.009252103509666905, 0.13014228404143618, 0.06986823750072202, -0.008345298980416973, -0.011501515688493232, 0.02900139403487929, 0.051184333822734344, -0.019020743213856786, 0.0270566502285612, -0.056517357150519, -0.04883963596956077, -0.022359984812754186, 0.016333857766040898, -0.02704974889788538, -0.08944820472383239, -0.05865488291328835, 0.000891019342475147, -0.06048294820256064, -0.0702244703003622, -0.1201053424496481, -0.263448688930309, -0.1739269238137337, -0.05872268002831848, -0.18703784244581984, -0.12079255803968092, -0.10493955352617103, 0.018351128183132177, -0.0036047789247806625, 0.0979666882969987, 0.05738765964861991, 0.04739928680230067, 0.003041725526777242, 0.05730573628778311, -0.034001211182915096, 0.03729106797379357, -0.033852483134774854, 0.017481490575187192, -0.004744356366918445, 0.028935967834722156, 0.07719397784843784, 0.0704263523709458, 0.11285378666244505, 0.09020314948829684, 0.08548492495414615, 0.056436412350722484, 0.011943284412774091, -0.08825219361785049, -0.13264908494948519, -0.0968272561495701, -0.10385251434717264, -0.1322616489873276, -0.21259906359963357, -0.11146436108401275, -0.01084151824381086, 0.08060873448335962, 0.06792542072130786, 0.11742669944130617, 0.09498418047425414, 0.08139302077103239, 0.0650504949257809, 0.005633787306316346, 0.015537626431552376, -0.02475006898803948, 0.010643683327316064, -0.022292528378765157, 0.020634069071097248, -0.009775835826085127, 0.06724939318944387, 0.19808730232973534, 0.16185845828844647, 0.1350992713099109, 0.23471560491680024, 0.19879225030555675, 0.08050412462101288, 0.08101474319282642, -0.011994345226162587, -0.12647016343087775, -0.11137253776204038, -0.1973809151035239, -0.0746204154342514, 0.04930068455209931, 0.1210966376923641, 0.07990823497485003, 0.11830129637199413, 0.1612350079442588, 0.14135559460519237, 0.11400339521832532, 0.017841508350089623, 0.026398296176644832, -0.04609113093497042, 0.0020830222508066423, -0.031962743964853206, -0.0386888806135802, -0.029346389375522808, -0.012196387836228915, 0.1147274141914899, 0.2177635428945738, 0.2157549849210353, 0.2596530632826753, 0.3226443855592779, 0.24860407854376426, 0.13306867466423458, 0.07015192342585415, -0.07966583491449529, -0.03766657528959143, -0.05486396504724428, 0.0371607289950009, 0.07887644526333526, 0.15585648967404875, 0.28797807893195193, 0.19254905571120762, 0.26432916936420925, 0.22410966331543666, 0.13405842554624442, 0.08051740780764025, 0.10500189939303624, -0.015474202309980976, 0.024240818224652377, 0.003192716734685337, -0.08967964975229968, -0.0019988272122757732, 0.056710192623379535, 0.03710313484730029, 0.16838726598539336, 0.2676050733762666, 0.3212854684556818, 0.36030664664510376, 0.4212574042118658, 0.301933814438362, 0.17217332240017819, 0.011140842579101402, -0.02672415821690321, -0.03486728220028317, 0.0005553129600705331, 0.23345947436674275, 0.24190990590375788, 0.3348156137292875, 0.2763913340047488, 0.2726472119613956, 0.23902721250016706, 0.22625676698739836, 0.13713993029461616, 0.07206836933844149, 0.042347638759641454, 0.019511334674309194, -0.04407394572871819, 0.023057593114567707, 0.00016333214945411532, -0.021349447821488437, 0.09430168683346146, 0.05716221025434704, 0.1255721544127101, 0.3192276994354878, 0.39504781777783265, 0.454898647061682, 0.408780421559557, 0.32773389818368226, 0.07724688085998922, 0.02456792953567257, -0.013176389617546223, 0.06151819284621435, 0.2034087855809365, 0.2182019145840383, 0.29556144523879246, 0.332328459904731, 0.35842148048963574, 0.22518730389204675, 0.26367082915618045, 0.23668801326095507, 0.11662015427671463, 0.03365856306131561, 0.016550202848286857, 0.01898464648343586, -0.017450305774951744, -0.030999997943369894, 0.02223730238648233, 0.01038243080685145, 0.025387012164954346, 0.0429953942479929, 0.17566408512861936, 0.24920169931433445, 0.3268624553060383, 0.3693705912230788, 0.3051801320548136, 0.15498314034017333, 0.0857959352127752, 0.02644620361698151, 0.016922684739374826, 0.05049496703536001, 0.09725798056291768, 0.14180138131539, 0.18722991956935736, 0.26624323465311583, 0.25182450820369007, 0.14103624792165442, 0.16352147855268742, 0.160902510172297, 0.07217972963088516, 0.024758019344137537, -0.028522925706385545, -0.015101372927457958, 0.011635750390944676, -0.004855444777061346, 0.022274414782018755, -0.011469324487919777, 0.09351801390984026, 0.08635148097598867, 0.11532486787507032, 0.26114169322381, 0.3130287207402003, 0.27902535774234455, 0.08677282371930355, 0.08645276779487274, 0.02406567524221655, -0.005671635513936849, 0.08873088676493703, 0.0429127885111006, 0.15634780961749173, 0.06151414384781481, 0.06506957438156945, 0.2080060140825058, 0.15483220885801682, 0.171052815711665, 0.10951371363410932, 0.08391484958823109, 0.1183951403922352, 0.004527893820958304, 0.02412187533171705, -0.007115277411294143, 0.014465922471356705, -0.056980783561871404, -0.005053732919563536, 0.005524498713174254, 0.017665416863879162, 0.09616630598129366, 0.07744328165723795, 0.11158268388637405, 0.11721294559905376, 0.07718451841586046, 0.07734963948344921, 0.03338796360002582, 0.12037826391781688, 0.14900646201350365, 0.09701609736645742, 0.08242439580884212, 0.0011235721060471396, 0.008095651296048728, 0.024488211524341504, 0.02998145653594671, 0.10297732083102355, 0.06976133317046018, 0.10834674422689283, 0.025437735911661017, 0.011031675779195765, 0.016870244063755188, -0.06521546316594776, -0.03752134094497518, -0.051777607509813854, -0.01575040250574339, -0.03548323992570463, -0.012926305847167394, -0.026759086502976898, 0.04727373980216027, 0.06472566530084023, 0.07177800208687957, 0.07767218828209413, 0.04459378958294683, 0.06543092030445186, 0.03420016588533671, 0.045877126045421414, 0.08369677165141279, 0.07900838349119643, 0.10253663130378372, 0.09311023403910265, -0.021322491316911493, -0.013296959162204951, 0.05282905313716159, -0.02573236795623549, 0.047029726258859074, 0.060535421515304465, 0.00270063677730374, 0.027023224792181992, -0.06847413222316616, -0.06713010915783431, 0.055918294277782714, -0.01912699762994238, -0.030076146606979146, 0.012549357299145103, -0.03233692498685493, 0.00375685774764671, 0.05586339872872279, -0.023150480465202003, -0.016347415317282305, -0.02287904266647008, -0.05570294389759117, 0.01102443481181239, 0.027814994242147305, 0.03672032804347359, 0.05413387574396844, 0.02313376178934943, 0.09227285453507825, 0.12623820131632857, 0.03326172597369166, 0.03576326193743104, -0.005414046667780432, -0.011437523561942862, -0.01557312395871273, -0.017175100323115134, 0.0684886286589869, 0.0034381424401843997, -0.04673785946742502, 0.07056052806839239, 0.029837567760662043, 0.0029374628366529614, 0.012608810619166883, -0.011670195806133099, -0.028646373810037217, 0.056954196016193025, 0.04605191089827067, -0.04938817651379223, -0.03042664231832581, -0.1124782733294247, -0.07901140652387942, -0.009059415098671914, -0.0966155796201285, -0.05891734250346852, -0.011731453019233657, -0.0313160738866006, -0.06440620864740786, -0.0012887403246180664, 0.017069694447906823, 0.027065926572804884, -0.022843768058150908, 0.0027593000565976937, -0.03285240734334611, -0.02255747532543907, -0.025981482716717293, 0.03971267528957816, -0.055139234024797826, -0.01581047117258594, 0.08732903563841855, -0.0633325931386591, 0.03894969093244492, 0.011248756501532259, -0.02234107516610726, -0.06925776011812655, -0.0012657298927142412, -0.009951559736657244, -0.06839066410495538, -0.09155702773071328, -0.015285785742632698, 0.001571378939331196, -0.06796298144044316, -0.02368283776884645, -0.01744569275515194, -0.04938939429520976, 0.013170975573171328, 0.02005823184319859, 0.02991753528182054, 0.01888929371838874, -0.006364008268726025, 0.022685373813067358, -0.024407300627490542, -0.02962672771494336, 0.00461691888433444, -0.002466270480666578, 0.004876658927543651, 0.01616654645346311, -0.06947552001128053, -0.05544457324955048, -0.02310697973034379, 0.05126842748377932, -0.03184294643017872, 0.02623464066540629, -0.02776768410869368, -0.07397563604482386, 0.02768204405307449, -0.015136335505882276, -0.019290188029329358, 0.009905143569441966, -0.023736201647892433, -0.022904962932638294, -0.0239062003792526, 0.028493836317709735, -0.007760122593024389, -0.026534534875175743, 0.0383337703264797, 0.01936770017210954, -0.006227117721186874, 0.03647937378652268, -0.03650613411273949, 0.0025040352084158787, 0.002898800867556469, 0.0318747858347552, -0.004443036337142832, -0.033507255256053414, -0.021545215907886352, 0.024048544494022293], [0.021183429376019063, -0.013376322345149379, 0.00982038889675729, -0.001987312263278095, -0.001579777886022519, -0.0759548330675114, 0.00988555732408721, -0.00660386844742157, -0.008332075886127999, 0.021683687187357137, 0.042761891810786455, -0.03114861726127057, -0.023564625831001204, 0.04204550381193217, -0.0047302614180648305, -0.007621737015012308, 0.019859052429835895, -0.05715407389656006, -0.04479231527634312, 0.015633768957689097, -0.06982130705658265, 0.0628488078437967, 0.008220018322299252, -0.010261129052908298, -0.03397069327788443, 0.05241079646645366, -0.018362186120521807, -0.0074035374482867775, 0.0011690015798115551, 0.023676193717740986, -0.01381529430178157, -0.027917597457276955, 0.03929506606766849, 0.014186986702600279, 0.05581665296833645, 0.005846864146270599, -0.007508691001426086, 0.04690989799515059, -0.0100813544942726, -0.022498358594036375, 0.0072839282370490525, -0.0001283819272838557, 0.014283112591935064, -0.05163111880671063, -0.0398021920430362, -0.009152938770231616, 0.03542378260887198, -0.02944063970605327, 0.017157163378459187, 0.020803365496135075, -0.05541325372558498, -0.00398295072419351, -0.04138080410987261, 0.07912010683783406, -0.08258411216622633, -0.04055200947104219, -0.04603765455105895, 0.06628440060600539, 0.045672402316220155, 0.0055110409282693685, 0.016131805060230278, -0.013925754687310688, -0.014945121591934346, 0.013178938591622495, 0.05660636663176356, 0.030968074577263777, -0.03411767465170097, -0.004353102444675226, -0.05476890227072932, -0.06282795723772006, -0.010730357684013416, -0.02774302806674154, -0.03657082627692977, -0.0562859002508783, -0.01965835362865879, 0.02958661485697713, 0.04134158829175293, 0.037669151023175064, 0.0028031857206821074, 0.01834254777546154, -0.004357473359825169, -0.004695075432417471, -0.029906968391622806, 0.008561207635828037, -0.003336437310366662, -0.003355700910700402, 0.06446277542111156, 0.010670154526874021, 0.04080783338451378, -0.04145707461676659, 0.04018905814369836, -0.05131242432291499, 0.03568884947675526, -0.042596700417553694, -0.09730083575466435, -0.10743761009901612, -0.12363857405680462, -0.12776610518819392, -0.19313898589293943, -0.11034730021417831, -0.1571256720688042, -0.05730999975194472, -0.049280695431387765, -0.01114559332621401, 0.007094189277716321, 0.05505939484969291, 0.015699331143928557, 0.017933468216197845, 0.036678553992625235, 0.015871554508834228, -0.03536738424772019, -0.03648219023129123, 0.020895096257528795, -0.016918041409778196, 0.0051649704442447925, -0.019474910170295984, 0.03123785203628632, -0.008463058955980892, -0.02556571916615071, -0.06994040669282316, -0.0463694648269545, -0.03840359106292394, -0.101656631847693, -0.07647116259729739, -0.14652447818974648, -0.13596457056981148, -0.19435238662895232, -0.14660423688233035, -0.16340355387570604, -0.05391259194339909, -0.13049477337095522, -0.08624874038241258, 0.06467334582910185, 0.05201039309341145, 0.04945425173569557, -0.0051468229903149755, -0.02212488338250047, 0.0017484346491428333, 0.003855121620906285, 0.03071857456554527, 0.024410540638014108, 0.044063910864137815, 0.051659053517918566, 0.025548728481696086, 0.039186505503509564, -0.040725232327349335, -0.0313239529938427, -0.01384517751329845, -0.06674506522077939, -0.058898349368713764, -0.04105051835005341, -0.04768092927413274, -0.1411061082138223, -0.16438654963953167, -0.08328200211383875, -0.12674441055325383, -0.158974609974374, -0.14496768373620103, -0.1665392600051365, -0.25612671394821485, -0.10183024873070702, -0.10745470585603399, 0.01410410095018282, -0.0025256770702877145, -0.05991892419678984, -0.062144167821360556, 0.06928507492475913, 0.04565356742611207, -0.002611819781962814, -0.017736281704577226, -0.028153321605228238, -0.043278008212667717, -0.055422545527456575, 0.010646221360218509, 0.011023173882798245, 0.017924523061366906, 0.04555395056774133, -0.00099073576272296, -0.041174438042121536, -0.06804431432356907, -0.04734283908499997, -0.1388908415868897, -0.09822356263838342, -0.04716675596827541, -0.09374513268177144, -0.13071598646421195, -0.08270115420739146, -0.023804706595077135, -0.061791594128017255, 0.001489196987051378, -0.015111495027766729, -0.014017833898313337, -0.12578895355926978, -0.09847538791867788, -0.01872918937593335, -0.03547119792608, 0.05449232850991007, 0.0264447086265454, -0.007305096864927591, -0.011414017284037913, 0.050356737395704676, -0.010671005012913995, 0.007309505602331699, -0.014814330738600464, -0.031204129480673026, 0.027952976592135012, 0.04606451090749032, -0.023011377376953898, 0.013337029860271701, 0.020072882838816405, -0.024497582964846203, 0.010523321951578938, 0.17224179887167707, 0.19725836535938196, 0.1374978803057058, 0.12471915935955577, 0.04689747485860555, -0.043174572063668114, 0.011896046237509512, -0.0115675820598461, -0.15808326048497423, -0.10422541474937698, -0.06773440425307284, 0.059827472562674296, 0.020147802336661764, 0.007298659550797501, -0.015078549988447064, -0.05251957532007071, 0.0014798961862176978, 0.023286521125753253, -0.014240173212682916, 0.0033130318736389044, -0.016974904909046015, 0.029334145987920737, 0.06427915021104867, 0.02947291154994633, 0.02171478008170105, 0.035369801365648865, 0.02281518541019977, 0.07524989611433892, 0.16282287114665836, 0.25487086606842313, 0.17900307711025698, 0.13195423614613844, 0.09113582773446186, -0.006849380732351188, 0.022764497300057383, -0.04561173158679816, -0.12123891492157203, -0.19469947274754829, 0.0021840160086824406, -0.09795334180920277, 0.031459764757827045, -0.03110885345985305, 0.01875580852329892, -0.0009764996137522335, 0.011374767896169456, -0.028048886422713484, -0.03348910584403834, -0.06661280614843551, -0.03886710932325195, -0.018092820632755604, 0.07913262912997025, 0.12637084356543488, 0.22404357628598134, 0.11033445782522645, -0.0028868437756134928, 0.14203149635574228, 0.24903408461070284, 0.30232220116237357, 0.22359935630830136, 0.18929679649756564, 0.2463300887867809, 0.05627246139833316, 0.059432163091666115, -0.023334712638099577, -0.17357106038563413, -0.14570617079061982, -0.0724834409086427, 0.05297409627271189, 0.022852173723100156, 0.06327397196967698, 0.07718093276907888, -0.035676479044168805, -0.010306175435371679, 0.009506028739258203, -0.10794151902632916, -0.0663742996165728, -0.0007970931194282238, 0.16642025777027705, 0.09568093652798289, 0.17451899121324507, 0.2974703283172647, 0.12076276484321279, -0.11989073296654362, 0.0704884066503595, 0.235018027000073, 0.2810623918955383, 0.2715576196629555, 0.23242418179926727, 0.14344035697673752, 0.20165086869504115, 0.08389351240456547, -0.06566091492114932, -0.12627261104313292, -0.11181755354242351, -0.0066991604019410265, 0.03538154560557718, -0.0023267757041632894, 0.04033673480841472, -0.026955601300725496, -0.0059128200954853905, -0.018861649060477936, 0.0071112684348785034, 0.02042262755615615, 0.11131502591444759, 0.13018227042497615, 0.06870583865703989, 0.1693604878934957, 0.2642486309976398, 0.18166013539701426, -0.11581721832450416, -0.23120228639478455, 0.04373271340964448, 0.2887728652043719, 0.17838723058117065, 0.14098082275708962, 0.17356124262832928, 0.22803410414950728, 0.2668344759946859, 0.09539214513743455, 0.03524228472102426, -0.12645349843232465, -0.09505495609541362, -0.05385246931742875, 0.031043572843172072, 0.0016230301972431054, 0.04357806256146449, 0.08051573941222315, 0.00647592845264698, 0.01962214744151458, -0.028099805228922553, 0.12687280610553023, 0.18029010969683112, 0.1386195623892443, 0.09174559641181254, 0.17633445518829355, 0.23857233830678035, 0.08875624843553971, -0.27165297289206414, -0.4531316122098083, -0.037438135209255534, 0.13651922674786313, 0.10009721310108574, 0.04074390291046451, 0.12900775659313937, 0.06288908685850121, 0.09798349335671339, 0.23099996604650896, 0.0320466899491638, -0.00104782777064448, -0.05657266188876315, -0.019403239063727647, -0.025014422147138702, 0.030867578364151386, 0.00534973445315195, 0.0033991696616319333, 0.01594896900098724, 0.06423631636636021, 0.04791133185280122, 0.2073633627889469, 0.18650027882730738, 0.16652160405441593, 0.03740991956022874, 0.19928957744364045, 0.11950699254110526, -0.11457831638864989, -0.46794896046420575, -0.33143218551757697, -0.07550602705330303, 0.021867427201019907, 0.024691769170676343, -0.10220803917639151, 0.093222385032099, 0.02032807953950402, 0.120305886509816, 0.1848008216887133, 0.12125274833381056, 0.0744400269887584, -0.06274740649895615, -0.01039236454732356, -0.014602318765226623, -0.034216383309415975, 0.08470014652092697, 0.003726039101681811, 0.028530575112979486, 0.0762829430928934, 0.10832091749192756, 0.25106345021026166, 0.1685233454284279, 0.17479827722238492, 0.06880861146780393, 0.13094985898740794, 0.025551070754538392, -0.21915606368303991, -0.3730412445822323, -0.24497049906724858, -0.07353297876495549, 0.03420408707628362, 0.11878792394264095, 0.0364247286103555, 0.14077955840667916, 0.2233750149097864, 0.1421995490383729, 0.09471826964388698, 0.10597771096140984, -0.02019967525177099, -0.012974677852058721, -0.0038332180514411684, -0.0393425856881811, -0.004915427322139581, -0.003794943871793008, 0.00023015984828660645, -0.06729958180292697, 0.013889836685471123, 0.1907496544766791, 0.140469161291509, 0.21926967516096296, 0.21188730461262575, 0.15742746406589211, 0.11668833382753777, -0.011104839380061203, -0.2115918896214188, -0.39180088294085624, -0.29108010214406504, -0.007353848222249993, 0.0732447258169453, 0.19795970812760624, 0.14559883889217767, 0.11915165226139512, 0.12245483918787768, 0.09336156009023287, 0.11687280975753198, 0.045690862138206036, -0.05393694103196723, -0.05752530819398925, -0.04138005639010005, -0.012099958609560191, 0.03152571070328609, 0.0034405177897621876, -0.02652444126292344, -0.011248509563640187, 0.0026601014894137953, 0.0744850315203472, 0.1404192887748725, 0.16363308693049824, 0.21393991931895373, 0.09266466130228934, 0.05624976411735453, -0.10438170971591353, -0.31242026105704573, -0.30491518128397876, -0.12085848405843039, 0.06014977620182884, 0.15827554057075427, 0.1483658373711607, 0.1587397574445778, 0.06331878734668032, 0.054344948815108256, 0.06293577480406783, 0.030037851912212206, -0.12295069058374454, -0.13064764636164533, -0.08374351640628427, 0.03924935429348886, -0.03624986316176993, -0.05830583384502999, 0.030889707513652692, 0.026726342014465884, -0.06507675979161359, -0.054069038585421544, 0.026334959394976164, -0.014273779321716251, 0.13879766135987812, 0.17330623296439177, 0.11392823254231847, -0.021103997937077592, -0.16656356761299804, -0.22005686279349446, -0.11551093346618717, -0.004331407296881119, 0.16294992506085285, 0.11644036817181073, 0.23106487789058183, 0.11777337524619691, 0.026172846734171373, -0.011182151360357044, -0.06487677609906188, -0.056508531857374464, -0.09077090321898357, -0.1295578764507308, -0.08651257163844842, 0.004125668876507445, 0.01789094717565656, -0.0013472650545426092, -0.04080056083059016, -0.08418550162584018, -0.16056615463139706, -0.16001454112381663, -0.06801132530183111, -0.06804986686903515, 0.061920993091861595, 0.04647054566041723, -0.053674079608111, -0.065501276021006, -0.13554286799439613, -0.12614343334697908, -0.0658620975709704, 0.08482473303005728, 0.09560581738964305, 0.06428430446597337, 0.01387454197509094, -0.044369456815820385, -0.048144319377887095, -0.014063364577050104, -0.018648411960469367, -0.1272060843376935, -0.1978711485590941, -0.17292542048014706, -0.11280000458487742, 0.0013000782475704764, -0.04084377764355652, -0.004312967930317553, -0.009757337615721411, -0.011798895164494352, -0.01444251271551194, -0.06597103697663545, -0.09070083642585432, -0.10267772177715771, -0.13411176143647016, -0.1370600507764225, -0.18028264253019302, -0.053807758165426635, -0.10289417425790094, -0.12004401613392396, -0.1274590536513421, -0.011626721343669918, -0.11681051248052349, -0.08625695975299588, -0.11143411242309398, -0.11133905246535283, -0.07655502351886478, -0.09244538750034509, -0.10228032156388664, -0.1546297295703784, -0.2098962239295699, -0.08083645369319138, -0.05795105891029374, -0.054638248328582315, 0.05952577717245708, 0.011713397055881375, -0.02673089048974627, -0.05172969575111047, -0.10222507294541726, -0.10147077936905313, -0.07028098313021303, -0.12056672609860893, -0.20916507286758393, -0.21903407168052264, -0.17814646993469146, -0.1738565131766768, -0.16902757849211203, -0.12619750685350242, -0.11267902697092369, -0.1297155873010167, -0.12906745126863492, -0.11555643674946253, -0.10539973845356161, -0.15485654051171802, -0.1219842957969108, -0.13369615610553323, -0.07205618959678216, -0.19447186225709093, -0.13174328704263397, -0.014523003085435849, 0.04400718057698107, -0.00692251418756578, 0.07943366890959071, 0.020891656784113158, 0.04302875790065267, -0.01592357722260084, -0.11244483975571194, -0.11054803172549901, -0.09312055057459195, -0.11925836421325794, -0.1984928678967289, -0.11854198945596148, -0.12998428722886657, -0.1049821336345967, -0.042965701878087646, -0.06579725634103226, -0.1628073221571542, -0.1674854330307181, -0.14353834628257156, -0.12738991323233034, -0.181369140074069, -0.14563337564345594, -0.10992286676445147, -0.10162755838545104, -0.059781333571467886, -0.07310574469045747, -0.07027015837034085, 0.004496218362111856, -0.0157297479211195, 0.02023352397801337, 0.016880123052650218, -0.05058124618080602, 0.032132559514266724, 0.008245220669623392, -0.04818442708813582, -0.06384136963350993, -0.06231000972131142, -0.08017727039279386, -0.011641113514490462, -0.04126365229234741, -0.03741501421463062, -0.04338896723843779, -0.013561002161669866, -0.093351905012, -0.12907831839088707, -0.17013740365462698, -0.07658011116528761, -0.17492552716238585, -0.10783704384621598, -0.09886986089970128, -0.07870169571164373, -0.08734138141730266, -0.03826667204911684, 0.01845406803336355, -0.008622627244058349, -0.01547111704657373, 0.027912899694123694, 0.010362603348361768, -0.04551034534996404, 0.031169287083988643, 0.04341878797388387, -0.03706706967880076, -0.025024245643527565, -0.007438373746300804, -0.022188676308369553, 0.023533862223935453, 0.0846183082437525, 0.03253261737476116, 0.05202708342442117, 0.026609268280521476, 0.06222699137545755, -0.00966767990607606, 0.010648021985443122, 0.007466366805392982, -0.061224653815249316, -0.14516633296242767, -0.08926282314755334, 0.0416358104336116, -0.026081085976136124, -0.025823477539046902, -0.04147835628257324, 