{"sizes": [784, 120, 100, 60, 60, 50, 40, 30, 10], "weights": [[[0.00968603993178935, -0.0015211953396730403, 0.03121803116193686, -0.07068793527736912, -0.01242894875988404, -0.011034977065147377, 0.04326972273931815, 0.0831816977762267, -0.0027975901966923863, 0.018233076020509546, 0.008356959455455714, -0.08210985472767696, -0.015927055065050006, 0.07883758747923397, -0.030517723269857907, -0.002851844268812122, 0.05318758103882596, -0.01962676785412343, -0.003601544581775026, -0.005128781888286031, -0.01563372377800893, -0.014026738696877216, -0.030055453509282036, 0.0079072279054321, 0.03706064616490769, -0.019973307451912056, -0.05412576665029299, 0.03662376078689801, 0.025890068302301207, 0.018719469276423786, 0.006124623607902093, -0.01144964024382565, 0.005426256436028279, -0.008691227612662045, 0.004856552697129907, -0.013675806540812359, 0.027492239325282938, 0.031147390420091518, 0.045302387811249185, -0.012199310555877602, -0.03887160986215533, 0.03138786689900006, 0.018135572682129158, 0.07183353491422283, 0.03489428766312605, 0.001849513383068256, -0.03212224159627034, -0.020726886088521856, -0.01600637626690981, -0.01000468488407776, 0.015359483965010736, -0.01977767606727062, -0.05671149959318349, -0.04579808363319957, 0.04073215843653611, -0.027383493579704182, 0.00990714871220845, -0.06720546306667467, -0.03182846702617997, -0.02736474526047282, 0.02091634557302821, -0.02200792948771746, -0.011239233065917406, 0.0036114693289151247, -0.024442979569214904, -0.020015134772354986, -0.007701311172967537, -0.024034274650022613, 0.03472262596187902, 0.031715544434169726, 0.008149183664772198, -0.007585511809925338, -0.03328401219832333, 0.03983349871832329, -0.03915635843747224, -0.012473062913425753, -0.030726998793668973, 0.02248636604127731, -0.014887772172482732, 0.033446303633346115, 0.015694192860416057, -0.030038690771543496, -0.028269095633129033, 0.09436853243975217, 0.054682086762763496, -0.006211485299843368, -0.044076476610938144, 0.04521429225776612, 0.025411995167321774, 0.06019712042215103, -0.022401875879400946, -0.03407682132420889, -0.028504839985873547, -0.007605306506533185, -0.00762720051372047, 0.03650211628500342, -0.031175840006348744, 0.02214893671737357, 0.029721365293599786, 0.05766307258982602, 0.042607396428168014, 0.018997370287929322, -0.010741390646262425, 0.07168720660404766, -0.0039732809996268735, 0.0031884040186469166, -0.004458602194159503, -0.07283833262212969, -0.019688780423951013, 0.0070385549731464036, -0.05121243653542162, 0.03213265412541329, -0.022157813476295172, 0.010477719131813964, -0.022316492718883616, -0.029962031886429413, -0.02722301672884652, 0.06553249996616198, 0.07399087780545731, -0.027085269809875454, -0.011874319039194009, -0.015001864975285394, -0.0060947666669745135, 0.041633094999184266, -0.07944033759458759, 0.0396570012718511, -0.03551630789354555, -0.014867583132481516, -0.008201377337802273, -0.0067641019799619, -0.03257477288019851, 0.008961176377408996, -0.010893774572082343, 0.038825294753791206, 0.003910605392806609, 0.017530633422147196, -0.024038203430933373, 0.01621744160205914, -0.0020183619134407586, -0.02770064668232131, -0.020038970938710234, -0.06025937925379112, -0.012890363805457392, -0.009988238246832554, 0.04493689758156126, 0.028795726486099002, 0.030903630885619846, 0.05167761433057439, 0.049899380986851455, 0.013137692383024166, -0.006623425550902662, 0.02835699745486801, -0.07749329297525855, -0.015294124393492115, -0.020475406619990373, -0.05727857448354229, 0.06944275150417537, 0.009827517954591155, 0.029295287673212083, 0.041834248840532405, -0.020097595310965173, 0.03022230564014945, 0.002391944776191609, -0.025983092496971807, -0.08237826223465393, -0.02478799247774321, -0.05236619990375182, 0.05534979124585769, -0.023714417152059044, -0.0557359467917128, -0.012301516102975297, 0.07225347162762438, 0.053125456031261745, -0.03321170562061031, 0.04348975206311777, -0.0321255919747958, -0.0350179727920848, -0.014691153543305439, 0.006014394084725902, 0.022624049404697186, -0.0005216770853566136, 0.02850266591287664, -0.014875343480942408, -0.03887250828948641, -0.014305911957208218, -0.017683860839426694, 0.02063795013305517, -0.0051786281771828094, 0.04277801787457642, 0.027460476438554968, 0.03798979239517218, -0.01937688694492114, 0.0014222299827831625, -0.08514997378702499, 0.007058029716479051, -0.01330687915274882, -0.012458212658366214, -0.010648665490559917, 0.06922796156178752, 0.012696229145808747, 0.032495971859005005, -0.005550198765008293, 0.04177749933349787, -0.0025419199250893425, 0.05446528860569057, 0.029631587897215636, -0.05256908327018291, -0.014713473747158791, -0.023606721963064337, -0.007349978674183141, -0.042674545779146277, 0.023628283993244435, 0.0033817113736307886, 0.04945953951795893, -0.04019700539834325, 0.01605504048720878, 0.019031960068429925, -0.022170853162378806, -0.031145501369827966, 0.04244384294456667, 0.023364564965552285, 0.013409517612166452, -0.020422838169479395, 0.043414768556546746, -0.07016155508310037, -0.05033888250892614, 0.00359803876765794, 0.004314332640235554, -0.01584224472957297, 0.09504187993445994, -0.021427156775237335, -0.018341626258759198, 0.025567390277374556, -0.01225822768721264, -0.07551707243720585, 0.016310374360585526, 0.006967038677881862, -0.08327166443687438, 0.03655886624288783, 0.005030915342473983, -0.034084584381357835, 0.013559505295410128, -0.01383347905744605, -0.08188108776585239, -0.06984237024636657, 0.010760095496353152, 0.013835052467426024, 0.045938808263884814, -0.013565395356887108, 0.03544885439943627, 0.01578377887676941, 0.004403203503320015, 0.031390981942769146, 0.009067671630503945, -0.0091521565060926, -0.022982900392055344, -0.0041317686930129344, 0.013284063228436019, -0.001057855080179431, 0.019332908558264816, 0.030037262678690207, -0.045649969164244755, -0.058926223029727276, -0.014555780196702927, -0.07063663414807314, 0.05749193711533526, -0.02697354751769202, -0.015462035665487935, 0.04011536590348092, 0.009131657776148725, 0.010835137262980844, -0.011464995642995638, -0.05995582068710285, -0.017572878635095997, -0.09970476714400019, 0.038948547795284214, -0.007607922258179913, 0.07578512978108741, -0.030654167014407402, -0.033890257676194684, 0.009396640008018693, -0.009656525474196346, -0.037868620863009475, -0.04072260080224708, -0.03264241786256809, 0.05287199885123126, 0.043898214456104194, 0.018018575063773374, 0.03602464302357378, -0.004630396640602653, -0.0003071554351635222, -0.06058797879298027, 0.027306249003733945, -0.006183479855784214, -0.05768279213138095, 0.03289382462456103, 0.03267519371815773, -0.03215121642564417, -0.0018222918318821157, 0.011548326147471037, -0.00895214014650711, -0.007528343420849045, 0.045989703462419845, -0.016350267040917476, -0.004901243434026291, 0.00957519221666995, -0.038035186134555816, 0.0372711415466784, 0.05299916929819061, -0.02874380853394866, -0.01659386303344456, 0.007750271005766653, 0.0037324674809074655, -0.0251686380876809, -0.030608018144365014, 0.031728219141418774, 0.008395005614693734, 0.023954314255842952, 0.015251793839140125, 0.012821445262303843, -0.020155476195479118, -0.01355236215265055, 0.04889216075392843, 0.032215594765414475, 0.021404173742326445, 0.042829944576481524, -0.020768566198431267, -0.009734426038477045, -0.00754785624871336, 0.08006438880357201, 0.027899551098766972, 0.013513315749400413, 0.013782580326573705, 0.016659832488681598, 0.07312745428538507, -0.06147533123623199, -0.0037812329999848413, 0.017499103206220164, -0.011429092478958482, -0.03642924808788545, 0.012016980757533, 0.06655348654109801, -0.00955187480814075, 0.017263872253621488, 0.016016601490619523, 0.004660094163830228, -0.00658575091696491, -0.01592006593616063, -0.010832993578006126, 0.021133456515722283, 0.018793116182852086, 0.037370642820125054, 0.015338785262146581, 0.038158304026120936, 0.04510327814770038, 0.023545569861342288, 0.013815772355803476, 0.058238198947351154, 0.06285290917710208, -0.03754348250034168, 0.029543963338894363, 0.026906550735646607, -0.05037107689726561, -0.0338740988102843, -0.01687275295498305, -0.007237698338784717, -0.02538450754110989, 0.007782802383572363, -0.014051363279710809, -0.049574382487112406, 0.003491606920389148, -0.0002338611684142749, -0.04329570261328319, 0.07920147772626897, 0.02679970586384816, 0.0005367571214867607, -0.08089051730214607, 0.0051853687731513035, 0.016461197884548587, -0.03519482256033598, -0.026405013775421874, -0.039684238528130425, 0.022725233661891258, 0.01895906830914536, -0.02973772724549734, 0.0781088153202652, -0.02260792778432375, -0.04917596019775548, -0.004810378782930397, 0.005497024580777654, -0.03566475601580414, -0.004263965355047483, -0.0809075177642273, 0.02408910771782081, -0.030961292865802466, 0.0037278555461110452, 0.01999043156701101, -0.03350181704527824, -0.012672399659134645, 0.04310673263786531, -0.020865649276380845, -0.04644759714715395, -0.024707089029492847, 0.0006717753695603658, 0.01595929413642694, -0.008517327136235299, 0.02097324712043124, 0.04555423612011787, 0.04126634650246644, 0.02152702193865922, 0.007152995899775098, 0.0224195798121187, 0.018193285451484686, 0.007824339901394637, 0.05382153196149605, 0.01218225994618163, -0.03299774440384705, -0.04948131005970966, -0.007015952290740052, 0.00548532493604307, 0.007486984245105375, 0.024427827365367895, 0.005859636651682617, -0.01782797611054561, 0.01723515546211997, 0.025625374047896294, 0.002669288652438952, -0.004718577303841563, -0.011775105470801779, -0.0036384814661240064, 0.009128583813356529, 0.05433340877130888, 0.026331097943989423, -0.001500025793992989, -0.03796472727041695, -0.01143751178827231, -0.04851637269737856, 0.047686135549023574, 0.02711807151647859, 0.003237030540673961, 0.02649136558584463, -0.1049031867583388, -0.001835834494956198, -0.00846626412568621, -0.02331942761571451, 0.0391595242079772, 0.0628757324665788, 0.06591258611395995, 0.0171398808657307, -0.02684377239916742, 0.004561494897092099, 0.011807233740136475, -0.029848177405915617, 0.042318956583893425, 0.022588524801432048, 0.017050965898889527, -0.019288294292313938, -0.04081884070689535, 0.05195034683559462, -0.03788297185454895, 0.01674980144031862, -0.0008270519423353504, -0.00497619805853739, -0.05090525593489874, -0.03202154810856226, -0.05736949040727901, -0.058973413014000546, -0.03036292919745263, 0.024569384585049682, -0.02281659472291754, -0.020859846595555957, 0.01823566189759562, 0.07803702122845811, 0.012397064810797708, -0.0051285932996197985, 0.001175538195012818, 0.06783144307234348, -0.01796305319462478, -0.009880238037240623, -0.043495222396554394, 0.016159364263770456, 0.022456032566508136, -0.03658682879103181, -0.008864128439761023, 0.003867523203774788, -0.06428570604345078, 0.014289065471448157, -0.043889439987962395, 0.011201624513818632, 0.02010547196926429, -0.0022241825505421777, -0.030889481219414792, -0.010122959807644724, -0.0065544535799754965, -0.03662750460244034, 0.06031143469129225, 0.02247282764626085, 0.04928403041916209, 0.0038164039584768043, -0.03919722406561598, 0.017837902149016822, -0.04326953750195465, 0.03792056763705668, -0.01602403899390475, 0.0010096101238598807, -0.0013125931387129996, 0.04296992099119297, 0.0505475698277288, 0.012794135345357192, -0.009458021371445002, 0.0424094712174947, 0.011686853433743302, 0.005114666671244219, -0.03886525209214048, -0.032391890350026195, 0.008432119133449816, 0.029489711763022702, -0.01936301597849216, 0.004458467023690527, -0.0918481641975924, -0.026837057619675708, 0.013539480245112792, -0.0017455217939798863, -0.013045221841212741, -0.029721052337093143, -0.043563640439404465, 0.0010500652214749987, -0.008346078781658474, -0.031052149046465406, 0.07353930098193875, -0.04544629677475532, -0.028621818573646395, -0.002246246341481652, 0.05163111191699634, 0.005991550688859368, -0.005758333028571904, -0.015805099568643753, -0.026476204747112243, -0.06095683099491609, -0.03788950166226001, -0.0019911832167053604, 0.04146544974342865, 0.03803618221035549, 0.016876070860992437, -0.037520819659350974, -0.044028508721050554, -0.02551269905565675, 0.014835469176748684, 0.011381032695669287, -0.025712399603715224, 0.009681670542570086, 0.03558044072260703, -0.03531028347773733, -0.02420202744003316, 0.06097632146123829, 0.05705258596017418, -0.002566037433906052, -0.012911816352184233, 0.041937905732062346, -0.03463604915326804, -0.011248925515069882, -0.06301388475982285, -0.0571570508115429, -0.045633729122572485, -0.022885678092625508, 0.05770216236308787, -0.037681154349751174, -0.00862622323469589, -0.07219947287366021, 0.017318012839447696, -0.01885524040543937, 0.09479714371732334, -0.004695132764338126, -0.003809643242821575, -0.027898419636127304, 0.032824109773153885, 0.04174461780467064, -0.01394365615137148, 0.0067932923559628254, -0.017538464256290003, 0.03043121762925677, 3.1928149260322604e-05, 0.02573337334631951, 0.0026489275235815463, 0.018077708893840902, 0.02277408044653418, 0.055636505919936484, 0.02603308146248051, -0.00686439323414288, 0.010948264863338837, 0.010451845627975496, 0.07258906511048309, -0.007002937896360399, 0.0486328566592065, 0.04918565754222462, 0.027159174868838988, -0.04459438626133536, -0.08981059188427909, -0.01954999728240247, -0.009856057333063278, 0.01831681399971288, -0.032483047581042535, -0.015650434523210962, -0.054585207999774135, -0.013742247074089572, 0.024522556725637114, 0.01587326405203149, -0.03391741232061474, 0.030190742060981244, 0.07284307350411773, 0.036258818341739364, 0.056502393288641276, -0.01610582190339973, 0.05171786584116154, -0.057057626917466284, 0.014552255092226173, -0.007970365193683635, 0.018040995953176528, -0.007233088202129764, 0.021586039907147695, -0.011516101667870683, 0.013979774774972174, 0.07410702526444912, 0.05895891188225432, 0.06109006644769223, -0.005865306576623702, 0.01591282075649771, -0.06743605359976361, -0.029181230029965657, -0.00561754771082213, -0.05133183259465297, -0.03413902847435339, 0.06423681276472334, -0.03575773579545773, -0.05062866557706178, 0.0223971765925971, 0.004911692734354107, -0.05744693541249016, -0.04276950709536205, 0.028600927603591498, -0.0574759344499766, -0.01907103892678389, -0.029444493656603943, -0.0021674166325806694, -0.04339531670409847, -0.057810117973438664, -0.00602543594154615, -7.291328082402629e-06, -0.010219278563315037, 0.039990504886625505, 0.028300530059150977, 0.050411229457998245, 0.021480011901554585, -0.025416086339154115, -0.027771243540634778, -0.023765285049079907, -0.045755041441165586, -0.05165654078976321, 0.014459518680460666, -0.0304525467773591, 0.036972875828390574, -0.03325340615066831, -0.05248519596781439, 0.019494695598260444, 0.05708780695943245, -0.0146320884559186, -0.027588332694461207, 0.008669638256877539, -0.01137553002835419, 0.006637414999279894, -0.008431481617515422, -0.009733739668209063, 0.03843803361092579, 0.039470870550198864, 0.0030573741409812417, 0.02076969839570423, 0.008285632924650208, 0.0036613875984486052, 0.023945594834316, -0.027138371303164065, 0.079724673309789, -0.02278810845894529, 0.03089567030137245, 0.01937030882958131, -0.03194003116686129, 0.04465061673727092, -0.014485408167312926, 0.035265771190314515, -0.004898479073772154, 0.025246794578233003, -0.01244078719070854, 0.013201214477614692, 0.0018242079421797392, 0.05158028369293233, 0.002860703469490089, -0.034672727801503565, -0.013732384342631063, 0.03627877000550607, 0.0426418565258062, 0.035800335778474, 0.034712279830087914, -0.03838501217754503, 0.1260935166043157, -0.0022587892507136306, -0.023074931998043707, 0.11309549516975763, 0.0008792661034597793, -0.002719320513539297, 0.06620303430248131, -0.03950271538717846, 0.03864228331440143, 0.06253695249168856, 0.01607616166453837, -0.022995801007677945, 0.021002117125063377, -0.040411553617626356, 0.069395486584871, 0.03185717064629227, 0.06211380585770379, -0.00732331741878214, -0.042205150908655224, 0.009898159883271536, -0.07537857023990462, 0.010024966933701715, -0.00246689107696722, -0.015393370410081866, -0.04316743788700006, -0.009642654834981893, 0.02350789580235772, 0.013106429476615084, -0.01947736841666947, -0.002681438296108969, -0.03825105012046178, -0.0067365353832372285, -0.022732205193959285, -0.026005285845753897, 0.008148511944484679, 0.0647789412105099, 0.02283758855838712, -0.012237180957900459, -0.03791600110375459, -0.015282659475711065, -0.012769424865357398, 0.009553078243636081, 0.001712937440028824, 0.08454376542078386, 0.02102254172217959, -0.004584579692470025, -0.0360567368794919, 0.05420533531536094, -0.0004972289094549633, 0.025818522975494956, 0.049125984876428594, -0.017133183215097474, -0.018313564157724883, -0.029565483727959585, -0.017793111911785515, 0.014674850881863903, 0.028437854027896718, -0.005178783415697258, -0.044694930752119076, 0.0014711234102166254, -0.03952450591021379, -0.007211506123475984, -0.017284473022362603, 0.040048157121834585, -0.005776166508035769, -0.023245606548049216, 0.02016421992082598, 0.005852093394949071, -0.018459843127142033, -0.0019128297394569727, -0.0005525899831877808, 0.039553273071999226, 0.014157405812733274, -0.0009369338082966278, -0.048983589943977286, 0.02234201362548938, -0.023715616375545322, 0.07226691415543345, 0.04582827572777327, -0.02105631311194167, 0.007330447084274965, -0.008825268301516193], [-0.02416846099412784, -0.007140641952510638, -0.05574281977633916, 0.054120427116307455, -0.0355736935021564, -0.05221916510799768, 0.015926780758676026, 0.032316679337232486, 0.016196804626063686, -0.0604017190138108, -0.02463124803415139, 0.030611471549879227, 0.009030403256909717, 0.006200062860163487, -0.03626763877939028, -0.08565227406679957, -0.03311179620960837, 0.06311546561663023, -0.0035711716054750947, 0.033978184215332906, 0.002396411941197213, -0.028085511496248588, -0.005332226849603221, 0.021866253219298155, -0.019648157734932635, -0.029496099055637968, 0.016376772297094746, 0.009010351343611838, -0.02423923031593131, -0.012558060861010403, -0.056082623715286384, -0.06478725899175804, 0.06950807765724902, -0.023376000075005753, -0.0510492327736492, -0.03445868269015136, 0.024073878665925065, 0.04728633550361429, -0.0033899886635542224, 0.003631934260328015, -0.0016352794582717455, 0.02638213015912607, 0.0750159777090338, -0.025980164858053646, -0.03696640812097539, -0.04556353514248089, -0.009198497872126461, 0.01181378364423099, 0.04115609557034915, -0.017068922965233647, -0.06607348044500677, -0.010272970068951611, -0.0066639017998318395, -0.012672309029668271, -0.02288850198700865, -0.0012753432150760208, -0.062163530852191014, -0.03159540982907105, -0.031024222147410126, -0.0002746441514606433, -0.03464977206699308, -0.013833238521052072, 0.027121069364661708, 0.023390626372290255, 0.030311421668989966, 0.025136126838774336, 0.005168228611579645, -0.013573129949569177, 0.003926544575789184, 0.04477638414261261, -0.040747157636769546, 0.021191937619503547, 0.051042994084553484, -0.06810728237158338, -0.036947811176429986, 0.0355330877164118, -0.005110496045334636, 0.04051007172834992, -0.05623132619535224, 0.0010951925361579612, 0.0003262436097918011, 0.05059099525359363, 0.04804919803039957, -0.026018942635587402, 0.020126619209817315, 0.07120584064770534, -0.0355534052750636, 0.04735694942734461, 0.0011400674473916476, 0.020202176221234356, 0.03156053737736573, 0.02006147706286028, -0.061126458575987586, -0.036282569926002914, -0.007964833481521088, 0.010067103713413897, 0.0018614264498614537, 0.04230730323243735, -0.03358228587969861, -7.421874154294269e-05, 0.01003922210326648, -0.03334020160932904, -0.04554049511739857, -0.016429964179262076, 0.04333474680711693, 0.0616651162999953, -0.02161861793083315, -0.009967298601677764, 0.015185871976468814, 0.006722660312777147, -0.021016898318013982, -0.007849386228641658, 0.04827432213393323, 0.0524572515730344, -0.06831249413362141, 0.06138435332243421, 0.022210339716755262, -0.015840277800586267, 0.04064676061760766, 0.040317324864283986, 0.07582233312435441, 0.001602715260957207, -0.07710098784778346, 0.009499736151274637, -0.011220896738899169, -0.021561863798060795, -0.006314718872230473, -0.02185844983137743, 0.0402704376328217, -0.13007260930469214, -0.0016668307691121056, -0.015079293201515374, 0.027253755258398554, -0.066064443032803, -0.026062149795753567, 0.020586593435095973, 0.033052576783403204, 0.030330152649804945, 0.03376277996110441, -0.0637378026924014, 0.013520684656209805, 0.061083552748328114, 0.007100829959613274, 0.045218513955161715, -0.046268411864311715, 0.026469951326003972, 0.055688050869313346, -0.002360983581917616, -0.026418752704890296, -0.036983362326254404, -0.034495946785098874, 0.028221534152026023, -0.06508224057810534, -0.019833172019562657, 0.011962727716863474, -0.0003073862275461256, 0.0021440039749639696, 0.01660451359031325, 0.06688158508058673, 0.01904066568862029, 0.0005724242080698912, -0.05400292909612635, 0.002721564556102158, -0.00969672239559895, -0.025020981746936094, -0.00855601120252842, 0.05712078957771097, -0.015272108572990491, 0.0042698150263134815, -0.012883861824222772, 0.027278463301583664, 0.001449501294803535, -0.015178385067463596, 0.002421930363626467, -0.011406088367466129, 0.008611545032301852, 0.04593137797826459, 0.016669801350252544, -0.015369318091160529, -0.006382085281517362, 0.013244276691895948, 0.09556219257191616, 0.05402583383946536, -0.004234275984975269, -0.001266461275210109, -0.011132144156804314, -0.034549525834842436, 0.037656638343110616, -0.08613638739009337, 0.010656795325104126, -0.021855053593746208, 0.060820027517248715, 0.044167456769014596, 0.006570765839932079, -0.0019498197969292253, -0.012234893143284601, -0.027641043519411178, -0.009090622284650114, -0.013096071009933525, 0.009962058449666498, -0.06534374781471217, 0.020326892271894857, -0.03407172480939091, 0.08030212045508306, 0.009795172143561001, -0.048608032579856714, 0.017971224719773766, -0.006528411709071259, -0.03883128633537003, -0.03571957326094028, -0.01252102757601471, 0.04194084731609396, -0.00593033197125821, -0.008903598587105172, -0.05397486845841092, 0.009721244538721878, -0.01565881564453013, -0.019738899571262312, 0.0015534125042612527, 0.020233021546954635, 0.037300859953727186, -0.009918530614218012, 0.00605019491710793, -0.026744497009326285, 0.05510139817341568, -0.0651792243674211, -0.05405282280029566, 0.04826671062008886, -0.03827031410847701, 0.013659682052460697, -0.011130478331445438, -0.027328248598322367, -0.022498823949300962, 0.04174487838836155, -0.026448760751163786, 0.03596355593777177, -0.019832951873949234, -0.007178697978437235, -0.02354989345913418, 0.0023110528945128315, 0.03526442417307237, 0.025336830222213717, 0.0001978684469407622, 0.07316595755569695, -0.05191215443785061, -0.016424913329941976, 0.03474987154418864, 0.021879518981641435, -0.0563963241907677, 0.01767185673709452, 0.028385671406037632, -0.013134645704677502, -0.046779300515103595, -0.03679252124898808, 0.002915234048358594, 0.03381157986714335, -0.014231229773602944, -0.022519560662661725, 0.01694305153873936, 0.019733731242549794, -0.03510442143027417, -0.012632605658403032, -0.11240376577625483, 0.08739130981621455, -0.01099332389042766, -0.060117724373670155, -0.028388338005293837, 0.0310772008398256, -0.042147268740044555, -0.0365774969888978, 0.02055573239015094, -0.024505792155570912, -0.07164079672112596, 0.04481072265470779, -0.0355717154773929, -0.008013931718362581, 0.060370570413458315, -0.0629200413909615, -0.03361668068801006, -0.03305214663366735, 0.062004057490682496, -0.031542079475078394, 0.028222672012073926, -0.0018695378483097446, 0.054582371061502974, 0.020809563148436665, -0.002957066938411313, -0.01246586194368698, -0.019577020983980658, -0.014524509194018024, 0.0027073412270028703, -0.048050996500091855, 0.04253706989860834, 0.017837799932974407, -0.04146397438131836, -0.06719215313323221, 0.0023135104624468273, 0.026982417649376065, -0.029844227518142856, -0.00014276491658646615, -0.036626335873159686, 0.024079983861212368, 0.027210220690626813, 0.020064123285085847, -0.06293324908992326, 0.05481927927587546, 0.007994746700838983, 0.04047545306795212, 0.05007246741399833, -0.019763724694711424, 0.015263332397275304, 0.018100915862467835, 0.034045176753285604, -0.014928974959657913, -0.00010866665415572365, -0.003965952120719192, -0.025578316440717043, 0.06803789915884374, 0.02319136583327999, -0.013714031994704232, -0.024735504840715825, -0.045459632211519066, 0.06952548134797341, -0.03331846819063098, 0.07331102881682788, 0.0008273597810038259, -0.00412408701066703, 0.02812895461723306, 0.007493381967948436, 0.0023871474688429758, -0.01138518627191766, 0.03756451529376096, 0.016801069373330025, 0.013271219879220263, -0.013050919234187306, 0.007946280844213467, 0.02040364151452711, -0.014153259998263399, 0.04143452395620495, 0.04150927421874895, 0.014654339055587646, 0.016346020657022835, 0.013050261029850064, -0.02766904191693998, -0.035486718431179926, -0.024608669028081048, -0.012506941961621453, -0.025980917137935686, 0.07419080345515583, 0.016185731409385354, 0.019154603091218123, -0.021781661121416832, -0.004740326372778475, -0.020483876739135477, -0.025972436960318725, -0.0029106950169263427, -0.0014946678849479176, 0.0015013153432163237, -0.017019691814451184, 0.00653924032135243, 0.06889679612774012, -0.013011236054872465, 0.022540457279751624, 0.02180365589695833, 0.005877815274078654, -0.02363908484542613, -0.05938752926518217, -0.06729664146052826, 0.04184931807069595, -0.031519757653240166, 0.017943617965171077, -0.023649384396811142, -0.017612487709083306, 0.03528464996599362, 0.027188934326554386, 0.02174814954391942, -0.018294128061162165, -0.02229456445652057, -0.015647285985499942, 0.06135066920108527, 0.011212589659629922, 0.05861941409391821, -0.017014218453955388, 0.03748340915231461, 0.04432259522852718, 0.05524621896742921, -0.02933303558085492, -0.05155214515692077, 0.0001453535508144993, -0.0052519068326370225, 0.06755304066237912, -0.08129536172836709, 0.028582231700275827, 0.07368950398065538, -0.011168658693949538, -0.006492385396143109, -0.028148975330252967, 0.015449801566465226, 0.004248814203109077, -0.020261202800816426, 0.026531636426127093, -0.010711004980708327, 0.0018460171889503542, -0.0359693544876799, 0.028788350953340067, 0.027342223596781227, 0.009525465009806366, 0.005206542594139487, 0.01732762630510416, -0.002415801502962724, -0.012870608223421825, 0.057187199032446366, -0.019557151596019135, 0.03618473396667674, 0.023546405674835045, -0.03146953074928152, 0.00798400951866643, -0.03584904176161451, -0.04708705352915992, -0.036338936774564796, -0.031567988381851146, 0.036285291397835436, 0.03571585418500317, -0.026118979873532934, 0.07813454140468803, -0.06894253102716644, 0.006966365718968066, -0.029847431631653796, 0.021757671944257987, -0.008256855091677394, 0.006361690491331041, 0.03336171309429219, -0.007127777949913278, 0.0009448188099680423, 0.01987665874441874, 0.011362355847959447, 0.04480733133070971, -0.009042267466410597, -0.041696466695263196, 0.01251886772074159, -0.024407260518844776, -0.020519517273594214, -0.03050476879717147, -0.0269239076358678, 0.05002584721610609, -0.019798032050200715, 0.0015708501854028631, -0.0175841514102154, 0.02105185659605169, 0.058793390546400516, -0.001959685767362321, -0.021053525094547748, 0.00016665670799801942, -0.023646635011537652, 0.005048158703062952, -0.01815087701157573, -0.01796212713221032, 0.0026572438306921883, -0.05798951558079964, 0.05209318934743237, -0.05845841696357701, 0.008750079052314307, -0.0064878326352063665, 0.05616096425754572, -0.048237351480591904, -0.024743322087991827, 0.014064529191782298, -0.06054094867884528, -0.027290042714076094, 0.009402662886793417, -0.07242907489501693, 0.04123861962392831, -0.011815365736380866, -0.046808260222955055, -0.0538038479017109, 0.024859298889775887, 0.04423112319404302, 0.005100894575133522, 0.01572516432581315, 0.0058844540935460545, -0.04072379166635549, 0.005514160878153501, -0.05975899321706245, 0.0005127345246116703, -0.06024612455428499, 0.004818015089663904, 0.026188275471388033, 0.01466326280116628, 0.08142426826456406, 0.027805661669106977, 0.029709272937030223, 0.03494545897163765, 0.01359716988678633, 0.012097822225323898, 0.03724153953988956, -0.009312913138270883, -0.054555750249860965, 0.011598870233434855, 0.0028339085519254693, -0.04004488055251304, 0.003219484223028123, -0.008395671820376883, 0.023819309746917167, -0.008336042084396193, 0.004038707927663984, 0.03487559393612329, 0.04023614352491573, 0.060453985810530984, -0.008899241998615618, 0.002286053226190296, -0.06148641121191896, -0.01890186003452378, -0.03582940398495589, -0.0833636749393356, 0.025469556828540987, -0.015963106443599252, 0.0057538802755376815, -0.0039041729785548127, 0.026946510924307505, 0.02600218605361765, -0.0019947390251744516, 0.023005960127599583, -0.015422544444806178, 0.03941036058448727, -0.02081437424071134, -0.05290268599761038, -0.03548089364732031, 0.020270896791638543, -0.07765133691189449, 0.041257810388159614, 0.0031750028546919063, 0.02246653982893739, 0.040840841703318566, 0.032829633467498294, 0.003992811560390207, -0.04122923697930851, -0.06181773775141819, 0.05730671320735668, -0.026153423380060183, 0.020189255481062766, -0.019019158035884175, 0.0388718081730082, 0.01151248976054235, -0.05488624443964883, 0.029283310315952524, -0.026705576425336323, -0.009168444935767253, -0.03999440941124319, -0.027956317140071896, -0.06124043052328552, -0.016306956874939434, 0.08030724452953614, 0.021198929975431633, 0.00851719083460472, 0.02669425903970949, -0.05147479915640622, -0.00415101451265786, -0.08397887869205621, -0.04146050329371068, -0.01350345537374231, 0.018223994606139594, -0.03792979197233563, 0.03113266050062088, 0.009538251036043797, 0.020364808325513278, 0.0415034197379242, 0.012080982352713349, -0.009064935068898461, 0.02074626793972181, 0.02478337560279455, 0.05618518911439213, -0.03315188958223045, 0.015259593272907407, 0.060516638493865994, -0.003690341205762231, 0.03460640838114146, -0.0036979726371531713, -0.0002142544894398913, 0.017067956886632166, -0.008495374757806935, -0.015420986518857696, 0.012154696349267373, -0.004122765371906231, 0.013711899971405326, -0.024585490008600337, -0.036231487705527886, -0.053509903275889226, 0.0551739998527525, -0.058342790787086936, 0.04536141305342622, -0.014782790831152332, -0.014352567064101818, 0.047361592595485995, 0.06785493760782353, 0.07806781680631399, 0.03295044827514698, -0.0148440033231986, -0.02519770986696613, -0.055864850244597405, 0.01222358868082367, 0.026256165174108698, 0.026613225504494468, -0.06820445850869526, 0.007321355584181457, 0.06933157332783456, -0.017103976591197452, -0.005144944123061316, -0.048121838629676075, -0.0306386230167398, 0.004421608295722781, 0.007826558753783831, 0.007714393198377462, -0.009651578632990841, 0.023049431696944924, 0.05700688598269116, -0.015490017032078253, -0.0016462503327868022, 0.013957552931794912, -0.004712734578977205, 0.0012450106606308475, -0.012794879310446568, 0.038944793998034646, -0.07107875200810425, -0.005173540405147769, -0.030967280902103465, -0.008017787241447027, -0.031523508463015965, 0.0021021319270630163, -0.05501231120089099, -0.004650003697269949, 0.026363518569468707, 0.006355594764481228, -0.007217002610431646, -0.025663493176801024, 0.011678443204114729, -0.021366702426865204, -0.02333940780003535, 0.04098510631902029, -0.00139609762100295, 0.0070264994576340585, 0.03900404012840172, -0.0343909871442619, -0.019890242501551466, 0.015593714132325808, -0.08442937689707612, -0.05324561932324738, 0.04277011972176502, 0.038992319876030794, 0.017377879836778243, 0.06636452428672263, -0.002651243856186033, -0.036855770412178156, 0.021683458083564915, -0.042061904694843805, 0.03749517361961346, 0.011255614047096891, 0.0405034806537641, 0.03031198576168751, 0.02563768480332594, -0.04694940322007626, -0.05646060045187091, -0.007134818805179093, -0.050525850717911304, 0.03460258424971173, -4.4568955864991e-06, 0.048989009759131966, 0.006718965253140214, 0.04566787509108024, 0.00042143035607040773, -0.06319959673277997, 0.004504946090465112, 0.023800717708469237, 0.067960608603223, -0.03802576329082217, 0.04784954719941784, 0.04719298369385402, -0.019851038658283943, 0.02773065542786982, 0.033901773232547894, -0.015317883603741145, -0.02438821751175666, -0.06539912616095711, -0.015129768821733065, -0.013374964769867749, 0.0036552400158430735, -0.03799771748873508, -0.04617618397059885, 0.018612406258770444, -0.0286732222880873, -0.030086886600903872, -0.005126518838942652, 0.02876961300531735, -0.04801994209461542, 0.05795731305223018, -0.061330486332398695, 0.02528030010114449, 0.054008892833924196, 0.07841332125552992, 0.030716821559812552, 0.018516800635852555, -0.021444764087081705, -0.02402930657582459, 0.01078602512341051, -0.0292858305461979, -0.009241672975315592, -0.007829253465730936, -0.08339378666521391, 0.02717009291261524, -0.07498296604428248, -0.024976115106732987, -0.016586940258084926, -0.029409112786755634, 0.029853220741641588, 0.053293592295455404, -0.023838105102101433, 0.018045833114937876, 0.008601523683555363, -0.01602204400876478, -0.015084122241061346, -0.05922786743153223, -0.03730747574282917, -0.02600978576187172, 0.013153572701376666, -0.018165314944196802, 0.0027917354575578567, -0.03169015951672039, -0.014779640501395859, 0.046518324080358754, 0.008004877716483918, 0.04442470946429777, 0.016385082718837412, -0.002029070746262202, 0.044850528977295294, -0.007385123556143666, -0.04083458977564557, -0.0062240442765128835, 0.057183782219874676, 0.012457647207234229, -0.008344925018052162, -0.012227922763383432, 0.018739631898894618, -0.020877704591938877, -0.026321260426124145, 0.07805197376237605, -0.027166532236033707, 0.004720536428434219, 0.034922665274580794, 0.013936467856539377, -0.011824171429971659, 0.06269688119444851, 0.06410601427897956, -0.032273798741716604, -0.0065205846021776205, 0.05590052035843261, -0.016005435225385205, 0.0035061390536082104, 0.014932367499792073, -0.004262692268700111, 0.012194021403973822, -0.008040755760317849, -0.021014858039834997, 0.0019852737348532573, -0.008562821194697938, 0.030949357067483182, 0.019636924093196385, 0.06593768512547939, 0.03889696142875728, 0.014141661862770103, -0.005435501682254694, -0.015009519703592667, 0.03211168446643726, 0.008955623102150728, -0.05540564252388212, 0.04434120332104479, 0.003952071090577118, 0.06901213541682272, -0.02275111846114092, 0.012390436300819922, -0.01802153719653271, -0.03240475817444123, -0.0022513629730382735, -0.026323584207221425, -0.0031243521790347306, -0.027117316545723833], [0.03160158131637688, 0.06566692771134859, -0.030828153447894278, 0.03342443245285565, -0.033476036050227045, -0.04117909057680651, 0.04902076004057589, 0.05151122452533186, -0.0269498039506319, -0.01003687072228374, 0.00568141060015997, -0.04298811759018804, -0.02840844665511861, -0.00663741551806306, -0.05522603699433492, 0.021801968938252463, 0.005643173841806604, -0.041482864093618, 0.044390890646891015, 0.0023126265946618687, -0.0060950732686123185, -0.04764687707418452, -0.028356481962174763, 0.030683343743543506, 0.08002109231690248, -0.039060868446217485, -0.033736030862329076, 0.010419998714314926, -0.05509224660127432, 0.049589690101288796, 0.018993664738976533, -0.028710883741043917, -0.12251445956840717, -0.006971423172585668, 0.014775933486535733, 0.0367809685345449, 0.0027793976054976883, -0.016773432670893436, 0.014982967850146418, 0.002891230262364519, 0.008935744421023198, 0.020208671856387698, -0.014653557333198512, 0.011095390397928326, 0.014684960403732536, -0.024995923578337704, 0.027790105885186597, -0.011772511991989292, 0.052224150157597106, -0.05090123776100213, 0.012820174509228524, -0.006878770685606183, -0.05244044742003987, -0.017394865987038488, -0.06882909529198442, 0.029874924955306113, 0.05089416601189199, 0.02357751718959612, -0.01972569746657762, -0.08142147712741082, 0.01956514479086689, 0.01115193334035612, -0.020309739270679847, -0.03974435476995083, -0.01968246198896606, -0.030395744014347314, 0.021980057199495178, 0.038951602644134616, 0.04038115420605484, 0.006421270680967305, -0.019851953294360816, 0.00877060480185492, -0.01271551375435306, -0.002828340613840097, 0.014935240098440796, -0.003544660869179144, -0.03256310945100541, -0.0020919183387627734, 0.014466908931890591, 0.005976470582345981, -0.03872023315128769, 0.004341927344864798, -0.011379476700020133, 0.002092351579236431, -0.03624684430962562, 0.004132456369352741, 0.007766521421225627, -0.013999914652839006, 0.02325867004760833, -0.019624952629902253, -0.021086404547501124, -0.03534234653280049, -0.032811424059266465, -0.046795774296734566, -0.008329282996738397, 0.007503091936355143, 0.014306665995574737, -0.001458607901719663, 0.02202845970496312, 0.030521070693864574, -0.022700662926434412, 0.01632792186893317, -0.006618323817627338, 0.017693526115691402, -0.008453035923433699, 0.02782662009618728, -0.08250218142663115, -0.004937551854842299, 0.04184541426216744, 0.060050404168930885, -0.049280665228152117, -0.004343312471826334, 0.05285492606401517, 0.04537846618529598, 0.019376428061684093, -0.015501181763117088, 0.008372634124517078, 0.03884903394134188, 0.016320484947353154, 0.0004972448056714692, 0.046277978991173974, 0.027186254968028015, -0.013861401027993322, 0.04435578358311195, -0.0009840935571638623, 0.02765458772415399, -0.005395506841243095, 0.035714668814935555, 0.025285462123003977, -0.022153456413041714, -0.043759249621435535, -0.028759413785011494, 0.027753728360885837, -0.05521454675018695, -0.008324916767613605, -0.030942434783286153, -0.03467307688979951, 0.008815082433604871, 0.017990736347107766, 0.021236932565370428, 0.018083293850450325, 0.006333179063669264, 0.04907248589388184, -0.02456040996313543, 0.08135398324928887, 0.04649256747073105, 0.051411921678119026, 0.08015870960349493, -0.02389276195518635, -0.016275551090766262, -0.01921200645582492, -0.08366309754980619, -0.007821184670194459, -0.027309823931431682, -0.003294450050722576, 0.04543945295689966, 0.03700157561809662, 0.006009788803058714, -0.01578193022126958, -0.03217656808872677, 0.01597842375614096, -0.052304906594115345, 0.05297671053362445, -0.020298500707062683, 0.00925911778081209, 0.02619828044080399, 0.006277545907474803, -0.0062889077359805975, -0.08820190748985453, -0.030284023841163847, -0.0007203551968101955, -0.03421626997698049, 0.018535809830823757, 0.0037764294599862917, -0.045129259885211485, 0.0038205214488498717, -0.030959056204760724, 0.02972832323333423, 0.0052820984452971575, -0.0419537085460639, -0.050735736633599204, -0.013729413372890955, -0.03378449632593262, 0.03420157425843339, 0.00946395380809511, 0.041335954709464884, 0.05235068200239675, 0.003731421118712691, -0.023114974388425708, -0.035465495180378094, 0.1221938978876146, 0.023172604219020138, 0.0495198217465265, 0.041023800057467655, 0.04836717528112033, -0.02480711152581159, -0.005505395776902528, 0.029867824772927435, 0.0380184373809518, -0.020857450355473477, 0.014427614767670918, -0.007280881348445407, -0.025337468630236906, -0.006689485943136135, 0.045292132843713015, 0.02731394693204706, -0.017388014439777395, -0.01713173241104983, 0.01134124308586441, 0.03574712868737985, 0.027400595628712335, -0.029446347381038424, 0.003018688955495433, 0.05956444461200646, 0.005930971243161654, 0.03881693010846567, -0.012005793100992871, -0.02587963240983184, 0.01103792515388823, -0.042592341089742934, -0.011922451343099522, 0.04136520966540851, 0.05227983407487251, -0.026856405889027192, 0.023641696611385394, 0.010410709473635194, 0.022056598924930507, -0.03804309505850525, -0.12174230053476513, -0.029186091610511805, 0.0004533314635691355, -0.012316609237709978, -0.013055798757712352, 0.034161583688965914, -0.027621509991933257, 0.029162146236726708, 0.03903603807653117, 0.00855985884399008, -0.025341477085644663, 0.0447818310809574, 0.03196526621448233, 0.04814351696485303, 0.02506876488570337, -0.007190846284137646, 0.015801500136227165, -0.03609884796805506, 0.07015460185772239, 0.027055218778728997, -0.0381026517346856, -0.014443530159786624, -0.009008031556706254, -0.07285733040626956, 0.00018349557799729742, 0.006647724365310992, 0.02639145766576604, -0.025591992487131614, 0.012089235020786184, 0.0011163227258329136, 0.06455882659814584, -0.019768909893858346, -0.018706861746699836, -0.016238204954511982, 0.014732796576371086, 0.0015521676245546126, -0.012130752024548401, 0.019701064621156495, 0.04933168866161996, -0.09021965146983922, -0.000974110569678221, 0.02808214427116149, 0.03783216074493868, 0.03174161865303517, 0.042684331559708515, 0.005448929390544516, -0.022348198101272046, 0.005878453732217129, -0.09133247052774907, -0.059649195316001206, 0.013464060249474991, 0.005436834615006649, 0.01835643213643543, -0.03329081465200695, 0.055871409060582355, 0.018372197551969345, -0.018885889917095233, 0.009016582919788336, 0.013391589736456082, 0.005060387632764535, -0.008478334653774457, -0.061964226181176855, -0.04261572896956388, 0.10038967263795763, -0.03566088433746849, -0.016394365526152494, -0.03223776654852839, 0.0565612599760983, -0.001785405963917802, -0.09271651242838824, 0.005787957433221775, -0.0007827784345230521, 0.015349911532278129, -0.007800205780684597, -0.0687055827878086, -0.02493308566382312, 0.019833611718546616, 0.013928071702411797, 0.04635081560440172, -0.07338494302488029, 0.010625245150407199, -0.006817327832165768, -0.05297009947863137, -0.04772513188719173, -0.007417082517274996, -0.024762082114322632, -0.05174437998210566, -0.03565416314957479, 0.0228409536394141, 0.030522332897271756, 0.057164417936662534, 0.04117697888469917, -0.0069636730345965635, -0.04421472525357289, -0.016096807417638935, 0.06463626550840425, 0.026403547618954568, -0.06273389775345306, -0.023033688237697872, -0.043775364271286143, -0.025065552458583412, -0.03782326312058896, 0.0362883110489314, 0.0016075007358416463, -0.04853817291909734, 0.08245785864438462, -0.07613900291114989, -0.009253325733815123, -0.005486425484827572, 0.07288620261665156, 0.06541168849423644, 0.009060167843693828, -0.014184825130757084, 0.03933758795426373, -0.10462612378064005, 0.033293903015200285, -0.030951128255806135, -0.07932748446899775, 0.009817447752516069, 0.033787119119889575, -0.11560233972582908, -0.061524913527269805, 0.01668767622972494, 0.027149970388290656, 0.013418417229716793, 0.024711479726834792, -0.03395012645436666, -0.047308050676347545, 0.03464839953246698, -0.06814247599525214, -0.0355715131990608, 0.017123573260685893, 0.023018072592448265, -0.049731390415340325, 0.04018756906333578, -0.0202774337939568, -0.04242801154592492, 0.004126785097078931, 0.03828638448823197, 0.0688923125687351, 0.07827627844072471, 0.03079157269441088, 0.03717281698598428, 0.010884585267675663, -0.02148608661222485, -0.004774103991299085, 0.013983897981154831, -0.03414614717850239, 0.006865939165223322, -0.01888079166867966, 0.07043599065296258, 0.0054107308313143115, 0.03874197039126015, 0.0008473359343776265, -0.004170695671929661, -0.03223590525322335, 0.007983346570746525, 0.020846813256447223, 0.003221521851589722, -0.037604297760835785, -0.04582990926029702, 0.02527460314777671, 0.04700724209470422, -0.05296970747860803, 0.03216527363368822, 0.013010440076087267, -0.04675803852052762, -0.07426121066673064, 0.006760818757887695, 0.031306632465750696, -0.00898291356766118, -0.059800592446902834, -0.026640434167003353, -0.0018385178546223944, -0.04529463253484864, 0.016068643443798384, 0.01667495964264871, 0.08212299890828309, 0.013370416564516065, 0.010578345053276268, 0.03395528524812837, -0.06626032477180013, 0.02023585091634391, 0.020458999673484857, -0.03931315949125154, -0.025863291772914777, -0.0009531907249321154, -0.015726681591050392, -0.03906407408643249, -0.030164185677928806, -0.049655531085081035, -0.0121085591689561, 0.06449620149141597, -0.008660643332261207, 0.0012481092239431803, -0.04381672960944645, -0.007149671036790999, -0.0290298140589413, -0.028281661428233115, 0.08438349238887816, 0.018625566473627966, 0.011550527782554337, 0.05775289858625058, -0.02387298454480518, 0.02700774309515725, -0.018126187013561824, -0.04884772471958364, -0.024218795517358786, -0.04189890213625661, -0.03778452155230184, 0.018440264178981577, -0.06493505630033362, -0.02932901703100064, 0.034508288421741314, -0.0228103818157795, -0.0005720467162178189, -0.044237710929203894, 0.011088914889002141, -0.033862042340741694, -0.024693811419923356, 0.035151605084675644, 0.015783872775871656, -0.06432965052429117, -0.025829996535136738, -0.02011620516700584, 0.03496199394132561, 0.03320254010719672, 0.05064493049768786, 0.018851423862852063, 0.002748644226608668, 0.039991859616014806, 0.009089789611699811, -0.006191798512684763, -0.005655090023837009, 0.030307836601266097, 0.03266136247542184, -0.007130269633469771, -0.07900160899582827, 0.006999925162143148, 0.019718674484615784, 0.02357052049067311, 0.04707012149966033, -0.03420560040287145, -0.04604166484994602, 0.006191166506512379, 0.014628211688530792, -0.006758968595991441, -0.03346049214338905, -0.020131899021983563, 0.00809221903422664, -0.05395404070648559, -0.029422939899367402, -0.039090289730779944, 0.04299556797504416, 0.012440208992381406, 0.016950226084157232, -0.04453116584491442, -0.014157938740186343, -0.007192184123822169, -0.017613845752829177, -0.01901717060954139, -0.02959629825216112, 0.025176939273511854, 0.029105294775491838, 0.023613234691250394, 0.045543396689071196, 0.04869306709122929, -0.036314820864265365, 0.009212569113887467, 0.01673182771380166, 0.02436208531173734, 0.01869781720716149, 0.012660411524391478, -0.012425186378738663, -0.008772020943411158, 0.0877059116751735, 0.017267750369541247, -0.03537679195827918, 0.011169148725908615, 0.02105738620332868, -0.016106363138940132, 0.014197793418760124, -0.014466862310308444, -0.04186949041950591, 0.013729604335765356, 0.011169766648436285, -0.027782031324427737, -0.021053598623891626, -0.015424856197661829, -0.0092083162811376, 0.015866014864461882, 0.03300659306031855, -0.01648162798858023, -0.03240091454197741, 0.0025559612439949217, -0.04266800574193001, 0.005924289057449566, 0.0003755340196389086, -0.004738294590381504, 0.06468037237530821, -0.04439529653185526, -0.0005840047018568752, 0.030838464274119355, 0.0030812022970763456, 0.014380554332978268, -0.021184223364053983, 0.038166775613214826, 0.01727960111130632, -0.050226963706641994, -0.0024532009150784123, -0.02577287556461336, 0.008095173754125851, -0.023985755867399903, 0.018398983688937692, 0.0174185963264918, -0.01998871997589274, 0.032756762030484145, -0.011454356712690072, 0.03113534053149385, -0.029401588448433186, -0.023534677223949804, -0.049854710774355576, -0.011624830243053719, 0.050515295554057996, -0.011586104266647489, 0.04732914876006249, 0.048298589148834725, 0.014231014548794416, 0.020991050382811953, -0.03275231958588384, -0.044330554183040306, -0.019270037044383737, -0.05901291700438246, 0.02267170768155453, 0.034012199389811086, 0.03648213897880155, 0.08401143235018449, -0.06951888536634539, -0.030215848984690517, -0.011177662048909439, 0.0435881741898762, -0.05154500072623029, -0.04120784171110964, -0.05077262665571727, -0.05171681041413522, -0.067020819295003, 0.029439845440072686, 0.015523131704641657, 0.05673635902090297, 0.0307742095622367, -0.026038683078082197, 0.0022921010761160158, -0.018380613794155856, -0.028324871525978935, -0.014134310753254591, 0.04046407109185483, 0.008241671075975076, 0.022385741190487578, 0.012568994013094073, -0.038237935293206016, -0.004827945385337447, 0.06784307776661637, -0.06319934137721782, -0.011265579486933082, -0.004728222673965429, 0.05311690599446851, -0.013403967085456115, 0.026320021639687965, -0.0027514022226727067, -0.014900360312135147, -0.03832165818366293, 0.03522732028259385, 0.013447688020863727, -0.04286778068852367, -0.001555593639890046, -0.029769357551542665, -0.046630530704887256, 0.028973543279755768, 0.016803089282196496, 0.02237238284612356, 0.01751571929870879, 0.005196945466820893, -0.053866825787160524, -0.013375427840314985, 0.010892173958123018, 0.0025275907759835835, 0.031626983520645684, 0.012387994373587646, 0.025251763998097573, 0.039199112449737686, 0.0024640954222806244, -0.005264455648061906, -0.0098395911362161, -0.03041327458375845, 0.02717145029515714, 0.008445895670743485, 0.01555899997202487, -0.046014304080379556, 0.006150962378465746, 0.035214822527728826, -0.03813947271223777, -0.02163853919137314, -0.04208889221013665, -0.030856758449325464, -0.012332506714512005, 0.06365879566965986, -0.00872724065652242, -0.00707242703587169, -0.06912081377622328, 0.0141987860669842, 0.021527417791231677, -0.02233799405570318, 0.015486061900392674, 0.024998458443521773, -0.030072523626121693, -0.007051901345070917, 0.05092238569199483, -0.020818906366291, 0.014847934271051723, 0.0029734886223015786, -0.003691751526197395, 0.011607075444991366, 0.020462588284084947, 0.03052794676110961, 0.02076480741505925, 0.06415907386955574, -0.012983667999490458, -0.009115089282345648, -0.05786174570481326, -0.019810086951443175, -0.05413013002617276, -0.0032766967797471045, 0.0023999779351869897, -0.038820871919969364, 0.031587836169628104, -0.0444601091545525, 0.02003181661286178, 0.004046623460129501, 0.021850610890135624, 0.003769304026516544, -0.04317964372597251, -0.02266396487065316, 0.03224833732617472, -0.031472198142653854, 0.04090486367558432, -0.02615289506454685, -0.005659382795725161, -0.011860366130185507, 0.0038391529166715444, -0.0031900237374404066, 0.0474177117467383, -0.02896267990655807, -0.007828397728693693, 0.03302795633498853, -0.007383304712659208, 0.05461448533182196, 0.013493571990028439, -0.05448272747001862, -0.02269994575390177, -0.051613735351786705, -0.056043642107716764, 0.004079419450411516, 0.02116941963394757, 0.04064441951119114, 0.017942890081966163, 0.015106455068652514, 0.0006438270770976463, 0.028784155785378577, 0.0379210342708924, 0.005842700326241519, 0.006910647782035763, -0.02201539864798582, 0.042084081413520595, 0.01644477383333738, 0.001335791434719688, 0.08173428206926076, 0.012337926229380009, 0.027459387875061542, -0.042830603252600165, 0.02484924609976431, 0.08098731040177362, -0.04841501734402412, 0.03323426730784975, 0.020863077470872175, -0.05901317707590288, -0.07993560359086721, -0.038504746288273065, -0.009097921920387933, 0.023697279150733212, -0.02930206122852829, -0.007771499268379985, 0.02096797395751664, -0.019647684605912177, 0.03416815945226969, 0.02960084700076958, 0.012919140367884753, -0.053614606149516304, -0.042405754410010335, 0.022158277745407882, 0.038322030139490405, -0.012054063427683757, 0.00011989313775185189, -0.011175541393523733, 0.019869892396327936, 0.051561034791117476, 0.025335363613429973, 0.001003787070173463, 0.015290404842169158, -0.018518363391545674, -0.03415669109897122, 0.010768491559302184, 0.008773484241798005, 0.017997761184624747, -0.04253831171118512, -0.03309731867595426, -0.046742372200951864, 0.009885589381570754, -0.03315751620072919, -0.024959631598348297, -0.0026549527084736347, 0.015577427666757643, -0.01614151465360856, 0.000191296633910937, 0.005659986120489902, 0.05074574567105708, 0.0037367388616147564, -0.028595088315935716, -0.0342129028762195, 0.04712641479553875, 0.006433156750910767, -0.04027534115371034, -0.006970151225954217, -0.039079830169284846, -0.042861204342607206, 0.0017490718976802826, 0.0014916064640419825, 0.00016418541057326236, -0.007882252944998336, 0.016612224149290183, 0.025502810334027792, 0.019008252326458724, 0.07653781892476619, 0.0173126399065338, -0.013611499383292846, 0.006774387444201812, -0.011140012949958287, -0.0629942893885545, 0.05570144738864236, -0.052259891455892944, 0.00852786876633676, 0.03975230669921108, 0.006465082936040451, -0.06360245672639464, -0.024965088508349824, -0.010053164983804446, 0.007649570218067651], [0.004404871083747187, 0.0006471674446696982, -0.010512940023368023, 0.006026373893426177, 0.050136782167291796, -0.038029383960838714, 0.10208614611648407, -0.010349722365299708, 0.07354979390895434, 0.011868050477348277, 0.0655846661003953, -0.047469381275729826, 0.035254294717161884, 0.004207683296264134, -0.022568542918099906, 0.09645515342271514, 0.04180871853147595, -0.010089902181765587, -0.06442516062389132, 0.01572146128340446, -0.01137215369633948, 0.014328531406223326, 0.015933397270081782, 0.04907786773150081, 0.00024617165072303204, -0.026636018224067644, -0.009637753650290517, 0.006506162316039711, 0.01146772334025406, -0.07686442857726129, 0.040570034044391835, -0.06674903017437145, 0.00195127066725147, -0.013872677751554614, -0.00929134390886529, 0.03620061217421495, 0.00010235088298181238, -0.01626983231735769, -0.04315565925964219, 0.024449951833214658, 0.027239522882272816, 0.019938046326694492, 0.042481445619873194, -0.011656231086931236, -0.07411083864780457, 0.004802284113320917, -0.03561813170067605, 0.0010527914552902065, -0.0004907340280669138, -0.012003086301341346, 0.003751763530011014, -0.0024238587534555346, -0.07823577061037297, -0.031538288904812, -0.02668208849291859, 0.02608849194199622, 0.013170589137722627, -0.00106788729313648, 0.04847460987350358, 0.015985104720114433, -0.052109267235295284, -0.014747204481775461, 0.040467322386037716, 0.013001991679368802, 0.03974500714219306, 0.03944876046400617, 0.003635414092178012, 0.02288881652761392, -0.011712698079973511, 0.009948874721100105, -0.028351848185392433, 0.03190497965348599, -0.02830991608084271, 0.035585045803932326, 0.05877103206604909, 0.010932208499075466, -0.036905300958841855, -0.03543243259626388, 0.012582825556194431, 0.016651206287547113, 0.017470655730598066, -0.02798308277059655, 0.01884805451636624, -0.005896816605012888, 0.015290326460843122, 0.05563173591720248, -0.021471754785197777, -0.00029106980318714497, -0.016903390072574492, 0.017743168000626447, -0.023457445607414577, -0.03613035518627267, -0.01374628522858834, -0.03691486219376872, 0.006272450428917937, 0.03045911448532696, 0.0039526641662710514, -0.035744653893659675, -0.02121770975368869, 0.009798786874546564, -0.021235170609137637, 0.019437402443125126, -0.03874378219947565, -0.04593122471846676, -0.0410472050338542, -0.00011493864616266605, -0.02496337158545068, -0.03546438976092604, -0.0005711019008921584, -0.0053094456897943565, -0.019408859539424613, 0.018727298694542416, 0.012500214167957527, 0.012131422507787629, 0.0006938198953493287, -0.03823385097561108, -0.002451628914098954, 0.03239750684243133, 0.0029841749675497352, -0.02381791632321373, -0.059516041952056425, -0.05274817272657573, 0.0071192716333906446, 0.03549735166879889, 0.006088509410714065, -0.02083426336639588, 0.033705692858304145, 0.005766691232378672, 0.035571718370467596, 0.030265112158504578, -0.02379878953196527, -0.08932811591207061, -0.09493388091149925, -0.008500325911155187, 0.001641118946807666, 0.07832270155584353, 0.006885695126142985, 0.05191350231994496, 0.023660245465482288, -0.0077624099857849325, 0.03360499990974795, -0.027404314061264295, -0.008653064406055623, 0.013601368093917193, 0.004772221516948231, -0.014520909473294978, -0.019678570965734426, 0.008918269280014334, -0.04229695070271592, 0.02582761240435692, -0.04941490945278081, 0.04337125099195927, -0.010119155109292217, 0.017616574946436925, 0.021132667671855863, -0.003096333617750447, 0.005035598618413671, 0.002860568829387864, 0.07220085828612502, -0.07416531442840835, 0.0360824464785237, -0.06510531258672914, -0.03289605723802783, 0.011108335126213276, 0.028963575526551037, -0.031771357133946146, 0.003523403150156115, -0.01574199090743416, 0.01190614410052461, -0.021556316159751152, 0.00561519319160197, -0.027384330957426234, 0.015766801749476953, 0.019050247312237548, 0.02395424108719861, 0.053920315253598215, -0.10067156225038869, -0.011549482873398888, -0.025417882175867795, -0.017212880448626754, -0.0675007607411647, -0.045787637421470836, 0.04447403419493174, 0.02751732283866298, -0.027664640171428903, -0.002767906004926797, 0.048575385311630685, 0.009200099594466592, -0.015985436646967877, 0.01787251099852745, 0.03235321311500293, 0.014564453012110637, 0.04319335657092746, 0.03814263474707215, 0.0267047037293684, -0.03546194221534317, -0.015475940751673993, 0.005172086455275466, 0.014661514447395893, -0.011938312297585182, 0.04061502142175937, -0.008645294855455857, -0.015774715819452594, 0.04948708213888187, -0.03347708009455833, -0.03257992878397693, -0.011006549935721876, 0.0035532533149413652, 0.05808295815067239, 0.004404708650605485, 0.029718436519407084, -0.08526531947568863, -0.049928633439522876, 0.037583714585503664, 0.047425671294385706, -0.011232092993980439, 0.01869619429948315, 0.01196099012311532, -0.030933935748940926, 0.007914927943240401, -0.05939124364245275, 0.018178873256098686, 0.025897119720350616, 0.00187836322535999, -0.07050312443026782, 0.02861290690450887, -0.04693114752256309, -0.02474611738266606, 0.010485847315402346, -0.020404661233700917, 0.02230797084147443, 0.05656969018201448, -0.00959931293292535, -0.09215976131061036, 0.003672819537673666, 0.010768507347350421, 0.0081769451183839, 0.026925081992910566, 0.006489251312704685, 0.006016065935105816, -0.03717011990574685, 0.014947422546113587, -0.012096221384915064, -0.0515818295104074, 0.014367007495959845, -0.08049963491590725, -0.0233023958166823, -0.024763620699998743, -0.01061950703457543, -0.004921521711269499, 0.10913617899736969, 0.03176939422944891, 0.013417022215140583, 0.027479645726323127, -0.005901588409288956, 0.05142398779972901, 0.02705713568867295, 0.015396551863117678, 0.031103095974597466, 0.03596931576957414, 0.08880691902575603, 0.0404823727875132, 0.028166476244043007, -0.0057895666228225786, 0.017543372958512247, 0.020475297673598482, -0.031151041684241265, -0.010889548074374427, -0.007484252602322854, -0.06196141622088143, 0.042904452770285956, 0.00773093807312457, -0.05747718406324828, 0.01598266120810773, -0.021774951597485003, -0.040654793727997726, 0.0002609655350547435, -0.03299540007861821, 0.031237659182841056, -0.052619306256518505, 0.023174940328948457, 0.018858699001147217, 0.03850265299589841, -0.08095306587964439, -0.08274497584132086, 0.03550709124297805, 0.022410070405831487, -0.03767410322596509, -0.03944446367919366, 0.030822230440350994, -0.01179414449236301, -0.04024416384289583, 0.043618582432873414, -0.0023154325313847804, -0.016320895216202724, -0.008484980273810398, -0.06755344538100765, 0.011681256849537094, -0.013026711142677288, -0.0008955817697340214, 0.041371633032031695, -0.014321870306384373, 0.047268828878286255, -0.01529061624934784, -0.004557657019997718, 0.005018001244550419, -0.023748093478516186, 0.024359265503665316, 0.03359051852177431, -0.005365992959752725, -0.0013128843609367198, -0.0034713141589811473, -0.08424136169357554, 0.04350372209578362, 0.0215751982489479, 0.06177332224625895, 0.06222843506431941, 0.01337998096378104, -0.04637151927840734, 0.069801079222118, 0.0006504704827285056, 0.048740621385702315, 0.00295307935656651, 0.08808932010588266, 0.011209279455467605, -0.06602770220537943, -0.015767900972542763, -0.016974879007462824, -0.003828378451291092, -0.05004797517655908, -0.012196519990248088, 0.0316103198745635, 0.04134141990245945, 0.07511548644677063, -0.018148262607390955, 0.022571008122042026, -0.008080462441392312, 0.013739165119123105, 0.005996277201005497, -0.004114862822252696, -0.012521975497601107, 0.013911306642984593, 0.05797855176368273, 0.04698712630014244, -0.00581946625265668, 0.02560132588500341, -0.03815801281102586, -0.05872298497345765, 0.04541141813400743, -0.0299947291152637, -0.003803382307258873, 0.08074242455841571, 0.04318923360024688, -0.029597433456830153, 0.05228249514323891, -0.00478736835146203, 0.03836886953543461, -0.03232349575492528, -0.017696001956358842, 0.008050352669525623, 0.015470049985825428, -0.013638887174735966, 0.04188004534950686, -0.007345009320588543, -0.000163989286182712, 0.045379328218564274, -0.06451266428329494, 0.003746122438239443, 0.02665387436314748, 0.09396451439551065, 0.0930944436476376, -0.04444106718897643, 0.023822399854565825, 0.028980932407180457, -0.022842047373357318, 0.04648958811434182, 0.0037684950053733773, -0.0009065073918008143, -0.02815231695347532, 0.010102813928562366, -0.05162204552567427, -0.016299384245408718, 0.016682778002895925, -0.04986003617999633, -0.06148427915179075, -0.03237570496870226, -0.04967331353438669, -0.03191104472257434, -0.0013464116093067394, 0.045708088207460466, 0.0523348141778796, 0.017706680662091603, 0.008224840503719313, 0.009549883321894048, -0.021923360940339257, 0.005329859336987445, -0.025155681228775546, -0.004184256619897951, -0.011811929664433857, 0.003209185711553619, -0.0014555664524913182, 0.0003828665715155244, 0.005034668734082788, -0.03073271656056401, 0.0012479121685673642, 0.00011741215041865611, 0.030916553250494465, 0.006438009987362718, -0.020450625118943067, -0.028548969704770763, 0.004985739066490528, -0.06410391451767766, -0.03809976691469973, -0.05057909070276321, -0.03399198856646809, 0.03558728777169063, 0.05476403512936269, 0.0958372285196699, 0.04436705348661639, 0.02289929714303137, 0.03657507788094707, 0.05808063577747574, 0.014798400047378904, 0.008646857560289585, -0.04338911394129657, 0.09171306848527601, 0.044190345259455144, -0.013748685110288775, -0.0012107769353458847, -0.031255321559993755, 0.024307618452904696, 0.07178343270423652, -0.032733890845688646, 0.006378600272028075, -0.039520593320596466, 0.005355648248911494, -0.020513937243664886, 0.002426789436478854, -0.02576822513165915, 0.05709789567292185, 0.0066623577371596725, -0.05238199357876482, -0.034582709828707474, -0.04827268858762985, -0.00012031469430112077, -0.033052482459378335, 0.029267366556862778, -0.01698239068632932, -0.01878509079064508, -0.04795994015624547, -0.0774142402327876, -0.013295297406098772, -0.07794476069048126, 0.02117089670602581, 0.02037912330053842, -0.015176781996162974, -0.0089622201384761, -0.01564146370153112, -0.01699408840397168, -0.035051551535867975, 0.014268839844560713, 0.05707452300702136, 0.02411489388233562, 0.006309066531223928, 0.02866813346381257, -0.008474616182168004, 0.017920861955981037, -0.037828023955241964, 0.0803874333713209, 0.01497463875669336, 0.04726130728413767, 0.00819893714087295, 0.09180425934883867, -0.026829621281338034, 0.0013377647190692364, -0.06358332356022066, -0.0011480940931555858, 0.002712013648427136, 0.015424800525438043, 0.034115002415234914, 0.023246677644108083, -0.009326173327997839, 0.008252884491183643, -0.006731642351138339, -0.023873963361117245, 0.00047237195423768574, -0.005973625342844584, 0.029295279860896587, -0.051711074166950206, 0.0012770303018710897, 0.04776367064592451, 0.04990431395416327, -0.0030165069608626962, 0.041780116966374924, 0.05038281620513547, 0.05425410561581656, 0.057955360301700315, -0.03533512943603614, -0.02488420865896253, -0.037260220601009156, -0.052940910488105106, -0.005288556733582079, 0.0153202584364518, 0.05919741273555836, 0.002789722491318506, 0.020013428196703577, -0.043343672159310044, -0.056804194734842293, -0.029309481811763415, -0.02696970242844691, -0.007452787291221854, 0.0315903969503726, 0.024272449781485104, 0.040731088403805335, -0.0237513474342918, 0.01646898026112076, 0.010147685778405233, 0.010946587066706115, 0.037638309579279654, 0.02126623238335932, -0.01512275365182804, 0.0074815290892785965, -0.007204958882821765, 0.011337957721114076, -0.04240651082640038, -0.020936830063744007, 0.055637179396978646, -0.03975271096882023, -0.014842644158986758, 0.07497719509585458, 0.010543588301190008, -0.01166475212459233, -0.06961061086548795, 0.025996385380916993, -0.01353446438033613, 0.002858900263764201, -0.026780218172230235, 0.003080112636211651, -0.010206372173466045, 0.0740154050184729, 0.03116951513588891, -0.0421357919011989, 0.014033370088044573, -0.00849946742765706, 0.017593366802940467, 5.4179695871283106e-05, -0.03502147749764681, 0.015590659783079065, 0.03620589792262924, 0.016245032570821293, 0.009895763714748948, -0.03220132906306797, -0.0421871079509481, 0.018204262714707615, 0.028820878006202404, -0.01323763330231671, 0.010142016493746372, -0.004156182433166776, 0.09316204827221936, -0.019392932576548384, -0.010221304596637932, 0.04981938487957942, 0.04944906384725307, -0.03440071527853112, 0.006135891321193809, -0.013290864053310626, 0.010533592553645664, 0.03340069186115043, 0.01707402708877193, 0.021183754697590373, -0.03729794771406529, 0.03897588850275703, -0.04566918730976837, -0.029580400731303646, -0.008657887328579446, -0.01652410889034895, -0.00945927712604803, -0.07251300072408516, -0.005380667133219724, 0.05746869362175122, 0.03302353387877636, -0.030233478415774544, -0.048267884627094804, 0.014465972887419676, -0.026167022979170423, 0.0029736754275370525, 0.02301177654949235, 0.03972381797543066, 0.002892952889886002, 0.018684203174488635, -0.0029303710637937678, 0.005445753307120251, 0.033573867587401905, 0.03410109435538618, 0.04183458452525525, 0.022183083892361635, -0.05260220200047121, -0.06937239845326963, -0.03205760084620244, 0.05955099204887584, 0.033370826024642794, -0.00882608640356774, -0.014098376524471322, 0.06974889614604045, -0.008204475456374163, 0.07163094791028946, 0.01901798699379806, 0.04006490759452612, -0.03823749200113309, -0.05277950227108032, -0.0139686357884081, 0.008934160199235203, -0.008784160845984787, -0.03373837442639634, 0.06054320101358448, -0.0059607180327184385, -0.0888320189137435, 0.07972789391366515, 0.032718486389020966, -0.008883026301373626, 0.019586513277923392, 0.016264437676926684, -0.015744922571035016, 0.009668923596120737, 0.04463038116912144, -0.023246993485885988, -0.004811278430178663, 0.008544195227305332, 0.026993859506818214, 0.04032705611922188, -0.060305656117810226, -0.015131692587068072, 0.06074020284544048, 0.01751036018540171, 0.00672091735645329, 0.012430521633681897, 0.06752025632281569, -0.05715748027923962, 0.02292505749269033, -0.04337194845105696, 0.043928822629370035, 0.054119633693969896, -0.004436775665030183, 0.051557266655771636, 0.0008282867350893952, 0.012702458031505551, -0.01938261079913971, 0.007641464473996625, -0.007607748399676946, -0.03260059103366306, 0.030511409847208935, 0.0033091756568418866, -0.02012580029099573, -0.014203626695047298, 0.019394116405279386, 0.013280939562025201, -0.01249854980817711, 0.02347681539913647, 0.010274310710326962, -0.0729561513917898, -0.01838245107853648, 0.006680243107195854, -0.04986487631430789, -0.0012205496733714027, -0.02699992892627487, -0.017381440134796058, 0.03072238119952541, 0.052317433541099044, 0.015831901549859785, 0.036583926619404364, -0.015396665048071884, -0.013278920466463286, 0.024673457346532635, 0.057384117548892, 0.051783268240656606, 0.023606253748392085, 0.021869762891668736, 0.06312392267901075, 0.019040609706731076, -0.042713248310629906, 0.020118085273394575, -0.06567354051866756, -0.05421472715934192, 0.03355106834166169, 0.03342159038749371, 0.05286408151628922, -0.03187081103900939, -0.01716186154097292, -0.02444888674515402, 0.0036923470145642187, 0.01179705868899151, -0.029859882431450407, -0.017926318208146195, -0.014047515364743168, 0.04387664987913774, -0.008577740665643695, 0.01125435099555332, 0.03153413661325958, 0.0054105834494458035, -0.035826479932481226, -0.018499666554879585, -0.008874227649380501, -0.060573402388400824, -0.01736891712794851, 0.005415354872644499, 0.03324729425305619, -0.016668665440120026, -0.033717656055445425, 0.04621760581052296, 0.013347510642551703, -0.0084247647590147, 0.0015845867756196419, -0.06433554151534494, -0.05870380599004952, 0.005903541857608554, 0.03850361374796096, -0.007438897137755103, -0.01375246433877015, 0.011623838460074195, -0.023557196607728908, 0.0054606523288966815, -0.05143016654616515, -0.06136020045215719, -0.011924616337318025, 0.019548885823863618, -0.002798271899413298, 0.012124454807475149, 0.0008284241015827345, -0.012975848128870907, 0.0030978972260976142, -0.013646088145529752, -0.02394265205403577, -0.009800609300007633, 0.024594457148236937, 0.058372823204350256, 0.04334327345013492, -0.00451610005217315, -0.03758084336540555, 0.028220128082373265, 0.034557996544794314, 0.0018175188477355174, -0.015539583993194838, 0.01830014929232636, 0.02195471469086096, -0.01054487270092616, -0.005834777628874413, 0.028478792401234486, -0.02986515841988408, 0.03768674029696654, -0.040086310327785785, -0.05786666575158776, -0.046629758341277645, 0.02217551426286609, -0.07377935560624348, 0.061868571974982675, -0.034552353622082956, 0.02202094897249097, 0.009186792251009756, -0.05361698337234355, 0.07302707511458503, -0.018326551865894467, 0.031019008913523216, -0.027363375462937822, 0.027151310141849287, 0.016967944453145596, -0.015431802370103371, -0.032574691165022124, -0.019177407797315412, -0.022800848146652994, 0.019043714433515314, 0.003746824517635321, -0.007385581030540919, -0.004495178307825849, 0.04408189058664428, -0.01587720901158932, -0.02158771267169859, -0.035716075531034286, -0.06760915485372959, 0.02719026833603288, 0.027562865161414526, 0.01123958003639578, 0.06873294515312699, 0.0022409711235804744, 0.011509829704389797], [-0.018345366016548317, -0.02623310549939872, 0.03841634480221947, -0.025969896042455306, -0.05855511094809096, -0.02522015345762881, -0.03870052219702532, 0.021999947417852182, 0.04011365357161378, 0.012481940068153754, 0.009244479887885291, 0.015317749063563825, -0.007758241616933133, -0.024578483312420737, 0.0058201968289444475, 0.027600031767942155, -0.004409796908758614, 0.030420539331581075, -0.016951921255835785, -0.014268554170631612, 0.00346729438948138, -0.05261222188779014, -0.030054303841702663, -0.012720113938006872, 0.01916455531956623, -0.03485449193428963, 0.06535456464865227, -0.023473835085688694, 0.023781511182179037, 0.0016126028751486212, 0.03659944193032079, 0.04403414629749791, -0.042898982417166914, 0.009757292764998272, -0.04609714832887405, -0.01189395641528872, -0.0018087286773402747, 0.04708912012807875, -0.016319541939013724, -0.008560508651560505, -0.0059981627007116515, 0.06877329381440207, -0.03362491576498507, -0.031181487785128515, 0.04955902029070228, 0.011300836267828641, 0.009277731394520696, 0.004056033825680416, -0.03560134037227717, -0.026638890460495387, -0.005300412557806396, 0.01448859608638279, -0.007401540045087901, -0.027297905546870668, -0.08337486277733429, -0.019966663374306918, 0.018907071592447332, 0.029083237187545574, -0.022364272973622683, 0.02574485537972276, 0.005635419717027908, 0.05621887458728572, -0.000550851734959208, -0.05052853128333194, -0.01419564896225601, -0.03777781786000097, -0.036136326032062356, -0.01077760154638544, 0.009722257878953543, 0.02626883417789863, 0.014452269715588276, -0.05414988904307049, -0.044285324260514874, 0.01890941015777503, -0.014984984051433904, -0.07872678934884805, -0.049815367706134595, -0.024630461716271458, -0.0034490403635562936, 0.05998378356537066, -0.0281717586169257, 0.043261893629972875, -0.025452799284822476, -0.025864862239896924, 0.04688009683977524, -0.07608954791919302, -0.020211550987882052, 0.0015673608657255042, 0.04134408923157335, 0.0070122788416935086, -0.04063478240084503, -0.021292384561981147, 0.010812009706302987, 0.011480674390767925, -0.0018699228434945036, 0.001845438576852878, 0.02066899141137543, 0.028461899292500724, -0.013259438795925173, 0.0104934956269067, 0.01913866446531034, -0.01576374596189358, -0.029337794680218326, 0.013349267452671894, -0.07104771091577303, -0.07648748892931634, 0.0366108511063008, 0.0330151552519766, -0.025526597590585412, -0.03866805799643818, -0.0004624293223360848, 0.07392698391377614, -0.04604609081223149, -0.03624523109921899, 0.06662524573989952, -0.02215433015679423, -0.007839044551681263, 0.020109039577536996, -0.016464409657466077, -0.011571584011523584, -0.06925553248377278, -0.026686512022980745, -0.006359966436991206, -0.03831935702053345, 0.022006468534572717, -0.01297132846094393, 0.025125046252911894, -0.02262455958511068, -0.03066346048671194, -0.027735077558124932, -0.10786490090269318, 0.04899527397931391, -0.03174395620154648, 0.025866965793958054, 0.0011723082314277196, -0.02871498486994521, -0.041476356768098986, -0.0049572866548105365, 0.03313195901002996, -0.04665302681848201, -0.030925319724339356, -0.0028958778267986827, -0.03582472335236415, 0.031071092188502982, -0.05650895827702081, -0.0023806741928729487, 0.021474583658892633, 0.014964498643422497, 0.015451270774548624, -4.655084652238322e-05, 0.014517721042662203, 0.027882691145235436, -0.07566848286868842, -0.015061566699338903, -0.0370843716644509, -0.061882613442938765, 0.03350793711054386, -0.05272709092002952, 0.025636895326635524, 0.07352467747511815, -0.00683401310192645, -0.005625145645369777, 0.02206631307146854, 0.015222117278011735, -0.051612815705102184, 0.031475946840534834, 0.012037184996982926, 0.04430791295710627, -0.007500970905989822, -0.018433106747936974, 0.013751240299496854, 0.055501989266316776, -0.04655246232990128, -0.05233115339788611, -0.013707265681547618, 0.011455849086872456, -0.025876874019438622, 0.0052164905528405085, 0.04103091590650804, 0.021247830053399277, 0.024958480215215285, 0.016287972465977244, -0.02355276402254482, -0.017613200350889816, -0.018166809841382286, 0.03127979280870037, -0.029519193869229604, 0.027048491222885083, -0.015349794651771685, 0.038705644455772494, 0.010926764345392213, -0.019432477421447863, 0.0374308102549962, -0.04302864319226497, -0.06132382837888686, 0.09364325617683063, -0.028407313001447127, -0.015811743521828115, -0.05525336107576497, -0.008004237047833686, -0.021931838571665054, 0.09579284967430798, -0.01852044281628708, 0.009242929916376062, -0.008446403568138175, 0.006560321018014468, 0.02699934391682278, 0.014807314456648622, -0.010425632076851802, 0.03328431700611576, -0.010789695230585594, -0.07118853547680493, -0.027410903877265472, 0.09087874586903069, -0.0014516180434302407, 0.005044445723232491, 0.007682999887691612, -0.033520511452554455, -0.008869975222738793, -0.007527303905907456, 0.00671246947613966, 0.02213875850234502, -0.011545266878186829, -0.022514077589594762, -0.04909150197923719, 0.02302519789667697, 0.02583966575571317, -0.01104559046101233, 0.02551939968112664, -0.05206269082960379, -0.016034580529989968, -0.02765119351035544, -0.023926120031738985, -0.027842576820010803, 0.02042037665262519, 0.0994342193732721, 0.0001917553677466354, -0.004783924441117428, -0.009501531388900608, -0.022915262415520873, -0.008334818461660141, 0.039097232099825865, 0.02539928548555002, -0.03866596390691927, -0.025972644274795332, -0.005259190745139594, -0.01005365225832111, -0.021813702099879307, -0.00020420101970389506, -0.036049438625593185, -0.001555172900932004, 0.01205145266332369, 0.0025014814682754027, 0.02885337715622249, 0.04420702804375227, -0.06352365327566299, 0.04794817085794454, -0.01037890944995488, 0.009385200015372446, 0.02221716528401316, 0.015370693551311968, -0.04745043097857904, -0.06030250526037285, -0.018688015784501317, 0.018346792081341302, -0.02534164434873872, 0.023669113151976166, -0.014051116663720779, -0.018596998717394522, 0.03822063339414956, -0.009506852663270072, 0.0056669940793102665, 0.041929049889851217, -0.04440480538305235, -0.00890250767861546, 0.021380158136728902, -0.06369213432407746, -0.009301796608255647, 0.012492956093003722, 0.01915264928267286, 0.05302031919726861, 0.08809703085530715, 0.010990961099245977, 0.045627518107093853, -0.013772147581106758, -0.05799622029787426, 0.09211197307536324, -0.009662430557823747, 0.011976574848921163, -0.025395049380260947, -0.04538777599657743, 0.0008412245780377698, -0.043081580361887126, -0.004634516114749643, -0.006663371225493684, -0.014493595560563573, 0.025226058848849205, 0.007965777644820298, -0.04711069404219772, -1.0870322275523324e-06, -0.010610832431233853, -0.10174317265067641, -0.007370830707865434, 0.03138231112334095, 0.016048406798879283, -0.00580278313439502, 0.05624906643474255, -0.04532849594345087, 0.04693141663128389, 0.02818436532791428, -0.05573294091683507, 0.03895493799391933, 0.03751107664631053, -0.010397881971764049, 0.003940867169911524, 0.02427613991646306, -0.005477157289645138, 0.020394556388064488, -0.002101251844128351, 0.02376044039943289, 0.014885076006780655, 0.011137842934944077, -0.005141868294062434, -0.01576652102378168, -0.009398658904982463, 0.014020617543247332, 0.012352990116269169, 0.048160515609184995, -0.032964853459500565, 0.02005179805887145, -0.01510386312639291, -0.006944472477683646, -0.07346361060917257, 0.006390292506022314, -0.06306367947015105, -0.045023336931967355, -0.010268426451765254, 0.03481046488880536, 0.04102948008268834, 0.044158770039251, 0.0015823929991288937, 0.02101533823384873, 0.02256109886955866, -0.046842950117100754, -0.00843479142495758, 0.01420400894799973, 0.01607374608161915, -0.02356961450613927, -0.0426035149172155, 0.030084701395777413, 0.006090888158692354, -0.05492043489384816, -0.01817838723261179, 0.043071911816204705, 0.03736442535902305, -0.0036604589318885235, -0.0269688492646673, -0.08898774570241047, 0.027443934300591864, -0.05040114168499578, 0.020808393546560458, -0.011799681161622893, 0.029894834951226582, -0.008171524186216271, 0.04904800404048671, -0.018258723284780988, 0.03886245819426975, 0.0527436764038501, 0.062395165713933234, -0.005793681341340751, 0.0019467078113627305, -0.07453371722892983, -0.025373493270888996, 0.01911351815885575, -0.02196748816960991, 0.017520526667938845, -0.013004368302187968, 0.06013273720582883, -0.009472464377541153, -0.04997323776486877, -0.029104379220893394, -0.0441565892078131, 0.03958296425389454, 0.013791841026602508, -0.06643713076252314, 0.016968201648211945, 0.009829507069400284, -0.040878250564943604, 0.03924809676879552, -0.021216869899813327, -0.0981354369691053, -0.0010796367987906147, 0.010203981403555435, -0.03622296832106243, 0.013965700869419393, -0.023045705048575046, 0.091235773092641, 0.03232542804859072, 0.01647667167661801, -0.034911741281673674, 0.02016405105838621, -0.025419620791151377, -0.02684177918445126, 0.020067384835919574, 0.0014353081450806306, 0.02954153954666233, 0.07014546446117294, -0.0010295166139753064, -0.011955128877507009, 0.036639967327575504, -0.010563748127978938, 0.05827951927910773, -0.016564007511277123, 0.020982337898117032, -0.0041855693686412175, 0.014289375754324703, -0.005647082752739471, -0.01626795590423445, -0.008244420180909562, -0.05225910322370761, 0.03126282409077381, 0.044149716425385815, 0.12474716006844633, -0.048086344552483194, -0.00023062866855186966, 0.04171383236397609, 0.026615005353084933, 0.02210027643381197, 0.046405356190402244, -0.00998131957756893, -0.020001768207939162, -0.0060227210488781845, 0.014085833431750476, -0.030520706470870233, -0.023425638971059873, -0.013384939821704151, -0.05868712894599928, -0.007271714482148402, -0.022321773718634523, 0.020448833273147626, 0.017668332958802057, 0.03830205174196459, 0.05509431721373509, -0.02001713823062132, 0.023585250153882364, 0.03416626541643843, 0.022933917923745183, 0.04321969734197066, 0.03534868968641515, -0.008533462317416592, 0.044637306933478865, -0.04190914677727262, 0.03114178555109017, -0.01707146718698289, 0.054041583011102526, -0.009238081757673752, 0.005878688198483894, -0.008526671024713732, 0.013277195357224367, -0.005389738271243625, -0.014883007131391292, 0.013987873226254353, 0.05802103494760023, 0.017112411763962592, -0.029647142115489595, -0.050948993193917894, -0.029010690991268878, 0.006754550211786696, 0.05517439021074663, -0.03969392332228853, 0.03504197793096204, 0.05704698547274505, -0.007714241999369962, -0.001273180973894486, 0.0010874154625636705, 0.04268296887441247, -0.013774976114459237, 0.027308236922315293, -0.014380327119055092, 0.0082948676631574, -0.02051946460785356, 0.03570464963213569, 0.02838268322049327, 0.0078082919703561975, -0.06211669589622877, -0.04660162502765856, -0.03329208353973839, 0.032875082303046435, 0.019083117519794406, -0.009818084099381563, -0.0026253769165196826, -0.01677622964521789, -0.04110822570361099, 0.050849139452731, -0.06659355761079247, -0.022517801453880836, -0.009063018115197904, 0.03297919838117739, 0.030789708867598797, 0.055169985642635734, 0.008471582418226657, -0.03529934102270445, 0.01600255418351726, 0.029017951406109476, 0.041440996591300815, -0.03666470307067278, -0.005250146732922508, 0.011236559917859887, 0.027261348579194752, 0.026763024574204652, 0.01466220739424329, -0.05537576833362378, 0.01472779057981297, -0.0645231991984636, 0.03873474804498306, -0.04574949881704965, -0.014884435724185545, 0.010840547669862411, 0.051992809125122504, 0.0036846275319818078, -0.027629544971212706, -0.03348880065418813, 0.04239178579757316, 0.03098837795954411, 0.041318583706484294, -0.01270518253778253, -0.007570196499466932, -0.053333536443095644, 0.042592651572702686, 0.028169704346026784, 0.01483390449780105, 0.02709824851156321, 0.04479749313274346, 0.06999487480838401, -0.0025716318485002245, -0.0043803886564462635, -0.02404088879471073, 0.0029862718628630336, 0.01321936029794826, -0.009227884832957648, -0.03304400411370341, 0.0155616686576065, 0.018011895493909143, 0.06628644927175138, 0.04896273215761676, 0.06640061572817661, -0.03364660184222001, -0.0297739768633911, -0.0036448127441635557, 0.06187905978989177, -0.03414763841888833, -0.06580269751992272, -0.025482811716892022, -0.01084165797342501, -0.0636446336870021, -0.036936030971926846, -0.011115691134829494, -0.031907466768805744, 0.047004027488381075, -0.021269826978976916, -0.03312868472551414, 0.11189772975101554, -0.016697779382698067, -0.013833477294024418, 0.03901909729522179, -0.014531510215900904, -0.07138863065584079, -0.003321920551310462, 0.05636075565107286, -0.0015623814356452586, 0.02677646717170618, -0.018082151102179537, 0.03894519288680495, -0.006742545249487075, -0.01531854212993188, -0.007615595321764777, -0.05104126018351485, -0.013775957559508764, 0.0611146780925689, 0.02178484388444595, 0.056118732140171754, 0.020510970592050207, -0.030174266511355706, 0.047097677415615984, -0.027331752969519695, 0.03666692008279089, -0.029148095836640495, 0.04367683940122239, 0.03027101885190295, -0.010443352848003285, -0.06099290732779569, -0.037754162406283244, -0.006059091008905982, -0.030913900432649685, 0.017004347114093793, 0.07293072119405758, 0.025219448971901037, -0.00509587697742975, -0.01983592461404657, 0.10720439931018459, 0.02371093945643305, 0.005243682559407629, 0.022543533471130802, -0.005061709267791231, -0.05087093456098051, 0.03644184494842956, -0.00285784744209287, -0.015654540966870356, 0.027863513986725028, 0.021519092377867494, 0.033642248197833825, -0.005829011122639915, 0.017652723350768548, -0.0330258244780653, -0.0025697230515435857, -0.03877989866275733, 0.09542399202096714, 0.03930003420102623, 0.004165855755866475, -0.03110652695296044, -0.02366646052909829, 0.019770806394267874, -0.035700196965124754, 0.012901167544865916, -0.08549153215250684, 0.008230502370742876, 0.033657028512325486, -0.009803075646577621, -0.01722473388234531, -0.0653187939419682, -0.08170273319020775, -0.013058339769817405, -0.01216263604502946, 0.002000710310253895, -0.03180210870490191, 0.007958011125660906, -0.06515431722933573, -0.03993543883693993, 0.008829996928815108, -0.0016069005806585073, 0.10012380074246423, 0.012017824991927478, 0.058300580902338764, 0.037290344220508254, 0.032039982474739416, 0.035401505075223896, 0.017287898112144158, 0.05592373599527781, -0.022771879024491612, -0.023615170329170942, -0.05125305340818866, -0.017376378215996774, -0.003785484233451306, -0.04777222875382467, 0.0402086106498633, -0.0628137644449227, -0.024484893565366928, 0.01818914176943857, 0.037562360028112265, 0.05453482678366346, 0.0792965950301466, -0.007261397734363009, 0.02355182556769869, -0.053918361831023845, -0.01664510585733173, 0.019255108408757375, -0.03053335117962793, -0.01297213794791077, 0.014250966513314258, -0.004109758965782181, 0.043007035750413265, -0.052954261700098294, -0.030014953526721323, 0.005576750335923743, 0.02570775182262683, 0.010440816979192816, -0.03274834340109337, 0.0227198415113182, 0.03309773090561356, -0.048734371868250685, -0.03011473458395588, 0.013135040488117486, -0.029910525374087765, 0.0007382549490548768, 0.011136415373174603, 0.07336228383914933, 0.012497830513404726, -0.037413241945346065, 0.012552162373626595, 0.0038300629261737076, -0.03890941124248521, 0.010956930931088038, -0.03304127795649417, 0.012750486391025656, -0.015187602230196441, 0.006582077019850712, -0.004073978694915416, 0.08559863288815502, 0.1289107243764631, -0.003384076278601586, 0.025207546126499236, -0.02861467940733401, -0.07267606689659653, 0.07090263465379786, -0.044428390702336465, -0.005779309731669709, 0.0681969913993792, 0.02322988618970396, -0.015801703531388225, -0.04624854586055482, -0.027587271724554656, -0.007238095929349692, -0.02755894417319771, -0.03454942580132582, 0.0014025552143554097, -0.0487657580720092, -0.03471133558432433, 0.0476741779331073, -0.03293476127366886, 0.003342681462259777, 0.012632511800164071, -0.0017281493926090607, -0.0011508833338058592, -0.06555659735851109, 0.00647324298203311, -0.014082711908062427, -0.0165372548176373, 0.1087533130822147, -0.035002599366275304, 0.02857869145309546, 0.009687808701616108, 0.04760718373836733, 0.04330575433334307, 0.07860960378142107, 0.019960842710618102, 0.013177397252677555, -0.01639956441957825, 0.025340725781355544, 0.03227653709534009, 0.09921105366737425, 0.11956821690350282, 0.016377680188842867, 0.08727927180180226, 0.06837892893403176, -0.0036597173686030255, -0.05093062971581589, 0.007544471181308425, -0.025348943015412642, 0.06266116321391169, 0.03227129174553912, 0.03353082158677408, 0.03852449658255116, 0.07121753830100007, 0.0455524694942564, -0.03412477431600422, 0.05818337194602007, 0.00033967803430062944, 0.03305766979096886, -0.0768848615617815, 0.03715277375609983, -0.0812864269054074, 0.035569677297814295, -0.0031577189057435577, -0.0031204262876467713, -0.06873192728937313, 0.04070537775438047, -0.016879689045410783, 0.07736330373431982, 0.02664498633828194, 0.0388954960368539, 0.00858292836642979, 0.06873185813360076, -0.03277901868777089, 0.02966739792444357, -0.005392437964092743, 0.02727981050323894, -0.021701344360648318, 0.030742220276763696, 0.04070685564044096, 0.011391542976768497, -0.032643239845719554, -0.010881563457324718, 0.05341413251223252, -0.00245073592305053], [0.025132820823100217, -0.044007447860720895, -0.015241892566298683, 0.0024313734960042487, 0.025277065262171102, -0.007530279984401302, 0.007919159647487626, 0.025259711419675097, 0.06788140122890882, -0.0179117040968453, -0.014230402162083265, 0.0037314218257624232, 0.027919143158963572, 0.02155162147049687, 0.023053888181290446, 0.029735901766578338, 0.027602106261500503, -0.020433748364415853, -0.035828596825407615, 0.013654958149819716, -0.008085340994710777, 0.0056705488275925805, -0.007819932330759827, -0.0005643707015613768, -0.02739217657180298, -0.03487161396346704, -0.015089290875617887, 0.020082405079740854, -0.05433406586493422, -0.017498077989997966, 0.0344184485812826, -0.021706878944051877, -0.0034755553329407366, 0.009137465992480342, 0.038205371994632455, -0.03701412430817853, 0.020948755211075674, 0.006364500179301188, -0.022146407298548398, 0.08595395496813965, 0.010985509190556702, 0.014606678567766294, 0.05438447117973509, -0.014419080179577807, -0.06196504290362015, -0.011088723028753661, -0.027466677476553195, -0.044448663526505464, 0.015168047536181558, 0.01934788209952315, -0.05486941364553745, -0.04492422790612305, 0.027540965167461257, 0.015776142608329335, -0.035147011971768914, -0.028135017817841185, -0.009863315314227036, 0.001644503771289997, -0.004565404744003811, -0.005880127886199253, 0.0787288481278634, -0.010447210436249143, 0.051923241063925825, -0.04980941382629508, 0.008268613011057862, 0.04542505528014251, -0.05790771170341283, -0.031003901872531606, 0.10516035520269985, 0.05366538754386363, -0.03248693161187079, 0.004922350175174944, 0.03879404671550781, 0.010048248995403958, 0.003680194863927299, 0.003534102244197659, 0.027945400986127293, -0.03852193956337516, 0.00840229483358685, -0.024112204191901267, 0.006756984858025419, -0.006397447795964419, -0.004826212089743465, -0.0002230890079747016, -0.008011755060082731, -0.028485880388793128, 0.010408037224567554, -0.0563380389589278, -0.04577790918184246, -0.008889771271948989, 0.0354538199095229, 0.0436054047147165, 0.0006306877961830275, 0.020862211739825255, 0.016646438137911716, -0.018398764141741582, -0.04860450079278539, -0.028241637823915172, -0.02053663720341007, -0.029707358714120453, 0.00511538936195672, -2.863676666245375e-05, 0.062044664786673316, -0.02067000407970115, 0.046868067500921685, 0.05147970386050856, -0.041894228476483414, -0.013706082284284419, -0.04271517338781218, -0.0003272753563125908, -0.002740206780861726, -0.01779834733798745, 0.052334016774789625, 0.03754858889135108, 0.05901825627781549, -0.03269461971525061, 0.052699893467851845, 0.04322930645433457, 0.017810325739638075, 0.0656009796860694, 0.056660926627016134, 0.01177278958582302, 0.00183619747415581, 0.003626694732822278, 0.03285741921564572, -0.015559306814233072, 0.042427395350128086, 0.020829447975193108, -0.0046881983498266245, -0.02902655428299956, -0.02134057107269353, -0.0024307139355038043, -0.001722454484765103, 0.05630927064565483, 0.0019127701274217247, 0.004290080910634366, 0.01179763089320655, -0.008821105605993581, -0.011037379490829178, -0.02427599614448786, 0.05613227098475552, 0.013637008092574057, -0.048547305223982956, 0.04411099155355546, 0.005263149521824791, 0.013711112967388944, -0.0034295994018156612, -0.03649736666596783, -0.0076497799203108854, -0.030833066962571168, -0.006377014802915848, 0.013421206034869702, 0.01742098849861532, 0.062015244733777876, 0.04821117441619652, 0.0526156134515573, 0.024989416141988144, -0.037516483947685225, -0.056858770364057315, 0.061817904853668774, -0.014366726999499998, 0.008461993259830537, -0.027612401775440675, 0.015596878575746787, -0.020514114143082615, 0.0006772571184478646, -0.004549360437927328, 0.009697907861273572, -0.03506387832852596, 0.044404845650177806, 0.0011516801965625867, 0.009473960189386984, 0.046829693766846724, -0.07476063474248086, -0.037989982358055084, 0.05467381412363767, 0.0018128579146531863, -0.09656269485144349, 0.04663181143491389, 0.012271235899711524, -0.014600189779426929, -0.010744720480779159, -0.03201806496787733, 0.04185369391844195, -0.02934918715520778, 0.03817352461014533, 0.05858766924297602, -0.07801051611399656, -0.021067159934094297, 0.06881882122393532, 0.052270021303308406, 0.059809569668559104, -0.03780044250121465, 0.03967016400948251, -0.002191451427436429, -0.002974921472058949, -0.02236829724363194, 0.023743329173469104, -0.10992752137597507, -0.048750492158336, 0.052870204148726084, 0.04459991483084298, 0.05174964830076093, -0.017110250700432345, -0.04312658348036796, -0.010271486593780795, -0.001461859479369785, -0.058419814698115496, -0.025262549779505365, -0.011588423800744265, -0.052986218030142175, -0.05953240460618093, -0.024765405428282084, -0.029624949405371505, -0.043422601577480076, 0.03390909634098814, -0.019946466069070138, -0.02084903748648105, 0.07159371983292186, -0.02896351240460854, -0.004416088487653849, -0.01365445118271132, 0.007000742248880947, -0.02465492667321595, -0.03155515067291392, -0.027096436900701536, -0.0168182418201421, 0.012909924882360518, 0.05567625468020164, 0.021182616800928363, -0.026787071264371937, -0.017882911566443394, 0.07561800299819219, -0.0037927620797632827, 0.000607390932660968, 0.04144651065281699, -0.013989361724831232, -0.05058461678161192, -0.02861590487830293, -0.044812457697858014, -0.008163467651096856, 0.0053099995334219986, -0.005423645986606716, 0.0007046811490901531, 0.041878625145460015, 0.05236331404269772, 0.03389782398222906, -0.005495090801464888, -0.055903091779385954, -0.00636001489106545, -0.03599312567744241, -0.0498442263466492, 0.009141205605073829, 0.012254102749177634, -0.011511481821900574, 0.014135825568565784, 0.009402721186491913, -0.004160467473018623, -0.019478007858414168, -0.014327745484031837, -0.03891767686223431, -0.0044397492611196274, 0.021023651267977315, -0.0046279826499434264, 0.06150654936656069, -0.085013239074451, 0.0110701092142039, -0.07788877391047269, 0.04913792486858571, 0.04533852285413609, -0.008000181207148875, -0.0034006423194127633, 0.017158654305309707, -0.019170695358308197, 0.026164649952982417, -0.023310555066906838, 0.043136597565502366, 0.07369261098104782, -0.012237391814933324, 0.019311516135357906, 0.05018148986178274, -0.01742583952086282, -0.018266316565521645, 0.02948192389870149, 0.021431555098862902, -0.04271233309061998, 0.026735463013557368, 0.004915428277595145, 0.04727411243847867, 0.021059967959660537, 0.022707108285329486, 0.04341821429075527, 0.03724764633678136, -0.007991861210721714, -0.02689735532195935, 0.011175730642631892, 0.06378247559663505, -0.0012220177568908132, -0.002601865209756737, 0.034175841644363415, 0.03136203628475452, -0.06225070272939133, -0.056963400159411835, -0.04199707371601408, 0.024039168165288095, -0.004099121848457425, -0.021525931652064244, 0.05352063855456914, 0.03682331845798883, -0.03512370404117954, -0.05297205159941494, 0.044674136755624115, 0.04807243367300847, -0.010604882847617375, 0.011105494871389576, 0.04110697309205243, -0.021352607371595434, -0.024320069965065805, -0.05723791454026757, -0.03921245842963769, 0.024554023202722586, -0.040236981875377865, -0.018458802346668402, -0.021763339698794234, -0.026342983240462983, 0.03011417562511178, 0.021205015830405165, -0.002722672688726166, -0.009311964367966845, 0.036273020254026234, 0.009945688391615045, -0.036136196334008344, -0.01601042405157198, -0.03732649693719921, -0.010518391670402775, -0.03344089234146846, -0.0350761359179309, -0.05778875576740473, 0.03308744755776444, 0.012283910638175079, -0.03998198083362639, -0.013443723711721207, -0.0011640409389887987, 0.007208870057989195, 0.028601251661876596, -0.03193817234599117, -0.028128765771046508, -0.03985326261506999, -0.005075775560039734, -0.03064913191151573, -0.013533797497743864, 0.0466085273678709, 0.007399965375840004, -0.03449218632569619, -0.018949440163183326, 0.007498811386491442, -0.017403274138177903, 0.041624315828660004, -0.03878103950932416, 0.037194659755195904, 0.006231390667634743, -0.05941533650840829, -0.029824656411033264, -0.01645939909456919, 0.020681525634614527, -0.022913172200710628, -0.052512853598307214, -0.006207237266070145, 0.025644895737068307, -0.003966509445241266, -0.011245208374474212, 0.06704818411632828, 0.008561630584300756, -0.01053903832167676, 0.04325078343357867, 0.03608970677218045, 0.007456139970182681, 0.02484593422153737, 0.001879440910009675, 0.010856176527417737, -0.0010347205253786944, -0.016470921867532816, 0.00042281484411181233, 0.02311448952643989, -0.01267861794905383, -0.013729143508787319, 0.002898816049748357, -0.016237049236051106, 0.030125445687509245, 0.013416783606117972, -0.03867841921329451, -0.0004613877888452228, 0.015893484143338656, -0.0227761131919851, 0.04762617535060995, 0.014749357400869785, -0.003038200146986189, 0.01736874012466563, 0.017997421867530037, 0.05064390606452277, 0.041347970774358346, -0.006281617114700061, 0.031170377893544363, -0.01664805178907009, -0.03638298410833924, 0.04566788279572966, -0.10275414681655132, -0.02466260484706523, -0.01785144902154074, 0.009342879185576055, 0.03363437013145945, -0.005851393621209829, 0.004147816847739766, 0.005445079346503068, -0.04234057372617166, -0.00041253008525494095, 0.003995336602062945, -0.006819592360359312, 0.03552671114584842, 0.04273214039204077, 0.0036487545962714616, 0.009925002987391183, -0.0522916052305386, 0.0038354331442602236, -0.01303139211609209, -0.010352592094121071, -0.02520054596013397, -0.016498626718193316, -0.004007965933543791, -0.02119432209370238, -0.011073817270029682, 0.03300764580594025, 0.0028149052826471612, 0.007818979658294308, -0.019536601739963532, -0.013006091877092603, 0.01866288945836236, 0.0748467914146928, -0.021576834568037825, -0.00026921388746555533, 0.011277513504602694, 0.04267752636506856, -0.027691717101639778, 0.019162074157274712, -0.021467426074819124, -0.01876810221900676, 0.0055574692762341464, -0.016866801334060332, 0.011723610158366845, -0.013864324505083915, 0.007369215476842242, 0.030404723968200143, 0.033049364843060834, -0.05191452059215211, -0.04561697457219567, 0.016138670157968583, 0.007903347686515077, 0.0681020439946906, -0.006772207345053425, 0.04914072607179713, 0.04458886231900929, 0.0016878521231929952, 0.008640523306354014, -0.014037823117536855, -0.031574662538197996, -0.06299144924167088, -0.012725200800821875, -0.05070880063904585, 0.008262638994431573, 0.023564515339603062, 0.004704203137295052, -0.04636978163217944, -0.038913264607204893, 0.011680199057049511, -0.044334720457871915, 0.033059429130882986, -0.03530315201142636, -0.022228608295922977, 0.00818334698029145, 0.016323164022364514, -0.03002319559729861, -0.030440204503505423, 0.013729994037390843, 0.006735148595913905, -0.0027529001176777534, 0.025673132922590883, -0.06827768451418537, 0.030066618993822677, 0.016181125229138497, 0.018977444691737937, -0.02360269478908088, -0.021814137848014975, 0.004835748381411372, -0.0295478101237869, 0.01418101273541224, 0.03589173255316155, 0.0061749853658462075, -0.015998938445850906, 0.06718357785169117, 0.05429436204007096, 0.021206505816656226, 0.02654651070329768, -0.06587048497320748, 0.01257134765277952, 0.000983958484406482, 0.011282367611958792, -0.044959863504152375, 0.0078083725682309155, -0.04366290605559186, -0.010695208185802402, 0.055410066234438074, 0.027752865259824257, -0.05914303863363887, 0.018166520320136145, -0.0021871826285292132, -0.021680642568060255, -0.06263424007278398, 0.049698052954377285, -0.02499335533960878, 0.008140324030892113, 0.028719226375384193, 0.02487390161323604, -0.049589871464297226, -0.04303027842626423, -0.004980928290038701, -0.044434160766421406, 0.029753317840421997, 0.018563390207669995, 0.010949247697822486, -0.04333514861858133, -0.016462915818873075, -0.017720482165574276, 0.022733251713265828, -0.0006901583338838888, -0.05089636445454401, -0.004332853188931892, -0.03582889084091323, -0.0616209032061479, -0.04933247169405845, -0.02504825861350932, 0.024374736902962612, 0.04910801371015477, 0.003458545190316582, 0.054300746622567446, 0.042798096115816656, -0.08309699306135554, 0.009571156200062327, 0.03099862705494224, -0.021940518445411276, -0.025199584850649402, -0.0023177230037212744, 0.016093659651496107, -0.0044772145730874995, -0.07743002908643687, 0.025381685830183624, 0.007714638490870448, 0.025930173924645257, 0.016036553633382498, 0.047439550302438585, 0.024712475200751798, 0.026226521694177024, 0.0015881232431202016, 0.00997969047070999, 0.006492882199007493, -0.01983555325993159, -0.004313262883317094, 0.002907727172069755, -0.005385022612352199, 0.017678269949560725, -0.03459983887526844, 0.046951066074278895, -0.018132922097932273, -0.020503185344690606, 0.005616835888790472, -0.004983692145761829, 0.04988130974718811, 0.008201240779349138, 0.013596705154525534, -0.014511183579215962, 0.05991860538504043, 0.006416855669851212, -0.02930598593462934, 0.06841579478084545, 0.026072224952215294, -0.0009066937758780956, 0.019253761584544983, -0.05449862183211684, -0.001729184250096528, -0.004744232716762416, -0.0388638376995123, -0.017152434168673538, 0.02320611321244317, 0.013065340413243207, -0.03436048640513456, 0.011490758118008804, 0.018695231759956254, 0.04275364836665708, -0.013354971701031488, 0.06733875335942126, 