{"sizes": [784, 100, 60, 50, 45, 35, 30, 30, 25, 20, 15, 15, 10], "weights": [[[0.015529142748134366, -0.005261381249766097, -0.0276041450998826, -0.04990564729661358, -0.016491213936148604, -0.005585308792995983, 0.004324381388129434, 0.012600932818303729, -0.008865866633148525, -0.007807104248544671, -0.04591051507691805, 0.0019201317400809115, -0.07048347058354185, 0.009930092744284393, 0.05097401159769892, 0.018925425528794487, 0.02440732973341381, 0.013938025599065026, -0.048170052243318724, 0.006493783996171358, -0.010275196749638343, 0.009328759449267582, -0.01187979786240068, 0.037287257311397586, 0.05202277451853343, 0.01993354980225919, -0.035714113522042575, -0.020886560547524614, -0.03120231567742899, -0.015916667042232775, -0.09301075830929104, 0.029955560822695064, 0.023378240828649796, 0.024951293254669986, -0.013214915818737986, 0.0358478111694535, 0.01761423679673557, -0.00661782126894816, 0.01945270211761094, -0.014631788459603967, -0.04730976170340145, 0.04637045901622092, 0.03030631010883715, 0.035716280486722936, 0.009824667660437427, 0.02004042315221172, 0.010398861742036728, -0.02178350410438453, 0.022943193629197688, -0.019772098333136028, 0.04504436966542167, 0.009142193797315745, -0.0018157787981664293, -0.07030528235929383, -0.0394509356781198, 0.0008504716146593307, -0.028766822890166827, 0.04898358444811252, 0.02510644884292718, 0.002832235104530824, -0.027716103033750543, 0.028801793778423866, -0.03687109075475661, -0.005659420509660245, 0.05370192176429138, 0.004028605165614433, -0.08285278573986031, 0.012807706690838885, -0.019903584473297434, 0.03580917495834485, -0.0012690704897042116, 0.0099114150966907, -0.03190522317546746, -0.021414746943142656, -0.0005068458888779125, 0.027009132018072927, -0.04106842544237999, 0.029663443759812985, -0.07418087517087947, 0.007015015231204082, 0.11410203853208536, -0.013406917681924797, -0.007180566664775706, -0.0055549963728096586, 0.009064138225640396, -0.03658472185230583, -0.01640903468265463, -0.002807036065288233, 0.018127224211771296, 0.009428874939247905, 0.008967301149200664, 0.01868446763961757, 0.07709217507477861, 0.013527747549065416, 0.0083425292890538, -0.041364619688889256, 0.009892309787393918, -0.016026361561830304, -0.0065372246572002355, 0.014791041425830306, -0.002743318514236289, 0.03541425865354719, -0.04168079212714526, 0.0075895046488197795, -0.052020683623422714, -0.030771288863529478, 0.0007357948453526524, -0.026831564159726796, -0.008105047842162849, -0.0172227408454648, 0.029718622157457564, 0.038971075500420484, -0.031216649525211106, -0.006904145802145501, -0.0010070006845053457, -0.01767176523666238, 0.004933600965490242, 0.03904144326167083, 0.04157617787484403, 0.034370869735326305, 0.01602112224962863, -0.013268797823148656, 0.003161173046251426, -0.042546810595314434, 0.015660698960646452, -0.006801048128169499, -0.023879463797891326, -0.05455864624333573, -0.0016773316472983792, -0.047100816972741745, 0.043464166669955354, -0.03162170733551028, 0.050385832689869965, -0.03428158633219026, 0.03354604979063448, -0.0242844940849716, 0.047362690842990815, 0.04397105239346013, 0.0029709978347908883, 0.026839710271518442, -0.034269661227653056, 0.01630817887869539, -0.012408881482162347, -0.08565584853431947, 0.03142100826370388, 0.003919404363423916, 0.04719109294716155, -0.031890430415596895, -0.009693893466094793, 0.0044366369367746916, 0.022935469679192036, 0.09584778969915832, -0.002375321492089949, 0.036857239372302, 0.03937433602994079, 0.022635313408703724, -0.03668113232382047, 0.0009489285832398279, -0.06485503478402445, 0.006412768019076691, -0.06972135480449627, 0.028872145354323763, -0.013105847847864316, -0.004210988857874129, 0.02358809130350353, 0.06178065118661083, -0.051355928501846726, -0.01715649750596755, -0.0056235383974321314, 0.0020238588547708135, 0.038016184655334934, -0.03802162911118613, 6.129120155397695e-05, -0.07336730285538412, 0.0076108004297078214, 0.022713256503015464, -0.011449505158077555, -0.08162381611651888, -0.05918187922335884, -0.038036604085439886, -0.015921866135128578, -0.03908354964085619, -0.031933664615394104, 0.015816392898533704, -0.021589350759340403, -0.06125596456119831, -0.019388256088890804, 0.01610194076125757, 0.0003617692193355337, 0.054928769805924656, 0.0005364742829069314, -0.021941348836385176, 0.031958528343774495, -0.024984669077105556, -0.018720976761984816, -0.007348362710488795, -0.05224861213633982, 0.022982549778505282, -0.02187677581867186, 0.0161789178821848, -0.011962509486743607, -0.08128953494570113, -0.01239878780042683, 0.04450200578065342, -0.02229569041415608, -0.03157825981389671, 0.04762860052506703, 0.0171915792579677, 0.04103209783723697, -0.025432844813795468, -0.014892627716389491, -0.09344420911165503, -0.0052585856536856365, -0.015893945836120034, 0.0218353338319086, -0.01028854200562649, -0.01371682017949083, 0.003096522918661405, -0.012578251732913966, 0.0063430291488771225, -0.01929938466552017, -0.00700416801878178, -0.028646531874175107, 0.018734740660950506, -0.061944463091895004, 0.06642531900221027, 0.0038286297338174127, 0.01765196707184158, -0.05983034567824633, -0.01130139514970488, -0.018759439849309563, 0.03448230666435457, 0.04371426077079534, 0.06440365876836714, -0.03494881663879553, 0.0398392252852565, -0.013630403889651008, -0.008671339186466316, 0.040225623509813506, -0.006066491711216037, 0.01845045383723953, 0.01922972034864251, 0.014103947766502813, 0.04074602888206289, 0.013563212942315746, -0.04412863966630519, -0.07696804005999412, -0.06150798309682126, -0.011734121049884689, -0.06482896474146223, -0.007949080834493085, -0.07663953048685923, 0.0265834898943182, -0.02109206359504913, 0.03006044473905368, 0.015516442809509534, -0.05086652861440386, -0.0173630025077732, -0.01574641431810811, 0.008023855465229946, -0.006332218675086326, 0.0033243758741617153, 0.012301532414590002, -0.028780133314617595, 0.028776781855786495, -0.011246439119190394, 0.006705379288572822, -0.05752960623158326, 0.011070951549912517, 0.1111934562954153, -0.036129252607190944, -0.006715427341327132, -0.06252154576620221, -0.016901833093360727, -0.011666824662820065, -0.006593290228956974, 0.01233810919660549, 0.038804398458659316, 0.0008812465564955268, -0.03837713536842831, -0.005819726723025595, 0.03230859034912207, 0.03496469069716536, -0.04636212293555471, -0.05579288772201144, -0.014193376362721952, -0.01853160723358695, -0.05730063280351096, 0.02146309473295678, -0.0015038567299504324, 0.011157062775947415, -0.01437428520399725, -0.02551410239802235, -0.057583789861211945, -0.043185375726669875, 0.003662370144069643, 0.03154156141049393, -0.05816098389765615, -0.012069889185252834, -0.017984072075059726, -0.06073792452235667, -0.05405702325041179, 0.007246298197233972, -0.0017132093714355278, 0.034332367832256065, 0.015986131676437598, 0.040303103934929266, -0.018231245385525223, -0.013685815387576229, 0.08036006570173498, 0.04779597890419874, 0.07199070509905024, -0.056336356401234244, -0.020771503346922716, -0.03952017396481346, -0.04126639791982318, 0.008783556677472208, 0.0167163382710741, -0.10536968606641112, 0.014034562747154242, -0.07034856322297837, -0.03637406224755359, 0.036036729224543575, 0.004338371329570917, 0.0008488471502554705, -0.037583393603690486, -0.011751676714580897, -0.048101347610298176, -0.0037094491932021813, -0.09500816424430523, 0.03327306046921559, -0.10444866397317508, -0.024093830245932535, 0.0018205616403423465, 0.04571543222481608, 0.025935704942913633, -0.012192992552349772, -0.09525869310672508, 0.0014568880429154127, -0.005652289663803681, -0.029753550256407146, -0.07888132035150562, -1.120501462283229e-05, -0.05348806259142849, 0.11158657923039576, -0.039062212426396306, 0.022990753672460926, -0.014824429328955576, 0.03243079144233162, 0.002201806445119177, 0.02176307702764416, 0.03542465825078387, 0.006587212313920804, -0.06938973631597796, 0.004529679989707622, 0.012360872205783278, -0.009535154070880708, 0.05505881641588268, -0.03970882593511958, -0.02036865779848144, 0.024053876700447268, 0.0027477160636005696, 0.018743341026919533, -0.015040685396389886, -0.03777471796445808, -0.013094391419680643, -0.055058704511586044, 0.014156997891773576, 0.0035712862276089286, -0.056501947459169456, 0.03807125526946732, 0.042982948063198266, -0.06144988961168296, 0.0360400441820869, -0.0355030959368574, -0.03664959079677361, 0.04205470460699092, 0.013271547212673396, 0.021856238194474357, -0.016928164501022944, -0.0712687556264488, 0.03596843578897264, -0.05228687596988742, -0.012307094141924565, -0.007947604228049208, 0.0373404076764947, -0.035268694064387894, 0.0639776439758551, -0.02904422118194197, 0.019090015285319884, 0.08465302498239337, 0.009076023449718924, -0.04205556872083618, -0.01265970126652711, 0.00014599309589370744, 0.04079453886994179, 0.07681858956990519, 0.02747780832194085, 0.03630862801198221, -0.04607032327561642, 0.008733442162174884, -0.03762737452777628, 0.012553895262024144, -0.058320897790199076, 0.046898302755625364, 0.004428630402500114, 0.035733480788762664, 0.032034518520690905, 0.0289078332565544, 0.005555482981823328, 0.0045501244364042764, -0.009948711951365971, -0.012196540480734507, -0.010066567238418315, 0.005309374822467205, -0.02284108104626018, 0.03364116507767419, -0.002791044121283841, -0.011521579373716248, -0.012974934040747675, 0.02174852699429157, -0.012362862485136785, -0.0010492101564894664, 0.07787583888897928, -0.004787153927741579, -0.023195107788172423, 0.0012185238798462887, 0.005266854027515972, -0.045705338937256104, 0.07948069627119479, -0.019468281649765707, 0.02598258321600437, 0.01193646620700054, -0.025167423078151677, 0.007456474058432691, 0.022073576786423573, -0.019176516125441388, 0.026841485532812796, -0.021336947221181037, -0.04223741954338626, -0.08114306062985435, -0.011459358903194017, 0.04374542881227881, -0.0301526646151584, -0.048694077521658864, 0.037411885308176275, 0.0268861284605344, -0.009418885133639527, -0.031467813490254376, 0.021358698624058713, 0.022094126971826472, -0.026165772065239606, 0.016765514218033593, 0.03351016731658042, -0.08252068970445288, 0.03307464637734619, 0.02530680278996012, -0.07051082538805935, 0.0421326315487006, 0.010986420688349803, 0.0009071588428956375, 0.021057649712955408, -0.009498260851830318, 0.00012707796964607233, -0.011100921572997254, 0.025651154941997465, -0.03647148704448784, -0.00539701916980414, -0.006748977946442675, -0.049689121226280476, 0.05931978678124752, -0.0636194750371819, -0.03845735242813388, 0.026572912031187352, 0.008379616424188262, -0.0693345105264361, -0.010201478387235539, 0.0061071821819004115, 0.06832286387542212, -0.04194872103815585, 0.059017340229490095, 0.03699597562675922, 0.05019246855549498, -0.00566939117629796, -0.0008067483342029671, -0.021333777623256604, 0.05993804136089516, 0.008429896821634215, -0.04820417307593101, 0.01089641609627645, -0.02319123319674153, -0.04463589072669113, -0.005057120437510149, 0.029606969131426072, -0.020016472700137275, -0.049941377976465265, -0.09198880162390823, -0.07861229311510773, 0.023155266291607305, -0.024726024993067718, 0.022259566041965807, -0.029402485670643828, -0.028688327293482484, -0.017690913638510254, 0.016379571804289613, -0.04926816770364215, 0.021106314206809515, -0.027430854117533543, 0.007826101065661983, -0.009563962996426438, -0.03200900322391536, -0.08066274541579045, 0.015295983068284441, -0.02899647784342891, -0.029045109656743343, -0.04788502268874114, -0.016423957424517032, 0.006759095669872505, 0.08519830790511258, 0.027154463171611586, -0.027104405755949187, 0.024019506033649086, 0.007636304576011652, 0.056245793832113825, -0.0469068512029187, -0.01784837119366435, -0.08688902087767428, -0.004017586768215255, 0.00224029531821567, 0.007888940729097134, -0.03524467156634998, 0.03597383019609825, -0.0546395042317052, -0.005935769503333876, 0.0644676424277557, -0.0763346864710114, 0.006778053488011172, -0.050408287211134065, 0.013636618811911961, 0.0507581252103435, 0.039984780345127584, 0.01248195876549514, -0.02983819036184056, 0.002261198121107839, 0.017924650553478156, -0.052450696810212145, -0.006606418264652517, 0.02962170709520752, 0.006010073534718448, 0.03292049641725543, -0.018782690146070657, -0.013142323034325309, 0.013427120507949124, 0.03501028571690591, 0.11325673013432479, 0.05937644833665207, -0.044902135859959454, 0.0037326549707465324, -0.01344440905870338, 0.048609040414968996, -0.010224410228691264, 0.037172384773979376, 0.01756708805960431, -0.007052612259171728, 0.0037326609001951555, -0.015050485209622119, 0.015834392456048993, 0.024066056406367352, -0.06164421341868931, 0.0153099157520345, 0.028498448100777517, -0.004093203076965761, -0.07644827412983413, -0.051811168623372233, 0.06018981988939894, 0.020500701863944336, -0.003182589158809306, 0.016656125675979398, 0.02606057542158792, 0.025980542600621416, -0.02037485994738779, -0.03379308331568822, -0.06370811614809287, 0.0016316731555998233, -0.03449302593355202, -0.00545403471869095, -0.04701052468423439, 0.008939901375244233, 0.031124844945110648, 0.025971729366079575, 0.0076458424685911935, 0.04699454807164817, 0.024886347128185212, 0.031905127899000144, 0.0032967629130324434, 0.023579047518221638, 0.01988968175716321, 0.02028777593479256, 0.010720413714025295, 0.04283691465949885, -0.03736743986764237, -0.07568736284870407, -0.03854247288940471, 0.007135099288964657, -0.0404269427364654, 0.008589650768633914, -0.05419476741356742, 0.03316847308553009, -0.06118795594529601, -0.016894707258613414, -0.018164044431213784, 0.01735975817361594, 0.000974232381285872, -0.012009016663985895, -0.02030352868776401, -0.005250230669296689, 2.6524999982848085e-05, 0.00585460576698633, 0.010210049590070285, 0.03974795885063167, -0.003991841808202972, -0.005837996961141669, -0.0005564904173074808, -0.006086791170727262, -0.02926069543956899, -0.04627608688749174, 0.042011581722180946, 0.03489828600356057, 0.019826010211519716, -0.021340239681966786, 0.04580346174936717, -0.0006427281643127338, 0.049762173868597236, 0.0564893517986732, -0.04497888728158802, -0.028668486556315216, 0.017686444852043823, 0.046946215274643904, 0.05045072855346903, 0.03311869032701233, -0.02247715628708168, -0.01408940848981635, -0.02486840574649371, 0.033008619622497966, 0.061548505550714505, 0.035641672083777526, 0.04366969514479418, 0.022380386434682875, 0.004364133890947152, 0.015798001525673604, 0.07246201490121965, 0.0220688522168502, 0.03240504072149239, -0.007509813265166396, 0.04271010237352497, -0.020341430038581947, 0.0047042117426888885, -0.00706648984148853, 0.04176147332572709, -0.026676872079186478, -0.0006518684912038427, -0.02937358733472509, 0.0021864640130814556, -0.0052808344020959935, -0.06338717036100117, -0.011951748434193768, 0.019250181867964938, -0.03862944774374947, 0.02536308808004475, 0.06819714108806646, 0.0028187820943350807, 0.019505383016748673, -0.007350697046876832, 0.023785736464213798, -0.03167694393542799, 0.025082661115813715, 0.03890069200155492, -0.04847137368604298, -0.03522710948750127, -0.09128227323346681, 0.06504794046846517, 0.0038145658246276264, -0.0016557106316371934, 0.02817856880968646, -0.01328481833880369, -0.009486707403348747, 0.003121935149197845, -0.02896918899930012, 0.022144126667217854, -0.05247618833454196, -0.014708520944779637, -0.029422221409247773, 0.0066643257507427245, 0.01736731584622318, 0.02271875969555784, -0.04417248574429542, -0.025540074119751437, -0.019426944803783406, 0.07301311225030638, -0.01791360494396618, 0.05195351339644494, 0.005572674852433663, 0.002556305045517429, -0.012152896273070889, 0.004313508349752194, -0.03111461890462564, -0.0117784860086571, 0.02984515783520524, -0.041418832942268696, 0.03108723190210384, 0.06308084387837852, 0.031186214499613747, -0.0010647730832518654, -0.04629598752828018, -0.04577737903314954, 0.03236162080158234, -0.021896159883418677, -0.041398713565437416, -0.03907727474855809, 0.0386254795471914, -0.04250878762496324, -0.006226010768630467, -0.005176390501815207, -0.021913930833276345, -0.01012113256266558, 0.05520601817104318, 0.059588772561453666, -0.011804748008620412, 0.000286850540607962, 0.0021606706238748974, -0.0192543103003858, -0.05397096237083554, 0.030317072359302547, -0.023535632622468803, -0.004184119456715102, -0.05955658266131724, -0.010156560581798722, 0.002713496326269354, -0.0031629671305674436, 0.0009299511692323672, -0.011370280112652011, -0.025273372417959263, -0.031069971974115755, 0.06558576026281535, -0.014609719167375301, 0.017965057902461216, -0.0384432225992638, -0.03405331124940922, 0.012300203630349425, -0.04233452048520686, -0.02691273171409742, 0.010665576945946494, -0.04835277350551591, 0.047121112186462796, 0.02713448584965083, -0.0005857266959539184, -0.025422625658616717, 0.07816912323805235, -0.015688114709699656, -0.0021588645818908397, 0.05244497186630489, 0.036802761729928586, 0.0026449875355007875, 0.0928133900612882, -0.05416575540778035, 0.02694296123627541, 0.008782310788405247, -0.024381905550982498, -0.015418894821012052, -0.04186496772963015, 0.019536571140316022, 0.03779758924936679, 0.03747945810302783, -0.01518286329410232, -0.033191098017227465, -0.01757173697293311, 0.014411179506913722, 0.014298606951340637, -0.019327489617118672, -0.010245970076926764, -0.027098420529056377, -0.023292018623266093, 0.007881547770373176, 0.003434185257701027], [0.025679010857762568, 0.008248142280716965, -0.03315724221884082, 0.029315185086362137, -0.04564430666334044, -0.06659054870801025, 0.03540947850528026, 0.02939918637327448, 0.06941051128605683, 0.01668048564659415, -0.004795712364537486, 0.04055604767008979, 0.009152827097277714, -0.006210032378200061, -0.04892628929268974, 0.031033583018101257, 0.023296534595983215, -0.06626521964452396, 0.032363239361998385, 0.057050693804136535, 0.01849620490359144, -0.008158596951963736, -0.0037047878698440945, 0.04375975579797857, -0.03925090548493156, 0.024617773577679913, -0.03351751276364044, -0.024701409728594508, 0.02649789860322112, -0.018216517306654727, -0.00527793859754118, 0.047891796194327166, -0.017612480483336197, 0.02435583587568759, 0.03861978877583471, -0.027935489982555156, -0.015215056382510746, 0.04525837755633184, 0.027727078717061773, 0.011929479070674981, -0.038222356927484456, 0.026244092599131165, -0.01661466651184563, -0.03491789058500837, -0.0016236430772922348, -0.03622648449274161, 0.010371480799758867, 0.02606257470969043, -0.018890982540210263, 0.02785777172990811, 0.040489287792897524, 0.010937856686764912, 0.04884553772842465, -0.032198140746166774, 0.02204857676445926, 0.03943538255075772, 0.00277394043097976, -0.02014747287168515, 0.03992017563079992, -0.023205975204594984, -0.049960198889981204, 0.017050869520282, -0.011939748802820307, 0.034087475597875505, -0.02658114465610863, -0.024382444605437197, -0.01627298266702473, -0.0024438999756284216, 0.05930572025563057, 0.007667297261710149, -0.02560839004384605, 0.007803562549726874, -0.031926658804662764, 0.027337942088419127, 0.03653589334337559, 0.019455552732889146, 0.03834059651265497, 0.007970420231221435, -0.033863577216253764, 0.0013983954436694909, 0.018402843267078542, -0.06359678357111208, 0.005375433161990051, 0.018248917301153567, 0.005192110078013612, 0.05794299087620404, -0.08915993319113552, 0.011711888476217822, 0.026300116936129023, 0.021843205490350726, 0.009605058562312809, 0.027124541337244866, -0.00920694748438856, 0.007448373413536518, -0.01704334109695934, -0.01116395704658845, -0.014707308282426074, -0.018795364358298036, -0.02960869448626576, 0.04817449546086691, 0.03403569983100632, -0.045181354938697134, 0.06523858645111737, 0.012521338329230493, 0.021444423172713053, 0.029159627636410182, 0.051003721090254445, -0.009249003977763886, 0.03641735111467814, 0.03194503028428192, -0.0027968551681542904, -0.015682044293022824, 0.03823005165906961, -0.010215104063384118, 0.030007700910042897, -0.007750628885275576, 0.012054463967840802, 0.0009792390208890884, -0.027878679919895004, 0.08683798579280516, 0.010234515955872377, -0.004700239776308259, 0.012248738309707694, 0.07497832311728864, -0.02566159139133899, 0.032716291698133095, 0.01241206172837309, 0.029198774263309277, -0.039271382963085584, 0.02984790241880679, 0.024341718291933177, 0.00549648610612877, 0.08315703302060799, -0.03522352886207035, 0.07538627575474682, -0.02583951533738851, -0.022986092306616936, 0.006063677462785803, 0.025851902647516477, -0.0139603749822538, -0.02903666279038897, 0.07297455735790058, 0.005239247601502989, -0.05450027732015622, -0.018909268138403698, -0.013429990860542874, -0.05665252715428707, -0.019221830908501, -0.034248951456141166, -0.02461611170581398, -0.04073548853230707, 0.019679963515459954, 0.012261345799542269, 0.007382159837562457, 0.03980802200040534, 0.03243734256497797, -0.010271628158607445, -0.002161233766261115, -0.0010022558150849198, -0.0080334954114163, -0.007548442371502149, 0.027621938177801314, 0.04390043081656643, 0.04772464185715449, -0.07174554167451071, 0.013080749297928598, 0.04485904203071235, -0.007614732149860631, -0.00373384275105028, 0.02039399229607487, 0.02775110219116029, 0.040706798085517276, -0.032911496513568915, 0.006085545281428466, 0.035317635141414554, -0.018967002988328627, 0.038438414326804865, 0.0305897916545056, 0.01179333679186668, -0.07138030657477944, -0.058129175985187416, -0.04130703128006487, -0.0032648508255178612, 0.011137946000901289, -0.03424269899285366, 0.025381328665120613, -0.02023269301947774, 0.01403263327695573, -0.03546106017030438, -0.0206571234656172, -0.024155025449927977, 0.04854790875234827, -0.022734016596169915, 0.042777440201211776, -0.04777430542359446, 0.03621719698065485, -0.0005140864858874492, 0.002928515569078976, 0.0235762423299593, 0.021229434498585057, -0.0050792273199727995, 0.048469244174938926, 0.025361471141169854, 0.05825842558664572, 0.02820126041909658, 0.009461642724647754, -0.008214013968893517, -0.015221778423604027, 0.0679731718584397, 0.06489666331691613, -0.05732002931426283, -0.07336289344977671, -0.027570838699079524, 0.011261195398243886, 0.022702826042766338, 0.01245086318286569, -0.017553420211749892, 0.00452523493096139, -0.01246096461601294, 0.014927282623207146, 0.02880125692031103, -0.010347370326478617, -0.06581927225634282, -0.001046948801023531, -0.007272171079786101, 0.01688097877709098, 0.02408392390781219, -0.03974725664415431, 0.014376371379553055, 0.06294150583030034, -0.03168838797645511, -0.010519406872110651, -0.00942289170011476, 0.07401802853940505, -0.045074557398002243, 0.023044252478795154, -0.03500171996602869, 0.0018636487098778432, 0.010015722343036071, -0.012669140147972154, 0.037421858783668126, -0.06002690635609818, 0.00036935937660244567, 0.023356065698008143, -0.0455105234233817, -0.04254607333934894, 0.04617822988508799, -0.05711638484846391, -0.02778147362231705, -0.02350206830191948, -0.015789507263450887, -0.03209341614831553, -0.044520853429154905, -0.05466000942587689, -0.058316870402249706, -0.05132565482802524, 0.01790290117021421, -0.03711704512401742, 0.03921343308021751, -0.009158298151564062, 0.002614448788776757, 0.005136676737036327, 0.012561618109545168, 0.07194683323592055, -0.010475087273708777, 0.01584939459996374, 0.03692836400363573, -0.04302905610531254, 0.02955638020219087, 0.07461074964411388, 0.0326646616710195, 0.028680362772268705, -0.02265564037968765, -0.05737665087176775, 0.004506542257456478, 0.021585806846875402, 0.02620376207155961, -0.03090528787219486, -0.010628835356055221, -0.013600911150450421, -0.02685440639437537, -0.022297017192620908, -0.0022299381806724734, -0.010727850818890014, -0.018697597361609135, 0.01984018989453532, -0.00598294247231891, -0.09948563659177713, 0.03473097371549024, 0.016401633832471427, -0.026996922218748387, -0.03919067704329449, -0.015760518064785973, 0.04615764333583769, 9.924803410010688e-05, 0.050722577061651994, -0.0029771581415471444, -0.03172262707197387, 0.021814491341394633, 0.019894652143372833, 0.014730299453132149, 0.025422649081333015, 0.0018929841378549387, 0.04323935534767589, -0.031789709053429094, 0.033595936674526504, -0.0411631189905823, -0.011465950579757236, -0.028673027410447586, -0.0075434558358136615, 0.03217820954609043, 0.04442309232643455, -0.016173355860121294, 0.016787476904614514, 0.01975150220602956, -0.04681864831427661, 0.04128570472738187, -0.0036507764140594865, -0.01771640218805159, 0.03798874877150434, 0.03045902827352696, 0.04721593047937681, -0.0009723144282557292, -0.049968353962776504, -0.01726088751212204, 0.0001725246652406032, 0.09540842303150912, 0.012940200490839656, -0.015861502110676728, 0.004065317538632127, -0.027164340889694036, 0.043016134046180994, 0.02016024074574888, 0.006378055021116704, 0.04665362283476211, -0.02245742135849231, 0.0361873378009408, -0.05308806446560763, -0.011173308590561797, -0.0611424626117104, 0.009177448115615423, -0.03335207085274794, 0.02957883411337481, 0.04871410507296548, 0.03215129858294709, 0.02309544283181247, -0.041148437899278245, 0.0253957942991924, -0.010985728686571645, 0.03045831251589601, -0.010235219382655503, -0.011721213413026158, -0.010914904888490866, -0.024404431026032167, 0.004968930594057773, 0.027789875216996853, 0.04100541446765657, 0.04250629066523768, -0.01741860881130363, -0.01607816504623656, -0.020017516682205035, -0.0010018474934173787, 0.01561828745250846, 0.025492466933023487, 0.028273610614425806, 0.005146640697660228, -0.026941241339326027, -0.00418567171831996, 0.015314797596943422, -0.025671894264544165, -0.0035650840947729027, 0.009385430495581978, 0.02403637220206678, -0.029819254704479898, 0.031051176572892074, 0.0163246090738623, -0.028175864204702236, 0.04384244815496989, -0.05044057139652161, 0.07837187597603741, 0.0338802200046426, 0.015959851948551554, 0.012921503553092111, 0.011735385201698187, 0.008290696768185724, 0.05381193719439841, -0.038303556209277376, -0.012973070106649118, -0.006370499055194565, 0.024629504828808994, -0.02152785609339046, 0.029327803428373864, 0.06037227900809065, -0.00023633857260061864, 0.06764362836141537, -0.00861649200950787, 0.038898998737841216, -0.03296103926274281, -0.021738265930993116, 0.04683313886275027, -0.020212247209001062, 0.009554760106611642, -0.030791450112495074, 0.01660361877047733, -0.042794576810504734, 0.026001734123833713, -0.07235975465846824, -0.005463073216720738, -0.07372217974469365, -0.05401412846970817, -0.06177733362389853, 0.03808429706361587, 0.014791760110151606, -0.0470773937936329, 0.020576528432384108, 0.01854692090657807, -0.006877570157602822, 0.0052177477430544765, 0.010774792685499598, 0.0336864317249172, -0.06400377395409451, 0.02553938178721705, -0.03739674015177753, 0.023649445199856723, 0.08128111199935237, -0.052724477347305884, 0.015684735511780172, -0.01148630670292505, -0.018575916908775043, -0.022813173281385553, -0.036904131984522116, -0.014146490700246673, -0.061438617316631625, -0.06809298083766838, 0.04230106798394192, 0.007019466067699716, -0.010341329083558786, 0.016968340912594894, -0.04907867823248329, 0.04855626081489953, 0.004292824534883688, -0.0023580070961891535, -0.060715734677726084, 0.00841812032279742, 0.08482874208623088, -0.01630196018412126, 0.027605566095861896, -0.061849897540698036, 0.021679304721608558, 0.014814324359756052, 0.045720874957544635, -0.04631559837794673, -0.005490165284357679, 0.03366218610204667, 0.01877132436200142, -0.03522610602392277, -0.009763818783086407, 0.001967942083974914, 0.036357992912770656, -0.03015684198757345, 0.016187443059035817, 0.048254077352288816, 0.0023772075012355493, 0.010195875537727338, 0.017207157214120222, -0.041601316290768416, -0.003973901396432051, -0.019706314519939594, -0.03659302835846991, -0.02884495991083732, -0.08122926561599357, 0.013418879667530335, -0.0013006492159655801, -0.015261111711263533, 0.001058085440317511, -0.03421222303475904, 0.01626647837013674, 0.05076503130288192, 0.036469698849983204, -0.06877424415637076, -0.03356918310165561, -0.0037630755219037948, 0.023482705890969995, 0.012445849455932736, -0.04544956917596981, 0.01670323681045928, -0.01130107460596284, -0.017724501764387265, 0.044929213445252095, -0.028654220473113275, -0.0282011643991732, 0.03271227804541749, -0.016773874998850736, -0.023828749647376437, -0.022583406906357642, 0.05258866573736121, 0.016752163548586267, -0.013855187645804797, -0.025018916041212792, 0.01497104379939298, 0.041451407051850166, 0.031191664075089665, 0.03892125635357869, -0.023922098436648123, -0.004023220518657535, -0.04538548742977149, 0.02768524754980072, 0.01421663915349405, 0.09768608033228782, 0.045139305791785864, 0.022577089181483927, 0.018451809688510536, -0.04016526705345602, -0.004398704772469744, -0.022590324728721984, 0.0408270129408916, -0.010779262875204474, 0.03337348220292615, -0.03806781151784558, 0.04900192481318497, 0.05900840139464337, -0.037809261147899835, -0.019318827707337047, -0.052819158711979626, -0.01633460649431033, 0.059518694820941395, 0.04567000112775619, -0.0570430159866713, 0.0007855807145983803, -0.009967561188354292, 0.0038634573836384615, -0.019222549423060724, 0.00023427027913240476, -0.02676180398039985, -0.03789910259067986, 0.04849154025444312, -0.010070084659350597, 0.020685212219619817, 0.0766559615065854, 0.01790999962702211, 0.01611136787320712, 0.036717168378591784, -0.06669044506306178, -0.00012006603854805949, -0.017170427614236497, -0.05858172252702395, 0.029534049815008054, 0.005156488910066458, -0.035045700819006556, -0.02218820215526108, -0.011808611259437106, 0.01617128251010819, -0.039727691201385064, -0.014250045256566231, -0.002334181554164934, -0.03609005918991417, -0.021975031035444292, 0.020686858132473653, -0.0362076515568263, -0.04090113491603351, -0.0197853870440097, -0.014755265364688784, 0.027266718222421948, 0.021064430076683627, -0.05106402456957954, 0.013068893276071851, 0.047674803401993045, -0.0608481829296733, 0.029653715281423715, 0.05755018109747579, -0.001258537149648024, -0.04560945423027227, -0.0026163095514581403, -0.007610369082196006, -0.03210183846908218, 0.03850971158298261, 0.011205511452409027, -0.00022059391944113173, 0.027166397461375454, -0.016597496603607438, 0.00823936949782806, -0.05134513184742105, -0.06168000168681106, 0.011331872462586013, 0.0033629725729671244, 0.04805877496092979, 1.270585674866861e-05, -0.008986066031223988, 0.04376972509416169, 0.0017617133239359681, -0.024847918510398935, -0.051618084414478384, -0.013782924865385002, 0.03381140176817839, -0.04440643121974722, -0.06015911734938959, -0.052399825632658235, -0.011557521889356463, -0.020364256015527844, 0.004790417138613683, 0.06296467875566238, 0.01437386542418351, -0.007205608781392114, -0.047031911431118886, 0.02250729789637264, 0.012910619234618127, -0.003160064285528038, 0.004886955220544871, -0.020327401336844905, -0.030771548512423117, 0.04989348042615886, 0.03390905880591121, -0.02412871901450094, 0.01267772405200399, -0.08477590870580344, -0.02807600683823756, 0.005219604364675645, -0.007701679034704333, -0.003119150437515923, 0.15456998633907823, 0.09128965949271042, -0.029485587956700126, -0.027136121294639458, 0.03945680167598315, -0.019596986596382315, -0.0629476021825111, 0.0064595043029542975, 0.04963280771353014, 0.0536451212683047, 0.02756872562114003, -0.07309535184080466, 0.01464921243829004, 0.004788930720427165, 0.04207467208373191, 0.015948870711861792, 0.016687980090318202, 0.02329513508980476, -0.023277096368181198, 0.050058971190553136, 0.03755684325061347, -0.03677251153296567, -0.011871383849452995, -0.02462107152401393, 0.006188973194487016, 0.033005948445050635, 0.04328681517318766, 0.021040683694851597, 0.006101907610433825, 0.00998279085735741, 0.006965810876039988, -0.04791364446576847, -0.06908397367907586, 0.037741889710589886, -0.05234800041927829, -0.014913013618280919, -0.025642197181043602, -0.0009789580574348041, -0.033294499556397836, 0.0705468514195157, -0.01703263334516462, 0.06592988688052773, -0.009408479607333061, 0.02058391723985391, -0.04246628885885843, -0.02457159276452771, -0.0064695693936208595, 0.033935643555085285, 0.095370480071028, 0.055955705408577486, 0.0947539914767657, 0.02402545183214915, 0.05394674737172863, 0.048569243990537754, 0.02439822687177445, -0.009481161927063756, 0.021182148373766616, -0.020641147106241972, -0.06994687642033695, 0.0027121685974495244, 0.010166198981094712, -0.05390465433193473, 0.0019683743517887285, -0.0759902801977641, -0.01895326752823115, -0.02065839164432464, 0.03552226373095693, 0.011816976708981443, -0.0016223490441758678, -0.014700221176735627, 0.007864068482498406, -0.04437338357916639, 0.04311015477559394, -0.0389864050140417, -0.015331084753191124, 0.06709527706573508, 0.0040686640271931414, 0.0346886469085494, -0.008101056951979735, 0.013581563315520392, -0.029587506872338597, -0.00646718969823461, 0.049007081230785086, 0.018087667616306716, 0.0798495269696312, 0.052804258879924126, -0.04837114953130983, 0.008564407105116002, 0.04400638949839535, -0.037496234952509, -0.016074426601498264, -0.015881600388765776, 0.01143819089651866, 0.01353801427682186, -0.009030009431632622, 0.04069344988171033, -0.01935577377608535, -0.055311847790140325, 0.02022164887824756, 0.04231167848545767, -0.057689163068114446, -0.04948952830614769, 0.003796573769256565, -0.008537284661439706, 0.02392620775368209, 0.013970193299943598, 0.036531371347392115, -0.0009197720093057734, 0.03350268332478294, -0.03216626920031348, 0.01147465061198744, -0.002208481316444352, 0.06204586809192918, 0.01787758261323904, -0.015268661251770135, -0.017928403654310855, 0.00933310306380924, 0.004242797284960305, -0.10313495106510226, 0.006250436845354891, 0.057385164791706675, -0.004560087311237512, -0.04806403245234549, 0.02576547590203752, -0.0202201513869934, 0.028310888747444748, -0.017744026974397385, -0.00594870471624968, -0.016507640319721042, -0.030908573345316968, 0.015836600612778088, 0.08317237760870147, -0.06366030985045708, 0.01503354523976107, 0.024568578078176605, -0.02001299386665702, -0.013603058964016267, -0.01001893547983164, 0.025286585954319676, -0.036667139305134454, 0.007385037846998221, -0.016470637039638757, -0.014336412470875776, -0.02349914057607136, 0.010880223052192892, 0.02405550310800022, -0.010792841406830036, -0.044741821690958056, 0.008055974338557153, 0.018061718337124624, -0.005139089447628067, 0.025823785258418195, 0.015251663811065058, 0.05700782489666875, -0.023053648031633983, 0.03101810596354035, -0.06563055619817877, -0.043665760395910524, 0.03379021554252157, -0.02449847855754052, -0.03906202464764601, 0.04807664972405995, -0.03096817869400592, -0.0432914894778751, 0.00380856667364127], [0.04779131875201017, 0.02064204298687733, 0.0004463771453289121, 0.06595343612935904, 0.019151360712798157, 0.061200558504506584, -0.008094504281271642, 0.039326220716156636, -0.028245567481864093, -0.024233758942684713, -0.01936088471955197, -0.027629551230323422, 0.03756317315506077, 0.06170635524817536, 0.013731443043123593, 0.09642491402377157, 0.0008979706874514024, 0.06176440286907731, 0.019348274017512785, -0.03599859167605817, -0.0067106126692775105, 0.03178024541741939, 0.040536382511778886, -0.06223998155455757, -0.018566949682681043, -0.0027224215347223693, 0.03669138458375944, -0.049981796863575775, -0.034331417599786675, -0.016874450055995638, 0.04027269219226108, -0.020118076413825087, -0.028464653862929217, -0.0019226243706311709, -0.02295682946228931, 0.0003850281266570373, 0.06184759006679466, 0.014293198282882566, 0.02180742052209338, -0.00033750704371936387, 0.004512929567732068, -0.035388135926010714, 0.01451204454463995, -0.0595717166595242, 0.037127234278237, 0.00010032347016708213, -0.00017674607107604233, 0.0038428547109624137, 0.019883186838659087, 0.05377126675675973, -0.05329940479715654, 0.005366981527280852, -0.00038116024291804984, 0.0003150614493889753, -0.016850357995381433, -0.03913845994266046, -0.05098854243331941, -0.046256525575806715, -0.016190262326932752, 0.08438352978072357, -0.0033091564940886374, -0.021648451218852678, -0.024124197873143696, -0.01108337023906179, -0.057513651534565564, 0.02110913190765004, -0.008936558096700095, -0.055303251391948825, -0.0014632763805399608, 0.003401402696399901, 0.017303154185307146, 0.06476015038670242, -0.034864909930004316, -0.0008197394693577486, 0.033861997534772335, 0.026919284973286516, -0.0036630694512501173, 0.029424954957621662, 0.001967623796689848, 0.009072008177522703, 0.030648440895105107, 0.013678082392603673, 0.029634091284154063, 0.006654347399611132, 0.007364129905699414, -0.028820040224160678, 0.05206803785458632, -0.012408448759772464, -0.00913465031053181, -0.010811764242184154, 0.0343438937987683, -0.05763586826996503, 0.10299650273299846, 0.0059144858584082366, 0.03332859985244714, 0.011338767592547391, -0.06443147894165199, 0.05725538074881966, 0.014694054737884744, -0.07686775840074149, -0.023201651558096593, 0.0007609908004153991, 0.027923325092017396, 0.002930726274600382, -0.043469778664949374, -0.03476115018722934, 0.030137985896311944, 0.011935382173211499, 0.02063761331431602, 0.049673428884864264, -0.0069882294766422555, -0.03354783079274231, -0.007029040097205172, -0.03816195515777047, -0.006752251380109676, -0.023044313846044592, 0.0645768551202032, 0.01574131310846528, 0.027973792074859997, 0.0007902556139445813, 0.008260881812114833, -0.016844535058737207, -0.013524086588918861, -0.031130453066905758, -0.08111699839106282, 0.00135918333713056, 0.04014090796575315, 0.017645920806620485, -0.007526369126162927, -0.023781487440776586, 0.026014887526629546, 0.006428320870422548, -0.04840111746370251, -0.0422438398068226, -0.03961704144158248, -0.04538515964947768, 0.046418638754937, 0.0731023287255631, 0.0008766282339224695, -0.022699728722014204, 0.0467266489244636, -0.0806881074498331, -0.039212792470596336, 0.07974659890177736, 0.019761601569095823, 0.029025337142787867, 0.03200290908071384, -0.020832682761662315, -0.020908695215405573, 0.041049246500602384, -0.025739075206420672, 0.011774837319517242, -0.021743660914889898, -0.07313301259330392, 0.024984310118739368, 0.03662759733342459, -0.0008245841811134368, -0.0032311131307272544, 0.05353981751028973, -0.002471771471577638, -0.03502850628855857, 0.09560855698239668, -0.021128058181724002, -0.065348735231936, -0.024921876951641584, 0.0373364014576915, 0.03791072286065549, -0.06604647855437182, 0.010423812815984127, 0.018050087280534522, 0.0441524061137394, 0.021996362296117455, 0.046833137678170565, 0.008672227742663305, -0.04098152748495495, -0.047721923678042094, 0.004432552732747189, -0.016465054826145617, -0.017582028820972186, 0.006564360655327664, -0.038484895548445634, 0.020552118531910343, -0.06973254777380501, 0.007668635116125824, -0.048597356225995175, -0.015429566318208387, -0.01383898310323317, 0.017508741434677084, -0.0008212627244550377, -0.009172233806942895, -0.016015848122090982, 0.0005575994804822042, -0.015517920467879386, -0.037493262058975546, 0.0105817129596449, -0.02413135405123583, 0.0028785127120483137, -0.0062208308282901735, -0.02829262861790313, -0.009156785348180306, 0.025165386254760506, 0.007750143695059265, 0.011490181914577086, -0.02444065142810848, 0.035967582645337066, 0.006830958750110853, 0.06002057944253097, 0.03962208382709683, -0.07767266524775257, -0.00790876775662659, -0.04105947495715309, -0.013971236117420674, -0.028579681215296804, 0.03972128136523953, -0.06702091903367212, 0.021748769270042292, -0.019630737888081912, -0.0035592283992545858, 0.04033032953190694, 0.041269564024884714, 0.06861917776501338, 0.022727913769263558, 0.031232592965396568, -0.016033440093809456, -0.036816898134499586, 0.039698130603993236, 0.009184704800620246, -0.04447126350155922, -0.021272125776253543, -0.048630344150885144, 0.0499218061096945, 0.007839690402153586, 0.011820818778085352, -0.00944217382290684, 0.047492621566646284, 0.0011362225674453991, -0.021591948679106018, -0.016017871986806414, 0.004525892639148606, -0.035636771073248835, 0.006574446418758281, 0.038875175259457787, 0.04754523424797139, 0.045621365401854394, -0.01639844991457682, -0.04413305050754112, 0.020582180979060637, 0.05268565212577221, 0.06139823004864905, 0.008285746073661933, 0.008003526233647595, 0.006936456097475792, -0.05492112770669194, 0.01952234419300108, 0.049130323295260174, -0.008359620837049409, 0.01992316611920707, 0.05999532952159435, -0.014500367968183079, 0.017267370620221534, -0.03381304586329137, -0.01491777838879262, 0.014531832432143996, -0.018888191021774744, -0.013833701715883806, 0.0765843964941656, -0.01654280358734461, -0.006937860978767063, -0.04745082381668335, 0.0224663757533185, -0.01715704743629397, -0.054495049542941695, 0.003960158949301127, 0.0033632802318556837, -0.012387501919251661, -0.0038544873982303903, -0.06723165742103121, 0.021010855934690275, -0.004390899990678388, 0.031267768321450555, -0.008299402841671789, 0.01841066866300559, -0.003937150669615003, 0.02215768446104176, -0.005517591647594942, -0.010671885561493866, 0.007018545118086535, -0.06499161974825107, 0.02615557824488397, -0.0052373274106830535, 0.05161591207115087, 0.02010630218683071, -0.014491723070174756, -0.018892459833938616, 0.028684081278264086, -0.0025090941949889043, 0.04812399436572453, 0.01983733793088192, -0.028232786374360556, -0.0005563655121427659, 0.05807846617701627, -0.012947812363376155, 0.019651078380531397, 0.048717217433870946, -0.0014179781015083678, -0.03260671496155962, -0.009948220162460901, -0.006947509702121663, -0.05419787060459237, 0.027061567618653408, -0.04528218949829187, -0.005020671626818423, 0.018116941614159793, -0.02030330745799233, -0.0674311045614335, -0.05633526525709885, -0.039961098857334974, -0.004640997223179881, 0.011292072920925048, 0.01733332155233417, 0.016333106806988525, 0.02115816788926656, 0.035819882850472204, -0.020597671533865446, 0.06728237445368497, -0.03230956023672894, 0.018808287146396034, 0.05189419514021619, 0.005890151414101963, 0.0055565106690762195, -0.0066305036084475365, 0.10300551749239918, -0.023582015753934975, -0.08431838261336125, -0.0023784270818753813, -0.05835244845516064, 0.040095197206079715, -0.03283564761342801, 0.022874849800625586, 0.008035283994785066, 0.004157123373776253, 0.03997696647096057, -4.334044041289187e-05, -0.032335966752788714, -0.007371431254341531, 0.030151655280892857, -0.029760293667080613, 0.019467785863483036, -0.022558377322827658, -0.05744417208644463, 0.0328216604966439, 0.0061223005793979695, 0.02102773499530557, -0.008414101634838697, -0.014631050678670115, -0.004255078352620616, 0.055075216106569874, -0.010340921164256339, -0.03684983188953149, -0.0002402324268189402, 0.04449604657674131, 0.045254825752250656, 0.053179559759331425, -0.0126835973027799, -0.047956346231213684, 0.025393710356246206, 0.011973381278580714, -0.03482407229599667, 0.050237180579368955, -0.014393260719486775, 0.01713961019018769, 0.020864709509270496, -0.04550237788160459, -0.01428602624186028, 0.01768582410867077, 0.03644410510438761, 0.05085956518746096, -0.020084916220425048, -0.010190962572457336, 0.045238365481526516, 0.05189114738054402, 0.024453118754325542, -0.015324219460431417, 0.07217786941680471, -0.0781587428218674, 0.022627763355327672, -0.020878785843306217, -0.057501661949275494, -0.05116093090538448, 0.010509637597127027, -0.03682921061584264, -0.035776067646266355, 0.016457906015131817, 0.03109800537793466, -0.03144071071875614, -0.007740122817311608, -0.00852393003104924, -0.05111680578778804, -0.09036324991234523, -0.008355165702866828, -0.010257056122866362, 0.009331471711432468, -0.05043896155788322, 0.05947015499224469, -0.04439606911557268, -0.013677927603742946, -0.01786519657023875, 0.002206204974862486, 0.033891165998977964, 0.014824035546768359, -0.03666867611054486, -0.07569278284901429, 0.07533055361728003, -0.09620053560723436, 0.023222275185209466, 0.011765248903847041, 0.020402878191751926, -0.0017913512314207383, -0.04936705217867544, -0.007911048203267006, 0.02996332012666935, -0.003422056498472485, -0.03716451524435048, 0.023172376367734396, 0.03705056744954514, -0.04520945510103005, -0.018502834667534256, -0.04864517818112882, 0.04443265447025945, 0.01253505568822195, -0.0044307590032097765, -0.037694181435160706, 0.05673022771391986, -0.04606512548609617, -0.044005233939667154, 0.022392704721126, 0.034081015561102795, -0.015409085709332656, 0.00815265636514427, 0.030165422376205987, -0.04870853788534328, 0.003851326263160155, -0.01985416259287084, 0.03328656018201362, -0.0026117644863462813, -0.0112241375634011, -0.07002873312478959, -0.040353919164632934, -0.030923307177839983, -0.03330963041054881, -0.03045288893197448, 0.0392080309123483, -0.0011303270433796462, -0.10802648496938959, -0.057257707682700505, -0.04049840221272764, 0.018274826079629648, 0.019724918316390196, 0.05844309654783066, -0.017131685939203656, -0.03908843948395032, 0.018380381473707793, -0.05332385181661755, 0.008877578993875727, 0.05001088359564062, -0.005440328256464095, 0.014220072717407687, -0.06274274473715985, 0.0426085871311087, 0.04726274814302052, 0.01684844550988486, -0.025521399933779516, -0.03689868447315964, -0.05538641684450437, 0.021055329907263217, 0.01604586426661057, -0.024618628101078815, 0.0219927078715918, -0.01504783117763473, 0.053988865599449515, 0.040384268437266654, -0.03272486925215126, 0.03942578333971073, 0.01434690545236136, 0.02720077786534074, -0.057285231353430166, 0.028739451924670385, -0.07286149724971455, -0.0005519042759011695, 0.007699446387692328, 0.01071833112737009, -0.015506130238870602, -0.043638646505964926, 0.0313100882796033, -0.03987280025306021, -0.016786739296468692, 0.01374304632000795, -0.006114131605616943, -0.004245790814117689, -0.018433496090508678, -0.04678903796008964, -0.025058201462780306, 0.025738527750168372, -0.06299390223965244, 0.021807275870504787, 0.018745758381701057, 0.0696118381848225, -0.0075512478179006306, 0.00015794317886620786, -0.0344963659222894, 0.02725567843950619, -0.02941174533257063, 0.05030008685146625, 0.013660773559040693, 0.015020932803190308, 0.02981389671158274, -0.05632102778689265, 0.03124937806162038, 0.008616463266784566, -0.0537138113322956, -0.07198441432835263, -0.03667627361027103, 0.00907381811589549, 0.02277744279611226, 0.03989111567751347, 0.04894294255742617, -0.006181413377873847, 0.002768808837945438, 0.020643472719525494, -0.06714843959472881, -0.04979199328243509, -0.03044424124527147, -0.03018196208929771, 0.020522732996084172, -0.0013002723584922046, -0.008598423175815752, 0.015148665058819621, 0.03254167846292636, 0.0526044596792162, -0.03831804662682177, 0.0753671854378428, 0.016478721075957933, -0.047956259383981036, -0.0728236614285426, 0.02715320600344243, 0.016245531489075878, -0.007313158801881976, 0.05282924428155947, 0.011529154817898983, -0.0057005915029201696, 0.013702148141838299, -0.014227670725506942, 0.01734539061354857, 0.012183615715035593, -0.006070634728175818, -0.03239390884929046, -0.006825799292080402, -0.000695333123091441, -0.06887334955164276, 0.00456447993483444, -0.02962493014287233, 0.0007548120348417124, -0.0015333238270754032, -0.0021463807127814994, -0.0675524349894455, 0.00252475397895236, 0.01464626775406498, -0.005067172277978208, -0.034578592880985685, 0.04325492101089188, 0.016692192080759186, -0.06180987339178806, -0.009032470967330885, -0.05387760071059069, 0.006058233090987763, -0.024669104750551656, 0.01906153313648792, 0.016082960979603576, -0.057324853414102823, -0.014255731208184678, -0.022802184854652206, 0.019075909749209224, 0.02753743562043578, -0.030746058318340666, -0.014319174272425525, -0.0456799045389234, -0.013714700910833365, -0.015014967033949785, -0.05577792452432438, -0.027929443848534817, -0.013817110032643241, -0.03464355449380915, -0.009746063562858707, -0.06476211939389015, -0.013455326772943295, 0.05317971388937793, 0.004524128886793634, 0.004217753990513433, 0.02415530742303453, -0.001241744848771555, -0.007032655018984411, -0.015547862184509867, -0.0035313294060078815, 0.04946102565756054, 0.010862815131575377, -0.010292423548590545, -0.04378255533653178, 0.02248557146009301, 0.013727183235655707, 0.03515110687094959, -0.012237118491659732, 0.021570607195090997, -0.016099584071820734, -0.0009195379967734387, -0.022106738157016255, 0.04970320509422216, 0.00938347537002321, 0.030204649726622984, -0.01899964963846975, -0.04657473588773474, 0.02513584751570699, 0.028264794511165058, 0.04433655695277483, 0.0002267140225664947, 0.0064698189264299575, 0.021593920912153956, -0.02760962193700892, 0.07010872717256635, 0.00506278310397597, 0.024608742883828506, 0.062058430967250215, -0.05001772225067675, 0.021204773006101022, -0.0117828972888667, 0.09059977003380218, 0.014355185384479755, 0.023152665655850533, -0.029035735627124745, 0.03133703141623463, 0.014369757818086202, -0.038664198092439823, -0.03622194815786061, -0.01312010005734683, 0.07949540329324159, 0.01730444932144201, -0.06337465891828396, 0.041759992196718665, -0.006732048564041094, 0.025388289854808663, -0.007921316225736844, -0.03461799625449514, 0.01186348932541595, -0.0006711203153931135, -0.01836545678890165, -0.06103016143429152, 0.06013605802318863, 0.07187814281041444, -0.003379858358802178, -0.009173994558484536, 0.030118624672590227, 0.06519168483840813, -0.044446764277887185, -0.013930954098732146, -0.0029363434125024, 0.008713571252829335, 0.05159847873560661, 0.000589525618032886, -0.008394027621717587, -0.004592250311449605, 0.02098199444387936, 0.0008614913852635125, -0.006821062113548553, 0.06279090261171295, 0.0031835897240089007, 0.0574286571639468, 0.009229868305791285, -0.034814886654211744, 0.04046013430322349, -0.07407141424481181, 0.047209634429380434, -0.008229986160288753, -0.0402451336221309, 3.949738663601348e-05, -0.008662892778987206, 0.0306217346716926, -0.04291082938973089, 0.03485944442114122, 0.02069921503148656, 0.029479050912008056, 0.020503642055228307, 0.02735289527027424, 0.0384032271281581, -0.017621361741961657, -0.035177338114181236, 0.05786082758361096, -0.06267649662388187, 0.03878073317500589, -0.0040482405719996385, 0.00818350776154591, 0.04210336959837173, 0.05669725968643506, 0.10126853121122122, 0.013711775957962635, 0.04885660630516947, -0.0330932195900777, -0.03776325803891942, -0.05244954443030227, 0.011015039580124264, 0.03504405784743299, 0.025691902197620384, -0.009137151772404371, -0.004406177882806988, -0.049434915770262836, -0.023017712966813996, -0.025152838538964332, -0.03449417424850877, 0.07059420649181183, 0.061323257318765416, -0.01882122407985029, -0.07730173351506976, -0.02283954901916773, -0.019628007477396854, 0.008597605798638238, -0.02913117075062448, 0.022575512627608586, 0.023896176340982473, 0.018934941753696786, 0.06415649844503198, 0.02638859593853964, 0.015236618654984869, 0.0020393688150921563, 0.023443210577307996, -0.03560868441685569, -0.007146683988943473, -0.054830466622825834, 0.09340429337864077, 0.024932839377326814, 0.04032213887127799, -0.09173639684770586, -0.020948107042611325, -0.05038836386063636, 0.0008793435825327947, 0.04011909836572826, 0.016274803093215984, 0.008423991362544856, 0.0410058108190094, -0.03807399424171562, -0.001007618805009821, -0.0766661716730721, 0.023894651593045237, -0.032564415363957405, -0.05634985485741039, -0.016100330901108958, 0.0050805502549680776, 0.043785281722030715, 0.02253015180835825, 0.004839099520980745, 0.009401563779765181, 0.03337358097121341, 0.028040944248524054, 0.014068175699099612, 0.0046590722911717146, 0.006448878893796898, -0.04634157076876062, -0.03756243273355522, 0.035173737877151286, -0.044495742952140815, 0.025683116092254717, -0.030069772781379133, 0.037887148256890824, -0.011336321438231017, 0.0398285095240601, 0.03664530685024828, 0.03442913693433244, -0.04895323671315434, -0.0048952705631318295, 0.03803697690551496, -0.06661611193343991, -0.0425136672974491, 0.020606325202676554, -0.03761784766839445, 0.06146939959657773, -0.035550019701045016, 0.041588724141188076], [-0.01400564623160168, 0.03343451276028646, -0.051159929372293, -0.005778005460307388, -0.03812095800449454, -0.013934729298497787, 0.017899460073128853, -0.04320842058144501, 0.04245005931784622, 0.05962149604131072, 0.032606689433658916, -0.005435214631666011, 0.00857114074701424, -0.03477317610542737, 0.018719032366776096, -0.015596569041690773, -0.05970927996840626, -0.013389765692202907, -0.02143154440253482, -0.05510332882085956, 0.07657849454999052, 0.013696371378511792, 0.012458850794136809, -0.04161291092512638, -0.04505643753411621, -0.04637202681760828, 0.04224750763542665, 0.04877036145455809, 0.020212056215752113, -0.019175309727188998, 0.046511632601140364, -0.035957429956536315, 0.01881368272015066, -0.004323032126453231, -0.0377792452248498, 0.006772794986774171, -0.005407567593174829, 0.0654471391684496, 0.055121612957324345, -0.016266594420222037, -0.0209940373320388, 0.03919959525200603, 0.0013273913275108178, 0.02719167121911653, 0.004129140977527934, 0.020841895500515267, -0.013541802236314337, -0.014720517822003574, 0.01953906184392428, 0.06285305219253648, 0.06431237617863757, 0.023335707914280156, 0.004851763117316853, 0.006673551900643532, -0.011760491204704888, -0.024398798316672857, 0.03364335504990105, 0.023155783286251102, 0.0409937413521266, -0.007073823101120243, -0.03867526482233711, 0.02703218385248542, 0.05871027659902643, 0.03852741264171179, 0.09182028006816177, 0.00827474870836402, 0.03559933437544763, 0.012159881862798089, 0.038363849174073206, -0.059914582606851355, 0.0003696641346290279, -0.04193495259072595, 0.01068928029372877, -0.0206230402361292, 0.02926005742885584, 0.0029696166466984973, 0.05219859679139811, 0.046122277251875635, -0.009527280344192972, -0.01187924394925294, -0.008426185726991347, -0.052825598003913427, -0.019394187808881632, 0.021360056371022933, 0.024204526321832242, 0.05769090364971021, 0.013551529299264575, -0.022035265296711615, -0.029198832491949427, 0.019233646184655284, 0.00749334046448123, -0.0756561689917512, -0.021729000575970915, 0.01136991441719097, -0.013666808081030445, 0.03269083679233103, 0.007225594113766515, -0.014230501570698618, -0.009626125360587903, 0.024788876321503173, 0.060559547464562186, 0.06809173385460271, -0.0394622401666318, -0.0676992875115939, -0.03106735943012045, -0.0031496222726771317, 0.025252179448629723, -0.02859010120078381, 0.017499380207223688, -0.0070224703950936135, 0.03635151962443613, -0.005253085455237316, -0.024098904072354602, -0.06571003346772254, 0.07074923412492676, 0.03519316589006018, 0.00496681924060044, 0.02990571283073268, 0.01863771293659032, 0.015126697276737714, 0.04608741975617047, 0.0465716735217779, -0.019679697740632805, 0.01145612092007356, -0.02154469079970965, 0.005464947390491776, -0.03834317542928753, -0.016282982513723274, -0.012151202213609765, 0.01377878332114603, -0.0011386703670096076, -0.045183823295493156, -0.017801700237085223, 0.052097350234493606, -0.005385585536327597, 0.017771239838692464, 0.0035606275407487355, 0.011859005792728134, 0.025537021058372578, 0.015204844467310559, -0.02745968079632005, -0.027325925658800498, -0.006668483003765223, -0.0221524152867493, -0.01173381902585682, -0.07071682540694, -0.01721213576766631, 0.0076129611223422836, 0.06430878153794942, -0.024954469197172507, -0.02493675864092851, 0.01417081381982046, -0.0073854502940781525, 0.027502141094895672, 0.004138064033789712, -0.03229099861582606, -0.0694980993237554, 0.04779505545958214, 0.05238930518031031, -0.04890953190702554, 0.013617709163673428, -0.00482834805270356, 0.025201392390281886, -0.00996237517946711, 0.0179128833102829, -0.051880411274910554, -0.05323785366558537, 0.022122654995316574, -0.06864693199884675, 0.057639417371890614, -0.028472840966810693, 0.045119716168679935, -0.024765663148963394, -0.08118413700128792, -0.030321659949076256, -0.051572687650863216, -0.012556101056136686, -0.037003748246612095, -0.04287380634191787, 0.04881021095028732, -0.05992646244690621, 0.00448184857332084, 0.00304441627691821, 0.03366891054201883, 0.051076255461328005, 0.07223672260527166, -0.0034987801663436, 0.053051401070098474, -0.030473198108041104, -0.043101513574971835, 0.02664663036043032, -0.024218585294723625, -0.012947442284635855, 0.014795325925945284, -0.002215725898781597, -0.026286660051864506, 0.06085702013813982, 0.04194724309225694, -0.027463995182690746, 0.043095447235886986, -0.02361748419952441, 0.029904081899529457, -0.01416033076146521, -0.011718500304681205, 0.024524035563604062, 0.01599905310262509, 0.021480027567668755, 0.020250234497206615, -0.08270822387928926, -0.03607861464760463, -0.017379106922093334, 0.08650000772806726, 0.010723389547424413, -0.058421666581506555, 0.08191278405905277, -0.027609915472476463, 0.04328745854646533, 0.09220792252163916, -0.040670975772309666, 0.04746357725711479, 0.06449236884064924, -0.026207557919057472, -0.0011197285301410044, 0.05390027313870608, 0.08058927943957112, 0.02146708341912719, 0.0011222899589039906, -0.0009122396477515107, -0.060655781520953335, 0.029699776084921088, 0.031898009537806915, -0.0004392783746002747, -0.037269250238540094, 0.013324737766244819, 0.01445883875242844, 0.03066669436645383, -0.04988442284948129, 0.005122397075286568, 0.07307634483630944, -0.008020694302730539, -0.06422947039921781, 0.024311119175604082, 0.031247173802259776, -0.05458395941259187, -0.02324507402710572, 0.002266316045081972, 0.008792366864703412, -0.005554640010076831, 0.014566785326318957, 0.02307536584729284, 0.037017329286943776, -0.009102865052922968, 0.017188134814815972, -0.0680662719831748, -0.01991814750820857, 0.028087902290429647, -0.033588775823901226, 0.0009565912298275822, -0.046548400124836097, 0.0011998100545022516, -0.014867355918727931, 0.011489744342565673, -0.004750873370140909, -0.004998206519989038, 0.007332849468757277, 0.08177964911814331, 0.04892172015587388, -0.08131045524418001, -0.053393178409835984, 0.005133576598591613, -0.0027931492989410004, -0.020703593025615457, 0.0106318367077317, -0.021110288515232147, -0.09094767308735044, -0.0064411617673234885, 0.04370437447415093, -0.01746801235389491, -0.029461124746699336, 0.019902573999925507, -0.052530935668514564, 0.022374481099364796, -0.04939764810999328, -0.06175136656847647, 0.004549938520561319, -0.0272374913420172, 0.04378970007574833, 0.03899828237248307, -0.022760907556827508, 0.027522360795822185, 0.04322986715943802, -0.005875178832283691, -0.0303792781035302, 0.05393002580032099, 0.017994556239460748, -0.0066816290112909835, -0.011825933710626273, 0.010523352341139556, 0.0017563612318247026, -0.011205912936107617, -0.06643334867479223, -0.07751923013012393, -0.013862925890622874, 0.014969104020160719, 0.04341081563818453, -0.052496044388696456, 0.03774523473275772, -0.029897143701795807, 0.03964756551133075, -0.014348697324051184, 0.057024561058846505, -0.03118523626478634, 0.03085248768879283, -0.04210852641632716, 0.056613464047055945, 0.028514780919518756, 0.0028117614125833025, 0.059359782565688246, -0.046858198456613036, -0.008419391817442874, 0.017835209648804334, -0.040912861135406944, -0.005756431742538733, -0.061391821674525955, -0.05447753421944938, -0.054900269614138894, 0.05072449360354978, -0.030713286516769245, 0.05661927301835548, 0.09666352164739064, -0.04274209172812246, 0.0024040132234630545, 0.06748757982908973, 0.013555226497717367, 0.02101169640007084, -0.037675960143432455, 0.042461759870630215, 0.060954641938791174, 0.03840532558723402, -0.004153352302551941, -0.00650434191045277, -0.018329266185872276, -0.0337426067680559, -0.08485709752942582, 0.046873253813250436, -0.008285648499881613, -0.011764181763765267, 0.020061298497045993, -0.03337410530056551, 0.0568548607515005, -0.0300990016881635, 0.07839096335616963, 0.013770312742594435, 0.06478291914296316, -0.05085313291808941, -0.07030147201138202, 0.025614467870001333, 0.02893435751857803, 0.019605426483837604, 0.015316016298871781, -0.06440308182759485, 0.03974192149331194, 0.01616935588358579, -0.023715346270377004, 0.05161794572492782, 0.04939669439313964, 0.022171828067704877, -0.05274305355375371, -0.08899421595749592, -0.03223898147422028, 0.0486033394073278, 0.010667224701077086, 0.043939887155130565, 0.06543565224818026, 0.03944739684523128, -0.06756176540355761, -0.04234680138851505, -0.05790283121931176, -0.025473390987120332, 0.017164704557684842, 0.028478134781553067, -0.020090570826269225, -0.022712645511661106, 0.007632924549404014, 0.0024062330904224953, -0.038514441007217765, -0.014870176757882131, -0.043233746474638034, -0.04458568586285426, -0.004751326474025562, -0.03714243813564195, -0.05335275386344294, -0.0470921581942645, 0.01562168317874211, -0.006833008083449555, 0.05298583826379696, -0.06393769611756572, -0.028862756993840635, -0.0006949256860483712, 0.03926451412888426, -0.020068083954307876, 0.005906919129173882, 0.09524894630166991, 0.07365633520806178, -0.02060293136421542, 0.05233355148987921, -0.032868368029514414, -0.02616452800461112, 0.01341099635081869, 0.007703738132761587, -0.06433283570394278, -0.03185589677052802, -0.01271924028348849, 0.04179426806582817, 0.037491764533714264, -0.06270751382300829, -0.028045927345073867, 0.05090479256592375, -0.043837585199302836, -0.054442238244004945, -0.006314481014557994, -0.02766217472358386, 0.08070641680985383, 0.032552594436079815, 0.04152564695655185, 0.041192153911741115, 0.014755562584549861, 0.00999114459032536, 0.02675930047921564, -0.022654551459859167, 0.03093992932522542, -0.03858133345917638, -0.07252156721447417, -0.0013751354492305622, -0.017938758047900058, -0.014249030536514799, -0.07080303954803453, 0.030651624226433718, 0.0044788746128807885, -0.0544514858135491, 0.007716402907549351, 0.03176209104029154, -0.01966880625737738, -0.007210339614838938, -0.006363204253180928, -0.010331413270273808, 0.04085880467196319, -0.01515697198233066, 0.02359215521408618, -0.04117888340401681, -0.008927429209469716, 0.0474231717712514, 0.02263356038223718, 0.04926250067513386, -0.026887960651284955, 0.07570732503789414, -0.08166596158157635, 0.04030847656843466, 0.06841876836897674, 0.05594287841501792, -0.0028350779216305354, 0.024583491275627936, -0.0424034287823915, -0.027027197906295035, -0.014793550305790135, 0.0364453209003781, 0.02481718196988449, 0.07509868912704877, 0.04720556674147644, 0.02103163792225538, -0.017919197435708047, -0.012050383563253013, 0.030518942477515198, 0.02763368380243794, -0.0900997007860256, -0.0025161427274188746, -0.032957675975304156, -0.06797686324590146, 0.00016576276738359644, 0.0163678842381657, -0.0388342948887748, 0.03064461367674856, -0.08938668768363212, 0.05327117406560957, -0.03035487649679477, -0.008404666727762366, 0.03287550691350094, -0.018272036192609614, -0.02905864129558787, 0.051113351655532935, 0.021062120990982397, 0.001076563616737836, 0.03188111539714677, 0.008204275625982183, 9.946222594303985e-05, -0.012973243981900725, -0.00704671583190544, -0.057064737170891916, 0.03781935657515446, -0.026710914164815323, 0.002480892919332053, -0.005562431292754479, -0.07193452345801733, -0.015189711620514239, -0.012028437938174931, 0.01164616017557394, 0.016434396296190562, 0.0033902609915359193, 0.03973292168275542, 0.021386235281443598, -0.016111224236399938, 0.022572785626919004, 0.009090744608174954, -0.022506680146664723, -0.004227391221897602, -0.028377680033734434, -0.05561888283017694, -0.021767525521026364, 0.033895138828517954, 0.03339587976878514, -0.05347369318846012, 0.027554638968473977, 0.05899545927753486, -0.027906720503602767, 0.0060636260422240575, 0.038459559858117526, -0.039475500511455895, 0.060850499829823636, 0.040475996182490634, 0.02405094645185077, 0.00471840843082613, 0.0713443751271144, 0.041287578603599606, -0.03408286034237906, -0.021908194346059357, 0.04634887260709983, 0.09367939638463813, 0.010319421635255102, -0.01767223281074169, -0.023615897927669695, -0.011303775757351692, -0.0033959868940019403, 0.008915467966321845, 0.019445418925113915, 0.01964425126000155, -0.005098205587996201, -0.046134792867268855, -0.0488483474002731, 0.05406715456206793, -0.000734500859369087, 0.015390998404406664, 0.020229531893969782, -0.04256795098582809, -0.007949014186154901, -0.01522231235868968, -0.012080226506320641, -0.03200780356454551, -0.03685008364310488, -0.01132599481332426, -0.0029232643950722783, 0.02279681745739701, -0.026337153481680996, -0.00408166194973373, -0.006350130934515074, -0.08549290381432756, -0.00921452384661532, 0.01941579933235768, -0.037521941646244256, 0.03225552668145806, 0.08040460725490527, 0.04952488870325835, 0.07788352937298554, -0.026296994520347894, -0.031332552039591385, 0.03540696299810656, 0.07346210732373196, -0.04347479349470883, 0.0463526042425924, -0.040343294258617664, 0.004658049635816467, -0.009965252934825844, 0.00948082405843944, 0.026014219166964867, -0.041824484477802834, -0.027132770854089806, -0.01130911745777323, 0.007132520515609736, 0.029572178013080336, 0.03896368921241601, -0.007470729238268798, 0.07972115053841441, 8.721357758495986e-05, -0.06635888720509024, 0.020013211794597946, -0.004947635757744262, -0.08040310223637304, -0.03478432527666591, 0.020994469046648423, 0.023862100763653835, -0.0026278949148882277, 0.023644686363119106, 0.05082296228295567, -0.022541118486206005, 0.03272829256923274, -0.007364389927399781, 0.050465501057996576, 0.012785925475259273, -0.051449512367853854, -0.011567726458803171, -0.02182333329381548, 0.007331239092419906, 0.07285454117449754, -0.023951644035077373, -0.012024170207811253, -0.02574546625249983, 0.01512859736346974, -0.03039943360029968, 0.0005211666689360291, -0.00032291321769134865, -0.012726240728677094, -0.02908466149033249, -0.03639891601903304, 0.016418150318135767, -0.007714070242011348, -0.0073880415127781434, -0.01297542116165569, -0.06695327710015, 0.0013600084493735557, 0.036355040967595106, 0.022579714298422152, -0.011058015030761375, -0.01797585488928233, 0.0808494029988214, 0.02504892096621625, 0.029169973451041647, 0.0028505112103445578, 0.0028875094583286545, -0.014992713080547318, 0.03557792482718477, 0.05252638396647921, -0.0023337542750053947, -0.006399235891677007, 0.08012661118340944, 0.05347096009659305, -0.011192396447825952, 0.049691878862171204, -0.07529307966418623, -0.012686002313604887, 0.07452619680797891, -0.015120795648514507, 0.002913530137138384, -0.044390684422543424, -0.03701568391310795, 0.023835931677204353, 0.034853532573249704, -0.026286793016385798, -0.01563134080531779, -0.05703113521676678, 0.011129511472398592, 0.007591463773396789, -0.030142342572243068, -0.03642737451682673, 0.0005466506319428764, -0.0027361929167432552, 0.09014762040966548, 0.03420135226993465, -0.03451658052218089, -0.04033731096673928, -0.01424592909208964, -0.00041225000422381874, -0.0030618493188517017, 0.06669778153867631, 0.013578638924184478, -0.0442026393384586, 0.036727052991938965, 0.015402480900447582, 0.06438219264105081, 0.015920496056864755, -0.013429571945391666, 0.04043947730644665, -0.030884423156732982, -0.04610323675484855, -0.0334186756212982, -0.020535763589265142, 0.018125098740828766, -0.022144926162158154, 0.009416297555816288, -0.03385297964967851, -0.02439501878598696, -0.023857194003981397, 0.04554049763239315, -0.06769293466741794, -0.02819651971524303, 0.004307915611086064, 0.023923478365339933, 0.03552550235977721, -0.008944013288031608, 0.04751490629110015, -0.08819760882451523, -0.022502809495437957, 0.015115183667803908, 0.020092297589435478, 0.01846498213977341, -0.023610553709125827, -0.06464296083166982, 0.05775559212217842, 0.04291720147403834, -0.028108647182183272, 0.02480140088492816, -0.08938902448837141, 0.09224753340510443, -0.008804277669099478, -0.04587211187313315, 0.010311484901478735, -0.018240488274109765, 0.003099935961522991, -0.04391356611930789, 0.0051478715854139144, -0.03562098125697209, -0.042756854918415015, 0.007708918786184278, 0.06681027635591183, -0.0116653039620312, 0.0007274797018870515, 0.008795442057110634, -0.0469274004566501, 0.018963784990101526, 0.05326154090129159, 0.042945262470565244, -0.010120814875246577, 0.036788135591065876, 0.005371934687246106, -0.006798290050223519, 0.03276262582418203, 0.003621607540200722, -0.052726070623398597, -0.05166121141415998, 0.037165144628643135, -0.002477601606111113, -0.0012990049700889793, 0.005158258602266171, -0.00813008151252996, 0.06299629447614243, 0.00804106218868354, 0.018591903650922496, -0.015161963684596371, 0.055984565526306034, 0.023224572954885402, 0.027408195502444735, -0.031892257621231344, -0.03754360160928993, -0.010325098522957718, 0.028913086512896355, -0.036341339269831976, 0.006495736856655428, 0.03524828876364103, 0.009427065038329022, 0.012298836688539774, -0.04213434727276043, -0.08906793313343142, 0.0080154879903178, 0.008844133865134498, -0.07122794454462984, 0.01224969821586459, -0.012561849271981437, 0.004976833173036872, 0.008936074795661431, -0.005259955596131092, 0.005369509538575815, -0.02574875821677055, 0.032603787672270255, -0.013083257890247469, -0.0474829140258155, 0.007563215336706147, 0.03845513448434691, -0.044792284582872, 0.06531336088414975, 0.020131861609171058, 0.00357021494068099, 0.02558108850407268, -0.009280480673120085, 0.030916853390746846, 0.00695764334034702, 0.04122229457588728], [0.01604426672636717, -0.07260080851819992, -0.014490725285208145, -0.013398004462443349, 0.006570542979854994, -0.042191644485834505, -0.018960972942637797, 0.05921791945447914, 0.004253366249601291, 0.006514902907123005, -0.01109310950799318, -0.02199969186633558, -0.0516916857770427, -0.021659882931353028, 0.035991482554207865, -0.031066630966687266, -0.023438065175929428, 0.0010233200384493918, 0.03748764067920833, 0.07904440853904453, 0.011223256566378454, -0.03156609511181475, -0.00939252562247532, 0.008102936228707633, -0.023495970189997214, 0.0475698897555032, 0.06495045612224427, -0.024990389127412364, 0.0047755732279517625, -0.024547199628094023, -0.02527132673395857, 0.036878230225703364, 0.043596519598307945, 0.058132129586192884, -0.10651901568547004, 0.050553192633703635, 0.028098248494490004, 0.02905715743768367, 0.01032441490958675, 0.0056676452985573176, -0.013166194989626108, -0.10311806067982496, -0.02933909812831826, -0.07379710317346821, -0.0035614853729305502, -0.03114748258053188, 0.049591586573328, 0.03473934908623427, 0.07724973517434001, -0.004125517646576628, 0.025986176467464515, -0.01398754362885275, -0.0012073536810522044, -0.02481317164342021, -0.00879232917377283, -0.001410317186817203, -0.05088064343856404, -0.034026506720665387, 0.057794723890683096, 0.051748521363803264, 0.00929087183927887, 0.04058822164857875, -0.022963426594353246, -0.023199859121076995, -0.05419115692780067, 0.04106600832466887, 0.006780147747054938, 0.014243479316147655, 0.03108857922842297, -0.07604854937738863, 0.008285150221263197, 0.020955946623257102, -0.030426423334619566, -0.05854451715307914, -0.01704109138107687, -0.012775874839159544, -0.001221919555560131, 0.04239962101473609, 0.01604361222997167, 0.010953276017497729, 0.01810262747609916, 0.05972115997922464, -0.004990633506465698, 0.03845952346075082, -0.028862858958595472, -0.051453813186227985, -0.032599262881055226, 0.017348221933045645, -0.0386438651740745, 0.025104689324658976, 0.028235916391557758, -0.026631538696869086, -0.007847604954263702, 0.06929151522185972, -0.010459876860387789, -0.0033634773390613516, 0.09991787352983973, 0.03435042045458336, 0.014529825207075076, 0.02818267449091132, -0.044853329266447084, 0.08055602085553902, 0.0037278074482897786, 0.06844939371551387, 0.018072535838837247, -0.012926753378993629, -0.0668618958051529, -0.007798554832121619, 0.043440078061114745, -0.014001837963641097, -0.06230099835022155, -0.06643267334871261, 0.008931143362595923, -0.02586457492974617, -0.07769353927847628, -0.07596377835176266, 0.011863410704292213, 0.03580817858816021, -0.05031067541578963, 0.013348459833124058, 0.013540857135682356, 0.020762256984886047, 0.037991855701117745, -0.018880794425662536, -0.03128145055420229, 0.003909391456539373, -0.023116752740831224, 0.0027131508469378225, -0.00839948657120629, -0.024860302447071925, -0.0037442240730207535, -0.07473565110648833, 0.016247486909052318, 0.03138582473272927, 0.02047026792292736, -0.029221203383387587, 0.025495822505284697, -0.027956277482837324, 0.02533843549536921, -0.08780762974294799, 0.020332473104340304, 0.031034613667669898, 0.025216611385293596, -0.001208840243687866, -0.002975814027934948, 0.021119859230681052, -0.011517272124688182, -0.030391075726472004, -0.04144177514245997, -0.033515171509508945, -0.04670845088146134, 0.013188903919222257, -0.005040810070790607, -0.051116634600431005, -0.02610071069827383, -0.053016465724770846, 0.04631858351277576, -0.016048759123992576, -6.701779174473432e-05, -0.030358339758764747, -0.02018783264032964, -0.016245425466139187, -0.014289724505416171, -0.054574957864421327, -0.011629607611415942, 0.05382331729857472, -0.014784109554134506, -0.052808297392825165, 0.027928586112981792, 0.01957562765725843, 0.06070638607272577, 0.028576470385120598, -0.02678378157062022, 0.0018334672242076222, -0.0004548583479946568, 0.055993475459076125, 0.023066275728509122, 0.027031568791282934, 0.012270313401372733, 0.04442582405819514, 0.012032046638771715, 0.02084499958823497, 0.009275898395291558, -0.0055870915751001, 0.01534732704134858, 0.01944734788080336, 0.02168129393628329, -0.015306854821992564, -0.01602225563930265, 0.021967840421031875, 0.04635368419198901, 0.029531950286215174, 0.019127911392508874, 0.029319507595129135, 0.022263402451577548, 0.023980821243786764, -0.003172062483722379, -0.002323587275407877, 0.023771739957378118, 0.01723547198769013, -0.028834480843581103, 0.04638749024948472, -0.014580740003877497, -0.008683040654646708, -0.03302707487522884, 0.014542148547950258, 0.0207620717234211, 0.0008900052467897104, -0.07394204968631242, 0.004558598971798642, 0.06434929264566516, 0.01667619945056459, -0.0032563499790437996, -0.024149440878165625, 0.01344036205053758, -0.028231750151981937, 0.0500785007324358, -0.05594650114870076, 0.019895009222795357, -0.01589875594635115, -0.02937475731726271, -0.005825289320871333, 0.08343085225803486, -0.022637649059831948, -0.04866287023992444, 0.027840958607662086, 0.0669647928949556, 0.04003549536146029, 0.010914102965511182, -0.03055038173447054, -0.05172153786750628, 0.008845939324972272, 0.055652795459905494, -0.017032022726537262, -0.03119570816665911, 0.005175755618825371, -0.01771796028183167, -0.038245099192307036, -0.04496016321691629, -0.0006294315889725311, 0.010671868071175917, 0.013103710081540145, 0.00019123754962552437, 0.0282488186296305, -0.06554357246189968, 0.017470277227347633, -0.00982830110665163, 0.009864301170496076, -0.0017266795884035868, 0.03156452271823702, 0.036023871379819765, 0.009161515478520657, -0.05041116725741049, 0.019478492635190022, -0.025652646274214992, -0.07310785229901479, -0.027562016280410214, -0.04694782029694054, -0.03875370158927116, 0.04082666246915231, -0.00011147149302376991, 0.008624616901163814, -0.04482467682364366, -0.03638898574767616, -0.028934004745928058, -0.06449870678499747, 0.003980894409517045, -0.04112652532166587, -0.005997524020962204, -0.022850549585963782, -0.05729449126578841, -0.01210048628154991, 0.07102464353871436, -0.06912620081136653, 0.06913477578269374, 0.05585544880923384, 0.013484831429111072, -0.0030470990265402337, -0.017066575315889728, 0.033386499413868995, 0.02418919955463232, 0.08113591651558559, 0.009348951072291814, 0.07035687225264173, -0.009263445664305679, -0.03716413384441663, 0.016542090338053858, 0.023623376486557327, -0.04251332458255691, 0.002853818261191315, -0.0013462850368855678, -0.019155985074048584, -0.013820574201528353, -0.027238174953204786, -0.01075442966937799, 0.001800914636566662, -0.016078403056313445, 0.0033269016819782522, -0.07192494289325316, 0.017862427972432704, -0.05027195494612736, -0.04780724515613991, -0.031416200448177195, 0.012285421565872952, -0.030679726036973134, 0.0355887403192124, -0.015758288278728567, 0.027893812892263073, 0.008173391517933962, 0.007844917813865345, 0.00725767545465823, -0.011014835630153187, 0.039647092331958796, 0.0642521038542307, 0.011104673628246572, -0.03400628792495764, 0.010804717716887312, 0.03297745494224307, 0.0007528948585516296, -0.004860235279603205, 0.03719833545164588, 0.002252314337073912, 0.030767268720859487, -0.0973773663426216, 0.004658901803587992, -0.01230694297255065, 0.035140111145130895, 0.02921256004004879, 0.03738580348742773, 0.03581483939800012, -0.04570341081197515, 0.04977644378861777, -0.02723578736908972, 0.01259968470605689, -0.01005966103122398, 0.018096139609145585, 0.08707907366899274, -0.0127650191507843, -0.006844829336100847, -0.03609737312151507, 0.007454375456944708, 0.01688601596932386, -0.0712217688443374, 0.015188162814274719, 0.00802271341664604, 0.024296543656302044, 0.022631726446441465, 0.06318844168752678, 0.06517185541767194, -0.0051728775735596175, -0.007997964702229948, 0.013039053800829016, -0.0056047464209741105, -0.01644741627229201, -0.037564360730005825, -0.019703473417494007, 0.026174120448402796, -0.002355134089822314, -0.006342243850872212, 0.03148260090307065, 0.00934062515803558, -0.06393211063592034, 0.003754544176918253, 0.004771520914557033, 0.039466683794001256, 0.007316665394917046, 0.016042193502973985, 0.013159129826629652, -0.012624523148380744, 0.014845288251242626, 0.017463942054617522, -0.022711453680204993, 0.012424632535264716, -0.03596647526773005, -0.05240901833901188, 0.01727282207986221, -0.08726580169369932, -0.0027911319688617253, 0.015365294631564986, -0.1192426514203472, -0.020806614919999526, 0.0219141956358485, -0.027081756175813893, -0.06346838159506552, 0.09278847604145819, 0.02917516458988406, -0.007042771526160236, -0.007467499221178666, -0.01661738319405919, 0.01395642300106583, 0.0007029522460713167, -0.026187887318218053, -0.013513906759701653, 0.05202387453208729, -0.034768441650807815, 0.0521514019286025, 0.013873003243339016, 0.019879262146195214, -0.015150490816483491, 0.038408280816041085, 0.046556377751572287, 0.0391910192972985, 0.026951064524609367, 0.010814906113373338, -0.027046194809190925, -0.048548418688986135, 0.0038369255002294, 0.04510538846210503, -0.10506598471197542, -0.031374747814948756, -0.014032428084776546, 0.03299729455385919, -0.013620818702520276, 0.017527029688001884, 0.06351995301461073, -0.06501075256304556, -0.038951336620125024, -0.005185398415140838, 0.0035174575009311823, -0.004221263956435029, -0.014773653702081679, 0.00282513422939552, 0.05419107964683978, -0.06099421755886934, -0.03926392108123845, -0.057845765135506585, 0.0020680540514895628, -0.050876299053081775, 0.033437310177523855, -0.003271275440813544, 0.031018457903149825, 0.011618937816647395, 0.03192918536243789, 0.02220010622205835, -0.04920083438593601, -0.0039731313122418725, -0.04119950266487631, -0.0029668219408623847, -0.03132664691767758, -0.013052041230764524, -0.016174266938206304, -0.04783605510939893, -0.05772508796916799, 0.0374632541946364, -0.0516009617584517, 0.04247282769831464, -0.004891327012689876, 0.004125315068566936, -0.027738291989957354, 0.008739345577951474, -0.007159774483674494, -0.01583216039449702, -0.04055534768020261, 0.01136059080292769, 0.037742000376614064, -0.009508088836296428, 0.01838679888608813, 0.0029225167501337654, 0.024481393065695974, 0.017812789259742487, -0.011097632532233037, -2.0570767637214944e-05, -0.007593215165951195, -0.07917022069040786, 0.028120223308735978, 0.05227772762773844, -0.014356727128410818, 0.01035548934744251, -0.019655429333033693, -0.02078958252819772, -0.0375279316946453, 0.021202042991660675, 0.020184604399920498, -0.01871536337065909, 0.01051720823145507, -0.022343422046030268, -0.03722202019888934, -0.010626931607256794, 0.06453327901203959, 0.03946550438543332, 0.06006268229886179, 0.0005260755456892994, 0.03950737621421878, 0.01765335526977807, 0.006982314333864624, 0.007052914468264751, 0.01641615630751215, -0.035609916846913496, -0.02160084729011055, -0.01821061183743502, -0.008948132265276052, 0.019325203845407514, 0.02636738697822104, 0.041439463924263835, 0.036530798405738536, 0.021347295459579266, 0.025369760215316235, 0.008344582455744185, 0.023681728276951954, -0.07526321367164625, -0.03898941352617705, 0.016995916519303718, 0.03283145398771227, -0.0382319380168079, -0.022349875820333927, -0.0010289016368668624, -0.0036583048357558532, 0.05136778759139301, 0.022187448238340856, 0.05628794019388671, -0.06138102881385892, -0.0013314170485742498, 0.022499966152141553, 0.008518211456356005, 0.02833379398057135, 0.03164456990333052, -0.00685108526021622, 0.02936779847266282, -0.044964590199152145, 0.05663000221350107, -0.0033073890980864578, -0.03490880054174859, 0.00843485429768638, 0.020478013355936762, 0.04830720652812417, 0.030626332298003045, -0.013677236348627496, 0.01168332710788876, -0.05035352462434057, 0.04819682450955678, 0.005118932712658292, -0.008487447720989482, -0.004078086975287643, 0.027919239289369888, 0.03551415967229808, -0.01239244497240692, -0.03160134902026393, 0.0093534507010989, 0.0010515750559156123, 0.00448569598569655, 0.019254241737584502, 0.013500474689331288, -0.03727064645623661, -0.0012408713945910622, -0.03260100149328104, -0.0027220953540216435, -0.008405265931170686, 0.03583586838957871, 0.05375525016028707, -0.004090094592492, 0.08061593298282568, 0.05396511733487024, 0.0004147390257509092, 0.03760356795237438, 0.006586437438501555, -0.0062288903306507975, -0.05357882378336325, -0.008448532135760222, 0.0440833744014669, -0.0071474992448420475, -0.02123861437651817, 0.04094235879990389, -0.04570452972521145, -0.05897489158200647, -0.005141890123511128, 0.01906812854207204, 0.0019864455033424848, 0.02713410712433098, 0.03181279738196631, -0.042549360621859045, -0.06715890042441468, -0.01752403922730977, -0.05864950368617179, -0.029913185478880906, 0.047891503716084305, 0.0011855691803575729, 0.04076548225706726, -0.03861714424404407, 0.027873394814382953, 0.030301388568909942, 0.1110902450440967, 0.0017618991198191062, 0.05724404415379833, 0.016102915386643255, -0.1006707176510223, 0.025525789072503836, 0.0027961669677003327, 0.020234190885128456, -0.026676304264556475, -0.03266178551052804, -0.009242805148353116, -0.03414836423004424, 0.02996859663303062, -0.03858839492341114, -0.005562895235844066, -0.025028810503608605, -0.067040231844392, -0.01750286408499406, 0.007647312579253079, -0.0015720467207529327, 0.038497876856962265, -0.029975722920672476, -0.029438572400425897, -0.018996583975806492, 0.027189697055554664, 0.004628280536486305, 0.06259061766444729, 0.05001396867546711, 0.01962102916595092, 0.018624539006353438, 0.05627796702041131, -0.016464962525338526, 0.004233699884779647, -0.007433585419360938, 0.013623610864806575, 0.08215761272388128, -0.017045520240455546, 0.01968315654700356, -0.03515784199708426, -0.027077157307079634, 0.0017132765582035985, 0.0017013310505867869, -0.016879862320377553, -0.010513841379970135, -0.011184848226061913, 0.002835832771991014, -0.005884240047977356, 0.0594711932940816, 0.003906862544499327, -0.0006723228525433093, -0.013829511281844077, 0.036510012278574894, 0.0004424777341021411, -0.006137641315270069, -0.002769710876221851, 0.010072156947497503, -0.05499067332496445, 0.00921484412868307, -0.07614152229799823, -0.00830642479819313, -0.02682321711331983, -0.0063504454740937934, -0.0035035777773267996, 0.0727767998838783, 0.05117621132748594, -0.02470633200426064, -0.023258179345605985, -0.059995075807209204, 0.007971277186232126, 0.0026990860825491995, -0.028921136455462144, -0.013895132131761957, -0.11678156651075915, -0.023588825478001466, -0.003935441535481173, 0.0339182170479411, -0.024463859942686343, 0.01031246452905031, 0.0002687683473496332, -0.009356134875966348, -0.03254612106553441, -0.06355464818135964, -0.03446563160280151, -0.006186097514061785, 0.037154837465744724, 0.06110610562991633, -0.017468328667016555, -0.015449746093553526, -0.030218568840978496, -0.02944009191010434, 0.05380428209730675, -0.033291193690909916, 0.04379170769163713, 0.05755044427915668, -0.0027008422388400265, 0.06826885046292, -0.041468070484295586, -0.01408864026046181, 0.013078081819856174, 0.04202634150274108, 0.037221084809218374, -0.03214599016374208, -0.009087260812116804, -0.00510097068536407, -0.04074438895304942, 0.026311736413907976, -0.01720383517257652, -0.027888881759878154, -0.01293488182800824, -0.011706942473057359, -0.05604920780303545, 0.00806813789105864, -0.022046356388963725, -0.051115853139969795, -0.04548976297621501, -0.10332160990215124, -0.001479274064948596, 0.008327884095137324, 0.03087318359988386, -0.009951253924870038, 0.01610423589576187, 0.042609680149234455, -0.04874225830558387, -0.02786964868991044, -0.1009515403993063, -0.0014332026101957801, 0.002495531592516376, 0.020747267615669727, -0.07345354820602451, 0.009857114592794364, 0.0167301607648677, 0.011944226837146103, -0.021921700149025596, 0.023282826154999013, 0.0007500779677386218, 0.026016730388815943, -0.060418997394789606, -0.023606837588584804, 0.07791472034694666, 0.008109010024885066, 0.029501318709768368, -0.014170919938193525, 0.022376689637862573, 0.031036518801168603, -0.01857493729261832, -0.02189181618665536, 0.026494556103296478, 0.019162121793176782, 0.05151148599758528, -0.0395243380494233, -0.03205293643291822, -0.018516858153651342, -0.010347286133672506, -0.03528628779240042, -0.00036660202037978423, 0.005077391466304038, 0.04019991346282626, 0.06055659569082832, -0.051553076921850884, -0.032080313735701325, -0.029021627139779245, -0.023872416055506326, -0.03403012681696677, -0.056317068739336944, -0.012096573173224288, -0.004485740641424984, -0.05236195793298041, -0.015054297166371092, -0.04061492595198182, -0.02084447366959724, 0.03060424010688185, 0.009426523667262416, 0.008797233946887442, 0.034315030253580785, -0.08390074476846164, -0.0034114727316695926, -0.007574676647077389, -0.01861929556578116, 0.0002802410649217465, 0.03927784114880967, -0.05384504091096183, 0.023267410366052694, -0.018636564818555232, -0.0031898902711787786, -0.039079971428362774, -0.006767532757296641, -0.011693210219194122, 0.09259009995902705, -0.05423946562006892, 0.002738211868896576, -0.008898548440790667, 0.010500120708147948, -0.006616724098894011, -0.009470571030948229, -0.06391680736863654, 0.023594032494222802, -0.03280209302895284, -0.006596844529872364, -0.01076036192721295, 0.03173449599965594, 0.02759323276729991, -0.0067116367167863985, -0.04714960231591666, -0.0032792616292307737], [-0.0075430384223199335, 0.018956076825382442, -0.04271073647799074, 0.05340251872039682, -0.04442660548798382, -0.03376084600983786, -0.03178292593055091, -0.011357646893304565, -0.01646206301808782, 0.0371483167523084, 0.06754102690223159, 0.06163029054792204, -0.012283872068300207, 0.006952664160988482, -0.0014412389834128395, 0.04906444087572246, -0.0021670654535941225, -0.011989810820902455, -0.05000746496324725, 0.015618781500317164, -0.0286004934941185, -0.03214654915915586, -0.011708474467137988, -0.04484772427915775, 0.04371137290378119, -0.00649256001427988, -0.01864497082646751, -0.03137732222710464, -0.056392798896883235, 0.0327967530092166, -0.00992001645452024, -0.030394481569285044, -0.0507194780036541, -0.009585110365073831, 0.00011928003229987596, -0.0480916194256695, 0.0213426033594776, 0.0452847946592073, -0.043627139304990716, -0.03294066471459303, -0.02956056022683362, -0.0009279853110602953, 0.006644666087169532, -0.0374793790781591, 0.039721428659259685, -0.001970694527139094, 0.028228233954901597, 0.008817309207480913, 0.0021406225669922956, -0.028056639501575414, -0.029224122495461653, -0.06320955859719408, -0.029490584747712722, 0.03164304158014234, 0.03534718578977673, 0.009144666227828644, -0.017556082646225428, -0.06515381952689532, -0.0045536217811583506, -0.02179754676649614, -0.053606951419287216, -0.09449500159038715, -0.03036763446150819, 0.010894327660210873, 0.04598253980149598, -0.006690148741943571, 0.05407611681511235, -0.006824934622525731, -0.022965703813645943, -0.015298460860342453, 0.024082341685124003, -0.0007035004218294976, 0.08986078896808566, 0.005145451999792411, -0.019404293879035674, 0.034245072512326745, 0.050213396383065566, 0.02379556712718759, 0.07022586136797543, -0.005832060782684298, -0.0037481599037805366, 0.03267271582346642, -0.013672876791954091, -0.059451142975922786, 0.01214125463493697, -0.05228165938504124, -0.00033718737692843277, -0.03026239487112787, 0.02176235511580354, -0.035208844896872406, -0.023726430097022837, -0.005168711263688118, -0.0032839961604673976, 0.02457920610638551, 0.02880491835153232, -0.04423854325214333, 0.056071334130586625, 0.08765183191701809, 0.04106362363220442, -0.010665649191693069, 0.021341435042311497, 0.002830679087805317, 0.04606611920308184, -0.05605320252272166, 0.023869585200826392, 0.033714758891135996, -0.04054885735284849, 0.08283006078274524, 0.0033056835758285795, 0.09405183462754133, -0.017034172570854236, 0.03492397530553375, -0.07229536262933607, 0.028671516316353094, 0.01681220015915502, 0.03876510560800702, -0.058561472062226484, -0.06650753514815132, -0.012378420637106492, -0.02844228963810755, 0.04516752786132717, -0.04636946195164927, -0.006817368366049548, 0.02245737986101381, -0.021713769480113023, 0.02475618706221805, 0.010008173338391567, -0.008593230141713561, -0.0191762068408812, -0.06584666616355483, -0.001008037080559864, 0.060866497553058986, -0.011659392421073448, 0.03151109587559756, -0.007464946713231333, -0.01800871945918108, 0.043704668625992094, -0.02771645104551162, 0.021514230142188985, -0.003638776010636498, -0.0196021872746316, 0.0049081050542935595, 0.057663377478002986, 0.022305963087760946, 0.04931257345679937, 0.004836873214654642, 0.02981092836166469, 0.07467702866318508, 0.01353817795380011, 0.010164045386115211, 0.024882354187198176, -0.060518729302650405, 0.010468665752953708, -0.0029350895423347037, 0.005551797771387032, -0.035187993342933675, -0.05824920829728352, 0.0036953993267308098, 0.03426109250029847, -0.04907604927802627, -0.04939263826523985, -0.014368819959497492, 0.01900935214544974, -0.04325033647888131, -0.006665362023555059, -0.026067802252761698, 0.0034699390113890503, 0.019365291441641883, 0.06149361756884301, -0.02822245112685309, -0.044223540618102915, 0.019941213598774238, 0.014156663798841623, 0.00801434173690261, 0.04146109349474955, -0.044295603106808315, 0.011690496842227527, -0.04272403130596476, -0.0512746015800035, -0.03328696487433219, 0.03998416634998409, -0.10012901833373676, -0.01999005334737485, 0.024886582361480062, 0.049534497104337334, 0.04103072864210803, 0.009442783415813344, -0.04715787975887388, 0.009684874391177347, 0.0008487535845570328, 0.0037766997443495804, -0.040614419467627255, 0.01410540126345746, -0.0052668079505329, -0.019041805673932537, -0.031327336099298705, 0.020653994463262045, -0.01942200991838894, -0.011884860548393222, 0.0007912868475212804, 0.038930962731756544, -0.04101566958344075, -0.04374718072483787, 0.034809628084253676, 0.04691041064499441, 0.02002728311682655, -0.006577810649916054, 0.00966374574407506, -0.024245267924122786, 0.03700972714450264, 0.026588819284866182, -0.05837426370951269, -0.052293734463383416, 0.01742064072020261, 0.07429864288353938, 0.05516513706439547, -0.054041307408229426, 0.015992442155787392, 0.053989503361927524, 0.03958165266509941, 0.05186170493016367, -0.016764214829682364, 0.00515898922071011, 0.05485577913713263, 0.020266180745273806, -0.0119682867545418, 0.017493796090926786, 0.03517483338237615, -0.053455096646191344, 0.02212958068755777, 0.005304392249908537, -0.05975024211792363, -0.02447424496459433, -0.014835912480640433, -0.012856559223610712, 0.0014492561463781703, -0.03881047749000731, 0.010252669811400874, -0.023563381738856425, -0.009794015118212885, 0.010009362626198113, 0.05544814928318953, -0.04151636849671663, 0.03516616732425823, -0.04299108715527489, 0.024716205386304774, -0.018764465091764628, 0.02262352195954089, 0.02741312911696259, -0.014195997001509787, 0.021713021397137575, -0.055733666228870764, -0.08358483863648004, 0.003453818894317173, -0.0033284595663364176, -0.0068013037827838645, 0.0008741398415871536, 0.040968138387082624, -0.011885442478595127, 0.026739885189218774, 0.03691084548896162, -0.05037463499326234, -0.0072750018565893, 0.05540627727958426, 0.016599540233597547, 0.0007364164575279766, 0.048368990366747064, 0.041943637108303046, -0.05080475960923178, 0.0426227897155494, 0.009779142352805295, 0.008130934556624263, -0.03289387824255394, 0.027988064519327574, -0.04054545782764939, -0.02716727581655841, -0.07764683641127021, -0.033407083532264396, -0.004965232142773695, 0.025580594937069427, -0.019025603547178544, 0.04166790349880038, -0.02584882491313126, 0.022251163588507993, 0.007280188758533593, -0.06158712795096117, -0.008115888301958743, 0.002261677331032874, 0.039844441048075316, -0.002189336944985216, 0.02400386952047969, 0.04484555235283499, 0.016939805061687983, 0.02270284887671251, 0.05162905052152422, 0.011333409410395633, -0.03414507698874983, 0.03994571491849276, -0.005729766886154266, 0.049740620038464425, -0.057929406284196225, -0.006876888113070422, -0.08187051241235167, 0.017480753433572693, -0.026655753029415242, 0.013713446100389685, -0.052737920945935865, -0.00494260760664517, -0.0006704320685002494, -0.020775940991740897, -0.03391648651874578, 0.026750950537949934, 0.030115612891083075, 0.0031049435970157057, -0.0035062244553071024, -0.03196494349106331, 0.010190748121925159, 0.017335450215206976, -0.04042351158903031, 0.046238624962809546, -0.017724592340759772, 0.014662640669162565, -0.003130371135439774, 0.03471671585898839, -0.08359828748782319, 0.014881972858567705, -0.005680649203499693, -0.0037558306301515177, -0.013595777487522581, -0.09122228361088004, -0.04119526260411932, -0.04536211083260546, 0.004388409861341153, -0.0748052536641519, 0.03508839293669852, -0.0059640358736320264, 0.037788734315292484, 0.008769210222996187, -0.01380669683072087, -0.048139176046159284, 0.021949003056098124, -0.015447651284799937, -0.06522767375474776, -0.0476323626560984, 0.01095572358659261, 0.0043357110207676575, 0.058657181675010106, 0.021240313112942777, -0.10969017500554107, 0.03114435367437362, -0.0344516776345458, 0.08273805123292471, -0.016029626345317502, -0.05905384476613389, -0.0071243037134277295, -0.0006881798530557101, 0.010387858020861826, 0.0014251048292923852, -0.025037124293649803, -0.04844689462743531, 0.01430539583402064, 0.016552070392760222, -0.04816831743839777, 0.010757658478039929, 0.024452510869403185, -0.0016340549476884598, -0.0743726544510457, -0.014476440748110709, 0.015142525437026814, -0.06421322763140809, -0.015746505378300624, 0.04290682788100111, 0.028512861617744117, 0.07899969383929104, 0.0451898680518392, 0.008205930247555625, -0.016108056318682566, 0.03466113995914999, 0.036409550358909186, 0.061113471378392195, 0.009241181306913152, 0.04993072594432397, 0.03645141498400378, -0.021291229992021685, 0.030686126020290083, 0.016340945314513737, -0.054859930872067274, -0.023626382688315496, 0.0403724491537169, 0.025284795428748195, -0.04306896761897967, 0.020750734757959563, 0.03466171287110144, -0.04969119149052977, -0.030408752370152198, -0.034562282214124634, 0.05718679952126876, 0.08191213167470238, -0.048056608613302076, -0.003957025388613783, -0.015770367642632396, -0.04775991140519541, 0.016138881809332303, 0.047982109204458556, -0.003303690947056607, 0.014342639494073252, 0.05124231658041091, 0.008143044842944903, 0.027582701579027827, -0.009746898971799898, -0.014431552217472512, 0.01798023901267773, -0.05416857142499633, -0.02170370035447878, -0.0048915550022479125, -0.002503446556999153, 0.044822847479129964, 0.06242281076246034, -0.014864173572008582, -0.0245276547453688, -0.06521182156362026, 0.014626329548862877, -0.028500345987434825, 0.023622040614812666, -0.019479017608369644, -0.013895900811437776, 0.020771009866349294, 0.038305848640089235, -0.024508108738838717, 0.0020032173567914734, -0.03675839065597651, 0.0038724140572637166, 0.025992672619485933, -0.009284402910468996, 0.013401527922494246, -0.026935528024475, -0.024121902482184068, -0.010776759329856908, 0.032373325091267266, -0.01744393424304692, 0.03679007086803408, -0.00755827492971984, -0.053731078956838985, 0.03585351743181062, -0.014342987113423012, 0.025050214167505698, -0.0001607091601389467, -0.00704231980862647, 0.02970574566722492, -0.025349370027775972, -0.04000430306180259, 0.01760102908916285, -0.0933292821743632, 0.020458784965802352, -0.03024922387572729, 0.024252965365991877, -0.04270766505904375, 0.03966270410330455, 0.06990367540004261, -0.05118929259351972, 0.021738516728420854, 0.08089266673429304, -0.030835045527761017, -0.001506290266305864, 0.00914535248590579, -0.00031395766102847243, 0.006035592543034065, -0.024936190574793852, -0.005318815547626159, -0.008862292371980305, 0.0028208821210465094, -0.010814235385797379, 0.0855961102574334, -0.019796878109036603, -0.03553002625082835, -0.022502904476056153, 0.010635224390839412, -0.0012969335947875618, 0.02885496601982089, -0.059810178841999594, -0.0406805078004045, 0.0229379494349854, 0.041666147428063724, -0.015466714168959209, 0.01620732027116178, 0.011547848872033388, 0.03843182443770805, 0.04875454133405093, -0.051833559233472666, 0.015939247652055306, -0.0008924702726585159, -0.03267202416891245, -0.021186698027599513, 0.0963878957945142, 0.029074376274063698, -0.060177064135508246, -0.052615366757343233, -0.03052223449934702, -0.030143160604884024, -0.01657794031396765, 0.06912930997959085, -0.003685869192980372, 0.06122044340666107, -0.04017924162197113, 0.04799317015030143, -0.01148100027908883, -0.027754938610283955, 0.01841027921032913, -0.029418811005705828, -0.015331546049905007, 0.04282983960186285, 0.038163528596930604, -0.0013316785880341812, 0.025002576951029948, -0.0819180973024335, 0.030890855054010347, -0.021286988103686552, 0.051000976412308496, 0.0012327896359190735, 0.003231994404209802, -0.01693312117993041, -0.037539615266172686, -0.04563922723081416, 0.058280413155862354, -0.03844343165290827, -0.056122702949362495, 0.05605915445564893, 0.0036890021485841175, 0.024302481152851954, 0.0368444182735079, -0.04768758887301767, -0.07026676692886326, 0.0021277315777470346, -0.001956095833198497, -0.03178906276930778, -0.052176654783323576, -0.02365808583593791, 0.04473447334561354, 0.04565992343985217, -0.01768386856627216, -0.011263954112114638, -0.032140397694348954, -0.03532843995716161, 0.018152797682193765, 0.06909777452342575, -0.0003472180923835476, 0.01384684184167335, -0.0032466964037245034, 0.03049534083260064, -0.02445544735085652, -0.06881999875367402, -0.04417816617554614, 0.05741926854130502, -0.009454659064984371, -0.004098183562524125, -0.08174012985842408, 0.030157202320168636, -0.009132011077893045, -0.044098213436811126, 0.004766320312550174, -0.0045568987992339926, -0.01911351603216979, 0.02265762850043383, -0.07447659240288461, 0.049072337208082774, -0.006778103310601473, -0.0060218875729418685, -0.027249093952708622, 0.03081059798960931, -0.01436409197426576, 0.023687690891683703, -0.02440949548185279, -0.06386212541524929, -0.03149572559286225, 0.07379800855248847, 0.019567321948366013, 0.00248817041059295, 0.040599537752105716, -0.03207089800207796, 0.015211690040743514, -0.04589690381743285, 0.01921874955864792, -0.08058911739383604, -0.011930118691705913, 0.06732510440751627, 0.015610492618020978, -0.0162507442853983, -0.02048575333989087, 0.06527206632396748, -0.015511098550406955, 0.004174504965820783, -0.0422527151144974, -0.03355167258631813, 0.042235719521330845, 0.0401501535896788, 0.02966020130277727, -0.009367835577003842, -0.025725680290094068, 0.0071735092982334785, -0.017543503162134513, 0.0005478885963174939, 0.10554282635638502, 0.007946686116580975, -0.005050254729462501,